SVM-light Version V5.01-TK-1.2
0 # kernel type
3 # kernel parameter -d 
1 # kernel parameter -g 
1 # kernel parameter -s 
1 # kernel parameter -r 
empty# kernel parameter -u 
0.4 # kernel parameter -L 
1 # kernel parameter -T 
T # kernel parameter -C 
1 # kernel parameter -F 
0 # kernel parameter -S 
1.000000 # kernel parameter -D 
3 # kernel parameter -N 
S # kernel parameter -V 
S # kernel parameter -W 
145610 # highest feature index 
58555 # number of training documents 
2408 # number of support vectors plus 1 
4.8864962 # threshold b, each following line is a SV (starting with alpha*y)
-0.046283540144933084 14801:1 56276:1 103094:1 137394:1 137423:1 137424:1 137427:1 137437:1 137449:1 137472:1 137682:1 137844:1 138436:1 139539:1 139634:1 142231:1 144713:1 144722:1 144735:1 144892:1 145036:1 145175:1 145557:1 145568:1 145573:1 145579:1 145591:1 145600:1  |EV| 
-0.10000000000000001 4573:1 44922:1 90386:1 137394:1 137398:1 137435:1 137438:1 137839:1 137840:1 137841:1 139540:1 139634:1 144708:1 144722:1 144743:1 144875:1 145024:1 145167:1 145560:1 145568:1 145573:1 145579:1 145591:1 145600:1  |EV| 
-0.021824540583134006 39135:1 83375:1 135862:1 137394:1 137427:1 137438:1 137866:1 138422:1 139634:1 144705:1 144715:1 144722:1 144742:1 144879:1 145027:1 145176:1 145561:1 145568:1 145577:1 145579:1 145590:1 145591:1 145610:1  |EV| 
0.19303695729858369 8278:1 49048:1 94531:1 137394:1 137438:1 137539:1 139537:1 139634:1 142141:1 142232:1 144689:1 144690:1 144713:1 144722:1 144744:1 144873:1 145020:1 145173:1 145561:1 145568:1 145573:1 145579:1 145580:1 145591:1 145600:1  |EV| 
-0.095624102204383638 20777:1 62974:1 111165:1 137394:1 137415:1 137429:1 137438:1 137523:1 137529:1 137708:1 138139:1 138389:1 138525:1 138686:1 138687:1 139534:1 139634:1 143669:1 144019:1 144713:1 144722:1 144758:1 144877:1 145023:1 145200:1 145558:1 145564:1 145573:1 145579:1 145587:1 145591:1 145600:1  |EV| 
0.23309713357104941 41:1 40084:1 84561:1 137394:1 137395:1 137404:1 139534:1 139634:1 139644:1 142141:1 143669:1 144019:1 144709:1 144721:1 144737:1 144871:1 145023:1 145168:1 145560:1 145565:1 145573:1 145579:1 145590:1 145591:1 145600:1  |EV| 
0.093574883651803553 115:1 40158:1 84658:1 137403:1 137412:1 137413:1 137414:1 137415:1 137416:1 137417:1 139536:1 139634:1 139650:1 142146:1 143674:1 144025:1 144708:1 144722:1 144743:1 144890:1 145041:1 145167:1 145557:1 145568:1 145573:1 145579:1 145591:1 145593:1 145600:1  |EV| 
0.4305038392793506 190:1 40233:1 84773:1 137404:1 137405:1 137406:1 137407:1 139534:1 139635:1 139653:1 144676:1 144678:1 144696:1 144717:1 144722:1 144731:1 144871:1 145027:1 145181:1 145560:1 145570:1 145573:1 145579:1 145599:1 145600:1  |EV| 
0.44037756400214517 230:1 40273:1 84845:1 137394:1 137395:1 137398:1 137409:1 139634:1 144705:1 144715:1 144722:1 144723:1 144879:1 145027:1 145176:1 145558:1 145565:1 145577:1 145579:1 145580:1 145591:1 145610:1  |EV| 
0.28951779559570573 263:1 40306:1 84895:1 137394:1 137395:1 137396:1 137398:1 137404:1 137409:1 139535:1 139634:1 142147:1 144709:1 144721:1 144740:1 144891:1 145033:1 145168:1 145560:1 145565:1 145573:1 145579:1 145591:1 145600:1  |EV| 
-0.096740215513070882 89:1 40132:1 84623:1 137404:1 139634:1 142141:1 144705:1 144715:1 144722:1 144737:1 144879:1 145027:1 145176:1 145560:1 145565:1 145577:1 145579:1 145590:1 145591:1 145610:1  |EV| 
0.060422679427853676 36002:1 80070:1 132317:1 137412:1 137427:1 137438:1 137479:1 139319:1 139320:1 139543:1 139554:1 139634:1 144708:1 144722:1 144743:1 144875:1 145040:1 145167:1 145561:1 145568:1 145573:1 145579:1 145591:1 145600:1  |EV| 
-0.0021386723563760141 30381:1 73808:1 124314:1 137404:1 137427:1 137438:1 137444:1 139111:1 139112:1 139634:1 144705:1 144715:1 144722:1 144740:1 144879:1 145027:1 145176:1 145560:1 145568:1 145577:1 145579:1 145591:1 145597:1 145610:1  |EV| 
0.015446309413302793 22324:1 64683:1 113176:1 137394:1 137447:1 137693:1 139605:1 139634:1 143669:1 144411:1 144713:1 144722:1 144744:1 144873:1 145020:1 145173:1 145558:1 145568:1 145573:1 145579:1 145591:1 145600:1  |EV| 
-0.10000000000000001 9978:1 50938:1 84623:1 137404:1 139634:1 142163:1 144705:1 144715:1 144722:1 144737:1 144879:1 145027:1 145176:1 145560:1 145568:1 145577:1 145579:1 145591:1 145610:1  |EV| 
0.11782422292693751 2688:1 42873:1 87703:1 137394:1 137438:1 137706:1 139553:1 139634:1 142139:1 142239:1 143668:1 144070:1 144679:1 144708:1 144722:1 144723:1 144872:1 145021:1 145167:1 145561:1 145567:1 145573:1 145579:1 145590:1 145591:1 145600:1  |EV| 
0.12965744133079643 25059:1 67973:1 116943:1 137795:1 138855:1 138856:1 139543:1 139634:1 143668:1 144048:1 144708:1 144722:1 144723:1 144872:1 145021:1 145167:1 145557:1 145568:1 145573:1 145579:1 145591:1 145593:1 145600:1  |EV| 
0.029624472046778521 37990:1 82160:1 134651:1 137427:1 139371:1 139372:1 139591:1 139634:1 143795:1 144646:1 144708:1 144722:1 144723:1 144872:1 145021:1 145167:1 145557:1 145568:1 145573:1 145579:1 145591:1 145597:1 145600:1  |EV| 
0.076607621250040864 16450:1 58106:1 105773:1 137394:1 137438:1 137516:1 138378:1 138546:1 138547:1 139564:1 139634:1 143669:1 144086:1 144709:1 144721:1 144723:1 144874:1 145023:1 145168:1 145557:1 145568:1 145573:1 145579:1 145590:1 145591:1 145600:1  |EV| 
0.60000000000000009 11040:1 52128:1 84531:1 139553:1 139634:1 139640:1 143668:1 144070:1 144675:1 144677:1 144687:1 144718:1 144722:1 144731:1 144879:1 145021:1 145182:1 145563:1 145565:1 145573:1 145588:1 145591:1 145592:1 145600:1  |EV| 
-0.10000000000000001 31746:1 75303:1 94604:1 137394:1 137415:1 137437:1 139617:1 139634:1 142134:1 143669:1 144541:1 144709:1 144721:1 144727:1 144871:1 145033:1 145168:1 145561:1 145568:1 145573:1 145579:1 145580:1 145590:1 145591:1 145600:1  |EV| 
-0.10000000000000001 4426:1 44771:1 89963:1 137394:1 137437:1 137438:1 137716:1 139534:1 139634:1 142139:1 143669:1 144019:1 144709:1 144721:1 144723:1 144888:1 145033:1 145168:1 145561:1 145568:1 145573:1 145579:1 145580:1 145590:1 145591:1 145600:1  |EV| 
0.057499423760190821 31882:1 75446:1 126600:1 137394:1 139151:1 139539:1 139634:1 143669:1 144034:1 144713:1 144722:1 144738:1 144882:1 145033:1 145173:1 145560:1 145565:1 145573:1 145579:1 145591:1 145600:1  |EV| 
-0.10000000000000001 14242:1 55615:1 84531:1 139553:1 139634:1 139640:1 143668:1 144070:1 144675:1 144677:1 144687:1 144718:1 144722:1 144731:1 144879:1 145021:1 145182:1 145563:1 145568:1 145573:1 145588:1 145591:1 145593:1 145600:1  |EV| 
-0.10000000000000001 19768:1 61795:1 109746:1 137424:1 137438:1 138050:1 139601:1 139634:1 140328:1 142134:1 143670:1 144377:1 144709:1 144721:1 144727:1 144871:1 145033:1 145168:1 145561:1 145568:1 145573:1 145579:1 145582:1 145590:1 145591:1 145600:1  |EV| 
0.30887529541582875 26990:1 70032:1 119657:1 137395:1 137427:1 137437:1 137536:1 138412:1 138970:1 138971:1 139634:1 144705:1 144715:1 144722:1 144733:1 144879:1 145027:1 145176:1 145560:1 145568:1 145577:1 145579:1 145590:1 145591:1 145610:1  |EV| 
0.49694764847788248 7303:1 47896:1 93068:1 137394:1 137405:1 137427:1 137505:1 137656:1 137692:1 139634:1 144705:1 144715:1 144722:1 144740:1 144879:1 145027:1 145176:1 145558:1 145568:1 145577:1 145579:1 145591:1 145610:1  |EV| 
0.3191375208837296 34392:1 78287:1 130017:1 137394:1 137403:1 138671:1 139634:1 142138:1 144705:1 144715:1 144722:1 144724:1 144879:1 145027:1 145176:1 145557:1 145565:1 145577:1 145579:1 145591:1 145598:1 145610:1  |EV| 
0.44046380646996691 15482:1 56995:1 84954:1 137427:1 139634:1 144705:1 144715:1 144722:1 144737:1 144879:1 145027:1 145176:1 145560:1 145568:1 145577:1 145579:1 145591:1 145597:1 145610:1  |EV| 
0.44046380646997191 28730:1 71975:1 84954:1 137427:1 139634:1 144705:1 144715:1 144722:1 144737:1 144879:1 145027:1 145176:1 145560:1 145568:1 145577:1 145579:1 145591:1 145597:1 145610:1  |EV| 
-0.04152725154120919 6611:1 47100:1 92280:1 137413:1 137427:1 137444:1 137668:1 137699:1 139634:1 142163:1 144705:1 144715:1 144722:1 144742:1 144879:1 145027:1 145176:1 145560:1 145565:1 145577:1 145579:1 145591:1 145597:1 145610:1  |EV| 
-0.10000000000000001 15011:1 56496:1 84954:1 137427:1 139634:1 142855:1 144705:1 144715:1 144722:1 144737:1 144879:1 145027:1 145176:1 145560:1 145568:1 145577:1 145579:1 145591:1 145610:1  |EV| 
-0.10000000000000001 18043:1 59791:1 84954:1 137427:1 139634:1 144705:1 144715:1 144722:1 144737:1 144879:1 145027:1 145176:1 145560:1 145568:1 145577:1 145579:1 145591:1 145610:1  |EV| 
-0.10000000000000001 21986:1 64305:1 84954:1 137427:1 139634:1 144705:1 144715:1 144722:1 144737:1 144879:1 145027:1 145176:1 145560:1 145568:1 145577:1 145579:1 145591:1 145610:1  |EV| 
0.095673638573689587 30382:1 73809:1 85503:1 137394:1 139543:1 139634:1 142147:1 144713:1 144722:1 144745:1 144873:1 145033:1 145173:1 145558:1 145565:1 145573:1 145579:1 145586:1 145591:1 145592:1 145600:1  |EV| 
0.60000000000000009 22024:1 64352:1 84531:1 139543:1 139634:1 139640:1 143668:1 144048:1 144675:1 144677:1 144687:1 144718:1 144722:1 144731:1 144879:1 145021:1 145182:1 145563:1 145568:1 145573:1 145588:1 145591:1 145600:1  |EV| 
0.31135477732800626 19650:1 61653:1 109559:1 138050:1 139543:1 139634:1 139654:1 142134:1 143668:1 144048:1 144708:1 144722:1 144727:1 144885:1 145021:1 145167:1 145561:1 145568:1 145573:1 145579:1 145582:1 145590:1 145591:1 145600:1  |EV| 
0.44888336796504447 11553:1 52734:1 99071:1 138223:1 139553:1 139634:1 139638:1 143670:1 144245:1 144675:1 144677:1 144687:1 144718:1 144722:1 144731:1 144879:1 145030:1 145182:1 145563:1 145567:1 145573:1 145588:1 145590:1 145591:1 145600:1  |EV| 
0.39622011649096817 6294:1 46739:1 88753:1 137429:1 139572:1 139634:1 139641:1 143669:1 144148:1 144675:1 144677:1 144687:1 144716:1 144722:1 144731:1 144879:1 145033:1 145177:1 145563:1 145568:1 145573:1 145588:1 145591:1 145600:1  |EV| 
0.60000000000000009 28445:1 71669:1 84903:1 137394:1 139534:1 139634:1 139641:1 143669:1 144019:1 144675:1 144677:1 144687:1 144716:1 144722:1 144731:1 144879:1 145033:1 145177:1 145563:1 145565:1 145573:1 145588:1 145590:1 145591:1 145600:1  |EV| 
-0.079547464150708763 18604:1 60453:1 84531:1 139543:1 139634:1 139640:1 143668:1 144048:1 144675:1 144677:1 144687:1 144718:1 144722:1 144731:1 144879:1 145021:1 145182:1 145563:1 145568:1 145573:1 145588:1 145590:1 145591:1 145597:1 145600:1  |EV| 
-0.079547464150687058 4736:1 64286:1 84531:1 139543:1 139634:1 139640:1 143668:1 144048:1 144675:1 144677:1 144687:1 144718:1 144722:1 144731:1 144879:1 145021:1 145182:1 145563:1 145568:1 145573:1 145588:1 145590:1 145591:1 145597:1 145600:1  |EV| 
0.054549548953021915 39175:1 83419:1 136396:1 137394:1 137403:1 137890:1 139537:1 139634:1 139636:1 142134:1 143669:1 144027:1 144713:1 144722:1 144744:1 144893:1 145033:1 145173:1 145557:1 145568:1 145573:1 145579:1 145591:1 145600:1  |EV| 
-0.044517044956201471 270:1 40313:1 84903:1 137394:1 139535:1 139634:1 144675:1 144677:1 144687:1 144716:1 144722:1 144731:1 144879:1 145033:1 145177:1 145563:1 145565:1 145573:1 145588:1 145591:1 145600:1  |EV| 
0.42887325069875576 22029:1 64359:1 112840:1 137398:1 137403:1 137415:1 137427:1 137437:1 137447:1 137472:1 137552:1 137618:1 137620:1 137644:1 138129:1 138471:1 138722:1 138727:1 138755:1 139634:1 142160:1 144705:1 144715:1 144722:1 144764:1 144879:1 145027:1 145197:1 145560:1 145568:1 145577:1 145579:1 145591:1 145610:1  |EV| 
0.35662632596349852 12321:1 53595:1 100046:1 137404:1 137427:1 137437:1 137537:1 139634:1 144684:1 144705:1 144715:1 144722:1 144723:1 144879:1 145027:1 145176:1 145561:1 145568:1 145577:1 145579:1 145586:1 145591:1 145592:1 145610:1  |EV| 
0.24645749579489803 20582:1 62742:1 110882:1 137403:1 137413:1 137415:1 137423:1 137424:1 137427:1 137437:1 137441:1 137443:1 137447:1 137472:1 137493:1 137527:1 137531:1 137544:1 137615:1 137710:1 137833:1 138066:1 138143:1 138185:1 138264:1 138267:1 138689:1 138690:1 138691:1 138697:1 139634:1 144705:1 144715:1 144722:1 144779:1 144879:1 145027:1 145236:1 145560:1 145568:1 145577:1 145579:1 145591:1 145610:1  |EV| 
0.38384825289753299 8624:1 49404:1 90531:1 137472:1 139634:1 142160:1 144705:1 144715:1 144722:1 144737:1 144879:1 145027:1 145176:1 145560:1 145568:1 145577:1 145579:1 145591:1 145610:1  |EV| 
0.45461467538182626 21781:1 64082:1 95644:1 137427:1 137437:1 137447:1 138129:1 139634:1 144705:1 144715:1 144722:1 144723:1 144879:1 145027:1 145176:1 145560:1 145568:1 145577:1 145579:1 145591:1 145610:1  |EV| 
-0.10000000000000001 230:1 62890:1 130551:1 137424:1 137516:1 137893:1 138401:1 139634:1 144705:1 144715:1 144722:1 144723:1 144879:1 145027:1 145176:1 145558:1 145565:1 145577:1 145579:1 145591:1 145610:1  |EV| 
-0.08181740987637201 205:1 40248:1 84801:1 137403:1 137412:1 137413:1 137414:1 137415:1 137416:1 137417:1 137422:1 139634:1 142146:1 144705:1 144715:1 144722:1 144743:1 144879:1 145027:1 145176:1 145557:1 145568:1 145577:1 145579:1 145591:1 145593:1 145610:1  |EV| 
-0.10000000000000001 21482:1 63758:1 112121:1 137403:1 137415:1 137427:1 137437:1 137447:1 137472:1 137552:1 137618:1 137620:1 137644:1 138129:1 138471:1 138722:1 138727:1 138755:1 139534:1 139634:1 142160:1 144708:1 144722:1 144764:1 144890:1 145054:1 145190:1 145560:1 145568:1 145573:1 145579:1 145591:1 145600:1  |EV| 
-0.10000000000000001 15834:1 57363:1 104851:1 137423:1 137472:1 137788:1 139537:1 139633:1 144708:1 144722:1 144723:1 144885:1 145041:1 145167:1 145560:1 145568:1 145573:1 145579:1 145591:1 145600:1  |EV| 
-0.10000000000000001 167:1 40210:1 84737:1 137394:1 137395:1 137409:1 139534:1 139634:1 144708:1 144722:1 144723:1 144875:1 145030:1 145167:1 145558:1 145565:1 145573:1 145579:1 145580:1 145591:1 145600:1  |EV| 
0.60000000000000009 5750:1 46163:1 91376:1 137516:1 139540:1 139634:1 144675:1 144677:1 144687:1 144718:1 144722:1 144731:1 144879:1 145030:1 145182:1 145563:1 145564:1 145573:1 145588:1 145591:1 145600:1  |EV| 
0.23967361506439303 5741:1 46153:1 91366:1 137446:1 137447:1 137571:1 137927:1 139550:1 139634:1 139976:1 143730:1 144137:1 144675:1 144677:1 144687:1 144718:1 144722:1 144731:1 144879:1 145040:1 145182:1 145563:1 145565:1 145573:1 145588:1 145591:1 145595:1 145600:1  |EV| 
-0.10000000000000001 25378:1 68313:1 117297:1 137505:1 139572:1 139634:1 144675:1 144677:1 144687:1 144718:1 144722:1 144731:1 144879:1 145030:1 145182:1 145563:1 145564:1 145573:1 145588:1 145591:1 145597:1 145600:1  |EV| 
-0.0095353447306501752 3584:1 43819:1 88705:1 137429:1 137437:1 137448:1 137758:1 137772:1 137795:1 137796:1 137797:1 139539:1 139634:1 142259:1 144713:1 144722:1 144755:1 144876:1 145020:1 145175:1 145557:1 145568:1 145573:1 145579:1 145591:1 145600:1  |EV| 
-0.046018480488682137 16506:1 58162:1 105824:1 137536:1 139591:1 139634:1 139731:1 143692:1 144338:1 144675:1 144677:1 144687:1 144718:1 144722:1 144731:1 144879:1 145030:1 145182:1 145563:1 145568:1 145573:1 145588:1 145591:1 145600:1  |EV| 
-0.10000000000000001 37024:1 81124:1 84531:1 139591:1 139634:1 140384:1 143795:1 144646:1 144675:1 144677:1 144687:1 144718:1 144722:1 144731:1 144879:1 145021:1 145182:1 145563:1 145568:1 145573:1 145588:1 145591:1 145597:1 145600:1  |EV| 
-0.009926766840723994 26405:1 69430:1 118737:1 137394:1 137424:1 137427:1 137438:1 137441:1 137443:1 137470:1 137487:1 137523:1 137529:1 137530:1 137531:1 137547:1 137548:1 137753:1 137866:1 138377:1 138412:1 138923:1 138938:1 138953:1 138954:1 138955:1 138956:1 138957:1 139609:1 139634:1 142651:1 143668:1 144466:1 144690:1 144708:1 144722:1 144786:1 144915:1 145030:1 145252:1 145560:1 145568:1 145573:1 145579:1 145591:1 145600:1  |EV| 
0.097841751768734581 230:1 62890:1 86001:1 137394:1 137438:1 139634:1 142134:1 144705:1 144711:1 144722:1 144745:1 144879:1 145027:1 145183:1 145561:1 145565:1 145577:1 145579:1 145580:1 145590:1 145591:1 145610:1  |EV| 
0.11709187474645617 3115:1 43329:1 86001:1 137394:1 137438:1 139634:1 142134:1 144705:1 144711:1 144722:1 144745:1 144879:1 145027:1 145183:1 145558:1 145568:1 145577:1 145579:1 145580:1 145584:1 145591:1 145610:1  |EV| 
0.45703058954868137 30148:1 73542:1 124016:1 137415:1 137438:1 137614:1 139078:1 139634:1 142134:1 144705:1 144711:1 144722:1 144744:1 144879:1 145027:1 145183:1 145561:1 145568:1 145577:1 145579:1 145580:1 145591:1 145610:1  |EV| 
0.10551269254581924 34155:1 77981:1 86001:1 137394:1 137438:1 139634:1 142134:1 144705:1 144711:1 144722:1 144745:1 144879:1 145027:1 145183:1 145558:1 145565:1 145577:1 145579:1 145590:1 145591:1 145610:1  |EV| 
-0.10000000000000001 25874:1 68848:1 86001:1 137394:1 137438:1 139634:1 142134:1 142147:1 144688:1 144705:1 144711:1 144722:1 144745:1 144879:1 145027:1 145183:1 145561:1 145568:1 145577:1 145579:1 145591:1 145610:1  |EV| 
-0.10000000000000001 28778:1 72029:1 86001:1 137394:1 137438:1 139634:1 142134:1 142147:1 144705:1 144711:1 144722:1 144745:1 144879:1 145027:1 145183:1 145558:1 145565:1 145577:1 145579:1 145580:1 145591:1 145610:1  |EV| 
-0.10000000000000001 1227:1 41357:1 86001:1 137394:1 137438:1 139634:1 142134:1 144705:1 144711:1 144722:1 144745:1 144879:1 145027:1 145183:1 145561:1 145565:1 145577:1 145579:1 145591:1 145610:1  |EV| 
-0.10000000000000001 5848:1 46268:1 86001:1 137394:1 137438:1 139634:1 142134:1 144705:1 144711:1 144722:1 144745:1 144879:1 145027:1 145183:1 145561:1 145565:1 145577:1 145579:1 145586:1 145591:1 145610:1  |EV| 
-0.10000000000000001 23594:1 66210:1 86001:1 137394:1 137438:1 139634:1 142134:1 144705:1 144711:1 144722:1 144745:1 144879:1 145027:1 145183:1 145561:1 145565:1 145577:1 145579:1 145580:1 145591:1 145610:1  |EV| 
-0.005414724948913068 5169:1 45550:1 87234:1 139540:1 139634:1 142142:1 144709:1 144721:1 144751:1 144885:1 145047:1 145168:1 145562:1 145564:1 145573:1 145579:1 145583:1 145595:1 145600:1  |EV| 
0.038034764378148407 23743:1 66418:1 115145:1 137427:1 137472:1 137835:1 139540:1 139634:1 139685:1 142163:1 143676:1 144029:1 144708:1 144722:1 144723:1 144875:1 145030:1 145167:1 145560:1 145568:1 145573:1 145579:1 145591:1 145600:1  |EV| 
-0.0068797502705025991 22234:1 64578:1 113068:1 137394:1 137403:1 137404:1 137415:1 137424:1 137427:1 137512:1 137604:1 137757:1 137816:1 138766:1 138767:1 138768:1 138769:1 138770:1 138771:1 138772:1 139564:1 139634:1 143669:1 144086:1 144709:1 144721:1 144750:1 144895:1 145033:1 145204:1 145557:1 145568:1 145573:1 145579:1 145591:1 145600:1  |EV| 
0.0054592023303890415 15370:1 56880:1 103956:1 137427:1 137472:1 137941:1 139540:1 139634:1 139685:1 142163:1 143676:1 144029:1 144690:1 144708:1 144722:1 144723:1 144875:1 145030:1 145167:1 145560:1 145568:1 145573:1 145579:1 145591:1 145600:1  |EV| 
0.11276499285358718 23142:1 65638:1 114200:1 137404:1 137427:1 137637:1 139540:1 139634:1 144708:1 144722:1 144723:1 144875:1 145030:1 145167:1 145560:1 145568:1 145573:1 145579:1 145591:1 145593:1 145600:1  |EV| 
-0.10000000000000001 24380:1 67193:1 89147:1 137404:1 137427:1 139540:1 139634:1 139685:1 142163:1 143676:1 144029:1 144688:1 144691:1 144708:1 144722:1 144724:1 144885:1 145030:1 145167:1 145560:1 145568:1 145573:1 145579:1 145591:1 145600:1  |EV| 
-0.10000000000000001 21249:1 63510:1 111819:1 137413:1 137427:1 137447:1 137472:1 138736:1 139540:1 139634:1 142376:1 143676:1 144029:1 144708:1 144722:1 144740:1 144871:1 145030:1 145167:1 145560:1 145564:1 145573:1 145579:1 145591:1 145600:1  |EV| 
-0.10000000000000001 21491:1 63767:1 112129:1 137398:1 137403:1 137415:1 137427:1 137437:1 137447:1 137472:1 137552:1 137618:1 137620:1 137644:1 138129:1 138471:1 138722:1 138727:1 139604:1 139634:1 142160:1 144708:1 144722:1 144764:1 144872:1 145026:1 145190:1 145560:1 145568:1 145573:1 145579:1 145591:1 145600:1  |EV| 
-0.10000000000000001 4003:1 44276:1 89278:1 137427:1 137449:1 137472:1 137505:1 137637:1 139540:1 139634:1 144708:1 144722:1 144740:1 144872:1 145041:1 145167:1 145560:1 145568:1 145573:1 145579:1 145591:1 145600:1  |EV| 
-0.10000000000000001 22553:1 64938:1 113431:1 137415:1 137427:1 137472:1 137832:1 137835:1 138185:1 138804:1 139540:1 139634:1 144708:1 144722:1 144733:1 144875:1 145035:1 145167:1 145560:1 145568:1 145573:1 145579:1 145591:1 145600:1  |EV| 
0.27483977712253432 3531:1 43763:1 86001:1 137394:1 137438:1 139634:1 142134:1 142221:1 144688:1 144705:1 144711:1 144722:1 144745:1 144879:1 145027:1 145183:1 145561:1 145565:1 145577:1 145579:1 145580:1 145591:1 145610:1  |EV| 
0.2227764343682414 3961:1 44229:1 86001:1 137394:1 137438:1 139634:1 142134:1 144705:1 144711:1 144722:1 144745:1 144879:1 145027:1 145183:1 145561:1 145565:1 145577:1 145579:1 145580:1 145591:1 145610:1  |EV| 
0.11899007254108064 11343:1 52497:1 86001:1 137394:1 137438:1 139634:1 142134:1 144705:1 144711:1 144722:1 144745:1 144879:1 145027:1 145183:1 145561:1 145565:1 145577:1 145579:1 145586:1 145591:1 145610:1  |EV| 
0.076182365845809855 2442:1 42615:1 86001:1 137394:1 137438:1 139634:1 142134:1 142221:1 144691:1 144705:1 144711:1 144722:1 144745:1 144879:1 145027:1 145183:1 145558:1 145565:1 145577:1 145579:1 145587:1 145591:1 145610:1  |EV| 
-0.10000000000000001 39490:1 83779:1 86001:1 137394:1 137438:1 139634:1 142134:1 144705:1 144711:1 144722:1 144745:1 144879:1 145027:1 145183:1 145561:1 145565:1 145577:1 145579:1 145580:1 145591:1 145610:1  |EV| 
-0.10000000000000001 6272:1 46714:1 86001:1 137394:1 137438:1 139634:1 142134:1 144705:1 144711:1 144722:1 144745:1 144879:1 145027:1 145183:1 145558:1 145565:1 145577:1 145579:1 145587:1 145591:1 145610:1  |EV| 
-0.10000000000000001 22926:1 65376:1 86001:1 137394:1 137438:1 139634:1 142134:1 144705:1 144711:1 144722:1 144745:1 144879:1 145027:1 145183:1 145558:1 145565:1 145577:1 145579:1 145586:1 145591:1 145610:1  |EV| 
-0.10000000000000001 27252:1 70312:1 86001:1 137394:1 137438:1 139634:1 142134:1 142141:1 142934:1 144690:1 144705:1 144711:1 144722:1 144745:1 144879:1 145027:1 145183:1 145558:1 145565:1 145577:1 145579:1 145580:1 145591:1 145610:1  |EV| 
0.39204152886420768 10018:1 50995:1 96867:1 137394:1 137427:1 137449:1 137522:1 137523:1 138078:1 139537:1 139634:1 143669:1 144027:1 144709:1 144721:1 144740:1 144874:1 145047:1 145168:1 145560:1 145568:1 145573:1 145579:1 145591:1 145600:1  |EV| 
0.30400034764509187 39001:1 83226:1 135886:1 137427:1 137472:1 137603:1 139537:1 139634:1 143669:1 144027:1 144709:1 144721:1 144724:1 144871:1 145047:1 145168:1 145557:1 145568:1 145573:1 145579:1 145584:1 145591:1 145600:1  |EV| 
0.27468875690577538 9405:1 50222:1 95937:1 137427:1 137437:1 137447:1 137472:1 137727:1 138129:1 138130:1 139537:1 139634:1 139706:1 142191:1 143669:1 144027:1 144709:1 144721:1 144743:1 144881:1 145047:1 145168:1 145560:1 145568:1 145573:1 145579:1 145591:1 145600:1  |EV| 
0.19972609221965387 32167:1 75748:1 85464:1 137427:1 137472:1 139538:1 139634:1 142193:1 144709:1 144721:1 144727:1 144872:1 145047:1 145168:1 145560:1 145568:1 145573:1 145579:1 145591:1 145600:1  |EV| 
0.12190660750460444 31965:1 75535:1 126727:1 137415:1 137427:1 137448:1 137472:1 137536:1 137552:1 137584:1 137835:1 138106:1 139540:1 139634:1 142415:1 143687:1 144054:1 144708:1 144722:1 144760:1 144874:1 145041:1 145205:1 145560:1 145568:1 145573:1 145579:1 145591:1 145600:1  |EV| 
-0.0054141183248647478 3513:1 71795:1 87234:1 139540:1 139634:1 142142:1 144709:1 144721:1 144751:1 144885:1 145047:1 145168:1 145562:1 145564:1 145573:1 145579:1 145583:1 145595:1 145600:1  |EV| 
-0.07690916269076091 9185:1 49984:1 95691:1 137427:1 137437:1 137447:1 137472:1 137727:1 137919:1 138129:1 138130:1 138131:1 139537:1 139634:1 143669:1 144027:1 144709:1 144721:1 144736:1 144907:1 145047:1 145189:1 145560:1 145568:1 145573:1 145579:1 145591:1 145600:1  |EV| 
-0.10000000000000001 18935:1 60811:1 108554:1 137427:1 137470:1 137486:1 137643:1 139537:1 139634:1 143669:1 144027:1 144681:1 144685:1 144709:1 144721:1 144723:1 144890:1 145047:1 145168:1 145560:1 145568:1 145573:1 145579:1 145591:1 145600:1  |EV| 
0.013494379319515568 4119:1 44409:1 89452:1 137415:1 137447:1 137448:1 137813:1 139541:1 139634:1 143669:1 144036:1 144713:1 144722:1 144728:1 144886:1 145033:1 145173:1 145561:1 145568:1 145573:1 145579:1 145591:1 145600:1  |EV| 
-0.10000000000000001 21298:1 63561:1 84938:1 137427:1 139537:1 139634:1 143669:1 144027:1 144709:1 144721:1 144737:1 144875:1 145047:1 145168:1 145560:1 145568:1 145573:1 145579:1 145591:1 145600:1  |EV| 
0.29521221664720981 9579:1 50435:1 96158:1 137427:1 137437:1 137447:1 138129:1 139537:1 139634:1 143669:1 144027:1 144709:1 144721:1 144723:1 144890:1 145047:1 145168:1 145562:1 145568:1 145573:1 145579:1 145583:1 145591:1 145600:1  |EV| 
0.090957781863052312 20163:1 62274:1 111385:1 137394:1 137423:1 137424:1 137427:1 137437:1 137447:1 137472:1 137493:1 137527:1 137531:1 137544:1 137710:1 138143:1 138185:1 138264:1 138267:1 138689:1 138690:1 138691:1 139537:1 139634:1 143669:1 144027:1 144709:1 144721:1 144776:1 144935:1 145033:1 145225:1 145562:1 145568:1 145573:1 145579:1 145583:1 145591:1 145600:1  |EV| 
0.24949735770002099 3379:1 43597:1 88438:1 137394:1 137404:1 137427:1 137438:1 137751:1 139537:1 139634:1 139644:1 142141:1 143669:1 144027:1 144709:1 144721:1 144723:1 144888:1 145033:1 145168:1 145562:1 145568:1 145573:1 145579:1 145583:1 145591:1 145600:1  |EV| 
0.36723428694022248 25163:1 68084:1 90149:1 137394:1 137427:1 139537:1 139634:1 143669:1 144027:1 144709:1 144721:1 144737:1 144872:1 145033:1 145168:1 145557:1 145564:1 145573:1 145579:1 145584:1 145591:1 145600:1  |EV| 
-0.10000000000000001 8699:1 49481:1 90802:1 137394:1 137427:1 137472:1 139537:1 139634:1 139644:1 142141:1 143669:1 144027:1 144709:1 144721:1 144727:1 144871:1 145033:1 145168:1 145562:1 145568:1 145573:1 145579:1 145583:1 145591:1 145600:1  |EV| 
-0.10000000000000001 20822:1 63024:1 111222:1 137394:1 137403:1 137413:1 137415:1 137423:1 137424:1 137427:1 137437:1 137441:1 137443:1 137447:1 137472:1 137493:1 137527:1 137531:1 137544:1 137615:1 137710:1 137833:1 138066:1 138143:1 138185:1 138264:1 138267:1 138689:1 138690:1 138691:1 138697:1 139537:1 139634:1 143669:1 144027:1 144709:1 144721:1 144779:1 144936:1 145033:1 145276:1 145560:1 145568:1 145573:1 145579:1 145591:1 145600:1  |EV| 
-0.10000000000000001 19072:1 62512:1 110615:1 137394:1 137427:1 137472:1 137493:1 137527:1 137531:1 138689:1 139537:1 139634:1 143669:1 144027:1 144709:1 144721:1 144726:1 144881:1 145033:1 145168:1 145560:1 145568:1 145573:1 145579:1 145591:1 145600:1  |EV| 
-0.0040729059852424266 4896:1 45255:1 103127:1 137394:1 137403:1 137427:1 137843:1 138429:1 138430:1 139537:1 139634:1 143669:1 144027:1 144709:1 144721:1 144742:1 144874:1 145033:1 145168:1 145557:1 145568:1 145573:1 145579:1 145591:1 145600:1  |EV| 
-0.10000000000000001 15846:1 57376:1 104883:1 137394:1 137427:1 137843:1 138429:1 139537:1 139634:1 143669:1 144027:1 144709:1 144721:1 144724:1 144890:1 145033:1 145168:1 145557:1 145568:1 145573:1 145579:1 145591:1 145600:1  |EV| 
0.082954078471357162 29612:1 72959:1 86001:1 137394:1 137438:1 139634:1 142134:1 144705:1 144711:1 144722:1 144745:1 144879:1 145027:1 145183:1 145561:1 145568:1 145577:1 145579:1 145586:1 145591:1 145610:1  |EV| 
0.18678018779103842 3838:1 44091:1 86001:1 137394:1 137438:1 139634:1 142134:1 144705:1 144711:1 144722:1 144745:1 144879:1 145027:1 145183:1 145561:1 145568:1 145577:1 145579:1 145580:1 145591:1 145610:1  |EV| 
0.20577261850241238 7165:1 47733:1 86001:1 137394:1 137438:1 139634:1 142134:1 144705:1 144711:1 144722:1 144745:1 144879:1 145027:1 145183:1 145561:1 145568:1 145577:1 145579:1 145580:1 145581:1 145591:1 145610:1  |EV| 
0.18678018779103842 11619:1 52817:1 86001:1 137394:1 137438:1 139634:1 142134:1 144705:1 144711:1 144722:1 144745:1 144879:1 145027:1 145183:1 145561:1 145568:1 145577:1 145579:1 145580:1 145591:1 145610:1  |EV| 
-0.10000000000000001 26425:1 69450:1 86001:1 137394:1 137438:1 139634:1 142134:1 144705:1 144711:1 144722:1 144745:1 144879:1 145027:1 145183:1 145561:1 145568:1 145577:1 145579:1 145580:1 145581:1 145591:1 145610:1  |EV| 
-0.10000000000000001 20098:1 62194:1 86001:1 137394:1 137438:1 139634:1 142134:1 144705:1 144711:1 144722:1 144745:1 144879:1 145027:1 145183:1 145561:1 145568:1 145577:1 145579:1 145580:1 145586:1 145591:1 145610:1  |EV| 
-0.10000000000000001 26172:1 69166:1 86001:1 137394:1 137438:1 139634:1 142134:1 144705:1 144711:1 144722:1 144745:1 144879:1 145027:1 145183:1 145561:1 145568:1 145577:1 145579:1 145580:1 145591:1 145610:1  |EV| 
-0.10000000000000001 21642:1 63930:1 86001:1 137394:1 137438:1 139634:1 142134:1 144705:1 144711:1 144722:1 144745:1 144879:1 145027:1 145183:1 145561:1 145564:1 145577:1 145579:1 145580:1 145586:1 145591:1 145610:1  |EV| 
-0.017015223799683728 14969:1 56451:1 103326:1 137394:1 137450:1 137472:1 139549:1 139634:1 139675:1 142152:1 143669:1 144052:1 144713:1 144722:1 144744:1 144893:1 145033:1 145173:1 145557:1 145565:1 145573:1 145586:1 145591:1 145600:1  |EV| 
0.080499572916828438 38829:1 83027:1 135503:1 137394:1 137403:1 137427:1 137481:1 137718:1 137721:1 137853:1 137972:1 138423:1 139537:1 139634:1 143669:1 144027:1 144709:1 144721:1 144733:1 144884:1 145033:1 145171:1 145558:1 145565:1 145573:1 145579:1 145591:1 145600:1  |EV| 
0.037452475018192835 39258:1 83513:1 136012:1 137394:1 137427:1 137481:1 137718:1 137721:1 137972:1 138423:1 139537:1 139634:1 143669:1 144027:1 144709:1 144721:1 144726:1 144881:1 145033:1 145168:1 145557:1 145565:1 145573:1 145579:1 145591:1 145600:1  |EV| 
0.15810587525010483 7460:1 48066:1 93257:1 137394:1 137470:1 137718:1 137721:1 137772:1 139537:1 139634:1 143669:1 144027:1 144709:1 144721:1 144723:1 144888:1 145033:1 145168:1 145557:1 145565:1 145573:1 145579:1 145590:1 145591:1 145600:1  |EV| 
0.39964417461902246 39684:1 84029:1 136665:1 137394:1 137403:1 137427:1 139529:1 139537:1 139634:1 143669:1 144027:1 144709:1 144721:1 144742:1 144874:1 145033:1 145168:1 145561:1 145568:1 145573:1 145579:1 145580:1 145591:1 145600:1  |EV| 
-0.10000000000000001 16165:1 57771:1 105393:1 137394:1 137427:1 137438:1 137731:1 138482:1 139537:1 139634:1 143669:1 144027:1 144709:1 144721:1 144742:1 144874:1 145033:1 145168:1 145561:1 145568:1 145573:1 145579:1 145590:1 145591:1 145600:1  |EV| 
-0.10000000000000001 27428:1 70503:1 120614:1 137394:1 137403:1 138595:1 138998:1 139537:1 139634:1 143669:1 144027:1 144709:1 144721:1 144723:1 144888:1 145033:1 145168:1 145557:1 145568:1 145573:1 145579:1 145591:1 145600:1  |EV| 
-0.10000000000000001 2855:1 43065:1 87884:1 137470:1 139560:1 139634:1 143669:1 144073:1 144713:1 144722:1 144745:1 144873:1 145033:1 145173:1 145557:1 145564:1 145573:1 145584:1 145591:1 145600:1  |EV| 
-0.10000000000000001 7459:1 48065:1 93256:1 137394:1 137437:1 137470:1 137718:1 137721:1 137772:1 139546:1 139634:1 143670:1 144183:1 144709:1 144721:1 144723:1 144874:1 145023:1 145168:1 145557:1 145565:1 145573:1 145579:1 145590:1 145591:1 145600:1  |EV| 
-0.098243211496699179 31244:1 74781:1 125525:1 137394:1 137427:1 137438:1 137444:1 137472:1 137629:1 139537:1 139634:1 143669:1 144027:1 144709:1 144721:1 144742:1 144874:1 145033:1 145168:1 145562:1 145568:1 145573:1 145579:1 145583:1 145590:1 145591:1 145600:1  |EV| 
0.070522992622032626 6808:1 47331:1 86001:1 137394:1 137438:1 139634:1 142134:1 144705:1 144711:1 144722:1 144745:1 144879:1 145027:1 145183:1 145558:1 145568:1 145577:1 145579:1 145586:1 145591:1 145610:1  |EV| 
0.20620423419146661 37332:1 81454:1 86001:1 137394:1 137438:1 139634:1 142134:1 144705:1 144711:1 144722:1 144745:1 144879:1 145027:1 145183:1 145561:1 145568:1 145577:1 145579:1 145580:1 145581:1 145591:1 145610:1  |EV| 
0.18676592201579434 17205:1 58868:1 86001:1 137394:1 137438:1 139634:1 142134:1 144705:1 144711:1 144722:1 144745:1 144879:1 145027:1 145183:1 145561:1 145568:1 145577:1 145579:1 145580:1 145591:1 145610:1  |EV| 
0.18678018779103575 8465:1 73042:1 86001:1 137394:1 137438:1 139634:1 142134:1 144705:1 144711:1 144722:1 144745:1 144879:1 145027:1 145183:1 145561:1 145568:1 145577:1 145579:1 145580:1 145591:1 145610:1  |EV| 
0.1867804929038259 36126:1 80194:1 86001:1 137394:1 137438:1 139634:1 142134:1 144705:1 144711:1 144722:1 144745:1 144879:1 145027:1 145183:1 145561:1 145568:1 145577:1 145579:1 145580:1 145591:1 145610:1  |EV| 
0.044136666444047901 3200:1 43414:1 88236:1 137394:1 137415:1 137718:1 137721:1 137769:1 137772:1 139538:1 139543:1 139565:1 139634:1 143669:1 143670:1 144045:1 144096:1 144697:1 144709:1 144721:1 144723:1 144874:1 145023:1 145168:1 145557:1 145568:1 145573:1 145579:1 145591:1 145600:1  |EV| 
0.38018337449369016 36060:1 80128:1 132389:1 137394:1 137396:1 137415:1 137419:1 137438:1 137516:1 138215:1 139341:1 139539:1 139634:1 142477:1 143669:1 144034:1 144709:1 144721:1 144733:1 144884:1 145033:1 145171:1 145557:1 145565:1 145573:1 145579:1 145590:1 145591:1 145600:1  |EV| 
0.15850923078205703 27783:1 70917:1 121073:1 137394:1 137472:1 137776:1 139566:1 139634:1 143338:1 144709:1 144721:1 144727:1 144871:1 145033:1 145168:1 145560:1 145565:1 145573:1 145579:1 145591:1 145600:1  |EV| 
-0.10000000000000001 10344:1 51366:1 98552:1 137394:1 137427:1 137466:1 139539:1 139634:1 143669:1 144034:1 144709:1 144721:1 144727:1 144871:1 145033:1 145168:1 145560:1 145565:1 145573:1 145579:1 145591:1 145600:1  |EV| 
-0.10000000000000001 18189:1 59965:1 107607:1 137394:1 137753:1 139539:1 139634:1 143669:1 144034:1 144709:1 144721:1 144737:1 144872:1 145033:1 145168:1 145557:1 145565:1 145573:1 145579:1 145591:1 145600:1  |EV| 
-0.10000000000000001 20781:1 62979:1 111170:1 137394:1 137427:1 137522:1 137523:1 138681:1 138682:1 138683:1 138684:1 139539:1 139634:1 143669:1 144034:1 144709:1 144721:1 144743:1 144908:1 145033:1 145171:1 145558:1 145565:1 145573:1 145579:1 145587:1 145591:1 145600:1  |EV| 
-0.10000000000000001 16983:1 58644:1 106232:1 137394:1 137415:1 137427:1 137447:1 137516:1 137570:1 137810:1 138129:1 138281:1 138338:1 138513:1 138528:1 138529:1 138530:1 138531:1 139593:1 139634:1 143669:1 144330:1 144709:1 144721:1 144752:1 144912:1 145033:1 145189:1 145560:1 145565:1 145573:1 145579:1 145591:1 145600:1  |EV| 
-0.023986254149699411 26874:1 69918:1 119440:1 137398:1 137434:1 137447:1 137466:1 137550:1 137646:1 138234:1 139539:1 139634:1 143669:1 144034:1 144709:1 144721:1 144740:1 144891:1 145033:1 145168:1 145560:1 145565:1 145573:1 145579:1 145591:1 145600:1  |EV| 
0.14957128319904706 16775:1 58434:1 85047:1 137438:1 139634:1 142134:1 142147:1 144705:1 144711:1 144722:1 144734:1 144879:1 145027:1 145183:1 145561:1 145568:1 145577:1 145579:1 145580:1 145591:1 145610:1  |EV| 
0.1179200919429203 38644:1 82835:1 85047:1 137438:1 139634:1 142134:1 142147:1 144688:1 144705:1 144711:1 144722:1 144734:1 144879:1 145027:1 145183:1 145561:1 145568:1 145577:1 145579:1 145585:1 145591:1 145610:1  |EV| 
-0.10000000000000001 26766:1 69804:1 85047:1 137438:1 139634:1 142134:1 144705:1 144711:1 144722:1 144734:1 144879:1 145027:1 145183:1 145561:1 145568:1 145577:1 145579:1 145580:1 145581:1 145591:1 145610:1  |EV| 
-0.10000000000000001 31884:1 75448:1 85047:1 137438:1 139634:1 142134:1 144705:1 144711:1 144722:1 144734:1 144879:1 145027:1 145183:1 145561:1 145568:1 145577:1 145579:1 145580:1 145581:1 145591:1 145610:1  |EV| 
-0.10000000000000001 19461:1 61409:1 85047:1 137438:1 139634:1 142134:1 142147:1 144705:1 144711:1 144722:1 144734:1 144879:1 145027:1 145183:1 145561:1 145568:1 145577:1 145579:1 145580:1 145581:1 145591:1 145610:1  |EV| 
-0.10000000000000001 4845:1 45202:1 85047:1 137438:1 139634:1 142134:1 144705:1 144711:1 144722:1 144734:1 144879:1 145027:1 145183:1 145561:1 145568:1 145577:1 145579:1 145580:1 145590:1 145591:1 145610:1  |EV| 
-0.10000000000000001 4490:1 44836:1 85047:1 137438:1 139634:1 142134:1 144705:1 144711:1 144722:1 144734:1 144879:1 145027:1 145183:1 145561:1 145568:1 145577:1 145579:1 145580:1 145591:1 145610:1  |EV| 
0.15054366153094295 34115:1 77928:1 129575:1 137394:1 137404:1 137412:1 137415:1 137438:1 137881:1 139234:1 139539:1 139634:1 142324:1 143669:1 144034:1 144709:1 144721:1 144740:1 144891:1 145033:1 145168:1 145558:1 145565:1 145573:1 145579:1 145590:1 145591:1 145600:1  |EV| 
0.60000000000000009 10804:1 51864:1 84903:1 137394:1 139539:1 139634:1 139641:1 143669:1 144034:1 144675:1 144677:1 144687:1 144716:1 144722:1 144731:1 144879:1 145033:1 145177:1 145563:1 145565:1 145573:1 145588:1 145591:1 145600:1  |EV| 
0.086663123619465765 4160:1 44454:1 89506:1 137394:1 139566:1 139634:1 143669:1 144098:1 144682:1 144709:1 144721:1 144737:1 144872:1 145033:1 145168:1 145558:1 145565:1 145573:1 145579:1 145591:1 145600:1  |EV| 
0.39705095822080999 7154:1 47721:1 92878:1 137394:1 137403:1 137427:1 137444:1 137760:1 137815:1 137999:1 138016:1 138017:1 138018:1 139539:1 139634:1 142147:1 144713:1 144722:1 144758:1 144883:1 145033:1 145200:1 145560:1 145565:1 145573:1 145579:1 145591:1 145595:1 145600:1  |EV| 
0.026280336572268054 10184:1 51192:1 85579:1 137394:1 137466:1 137487:1 139539:1 139634:1 140031:1 142178:1 143669:1 144034:1 144713:1 144722:1 144744:1 144893:1 145033:1 145173:1 145560:1 145565:1 145573:1 145579:1 145591:1 145600:1  |EV| 
-0.10000000000000001 7156:1 47723:1 92881:1 137394:1 137403:1 137419:1 137427:1 137760:1 137815:1 137999:1 138016:1 138017:1 138018:1 139540:1 139634:1 142147:1 144713:1 144722:1 144758:1 144882:1 145032:1 145201:1 145560:1 145565:1 145573:1 145579:1 145591:1 145595:1 145600:1  |EV| 
-0.054474556131428577 7109:1 47667:1 92817:1 137394:1 137404:1 137427:1 137445:1 137471:1 137637:1 137701:1 137718:1 137996:1 137997:1 139566:1 139634:1 143669:1 144098:1 144709:1 144721:1 144733:1 144884:1 145033:1 145171:1 145558:1 145568:1 145573:1 145579:1 145591:1 145600:1  |EV| 
-0.10000000000000001 28822:1 72085:1 122563:1 137394:1 137437:1 137701:1 139049:1 139543:1 139634:1 143669:1 144045:1 144713:1 144722:1 144739:1 144892:1 145033:1 145173:1 145557:1 145565:1 145573:1 145579:1 145584:1 145591:1 145600:1  |EV| 
-0.06011938511407617 22762:1 65184:1 115467:1 137394:1 137415:1 137550:1 137581:1 137636:1 137682:1 137796:1 138078:1 138813:1 138814:1 138819:1 139539:1 139634:1 143669:1 144034:1 144713:1 144722:1 144741:1 144877:1 145033:1 145200:1 145557:1 145565:1 145573:1 145579:1 145591:1 145600:1  |EV| 
-0.10000000000000001 26918:1 69961:1 119520:1 137394:1 137419:1 138960:1 139543:1 139634:1 139644:1 142141:1 142301:1 143325:1 143669:1 144045:1 144690:1 144713:1 144722:1 144728:1 144886:1 145033:1 145173:1 145560:1 145565:1 145573:1 145579:1 145591:1 145600:1  |EV| 
0.30010056223996973 3385:1 43604:1 85047:1 137438:1 139634:1 142134:1 142147:1 144691:1 144705:1 144711:1 144722:1 144734:1 144879:1 145027:1 145183:1 145561:1 145568:1 145577:1 145579:1 145580:1 145581:1 145591:1 145610:1  |EV| 
0.21082621015317016 6837:1 47362:1 85047:1 137438:1 139634:1 142134:1 144705:1 144711:1 144722:1 144734:1 144879:1 145027:1 145183:1 145561:1 145568:1 145577:1 145579:1 145580:1 145591:1 145610:1  |EV| 
0.21082621015317105 29737:1 73097:1 85047:1 137438:1 139634:1 142134:1 144705:1 144711:1 144722:1 144734:1 144879:1 145027:1 145183:1 145561:1 145568:1 145577:1 145579:1 145580:1 145591:1 145610:1  |EV| 
0.10548717569351364 1880:1 42019:1 85047:1 137438:1 139634:1 142147:1 144705:1 144711:1 144722:1 144734:1 144879:1 145027:1 145183:1 145561:1 145568:1 145577:1 145579:1 145580:1 145586:1 145591:1 145610:1  |EV| 
-0.10000000000000001 27228:1 70286:1 85047:1 137438:1 139634:1 142134:1 142147:1 144691:1 144705:1 144711:1 144722:1 144734:1 144879:1 145027:1 145183:1 145561:1 145568:1 145577:1 145579:1 145580:1 145591:1 145610:1  |EV| 
-0.10000000000000001 408:1 40453:1 85047:1 137438:1 139634:1 142134:1 142147:1 144688:1 144705:1 144711:1 144722:1 144734:1 144879:1 145027:1 145183:1 145561:1 145568:1 145577:1 145579:1 145580:1 145591:1 145610:1  |EV| 
-0.10000000000000001 4916:1 45275:1 85047:1 137438:1 139634:1 142134:1 144705:1 144711:1 144722:1 144734:1 144879:1 145027:1 145183:1 145561:1 145568:1 145577:1 145579:1 145580:1 145591:1 145610:1  |EV| 
-0.10000000000000001 5026:1 45394:1 85047:1 137438:1 139634:1 142134:1 144705:1 144711:1 144722:1 144734:1 144879:1 145027:1 145183:1 145561:1 145568:1 145577:1 145579:1 145580:1 145591:1 145610:1  |EV| 
-0.10000000000000001 16199:1 57814:1 85047:1 137438:1 139634:1 142134:1 144705:1 144711:1 144722:1 144734:1 144879:1 145027:1 145183:1 145561:1 145568:1 145577:1 145579:1 145580:1 145591:1 145610:1  |EV| 
0.16104258713926428 14802:1 56277:1 103095:1 137394:1 137419:1 137423:1 137424:1 137427:1 137449:1 137472:1 137682:1 137844:1 138436:1 139537:1 139634:1 139743:1 142231:1 143669:1 144027:1 144713:1 144722:1 144735:1 144903:1 145033:1 145200:1 145557:1 145568:1 145573:1 145579:1 145591:1 145600:1  |EV| 
0.11226334246773585 34806:1 78741:1 130547:1 137415:1 137701:1 138046:1 139272:1 139537:1 139633:1 142142:1 143669:1 144027:1 144713:1 144722:1 144728:1 144882:1 145020:1 145173:1 145557:1 145565:1 145573:1 145579:1 145591:1 145600:1  |EV| 
0.16757293854192232 27428:1 70503:1 120516:1 137394:1 137427:1 139000:1 139001:1 139537:1 139634:1 143669:1 144027:1 144713:1 144722:1 144728:1 144886:1 145033:1 145173:1 145557:1 145568:1 145573:1 145579:1 145591:1 145600:1  |EV| 
0.11422740429313549 28956:1 72239:1 122710:1 137394:1 138156:1 138398:1 139058:1 139537:1 139634:1 143669:1 144027:1 144713:1 144722:1 144739:1 144892:1 145033:1 145173:1 145557:1 145564:1 145573:1 145579:1 145591:1 145600:1  |EV| 
0.2783791099305275 13400:1 54722:1 101200:1 137394:1 137437:1 137484:1 139545:1 139580:1 139634:1 143669:1 143670:1 144041:1 144228:1 144700:1 144713:1 144722:1 144728:1 144886:1 145047:1 145173:1 145560:1 145564:1 145573:1 145579:1 145591:1 145600:1  |EV| 
-0.10000000000000001 13419:1 54742:1 101981:1 137394:1 137447:1 138187:1 138351:1 139537:1 139634:1 143669:1 144027:1 144713:1 144722:1 144728:1 144886:1 145033:1 145173:1 145560:1 145568:1 145573:1 145579:1 145591:1 145600:1  |EV| 
-0.10000000000000001 31371:1 74914:1 125732:1 137394:1 137415:1 138189:1 139141:1 139537:1 139634:1 139644:1 142141:1 143669:1 144027:1 144713:1 144722:1 144728:1 144886:1 145033:1 145173:1 145560:1 145568:1 145573:1 145579:1 145590:1 145591:1 145600:1  |EV| 
-0.020892969431450723 16235:1 57868:1 105532:1 137394:1 137427:1 137438:1 137731:1 138482:1 139634:1 144705:1 144715:1 144722:1 144742:1 144879:1 145027:1 145176:1 145561:1 145568:1 145577:1 145579:1 145590:1 145591:1 145610:1  |EV| 
-0.0063142812561267194 26408:1 69433:1 118741:1 137394:1 137424:1 137427:1 137438:1 137441:1 137443:1 137470:1 137487:1 137523:1 137529:1 137530:1 137531:1 137547:1 137548:1 137672:1 137753:1 137866:1 138377:1 138412:1 138417:1 138923:1 138938:1 138953:1 138954:1 138955:1 138956:1 138957:1 138958:1 139540:1 139634:1 143301:1 143920:1 144467:1 144690:1 144708:1 144722:1 144789:1 144899:1 145073:1 145243:1 145557:1 145568:1 145573:1 145579:1 145591:1 145600:1  |EV| 
-0.043515961628199415 3681:1 47573:1 92715:1 137394:1 137412:1 137427:1 137447:1 137504:1 137520:1 138019:1 138020:1 138021:1 138029:1 139537:1 139634:1 142466:1 143669:1 144027:1 144709:1 144721:1 144760:1 144902:1 145023:1 145189:1 145560:1 145568:1 145573:1 145579:1 145591:1 145600:1  |EV| 
0.19840172358673822 6890:1 47420:1 85047:1 137438:1 139634:1 142134:1 144705:1 144711:1 144722:1 144734:1 144879:1 145027:1 145183:1 145558:1 145568:1 145577:1 145579:1 145580:1 145591:1 145610:1  |EV| 
-0.10000000000000001 16045:1 57603:1 85047:1 137438:1 139634:1 142134:1 142147:1 144688:1 144691:1 144705:1 144711:1 144722:1 144734:1 144879:1 145027:1 145183:1 145557:1 145568:1 145577:1 145579:1 145586:1 145591:1 145610:1  |EV| 
-0.10000000000000001 1428:1 41561:1 85047:1 137438:1 139634:1 142134:1 144705:1 144711:1 144722:1 144734:1 144879:1 145027:1 145183:1 145561:1 145568:1 145577:1 145579:1 145580:1 145591:1 145610:1  |EV| 
-0.10000000000000001 8776:1 49559:1 85047:1 137438:1 139634:1 142134:1 144705:1 144711:1 144722:1 144734:1 144879:1 145027:1 145183:1 145561:1 145568:1 145577:1 145579:1 145586:1 145591:1 145610:1  |EV| 
0.60000000000000009 38967:1 83180:1 84903:1 137394:1 139537:1 139634:1 139641:1 143669:1 144027:1 144675:1 144677:1 144687:1 144688:1 144689:1 144716:1 144722:1 144731:1 144879:1 145033:1 145177:1 145563:1 145568:1 145573:1 145588:1 145591:1 145600:1  |EV| 
-0.010259683925833306 29077:1 72371:1 122838:1 137404:1 137427:1 137444:1 137447:1 139036:1 139543:1 139582:1 139634:1 143669:1 143670:1 144045:1 144367:1 144697:1 144709:1 144721:1 144742:1 144888:1 145047:1 145168:1 145562:1 145568:1 145573:1 145579:1 145583:1 145591:1 145600:1  |EV| 
0.22110008835640571 4810:1 45167:1 90430:1 137427:1 137438:1 137445:1 137448:1 137682:1 137820:1 137834:1 137835:1 137836:1 139537:1 139634:1 139636:1 142134:1 143669:1 144027:1 144709:1 144721:1 144743:1 144908:1 145033:1 145171:1 145560:1 145568:1 145573:1 145579:1 145590:1 145591:1 145600:1  |EV| 
0.60000000000000009 31173:1 74707:1 84903:1 137394:1 139557:1 139634:1 139641:1 143669:1 144093:1 144675:1 144677:1 144687:1 144716:1 144722:1 144731:1 144879:1 145033:1 145177:1 145563:1 145568:1 145573:1 145588:1 145591:1 145600:1  |EV| 
-0.017862448260556874 16474:1 58130:1 105797:1 137415:1 137427:1 137471:1 138294:1 138508:1 138509:1 138510:1 139537:1 139634:1 143668:1 144033:1 144708:1 144722:1 144743:1 144874:1 145021:1 145167:1 145557:1 145568:1 145573:1 145579:1 145590:1 145591:1 145600:1  |EV| 
-0.022572612498821195 12865:1 54176:1 100686:1 137394:1 137427:1 137438:1 137509:1 137784:1 137788:1 137820:1 138282:1 138283:1 138284:1 138285:1 138309:1 138314:1 139585:1 139634:1 140535:1 143710:1 144276:1 144708:1 144722:1 144749:1 144902:1 145021:1 145191:1 145561:1 145568:1 145573:1 145579:1 145591:1 145600:1  |EV| 
-0.0174225016343387 34128:1 77941:1 129590:1 137394:1 137424:1 137505:1 137692:1 139110:1 139229:1 139232:1 139534:1 139634:1 144691:1 144714:1 144722:1 144738:1 144871:1 145039:1 145174:1 145561:1 145565:1 145573:1 145579:1 145591:1 145600:1  |EV| 
0.10656689270110244 2352:1 42521:1 85047:1 137438:1 139634:1 142134:1 144705:1 144711:1 144722:1 144734:1 144879:1 145027:1 145183:1 145561:1 145568:1 145577:1 145579:1 145586:1 145591:1 145610:1  |EV| 
0.1065739780125276 20459:1 62602:1 85047:1 137438:1 139634:1 142134:1 144705:1 144711:1 144722:1 144734:1 144879:1 145027:1 145183:1 145561:1 145568:1 145577:1 145579:1 145586:1 145591:1 145610:1  |EV| 
0.10656689270110246 24043:1 66844:1 85047:1 137438:1 139634:1 142134:1 144705:1 144711:1 144722:1 144734:1 144879:1 145027:1 145183:1 145561:1 145568:1 145577:1 145579:1 145586:1 145591:1 145610:1  |EV| 
-0.01465477506305703 33572:1 77279:1 128823:1 137403:1 137404:1 137427:1 137438:1 137477:1 137692:1 137726:1 137811:1 137918:1 138143:1 139198:1 139199:1 139200:1 139201:1 139230:1 139634:1 144705:1 144715:1 144722:1 144747:1 144879:1 145027:1 145219:1 145561:1 145568:1 145577:1 145579:1 145586:1 145591:1 145592:1 145610:1  |EV| 
-0.097420997991485681 34160:1 77987:1 129644:1 137394:1 137404:1 137412:1 137415:1 137419:1 137427:1 137438:1 137881:1 139234:1 139235:1 139634:1 142519:1 144705:1 144715:1 144722:1 144760:1 144879:1 145027:1 145197:1 145558:1 145565:1 145577:1 145579:1 145591:1 145610:1  |EV| 
-0.10000000000000001 14246:1 55619:1 85047:1 137438:1 139634:1 142134:1 144705:1 144711:1 144722:1 144734:1 144879:1 145027:1 145183:1 145558:1 145568:1 145577:1 145579:1 145587:1 145591:1 145593:1 145610:1  |EV| 
-0.10000000000000001 15053:1 56540:1 85047:1 137438:1 139634:1 142134:1 144705:1 144711:1 144722:1 144734:1 144879:1 145027:1 145183:1 145558:1 145568:1 145577:1 145579:1 145591:1 145610:1  |EV| 
-0.062576583206920167 28548:1 71780:1 111944:1 137415:1 137438:1 139634:1 142134:1 144705:1 144711:1 144722:1 144745:1 144879:1 145027:1 145183:1 145558:1 145568:1 145577:1 145579:1 145580:1 145591:1 145610:1  |EV| 
0.60000000000000009 34852:1 78794:1 84903:1 137394:1 139578:1 139634:1 139641:1 143669:1 144591:1 144675:1 144677:1 144687:1 144716:1 144722:1 144731:1 144879:1 145033:1 145177:1 145563:1 145568:1 145573:1 145588:1 145591:1 145600:1  |EV| 
0.37869379163882 37176:1 81288:1 133707:1 137394:1 137516:1 139430:1 139568:1 139634:1 139681:1 143682:1 144118:1 144675:1 144677:1 144687:1 144691:1 144716:1 144722:1 144731:1 144879:1 145020:1 145177:1 145563:1 145568:1 145573:1 145588:1 145590:1 145591:1 145600:1  |EV| 
0.60000000000000009 8035:1 48783:1 110757:1 137971:1 139539:1 139634:1 144675:1 144677:1 144687:1 144716:1 144722:1 144731:1 144879:1 145033:1 145177:1 145563:1 145568:1 145573:1 145588:1 145590:1 145591:1 145600:1  |EV| 
-0.028864607432003357 30985:1 74519:1 125216:1 137415:1 137471:1 137519:1 139634:1 144705:1 144715:1 144722:1 144724:1 144879:1 145027:1 145176:1 145557:1 145568:1 145577:1 145579:1 145591:1 145610:1  |EV| 
-0.10000000000000001 4321:1 78190:1 90459:1 137682:1 139538:1 139634:1 139641:1 143669:1 144032:1 144675:1 144677:1 144687:1 144716:1 144722:1 144731:1 144879:1 145033:1 145177:1 145563:1 145568:1 145573:1 145588:1 145591:1 145600:1  |EV| 
-0.10000000000000001 30260:1 73669:1 84944:1 139548:1 139602:1 139634:1 139638:1 139641:1 143669:1 143670:1 144128:1 144382:1 144675:1 144677:1 144687:1 144697:1 144716:1 144722:1 144731:1 144879:1 145047:1 145177:1 145563:1 145568:1 145573:1 145588:1 145591:1 145600:1  |EV| 
-0.087910172927368732 22572:1 64958:1 113452:1 138815:1 139564:1 139634:1 139641:1 143669:1 144086:1 144675:1 144677:1 144687:1 144716:1 144722:1 144731:1 144879:1 145033:1 145177:1 145563:1 145568:1 145573:1 145588:1 145591:1 145600:1  |EV| 
-0.028402379450576852 18864:1 60729:1 108454:1 137394:1 137403:1 137413:1 137415:1 137422:1 137427:1 137437:1 138223:1 138273:1 138662:1 138671:1 139537:1 139634:1 143669:1 144027:1 144709:1 144721:1 144760:1 144907:1 145033:1 145189:1 145557:1 145568:1 145573:1 145579:1 145591:1 145600:1  |EV| 
0.4650717007236656 33462:1 77147:1 128676:1 137415:1 137438:1 137704:1 138401:1 139210:1 139634:1 142134:1 144705:1 144711:1 144722:1 144728:1 144879:1 145027:1 145183:1 145558:1 145565:1 145577:1 145579:1 145591:1 145610:1  |EV| 
0.12446659031923731 32632:1 76241:1 85047:1 137438:1 139634:1 142134:1 144705:1 144711:1 144722:1 144734:1 144879:1 145027:1 145183:1 145558:1 145568:1 145577:1 145579:1 145587:1 145591:1 145610:1  |EV| 
0.37683905812171042 14607:1 56044:1 102819:1 137394:1 137527:1 137657:1 138400:1 138401:1 139634:1 144688:1 144690:1 144705:1 144711:1 144722:1 144728:1 144879:1 145027:1 145183:1 145558:1 145565:1 145577:1 145579:1 145587:1 145591:1 145610:1  |EV| 
0.09879529184760831 16794:1 58453:1 85047:1 137438:1 139634:1 142134:1 144705:1 144711:1 144722:1 144734:1 144879:1 145027:1 145183:1 145558:1 145568:1 145577:1 145579:1 145591:1 145610:1  |EV| 
0.098819710653063247 36383:1 80455:1 85047:1 137438:1 139634:1 142134:1 144705:1 144711:1 144722:1 144734:1 144879:1 145027:1 145183:1 145558:1 145568:1 145577:1 145579:1 145591:1 145610:1  |EV| 
-0.10000000000000001 14150:1 55516:1 85047:1 137438:1 139634:1 142134:1 142147:1 144688:1 144691:1 144705:1 144711:1 144722:1 144734:1 144879:1 145027:1 145183:1 145561:1 145568:1 145577:1 145579:1 145582:1 145591:1 145610:1  |EV| 
-0.10000000000000001 38839:1 83037:1 85047:1 137438:1 139634:1 142134:1 142147:1 144688:1 144690:1 144705:1 144711:1 144722:1 144734:1 144879:1 145027:1 145183:1 145561:1 145568:1 145577:1 145579:1 145586:1 145591:1 145610:1  |EV| 
0.55281456343205981 29088:1 72382:1 84944:1 139548:1 139574:1 139634:1 139638:1 139641:1 143669:1 143670:1 144128:1 144497:1 144675:1 144677:1 144687:1 144702:1 144716:1 144722:1 144731:1 144879:1 145047:1 145177:1 145563:1 145568:1 145573:1 145588:1 145591:1 145600:1  |EV| 
0.54772267323527379 4042:1 44321:1 89334:1 137470:1 139560:1 139634:1 139641:1 143669:1 144073:1 144675:1 144677:1 144687:1 144716:1 144722:1 144731:1 144879:1 145033:1 145177:1 145563:1 145564:1 145573:1 145588:1 145591:1 145600:1  |EV| 
-0.10000000000000001 1074:1 41203:1 110757:1 137971:1 139537:1 139634:1 139641:1 143669:1 144027:1 144675:1 144677:1 144687:1 144716:1 144722:1 144731:1 144879:1 145033:1 145177:1 145563:1 145568:1 145573:1 145588:1 145591:1 145600:1  |EV| 
0.01703831010612341 14107:1 55472:1 102204:1 137438:1 137519:1 138202:1 139553:1 139634:1 139644:1 142141:1 143669:1 144064:1 144713:1 144722:1 144744:1 144893:1 145033:1 145173:1 145558:1 145568:1 145573:1 145579:1 145587:1 145591:1 145600:1  |EV| 
-0.019014026137801312 3837:1 44089:1 89021:1 137394:1 137769:1 139538:1 139543:1 139565:1 139634:1 139638:1 139641:1 143669:1 143670:1 144045:1 144096:1 144675:1 144677:1 144687:1 144697:1 144716:1 144722:1 144731:1 144879:1 145023:1 145177:1 145563:1 145568:1 145573:1 145588:1 145591:1 145600:1  |EV| 
-0.030771771122185515 33439:1 77122:1 84903:1 137394:1 139620:1 139634:1 139641:1 143669:1 144574:1 144675:1 144677:1 144687:1 144716:1 144722:1 144731:1 144879:1 145033:1 145177:1 145563:1 145568:1 145573:1 145588:1 145591:1 145600:1  |EV| 
-0.016862186310683411 5920:1 46342:1 91548:1 137394:1 137435:1 137447:1 137646:1 137718:1 137737:1 137851:1 137853:1 137885:1 137942:1 139537:1 139634:1 144709:1 144721:1 144742:1 144884:1 145038:1 145171:1 145561:1 145568:1 145573:1 145579:1 145591:1 145597:1 145600:1  |EV| 
0.087583521154179209 7337:1 47931:1 86001:1 137394:1 137438:1 139634:1 142134:1 144705:1 144711:1 144722:1 144745:1 144879:1 145027:1 145183:1 145561:1 145568:1 145577:1 145579:1 145591:1 145610:1  |EV| 
0.087166684658131849 35869:1 79937:1 86001:1 137394:1 137438:1 139634:1 142134:1 144705:1 144711:1 144722:1 144745:1 144879:1 145027:1 145183:1 145561:1 145568:1 145577:1 145579:1 145591:1 145610:1  |EV| 
0.087590455380909843 37483:1 81618:1 86001:1 137394:1 137438:1 139634:1 142134:1 144705:1 144711:1 144722:1 144745:1 144879:1 145027:1 145183:1 145561:1 145568:1 145577:1 145579:1 145591:1 145610:1  |EV| 
0.11121677538937515 4078:1 44361:1 85047:1 137438:1 139634:1 142134:1 144705:1 144711:1 144722:1 144734:1 144879:1 145027:1 145183:1 145561:1 145568:1 145577:1 145579:1 145591:1 145610:1  |EV| 
0.11121677538937565 29415:1 72748:1 85047:1 137438:1 139634:1 142134:1 144705:1 144711:1 144722:1 144734:1 144879:1 145027:1 145183:1 145561:1 145568:1 145577:1 145579:1 145591:1 145610:1  |EV| 
-0.10000000000000001 1121:1 41250:1 85047:1 137438:1 139634:1 142134:1 144705:1 144711:1 144722:1 144734:1 144879:1 145027:1 145183:1 145561:1 145568:1 145577:1 145579:1 145591:1 145596:1 145610:1  |EV| 
-0.10000000000000001 16108:1 57690:1 85047:1 137438:1 139634:1 142134:1 144705:1 144711:1 144722:1 144734:1 144879:1 145027:1 145183:1 145561:1 145568:1 145577:1 145579:1 145591:1 145610:1  |EV| 
-0.094092680956671379 15692:1 57210:1 104528:1 137437:1 137472:1 137608:1 137788:1 139545:1 139580:1 139633:1 142318:1 144697:1 144700:1 144710:1 144722:1 144737:1 144886:1 145024:1 145178:1 145560:1 145568:1 145573:1 145579:1 145591:1 145600:1  |EV| 
0.27445676722729706 17647:1 59346:1 127940:1 137394:1 137403:1 137438:1 137447:1 137454:1 137527:1 137552:1 138352:1 139175:1 139176:1 139190:1 139191:1 139582:1 139634:1 139934:1 143718:1 144550:1 144675:1 144677:1 144687:1 144718:1 144722:1 144731:1 144879:1 145054:1 145185:1 145563:1 145565:1 145573:1 145588:1 145591:1 145600:1  |EV| 
-0.053099335809560666 4894:1 45253:1 90539:1 137427:1 137445:1 137448:1 137820:1 137835:1 137836:1 139543:1 139634:1 139644:1 142141:1 143669:1 144045:1 144709:1 144721:1 144740:1 144874:1 145047:1 145168:1 145560:1 145568:1 145573:1 145579:1 145591:1 145600:1  |EV| 
-0.045781600396567951 13059:1 54370:1 100860:1 137394:1 137403:1 137427:1 137438:1 137509:1 137784:1 137788:1 137820:1 138282:1 138283:1 138284:1 138285:1 138286:1 138287:1 138308:1 138315:1 139539:1 139634:1 142172:1 142353:1 144691:1 144713:1 144722:1 144763:1 144880:1 145033:1 145209:1 145561:1 145568:1 145573:1 145579:1 145591:1 145600:1  |EV| 
-0.030867722284853495 6218:1 46658:1 91858:1 137404:1 137954:1 139537:1 139545:1 139563:1 139573:1 139634:1 139864:1 139865:1 140005:1 140006:1 142141:1 143668:1 143670:1 143672:1 143737:1 144033:1 144149:1 144150:1 144151:1 144708:1 144722:1 144740:1 144875:1 145021:1 145167:1 145562:1 145568:1 145573:1 145579:1 145580:1 145583:1 145591:1 145600:1  |EV| 
-0.052839153212108449 4424:1 44769:1 89961:1 137394:1 137438:1 137716:1 139537:1 139634:1 139646:1 142139:1 143672:1 144057:1 144708:1 144722:1 144723:1 144885:1 145041:1 145167:1 145561:1 145568:1 145573:1 145579:1 145580:1 145590:1 145591:1 145600:1  |EV| 
-0.10000000000000001 5403:1 45795:1 84898:1 139550:1 139635:1 139641:1 144676:1 144678:1 144696:1 144719:1 144722:1 144731:1 144873:1 145027:1 145187:1 145558:1 145570:1 145573:1 145579:1 145587:1 145599:1 145600:1  |EV| 
-0.012173273685303826 12955:1 54266:1 100767:1 137394:1 137427:1 137438:1 137509:1 137784:1 137788:1 137820:1 138282:1 138283:1 138284:1 138285:1 138286:1 138287:1 138309:1 138311:1 138314:1 139634:1 144705:1 144715:1 144722:1 144750:1 144879:1 145027:1 145197:1 145561:1 145568:1 145577:1 145579:1 145591:1 145610:1  |EV| 
-0.014442796548125284 2788:1 42992:1 87819:1 137394:1 137438:1 137706:1 139553:1 139635:1 144676:1 144678:1 144679:1 144696:1 144717:1 144722:1 144731:1 144872:1 145027:1 145181:1 145561:1 145570:1 145573:1 145579:1 145599:1 145600:1  |EV| 
-0.010887324510093815 26159:1 69153:1 84565:1 137394:1 139534:1 139635:1 139641:1 144676:1 144678:1 144696:1 144717:1 144722:1 144731:1 144885:1 145027:1 145181:1 145561:1 145570:1 145573:1 145579:1 145580:1 145599:1 145600:1  |EV| 
-0.057777395320952857 37589:1 81730:1 134191:1 137394:1 137403:1 137427:1 137438:1 137454:1 137527:1 137539:1 137552:1 138764:1 139088:1 139364:1 139393:1 139634:1 143605:1 143606:1 144682:1 144684:1 144705:1 144715:1 144722:1 144749:1 144879:1 145027:1 145197:1 145561:1 145565:1 145577:1 145579:1 145580:1 145590:1 145591:1 145610:1  |EV| 
0.55939846349055511 23985:1 66762:1 115610:1 137415:1 138797:1 139599:1 139634:1 140505:1 143807:1 144372:1 144675:1 144677:1 144687:1 144716:1 144722:1 144731:1 144879:1 145023:1 145177:1 145563:1 145565:1 145573:1 145588:1 145591:1 145600:1  |EV| 
-0.049358227414065155 6937:1 47471:1 87288:1 137415:1 139539:1 139543:1 139577:1 139634:1 139638:1 139641:1 143669:1 143670:1 144045:1 144173:1 144675:1 144677:1 144687:1 144699:1 144702:1 144716:1 144722:1 144731:1 144879:1 145033:1 145177:1 145563:1 145568:1 145573:1 145588:1 145591:1 145600:1  |EV| 
-0.10000000000000001 32537:1 76143:1 85503:1 137394:1 139537:1 139634:1 139636:1 142134:1 143669:1 144027:1 144713:1 144722:1 144745:1 144873:1 145033:1 145173:1 145560:1 145568:1 145573:1 145579:1 145600:1  |EV| 
-0.035948792055784468 6964:1 47499:1 92641:1 137394:1 137405:1 137424:1 137427:1 137438:1 137441:1 137443:1 137505:1 137516:1 137527:1 137649:1 137656:1 137692:1 137715:1 138022:1 138023:1 138036:1 138037:1 138038:1 138039:1 139537:1 139634:1 144713:1 144722:1 144783:1 144883:1 145050:1 145227:1 145561:1 145568:1 145573:1 145579:1 145591:1 145600:1  |EV| 
0.60000000000000009 33399:1 77080:1 86002:1 137427:1 139534:1 139635:1 144676:1 144678:1 144696:1 144719:1 144722:1 144731:1 144882:1 145027:1 145187:1 145561:1 145570:1 145573:1 145579:1 145580:1 145599:1 145600:1  |EV| 
0.44777752641976237 39336:1 83600:1 136114:1 137415:1 137427:1 137718:1 137721:1 137881:1 139567:1 139635:1 144676:1 144678:1 144696:1 144717:1 144722:1 144731:1 144890:1 145027:1 145181:1 145561:1 145570:1 145573:1 145579:1 145580:1 145599:1 145600:1  |EV| 
0.60000000000000009 7237:1 47816:1 92982:1 137394:1 137437:1 139546:1 139635:1 139638:1 144676:1 144678:1 144696:1 144717:1 144722:1 144731:1 144875:1 145027:1 145181:1 145558:1 145570:1 145573:1 145579:1 145580:1 145599:1 145600:1  |EV| 
0.60000000000000009 18781:1 60640:1 85340:1 137394:1 137427:1 139634:1 144705:1 144715:1 144722:1 144727:1 144879:1 145027:1 145176:1 145561:1 145568:1 145577:1 145579:1 145580:1 145591:1 145610:1  |EV| 
0.54242105078817393 33404:1 77085:1 86002:1 137427:1 139534:1 139635:1 139653:1 144676:1 144678:1 144696:1 144719:1 144722:1 144731:1 144882:1 145027:1 145187:1 145561:1 145570:1 145573:1 145579:1 145586:1 145599:1 145600:1  |EV| 
-0.093332507277885571 11810:1 53025:1 99376:1 137403:1 137427:1 137472:1 138246:1 139553:1 139634:1 142713:1 144709:1 144721:1 144727:1 144890:1 145023:1 145168:1 145560:1 145568:1 145573:1 145579:1 145591:1 145600:1  |EV| 
-0.10000000000000001 13294:1 54609:1 86002:1 137427:1 139556:1 139635:1 139653:1 144676:1 144678:1 144696:1 144719:1 144722:1 144731:1 144882:1 145027:1 145187:1 145561:1 145570:1 145573:1 145579:1 145580:1 145599:1 145600:1  |EV| 
-0.10000000000000001 4516:1 44862:1 90315:1 137394:1 137435:1 137444:1 137841:1 139534:1 139634:1 142163:1 143669:1 144019:1 144709:1 144721:1 144724:1 144890:1 145033:1 145168:1 145560:1 145568:1 145573:1 145579:1 145591:1 145600:1  |EV| 
-0.10000000000000001 1140:1 41269:1 86300:1 137394:1 137427:1 137437:1 137516:1 137521:1 137522:1 137523:1 137524:1 137525:1 137526:1 137527:1 137528:1 137529:1 137530:1 137569:1 139547:1 139548:1 139634:1 144708:1 144722:1 144747:1 144891:1 145025:1 145237:1 145558:1 145568:1 145573:1 145579:1 145591:1 145600:1  |EV| 
-0.052539328485735448 1405:1 53388:1 99795:1 137419:1 138264:1 139634:1 142134:1 144705:1 144711:1 144722:1 144745:1 144879:1 145027:1 145183:1 145560:1 145564:1 145577:1 145579:1 145591:1 145610:1  |EV| 
-0.10000000000000001 23352:1 65907:1 114510:1 137398:1 137415:1 137544:1 137909:1 137972:1 138144:1 138797:1 139599:1 139634:1 141238:1 143174:1 143807:1 144372:1 144713:1 144722:1 144746:1 144876:1 145023:1 145173:1 145560:1 145565:1 145573:1 145579:1 145591:1 145600:1  |EV| 
-0.10000000000000001 28752:1 72000:1 122483:1 137394:1 137398:1 139548:1 139574:1 139634:1 143669:1 143670:1 144128:1 144497:1 144702:1 144709:1 144721:1 144727:1 144872:1 145047:1 145168:1 145558:1 145568:1 145573:1 145579:1 145580:1 145591:1 145600:1  |EV| 
-0.10000000000000001 27387:1 70457:1 120459:1 137472:1 137776:1 139634:1 143338:1 144705:1 144715:1 144722:1 144727:1 144879:1 145027:1 145176:1 145560:1 145565:1 145577:1 145579:1 145591:1 145610:1  |EV| 
-0.10000000000000001 16307:1 57963:1 101022:1 137394:1 137516:1 139634:1 144705:1 144715:1 144722:1 144727:1 144879:1 145027:1 145176:1 145561:1 145565:1 145577:1 145579:1 145591:1 145610:1  |EV| 
-0.10000000000000001 37311:1 81430:1 133868:1 137394:1 137415:1 137434:1 137438:1 137516:1 138151:1 139366:1 139367:1 139368:1 139560:1 139634:1 143757:1 144627:1 144709:1 144721:1 144733:1 144884:1 145033:1 145171:1 145560:1 145565:1 145573:1 145579:1 145591:1 145600:1  |EV| 
0.60000000000000009 164:1 40207:1 89946:1 137701:1 139534:1 139635:1 144676:1 144678:1 144696:1 144719:1 144722:1 144731:1 144882:1 145027:1 145187:1 145557:1 145570:1 145573:1 145579:1 145599:1 145600:1  |EV| 
0.60000000000000009 9409:1 50227:1 84898:1 139534:1 139635:1 139653:1 144676:1 144678:1 144696:1 144719:1 144722:1 144731:1 144873:1 145027:1 145187:1 145562:1 145570:1 145573:1 145579:1 145583:1 145599:1 145600:1  |EV| 
-0.10000000000000001 38423:1 82604:1 84898:1 139545:1 139559:1 139573:1 139635:1 139638:1 139653:1 140195:1 144676:1 144678:1 144696:1 144719:1 144722:1 144731:1 144873:1 145027:1 145187:1 145558:1 145570:1 145573:1 145579:1 145584:1 145599:1 145600:1  |EV| 
-0.017244069603308119 22339:1 64701:1 84898:1 139539:1 139635:1 139653:1 144676:1 144678:1 144696:1 144719:1 144722:1 144731:1 144873:1 145027:1 145187:1 145557:1 145570:1 145573:1 145579:1 145584:1 145599:1 145600:1  |EV| 
-0.10000000000000001 6538:1 47012:1 84898:1 139534:1 139635:1 139653:1 144676:1 144678:1 144696:1 144719:1 144722:1 144731:1 144873:1 145027:1 145187:1 145560:1 145570:1 145573:1 145579:1 145599:1 145600:1  |EV| 
-0.10000000000000001 8391:1 50296:1 84898:1 139534:1 139635:1 139653:1 144676:1 144678:1 144696:1 144719:1 144722:1 144731:1 144873:1 145027:1 145187:1 145560:1 145570:1 145573:1 145579:1 145599:1 145600:1  |EV| 
-0.094503492392934318 9554:1 50404:1 84898:1 139534:1 139635:1 139653:1 144676:1 144678:1 144696:1 144719:1 144722:1 144731:1 144873:1 145027:1 145187:1 145560:1 145570:1 145573:1 145579:1 145599:1 145600:1  |EV| 
0.1681533099205513 4114:1 44465:1 89518:1 137394:1 137400:1 137403:1 137404:1 137415:1 137427:1 137434:1 137438:1 137441:1 137443:1 137503:1 137505:1 137509:1 137726:1 137727:1 137728:1 137729:1 137730:1 137731:1 137732:1 137733:1 137734:1 137735:1 137736:1 137737:1 137738:1 137739:1 137740:1 137743:1 137770:1 139538:1 139634:1 143669:1 144032:1 144709:1 144721:1 144797:1 144941:1 145047:1 145276:1 145562:1 145568:1 145573:1 145579:1 145583:1 145591:1 145600:1  |EV| 
0.11912880798936121 4272:1 44590:1 89706:1 137394:1 137400:1 137403:1 137404:1 137415:1 137427:1 137434:1 137438:1 137441:1 137443:1 137503:1 137505:1 137509:1 137726:1 137727:1 137728:1 137729:1 137730:1 137731:1 137732:1 137733:1 137734:1 137735:1 137736:1 137737:1 137738:1 137739:1 137740:1 139538:1 139634:1 139636:1 142134:1 143669:1 144032:1 144709:1 144721:1 144789:1 144936:1 145047:1 145276:1 145562:1 145568:1 145573:1 145579:1 145583:1 145591:1 145600:1  |EV| 
0.37084620898624915 34753:1 78684:1 130476:1 137394:1 137398:1 137413:1 137427:1 137438:1 137472:1 137514:1 138146:1 139246:1 139538:1 139634:1 143669:1 144032:1 144709:1 144721:1 144760:1 144884:1 145047:1 145189:1 145558:1 145568:1 145573:1 145579:1 145580:1 145591:1 145600:1  |EV| 
0.07717855994790751 10220:1 51531:1 97620:1 137415:1 137427:1 137438:1 137472:1 137509:1 137629:1 137807:1 137820:1 138196:1 138197:1 138198:1 139538:1 139634:1 139636:1 142134:1 142147:1 143669:1 144032:1 144688:1 144709:1 144721:1 144749:1 144896:1 145047:1 145189:1 145560:1 145568:1 145573:1 145579:1 145591:1 145600:1  |EV| 
0.09959760487582163 35998:1 80066:1 132313:1 137394:1 137403:1 137427:1 137438:1 137447:1 137516:1 138187:1 138444:1 139324:1 139325:1 139543:1 139610:1 139634:1 140789:1 141844:1 141845:1 141846:1 141847:1 141848:1 141849:1 141850:1 141851:1 141852:1 143669:1 143670:1 143814:1 144045:1 144549:1 144608:1 144680:1 144709:1 144721:1 144736:1 144900:1 145033:1 145189:1 145561:1 145568:1 145573:1 145579:1 145591:1 145600:1  |EV| 
-0.0077300358491405796 34653:1 78574:1 130334:1 137394:1 137397:1 137398:1 137413:1 137424:1 137427:1 137438:1 137472:1 137514:1 137701:1 138146:1 138586:1 139246:1 139538:1 139634:1 143669:1 144032:1 144709:1 144721:1 144749:1 144900:1 145047:1 145189:1 145561:1 145568:1 145573:1 145579:1 145591:1 145600:1  |EV| 
-0.0063005384907601578 10133:1 51138:1 97169:1 137394:1 137403:1 137411:1 137414:1 137415:1 137422:1 137424:1 137427:1 137438:1 137447:1 137448:1 137479:1 137512:1 137536:1 137779:1 138153:1 138170:1 138171:1 138172:1 138173:1 138174:1 139538:1 139634:1 143669:1 144032:1 144709:1 144721:1 144786:1 144917:1 145033:1 145225:1 145561:1 145568:1 145573:1 145579:1 145591:1 145600:1  |EV| 
-0.10000000000000001 34504:1 78417:1 130160:1 137394:1 137398:1 137413:1 137427:1 137472:1 138146:1 139246:1 139538:1 139634:1 143669:1 144032:1 144709:1 144721:1 144726:1 144891:1 145047:1 145168:1 145561:1 145568:1 145573:1 145579:1 145580:1 145591:1 145600:1  |EV| 
-0.10000000000000001 3338:1 44481:1 89537:1 137404:1 137405:1 137427:1 137470:1 137552:1 137637:1 137718:1 137719:1 137720:1 137761:1 139557:1 139634:1 143669:1 144093:1 144709:1 144721:1 144760:1 144884:1 145047:1 145189:1 145557:1 145564:1 145573:1 145579:1 145591:1 145600:1  |EV| 
-0.062893503878551055 34601:1 78517:1 130259:1 137394:1 137398:1 137413:1 137427:1 137438:1 137472:1 138146:1 139246:1 139249:1 139538:1 139634:1 142134:1 144709:1 144721:1 144727:1 144884:1 145039:1 145171:1 145558:1 145568:1 145573:1 145579:1 145580:1 145590:1 145591:1 145600:1  |EV| 
0.60000000000000009 8391:1 49166:1 84898:1 139534:1 139635:1 139653:1 144676:1 144678:1 144696:1 144719:1 144722:1 144731:1 144873:1 145027:1 145187:1 145560:1 145570:1 145573:1 145579:1 145599:1 145600:1  |EV| 
0.52123324407352378 16810:1 58469:1 84898:1 139597:1 139635:1 140198:1 144676:1 144678:1 144696:1 144719:1 144722:1 144731:1 144873:1 145027:1 145187:1 145560:1 145570:1 145573:1 145579:1 145599:1 145600:1  |EV| 
0.60000000000000009 4629:1 44978:1 84898:1 139534:1 139635:1 139653:1 144676:1 144678:1 144696:1 144719:1 144722:1 144731:1 144873:1 145027:1 145187:1 145560:1 145570:1 145573:1 145579:1 145599:1 145600:1  |EV| 
0.45100717469014506 20368:1 62502:1 110605:1 137394:1 137414:1 138706:1 139539:1 139577:1 139635:1 139638:1 139653:1 144676:1 144678:1 144696:1 144697:1 144719:1 144722:1 144731:1 144886:1 145027:1 145187:1 145560:1 145570:1 145573:1 145579:1 145599:1 145600:1  |EV| 
-0.10000000000000001 11550:1 52729:1 84898:1 139534:1 139635:1 139653:1 144676:1 144678:1 144696:1 144719:1 144722:1 144731:1 144873:1 145027:1 145187:1 145560:1 145570:1 145573:1 145579:1 145599:1 145600:1  |EV| 
-0.10000000000000001 12166:1 53416:1 84898:1 139534:1 139635:1 139653:1 144676:1 144678:1 144696:1 144719:1 144722:1 144731:1 144873:1 145027:1 145187:1 145560:1 145570:1 145573:1 145579:1 145599:1 145600:1  |EV| 
-0.10000000000000001 20438:1 62577:1 84898:1 139534:1 139635:1 139653:1 144676:1 144678:1 144696:1 144719:1 144722:1 144731:1 144873:1 145027:1 145187:1 145560:1 145570:1 145573:1 145579:1 145599:1 145600:1  |EV| 
-0.10000000000000001 35705:1 79764:1 84898:1 139534:1 139635:1 139653:1 144676:1 144678:1 144696:1 144719:1 144722:1 144731:1 144873:1 145027:1 145187:1 145560:1 145570:1 145573:1 145579:1 145599:1 145600:1  |EV| 
-0.10000000000000001 21229:1 83876:1 84898:1 139534:1 139635:1 139653:1 144676:1 144678:1 144696:1 144719:1 144722:1 144731:1 144873:1 145027:1 145187:1 145560:1 145570:1 145573:1 145579:1 145599:1 145600:1  |EV| 
0.21264879383435456 22577:1 64964:1 113458:1 137424:1 137427:1 137523:1 137529:1 137530:1 137877:1 137899:1 137932:1 138793:1 139634:1 144690:1 144705:1 144715:1 144722:1 144760:1 144879:1 145027:1 145197:1 145561:1 145565:1 145577:1 145579:1 145584:1 145591:1 145597:1 145610:1  |EV| 
0.31807074480260111 2748:1 65124:1 113627:1 137405:1 137412:1 137415:1 137447:1 137448:1 137768:1 138082:1 138806:1 139634:1 142358:1 144705:1 144711:1 144722:1 144746:1 144879:1 145027:1 145183:1 145558:1 145565:1 145577:1 145579:1 145587:1 145591:1 145610:1  |EV| 
0.044593090584574689 7807:1 48489:1 93817:1 137403:1 137415:1 137424:1 137427:1 137438:1 137516:1 137539:1 137594:1 137642:1 137644:1 137711:1 138033:1 138034:1 138035:1 138041:1 138045:1 138046:1 139634:1 144705:1 144715:1 144722:1 144782:1 144879:1 145027:1 145219:1 145557:1 145568:1 145577:1 145579:1 145591:1 145610:1  |EV| 
0.13591987043595716 6915:1 47447:1 92589:1 137403:1 137415:1 137424:1 137427:1 137438:1 137516:1 137539:1 137594:1 137642:1 137644:1 138033:1 138034:1 138035:1 139634:1 144705:1 144715:1 144722:1 144748:1 144879:1 145027:1 145197:1 145557:1 145568:1 145577:1 145579:1 145591:1 145610:1  |EV| 
0.071226261363190477 7166:1 47734:1 92895:1 137403:1 137415:1 137424:1 137427:1 137438:1 137516:1 137539:1 137594:1 137642:1 137644:1 138033:1 138034:1 138035:1 138041:1 139634:1 144705:1 144715:1 144722:1 144750:1 144879:1 145027:1 145197:1 145557:1 145568:1 145577:1 145579:1 145591:1 145610:1  |EV| 
-0.10000000000000001 3139:1 43353:1 88529:1 137394:1 137400:1 137403:1 137404:1 137415:1 137427:1 137434:1 137438:1 137441:1 137443:1 137503:1 137505:1 137509:1 137726:1 137727:1 137728:1 137729:1 137730:1 137731:1 137732:1 137733:1 137734:1 137735:1 137736:1 137737:1 137738:1 137739:1 137740:1 137743:1 137770:1 139634:1 144705:1 144715:1 144722:1 144797:1 144879:1 145027:1 145236:1 145562:1 145568:1 145577:1 145579:1 145583:1 145591:1 145610:1  |EV| 
-0.057433341492919669 4372:1 44715:1 89894:1 137394:1 137400:1 137403:1 137404:1 137415:1 137427:1 137434:1 137438:1 137441:1 137443:1 137503:1 137505:1 137509:1 137726:1 137727:1 137728:1 137729:1 137730:1 137731:1 137732:1 137733:1 137734:1 137735:1 137736:1 137737:1 137738:1 137739:1 137740:1 139634:1 142134:1 144705:1 144715:1 144722:1 144789:1 144879:1 145027:1 145236:1 145562:1 145568:1 145577:1 145579:1 145583:1 145591:1 145610:1  |EV| 
-0.078102627467672187 16243:1 57877:1 105541:1 137394:1 137427:1 137731:1 139543:1 139634:1 143669:1 144045:1 144709:1 144721:1 144724:1 144871:1 145047:1 145168:1 145561:1 145568:1 145573:1 145579:1 145591:1 145600:1  |EV| 
-0.067042981332340754 23476:1 66059:1 114706:1 137424:1 137427:1 137493:1 137523:1 137529:1 137530:1 137877:1 137899:1 137901:1 137932:1 138361:1 138793:1 138794:1 138795:1 138796:1 139634:1 144690:1 144705:1 144715:1 144722:1 144748:1 144879:1 145027:1 145197:1 145560:1 145565:1 145577:1 145579:1 145591:1 145597:1 145610:1  |EV| 
-0.10000000000000001 19675:1 61741:1 109668:1 137403:1 137415:1 137427:1 137447:1 137448:1 137544:1 137552:1 137644:1 137677:1 138106:1 138650:1 139634:1 144705:1 144715:1 144722:1 144759:1 144879:1 145027:1 145197:1 145562:1 145568:1 145577:1 145579:1 145583:1 145591:1 145610:1  |EV| 
0.60000000000000009 25867:1 68841:1 84898:1 139542:1 139635:1 139653:1 144676:1 144678:1 144696:1 144719:1 144722:1 144731:1 144873:1 145027:1 145187:1 145562:1 145570:1 145573:1 145579:1 145583:1 145599:1 145600:1  |EV| 
0.56352174925220655 1629:1 41763:1 84898:1 139552:1 139635:1 139731:1 144676:1 144678:1 144696:1 144719:1 144722:1 144731:1 144873:1 145027:1 145187:1 145557:1 145570:1 145573:1 145579:1 145599:1 145600:1  |EV| 
-0.10000000000000001 12015:1 53252:1 89946:1 137701:1 139560:1 139635:1 144676:1 144678:1 144696:1 144719:1 144722:1 144731:1 144882:1 145027:1 145187:1 145557:1 145570:1 145573:1 145579:1 145599:1 145600:1  |EV| 
-0.10000000000000001 10096:1 51100:1 84898:1 139539:1 139577:1 139635:1 139638:1 139653:1 144676:1 144678:1 144696:1 144698:1 144719:1 144722:1 144731:1 144873:1 145027:1 145187:1 145561:1 145570:1 145573:1 145579:1 145599:1 145600:1  |EV| 
-0.013688319678341934 6780:1 47303:1 92460:1 137403:1 137974:1 139557:1 139635:1 139653:1 144676:1 144678:1 144696:1 144719:1 144722:1 144731:1 144893:1 145027:1 145187:1 145561:1 145570:1 145573:1 145579:1 145599:1 145600:1  |EV| 
-0.10000000000000001 2399:1 47700:1 106630:1 138620:1 139540:1 139635:1 144676:1 144678:1 144696:1 144719:1 144722:1 144731:1 144882:1 145027:1 145187:1 145557:1 145570:1 145573:1 145579:1 145599:1 145600:1  |EV| 
-0.058165700568128142 449:1 40495:1 84898:1 139539:1 139635:1 139653:1 144676:1 144678:1 144696:1 144719:1 144722:1 144731:1 144873:1 145027:1 145187:1 145561:1 145570:1 145573:1 145579:1 145584:1 145599:1 145600:1  |EV| 
0.19620183393245702 28199:1 71402:1 121906:1 137394:1 137403:1 137415:1 137427:1 137516:1 137522:1 137523:1 137524:1 137552:1 137597:1 137604:1 137914:1 137933:1 138396:1 138662:1 138709:1 138719:1 138821:1 138876:1 138923:1 139026:1 139027:1 139634:1 144705:1 144715:1 144722:1 144778:1 144879:1 145027:1 145219:1 145560:1 145568:1 145577:1 145579:1 145591:1 145610:1  |EV| 
0.30827773767627048 1141:1 41270:1 85945:1 137394:1 137427:1 137505:1 137523:1 137526:1 137527:1 137528:1 137529:1 137530:1 137535:1 137569:1 139537:1 139634:1 143669:1 144027:1 144709:1 144721:1 144754:1 144897:1 145047:1 145189:1 145558:1 145568:1 145573:1 145579:1 145590:1 145591:1 145600:1  |EV| 
-0.10000000000000001 27975:1 71161:1 121522:1 137394:1 137403:1 137415:1 137427:1 137516:1 137522:1 137523:1 137524:1 137552:1 137597:1 137604:1 137914:1 138396:1 138662:1 138709:1 138719:1 138821:1 138876:1 138923:1 139026:1 139027:1 139569:1 139634:1 144708:1 144722:1 144778:1 144898:1 145058:1 145220:1 145560:1 145568:1 145573:1 145579:1 145591:1 145600:1  |EV| 
-0.10000000000000001 1087:1 41216:1 85969:1 137394:1 137427:1 137505:1 137523:1 137526:1 137527:1 137528:1 137529:1 137530:1 137535:1 137569:1 139634:1 144705:1 144715:1 144722:1 144754:1 144879:1 145027:1 145197:1 145558:1 145568:1 145577:1 145579:1 145590:1 145591:1 145610:1  |EV| 
-0.10000000000000001 1146:1 41275:1 86302:1 137394:1 137427:1 137505:1 137516:1 137521:1 137522:1 137523:1 137524:1 137525:1 137526:1 137527:1 137528:1 137529:1 137530:1 137535:1 137569:1 139537:1 139634:1 144708:1 144722:1 144747:1 144897:1 145024:1 145220:1 145558:1 145568:1 145573:1 145579:1 145591:1 145600:1  |EV| 
-0.027773443864635601 26833:1 69873:1 119369:1 137427:1 137438:1 138412:1 139609:1 139634:1 139640:1 143668:1 144466:1 144675:1 144677:1 144687:1 144690:1 144718:1 144722:1 144731:1 144879:1 145034:1 145182:1 145563:1 145568:1 145573:1 145588:1 145590:1 145591:1 145600:1  |EV| 
0.60000000000000009 2151:1 42303:1 84898:1 139552:1 139635:1 144676:1 144678:1 144696:1 144719:1 144722:1 144731:1 144873:1 145027:1 145187:1 145557:1 145570:1 145573:1 145579:1 145599:1 145600:1  |EV| 
0.37688023985770897 27619:1 70726:1 120789:1 137413:1 137447:1 137448:1 139017:1 139555:1 139635:1 144676:1 144678:1 144696:1 144719:1 144722:1 144731:1 144892:1 145027:1 145187:1 145557:1 145570:1 145573:1 145579:1 145599:1 145600:1  |EV| 
0.28909271165372219 3238:1 48736:1 94157:1 137999:1 139540:1 139635:1 139738:1 144676:1 144678:1 144696:1 144719:1 144722:1 144731:1 144882:1 145027:1 145187:1 145560:1 145570:1 145573:1 145579:1 145599:1 145600:1  |EV| 
0.41044848315409521 4712:1 66539:1 115315:1 137544:1 138144:1 139534:1 139635:1 140023:1 144676:1 144678:1 144696:1 144719:1 144722:1 144731:1 144893:1 145027:1 145187:1 145560:1 145570:1 145573:1 145579:1 145599:1 145600:1  |EV| 
-0.076310188408759 26914:1 69957:1 119507:1 137394:1 137438:1 138960:1 139539:1 139634:1 142141:1 142301:1 143325:1 144690:1 144713:1 144722:1 144728:1 144873:1 145019:1 145173:1 145560:1 145565:1 145573:1 145579:1 145591:1 145600:1  |EV| 
-0.0830840376030305 35310:1 79324:1 131281:1 137449:1 139310:1 139537:1 139634:1 144710:1 144722:1 144727:1 144873:1 145034:1 145178:1 145560:1 145568:1 145573:1 145579:1 145591:1 145600:1  |EV| 
-0.058000723527291763 882:1 40990:1 86878:1 137394:1 137487:1 139534:1 139635:1 139653:1 144676:1 144678:1 144696:1 144719:1 144722:1 144731:1 144893:1 145027:1 145187:1 145560:1 145570:1 145573:1 145579:1 145599:1 145600:1  |EV| 
-0.10000000000000001 18073:1 59830:1 86002:1 137427:1 139582:1 139635:1 139681:1 144676:1 144678:1 144696:1 144719:1 144722:1 144731:1 144882:1 145027:1 145187:1 145560:1 145570:1 145573:1 145579:1 145599:1 145600:1  |EV| 
-0.10000000000000001 11612:1 52810:1 99149:1 138223:1 139553:1 139635:1 139638:1 144676:1 144678:1 144696:1 144719:1 144722:1 144731:1 144882:1 145027:1 145187:1 145560:1 145570:1 145573:1 145579:1 145580:1 145599:1 145600:1  |EV| 
0.1337811969725268 1040:1 41168:1 85803:1 137394:1 137415:1 137424:1 137427:1 137516:1 137523:1 137529:1 137530:1 137547:1 137548:1 137577:1 137578:1 137579:1 137580:1 139634:1 144705:1 144715:1 144722:1 144752:1 144879:1 145027:1 145197:1 145561:1 145568:1 145577:1 145579:1 145591:1 145610:1  |EV| 
0.31466261211553503 1033:1 41161:1 85794:1 137394:1 137427:1 137523:1 137526:1 137527:1 137528:1 137529:1 137530:1 139547:1 139548:1 139634:1 144713:1 144722:1 144729:1 144886:1 145038:1 145175:1 145561:1 145568:1 145573:1 145579:1 145580:1 145591:1 145600:1  |EV| 
0.15615529170971623 26593:1 69631:1 119003:1 137394:1 137427:1 137523:1 137529:1 137530:1 137547:1 137548:1 138377:1 139609:1 139634:1 143317:1 143668:1 144466:1 144690:1 144708:1 144722:1 144733:1 144874:1 145030:1 145167:1 145561:1 145568:1 145573:1 145579:1 145582:1 145591:1 145600:1  |EV| 
0.17057406128550517 5645:1 46049:1 91266:1 137394:1 137403:1 137429:1 137438:1 137493:1 137523:1 137529:1 137530:1 137547:1 137548:1 137592:1 137900:1 137901:1 137902:1 137934:1 139569:1 139634:1 139964:1 142361:1 143722:1 144122:1 144708:1 144722:1 144748:1 144881:1 145035:1 145205:1 145558:1 145565:1 145573:1 145579:1 145591:1 145595:1 145600:1  |EV| 
-0.059218770203210078 28536:1 71767:1 122251:1 137394:1 139060:1 139634:1 142134:1 144705:1 144711:1 144722:1 144745:1 144879:1 145027:1 145183:1 145557:1 145565:1 145577:1 145579:1 145591:1 145610:1  |EV| 
-0.074465312649383317 11875:1 53099:1 99451:1 137403:1 137427:1 137472:1 138229:1 139553:1 139634:1 140436:1 142714:1 143669:1 144064:1 144709:1 144721:1 144723:1 144890:1 145047:1 145168:1 145560:1 145568:1 145573:1 145579:1 145590:1 145591:1 145600:1  |EV| 
-0.095082136546807264 26798:1 69837:1 119307:1 137394:1 137424:1 137427:1 137441:1 137443:1 137523:1 137529:1 137530:1 137531:1 137547:1 137548:1 137753:1 138377:1 138923:1 138938:1 138953:1 138954:1 139609:1 139634:1 142910:1 142949:1 143668:1 144466:1 144681:1 144690:1 144708:1 144722:1 144750:1 144896:1 145030:1 145191:1 145561:1 145568:1 145573:1 145579:1 145580:1 145591:1 145600:1  |EV| 
-0.10000000000000001 5423:1 45816:1 91048:1 137394:1 137403:1 137429:1 137438:1 137493:1 137523:1 137529:1 137530:1 137547:1 137548:1 137592:1 137900:1 137901:1 137902:1 137933:1 137934:1 139634:1 142361:1 144705:1 144715:1 144722:1 144748:1 144879:1 145027:1 145197:1 145558:1 145565:1 145577:1 145579:1 145591:1 145595:1 145610:1  |EV| 
0.28763157955567603 39015:1 83240:1 135718:1 137427:1 137718:1 137721:1 139499:1 139500:1 139567:1 139635:1 144676:1 144678:1 144696:1 144717:1 144722:1 144731:1 144890:1 145027:1 145181:1 145560:1 145570:1 145573:1 145579:1 145599:1 145600:1  |EV| 
0.55745662347839131 18640:1 60491:1 108193:1 137472:1 137565:1 139540:1 139635:1 139681:1 144676:1 144678:1 144696:1 144717:1 144722:1 144731:1 144875:1 145027:1 145181:1 145560:1 145570:1 145573:1 145579:1 145599:1 145600:1  |EV| 
-0.059863365850723028 23702:1 66367:1 115085:1 137394:1 137415:1 137427:1 137447:1 137472:1 137550:1 138221:1 138805:1 139543:1 139634:1 143669:1 144045:1 144709:1 144721:1 144726:1 144881:1 145033:1 145168:1 145558:1 145565:1 145573:1 145579:1 145587:1 145591:1 145600:1  |EV| 
0.076657903254954238 17846:1 59570:1 107153:1 137394:1 137404:1 137405:1 137415:1 137427:1 137520:1 137527:1 137584:1 137608:1 137657:1 139540:1 139634:1 142974:1 143863:1 144371:1 144708:1 144722:1 144759:1 144872:1 145042:1 145205:1 145560:1 145569:1 145573:1 145579:1 145591:1 145594:1 145600:1  |EV| 
-0.047452690676023743 22863:1 65305:1 113821:1 137472:1 137835:1 139540:1 139635:1 139681:1 144676:1 144678:1 144696:1 144717:1 144722:1 144731:1 144875:1 145027:1 145181:1 145560:1 145570:1 145573:1 145579:1 145599:1 145600:1  |EV| 
-0.10000000000000001 24326:1 67135:1 116027:1 138709:1 138843:1 139540:1 139635:1 139681:1 144676:1 144678:1 144696:1 144717:1 144722:1 144731:1 144875:1 145027:1 145181:1 145562:1 145570:1 145573:1 145579:1 145583:1 145599:1 145600:1  |EV| 
-0.10000000000000001 15821:1 57348:1 91115:1 137472:1 137941:1 139540:1 139635:1 139681:1 144676:1 144678:1 144696:1 144717:1 144722:1 144731:1 144875:1 145027:1 145181:1 145560:1 145570:1 145573:1 145579:1 145599:1 145600:1  |EV| 
0.17509627721820362 36408:1 80481:1 132821:1 137394:1 137396:1 137419:1 137438:1 137441:1 137443:1 137746:1 138215:1 138294:1 139341:1 139346:1 139347:1 139591:1 139634:1 140506:1 143692:1 144338:1 144708:1 144722:1 144752:1 144875:1 145037:1 145190:1 145561:1 145564:1 145573:1 145579:1 145590:1 145591:1 145600:1  |EV| 
0.29515239232756579 16879:1 58538:1 106145:1 137394:1 137403:1 137424:1 137427:1 137438:1 137479:1 137581:1 137614:1 137810:1 138598:1 138601:1 138602:1 139634:1 144705:1 144715:1 144722:1 144754:1 144879:1 145027:1 145197:1 145557:1 145568:1 145577:1 145579:1 145591:1 145610:1  |EV| 
0.60000000000000009 34265:1 78125:1 93624:1 137394:1 137419:1 137427:1 139634:1 142134:1 144705:1 144715:1 144722:1 144724:1 144879:1 145027:1 145176:1 145558:1 145565:1 145577:1 145579:1 145580:1 145591:1 145610:1  |EV| 
-0.10000000000000001 29973:1 73350:1 123812:1 137394:1 137419:1 137429:1 137447:1 137448:1 137707:1 137813:1 139634:1 142370:1 144705:1 144711:1 144722:1 144762:1 144879:1 145027:1 145183:1 145561:1 145568:1 145577:1 145579:1 145586:1 145591:1 145610:1  |EV| 
-0.10000000000000001 25124:1 68041:1 117002:1 137394:1 137447:1 137516:1 138882:1 139634:1 144705:1 144711:1 144722:1 144744:1 144879:1 145027:1 145183:1 145561:1 145568:1 145577:1 145579:1 145591:1 145610:1  |EV| 
-0.10000000000000001 28383:1 71602:1 122095:1 137438:1 137447:1 138215:1 139035:1 139634:1 144705:1 144711:1 144722:1 144744:1 144879:1 145027:1 145183:1 145561:1 145568:1 145577:1 145579:1 145585:1 145591:1 145597:1 145610:1  |EV| 
-0.10000000000000001 29560:1 72902:1 123371:1 137394:1 137419:1 137447:1 137516:1 137598:1 137692:1 138007:1 139090:1 139634:1 144705:1 144711:1 144722:1 144746:1 144879:1 145027:1 145183:1 145561:1 145568:1 145577:1 145579:1 145590:1 145591:1 145610:1  |EV| 
-0.045709964831854605 4515:1 44861:1 90066:1 137394:1 137398:1 137438:1 137679:1 137838:1 137839:1 139540:1 139634:1 143676:1 144029:1 144712:1 144722:1 144762:1 144894:1 145021:1 145196:1 145560:1 145568:1 145573:1 145579:1 145591:1 145600:1  |EV| 
0.60000000000000009 5495:1 45889:1 91115:1 137472:1 137941:1 139540:1 139635:1 139681:1 144676:1 144678:1 144696:1 144717:1 144722:1 144731:1 144875:1 145027:1 145181:1 145560:1 145570:1 145573:1 145579:1 145599:1 145600:1  |EV| 
0.60000000000000009 25160:1 68081:1 84565:1 137394:1 139540:1 139635:1 144676:1 144678:1 144696:1 144717:1 144722:1 144731:1 144885:1 145027:1 145181:1 145560:1 145570:1 145573:1 145579:1 145599:1 145600:1  |EV| 
0.36089760602515059 38990:1 83211:1 135684:1 137415:1 137424:1 137427:1 137718:1 137721:1 137881:1 138408:1 139567:1 139635:1 144676:1 144678:1 144696:1 144717:1 144722:1 144731:1 144891:1 145027:1 145181:1 145558:1 145570:1 145573:1 145579:1 145599:1 145600:1  |EV| 
0.4318792945013063 38703:1 82895:1 135401:1 137394:1 137516:1 139582:1 139635:1 139681:1 144676:1 144678:1 144696:1 144717:1 144722:1 144731:1 144875:1 145027:1 145181:1 145561:1 145570:1 145573:1 145579:1 145599:1 145600:1  |EV| 
-0.077065598234384469 8913:1 49706:1 95330:1 137414:1 137539:1 139579:1 139635:1 139638:1 144676:1 144678:1 144696:1 144717:1 144722:1 144731:1 144875:1 145027:1 145181:1 145558:1 145570:1 145573:1 145579:1 145599:1 145600:1  |EV| 
-0.10000000000000001 2130:1 42281:1 87045:1 137394:1 137640:1 139540:1 139635:1 139681:1 144676:1 144678:1 144696:1 144717:1 144722:1 144731:1 144875:1 145027:1 145181:1 145560:1 145570:1 145573:1 145579:1 145599:1 145600:1  |EV| 
-0.063522847653963002 29358:1 72683:1 123465:1 137414:1 139074:1 139612:1 139635:1 139638:1 144676:1 144678:1 144696:1 144717:1 144722:1 144731:1 144875:1 145027:1 145181:1 145557:1 145570:1 145573:1 145579:1 145599:1 145600:1  |EV| 
-0.010079932280753054 25600:1 68551:1 117618:1 137561:1 139549:1 139635:1 139653:1 144676:1 144678:1 144696:1 144719:1 144722:1 144731:1 144882:1 145027:1 145187:1 145560:1 145570:1 145573:1 145579:1 145599:1 145600:1  |EV| 
-0.068256773571352597 13432:1 54758:1 101239:1 137394:1 137415:1 137427:1 137438:1 137444:1 137449:1 137629:1 137640:1 138374:1 138376:1 138377:1 139537:1 139634:1 144709:1 144721:1 144743:1 144902:1 145019:1 145171:1 145561:1 145568:1 145573:1 145579:1 145591:1 145600:1  |EV| 
0.44049482767528214 24246:1 67053:1 116550:1 137394:1 137419:1 137427:1 137472:1 137531:1 137544:1 138080:1 138106:1 138825:1 138826:1 139634:1 144682:1 144705:1 144711:1 144722:1 144729:1 144879:1 145027:1 145170:1 145561:1 145568:1 145577:1 145579:1 145585:1 145591:1 145592:1 145610:1  |EV| 
0.13668072064540607 17022:1 58684:1 90951:1 137441:1 139634:1 142172:1 142901:1 142932:1 142933:1 144681:1 144690:1 144705:1 144711:1 144722:1 144734:1 144879:1 145027:1 145183:1 145561:1 145568:1 145577:1 145579:1 145591:1 145610:1  |EV| 
0.1173996801069495 36762:1 80844:1 90951:1 137441:1 139634:1 142172:1 142901:1 142902:1 144682:1 144691:1 144705:1 144711:1 144722:1 144734:1 144879:1 145027:1 145183:1 145561:1 145568:1 145577:1 145579:1 145580:1 145591:1 145610:1  |EV| 
0.37961457307049745 29683:1 73040:1 123510:1 137438:1 137516:1 137715:1 139634:1 144705:1 144711:1 144722:1 144738:1 144879:1 145027:1 145183:1 145561:1 145568:1 145577:1 145579:1 145580:1 145591:1 145610:1  |EV| 
0.3736289698490145 39074:1 83308:1 101444:1 137414:1 139634:1 142134:1 144705:1 144711:1 144722:1 144734:1 144879:1 145027:1 145183:1 145562:1 145568:1 145577:1 145579:1 145583:1 145590:1 145591:1 145593:1 145610:1  |EV| 
-0.049519034739569194 8749:1 49532:1 85319:1 137437:1 139634:1 142134:1 142147:1 144689:1 144705:1 144711:1 144722:1 144734:1 144879:1 145027:1 145183:1 145561:1 145568:1 145577:1 145579:1 145591:1 145610:1  |EV| 
-0.10000000000000001 12519:1 53820:1 84575:1 137403:1 139634:1 142138:1 144705:1 144711:1 144722:1 144734:1 144879:1 145027:1 145183:1 145561:1 145568:1 145577:1 145579:1 145580:1 145591:1 145610:1  |EV| 
-0.10000000000000001 36199:1 80268:1 85407:1 137427:1 139634:1 144705:1 144711:1 144722:1 144734:1 144879:1 145027:1 145183:1 145561:1 145568:1 145577:1 145579:1 145591:1 145610:1  |EV| 
0.3785580511758006 16893:1 58552:1 106160:1 137394:1 137516:1 138562:1 138563:1 139548:1 139589:1 139635:1 144676:1 144678:1 144696:1 144717:1 144722:1 144731:1 144890:1 145027:1 145181:1 145561:1 145570:1 145573:1 145579:1 145599:1 145600:1  |EV| 
-0.010879505867533817 4684:1 45034:1 84565:1 137394:1 139534:1 139635:1 139641:1 144676:1 144678:1 144696:1 144717:1 144722:1 144731:1 144885:1 145027:1 145181:1 145561:1 145570:1 145573:1 145579:1 145580:1 145599:1 145600:1  |EV| 
-0.0020707518464681638 26998:1 70040:1 119668:1 137394:1 137403:1 137427:1 137433:1 137438:1 137466:1 137506:1 137516:1 137749:1 138251:1 139634:1 144705:1 144715:1 144722:1 144736:1 144879:1 145027:1 145197:1 145561:1 145568:1 145577:1 145579:1 145586:1 145590:1 145591:1 145610:1  |EV| 
-0.049166898931761446 7229:1 69054:1 118291:1 137394:1 138904:1 139540:1 139635:1 139681:1 144676:1 144678:1 144696:1 144717:1 144722:1 144731:1 144875:1 145027:1 145181:1 145562:1 145570:1 145573:1 145579:1 145583:1 145599:1 145600:1  |EV| 
0.35579709817535199 30936:1 74468:1 125154:1 137701:1 137707:1 139634:1 144705:1 144711:1 144722:1 144745:1 144879:1 145027:1 145183:1 145561:1 145568:1 145577:1 145579:1 145591:1 145610:1  |EV| 
0.11120143120049691 29443:1 72778:1 85047:1 137438:1 139634:1 142134:1 144705:1 144711:1 144722:1 144734:1 144879:1 145027:1 145183:1 145561:1 145568:1 145577:1 145579:1 145591:1 145610:1  |EV| 
0.11119951563804988 30879:1 74411:1 85047:1 137438:1 139634:1 142134:1 144705:1 144711:1 144722:1 144734:1 144879:1 145027:1 145183:1 145561:1 145568:1 145577:1 145579:1 145591:1 145610:1  |EV| 
0.11121677538937534 31068:1 74602:1 85047:1 137438:1 139634:1 142134:1 144705:1 144711:1 144722:1 144734:1 144879:1 145027:1 145183:1 145561:1 145568:1 145577:1 145579:1 145591:1 145610:1  |EV| 
0.11121677538937293 35186:1 79177:1 85047:1 137438:1 139634:1 142134:1 144705:1 144711:1 144722:1 144734:1 144879:1 145027:1 145183:1 145561:1 145568:1 145577:1 145579:1 145591:1 145610:1  |EV| 
-0.027379697086219006 10326:1 51347:1 97392:1 137394:1 137403:1 137415:1 137427:1 137438:1 137444:1 138188:1 138190:1 138191:1 138192:1 138193:1 138200:1 139545:1 139580:1 139634:1 140307:1 142326:1 143669:1 143670:1 144041:1 144228:1 144697:1 144709:1 144721:1 144759:1 144900:1 145023:1 145189:1 145560:1 145568:1 145573:1 145579:1 145591:1 145600:1  |EV| 
-0.10000000000000001 26621:1 69659:1 85047:1 137438:1 139634:1 142134:1 144681:1 144705:1 144711:1 144722:1 144734:1 144879:1 145027:1 145183:1 145561:1 145568:1 145577:1 145579:1 145580:1 145591:1 145610:1  |EV| 
-0.10000000000000001 4718:1 45069:1 84898:1 139552:1 139635:1 139653:1 144676:1 144678:1 144696:1 144719:1 144722:1 144731:1 144873:1 145027:1 145187:1 145560:1 145570:1 145573:1 145579:1 145599:1 145600:1  |EV| 
-0.094503492392930252 9554:1 79204:1 84898:1 139534:1 139635:1 139653:1 144676:1 144678:1 144696:1 144719:1 144722:1 144731:1 144873:1 145027:1 145187:1 145560:1 145570:1 145573:1 145579:1 145599:1 145600:1  |EV| 
-0.10000000000000001 4904:1 45263:1 84898:1 139567:1 139635:1 144676:1 144678:1 144696:1 144719:1 144722:1 144731:1 144873:1 145027:1 145187:1 145557:1 145570:1 145573:1 145579:1 145599:1 145600:1  |EV| 
0.23661938204297056 6807:1 47330:1 85047:1 137438:1 139634:1 142134:1 142147:1 144688:1 144705:1 144711:1 144722:1 144734:1 144879:1 145027:1 145183:1 145560:1 145568:1 145577:1 145579:1 145591:1 145610:1  |EV| 
0.1116412211382103 38478:1 82661:1 85047:1 137438:1 139634:1 142134:1 144705:1 144711:1 144722:1 144734:1 144879:1 145027:1 145183:1 145561:1 145568:1 145577:1 145579:1 145591:1 145610:1  |EV| 
0.42992900257065575 3279:1 43495:1 85289:1 137505:1 139634:1 142134:1 144705:1 144711:1 144722:1 144734:1 144879:1 145027:1 145183:1 145557:1 145568:1 145577:1 145579:1 145591:1 145610:1  |EV| 
-0.020518058954343946 4829:1 45186:1 90460:1 137438:1 139537:1 139634:1 139658:1 142134:1 143672:1 144057:1 144710:1 144722:1 144737:1 144873:1 145041:1 145178:1 145561:1 145568:1 145573:1 145579:1 145580:1 145590:1 145591:1 145600:1  |EV| 
-0.10000000000000001 17557:1 59245:1 94843:1 137454:1 139634:1 142134:1 142221:1 144705:1 144711:1 144722:1 144734:1 144879:1 145027:1 145183:1 145560:1 145568:1 145577:1 145579:1 145591:1 145610:1  |EV| 
-0.093513720586181917 6336:1 46788:1 84951:1 137394:1 137454:1 139634:1 142134:1 144705:1 144711:1 144722:1 144745:1 144879:1 145027:1 145183:1 145558:1 145568:1 145577:1 145579:1 145591:1 145610:1  |EV| 
-0.013977935559270811 10371:1 51393:1 84898:1 139541:1 139635:1 139653:1 144676:1 144678:1 144696:1 144719:1 144722:1 144731:1 144873:1 145027:1 145187:1 145562:1 145570:1 145573:1 145579:1 145583:1 145599:1 145600:1  |EV| 
-0.01397793555926998 11338:1 52490:1 84898:1 139541:1 139635:1 139653:1 144676:1 144678:1 144696:1 144719:1 144722:1 144731:1 144873:1 145027:1 145187:1 145562:1 145570:1 145573:1 145579:1 145583:1 145599:1 145600:1  |EV| 
-0.0054141183248647556 2272:1 42434:1 87234:1 139540:1 139634:1 142142:1 144709:1 144721:1 144751:1 144885:1 145047:1 145168:1 145562:1 145564:1 145573:1 145579:1 145583:1 145595:1 145600:1  |EV| 
-0.10000000000000001 14855:1 56334:1 84898:1 139589:1 139635:1 139653:1 144676:1 144678:1 144696:1 144719:1 144722:1 144731:1 144873:1 145027:1 145187:1 145557:1 145570:1 145573:1 145579:1 145599:1 145600:1  |EV| 
-0.05457160882459007 7995:1 48735:1 94154:1 137412:1 137427:1 137516:1 138003:1 139557:1 139635:1 139693:1 144676:1 144678:1 144696:1 144719:1 144722:1 144731:1 144892:1 145027:1 145187:1 145557:1 145570:1 145573:1 145579:1 145599:1 145600:1  |EV| 
0.28947908496368047 15997:1 57543:1 89157:1 137394:1 137447:1 139634:1 142134:1 142147:1 142193:1 142874:1 142875:1 142876:1 144691:1 144705:1 144711:1 144722:1 144745:1 144879:1 145027:1 145183:1 145560:1 145568:1 145577:1 145579:1 145591:1 145610:1  |EV| 
0.43901769775578581 7863:1 48556:1 93908:1 137424:1 139634:1 142134:1 144705:1 144711:1 144722:1 144734:1 144879:1 145027:1 145183:1 145558:1 145568:1 145577:1 145579:1 145591:1 145610:1  |EV| 
-0.10000000000000001 32543:1 76149:1 101701:1 137438:1 138082:1 139634:1 142134:1 144705:1 144711:1 144722:1 144745:1 144879:1 145027:1 145183:1 145560:1 145568:1 145577:1 145579:1 145591:1 145610:1  |EV| 
-0.024188204474089797 12911:1 54222:1 85973:1 137394:1 137419:1 139634:1 142134:1 144705:1 144711:1 144722:1 144745:1 144879:1 145027:1 145183:1 145561:1 145568:1 145577:1 145579:1 145591:1 145610:1  |EV| 
-0.10000000000000001 39965:1 84406:1 137276:1 137394:1 137415:1 137467:1 138188:1 139534:1 139634:1 139636:1 142134:1 143669:1 144019:1 144713:1 144722:1 144728:1 144893:1 145023:1 145173:1 145560:1 145568:1 145573:1 145579:1 145591:1 145600:1  |EV| 
-0.0063735737270730801 15575:1 57091:1 104300:1 137646:1 138080:1 139634:1 142134:1 144705:1 144711:1 144722:1 144745:1 144879:1 145027:1 145183:1 145560:1 145568:1 145577:1 145579:1 145591:1 145610:1  |EV| 
0.40646725640453918 29569:1 72913:1 123381:1 137516:1 137692:1 138007:1 139545:1 139614:1 139635:1 144676:1 144678:1 144696:1 144719:1 144722:1 144731:1 144886:1 145027:1 145187:1 145561:1 145570:1 145573:1 145579:1 145599:1 145600:1  |EV| 
-0.10000000000000001 29848:1 73220:1 123688:1 137516:1 137692:1 139086:1 139548:1 139574:1 139635:1 144676:1 144678:1 144696:1 144719:1 144722:1 144731:1 144886:1 145027:1 145187:1 145561:1 145570:1 145573:1 145579:1 145599:1 145600:1  |EV| 
-0.099161897530073637 24049:1 66850:1 120666:1 137434:1 137516:1 138213:1 138352:1 139548:1 139555:1 139635:1 141414:1 141455:1 144676:1 144678:1 144696:1 144719:1 144722:1 144731:1 144892:1 145027:1 145187:1 145561:1 145570:1 145573:1 145579:1 145599:1 145600:1  |EV| 
-0.070391617112973953 1178:1 41308:1 85943:1 137427:1 137526:1 137527:1 139547:1 139548:1 139635:1 144676:1 144678:1 144696:1 144719:1 144722:1 144731:1 144886:1 145027:1 145187:1 145561:1 145570:1 145573:1 145579:1 145580:1 145599:1 145600:1  |EV| 
-0.049165360435370155 3881:1 44140:1 89100:1 137447:1 137448:1 137813:1 139541:1 139635:1 144676:1 144678:1 144696:1 144719:1 144722:1 144731:1 144886:1 145027:1 145187:1 145561:1 145570:1 145573:1 145579:1 145599:1 145600:1  |EV| 
0.19052866216549985 27589:1 70691:1 120750:1 137394:1 137487:1 137552:1 139016:1 139634:1 142134:1 144705:1 144715:1 144722:1 144723:1 144879:1 145027:1 145176:1 145560:1 145568:1 145577:1 145579:1 145591:1 145597:1 145610:1  |EV| 
0.53407492392039102 13949:1 55304:1 101958:1 137394:1 137415:1 137427:1 137444:1 137449:1 137640:1 138376:1 138377:1 139634:1 144705:1 144715:1 144722:1 144743:1 144879:1 145027:1 145176:1 145561:1 145568:1 145577:1 145579:1 145591:1 145610:1  |EV| 
0.21914967256482709 16664:1 58320:1 105963:1 137415:1 137447:1 137483:1 137506:1 137552:1 138221:1 138597:1 139634:1 142756:1 144705:1 144715:1 144722:1 144726:1 144879:1 145027:1 145176:1 145560:1 145568:1 145577:1 145579:1 145591:1 145610:1  |EV| 
0.40429339405271442 16911:1 58570:1 106176:1 137394:1 137412:1 137415:1 137427:1 137437:1 137516:1 138522:1 138523:1 139634:1 142142:1 142491:1 144705:1 144715:1 144722:1 144733:1 144879:1 145027:1 145176:1 145560:1 145568:1 145577:1 145579:1 145591:1 145610:1  |EV| 
0.22056015983786004 37254:1 81369:1 133803:1 137438:1 139431:1 139432:1 139634:1 142134:1 144705:1 144715:1 144722:1 144724:1 144879:1 145027:1 145176:1 145560:1 145568:1 145577:1 145579:1 145590:1 145591:1 145610:1  |EV| 
-0.10000000000000001 9252:1 50060:1 95767:1 137427:1 137437:1 137447:1 137472:1 137727:1 138129:1 138130:1 139634:1 142191:1 144705:1 144715:1 144722:1 144743:1 144879:1 145027:1 145176:1 145560:1 145568:1 145577:1 145579:1 145591:1 145610:1  |EV| 
-0.10000000000000001 4035:1 44312:1 89322:1 137424:1 137427:1 137438:1 137642:1 137756:1 137757:1 137758:1 137759:1 139634:1 144705:1 144715:1 144722:1 144743:1 144879:1 145027:1 145176:1 145557:1 145568:1 145577:1 145579:1 145591:1 145593:1 145610:1  |EV| 
-0.10000000000000001 7075:1 47627:1 92775:1 137394:1 137405:1 137427:1 137438:1 137505:1 137656:1 137692:1 138039:1 139634:1 144705:1 144715:1 144722:1 144743:1 144879:1 145027:1 145176:1 145558:1 145568:1 145577:1 145579:1 145590:1 145591:1 145610:1  |EV| 
-0.10000000000000001 4842:1 45199:1 90476:1 137427:1 137438:1 137445:1 137448:1 137820:1 137834:1 137835:1 137836:1 139634:1 142134:1 144705:1 144715:1 144722:1 144743:1 144879:1 145027:1 145176:1 145560:1 145568:1 145577:1 145579:1 145590:1 145591:1 145610:1  |EV| 
-0.10000000000000001 38122:1 82299:1 134787:1 137427:1 137457:1 137721:1 137851:1 139634:1 144705:1 144715:1 144722:1 144723:1 144879:1 145027:1 145176:1 145562:1 145568:1 145577:1 145579:1 145583:1 145591:1 145610:1  |EV| 
0.31837239068582202 27538:1 70628:1 120665:1 137516:1 138213:1 139610:1 139635:1 140091:1 144676:1 144678:1 144696:1 144719:1 144722:1 144731:1 144893:1 145027:1 145187:1 145561:1 145570:1 145573:1 145579:1 145599:1 145600:1  |EV| 
0.3433707106170093 38432:1 82613:1 86002:1 137427:1 139540:1 139635:1 139674:1 144676:1 144678:1 144696:1 144719:1 144722:1 144731:1 144882:1 145027:1 145187:1 145561:1 145570:1 145573:1 145579:1 145586:1 145599:1 145600:1  |EV| 
0.47388962092078757 12231:1 53487:1 90108:1 137413:1 139534:1 139635:1 144676:1 144678:1 144696:1 144719:1 144722:1 144731:1 144882:1 145027:1 145187:1 145561:1 145570:1 145573:1 145579:1 145586:1 145599:1 145600:1  |EV| 
-0.10000000000000001 13760:1 55107:1 101692:1 137394:1 137415:1 137449:1 137640:1 138376:1 138377:1 139540:1 139635:1 144676:1 144678:1 144696:1 144717:1 144722:1 144731:1 144888:1 145027:1 145181:1 145561:1 145570:1 145573:1 145579:1 145599:1 145600:1  |EV| 
-0.10000000000000001 23573:1 66186:1 86002:1 137427:1 139539:1 139635:1 144676:1 144678:1 144696:1 144719:1 144722:1 144731:1 144882:1 145027:1 145187:1 145561:1 145570:1 145573:1 145579:1 145599:1 145600:1  |EV| 
