SVM-light Version V5.01-TK-1.2
0 # kernel type
3 # kernel parameter -d 
1 # kernel parameter -g 
1 # kernel parameter -s 
1 # kernel parameter -r 
empty# kernel parameter -u 
0.4 # kernel parameter -L 
1 # kernel parameter -T 
T # kernel parameter -C 
1 # kernel parameter -F 
0 # kernel parameter -S 
1.000000 # kernel parameter -D 
3 # kernel parameter -N 
S # kernel parameter -V 
S # kernel parameter -W 
61827 # highest feature index 
20967 # number of training documents 
622 # number of support vectors plus 1 
3.8992817 # threshold b, each following line is a SV (starting with alpha*y)
-0.010221498635900203 1725:1 17331:1 35362:1 53438:1 53439:1 53444:1 53489:1 53534:1 53603:1 53632:1 53638:1 53647:1 53719:1 53773:1 53904:1 53905:1 53907:1 53908:1 53909:1 53910:1 53933:1 55540:1 56276:1 61054:1 61059:1 61106:1 61241:1 61383:1 61556:1 61781:1 61788:1 61795:1 61799:1 61810:1 61823:1  |EV| 
-0.02465281470846235 1974:1 17491:1 35550:1 53453:1 53603:1 53943:1 53944:1 55349:1 55534:1 55535:1 55536:1 55537:1 56276:1 57882:1 61038:1 61040:1 61049:1 61059:1 61060:1 61210:1 61372:1 61492:1 61781:1 61788:1 61795:1 61799:1 61805:1 61810:1  |EV| 
0.10000000000000001 10882:1 27779:1 47413:1 53439:1 53472:1 53935:1 55678:1 56276:1 57887:1 61050:1 61059:1 61093:1 61210:1 61351:1 61511:1 61781:1 61788:1 61795:1 61799:1 61810:1 61821:1 61823:1  |EV| 
-0.10000000000000001 4:1 15397:1 32993:1 53434:1 53435:1 53436:1 53437:1 53438:1 53439:1 53441:1 53442:1 53443:1 55346:1 56276:1 57882:1 61049:1 61059:1 61060:1 61208:1 61353:1 61494:1 61781:1 61788:1 61795:1 61799:1 61810:1 61823:1  |EV| 
-0.01112585452775627 1873:1 17386:1 35426:1 53439:1 53456:1 53494:1 53927:1 53931:1 53935:1 55526:1 56276:1 57882:1 61049:1 61059:1 61081:1 61210:1 61377:1 61492:1 61781:1 61788:1 61795:1 61799:1 61810:1 61826:1  |EV| 
0.034685595751789193 24:1 15417:1 33013:1 53436:1 53444:1 53445:1 53446:1 53447:1 53448:1 53449:1 53450:1 53451:1 53452:1 53453:1 53454:1 53469:1 53470:1 53471:1 53472:1 55365:1 56276:1 57894:1 61049:1 61059:1 61077:1 61207:1 61374:1 61501:1 61781:1 61788:1 61795:1 61799:1 61810:1 61823:1  |EV| 
0.10000000000000001 34:1 15427:1 33023:1 53434:1 53435:1 53436:1 53438:1 53439:1 53441:1 53442:1 53443:1 53468:1 55346:1 56276:1 61049:1 61059:1 61074:1 61206:1 61353:1 61506:1 61781:1 61788:1 61795:1 61799:1 61810:1 61823:1  |EV| 
0.068379954128392692 63:1 15456:1 33052:1 55368:1 56276:1 61051:1 61059:1 61061:1 61237:1 61348:1 61495:1 61781:1 61788:1 61795:1 61799:1 61810:1 61823:1  |EV| 
-0.012900909317544814 15253:1 32840:1 53284:1 53434:1 53436:1 53439:1 53444:1 53459:1 53467:1 53494:1 53518:1 53522:1 53558:1 53581:1 53590:1 53597:1 53809:1 54171:1 54392:1 54537:1 55318:1 55322:1 55663:1 56276:1 61049:1 61059:1 61092:1 61238:1 61374:1 61555:1 61781:1 61788:1 61795:1 61799:1 61810:1 61823:1  |EV| 
0.032539696855654637 147:1 15540:1 33136:1 53439:1 53492:1 55380:1 56276:1 57882:1 61049:1 61059:1 61060:1 61206:1 61351:1 61492:1 61781:1 61791:1 61795:1 61799:1 61810:1 61815:1 61823:1  |EV| 
-0.10000000000000001 12219:1 29320:1 49170:1 53439:1 53444:1 53468:1 53472:1 53479:1 53654:1 54196:1 55370:1 56276:1 61049:1 61059:1 61075:1 61206:1 61352:1 61506:1 61781:1 61788:1 61795:1 61799:1 61810:1 61823:1  |EV| 
-0.10000000000000001 6664:1 22825:1 41631:1 53439:1 53468:1 53548:1 53552:1 53590:1 53716:1 55437:1 56276:1 61049:1 61059:1 61092:1 61206:1 61367:1 61492:1 61781:1 61788:1 61795:1 61799:1 61810:1 61823:1  |EV| 
0.039272241369904093 6340:1 22452:1 41286:1 53436:1 53439:1 53472:1 53998:1 54463:1 54506:1 54507:1 54508:1 55831:1 56276:1 61049:1 61059:1 61081:1 61233:1 61353:1 61506:1 61781:1 61788:1 61795:1 61799:1 61810:1 61823:1  |EV| 
-0.071004306675118437 8513:1 25056:1 44198:1 53439:1 53444:1 53455:1 53533:1 53716:1 53751:1 54362:1 54702:1 54703:1 55370:1 56276:1 61049:1 61059:1 61075:1 61210:1 61356:1 61506:1 61781:1 61788:1 61795:1 61799:1 61810:1 61823:1  |EV| 
0.029169956456530165 10582:1 27501:1 47084:1 53459:1 53472:1 53546:1 54924:1 55435:1 56276:1 61049:1 61059:1 61076:1 61205:1 61383:1 61492:1 61781:1 61788:1 61794:1 61799:1 61810:1 61823:1  |EV| 
0.10000000000000001 380:1 15788:1 33396:1 53436:1 53459:1 53472:1 53519:1 53541:1 53549:1 53553:1 53554:1 55409:1 56276:1 57882:1 61049:1 61059:1 61060:1 61208:1 61353:1 61494:1 61781:1 61788:1 61795:1 61799:1 61810:1 61823:1  |EV| 
0.006336654219537192 5103:1 21038:1 39561:1 53436:1 53439:1 53472:1 53494:1 53624:1 53653:1 54102:1 54131:1 54132:1 55618:1 55765:1 55770:1 56276:1 57882:1 61042:1 61049:1 61059:1 61060:1 61208:1 61353:1 61494:1 61781:1 61788:1 61795:1 61799:1 61810:1 61823:1  |EV| 
0.056559156855231038 10267:1 27093:1 37144:1 53438:1 55987:1 56276:1 57882:1 61049:1 61059:1 61060:1 61205:1 61350:1 61492:1 61781:1 61788:1 61795:1 61799:1 61810:1 61821:1 61823:1 61824:1  |EV| 
0.095855843828331372 10211:1 27034:1 46488:1 53436:1 53618:1 53935:1 54870:1 55622:1 56276:1 57882:1 61049:1 61059:1 61060:1 61210:1 61372:1 61492:1 61781:1 61788:1 61794:1 61799:1 61805:1 61810:1 61821:1 61823:1  |EV| 
0.10000000000000001 3388:1 19121:1 37708:1 53434:1 53436:1 53439:1 53444:1 53497:1 53522:1 53542:1 53561:1 53676:1 54013:1 54159:1 54160:1 54161:1 54162:1 54163:1 54164:1 54165:1 55640:1 55641:1 55642:1 56276:1 61039:1 61049:1 61059:1 61096:1 61205:1 61387:1 61501:1 61781:1 61788:1 61795:1 61799:1 61810:1 61821:1 61823:1  |EV| 
-0.044273419392941757 10583:1 27506:1 47096:1 53459:1 53472:1 53546:1 53664:1 54924:1 55658:1 56276:1 61049:1 61059:1 61076:1 61206:1 61377:1 61492:1 61781:1 61788:1 61794:1 61799:1 61810:1 61820:1  |EV| 
0.084929892964164089 12701:1 29873:1 49779:1 53444:1 53792:1 53874:1 54227:1 54710:1 55676:1 56276:1 61049:1 61059:1 61076:1 61205:1 61383:1 61492:1 61781:1 61789:1 61795:1 61799:1 61810:1 61823:1  |EV| 
-0.029513009581614957 3495:1 19341:1 37743:1 53434:1 53436:1 53439:1 53444:1 53497:1 53522:1 53542:1 53561:1 53676:1 54064:1 54159:1 54160:1 54161:1 54162:1 54163:1 54164:1 54165:1 55640:1 55641:1 55642:1 56276:1 61039:1 61049:1 61059:1 61072:1 61223:1 61387:1 61501:1 61781:1 61788:1 61795:1 61799:1 61810:1 61821:1 61823:1  |EV| 
0.0097643551971455193 2986:1 18669:1 36813:1 53439:1 53590:1 55437:1 56276:1 57882:1 61049:1 61059:1 61060:1 61206:1 61351:1 61492:1 61781:1 61788:1 61795:1 61799:1 61810:1 61823:1 61825:1  |EV| 
-0.027127303312412258 14068:1 31571:1 51829:1 53436:1 53439:1 53456:1 53463:1 53466:1 53470:1 53472:1 53494:1 53495:1 53556:1 53602:1 53649:1 53736:1 53742:1 53753:1 53782:1 53935:1 54732:1 55175:1 55206:1 55955:1 56276:1 61050:1 61059:1 61094:1 61259:1 61377:1 61564:1 61781:1 61788:1 61796:1 61799:1 61810:1 61823:1  |EV| 
0.10000000000000001 969:1 16408:1 34159:1 53439:1 53444:1 53455:1 53472:1 53480:1 53512:1 53544:1 53556:1 53665:1 53736:1 55464:1 56276:1 61049:1 61059:1 61073:1 61206:1 61379:1 61506:1 61781:1 61790:1 61795:1 61799:1 61810:1 61823:1  |EV| 
0.070687525042360061 9495:1 26247:1 53224:1 53434:1 53439:1 53444:1 53459:1 53518:1 53522:1 53558:1 53581:1 53590:1 53636:1 53809:1 54171:1 54537:1 55318:1 55322:1 55423:1 56276:1 61049:1 61059:1 61097:1 61206:1 61388:1 61512:1 61781:1 61788:1 61796:1 61799:1 61810:1 61823:1  |EV| 
0.10000000000000001 8385:1 24919:1 44013:1 53439:1 53444:1 53455:1 53751:1 54702:1 54703:1 55370:1 56276:1 57310:1 57943:1 58540:1 60168:1 61049:1 61059:1 61081:1 61210:1 61377:1 61492:1 61781:1 61790:1 61795:1 61799:1 61810:1 61817:1 61823:1  |EV| 
0.041078010717807423 9673:1 26475:1 45832:1 53439:1 53590:1 55952:1 56277:1 61055:1 61059:1 61178:1 61206:1 61350:1 61511:1 61781:1 61787:1 61795:1 61799:1 61800:1 61809:1 61810:1 61823:1 61825:1  |EV| 
0.10000000000000001 4690:1 20618:1 39090:1 53436:1 53439:1 53472:1 53502:1 54304:1 54305:1 54329:1 55349:1 55732:1 55733:1 55734:1 56276:1 61029:1 61031:1 61041:1 61049:1 61059:1 61092:1 61206:1 61367:1 61492:1 61781:1 61790:1 61795:1 61799:1 61810:1 61823:1  |EV| 
-0.10000000000000001 4688:1 20616:1 39088:1 53436:1 53439:1 53472:1 53502:1 54304:1 54305:1 54306:1 55349:1 55732:1 55733:1 55734:1 56276:1 57882:1 58008:1 58133:1 61029:1 61031:1 61041:1 61049:1 61059:1 61060:1 61233:1 61367:1 61492:1 61781:1 61790:1 61795:1 61799:1 61810:1 61823:1  |EV| 
-0.025588613648179305 932:1 16368:1 34119:1 53439:1 53444:1 53455:1 53472:1 53480:1 53512:1 53544:1 53556:1 53736:1 53737:1 55464:1 56276:1 61049:1 61059:1 61067:1 61209:1 61379:1 61494:1 61781:1 61790:1 61795:1 61799:1 61810:1 61823:1  |EV| 
0.089694013465079783 7047:1 23666:1 42547:1 53444:1 53459:1 53463:1 53549:1 53605:1 54086:1 54265:1 54576:1 54577:1 54578:1 54579:1 55357:1 56276:1 61049:1 61059:1 61071:1 61205:1 61378:1 61512:1 61781:1 61788:1 61794:1 61799:1 61805:1 61810:1 61823:1  |EV| 
-0.10000000000000001 698:1 16123:1 33787:1 53436:1 53472:1 53517:1 53663:1 55431:1 56276:1 61049:1 61059:1 61081:1 61206:1 61372:1 61492:1 61781:1 61788:1 61794:1 61799:1 61810:1 61823:1  |EV| 
-0.037294360002516923 1978:1 17495:1 35558:1 53480:1 53487:1 53607:1 53638:1 53874:1 53937:1 53940:1 53941:1 55528:1 56276:1 61054:1 61059:1 61073:1 61236:1 61351:1 61508:1 61781:1 61788:1 61796:1 61799:1 61810:1 61821:1 61823:1  |EV| 
0.10000000000000001 3795:1 19663:1 38046:1 53436:1 53439:1 53444:1 53466:1 53483:1 53485:1 53512:1 53542:1 53590:1 53602:1 53676:1 53716:1 53718:1 54200:1 55628:1 56276:1 57882:1 61049:1 61059:1 61060:1 61232:1 61402:1 61529:1 61781:1 61788:1 61795:1 61799:1 61810:1 61823:1  |EV| 
0.10000000000000001 2614:1 18221:1 49136:1 53436:1 53439:1 53472:1 53716:1 53771:1 53966:1 55346:1 56276:1 61049:1 61059:1 61075:1 61205:1 61367:1 61492:1 61781:1 61788:1 61795:1 61799:1 61810:1 61821:1 61823:1  |EV| 
0.10000000000000001 9753:1 26561:1 45929:1 53438:1 53439:1 53494:1 53513:1 53534:1 53564:1 54097:1 54327:1 54799:1 55792:1 55957:1 56276:1 57882:1 61052:1 61058:1 61060:1 61231:1 61360:1 61496:1 61781:1 61788:1 61795:1 61799:1 61805:1 61810:1 61823:1  |EV| 
0.04141903199706528 1720:1 17231:1 35261:1 53681:1 55437:1 56276:1 57882:1 61049:1 61059:1 61060:1 61205:1 61350:1 61492:1 61781:1 61788:1 61795:1 61799:1 61810:1 61821:1 61823:1  |EV| 
-0.10000000000000001 3388:1 19121:1 37425:1 53513:1 53542:1 55640:1 55641:1 55642:1 56276:1 56542:1 58021:1 58481:1 59586:1 61039:1 61051:1 61059:1 61084:1 61205:1 61355:1 61495:1 61781:1 61788:1 61795:1 61799:1 61810:1 61821:1 61823:1  |EV| 
-0.088387978888847987 2614:1 18221:1 49050:1 53439:1 53444:1 53513:1 55071:1 55346:1 56276:1 57931:1 61051:1 61059:1 61084:1 61205:1 61368:1 61495:1 61781:1 61788:1 61795:1 61799:1 61810:1 61821:1 61823:1  |EV| 
-0.043033735445596653 15148:1 32723:1 53145:1 53434:1 53436:1 53439:1 53444:1 53459:1 53467:1 53494:1 53518:1 53522:1 53558:1 53581:1 53590:1 53597:1 53636:1 53809:1 54171:1 54392:1 55318:1 55322:1 55663:1 56276:1 57882:1 61049:1 61059:1 61060:1 61258:1 61374:1 61529:1 61781:1 61788:1 61795:1 61799:1 61810:1 61823:1  |EV| 
-0.044328321993019441 15274:1 32863:1 53308:1 53434:1 53439:1 53444:1 53459:1 53467:1 53518:1 53522:1 53558:1 53581:1 53590:1 53636:1 53809:1 54171:1 55318:1 55322:1 55423:1 56276:1 57882:1 61049:1 61059:1 61060:1 61238:1 61388:1 61494:1 61781:1 61788:1 61796:1 61799:1 61810:1 61823:1  |EV| 
-0.0033362874535939947 3817:1 19695:1 38085:1 53436:1 53439:1 53444:1 53466:1 53483:1 53485:1 53512:1 53542:1 53590:1 53602:1 53676:1 53716:1 53718:1 54159:1 54195:1 54200:1 55628:1 56276:1 61050:1 61059:1 61062:1 61259:1 61402:1 61538:1 61781:1 61788:1 61795:1 61799:1 61810:1 61823:1  |EV| 
0.10000000000000001 4697:1 20625:1 39097:1 53436:1 53439:1 53442:1 53472:1 53502:1 54304:1 54305:1 54307:1 54308:1 54309:1 54329:1 55570:1 55724:1 55725:1 56276:1 61029:1 61031:1 61041:1 61049:1 61059:1 61092:1 61223:1 61378:1 61506:1 61781:1 61790:1 61796:1 61799:1 61810:1 61821:1 61823:1  |EV| 
0.10000000000000001 3728:1 19583:1 37955:1 53439:1 53444:1 53472:1 53552:1 53566:1 53567:1 53568:1 53645:1 53762:1 54146:1 54201:1 55664:1 56276:1 56809:1 57943:1 58612:1 59632:1 61049:1 61059:1 61081:1 61208:1 61379:1 61494:1 61781:1 61788:1 61795:1 61799:1 61810:1 61823:1  |EV| 
0.053406036636107462 802:1 16223:1 33918:1 53436:1 53472:1 53639:1 53663:1 55431:1 56276:1 61049:1 61059:1 61076:1 61237:1 61372:1 61492:1 61781:1 61788:1 61794:1 61799:1 61810:1 61823:1  |EV| 
-0.10000000000000001 5877:1 21988:1 36088:1 53472:1 55717:1 56276:1 57882:1 61049:1 61059:1 61060:1 61205:1 61350:1 61492:1 61781:1 61788:1 61795:1 61799:1 61810:1 61823:1  |EV| 
-0.10000000000000001 14176:1 31688:1 52044:1 53436:1 53438:1 53439:1 53456:1 53472:1 53481:1 53588:1 55481:1 56276:1 61049:1 61059:1 61092:1 61206:1 61367:1 61492:1 61781:1 61788:1 61794:1 61799:1 61810:1 61823:1  |EV| 
-0.083287642201411272 12144:1 29231:1 49141:1 53436:1 53439:1 53472:1 53716:1 53771:1 53966:1 55928:1 56276:1 61052:1 61058:1 61075:1 61218:1 61348:1 61497:1 61781:1 61788:1 61795:1 61799:1 61810:1 61823:1  |EV| 
-0.0091484427743771038 3768:1 19732:1 38134:1 53436:1 53438:1 53439:1 53444:1 53459:1 53472:1 53552:1 53566:1 53567:1 53568:1 53645:1 53762:1 53802:1 54085:1 54146:1 54186:1 54187:1 54188:1 54199:1 54201:1 55664:1 56276:1 61049:1 61059:1 61070:1 61208:1 61393:1 61568:1 61781:1 61788:1 61795:1 61799:1 61810:1 61823:1  |EV| 
-0.011632824122273169 114:1 15507:1 33103:1 53436:1 53452:1 53469:1 53470:1 53471:1 53472:1 55365:1 56276:1 57886:1 57896:1 61031:1 61049:1 61059:1 61080:1 61207:1 61377:1 61492:1 61781:1 61788:1 61795:1 61799:1 61823:1  |EV| 
0.10000000000000001 889:1 16319:1 34051:1 53439:1 53444:1 53542:1 53718:1 55460:1 56276:1 61051:1 61059:1 61084:1 61207:1 61355:1 61495:1 61781:1 61788:1 61796:1 61799:1 61810:1 61823:1  |EV| 
0.10000000000000001 12474:1 29643:1 49538:1 53444:1 53459:1 53603:1 55100:1 55395:1 56276:1 61051:1 61059:1 61084:1 61207:1 61355:1 61495:1 61781:1 61788:1 61795:1 61799:1 61810:1 61823:1  |EV| 
0.10000000000000001 14914:1 32547:1 52952:1 53439:1 53444:1 53926:1 54085:1 55707:1 56276:1 61051:1 61059:1 61084:1 61207:1 61355:1 61495:1 61781:1 61788:1 61794:1 61799:1 61810:1 61823:1  |EV| 
0.10000000000000001 15084:1 32650:1 53063:1 53434:1 53436:1 53439:1 53444:1 53459:1 53494:1 53518:1 53522:1 53558:1 53581:1 53590:1 53597:1 53636:1 53809:1 54171:1 54392:1 54537:1 55318:1 55322:1 55663:1 56276:1 61049:1 61059:1 61097:1 61233:1 61374:1 61501:1 61781:1 61788:1 61795:1 61799:1 61810:1 61823:1  |EV| 
0.10000000000000001 184:1 15582:1 33184:1 53438:1 53444:1 55374:1 55375:1 56276:1 61039:1 61051:1 61059:1 61066:1 61205:1 61355:1 61495:1 61781:1 61788:1 61795:1 61799:1 61810:1 61823:1  |EV| 
-0.10000000000000001 9080:1 25745:1 44956:1 53439:1 53444:1 53502:1 55424:1 56276:1 61026:1 61051:1 61059:1 61066:1 61206:1 61355:1 61495:1 61781:1 61788:1 61796:1 61799:1 61810:1 61823:1  |EV| 
-0.058576679133504887 11894:1 28938:1 48679:1 53439:1 53444:1 53459:1 53544:1 54175:1 54480:1 55424:1 56276:1 61051:1 61059:1 61089:1 61205:1 61380:1 61495:1 61781:1 61788:1 61796:1 61799:1 61810:1 61823:1  |EV| 
-0.011738384055033999 11508:1 28505:1 48212:1 53472:1 53965:1 55018:1 55349:1 56077:1 56078:1 56276:1 57882:1 61039:1 61049:1 61059:1 61060:1 61207:1 61354:1 61492:1 61781:1 61788:1 61795:1 61799:1 61810:1 61822:1  |EV| 
-0.0076032010923775583 11980:1 29036:1 48797:1 53439:1 53444:1 53455:1 53459:1 53494:1 53512:1 53544:1 53632:1 53731:1 54015:1 54024:1 54025:1 54175:1 54480:1 55065:1 55066:1 55067:1 55424:1 56276:1 61051:1 61059:1 61114:1 61205:1 61390:1 61542:1 61781:1 61788:1 61796:1 61799:1 61810:1 61823:1  |EV| 
-0.081825602181982884 8513:1 25056:1 44170:1 53439:1 53444:1 53751:1 54702:1 54703:1 55370:1 56276:1 58044:1 61051:1 61059:1 61095:1 61210:1 61355:1 61495:1 61781:1 61788:1 61795:1 61799:1 61810:1 61823:1  |EV| 
0.10000000000000001 5035:1 20970:1 39489:1 53436:1 53439:1 53444:1 53472:1 53494:1 53621:1 53624:1 53653:1 53705:1 53706:1 53716:1 54102:1 54131:1 54132:1 54377:1 54378:1 54379:1 54380:1 55618:1 55765:1 55770:1 56276:1 61042:1 61050:1 61059:1 61065:1 61258:1 61353:1 61519:1 61781:1 61788:1 61795:1 61799:1 61810:1 61823:1  |EV| 
-0.0027855955542252552 3744:1 19601:1 33163:1 55384:1 56276:1 57882:1 61049:1 61059:1 61060:1 61237:1 61349:1 61492:1 61781:1 61788:1 61794:1 61799:1 61810:1  |EV| 
0.0021741204904330452 4394:1 20497:1 38978:1 53439:1 53463:1 53472:1 54248:1 55403:1 56276:1 61049:1 61059:1 61081:1 61206:1 61372:1 61492:1 61781:1 61788:1 61794:1 61799:1 61810:1 61823:1  |EV| 
0.10000000000000001 2350:1 17926:1 35996:1 53459:1 53463:1 53472:1 53716:1 54016:1 55366:1 56276:1 57882:1 61049:1 61059:1 61060:1 61228:1 61383:1 61492:1 61781:1 61788:1 61795:1 61799:1 61810:1 61823:1  |EV| 
0.10000000000000001 1090:1 17739:1 35799:1 53436:1 53439:1 53472:1 53965:1 53966:1 53967:1 55346:1 56276:1 57882:1 61049:1 61059:1 61060:1 61239:1 61377:1 61492:1 61781:1 61788:1 61795:1 61799:1 61810:1 61823:1 61824:1  |EV| 
-0.10000000000000001 7171:1 23461:1 42311:1 53459:1 53522:1 54602:1 55870:1 56276:1 57882:1 61049:1 61059:1 61060:1 61207:1 61354:1 61492:1 61781:1 61788:1 61795:1 61799:1 61810:1 61821:1 61823:1 61825:1  |EV| 
-0.10000000000000001 1370:1 16846:1 34743:1 53436:1 53472:1 53531:1 53780:1 53812:1 55468:1 56276:1 57882:1 61049:1 61059:1 61060:1 61228:1 61383:1 61492:1 61781:1 61788:1 61795:1 61799:1 61805:1 61810:1 61823:1  |EV| 
-0.10000000000000001 8561:1 25118:1 44240:1 53436:1 53459:1 53547:1 54703:1 54740:1 55926:1 56276:1 57882:1 61049:1 61059:1 61060:1 61228:1 61383:1 61492:1 61781:1 61788:1 61795:1 61799:1 61810:1 61821:1 61823:1  |EV| 
-0.10000000000000001 2502:1 28399:1 49080:1 53436:1 53439:1 53472:1 53716:1 53966:1 54062:1 55346:1 56276:1 57882:1 61049:1 61059:1 61060:1 61233:1 61367:1 61492:1 61781:1 61788:1 61795:1 61799:1 61810:1 61821:1 61823:1  |EV| 
-0.10000000000000001 229:1 15629:1 33228:1 53516:1 53521:1 53522:1 53523:1 53524:1 55403:1 56276:1 57882:1 61049:1 61059:1 61060:1 61228:1 61383:1 61492:1 61781:1 61788:1 61794:1 61799:1 61810:1 61823:1  |EV| 
0.10000000000000001 6608:1 22749:1 41556:1 53439:1 53444:1 53782:1 55841:1 56276:1 61051:1 61059:1 61066:1 61206:1 61355:1 61495:1 61781:1 61788:1 61796:1 61799:1 61810:1 61823:1  |EV| 
0.10000000000000001 9458:1 26196:1 33111:1 53438:1 53439:1 55437:1 56276:1 61051:1 61059:1 61063:1 61206:1 61348:1 61495:1 61781:1 61788:1 61795:1 61799:1 61810:1 61823:1  |EV| 
0.056228757410062814 1210:1 16717:1 34541:1 53439:1 53472:1 53718:1 53830:1 55424:1 56276:1 61051:1 61059:1 61084:1 61210:1 61348:1 61495:1 61781:1 61788:1 61796:1 61799:1 61810:1 61823:1  |EV| 
0.10000000000000001 858:1 16284:1 33996:1 53436:1 53439:1 53444:1 53542:1 53702:1 53718:1 55460:1 56276:1 61051:1 61059:1 61089:1 61207:1 61368:1 61495:1 61781:1 61788:1 61796:1 61799:1 61810:1 61823:1  |EV| 
0.10000000000000001 4670:1 20598:1 39070:1 53439:1 53444:1 54002:1 54314:1 54327:1 55739:1 55740:1 56276:1 61038:1 61039:1 61051:1 61059:1 61089:1 61210:1 61355:1 61495:1 61781:1 61788:1 61795:1 61799:1 61810:1 61823:1  |EV| 
-0.022952997572312964 2079:1 17744:1 35804:1 53965:1 55547:1 56276:1 57882:1 61049:1 61059:1 61060:1 61205:1 61350:1 61492:1 61781:1 61788:1 61795:1 61799:1 61810:1 61822:1  |EV| 
-0.096052565952789951 7499:1 23926:1 42883:1 53439:1 53444:1 53494:1 53784:1 54621:1 54634:1 55811:1 56276:1 58219:1 61051:1 61059:1 61079:1 61205:1 61363:1 61495:1 61781:1 61788:1 61795:1 61799:1 61810:1 61823:1  |EV| 
-0.10000000000000001 12732:1 29905:1 49810:1 53439:1 53444:1 53544:1 54227:1 55676:1 56276:1 61051:1 61059:1 61084:1 61205:1 61368:1 61495:1 61781:1 61790:1 61795:1 61799:1 61810:1 61823:1  |EV| 
-0.01353480570867688 12627:1 29796:1 49707:1 53472:1 53814:1 55094:1 55678:1 56276:1 57908:1 61049:1 61059:1 61060:1 61207:1 61354:1 61492:1 61781:1 61788:1 61795:1 61799:1 61805:1 61810:1 61821:1  |EV| 
-0.057098184914012882 9458:1 26196:1 45562:1 53438:1 53439:1 53481:1 53556:1 53764:1 53820:1 54775:1 54776:1 55437:1 56276:1 61051:1 61059:1 61065:1 61206:1 61362:1 61507:1 61781:1 61788:1 61795:1 61799:1 61810:1 61823:1  |EV| 
0.10000000000000001 8975:1 25597:1 44788:1 53459:1 53512:1 53590:1 53878:1 54378:1 55945:1 56276:1 57882:1 61049:1 61059:1 61060:1 61228:1 61383:1 61492:1 61781:1 61788:1 61796:1 61799:1 61810:1 61823:1  |EV| 
0.014196702537945157 14520:1 32034:1 52420:1 53459:1 53472:1 55251:1 55870:1 56276:1 57882:1 61049:1 61059:1 61060:1 61207:1 61354:1 61492:1 61781:1 61788:1 61795:1 61799:1 61805:1 61810:1 61823:1  |EV| 
0.053788327319455057 7541:1 23975:1 42906:1 53459:1 53502:1 55892:1 56276:1 57882:1 61049:1 61059:1 61060:1 61206:1 61351:1 61492:1 61781:1 61788:1 61794:1 61799:1 61805:1 61810:1 61823:1  |EV| 
0.10000000000000001 617:1 16030:1 33680:1 53459:1 53527:1 53590:1 53605:1 55435:1 56276:1 57882:1 61049:1 61059:1 61060:1 61210:1 61372:1 61492:1 61781:1 61788:1 61794:1 61799:1 61805:1 61810:1 61823:1  |EV| 
0.10000000000000001 11981:1 29037:1 48798:1 53439:1 53632:1 53731:1 54024:1 55066:1 55575:1 56276:1 57882:1 61049:1 61059:1 61060:1 61228:1 61383:1 61492:1 61781:1 61788:1 61796:1 61799:1 61810:1 61823:1 61825:1  |EV| 
-0.10000000000000001 6023:1 22061:1 40717:1 53439:1 53459:1 53472:1 53628:1 54463:1 55811:1 56276:1 57882:1 61049:1 61059:1 61060:1 61228:1 61383:1 61492:1 61781:1 61788:1 61794:1 61799:1 61810:1 61823:1 61825:1  |EV| 
-0.10000000000000001 5044:1 20979:1 39497:1 53438:1 53472:1 53692:1 55384:1 56276:1 57882:1 57946:1 61029:1 61031:1 61049:1 61059:1 61060:1 61207:1 61354:1 61492:1 61781:1 61788:1 61794:1 61799:1 61810:1 61823:1  |EV| 
-0.10000000000000001 2359:1 17935:1 36005:1 53459:1 53463:1 54016:1 55424:1 56276:1 57882:1 61049:1 61059:1 61060:1 61207:1 61354:1 61492:1 61781:1 61788:1 61796:1 61799:1 61810:1 61823:1 61827:1  |EV| 
-0.04778664790630778 3088:1 18785:1 36946:1 53459:1 53480:1 53481:1 53505:1 53692:1 54083:1 55603:1 56276:1 57882:1 61049:1 61059:1 61060:1 61239:1 61377:1 61492:1 61781:1 61788:1 61794:1 61799:1 61810:1 61823:1  |EV| 
-0.037939463131721363 13914:1 31402:1 51604:1 53459:1 53472:1 53484:1 53808:1 54671:1 56191:1 56276:1 57785:1 57995:1 59007:1 60828:1 61049:1 61059:1 61081:1 61207:1 61383:1 61492:1 61781:1 61788:1 61794:1 61799:1 61823:1  |EV| 
0.10000000000000001 1292:1 16955:1 34938:1 53436:1 53439:1 53444:1 53452:1 53453:1 53459:1 53470:1 53494:1 53607:1 53693:1 53783:1 53784:1 53785:1 53786:1 53787:1 53788:1 53789:1 53790:1 53791:1 53792:1 53793:1 53794:1 55484:1 55485:1 55486:1 56276:1 61038:1 61039:1 61051:1 61059:1 61122:1 61205:1 61413:1 61570:1 61781:1 61788:1 61795:1 61799:1 61810:1 61823:1  |EV| 
0.083329831467583118 14599:1 32113:1 52503:1 53434:1 53439:1 53470:1 53472:1 53494:1 53516:1 53564:1 53749:1 53789:1 54171:1 54347:1 54485:1 55282:1 55283:1 55284:1 55285:1 55286:1 56234:1 56235:1 56276:1 57899:1 58456:1 58461:1 60934:1 60935:1 61039:1 61051:1 61059:1 61114:1 61238:1 61368:1 61553:1 61781:1 61790:1 61795:1 61799:1 61810:1 61823:1  |EV| 
0.10000000000000001 84:1 16423:1 34174:1 53439:1 53444:1 53470:1 53544:1 53716:1 53743:1 53744:1 53745:1 55370:1 56276:1 61051:1 61059:1 61065:1 61205:1 61371:1 61507:1 61781:1 61788:1 61795:1 61799:1 61810:1 61823:1  |EV| 
0.10000000000000001 3736:1 23102:1 42049:1 53436:1 53438:1 53439:1 53463:1 53481:1 53510:1 53525:1 53547:1 53552:1 53554:1 53564:1 53566:1 53569:1 53573:1 53574:1 53778:1 53819:1 54005:1 54179:1 54251:1 54276:1 54583:1 54584:1 54586:1 55779:1 56276:1 61051:1 61059:1 61124:1 61205:1 61396:1 61554:1 61781:1 61788:1 61795:1 61799:1 61810:1 61823:1 61825:1  |EV| 
0.10000000000000001 3736:1 24469:1 43520:1 53439:1 53444:1 53794:1 54005:1 54636:1 55402:1 56276:1 61051:1 61059:1 61095:1 61205:1 61364:1 61495:1 61781:1 61788:1 61795:1 61799:1 61810:1 61823:1  |EV| 
-0.046889304021324449 1292:1 16757:1 34597:1 53436:1 53439:1 53444:1 53452:1 53453:1 53459:1 53470:1 53494:1 53607:1 53783:1 53784:1 53785:1 53786:1 53787:1 53788:1 53789:1 53790:1 53791:1 53792:1 53793:1 53794:1 55484:1 55485:1 55486:1 56276:1 61038:1 61039:1 61053:1 61059:1 61089:1 61240:1 61413:1 61517:1 61781:1 61788:1 61795:1 61799:1 61810:1 61823:1  |EV| 
-0.073621024301536761 4950:1 20883:1 39391:1 53436:1 53439:1 53444:1 53459:1 53472:1 53494:1 53550:1 53558:1 53597:1 53602:1 53706:1 53766:1 53814:1 53822:1 54024:1 54106:1 54348:1 54349:1 54350:1 54351:1 54352:1 55745:1 56276:1 61049:1 61059:1 61071:1 61229:1 61398:1 61568:1 61781:1 61788:1 61795:1 61799:1 61810:1 61823:1  |EV| 
-0.049426961095575934 12863:1 30044:1 49949:1 53436:1 53439:1 53444:1 53459:1 53470:1 53479:1 53494:1 53542:1 53607:1 53632:1 53743:1 53794:1 53811:1 54240:1 54582:1 54732:1 54990:1 55134:1 55135:1 56092:1 56276:1 61049:1 61059:1 61102:1 61205:1 61402:1 61501:1 61781:1 61788:1 61795:1 61799:1 61810:1 61823:1 61825:1  |EV| 
-0.021113764070406302 4958:1 20891:1 39399:1 53436:1 53439:1 53494:1 53597:1 53602:1 53706:1 54024:1 54351:1 55745:1 56276:1 61049:1 61059:1 61075:1 61207:1 61353:1 61506:1 61781:1 61790:1 61795:1 61799:1 61817:1 61823:1  |EV| 
-0.0058905740102677745 1478:1 16976:1 34983:1 53436:1 53439:1 53444:1 53452:1 53453:1 53459:1 53470:1 53494:1 53607:1 53693:1 53783:1 53784:1 53785:1 53786:1 53787:1 53788:1 53789:1 53790:1 53791:1 53792:1 53793:1 53794:1 53812:1 53813:1 55484:1 55485:1 55486:1 56276:1 61038:1 61039:1 61052:1 61058:1 61080:1 61263:1 61413:1 61526:1 61781:1 61788:1 61795:1 61799:1 61805:1 61810:1 61823:1  |EV| 
0.073215233169109453 8834:1 25443:1 44619:1 53439:1 53502:1 55424:1 56276:1 57882:1 61026:1 61049:1 61059:1 61060:1 61206:1 61354:1 61492:1 61781:1 61788:1 61796:1 61799:1 61810:1 61823:1  |EV| 
0.046811730938322284 2009:1 17527:1 35591:1 53458:1 53459:1 53700:1 55557:1 56276:1 58015:1 61049:1 61059:1 61067:1 61206:1 61354:1 61492:1 61781:1 61788:1 61794:1 61799:1 61810:1 61823:1  |EV| 
0.038155003865176708 14148:1 31660:1 51989:1 53438:1 53439:1 53456:1 53472:1 53588:1 55481:1 56276:1 61049:1 61059:1 61080:1 61206:1 61383:1 61492:1 61781:1 61788:1 61794:1 61799:1 61810:1 61823:1  |EV| 
0.035600935122425306 5184:1 21140:1 39668:1 53438:1 53472:1 54384:1 55384:1 56276:1 61029:1 61031:1 61049:1 61059:1 61080:1 61237:1 61354:1 61492:1 61781:1 61788:1 61794:1 61799:1 61810:1 61823:1  |EV| 
0.00094395617016356577 723:1 16139:1 33809:1 53483:1 53702:1 53721:1 55461:1 56276:1 57882:1 61049:1 61059:1 61067:1 61206:1 61354:1 61492:1 61781:1 61788:1 61794:1 61799:1 61810:1 61823:1  |EV| 
-0.10000000000000001 1089:1 16921:1 34862:1 53439:1 53534:1 53700:1 53774:1 55464:1 56276:1 57882:1 61049:1 61059:1 61067:1 61207:1 61372:1 61492:1 61781:1 61788:1 61795:1 61799:1 61810:1 61823:1  |EV| 
-0.050674232247965474 1021:1 16470:1 34437:1 53472:1 53544:1 53686:1 53718:1 53736:1 53753:1 55467:1 56276:1 61054:1 61059:1 61073:1 61225:1 61383:1 61508:1 61781:1 61788:1 61795:1 61799:1 61810:1 61823:1  |EV| 
-0.059776198400826423 5077:1 21012:1 39533:1 53439:1 53444:1 53472:1 53621:1 53705:1 53706:1 53716:1 54102:1 54377:1 54378:1 54379:1 54380:1 55631:1 55776:1 56276:1 61042:1 61050:1 61059:1 61065:1 61234:1 61351:1 61513:1 61781:1 61788:1 61795:1 61799:1 61810:1 61823:1  |EV| 
-0.10000000000000001 14566:1 32080:1 52468:1 53439:1 53472:1 53602:1 53809:1 54181:1 54511:1 55278:1 55279:1 55280:1 56233:1 56276:1 57904:1 61049:1 61059:1 61067:1 61223:1 61353:1 61506:1 61781:1 61788:1 61795:1 61799:1 61810:1 61823:1  |EV| 
-0.10000000000000001 1014:1 16463:1 34299:1 53463:1 53472:1 53544:1 53686:1 53718:1 53736:1 53753:1 53754:1 55468:1 56276:1 61049:1 61059:1 61080:1 61223:1 61379:1 61506:1 61781:1 61788:1 61795:1 61799:1 61810:1 61821:1 61823:1  |EV| 
0.10000000000000001 13765:1 31233:1 51395:1 53436:1 53438:1 53439:1 53444:1 53452:1 53453:1 53456:1 53459:1 53472:1 53495:1 53549:1 53588:1 53693:1 53731:1 53743:1 53841:1 53924:1 54753:1 55178:1 55179:1 55180:1 55181:1 55182:1 55184:1 55187:1 55928:1 56276:1 61049:1 61059:1 61112:1 61239:1 61415:1 61551:1 61781:1 61788:1 61795:1 61799:1 61810:1 61823:1 61825:1  |EV| 
0.10000000000000001 12234:1 29335:1 49198:1 53436:1 53459:1 53502:1 53586:1 55079:1 55488:1 56276:1 61052:1 61058:1 61067:1 61219:1 61364:1 61497:1 61781:1 61788:1 61795:1 61799:1 61810:1 61821:1 61823:1  |EV| 
0.057365021282132368 6367:1 22479:1 41274:1 53436:1 53439:1 53444:1 53452:1 53453:1 53456:1 53470:1 53472:1 53476:1 53487:1 53493:1 53494:1 53628:1 53770:1 53974:1 54112:1 54492:1 54496:1 54497:1 54498:1 54499:1 54500:1 54501:1 54502:1 54503:1 54504:1 54505:1 54511:1 55380:1 56276:1 58193:1 58749:1 59931:1 61029:1 61049:1 61059:1 61106:1 61209:1 61414:1 61586:1 61781:1 61788:1 61795:1 61799:1 61810:1 61823:1  |EV| 
0.10000000000000001 957:1 16394:1 34145:1 53436:1 53439:1 53459:1 53470:1 53472:1 53603:1 53620:1 53654:1 53700:1 53739:1 53746:1 53747:1 53748:1 53749:1 55464:1 56276:1 61054:1 61059:1 61078:1 61218:1 61367:1 61503:1 61781:1 61788:1 61795:1 61799:1 61810:1 61815:1 61823:1  |EV| 
-0.011623737847571399 1754:1 17265:1 35294:1 53439:1 53456:1 53459:1 53472:1 53494:1 53927:1 53931:1 53935:1 53936:1 53942:1 53953:1 55524:1 56276:1 61049:1 61059:1 61087:1 61205:1 61373:1 61512:1 61781:1 61788:1 61795:1 61799:1 61810:1 61824:1  |EV| 
-0.035399653919145027 12901:1 30096:1 50153:1 53436:1 53439:1 53444:1 53452:1 53453:1 53459:1 53470:1 53603:1 53748:1 53751:1 54030:1 55139:1 55358:1 56276:1 57937:1 61051:1 61059:1 61090:1 61205:1 61359:1 61514:1 61781:1 61788:1 61795:1 61799:1 61810:1 61823:1  |EV| 
-0.045401498243451466 10352:1 27188:1 46658:1 53436:1 53444:1 53470:1 53618:1 53935:1 54335:1 54870:1 54883:1 55622:1 56276:1 58312:1 61051:1 61059:1 61064:1 61210:1 61364:1 61507:1 61781:1 61788:1 61794:1 61799:1 61805:1 61810:1 61821:1 61823:1  |EV| 
-0.026832341917436761 8842:1 26025:1 45377:1 53439:1 53444:1 53459:1 53485:1 53502:1 53549:1 53566:1 53567:1 53568:1 53590:1 53603:1 53875:1 53909:1 53912:1 53945:1 53946:1 54189:1 54352:1 54545:1 54570:1 54647:1 54767:1 54768:1 54769:1 54772:1 54773:1 54774:1 55518:1 55519:1 56276:1 58290:1 61041:1 61051:1 61059:1 61127:1 61206:1 61409:1 61570:1 61781:1 61788:1 61796:1 61799:1 61810:1 61821:1 61823:1  |EV| 
0.10000000000000001 14740:1 32254:1 52656:1 53439:1 53472:1 53531:1 53548:1 53575:1 55275:1 55281:1 56229:1 56276:1 57882:1 61049:1 61059:1 61075:1 61207:1 61353:1 61506:1 61781:1 61790:1 61795:1 61799:1 61810:1 61815:1 61823:1 61825:1  |EV| 
0.060243421376575061 4549:1 20468:1 38929:1 53439:1 53444:1 53472:1 53602:1 53632:1 53645:1 54133:1 54253:1 55699:1 56276:1 57882:1 57946:1 61031:1 61049:1 61059:1 61075:1 61207:1 61353:1 61506:1 61781:1 61788:1 61794:1 61799:1 61810:1 61823:1  |EV| 
0.10000000000000001 8401:1 24936:1 44357:1 53439:1 53472:1 53751:1 54094:1 54717:1 54718:1 54735:1 55370:1 56276:1 57882:1 61049:1 61059:1 61060:1 61223:1 61352:1 61506:1 61781:1 61788:1 61795:1 61799:1 61810:1 61823:1  |EV| 
0.10000000000000001 1303:1 16785:1 34961:1 53439:1 53534:1 53700:1 53774:1 53777:1 55464:1 56276:1 61054:1 61059:1 61075:1 61204:1 61372:1 61508:1 61781:1 61788:1 61795:1 61799:1 61810:1 61823:1  |EV| 
0.10000000000000001 10435:1 27274:1 46748:1 53439:1 53472:1 53494:1 53559:1 53624:1 53705:1 54707:1 54889:1 56005:1 56276:1 57882:1 61049:1 61059:1 61060:1 61223:1 61352:1 61506:1 61781:1 61788:1 61795:1 61799:1 61810:1 61823:1  |EV| 
-0.10000000000000001 6336:1 22448:1 41232:1 53436:1 53438:1 53439:1 53452:1 53453:1 53456:1 53458:1 53472:1 53494:1 53634:1 53789:1 54113:1 54312:1 54515:1 54517:1 54518:1 54519:1 54520:1 54521:1 55830:1 56276:1 58015:1 61049:1 61059:1 61097:1 61239:1 61402:1 61501:1 61781:1 61788:1 61795:1 61799:1 61810:1 61815:1 61823:1  |EV| 
-0.10000000000000001 14542:1 32056:1 52444:1 53439:1 53472:1 53531:1 53548:1 53575:1 54306:1 55275:1 56229:1 56276:1 58420:1 61049:1 61059:1 61092:1 61210:1 61353:1 61506:1 61781:1 61790:1 61795:1 61801:1 61810:1 61815:1 61823:1 61825:1  |EV| 
-0.10000000000000001 10968:1 27876:1 47523:1 53434:1 53439:1 53472:1 53543:1 53669:1 53700:1 53762:1 53775:1 53847:1 54988:1 55346:1 56276:1 61049:1 61059:1 61083:1 61207:1 61379:1 61506:1 61781:1 61788:1 61795:1 61799:1 61810:1 61821:1 61823:1  |EV| 
-0.005903726022816554 6676:1 22844:1 41649:1 53439:1 53459:1 53472:1 53518:1 53894:1 53924:1 54537:1 54538:1 55860:1 56276:1 61049:1 61059:1 61083:1 61237:1 61352:1 61506:1 61781:1 61788:1 61797:1 61799:1 61810:1 61824:1 61825:1  |EV| 
-0.065370755134680839 10589:1 27439:1 46958:1 53438:1 53472:1 53564:1 53696:1 55435:1 56276:1 57018:1 58481:1 60361:1 61052:1 61058:1 61076:1 61236:1 61348:1 61497:1 61781:1 61788:1 61794:1 61799:1 61810:1 61823:1  |EV| 
0.10000000000000001 1676:1 17187:1 35212:1 53436:1 53439:1 53444:1 53470:1 53483:1 53513:1 53547:1 53548:1 53597:1 53676:1 53809:1 53841:1 53880:1 53881:1 53882:1 53888:1 53889:1 55517:1 56276:1 61049:1 61059:1 61102:1 61205:1 61402:1 61501:1 61781:1 61788:1 61796:1 61799:1 61810:1 61823:1  |EV| 
0.10000000000000001 11692:1 28708:1 48426:1 53436:1 53444:1 53525:1 53552:1 53618:1 53664:1 53809:1 54015:1 54074:1 54559:1 54732:1 55039:1 55040:1 55041:1 55042:1 55464:1 56276:1 61049:1 61059:1 61096:1 61205:1 61387:1 61501:1 61781:1 61788:1 61795:1 61799:1 61810:1 61823:1 61825:1  |EV| 
0.044667386108645971 5838:1 21838:1 40440:1 53436:1 53438:1 53444:1 53459:1 53470:1 53618:1 53784:1 53879:1 54124:1 54483:1 54484:1 54485:1 54486:1 54487:1 55443:1 55510:1 56276:1 57882:1 61039:1 61049:1 61059:1 61087:1 61210:1 61382:1 61512:1 61781:1 61788:1 61795:1 61799:1 61810:1 61823:1  |EV| 
0.10000000000000001 331:1 15738:1 33340:1 53444:1 53452:1 53453:1 53459:1 53472:1 53515:1 53516:1 53519:1 53520:1 53521:1 53522:1 53523:1 53524:1 53525:1 53526:1 53527:1 53528:1 53529:1 53530:1 53531:1 53532:1 53533:1 53534:1 55399:1 56276:1 61049:1 61059:1 61112:1 61205:1 61398:1 61540:1 61781:1 61788:1 61795:1 61799:1 61810:1 61823:1  |EV| 
0.054147214893358019 2614:1 28793:1 49061:1 53439:1 53472:1 53494:1 53526:1 55068:1 55069:1 55346:1 56276:1 61049:1 61059:1 61092:1 61205:1 61377:1 61492:1 61781:1 61788:1 61795:1 61799:1 61810:1 61821:1 61823:1  |EV| 
0.01111566676301342 711:1 16127:1 33791:1 53590:1 55426:1 56276:1 57882:1 61049:1 61059:1 61060:1 61205:1 61350:1 61492:1 61781:1 61788:1 61795:1 61799:1 61810:1 61823:1  |EV| 
-0.034139311465118491 463:1 15873:1 33501:1 53444:1 53452:1 53453:1 53459:1 53472:1 53515:1 53516:1 53519:1 53521:1 53522:1 53523:1 53524:1 53525:1 53526:1 53527:1 53528:1 53529:1 53530:1 53531:1 53532:1 53533:1 53534:1 53554:1 55399:1 56276:1 57882:1 61049:1 61059:1 61060:1 61262:1 61398:1 61529:1 61781:1 61788:1 61795:1 61799:1 61810:1 61823:1  |EV| 
0.027939673096273307 1601:1 17111:1 35137:1 53459:1 53472:1 53884:1 55486:1 56276:1 57882:1 61049:1 61059:1 61060:1 61207:1 61354:1 61492:1 61781:1 61788:1 61795:1 61799:1 61810:1 61823:1  |EV| 
-0.088317911862775544 4258:1 20161:1 48320:1 53436:1 53444:1 53525:1 53552:1 53618:1 53664:1 53809:1 54074:1 54559:1 54732:1 55039:1 55040:1 55041:1 55042:1 55043:1 55464:1 56276:1 57908:1 61049:1 61059:1 61069:1 61207:1 61387:1 61501:1 61781:1 61788:1 61795:1 61799:1 61810:1 61823:1 61825:1  |EV| 
0.071126373557603373 6425:1 22537:1 41342:1 53436:1 53438:1 53439:1 53452:1 53453:1 53456:1 53458:1 53472:1 53494:1 53634:1 53789:1 54113:1 54312:1 54515:1 54517:1 54518:1 54519:1 54520:1 54522:1 55830:1 56276:1 61049:1 61059:1 61077:1 61206:1 61402:1 61501:1 61781:1 61788:1 61795:1 61799:1 61810:1 61815:1 61823:1  |EV| 
0.10000000000000001 11347:1 28300:1 48009:1 53439:1 53463:1 53470:1 53472:1 53494:1 53742:1 53821:1 53990:1 54171:1 55019:1 56064:1 56276:1 57887:1 61050:1 61059:1 61093:1 61235:1 61356:1 61509:1 61781:1 61788:1 61795:1 61799:1 61810:1 61821:1 61823:1  |EV| 
0.10000000000000001 15337:1 32930:1 53375:1 53456:1 53458:1 53459:1 53485:1 56268:1 56276:1 57884:1 61053:1 61059:1 61063:1 61211:1 61380:1 61498:1 61781:1 61788:1 61794:1 61799:1 61810:1 61823:1  |EV| 
0.10000000000000001 10822:1 27715:1 38316:1 53487:1 55960:1 56276:1 56362:1 57882:1 58481:1 60432:1 61052:1 61058:1 61067:1 61225:1 61348:1 61497:1 61781:1 61788:1 61795:1 61799:1 61810:1 61823:1 61825:1  |EV| 
0.10000000000000001 4448:1 20363:1 38819:1 53458:1 53460:1 53700:1 53931:1 54223:1 54254:1 55361:1 56276:1 57884:1 61053:1 61059:1 61066:1 61225:1 61362:1 61498:1 61781:1 61788:1 61794:1 61799:1 61810:1 61823:1  |EV| 
-0.10000000000000001 1303:1 16785:1 34647:1 53458:1 53459:1 53559:1 53740:1 53756:1 53763:1 53764:1 55464:1 56276:1 57968:1 61053:1 61059:1 61089:1 61204:1 61371:1 61498:1 61781:1 61788:1 61795:1 61799:1 61810:1 61823:1  |EV| 
-0.10000000000000001 11349:1 28303:1 33186:1 56071:1 56276:1 57887:1 61053:1 61059:1 61093:1 61204:1 61355:1 61498:1 61781:1 61788:1 61795:1 61799:1 61810:1 61823:1  |EV| 
-0.063485058896649432 11213:1 28154:1 47866:1 53439:1 53463:1 53470:1 53472:1 53494:1 53521:1 53742:1 53821:1 53990:1 54171:1 55019:1 55021:1 55022:1 56064:1 56276:1 61050:1 61059:1 61066:1 61238:1 61356:1 61509:1 61781:1 61788:1 61795:1 61799:1 61810:1 61821:1 61823:1  |EV| 
-0.019892068579908558 8037:1 24524:1 43585:1 53436:1 53485:1 53494:1 53549:1 53744:1 53746:1 53771:1 54172:1 54539:1 55875:1 56276:1 61054:1 61059:1 61087:1 61224:1 61377:1 61503:1 61781:1 61788:1 61796:1 61799:1 61810:1 61823:1  |EV| 
-0.10000000000000001 2601:1 18202:1 36376:1 53436:1 53439:1 53463:1 53749:1 53809:1 55483:1 56276:1 57937:1 61051:1 61059:1 61095:1 61205:1 61364:1 61495:1 61781:1 61788:1 61795:1 61799:1 61810:1 61823:1  |EV| 
0.10000000000000001 4409:1 20323:1 38778:1 53438:1 53439:1 53444:1 53482:1 53621:1 53924:1 55630:1 55711:1 56276:1 61042:1 61050:1 61059:1 61066:1 61233:1 61350:1 61511:1 61781:1 61788:1 61795:1 61799:1 61810:1 61823:1 61825:1  |EV| 
0.052903012825121373 1480:1 16979:1 34986:1 53436:1 53472:1 53531:1 53812:1 53813:1 55468:1 56276:1 61049:1 61059:1 61080:1 61206:1 61383:1 61492:1 61781:1 61788:1 61795:1 61799:1 61805:1 61810:1 61823:1  |EV| 
0.10000000000000001 627:1 16040:1 33692:1 53436:1 53439:1 53472:1 53481:1 53519:1 53534:1 55439:1 56276:1 57882:1 61049:1 61059:1 61081:1 61210:1 61377:1 61492:1 61781:1 61788:1 61795:1 61799:1 61810:1 61821:1 61823:1 61825:1  |EV| 
-0.10000000000000001 3736:1 19591:1 33073:1 53439:1 55402:1 56276:1 57882:1 61049:1 61059:1 61060:1 61205:1 61350:1 61492:1 61781:1 61788:1 61795:1 61799:1 61810:1  |EV| 
-0.035509033866121163 11275:1 28225:1 47938:1 53436:1 53442:1 53472:1 53706:1 53780:1 53965:1 55018:1 55024:1 55025:1 55027:1 55028:1 55585:1 56076:1 56276:1 61039:1 61050:1 61059:1 61084:1 61234:1 61367:1 61493:1 61781:1 61788:1 61795:1 61799:1 61810:1 61823:1  |EV| 
-0.0087974933464358158 11351:1 28713:1 33073:1 53439:1 55481:1 56276:1 57882:1 61049:1 61059:1 61060:1 61205:1 61350:1 61492:1 61781:1 61788:1 61794:1 61799:1 61805:1 61810:1 61820:1  |EV| 
-0.10000000000000001 1281:1 16746:1 36055:1 53436:1 53439:1 53531:1 54027:1 54028:1 55346:1 56276:1 57882:1 61049:1 61059:1 61060:1 61228:1 61383:1 61492:1 61781:1 61788:1 61795:1 61799:1 61805:1 61810:1 61823:1  |EV| 
-0.058305194190483883 1785:1 17296:1 35324:1 53438:1 53439:1 53444:1 53472:1 53489:1 53534:1 53603:1 53632:1 53638:1 53647:1 53719:1 53773:1 53904:1 53905:1 53906:1 53907:1 53908:1 53909:1 53910:1 53911:1 55457:1 56276:1 57882:1 61049:1 61059:1 61067:1 61230:1 61403:1 61529:1 61781:1 61788:1 61795:1 61799:1 61810:1 61823:1 61825:1  |EV| 
0.10000000000000001 1641:1 17152:1 35176:1 53439:1 53809:1 55402:1 56276:1 56319:1 57908:1 58456:1 59105:1 61054:1 61059:1 61080:1 61204:1 61350:1 61508:1 61781:1 61788:1 61795:1 61799:1 61810:1 61823:1  |EV| 
0.10000000000000001 15361:1 32955:1 53400:1 53456:1 53458:1 53459:1 55377:1 56276:1 57884:1 61053:1 61059:1 61062:1 61211:1 61364:1 61498:1 61781:1 61788:1 61794:1 61799:1 61810:1 61823:1  |EV| 
0.10000000000000001 232:1 19104:1 34083:1 53444:1 55408:1 56276:1 61051:1 61059:1 61062:1 61237:1 61355:1 61495:1 61781:1 61788:1 61795:1 61799:1 61805:1 61810:1 61823:1  |EV| 
-0.068861563320214772 204:1 15604:1 33203:1 53516:1 53520:1 53522:1 55400:1 56276:1 61054:1 61059:1 61076:1 61211:1 61350:1 61508:1 61781:1 61788:1 61796:1 61799:1 61810:1 61823:1  |EV| 
-0.10000000000000001 10206:1 27029:1 46483:1 53444:1 53590:1 54855:1 55810:1 56276:1 61050:1 61059:1 61061:1 61210:1 61350:1 61511:1 61781:1 61788:1 61795:1 61799:1 61810:1 61823:1  |EV| 
-0.10000000000000001 12464:1 29633:1 49527:1 53439:1 53444:1 53472:1 53624:1 54015:1 54085:1 56125:1 56276:1 61050:1 61059:1 61063:1 61223:1 61354:1 61511:1 61781:1 61788:1 61795:1 61799:1 61810:1 61823:1  |EV| 
-0.049850318773974785 7667:1 24118:1 43074:1 53444:1 53517:1 53534:1 53556:1 53624:1 54146:1 55459:1 56276:1 61050:1 61059:1 61063:1 61233:1 61351:1 61511:1 61781:1 61788:1 61794:1 61799:1 61810:1 61823:1  |EV| 
-0.014156947143922698 12122:1 29203:1 49007:1 53439:1 53470:1 54704:1 56101:1 56276:1 57882:1 61049:1 61059:1 61060:1 61207:1 61354:1 61492:1 61781:1 61788:1 61795:1 61799:1 61810:1  |EV| 
0.10000000000000001 1712:1 17223:1 35252:1 53436:1 53438:1 53439:1 53444:1 53472:1 53483:1 53489:1 53494:1 53534:1 53603:1 53632:1 53638:1 53647:1 53719:1 53773:1 53904:1 53905:1 53906:1 53907:1 53908:1 53909:1 53910:1 53911:1 53912:1 53913:1 53914:1 53915:1 53916:1 53933:1 55522:1 56276:1 61049:1 61059:1 61131:1 61205:1 61426:1 61583:1 61781:1 61788:1 61795:1 61799:1 61810:1 61823:1  |EV| 
0.10000000000000001 8148:1 24645:1 43740:1 53436:1 53439:1 53494:1 53590:1 53935:1 55358:1 56276:1 58034:1 61049:1 61059:1 61060:1 61228:1 61383:1 61492:1 61781:1 61788:1 61795:1 61799:1 61810:1 61823:1 61826:1  |EV| 
0.032576299901369295 12901:1 30096:1 33073:1 53439:1 55358:1 56276:1 57882:1 61049:1 61059:1 61060:1 61205:1 61350:1 61492:1 61781:1 61788:1 61795:1 61799:1 61810:1 61823:1  |EV| 
0.10000000000000001 7499:1 23926:1 33073:1 53439:1 55811:1 56276:1 57882:1 61049:1 61059:1 61060:1 61205:1 61350:1 61492:1 61781:1 61788:1 61795:1 61799:1 61810:1 61823:1  |EV| 
-0.014285479991997739 1731:1 17242:1 35271:1 53436:1 53438:1 53439:1 53444:1 53472:1 53483:1 53489:1 53494:1 53534:1 53603:1 53632:1 53638:1 53647:1 53719:1 53773:1 53904:1 53905:1 53906:1 53907:1 53909:1 53910:1 53911:1 53912:1 53913:1 53914:1 53915:1 53916:1 53917:1 53933:1 55522:1 56276:1 61049:1 61059:1 61071:1 61268:1 61426:1 61593:1 61781:1 61788:1 61795:1 61799:1 61810:1 61823:1  |EV| 
-0.068698200640025131 1866:1 17379:1 35418:1 53436:1 53438:1 53439:1 53444:1 53472:1 53483:1 53489:1 53494:1 53534:1 53603:1 53632:1 53638:1 53647:1 53719:1 53773:1 53904:1 53905:1 53906:1 53907:1 53908:1 53909:1 53910:1 53912:1 53913:1 53914:1 53915:1 53916:1 53917:1 53933:1 55522:1 56276:1 61049:1 61059:1 61106:1 61243:1 61426:1 61602:1 61781:1 61788:1 61795:1 61799:1 61810:1 61823:1  |EV| 
-0.10000000000000001 12517:1 29686:1 49600:1 53439:1 53459:1 53463:1 53472:1 53494:1 53534:1 53558:1 53581:1 53586:1 53587:1 53809:1 54271:1 54293:1 54671:1 55099:1 56131:1 56276:1 61049:1 61059:1 61078:1 61206:1 61387:1 61501:1 61781:1 61788:1 61795:1 61799:1 61810:1 61823:1  |EV| 
-0.021128613781034731 4338:1 20248:1 33073:1 53439:1 55708:1 56276:1 57882:1 61049:1 61059:1 61060:1 61205:1 61350:1 61492:1 61781:1 61788:1 61795:1 61799:1 61810:1 61826:1  |EV| 
0.10000000000000001 13813:1 31287:1 51463:1 53459:1 53808:1 56191:1 56276:1 57887:1 61050:1 61059:1 61093:1 61207:1 61350:1 61511:1 61781:1 61788:1 61794:1 61799:1 61810:1 61823:1  |EV| 
0.10000000000000001 4293:1 20202:1 38656:1 53439:1 53452:1 53453:1 53470:1 53472:1 54237:1 54238:1 55683:1 56276:1 57887:1 61050:1 61059:1 61061:1 61223:1 61383:1 61511:1 61781:1 61788:1 61795:1 61799:1 61810:1 61823:1  |EV| 
0.10000000000000001 14263:1 31777:1 52156:1 55906:1 56276:1 57882:1 61056:1 61059:1 61060:1 61204:1 61466:1 61508:1 61781:1 61790:1 61796:1 61799:1 61805:1 61810:1 61813:1 61820:1 61823:1  |EV| 
-0.10000000000000001 9899:1 26711:1 46121:1 53439:1 53590:1 55437:1 56276:1 57887:1 61050:1 61059:1 61093:1 61207:1 61350:1 61511:1 61781:1 61788:1 61795:1 61799:1 61810:1 61823:1 61825:1  |EV| 
-0.10000000000000001 13776:1 31247:1 51414:1 53439:1 54062:1 54363:1 55370:1 56276:1 61050:1 61059:1 61093:1 61210:1 61351:1 61511:1 61781:1 61788:1 61795:1 61799:1 61810:1 61823:1  |EV| 
-0.10000000000000001 10642:1 27504:1 47049:1 53459:1 55435:1 56276:1 56523:1 57931:1 58481:1 60361:1 61051:1 61059:1 61062:1 61205:1 61348:1 61495:1 61781:1 61788:1 61794:1 61799:1 61810:1 61823:1  |EV| 
-0.012039738512106733 122:1 15515:1 33111:1 53438:1 53439:1 55346:1 56276:1 56282:1 57884:1 58440:1 59057:1 61051:1 61059:1 61063:1 61206:1 61348:1 61495:1 61781:1 61789:1 61795:1 61799:1 61823:1  |EV| 
0.0082638449525769143 2279:1 17855:1 35912:1 53436:1 53472:1 53628:1 53809:1 53998:1 55406:1 56276:1 61049:1 61059:1 61076:1 61205:1 61383:1 61492:1 61781:1 61788:1 61794:1 61799:1 61810:1 61823:1  |EV| 
0.10000000000000001 1865:1 17378:1 35417:1 53438:1 53439:1 53444:1 53472:1 53489:1 53534:1 53603:1 53632:1 53638:1 53647:1 53719:1 53773:1 53904:1 53905:1 53906:1 53907:1 53908:1 53909:1 53910:1 53933:1 55457:1 56276:1 61049:1 61059:1 61106:1 61206:1 61403:1 61540:1 61781:1 61788:1 61795:1 61799:1 61810:1 61823:1 61825:1  |EV| 
0.10000000000000001 12596:1 29765:1 49666:1 53459:1 53463:1 53472:1 53558:1 53581:1 53586:1 53587:1 53809:1 54271:1 54671:1 55682:1 56276:1 61049:1 61059:1 61083:1 61207:1 61379:1 61506:1 61781:1 61788:1 61794:1 61799:1 61810:1 61823:1  |EV| 
0.10000000000000001 1451:1 16937:1 34902:1 53436:1 53439:1 53444:1 53452:1 53453:1 53463:1 53472:1 53525:1 53537:1 53597:1 53632:1 53654:1 53718:1 53748:1 53749:1 53754:1 53756:1 53757:1 53760:1 53761:1 53814:1 53815:1 53820:1 53821:1 53822:1 55482:1 56276:1 61049:1 61059:1 61125:1 61239:1 61414:1 61551:1 61781:1 61788:1 61795:1 61799:1 61810:1 61823:1  |EV| 
0.10000000000000001 12189:1 29284:1 49119:1 53436:1 53439:1 53444:1 53463:1 53472:1 53742:1 53771:1 53900:1 54909:1 55560:1 55929:1 56108:1 56109:1 56276:1 61038:1 61049:1 61059:1 61073:1 61206:1 61379:1 61506:1 61781:1 61788:1 61795:1 61799:1 61810:1 61823:1  |EV| 
-0.09932952783900989 1224:1 16685:1 34503:1 53436:1 53439:1 53444:1 53452:1 53453:1 53463:1 53472:1 53525:1 53537:1 53597:1 53632:1 53654:1 53718:1 53748:1 53749:1 53754:1 53756:1 53757:1 53760:1 53807:1 53814:1 53815:1 53820:1 53821:1 53822:1 55482:1 56276:1 61049:1 61059:1 61102:1 61235:1 61414:1 61575:1 61781:1 61788:1 61795:1 61799:1 61810:1 61823:1  |EV| 
-0.030369367503342667 12183:1 29276:1 49108:1 53436:1 53439:1 53444:1 53463:1 53472:1 53555:1 53742:1 53771:1 53900:1 55560:1 55929:1 56108:1 56109:1 56276:1 57882:1 61038:1 61049:1 61059:1 61060:1 61212:1 61379:1 61494:1 61781:1 61788:1 61795:1 61799:1 61810:1 61823:1  |EV| 
-0.043931198421322634 1446:1 16937:1 34894:1 53439:1 53444:1 53452:1 53453:1 53463:1 53472:1 53525:1 53537:1 53597:1 53632:1 53654:1 53718:1 53748:1 53749:1 53756:1 53760:1 53761:1 53814:1 53815:1 53820:1 53821:1 53822:1 55482:1 56276:1 61054:1 61059:1 61125:1 61221:1 61383:1 61556:1 61781:1 61788:1 61795:1 61799:1 61810:1 61823:1  |EV| 
-0.0011234403932780938 2125:1 17702:1 35763:1 53459:1 53477:1 53590:1 53780:1 53781:1 53989:1 53990:1 55401:1 56276:1 61054:1 61059:1 61083:1 61204:1 61377:1 61508:1 61781:1 61788:1 61796:1 61799:1 61810:1 61820:1 61823:1  |EV| 
0.10000000000000001 8207:1 24715:1 43806:1 53439:1 53472:1 53494:1 53500:1 54693:1 55917:1 56276:1 57261:1 57907:1 57979:1 58456:1 60136:1 61029:1 61050:1 61059:1 61063:1 61233:1 61350:1 61511:1 61781:1 61788:1 61795:1 61799:1 61810:1 61823:1  |EV| 
0.10000000000000001 3059:1 18749:1 36903:1 53438:1 53444:1 53666:1 54002:1 54071:1 55612:1 56276:1 61051:1 61059:1 61089:1 61205:1 61380:1 61495:1 61781:1 61788:1 61795:1 61799:1 61810:1 61823:1  |EV| 
0.069009596185567887 2601:1 18202:1 36282:1 53809:1 55483:1 56276:1 57882:1 61049:1 61059:1 61060:1 61205:1 61350:1 61492:1 61781:1 61788:1 61795:1 61799:1 61810:1 61823:1  |EV| 
-0.10000000000000001 2240:1 17803:1 35859:1 53459:1 53477:1 53590:1 53749:1 53780:1 53781:1 53989:1 53990:1 55358:1 56276:1 61049:1 61059:1 61083:1 61206:1 61356:1 61506:1 61781:1 61788:1 61795:1 61799:1 61810:1 61823:1  |EV| 
-0.10000000000000001 2850:1 18528:1 36667:1 53459:1 53468:1 53480:1 53481:1 53505:1 54083:1 55603:1 56276:1 61049:1 61059:1 61075:1 61237:1 61377:1 61492:1 61781:1 61788:1 61794:1 61799:1 61805:1 61810:1 61823:1  |EV| 
-0.10000000000000001 12055:1 29123:1 48893:1 53438:1 53472:1 53477:1 53850:1 54196:1 55063:1 56099:1 56100:1 56276:1 61038:1 61042:1 61049:1 61059:1 61081:1 61239:1 61352:1 61506:1 61781:1 61788:1 61795:1 61799:1 61805:1 61810:1 61823:1  |EV| 
-0.090346321656892215 757:1 16343:1 49233:1 53586:1 54334:1 55384:1 56276:1 61049:1 61059:1 61081:1 61237:1 61351:1 61492:1 61781:1 61788:1 61794:1 61799:1 61823:1  |EV| 
0.10000000000000001 1228:1 16685:1 34507:1 53439:1 53452:1 53453:1 53463:1 53472:1 53597:1 53632:1 53654:1 53718:1 53748:1 53749:1 53760:1 53814:1 53815:1 53820:1 53821:1 53822:1 55482:1 56276:1 61054:1 61059:1 61102:1 61215:1 61383:1 61504:1 61781:1 61788:1 61795:1 61799:1 61810:1 61823:1  |EV| 
0.10000000000000001 6341:1 22453:1 41282:1 53436:1 53439:1 53444:1 53472:1 53841:1 53998:1 54223:1 54463:1 54506:1 54507:1 54508:1 54509:1 54510:1 55832:1 56276:1 61049:1 61059:1 61081:1 61234:1 61388:1 61494:1 61781:1 61788:1 61795:1 61799:1 61810:1 61823:1  |EV| 
0.10000000000000001 276:1 15677:1 33276:1 53439:1 53444:1 53452:1 53453:1 53494:1 53542:1 53569:1 53591:1 53596:1 53610:1 53611:1 53612:1 53613:1 55397:1 56276:1 57882:1 61049:1 61059:1 61060:1 61232:1 61402:1 61529:1 61781:1 61788:1 61795:1 61799:1 61810:1 61823:1  |EV| 
-0.10000000000000001 6332:1 22444:1 41283:1 53436:1 53439:1 53444:1 53472:1 53494:1 53841:1 53998:1 54171:1 54223:1 54463:1 54506:1 54507:1 54508:1 54509:1 54510:1 54512:1 55759:1 56276:1 61049:1 61059:1 61081:1 61226:1 61402:1 61555:1 61781:1 61788:1 61795:1 61799:1 61810:1 61823:1  |EV| 
-0.015491700637603516 480:1 15891:1 33521:1 53436:1 53438:1 53439:1 53444:1 53459:1 53481:1 53494:1 53516:1 53517:1 53518:1 53519:1 55400:1 56276:1 57922:1 61049:1 61059:1 61071:1 61205:1 61378:1 61512:1 61781:1 61790:1 61796:1 61799:1 61810:1 61823:1  |EV| 
-0.020636769201236568 2960:1 18928:1 37105:1 53439:1 53444:1 53472:1 53586:1 53587:1 53602:1 53603:1 53618:1 53645:1 53661:1 53666:1 54002:1 54071:1 54072:1 54073:1 54074:1 55612:1 56276:1 61052:1 61058:1 61070:1 61246:1 61380:1 61505:1 61781:1 61788:1 61795:1 61799:1 61810:1 61823:1  |EV| 
0.10000000000000001 2057:1 17579:1 35642:1 53459:1 53477:1 53590:1 53781:1 53989:1 53990:1 55401:1 56276:1 57882:1 61049:1 61059:1 61060:1 61239:1 61377:1 61492:1 61781:1 61788:1 61796:1 61799:1 61801:1 61805:1 61810:1 61820:1 61823:1  |EV| 
0.057053710948960404 12112:1 29192:1 48991:1 53459:1 53463:1 53531:1 53839:1 56112:1 56276:1 57882:1 61049:1 61059:1 61060:1 61210:1 61372:1 61492:1 61781:1 61788:1 61796:1 61799:1 61810:1 61821:1 61823:1  |EV| 
0.076328589884626277 12373:1 29589:1 49481:1 53480:1 53481:1 53586:1 54334:1 55384:1 56276:1 57651:1 58370:1 58936:1 60632:1 61049:1 61059:1 61076:1 61237:1 61372:1 61492:1 61781:1 61788:1 61794:1 61799:1 61810:1 61823:1  |EV| 
0.034687908450602961 8842:1 26025:1 45269:1 53439:1 53590:1 54363:1 55518:1 55519:1 56276:1 57882:1 61041:1 61049:1 61059:1 61067:1 61206:1 61354:1 61492:1 61781:1 61788:1 61796:1 61799:1 61810:1 61821:1 61823:1  |EV| 
-0.10000000000000001 2244:1 17808:1 35863:1 53439:1 53472:1 53718:1 53772:1 55401:1 56276:1 57882:1 61049:1 61059:1 61060:1 61210:1 61372:1 61492:1 61781:1 61788:1 61796:1 61799:1 61821:1 61823:1  |EV| 
-0.0060346713780958863 1973:1 17490:1 35549:1 53603:1 53943:1 55545:1 56276:1 57882:1 61049:1 61059:1 61060:1 61206:1 61351:1 61492:1 61781:1 61788:1 61795:1 61799:1 61805:1 61810:1 61821:1  |EV| 
-0.10000000000000001 8973:1 25595:1 44786:1 53439:1 53459:1 53467:1 53512:1 53522:1 53590:1 53814:1 53878:1 54027:1 54378:1 54785:1 55538:1 56276:1 57882:1 61049:1 61059:1 61060:1 61235:1 61373:1 61494:1 61781:1 61788:1 61796:1 61799:1 61810:1 61823:1 61825:1  |EV| 
-0.036161114562018912 4292:1 20201:1 33073:1 53439:1 55691:1 56276:1 57882:1 61049:1 61059:1 61060:1 61205:1 61350:1 61492:1 61781:1 61788:1 61794:1 61799:1 61810:1 61820:1  |EV| 
-0.036161114562019259 8431:1 24967:1 33073:1 53439:1 55933:1 56276:1 57882:1 61049:1 61059:1 61060:1 61205:1 61350:1 61492:1 61781:1 61788:1 61794:1 61799:1 61810:1 61820:1  |EV| 
0.062593929780880797 8167:1 24669:1 43762:1 53436:1 53438:1 53439:1 53444:1 53459:1 53494:1 53549:1 53577:1 53580:1 53606:1 53707:1 53854:1 54673:1 54674:1 55349:1 55534:1 55899:1 55912:1 55913:1 55914:1 56276:1 61038:1 61049:1 61059:1 61069:1 61237:1 61382:1 61512:1 61781:1 61788:1 61795:1 61799:1 61810:1 61823:1  |EV| 
0.10000000000000001 6346:1 22458:1 41272:1 53472:1 53513:1 53564:1 53876:1 54324:1 55759:1 56276:1 61052:1 61058:1 61080:1 61219:1 61369:1 61497:1 61781:1 61788:1 61795:1 61799:1 61810:1 61823:1  |EV| 
0.10000000000000001 4744:1 20672:1 39144:1 53472:1 53480:1 54334:1 55402:1 56276:1 61052:1 61058:1 61081:1 61220:1 61355:1 61497:1 61781:1 61788:1 61795:1 61799:1 61810:1 61823:1  |EV| 
-0.039697997206441286 2329:1 25093:1 44422:1 53436:1 53439:1 53444:1 53463:1 53466:1 53470:1 53472:1 53547:1 53564:1 53598:1 53777:1 53980:1 54012:1 54251:1 54704:1 54705:1 54706:1 54707:1 55370:1 56276:1 61052:1 61058:1 61098:1 61245:1 61355:1 61561:1 61781:1 61788:1 61795:1 61799:1 61810:1 61823:1  |EV| 
-0.019962320853169329 875:1 16305:1 34032:1 53436:1 53438:1 53439:1 53470:1 53472:1 53480:1 53481:1 53494:1 53566:1 53573:1 53574:1 53598:1 53638:1 53644:1 53646:1 53670:1 53671:1 53672:1 53673:1 53674:1 53675:1 53686:1 53693:1 55426:1 56276:1 61049:1 61059:1 61108:1 61237:1 61408:1 61540:1 61781:1 61788:1 61795:1 61799:1 61810:1 61823:1  |EV| 
-0.032226902615601828 545:1 15958:1 33777:1 53436:1 53438:1 53439:1 53470:1 53480:1 53494:1 53566:1 53573:1 53574:1 53598:1 53644:1 53646:1 53670:1 53671:1 53672:1 53673:1 53674:1 53675:1 55434:1 56276:1 57932:1 61051:1 61059:1 61114:1 61206:1 61365:1 61542:1 61781:1 61788:1 61795:1 61799:1 61810:1 61823:1 61825:1  |EV| 
-0.054361187675406569 232:1 19416:1 37758:1 53436:1 53439:1 53444:1 53603:1 53653:1 53809:1 53932:1 54153:1 54154:1 54155:1 55408:1 56276:1 61052:1 61058:1 61087:1 61214:1 61355:1 61505:1 61781:1 61788:1 61795:1 61799:1 61810:1 61823:1  |EV| 
0.10000000000000001 8844:1 26244:1 45544:1 53439:1 53459:1 53512:1 53522:1 53590:1 53814:1 53878:1 54027:1 54378:1 54784:1 54785:1 55538:1 56276:1 61049:1 61059:1 61083:1 61210:1 61373:1 61506:1 61781:1 61788:1 61796:1 61799:1 61810:1 61823:1 61825:1  |EV| 
0.075491757412516611 8689:1 25286:1 44439:1 53439:1 53463:1 53634:1 54362:1 55424:1 56276:1 57882:1 61049:1 61059:1 61060:1 61210:1 61372:1 61492:1 61781:1 61788:1 61796:1 61799:1 61810:1 61823:1  |EV| 
0.02832536718426008 4110:1 20002:1 38435:1 53684:1 53704:1 54085:1 55674:1 56276:1 57882:1 61049:1 61059:1 61060:1 61207:1 61354:1 61492:1 61781:1 61788:1 61794:1 61799:1 61810:1 61823:1  |EV| 
0.047733279570088619 10913:1 27816:1 47453:1 53439:1 53472:1 54988:1 55346:1 56276:1 56305:1 57890:1 58438:1 60456:1 61049:1 61059:1 61060:1 61207:1 61354:1 61492:1 61781:1 61788:1 61795:1 61799:1 61810:1 61821:1 61823:1  |EV| 
0.10000000000000001 10279:1 27107:1 46564:1 53436:1 53439:1 53472:1 53570:1 53590:1 53607:1 53686:1 53769:1 54785:1 54853:1 55423:1 56276:1 61049:1 61059:1 61092:1 61228:1 61356:1 61506:1 61781:1 61788:1 61796:1 61799:1 61810:1 61823:1  |EV| 
-0.10000000000000001 4418:1 20332:1 38787:1 53444:1 53452:1 53525:1 53542:1 54277:1 54287:1 55630:1 56276:1 57904:1 61049:1 61059:1 61092:1 61205:1 61377:1 61492:1 61781:1 61788:1 61795:1 61799:1 61810:1 61823:1  |EV| 
-0.040274618447173276 711:1 16127:1 34036:1 53444:1 53452:1 53459:1 53481:1 53527:1 53590:1 53605:1 53633:1 53664:1 55426:1 56276:1 61049:1 61059:1 61073:1 61205:1 61356:1 61506:1 61781:1 61788:1 61795:1 61799:1 61810:1 61823:1  |EV| 
-0.10000000000000001 10241:1 27066:1 46524:1 53436:1 53439:1 53472:1 53570:1 53590:1 53607:1 53686:1 54159:1 54785:1 54853:1 55423:1 56276:1 61049:1 61059:1 61081:1 61223:1 61356:1 61506:1 61781:1 61788:1 61796:1 61799:1 61810:1 61823:1  |EV| 
-0.058732336600193218 2324:1 28812:1 48535:1 53439:1 53444:1 53459:1 53472:1 53544:1 53632:1 53654:1 53716:1 53731:1 53739:1 54024:1 54175:1 54480:1 55064:1 55065:1 55066:1 55575:1 56276:1 61049:1 61059:1 61071:1 61228:1 61370:1 61512:1 61781:1 61788:1 61796:1 61799:1 61810:1 61823:1 61825:1  |EV| 
-0.085204144511721133 9493:1 26245:1 45545:1 53459:1 53512:1 53522:1 53590:1 53878:1 54378:1 54784:1 55945:1 56276:1 61054:1 61059:1 61083:1 61211:1 61383:1 61508:1 61781:1 61788:1 61796:1 61799:1 61810:1 61823:1  |EV| 
0.10000000000000001 8401:1 26496:1 45855:1 53438:1 53439:1 53444:1 53470:1 53472:1 53547:1 53554:1 53632:1 53747:1 53751:1 53811:1 54091:1 54146:1 54793:1 54796:1 55370:1 56276:1 57940:1 61049:1 61059:1 61074:1 61208:1 61388:1 61494:1 61781:1 61788:1 61795:1 61799:1 61810:1 61823:1  |EV| 
0.10000000000000001 1303:1 16805:1 34678:1 53439:1 53444:1 53544:1 53665:1 53762:1 53775:1 55464:1 56276:1 61054:1 61059:1 61074:1 61204:1 61383:1 61508:1 61781:1 61788:1 61795:1 61799:1 61810:1 61823:1  |EV| 
-0.092146300166636955 9695:1 26501:1 45860:1 53438:1 53439:1 53444:1 53470:1 53472:1 53547:1 53632:1 53747:1 53751:1 53791:1 53811:1 54091:1 54146:1 54793:1 54796:1 55370:1 56276:1 61049:1 61059:1 61081:1 61234:1 61388:1 61494:1 61781:1 61788:1 61795:1 61799:1 61810:1 61823:1  |EV| 
-0.10000000000000001 946:1 16498:1 34264:1 53439:1 53444:1 53544:1 53762:1 53775:1 55464:1 56276:1 57882:1 61049:1 61059:1 61060:1 61228:1 61383:1 61492:1 61781:1 61788:1 61795:1 61799:1 61810:1 61823:1  |EV| 
-0.10000000000000001 1607:1 17117:1 35142:1 53436:1 53439:1 53444:1 53483:1 53548:1 53841:1 53880:1 53881:1 53882:1 53888:1 55517:1 56276:1 57988:1 61049:1 61059:1 61073:1 61205:1 61356:1 61506:1 61781:1 61788:1 61796:1 61799:1 61810:1 61823:1  |EV| 
-0.046255118499117322 8457:1 24995:1 44103:1 53436:1 53439:1 53590:1 54027:1 54746:1 54751:1 55358:1 56276:1 61054:1 61059:1 61074:1 61211:1 61372:1 61508:1 61781:1 61788:1 61795:1 61799:1 61810:1 61823:1  |EV| 
0.10000000000000001 1542:1 17043:1 34240:1 55504:1 56276:1 57882:1 61052:1 61058:1 61060:1 61211:1 61348:1 61497:1 61781:1 61788:1 61794:1 61799:1 61810:1 61823:1  |EV| 
0.10000000000000001 5388:1 21725:1 34240:1 55529:1 56276:1 56362:1 57882:1 58481:1 59888:1 61052:1 61058:1 61060:1 61211:1 61348:1 61497:1 61781:1 61788:1 61794:1 61799:1 61805:1 61810:1 61823:1  |EV| 
0.01886330153289487 9964:1 26778:1 35830:1 53459:1 53590:1 55752:1 56276:1 57882:1 61049:1 61059:1 61060:1 61206:1 61351:1 61492:1 61781:1 61788:1 61794:1 61799:1 61810:1 61823:1  |EV| 
-0.089432237801914047 955:1 16557:1 34330:1 53472:1 53686:1 53736:1 55424:1 56276:1 61052:1 61058:1 61080:1 61220:1 61348:1 61497:1 61781:1 61788:1 61796:1 61799:1 61810:1 61823:1  |EV| 
-0.072171522408795277 3566:1 19328:1 37646:1 53521:1 53584:1 53802:1 55654:1 56276:1 61054:1 61059:1 61076:1 61204:1 61351:1 61508:1 61781:1 61788:1 61794:1 61799:1 61810:1 61820:1 61823:1  |EV| 
-0.10000000000000001 12583:1 29752:1 49653:1 53439:1 53459:1 53463:1 53494:1 54271:1 55682:1 56276:1 61051:1 61059:1 61095:1 61207:1 61369:1 61495:1 61781:1 61788:1 61794:1 61799:1 61810:1 61823:1  |EV| 
0.098667454579698319 2826:1 18500:1 36633:1 53436:1 53439:1 53531:1 53780:1 54027:1 55346:1 56276:1 61049:1 61059:1 61076:1 61205:1 61383:1 61492:1 61781:1 61788:1 61795:1 61799:1 61810:1 61823:1  |EV| 
0.078773222538382051 4468:1 20384:1 38840:1 53439:1 53444:1 53452:1 53453:1 53515:1 53525:1 53542:1 53779:1 54276:1 54277:1 54287:1 55630:1 56276:1 57894:1 57902:1 61029:1 61031:1 61049:1 61059:1 61072:1 61205:1 61379:1 61512:1 61781:1 61788:1 61795:1 61799:1 61810:1 61823:1  |EV| 
0.07377245464838697 284:1 15685:1 33284:1 53436:1 53439:1 53444:1 53459:1 53470:1 53494:1 53521:1 53527:1 53584:1 53605:1 53606:1 53607:1 53608:1 53622:1 53623:1 53624:1 55415:1 56276:1 61049:1 61059:1 61069:1 61206:1 61370:1 61512:1 61781:1 61788:1 61795:1 61799:1 61810:1 61823:1  |EV| 
-0.10000000000000001 4508:1 20425:1 38885:1 53439:1 53444:1 53452:1 53453:1 53515:1 53525:1 53542:1 53555:1 53779:1 54276:1 54287:1 55630:1 56276:1 61029:1 61031:1 61049:1 61059:1 61092:1 61239:1 61379:1 61506:1 61781:1 61788:1 61795:1 61799:1 61810:1 61823:1  |EV| 
-0.076751979448952137 13641:1 31089:1 51194:1 53436:1 53439:1 53452:1 53453:1 53463:1 53470:1 53472:1 53477:1 53542:1 53603:1 53999:1 54039:1 55052:1 55062:1 55131:1 55132:1 55135:1 55370:1 56276:1 57882:1 61049:1 61059:1 61060:1 61232:1 61402:1 61529:1 61781:1 61790:1 61795:1 61799:1 61810:1 61823:1  |EV| 
-0.10000000000000001 2591:1 18192:1 36271:1 53436:1 53439:1 53463:1 53479:1 53531:1 53749:1 53760:1 53809:1 55490:1 56276:1 61049:1 61059:1 61083:1 61237:1 61352:1 61506:1 61781:1 61788:1 61795:1 61799:1 61805:1 61810:1 61823:1  |EV| 
-0.10000000000000001 5108:1 21043:1 39566:1 53439:1 53444:1 53465:1 53590:1 53602:1 54373:1 54374:1 54392:1 55765:1 56276:1 61049:1 61059:1 61081:1 61233:1 61353:1 61506:1 61781:1 61788:1 61795:1 61799:1 61810:1 61823:1  |EV| 
0.10000000000000001 10299:1 27131:1 46590:1 53436:1 53444:1 54868:1 56003:1 56276:1 61051:1 61059:1 61066:1 61237:1 61368:1 61495:1 61781:1 61788:1 61797:1 61799:1 61810:1 61823:1  |EV| 
0.07068419150124354 12009:1 29065:1 48828:1 53439:1 53472:1 54970:1 55928:1 56276:1 61051:1 61059:1 61066:1 61207:1 61348:1 61495:1 61781:1 61788:1 61795:1 61799:1 61810:1 61823:1  |EV| 
-0.050713231419484972 829:1 16255:1 33951:1 53444:1 53481:1 53637:1 55384:1 56276:1 61051:1 61059:1 61066:1 61237:1 61368:1 61495:1 61781:1 61788:1 61794:1 61799:1 61810:1 61823:1  |EV| 
-0.10000000000000001 11419:1 28393:1 48157:1 53436:1 53439:1 53472:1 53988:1 54159:1 54645:1 56065:1 56276:1 61051:1 61059:1 61089:1 61207:1 61368:1 61495:1 61781:1 61788:1 61795:1 61799:1 61805:1 61810:1 61823:1  |EV| 
-0.040184216192322542 10287:1 27118:1 46577:1 53438:1 53439:1 53444:1 53513:1 55987:1 56276:1 57925:1 61051:1 61059:1 61084:1 61205:1 61368:1 61495:1 61781:1 61788:1 61795:1 61799:1 61810:1 61821:1 61823:1 61824:1  |EV| 
-0.027432162827099729 11675:1 28688:1 48406:1 53494:1 53607:1 54755:1 55993:1 56276:1 56374:1 57986:1 58456:1 60556:1 61051:1 61059:1 61066:1 61206:1 61355:1 61495:1 61781:1 61789:1 61795:1 61799:1 61823:1  |EV| 
0.072321920997664185 9786:1 26595:1 45970:1 53439:1 53472:1 53494:1 53549:1 53581:1 53624:1 53924:1 54552:1 55633:1 55958:1 56276:1 57882:1 61038:1 61049:1 61059:1 61060:1 61223:1 61352:1 61506:1 61781:1 61788:1 61795:1 61799:1 61810:1 61823:1  |EV| 
0.042165809524724221 14068:1 31571:1 51853:1 53439:1 53463:1 53472:1 53556:1 53602:1 53736:1 55955:1 56276:1 57882:1 61049:1 61059:1 61081:1 61210:1 61377:1 61492:1 61781:1 61788:1 61796:1 61799:1 61810:1 61823:1  |EV| 
-0.097883053338592665 7149:1 23435:1 42282:1 53436:1 53438:1 53439:1 53444:1 53459:1 53472:1 53483:1 53519:1 53534:1 53676:1 53708:1 53822:1 53905:1 54106:1 54205:1 54580:1 54582:1 55460:1 56276:1 57882:1 61049:1 61059:1 61060:1 61249:1 61403:1 61529:1 61781:1 61788:1 61796:1 61799:1 61810:1 61823:1  |EV| 
-0.044395485247254299 10435:1 27274:1 46901:1 53436:1 53439:1 53444:1 53456:1 53472:1 53481:1 53494:1 53559:1 53583:1 53624:1 53639:1 53705:1 54285:1 54707:1 54889:1 56005:1 56276:1 61049:1 61059:1 61083:1 61223:1 61388:1 61506:1 61781:1 61788:1 61795:1 61799:1 61810:1 61823:1  |EV| 
0.10000000000000001 4908:1 20841:1 39340:1 53444:1 53452:1 53453:1 53542:1 54076:1 54341:1 55753:1 56276:1 61051:1 61059:1 61089:1 61206:1 61364:1 61495:1 61781:1 61788:1 61795:1 61799:1 61810:1 61823:1  |EV| 
0.10000000000000001 3185:1 18910:1 37085:1 53444:1 53472:1 55390:1 56276:1 61051:1 61059:1 61063:1 61205:1 61355:1 61495:1 61781:1 61788:1 61795:1 61799:1 61810:1 61823:1  |EV| 
-0.020481662214683644 6744:1 22934:1 41738:1 53472:1 53502:1 55771:1 56276:1 57884:1 61051:1 61059:1 61063:1 61205:1 61355:1 61495:1 61781:1 61788:1 61795:1 61799:1 61823:1  |EV| 
-0.073217446496028751 6566:1 22696:1 41504:1 53444:1 53472:1 53502:1 53544:1 53552:1 55771:1 56276:1 61051:1 61059:1 61095:1 61205:1 61364:1 61495:1 61781:1 61788:1 61795:1 61799:1 61810:1 61823:1  |EV| 
-0.059526446646263859 5881:1 22008:1 40914:1 53453:1 53472:1 55637:1 56276:1 58044:1 61051:1 61059:1 61063:1 61205:1 61355:1 61495:1 61781:1 61788:1 61795:1 61799:1 61823:1  |EV| 
-0.00094624965916882925 8224:1 24733:1 43823:1 53453:1 55349:1 55534:1 55899:1 55912:1 55913:1 55914:1 56276:1 56448:1 57966:1 58467:1 60142:1 61038:1 61051:1 61059:1 61089:1 61237:1 61355:1 61495:1 61781:1 61789:1 61795:1 61799:1 61823:1  |EV| 
0.028640122526433054 5002:1 20936:1 39457:1 53439:1 53590:1 53602:1 54373:1 54374:1 55423:1 56276:1 61049:1 61059:1 61081:1 61207:1 61383:1 61492:1 61781:1 61788:1 61796:1 61799:1 61810:1 61823:1  |EV| 
0.080409323541115893 6333:1 22445:1 41228:1 53439:1 53472:1 53998:1 54463:1 54506:1 54507:1 55828:1 56276:1 61049:1 61059:1 61081:1 61228:1 61367:1 61492:1 61781:1 61788:1 61795:1 61799:1 61810:1 61823:1  |EV| 
-0.028979752885665868 13837:1 31314:1 51497:1 53439:1 53781:1 55464:1 56276:1 57882:1 61049:1 61059:1 61060:1 61206:1 61351:1 61492:1 61781:1 61788:1 61795:1 61799:1 61810:1  |EV| 
-0.011734809078400302 2062:1 17584:1 35647:1 53477:1 53781:1 55559:1 55560:1 56276:1 57882:1 61039:1 61049:1 61059:1 61060:1 61206:1 61351:1 61492:1 61781:1 61788:1 61796:1 61799:1 61801:1 61805:1 61810:1  |EV| 
0.10000000000000001 3996:1 27250:1 37085:1 53444:1 53472:1 55411:1 56276:1 61051:1 61059:1 61063:1 61205:1 61355:1 61495:1 61781:1 61788:1 61795:1 61799:1 61810:1 61823:1  |EV| 
0.080959876816579984 5388:1 21725:1 41943:1 53444:1 53459:1 53463:1 53502:1 53520:1 53549:1 53605:1 53639:1 53809:1 54086:1 54265:1 54569:1 54571:1 54572:1 54573:1 54576:1 54577:1 54578:1 54579:1 55529:1 56276:1 61049:1 61059:1 61106:1 61205:1 61393:1 61540:1 61781:1 61788:1 61794:1 61799:1 61805:1 61810:1 61823:1  |EV| 
0.070654341205723892 11217:1 28160:1 47872:1 53472:1 53521:1 55022:1 56071:1 56276:1 61051:1 61059:1 61066:1 61206:1 61355:1 61495:1 61781:1 61788:1 61795:1 61799:1 61810:1 61823:1  |EV| 
-0.10000000000000001 617:1 16030:1 34010:1 53444:1 53452:1 53459:1 53527:1 53590:1 53605:1 55435:1 56276:1 61051:1 61059:1 61089:1 61210:1 61369:1 61495:1 61781:1 61788:1 61794:1 61799:1 61805:1 61810:1 61823:1  |EV| 
-0.017744185719612209 320:1 15727:1 33329:1 53436:1 53439:1 53444:1 53459:1 53470:1 53494:1 53520:1 53521:1 53527:1 53584:1 53605:1 53606:1 53607:1 53608:1 53622:1 53624:1 55415:1 56276:1 61049:1 61059:1 61080:1 61234:1 61370:1 61494:1 61781:1 61788:1 61795:1 61799:1 61810:1 61823:1  |EV| 
-0.083006067460927563 5842:1 21844:1 40450:1 53439:1 53459:1 53470:1 53472:1 53561:1 53854:1 54465:1 55812:1 56276:1 57884:1 61051:1 61059:1 61079:1 61228:1 61369:1 61495:1 61781:1 61790:1 61795:1 61799:1 61810:1 61817:1 61823:1  |EV| 
-0.018106533864547185 2279:1 17855:1 35915:1 53444:1 53480:1 53537:1 53547:1 53809:1 53975:1 54000:1 54001:1 55406:1 56276:1 61051:1 61059:1 61064:1 61205:1 61362:1 61507:1 61781:1 61788:1 61794:1 61799:1 61810:1 61823:1  |EV| 
0.012628674744588319 3001:1 18762:1 36844:1 53439:1 53603:1 55444:1 56276:1 57882:1 61049:1 61059:1 61060:1 61206:1 61351:1 61492:1 61781:1 61788:1 61795:1 61799:1 61810:1 61821:1 61823:1  |EV| 
0.0020982998581768378 4447:1 20476:1 38937:1 53439:1 53472:1 53975:1 55720:1 55721:1 55722:1 56276:1 57882:1 61038:1 61039:1 61049:1 61059:1 61060:1 61207:1 61354:1 61492:1 61781:1 61788:1 61795:1 61799:1 61810:1 61821:1 61823:1  |EV| 
0.057148538229061616 4640:1 20568:1 39040:1 53502:1 55728:1 55729:1 56276:1 57882:1 58008:1 58133:1 61029:1 61031:1 61041:1 61049:1 61059:1 61060:1 61205:1 61350:1 61492:1 61781:1 61790:1 61796:1 61799:1 61810:1 61823:1  |EV| 
0.059267492189938889 2591:1 18192:1 33163:1 55490:1 56276:1 57882:1 61049:1 61059:1 61060:1 61237:1 61349:1 61492:1 61781:1 61788:1 61795:1 61799:1 61805:1 61810:1 61823:1  |EV| 
-0.010391843796037529 2854:1 18533:1 36672:1 53439:1 53603:1 54084:1 54085:1 55606:1 56276:1 57882:1 61049:1 61059:1 61060:1 61210:1 61372:1 61492:1 61781:1 61788:1 61795:1 61799:1 61805:1 61810:1 61821:1  |EV| 
-0.078345720209554798 4643:1 20571:1 39043:1 53436:1 53439:1 53442:1 53472:1 53502:1 54304:1 54305:1 54306:1 54307:1 54308:1 54309:1 55570:1 55724:1 55725:1 56276:1 57882:1 58008:1 58133:1 61029:1 61031:1 61041:1 61049:1 61059:1 61060:1 61229:1 61378:1 61494:1 61781:1 61790:1 61796:1 61799:1 61810:1 61821:1 61823:1  |EV| 
-0.023439423733731014 3765:1 31603:1 51883:1 53472:1 53789:1 55223:1 55488:1 56276:1 57882:1 61049:1 61059:1 61060:1 61207:1 61354:1 61492:1 61781:1 61788:1 61795:1 61799:1 61810:1 61825:1  |EV| 
-0.0073338918309451464 7231:1 23547:1 42408:1 53436:1 53438:1 53439:1 53444:1 53472:1 53483:1 53519:1 53534:1 53676:1 53708:1 53822:1 55460:1 56276:1 56663:1 57934:1 58628:1 59994:1 61049:1 61059:1 61097:1 61206:1 61388:1 61512:1 61781:1 61791:1 61796:1 61799:1 61815:1 61823:1  |EV| 
0.10000000000000001 5918:1 21934:1 40551:1 53439:1 53470:1 53472:1 53854:1 54465:1 55812:1 56276:1 57882:1 61049:1 61059:1 61060:1 61228:1 61383:1 61492:1 61781:1 61788:1 61795:1 61799:1 61810:1 61823:1  |EV| 
-0.10000000000000001 7564:1 24001:1 42932:1 53438:1 53444:1 53459:1 53472:1 53485:1 53502:1 53520:1 53521:1 53549:1 53705:1 53738:1 53819:1 53884:1 53890:1 54143:1 54615:1 54616:1 54617:1 55710:1 56276:1 57882:1 61049:1 61059:1 61060:1 61232:1 61402:1 61529:1 61781:1 61788:1 61795:1 61799:1 61805:1 61810:1 61823:1  |EV| 
0.061862067372886131 11272:1 28220:1 47932:1 53472:1 53706:1 55349:1 56068:1 56069:1 56276:1 61039:1 61051:1 61059:1 61084:1 61206:1 61348:1 61495:1 61781:1 61788:1 61795:1 61799:1 61810:1 61823:1  |EV| 
-0.048302752666055437 1050:1 18480:1 36609:1 53436:1 53439:1 53440:1 53444:1 53470:1 53477:1 53479:1 53494:1 53549:1 53558:1 53743:1 53745:1 53773:1 53988:1 54032:1 54033:1 54034:1 54035:1 55487:1 56276:1 58047:1 61049:1 61059:1 61101:1 61205:1 61403:1 61540:1 61781:1 61788:1 61795:1 61799:1 61810:1 61823:1  |EV| 
-0.0058700869375482821 12957:1 30166:1 50085:1 53463:1 53760:1 53809:1 56148:1 56276:1 56350:1 56377:1 57933:1 57950:1 58456:1 58487:1 60754:1 60755:1 61030:1 61051:1 61059:1 61066:1 61206:1 61355:1 61495:1 61781:1 61790:1 61795:1 61799:1 61817:1 61823:1  |EV| 
0.013691029891368282 7696:1 24157:1 43141:1 53439:1 53584:1 55846:1 55899:1 55900:1 55901:1 56276:1 57882:1 61038:1 61049:1 61059:1 61067:1 61205:1 61351:1 61492:1 61781:1 61788:1 61795:1 61799:1 61810:1 61821:1 61823:1  |EV| 
-0.0088961310194990116 777:1 16194:1 33880:1 53439:1 53590:1 55426:1 55443:1 56276:1 56282:1 57884:1 58440:1 59134:1 59140:1 61039:1 61051:1 61059:1 61066:1 61206:1 61348:1 61495:1 61781:1 61789:1 61795:1 61799:1 61815:1 61821:1 61823:1  |EV| 
-0.034065787400040903 11326:1 28279:1 33073:1 53439:1 55592:1 56276:1 57882:1 61049:1 61059:1 61060:1 61205:1 61350:1 61492:1 61781:1 61788:1 61794:1 61799:1 61810:1  |EV| 
0.095331182502907147 6864:1 23080:1 41886:1 53459:1 53522:1 54205:1 55870:1 56276:1 61049:1 61059:1 61081:1 61205:1 61354:1 61492:1 61781:1 61788:1 61795:1 61799:1 61810:1 61821:1 61823:1 61825:1  |EV| 
0.069311927682273108 438:1 15846:1 33461:1 53516:1 53520:1 53521:1 53522:1 53524:1 55403:1 56276:1 61049:1 61059:1 61076:1 61205:1 61383:1 61492:1 61781:1 61788:1 61794:1 61799:1 61810:1 61823:1  |EV| 
0.10000000000000001 713:1 16129:1 33794:1 53645:1 55429:1 56276:1 56362:1 57882:1 58481:1 59154:1 61052:1 61058:1 61060:1 61225:1 61355:1 61497:1 61781:1 61788:1 61794:1 61799:1 61805:1 61810:1 61823:1  |EV| 
-0.062695690715814947 4593:1 20519:1 38984:1 53444:1 53452:1 53525:1 53542:1 53555:1 54287:1 55630:1 56276:1 57899:1 61049:1 61059:1 61060:1 61239:1 61377:1 61492:1 61781:1 61788:1 61795:1 61799:1 61810:1 61823:1  |EV| 
0.058725377338122456 10943:1 27847:1 47542:1 54004:1 55488:1 56276:1 57547:1 58481:1 60468:1 61051:1 61059:1 61062:1 61237:1 61355:1 61495:1 61781:1 61788:1 61795:1 61799:1 61810:1 61823:1  |EV| 
0.024436178504387937 1691:1 17202:1 35227:1 53459:1 55459:1 56276:1 57882:1 61049:1 61059:1 61060:1 61205:1 61350:1 61492:1 61781:1 61788:1 61794:1 61799:1 61805:1 61810:1 61823:1  |EV| 
0.043479352476628527 6544:1 22670:1 36813:1 53439:1 53590:1 55437:1 56276:1 57882:1 61049:1 61059:1 61060:1 61206:1 61351:1 61492:1 61781:1 61790:1 61795:1 61799:1 61810:1 61823:1  |EV| 
-0.063333642625605174 9066:1 25720:1 44925:1 53436:1 53439:1 53444:1 53459:1 53494:1 53590:1 53624:1 53639:1 53665:1 53905:1 54205:1 54758:1 54759:1 55941:1 56276:1 57882:1 61049:1 61059:1 61060:1 61253:1 61382:1 61494:1 61781:1 61788:1 61795:1 61799:1 61810:1 61823:1  |EV| 
-0.10000000000000001 11509:1 28506:1 34240:1 55349:1 56068:1 56069:1 56276:1 57882:1 61039:1 61052:1 61058:1 61060:1 61211:1 61348:1 61497:1 61781:1 61788:1 61795:1 61799:1 61810:1 61823:1  |EV| 
-0.10000000000000001 8638:1 29255:1 34240:1 55928:1 56276:1 57882:1 61052:1 61058:1 61060:1 61211:1 61348:1 61497:1 61781:1 61788:1 61795:1 61799:1 61810:1 61823:1  |EV| 
-0.082257830343935343 3038:1 18746:1 36899:1 53444:1 53666:1 54002:1 54071:1 55612:1 56276:1 57882:1 61052:1 61058:1 61060:1 61219:1 61380:1 61497:1 61781:1 61788:1 61795:1 61799:1 61810:1 61823:1  |EV| 
-0.064437222631364865 14127:1 31637:1 51947:1 53436:1 53438:1 53439:1 53444:1 53452:1 53453:1 53456:1 53459:1 53472:1 53495:1 53549:1 53588:1 53693:1 53731:1 53743:1 53841:1 53924:1 54116:1 54753:1 55179:1 55180:1 55181:1 55182:1 55184:1 55187:1 55928:1 56276:1 61049:1 61059:1 61080:1 61264:1 61415:1 61557:1 61781:1 61788:1 61795:1 61799:1 61810:1 61823:1 61825:1  |EV| 
-0.10000000000000001 10659:1 27525:1 47083:1 53564:1 55435:1 56276:1 56362:1 57882:1 58481:1 60361:1 61052:1 61058:1 61067:1 61225:1 61348:1 61497:1 61781:1 61788:1 61794:1 61799:1 61810:1 61823:1  |EV| 
0.097475881932773539 3371:1 19406:1 37744:1 53436:1 53439:1 53444:1 53603:1 53653:1 53809:1 53932:1 54153:1 54154:1 54155:1 55637:1 56276:1 61049:1 61059:1 61087:1 61237:1 61379:1 61512:1 61781:1 61788:1 61795:1 61799:1 61810:1 61823:1  |EV| 
0.10000000000000001 2329:1 25093:1 45815:1 53439:1 53463:1 53472:1 53559:1 53572:1 53686:1 54790:1 55370:1 56276:1 61049:1 61059:1 61081:1 61233:1 61353:1 61506:1 61781:1 61788:1 61795:1 61799:1 61810:1 61823:1  |EV| 
0.10000000000000001 4991:1 20925:1 39446:1 53436:1 53439:1 53444:1 53459:1 53472:1 53494:1 53550:1 53558:1 53597:1 53602:1 53706:1 53766:1 53814:1 53822:1 54024:1 54106:1 54159:1 54348:1 54349:1 54350:1 54351:1 55745:1 56276:1 61049:1 61059:1 61101:1 61207:1 61398:1 61540:1 61781:1 61788:1 61795:1 61799:1 61810:1 61823:1  |EV| 
0.10000000000000001 13640:1 31088:1 51193:1 53436:1 53439:1 53452:1 53453:1 53463:1 53470:1 53472:1 53477:1 53542:1 53603:1 53811:1 54039:1 55052:1 55062:1 55131:1 55132:1 55135:1 55370:1 56276:1 61049:1 61059:1 61078:1 61210:1 61402:1 61501:1 61781:1 61790:1 61795:1 61799:1 61810:1 61823:1  |EV| 
0.088195380459674039 14652:1 32166:1 52561:1 53439:1 53472:1 53602:1 53809:1 54181:1 54511:1 55277:1 55279:1 55280:1 56233:1 56276:1 61049:1 61059:1 61076:1 61228:1 61353:1 61506:1 61781:1 61788:1 61795:1 61799:1 61810:1 61823:1  |EV| 
0.10000000000000001 7565:1 27675:1 47303:1 53439:1 53463:1 53480:1 53487:1 53720:1 55779:1 56276:1 57517:1 57882:1 58894:1 60412:1 61052:1 61058:1 61067:1 61219:1 61364:1 61497:1 61781:1 61788:1 61795:1 61799:1 61810:1 61823:1 61825:1  |EV| 
-0.05794449767885667 11014:1 27934:1 47590:1 53436:1 54004:1 55003:1 55488:1 56276:1 57384:1 57549:1 58481:1 60468:1 61026:1 61052:1 61058:1 61081:1 61220:1 61355:1 61497:1 61781:1 61788:1 61795:1 61799:1 61810:1 61823:1  |EV| 
-0.051983056938642067 15339:1 32932:1 53377:1 53436:1 53456:1 53458:1 53459:1 53483:1 53485:1 53618:1 55333:1 55335:1 55336:1 55377:1 56276:1 57884:1 61053:1 61059:1 61063:1 61216:1 61385:1 61516:1 61781:1 61788:1 61794:1 61799:1 61810:1 61823:1  |EV| 
0.10000000000000001 6858:1 23177:1 41985:1 53436:1 53438:1 53439:1 53444:1 53459:1 53463:1 53472:1 53494:1 53495:1 53502:1 53520:1 53526:1 53549:1 53581:1 53584:1 53587:1 53592:1 53603:1 53605:1 53639:1 53651:1 53655:1 53669:1 53707:1 53802:1 53809:1 53935:1 54002:1 54086:1 54265:1 54280:1 54426:1 54442:1 54443:1 54569:1 54571:1 54572:1 54573:1 54574:1 54575:1 54576:1 54577:1 54578:1 54579:1 54592:1 54593:1 54594:1 55738:1 56276:1 61049:1 61059:1 61157:1 61237:1 61447:1 61671:1 61781:1 61788:1 61795:1 61799:1 61805:1 61810:1 61823:1  |EV| 
0.10000000000000001 232:1 24558:1 43644:1 53438:1 53444:1 53459:1 53472:1 53485:1 53502:1 53511:1 53521:1 53549:1 53705:1 53738:1 53819:1 53884:1 53890:1 54143:1 54615:1 54616:1 54617:1 55710:1 56276:1 61049:1 61059:1 61102:1 61205:1 61402:1 61501:1 61781:1 61788:1 61795:1 61799:1 61805:1 61810:1 61823:1  |EV| 
0.10000000000000001 13965:1 31459:1 51679:1 53436:1 53439:1 53459:1 53466:1 53556:1 53602:1 53607:1 53753:1 53924:1 53962:1 53971:1 55190:1 56187:1 56276:1 61049:1 61059:1 61073:1 61207:1 61373:1 61506:1 61781:1 61788:1 61795:1 61799:1 61810:1 61823:1  |EV| 
0.08105433365208882 5149:1 21090:1 39615:1 53439:1 53444:1 53590:1 53602:1 53636:1 54373:1 54374:1 54392:1 55765:1 56276:1 61049:1 61059:1 61083:1 61205:1 61353:1 61506:1 61781:1 61788:1 61795:1 61799:1 61810:1 61823:1  |EV| 
-0.074753533150524742 12580:1 29749:1 33218:1 53444:1 55395:1 56276:1 57882:1 61052:1 61058:1 61060:1 61225:1 61355:1 61497:1 61781:1 61788:1 61795:1 61799:1 61810:1 61823:1  |EV| 
-0.038418149671130761 4708:1 20636:1 39108:1 53444:1 53576:1 55739:1 55740:1 56276:1 57882:1 61038:1 61039:1 61052:1 61058:1 61067:1 61224:1 61355:1 61497:1 61781:1 61788:1 61795:1 61799:1 61810:1 61823:1  |EV| 
0.10000000000000001 1014:1 16463:1 34488:1 53463:1 53472:1 53544:1 53686:1 53718:1 53736:1 53753:1 53754:1 55468:1 56276:1 61049:1 61059:1 61073:1 61206:1 61379:1 61506:1 61781:1 61788:1 61795:1 61799:1 61810:1 61821:1 61823:1  |EV| 
0.090595458963570186 7266:1 23591:1 42460:1 53436:1 53438:1 53439:1 53444:1 53459:1 53472:1 53483:1 53519:1 53534:1 53676:1 53708:1 53822:1 53905:1 54082:1 54106:1 54205:1 54580:1 55460:1 56276:1 61049:1 61059:1 61106:1 61206:1 61403:1 61540:1 61781:1 61788:1 61796:1 61799:1 61810:1 61823:1  |EV| 
0.060926254310476997 10907:1 27807:1 47444:1 53436:1 53438:1 53439:1 53456:1 53466:1 53472:1 53516:1 53544:1 53547:1 53564:1 53587:1 53742:1 54794:1 54994:1 54995:1 54996:1 54997:1 55370:1 56276:1 61049:1 61059:1 61098:1 61206:1 61393:1 61540:1 61781:1 61788:1 61795:1 61799:1 61810:1 61823:1  |EV| 
0.07588244981497308 8622:1 25192:1 44325:1 53436:1 53459:1 53547:1 54703:1 54712:1 55926:1 56276:1 61049:1 61059:1 61076:1 61205:1 61383:1 61492:1 61781:1 61788:1 61795:1 61799:1 61810:1 61821:1 61823:1  |EV| 
-0.070361774294332338 7152:1 23438:1 42286:1 53436:1 53438:1 53439:1 53444:1 53459:1 53463:1 53472:1 53494:1 53495:1 53502:1 53520:1 53526:1 53549:1 53581:1 53584:1 53587:1 53592:1 53603:1 53605:1 53639:1 53651:1 53655:1 53669:1 53707:1 53809:1 53823:1 53935:1 54002:1 54086:1 54265:1 54280:1 54426:1 54442:1 54443:1 54569:1 54571:1 54572:1 54573:1 54574:1 54575:1 54576:1 54577:1 54578:1 54579:1 54592:1 54593:1 54594:1 55738:1 56276:1 61049:1 61059:1 61106:1 61257:1 61447:1 61691:1 61781:1 61788:1 61795:1 61799:1 61805:1 61810:1 61823:1  |EV| 
-0.067013484065991599 9052:1 25699:1 44903:1 53439:1 53444:1 53481:1 53502:1 53602:1 53716:1 53802:1 55622:1 56276:1 57940:1 61049:1 61059:1 61074:1 61205:1 61352:1 61506:1 61781:1 61788:1 61794:1 61799:1 61810:1 61823:1  |EV| 
-0.033534613845759023 6919:1 23137:1 41944:1 53444:1 53459:1 53463:1 53520:1 53549:1 53605:1 53639:1 53809:1 54086:1 54265:1 54569:1 54572:1 54573:1 54576:1 54577:1 54578:1 54579:1 55357:1 56276:1 61054:1 61059:1 61106:1 61219:1 61378:1 61562:1 61781:1 61788:1 61794:1 61799:1 61805:1 61810:1 61823:1  |EV| 
0.10000000000000001 9772:1 26580:1 34240:1 55682:1 56276:1 57882:1 61052:1 61058:1 61060:1 61211:1 61348:1 61497:1 61781:1 61788:1 61794:1 61799:1 61810:1 61823:1  |EV| 
0.096416948091314278 292:1 19902:1 38316:1 53487:1 55407:1 56276:1 56362:1 57882:1 58481:1 59677:1 61052:1 61058:1 61067:1 61225:1 61348:1 61497:1 61781:1 61788:1 61795:1 61799:1 61810:1 61823:1  |EV| 
0.10000000000000001 11419:1 28393:1 48099:1 53439:1 53472:1 53988:1 56065:1 56276:1 57882:1 61049:1 61059:1 61060:1 61207:1 61354:1 61492:1 61781:1 61788:1 61795:1 61799:1 61805:1 61810:1 61823:1  |EV| 
0.040180983998038509 2324:1 17900:1 35970:1 53439:1 53459:1 53472:1 53654:1 53820:1 53924:1 54020:1 54021:1 54022:1 54023:1 54024:1 55575:1 56276:1 61049:1 61059:1 61080:1 61223:1 61379:1 61506:1 61781:1 61788:1 61796:1 61799:1 61810:1 61823:1 61825:1  |EV| 
-0.10000000000000001 12015:1 29072:1 48834:1 53439:1 53472:1 53716:1 53771:1 54715:1 54970:1 55547:1 56276:1 61050:1 61059:1 61066:1 61208:1 61354:1 61493:1 61781:1 61788:1 61795:1 61799:1 61810:1 61823:1  |EV| 
-0.053427100849968927 3264:1 18992:1 37180:1 53494:1 53566:1 53573:1 53574:1 53620:1 54115:1 55628:1 56276:1 61053:1 61059:1 61066:1 61225:1 61362:1 61498:1 61781:1 61788:1 61795:1 61799:1 61810:1 61823:1  |EV| 
-0.082674097794978627 13792:1 31264:1 51721:1 53436:1 53439:1 53459:1 53466:1 53556:1 53602:1 53607:1 53924:1 53962:1 53971:1 54869:1 55190:1 56187:1 56276:1 57882:1 61049:1 61059:1 61067:1 61212:1 61373:1 61494:1 61781:1 61788:1 61795:1 61799:1 61810:1 61823:1  |EV| 
-0.072303685516773589 3322:1 19052:1 37276:1 53472:1 53494:1 53566:1 53573:1 53574:1 53620:1 54115:1 54116:1 55628:1 56276:1 61051:1 61059:1 61064:1 61205:1 61362:1 61507:1 61781:1 61788:1 61795:1 61799:1 61810:1 61823:1  |EV| 
0.10000000000000001 10480:1 27323:1 46806:1 53436:1 53439:1 53444:1 53459:1 53472:1 53494:1 53544:1 53618:1 53624:1 53655:1 53668:1 53684:1 53814:1 53907:1 54091:1 54888:1 54906:1 54907:1 54908:1 56013:1 56276:1 61049:1 61059:1 61077:1 61210:1 61393:1 61501:1 61781:1 61788:1 61795:1 61799:1 61810:1 61823:1  |EV| 
0.10000000000000001 9584:1 26362:1 45707:1 53436:1 53439:1 53444:1 53459:1 53494:1 53590:1 53624:1 53639:1 53665:1 53905:1 54205:1 54757:1 54758:1 55941:1 56276:1 61049:1 61059:1 61087:1 61210:1 61382:1 61512:1 61781:1 61788:1 61795:1 61799:1 61810:1 61823:1  |EV| 
-0.029006242059328505 6858:1 23073:1 41877:1 53436:1 53438:1 53439:1 53444:1 53459:1 53463:1 53472:1 53494:1 53495:1 53502:1 53526:1 53549:1 53581:1 53584:1 53587:1 53592:1 53603:1 53605:1 53639:1 53651:1 53655:1 53669:1 53707:1 53802:1 53809:1 53823:1 53935:1 54002:1 54086:1 54265:1 54280:1 54426:1 54442:1 54443:1 54569:1 54571:1 54572:1 54573:1 54574:1 54575:1 54576:1 54577:1 54578:1 54579:1 54592:1 54593:1 54594:1 55738:1 56276:1 61049:1 61059:1 61071:1 61302:1 61447:1 61659:1 61781:1 61788:1 61795:1 61799:1 61805:1 61810:1 61823:1  |EV| 
-0.062019054171521974 9376:1 26097:1 45360:1 53436:1 53439:1 53444:1 53459:1 53481:1 53494:1 53502:1 53590:1 53602:1 53624:1 53639:1 53665:1 53716:1 53802:1 53905:1 54205:1 54757:1 54758:1 55941:1 56276:1 61049:1 61059:1 61077:1 61210:1 61393:1 61501:1 61781:1 61788:1 61795:1 61799:1 61810:1 61823:1  |EV| 
0.065577414977445625 9669:1 26471:1 45827:1 53525:1 53751:1 55370:1 56276:1 57429:1 58457:1 60245:1 61055:1 61059:1 61178:1 61206:1 61350:1 61511:1 61781:1 61787:1 61795:1 61799:1 61800:1 61809:1 61810:1 61823:1  |EV| 
-0.10000000000000001 314:1 15721:1 33323:1 53439:1 53444:1 53459:1 53472:1 53481:1 53511:1 53512:1 53513:1 53514:1 53515:1 53540:1 53541:1 53542:1 55397:1 56276:1 61049:1 61059:1 61087:1 61206:1 61378:1 61512:1 61781:1 61788:1 61795:1 61799:1 61810:1 61823:1  |EV| 
-0.027675947386274317 3257:1 27456:1 46978:1 53459:1 53472:1 53517:1 53546:1 53564:1 53645:1 54924:1 55435:1 56276:1 61054:1 61059:1 61073:1 61225:1 61383:1 61508:1 61781:1 61788:1 61794:1 61799:1 61810:1 61823:1  |EV| 
-0.046105706441458935 7785:1 24260:1 43463:1 53566:1 53567:1 54251:1 54633:1 54665:1 55511:1 56276:1 61049:1 61059:1 61076:1 61205:1 61383:1 61492:1 61781:1 61788:1 61794:1 61799:1 61810:1  |EV| 
-0.088574821443680632 12989:1 30944:1 51010:1 53438:1 53439:1 53444:1 53462:1 53470:1 53494:1 53542:1 53603:1 53632:1 53742:1 53748:1 53751:1 54062:1 54439:1 54790:1 54795:1 55127:1 55128:1 55129:1 55130:1 56154:1 56276:1 61049:1 61059:1 61106:1 61207:1 61406:1 61540:1 61781:1 61788:1 61795:1 61799:1 61810:1 61823:1  |EV| 
0.086451138317996279 10625:1 27483:1 47011:1 53436:1 53444:1 53494:1 53502:1 53511:1 53590:1 53773:1 53924:1 54084:1 54212:1 54938:1 55603:1 56276:1 61049:1 61059:1 61072:1 61205:1 61379:1 61512:1 61781:1 61788:1 61794:1 61799:1 61810:1 61823:1  |EV| 
-0.0059712998344639461 3090:1 18787:1 36948:1 53439:1 53472:1 53602:1 53603:1 53618:1 54073:1 55444:1 56276:1 57952:1 61051:1 61059:1 61089:1 61206:1 61364:1 61495:1 61781:1 61788:1 61795:1 61799:1 61821:1 61823:1  |EV| 
-0.015892700390362915 3736:1 23102:1 41908:1 53438:1 53439:1 53510:1 53552:1 53569:1 53778:1 54005:1 54179:1 54583:1 54586:1 55779:1 56276:1 61051:1 61059:1 61068:1 61205:1 61361:1 61507:1 61781:1 61788:1 61795:1 61799:1 61823:1 61825:1  |EV| 
-0.031867565953614771 232:1 15718:1 33319:1 53439:1 53444:1 53458:1 53472:1 53521:1 53526:1 53549:1 53552:1 53578:1 53579:1 53580:1 53581:1 53582:1 53583:1 53584:1 55408:1 56276:1 61049:1 61059:1 61097:1 61205:1 61382:1 61512:1 61781:1 61788:1 61795:1 61799:1 61823:1  |EV| 
0.10000000000000001 12989:1 30202:1 50133:1 53444:1 53462:1 53542:1 53632:1 54439:1 54790:1 56154:1 56276:1 61049:1 61059:1 61076:1 61207:1 61367:1 61492:1 61781:1 61788:1 61795:1 61799:1 61810:1 61823:1  |EV| 
-7.6156960727758369e-005 27:1 15420:1 33016:1 53436:1 53444:1 53445:1 53446:1 53447:1 53448:1 53449:1 53450:1 53451:1 53452:1 53453:1 53454:1 53469:1 53470:1 55366:1 56276:1 57894:1 61049:1 61059:1 61077:1 61205:1 61376:1 61501:1 61781:1 61788:1 61795:1 61799:1 61810:1 61826:1  |EV| 
-0.037238908346776067 3441:1 19178:1 37482:1 53434:1 53436:1 53439:1 53444:1 53481:1 53497:1 53513:1 53522:1 53542:1 53561:1 53618:1 53664:1 53676:1 54013:1 54064:1 54147:1 54148:1 54149:1 54159:1 54160:1 54161:1 54162:1 54163:1 54164:1 54165:1 55650:1 55651:1 56276:1 61038:1 61039:1 61049:1 61059:1 61112:1 61206:1 61408:1 61540:1 61781:1 61788:1 61794:1 61799:1 61805:1 61810:1 61823:1  |EV| 
-0.069603252009355132 10279:1 27107:1 52832:1 53439:1 53487:1 55423:1 56276:1 57882:1 61049:1 61059:1 61067:1 61205:1 61351:1 61492:1 61781:1 61788:1 61796:1 61799:1 61810:1 61827:1  |EV| 
-0.001226651620065934 4856:1 20785:1 39270:1 53436:1 53439:1 53444:1 53459:1 53472:1 53494:1 53550:1 53558:1 53597:1 53602:1 53706:1 53766:1 53814:1 53822:1 54024:1 54106:1 54159:1 54347:1 54348:1 54349:1 54350:1 54351:1 54352:1 55745:1 56276:1 61050:1 61059:1 61062:1 61266:1 61398:1 61573:1 61781:1 61788:1 61795:1 61799:1 61810:1 61823:1  |EV| 
-0.032196267563683593 4696:1 20624:1 39096:1 53436:1 53502:1 54329:1 55728:1 55729:1 56276:1 61029:1 61031:1 61041:1 61054:1 61059:1 61092:1 61211:1 61350:1 61508:1 61781:1 61790:1 61796:1 61799:1 61810:1 61823:1  |EV| 
-0.048669418155141073 1233:1 16694:1 34513:1 53444:1 53463:1 53472:1 53479:1 53513:1 53544:1 53686:1 53718:1 53736:1 53753:1 53754:1 53759:1 55479:1 55480:1 56276:1 61038:1 61039:1 61049:1 61059:1 61078:1 61237:1 61388:1 61512:1 61781:1 61788:1 61796:1 61799:1 61805:1 61810:1 61823:1  |EV| 
-0.10000000000000001 12960:1 30169:1 50973:1 53444:1 53462:1 53542:1 53632:1 54790:1 55097:1 56154:1 56276:1 61049:1 61059:1 61081:1 61228:1 61367:1 61492:1 61781:1 61788:1 61795:1 61799:1 61810:1 61823:1  |EV| 
-0.055269364475468714 5287:1 21257:1 39786:1 53439:1 53472:1 53809:1 55788:1 56276:1 57884:1 58162:1 58456:1 59859:1 61023:1 61027:1 61049:1 61059:1 61081:1 61206:1 61383:1 61492:1 61781:1 61791:1 61795:1 61799:1 61815:1 61823:1  |EV| 
-0.051564028307617818 8599:1 25165:1 44294:1 53436:1 53438:1 53439:1 53472:1 53479:1 53495:1 53751:1 54094:1 54243:1 54494:1 54713:1 54714:1 54715:1 54716:1 54717:1 54718:1 54735:1 55370:1 56276:1 61049:1 61059:1 61072:1 61223:1 61387:1 61501:1 61781:1 61788:1 61795:1 61799:1 61810:1 61823:1  |EV| 
0.10000000000000001 2627:1 18239:1 36319:1 53436:1 53439:1 53440:1 53444:1 53472:1 53494:1 53531:1 53665:1 53716:1 53771:1 54026:1 54046:1 54060:1 55582:1 55583:1 55585:1 56276:1 61041:1 61049:1 61059:1 61071:1 61206:1 61397:1 61512:1 61781:1 61788:1 61795:1 61799:1 61810:1 61823:1  |EV| 
0.044440591843114829 11901:1 28947:1 48739:1 53438:1 53472:1 53477:1 53769:1 54196:1 55063:1 56099:1 56100:1 56276:1 61038:1 61042:1 61049:1 61059:1 61074:1 61205:1 61352:1 61506:1 61781:1 61788:1 61795:1 61799:1 61810:1 61823:1  |EV| 
-0.016890932602060607 2747:1 18387:1 36492:1 53436:1 53439:1 53440:1 53444:1 53472:1 53494:1 53531:1 53665:1 54026:1 54046:1 55582:1 55583:1 55585:1 56276:1 61029:1 61041:1 61049:1 61059:1 61073:1 61206:1 61379:1 61506:1 61781:1 61790:1 61795:1 61799:1 61816:1 61817:1 61823:1  |EV| 
-0.074522922273337538 3369:1 19099:1 37541:1 53513:1 55640:1 55641:1 55642:1 56276:1 56362:1 57882:1 58481:1 59586:1 61039:1 61052:1 61058:1 61060:1 61225:1 61355:1 61497:1 61781:1 61788:1 61795:1 61799:1 61805:1 61810:1 61821:1 61823:1  |EV| 
-0.014045255652282656 2515:1 18100:1 36172:1 53436:1 53439:1 53440:1 53444:1 53472:1 53494:1 53531:1 53665:1 54046:1 55582:1 55583:1 55585:1 56276:1 61041:1 61049:1 61059:1 61074:1 61206:1 61353:1 61506:1 61781:1 61789:1 61795:1 61799:1 61813:1 61823:1  |EV| 
-0.021060857613036183 13768:1 31236:1 51398:1 53436:1 53438:1 53439:1 53452:1 53453:1 53456:1 53459:1 53472:1 53495:1 53549:1 53588:1 53693:1 53731:1 53743:1 53841:1 53924:1 54753:1 55178:1 55179:1 55180:1 55181:1 55182:1 56182:1 56276:1 61049:1 61059:1 61112:1 61205:1 61398:1 61540:1 61781:1 61788:1 61795:1 61799:1 61810:1 61825:1  |EV| 
-0.071298398011900257 7046:1 23667:1 42548:1 53444:1 53459:1 53463:1 53502:1 53549:1 53605:1 53639:1 53802:1 53809:1 54086:1 54265:1 54569:1 54571:1 54572:1 54573:1 54576:1 54577:1 54578:1 54579:1 55529:1 56276:1 61049:1 61059:1 61071:1 61209:1 61393:1 61568:1 61781:1 61788:1 61794:1 61799:1 61805:1 61810:1 61823:1  |EV| 
-0.044356070407837275 1636:1 17147:1 35213:1 53439:1 53459:1 53472:1 53480:1 53487:1 53519:1 53557:1 53884:1 53891:1 53892:1 53893:1 55486:1 56276:1 61049:1 61059:1 61073:1 61207:1 61373:1 61506:1 61781:1 61788:1 61795:1 61799:1 61823:1  |EV| 
-0.030414521215887225 9747:1 26554:1 45922:1 53439:1 53444:1 53463:1 53472:1 53494:1 53511:1 53549:1 53581:1 53624:1 53924:1 54552:1 54797:1 54798:1 54803:1 54804:1 55633:1 55958:1 56276:1 58219:1 61038:1 61050:1 61059:1 61089:1 61244:1 61352:1 61509:1 61781:1 61788:1 61795:1 61799:1 61810:1 61823:1  |EV| 
-0.040806559536806057 11398:1 28365:1 48071:1 53453:1 53472:1 53829:1 55038:1 56075:1 56276:1 57882:1 61049:1 61059:1 61060:1 61210:1 61372:1 61492:1 61781:1 61788:1 61795:1 61799:1 61805:1 61810:1 61821:1  |EV| 
-0.10000000000000001 6467:1 22581:1 41391:1 53439:1 53548:1 53552:1 53590:1 53716:1 54082:1 55437:1 56276:1 57882:1 61049:1 61059:1 61060:1 61233:1 61367:1 61492:1 61781:1 61788:1 61795:1 61799:1 61810:1 61823:1  |EV| 
-0.017526036667618265 11455:1 28434:1 48139:1 53439:1 53444:1 53463:1 53470:1 53472:1 53479:1 53494:1 53513:1 53716:1 53742:1 53821:1 53990:1 54171:1 55019:1 55020:1 56061:1 56062:1 56276:1 61038:1 61039:1 61049:1 61059:1 61069:1 61207:1 61387:1 61501:1 61781:1 61788:1 61795:1 61799:1 61805:1 61810:1 61823:1  |EV| 
0.077391780926689524 12164:1 29256:1 48208:1 53439:1 53472:1 53716:1 55547:1 56276:1 57882:1 61049:1 61059:1 61060:1 61207:1 61354:1 61492:1 61781:1 61788:1 61795:1 61799:1 61810:1 61823:1  |EV| 
0.018077679612379279 11455:1 28499:1 48208:1 53439:1 53472:1 53716:1 56061:1 56062:1 56276:1 57882:1 61038:1 61039:1 61049:1 61059:1 61060:1 61207:1 61354:1 61492:1 61781:1 61788:1 61795:1 61799:1 61805:1 61810:1 61823:1  |EV| 
0.083015590204841602 11506:1 28502:1 48210:1 53436:1 53442:1 53472:1 53965:1 55018:1 55027:1 55028:1 55585:1 56076:1 56276:1 57882:1 61039:1 61049:1 61059:1 61060:1 61233:1 61367:1 61492:1 61781:1 61788:1 61795:1 61799:1 61810:1 61823:1  |EV| 
0.028697987562341674 8466:1 25004:1 44113:1 53439:1 53590:1 54027:1 54746:1 55358:1 56276:1 57882:1 61049:1 61059:1 61060:1 61210:1 61372:1 61492:1 61781:1 61788:1 61795:1 61799:1 61810:1 61823:1  |EV| 
0.053395832161988295 695:1 16109:1 33770:1 53472:1 53686:1 55426:1 56276:1 61049:1 61059:1 61081:1 61237:1 61351:1 61492:1 61781:1 61788:1 61795:1 61799:1 61810:1 61823:1  |EV| 
-0.057180452172773649 11052:1 27984:1 47647:1 53436:1 53439:1 53456:1 53466:1 53472:1 53516:1 53544:1 53547:1 53564:1 54794:1 54996:1 54997:1 55370:1 56276:1 61049:1 61059:1 61070:1 61206:1 61382:1 61512:1 61781:1 61788:1 61795:1 61799:1 61811:1 61823:1  |EV| 
0.044208218360365675 8923:1 25543:1 33073:1 53439:1 55622:1 56276:1 57882:1 61049:1 61059:1 61060:1 61205:1 61350:1 61492:1 61781:1 61788:1 61794:1 61799:1 61810:1 61823:1  |EV| 
-0.068034556889372044 10516:1 27360:1 46858:1 53436:1 53439:1 53444:1 53459:1 53472:1 53494:1 53544:1 53618:1 53624:1 53655:1 53668:1 53684:1 53814:1 53907:1 54091:1 54888:1 54906:1 54907:1 54909:1 56013:1 56276:1 61049:1 61059:1 61081:1 61232:1 61393:1 61529:1 61781:1 61788:1 61795:1 61799:1 61810:1 61823:1  |EV| 
-0.049015531007484341 14849:1 32412:1 52809:1 53436:1 53438:1 53439:1 53444:1 53472:1 53479:1 53549:1 53552:1 53581:1 53692:1 53928:1 55305:1 55542:1 56276:1 61049:1 61059:1 61071:1 61206:1 61397:1 61512:1 61781:1 61788:1 61795:1 61799:1 61810:1 61823:1 61825:1  |EV| 
-0.047534408481004271 5881:1 22295:1 41043:1 53438:1 53444:1 53453:1 53455:1 53459:1 53472:1 53564:1 53575:1 53628:1 54105:1 54112:1 54137:1 54469:1 54471:1 55637:1 56276:1 58180:1 61051:1 61059:1 61109:1 61205:1 61358:1 61514:1 61781:1 61788:1 61795:1 61799:1 61810:1 61823:1  |EV| 
-0.034744429730423215 11046:1 27972:1 47633:1 53549:1 53789:1 54985:1 54986:1 55682:1 56276:1 57882:1 61049:1 61059:1 61060:1 61210:1 61372:1 61492:1 61781:1 61788:1 61796:1 61799:1 61810:1  |EV| 
-0.021957082113898307 12268:1 29371:1 49239:1 53439:1 53487:1 53527:1 53924:1 55089:1 55686:1 56276:1 57882:1 61049:1 61059:1 61067:1 61210:1 61383:1 61492:1 61781:1 61788:1 61795:1 61799:1 61810:1 61821:1 61822:1 61825:1  |EV| 
0.087586142022408373 802:1 29603:1 49496:1 53438:1 53439:1 53453:1 53494:1 53502:1 53624:1 53890:1 55088:1 55431:1 56276:1 61049:1 61059:1 61083:1 61237:1 61352:1 61506:1 61781:1 61788:1 61794:1 61799:1 61805:1 61810:1 61823:1  |EV| 
0.10000000000000001 2125:1 17743:1 35803:1 53439:1 53472:1 53718:1 55401:1 56276:1 57887:1 61050:1 61059:1 61093:1 61210:1 61351:1 61511:1 61781:1 61788:1 61796:1 61799:1 61810:1 61821:1 61823:1  |EV| 
0.060180748702831743 14402:1 31916:1 52295:1 53442:1 53459:1 53470:1 53472:1 53480:1 53494:1 53564:1 54307:1 54308:1 54309:1 54310:1 54311:1 54312:1 55257:1 55732:1 56207:1 56276:1 61042:1 61049:1 61059:1 61083:1 61239:1 61397:1 61506:1 61781:1 61790:1 61795:1 61799:1 61810:1 61823:1  |EV| 
0.034369335080675655 6384:1 22496:1 41297:1 53439:1 53444:1 53470:1 53472:1 53483:1 53494:1 53525:1 53648:1 54530:1 54531:1 54532:1 54533:1 54534:1 55838:1 56276:1 57940:1 61049:1 61059:1 61070:1 61206:1 61382:1 61512:1 61781:1 61788:1 61795:1 61799:1 61810:1 61823:1  |EV| 
0.051510906125849791 11745:1 28765:1 48482:1 53472:1 53495:1 53526:1 53531:1 53607:1 53654:1 54755:1 55993:1 56276:1 61049:1 61059:1 61092:1 61206:1 61367:1 61492:1 61781:1 61788:1 61795:1 61799:1 61810:1 61823:1  |EV| 
-0.031567420272018254 14438:1 31952:1 52331:1 53442:1 53470:1 53472:1 53480:1 54307:1 54308:1 54309:1 55732:1 56207:1 56276:1 57506:1 57830:1 57943:1 58590:1 58863:1 60893:1 60894:1 61042:1 61049:1 61059:1 61067:1 61239:1 61367:1 61492:1 61781:1 61790:1 61795:1 61799:1 61823:1  |EV| 
-0.04988298405539672 10147:1 26970:1 46418:1 53444:1 53470:1 54335:1 55622:1 56276:1 57887:1 61053:1 61059:1 61093:1 61224:1 61364:1 61498:1 61781:1 61788:1 61794:1 61799:1 61810:1 61821:1 61823:1  |EV| 
-0.033726090722125249 13329:1 30607:1 50591:1 53436:1 53439:1 53452:1 53453:1 53463:1 53470:1 53472:1 53477:1 53542:1 53603:1 53811:1 53999:1 54039:1 55052:1 55062:1 55132:1 55135:1 55370:1 56276:1 61049:1 61059:1 61073:1 61212:1 61402:1 61555:1 61781:1 61790:1 61795:1 61799:1 61801:1 61810:1 61823:1  |EV| 
-0.056636087119062192 14775:1 32290:1 52689:1 53434:1 53439:1 53520:1 55295:1 55464:1 56276:1 61050:1 61059:1 61062:1 61228:1 61350:1 61511:1 61781:1 61788:1 61795:1 61799:1 61810:1 61823:1  |EV| 
0.096845811124645076 10749:1 27637:1 38316:1 53487:1 56025:1 56276:1 56362:1 57882:1 58481:1 60400:1 61052:1 61058:1 61067:1 61225:1 61348:1 61497:1 61781:1 61788:1 61796:1 61799:1 61810:1 61823:1  |EV| 
0.048102729005900291 713:1 19513:1 37872:1 53521:1 53584:1 55654:1 56276:1 57882:1 61049:1 61059:1 61067:1 61205:1 61351:1 61492:1 61781:1 61788:1 61794:1 61799:1 61810:1 61820:1 61823:1  |EV| 
-0.050076879456040307 5409:1 26096:1 45359:1 53439:1 53444:1 53639:1 54757:1 55424:1 56276:1 61052:1 61058:1 61076:1 61219:1 61355:1 61497:1 61781:1 61788:1 61796:1 61799:1 61810:1 61823:1  |EV| 
-0.060503419822350225 6522:1 22645:1 41454:1 53444:1 53487:1 55841:1 56276:1 57882:1 61052:1 61058:1 61067:1 61224:1 61355:1 61497:1 61781:1 61788:1 61796:1 61799:1 61810:1 61823:1  |EV| 
-0.016821690453872322 854:1 16280:1 33991:1 53436:1 53439:1 53444:1 53456:1 53472:1 53480:1 53481:1 53590:1 53639:1 53646:1 53661:1 53662:1 53663:1 53696:1 53697:1 55431:1 56276:1 61029:1 61049:1 61059:1 61078:1 61237:1 61388:1 61512:1 61781:1 61788:1 61794:1 61799:1 61810:1 61823:1  |EV| 
-0.02861655123252187 4680:1 20608:1 39080:1 53436:1 53439:1 53472:1 55349:1 55732:1 55733:1 55734:1 56276:1 61032:1 61041:1 61049:1 61059:1 61067:1 61206:1 61354:1 61492:1 61781:1 61790:1 61795:1 61799:1 61813:1 61823:1  |EV| 
-0.074536178839772746 5881:1 22008:1 41141:1 53436:1 53444:1 53472:1 53483:1 53495:1 53502:1 53548:1 53584:1 53686:1 54112:1 54172:1 54199:1 54223:1 54285:1 54458:1 54459:1 55637:1 56276:1 61049:1 61059:1 61078:1 61205:1 61370:1 61512:1 61781:1 61788:1 61795:1 61799:1 61810:1 61823:1  |EV| 
-0.060980360961246698 2587:1 18188:1 36267:1 53436:1 53439:1 53440:1 53444:1 53472:1 53494:1 53531:1 53716:1 53771:1 53780:1 54026:1 54046:1 54060:1 55582:1 55583:1 55585:1 56276:1 61041:1 61049:1 61059:1 61075:1 61223:1 61397:1 61506:1 61781:1 61788:1 61795:1 61799:1 61810:1 61823:1  |EV| 
-0.044862878607807834 1684:1 17195:1 35220:1 53439:1 53444:1 53470:1 53513:1 53547:1 53676:1 53809:1 53889:1 55402:1 56276:1 58456:1 59105:1 61054:1 61059:1 61072:1 61218:1 61350:1 61503:1 61781:1 61788:1 61795:1 61799:1 61805:1 61810:1 61823:1  |EV| 
-0.055059859901526495 12231:1 31005:1 51093:1 53439:1 53444:1 53452:1 53453:1 53542:1 53988:1 54039:1 55062:1 55133:1 55370:1 56276:1 61051:1 61059:1 61065:1 61210:1 61380:1 61507:1 61781:1 61788:1 61795:1 61799:1 61810:1 61823:1  |EV| 
-0.0019558310991459687 1751:1 17262:1 35291:1 53480:1 53487:1 53502:1 53607:1 53638:1 53874:1 53937:1 53940:1 53941:1 53951:1 53952:1 55539:1 56276:1 61049:1 61059:1 61073:1 61206:1 61379:1 61506:1 61781:1 61788:1 61796:1 61799:1 61810:1 61825:1 61827:1  |EV| 
-0.028201772700426286 13820:1 31295:1 51471:1 53438:1 53439:1 53472:1 53655:1 54152:1 56193:1 56276:1 61049:1 61059:1 61080:1 61206:1 61383:1 61492:1 61781:1 61788:1 61796:1 61799:1 61810:1 61824:1  |EV| 
-0.027018175887863816 1543:1 17044:1 35068:1 53853:1 53854:1 55505:1 56276:1 57882:1 61049:1 61059:1 61060:1 61206:1 61351:1 61492:1 61781:1 61788:1 61797:1 61799:1 61810:1 61825:1  |EV| 
-0.040075366801024567 15355:1 32949:1 53394:1 53436:1 53458:1 53459:1 53483:1 53618:1 56268:1 56276:1 57884:1 61050:1 61059:1 61062:1 61239:1 61351:1 61511:1 61781:1 61788:1 61794:1 61799:1 61810:1 61823:1  |EV| 
-0.0080433392833937183 2186:1 17736:1 35796:1 53459:1 53472:1 53513:1 53655:1 53970:1 53971:1 55346:1 56276:1 61052:1 61058:1 61081:1 61218:1 61364:1 61497:1 61781:1 61788:1 61795:1 61799:1 61810:1 61823:1 61824:1  |EV| 
0.035428100677729488 3119:1 18822:1 36984:1 53436:1 53439:1 53590:1 53727:1 54109:1 54110:1 54111:1 55606:1 56276:1 61049:1 61059:1 61076:1 61207:1 61367:1 61492:1 61781:1 61788:1 61795:1 61799:1 61810:1 61823:1  |EV| 
-0.04694345610625493 12396:1 29539:1 33163:1 56021:1 56276:1 57882:1 61049:1 61059:1 61060:1 61237:1 61349:1 61492:1 61781:1 61788:1 61794:1 61799:1 61805:1 61810:1  |EV| 
-0.040590356609313698 1016:1 16465:1 33163:1 55475:1 56276:1 57882:1 61049:1 61059:1 61060:1 61237:1 61349:1 61492:1 61781:1 61788:1 61796:1 61799:1 61805:1 61810:1 61826:1  |EV| 
-0.010838905812138718 11066:1 28001:1 33163:1 55916:1 56276:1 56961:1 57890:1 58724:1 60480:1 61049:1 61059:1 61060:1 61237:1 61349:1 61492:1 61781:1 61788:1 61794:1 61799:1 61810:1 61820:1  |EV| 
-0.042227121708722719 5140:1 21078:1 33163:1 55532:1 56276:1 57882:1 61049:1 61059:1 61060:1 61237:1 61349:1 61492:1 61781:1 61788:1 61796:1 61799:1 61810:1 61824:1  |EV| 
-0.020735325072012808 1033:1 16482:1 34420:1 53470:1 53754:1 55410:1 56276:1 57882:1 61049:1 61059:1 61060:1 61206:1 61351:1 61492:1 61781:1 61788:1 61794:1 61799:1 61810:1 61820:1  |EV| 
