SVM-light Version V5.01-TK-1.2
0 # kernel type
3 # kernel parameter -d 
1 # kernel parameter -g 
1 # kernel parameter -s 
1 # kernel parameter -r 
empty# kernel parameter -u 
0.4 # kernel parameter -L 
1 # kernel parameter -T 
T # kernel parameter -C 
1 # kernel parameter -F 
0 # kernel parameter -S 
1.000000 # kernel parameter -D 
3 # kernel parameter -N 
S # kernel parameter -V 
S # kernel parameter -W 
57211 # highest feature index 
19595 # number of training documents 
252 # number of support vectors plus 1 
3.1160544 # threshold b, each following line is a SV (starting with alpha*y)
0.10000000000000001 7631:1 22762:1 40582:1 49687:1 49689:1 49696:1 49793:1 49880:1 49882:1 50375:1 50973:1 50974:1 50975:1 50976:1 50977:1 51845:1 52107:1 52421:1 56428:1 56441:1 56446:1 56496:1 56610:1 56785:1 56910:1 57165:1 57172:1 57179:1 57183:1 57194:1 57207:1 57209:1  |EV| 
0.10000000000000001 10570:1 26450:1 44742:1 49689:1 49696:1 49703:1 49724:1 49781:1 51110:1 51194:1 51195:1 51196:1 51197:1 52220:1 52421:1 56441:1 56446:1 56457:1 56604:1 56777:1 56900:1 57165:1 57175:1 57179:1 57183:1 57194:1 57197:1 57206:1 57207:1 57209:1  |EV| 
-0.050472139355496902 4518:1 19177:1 36360:1 49889:1 50645:1 50648:1 50649:1 51952:1 52421:1 53745:1 56439:1 56446:1 56460:1 56612:1 56748:1 56885:1 57165:1 57172:1 57179:1 57183:1 57194:1 57209:1  |EV| 
-0.0028946857251066545 534:1 14880:1 31293:1 49689:1 49696:1 49706:1 49859:1 49888:1 49907:1 51661:1 52421:1 56439:1 56446:1 56459:1 56598:1 56748:1 56885:1 57165:1 57172:1 57181:1 57183:1 57194:1 57207:1 57209:1  |EV| 
-0.12142516679151169 13158:1 29382:1 48271:1 49681:1 49689:1 49696:1 49756:1 50717:1 50784:1 51450:1 52355:1 52421:1 53700:1 56441:1 56446:1 56448:1 56598:1 56737:1 56900:1 57165:1 57172:1 57181:1 57183:1 57194:1 57207:1 57209:1  |EV| 
0.053382946383409818 27:1 14307:1 30632:1 49681:1 49696:1 49729:1 49730:1 49731:1 51609:1 52421:1 53700:1 56441:1 56446:1 56448:1 56603:1 56757:1 56888:1 57165:1 57172:1 57179:1 57183:1 57194:1 57206:1 57207:1 57209:1  |EV| 
0.046526142960813768 515:1 14859:1 31270:1 49880:1 49881:1 51657:1 52421:1 53700:1 56441:1 56446:1 56458:1 56604:1 56754:1 56888:1 57165:1 57172:1 57179:1 57183:1 57194:1 57207:1 57209:1  |EV| 
0.080149887504878808 536:1 14882:1 31296:1 49687:1 49718:1 49880:1 49881:1 49897:1 49898:1 51666:1 52421:1 53700:1 56441:1 56446:1 56458:1 56613:1 56742:1 56888:1 57165:1 57172:1 57181:1 57183:1 57194:1 57207:1 57209:1  |EV| 
0.095661412532686757 624:1 14985:1 30992:1 49696:1 51661:1 52421:1 53700:1 56441:1 56446:1 56458:1 56605:1 56748:1 56888:1 57165:1 57172:1 57181:1 57183:1 57194:1 57207:1 57209:1  |EV| 
0.059594405953222795 659:1 15025:1 31461:1 49877:1 49878:1 51672:1 52421:1 53700:1 56441:1 56446:1 56458:1 56604:1 56754:1 56888:1 57165:1 57172:1 57181:1 57183:1 57194:1 57207:1 57209:1  |EV| 
-0.023284826567131257 3204:1 17800:1 34720:1 49696:1 49882:1 51692:1 52421:1 53700:1 56441:1 56446:1 56458:1 56604:1 56754:1 56888:1 57165:1 57172:1 57181:1 57183:1 57186:1 57194:1 57207:1  |EV| 
-0.013070703888890695 3204:1 17800:1 30921:1 49696:1 49726:1 51692:1 52421:1 53700:1 56441:1 56446:1 56458:1 56604:1 56754:1 56888:1 57165:1 57172:1 57181:1 57183:1 57186:1 57194:1 57207:1  |EV| 
-0.00071393706846929587 6885:1 21897:1 34566:1 49692:1 49696:1 51880:1 52421:1 53700:1 56441:1 56446:1 56458:1 56604:1 56754:1 56888:1 57165:1 57172:1 57179:1 57183:1 57194:1 57206:1 57207:1 57208:1  |EV| 
-0.0019396681210147669 12846:1 29030:1 47893:1 49692:1 49696:1 49937:1 49952:1 50495:1 51423:1 51599:1 52421:1 53700:1 56441:1 56446:1 56458:1 56613:1 56742:1 56888:1 57165:1 57172:1 57179:1 57183:1 57194:1  |EV| 
-0.0067460884311500166 12818:1 28998:1 31929:1 49696:1 49803:1 52338:1 52421:1 53700:1 56441:1 56446:1 56458:1 56604:1 56754:1 56888:1 57165:1 57172:1 57179:1 57183:1 57194:1 57207:1 57208:1  |EV| 
0.10000000000000001 9548:1 25049:1 43081:1 49687:1 49689:1 49696:1 49701:1 49770:1 49814:1 49851:1 50195:1 51128:1 51129:1 51770:1 52421:1 56442:1 56446:1 56490:1 56634:1 56873:1 56920:1 57165:1 57172:1 57178:1 57183:1 57194:1 57199:1 57204:1 57209:1  |EV| 
0.10000000000000001 2139:1 24164:1 42021:1 49689:1 49692:1 49883:1 50193:1 51085:1 51790:1 52421:1 56438:1 56445:1 56451:1 56615:1 56743:1 56882:1 57165:1 57172:1 57181:1 57183:1 57194:1 57207:1 57209:1  |EV| 
0.10000000000000001 12915:1 29103:1 47980:1 49689:1 49696:1 49701:1 49707:1 49806:1 49816:1 51066:1 51425:1 51729:1 52421:1 56439:1 56446:1 56460:1 56634:1 56742:1 56897:1 57165:1 57172:1 57179:1 57183:1 57194:1 57209:1  |EV| 
0.10000000000000001 3795:1 27299:1 45907:1 49689:1 49692:1 49695:1 49696:1 49701:1 49814:1 49816:1 49829:1 49886:1 50497:1 51282:1 51283:1 51284:1 51832:1 52421:1 56436:1 56446:1 56495:1 56617:1 56741:1 56879:1 57165:1 57172:1 57179:1 57183:1 57194:1 57196:1 57207:1 57209:1  |EV| 
0.10000000000000001 4928:1 19653:1 36844:1 49687:1 49689:1 49694:1 49726:1 49880:1 49924:1 50009:1 50258:1 50259:1 50331:1 50679:1 51977:1 52421:1 56437:1 56446:1 56497:1 56604:1 56735:1 56902:1 57165:1 57172:1 57179:1 57183:1 57194:1 57207:1 57209:1  |EV| 
0.10000000000000001 7634:1 22760:1 40581:1 49689:1 49696:1 49793:1 49880:1 49882:1 50375:1 50973:1 50974:1 50975:1 50976:1 52106:1 52421:1 56441:1 56446:1 56496:1 56605:1 56777:1 56910:1 57165:1 57172:1 57179:1 57183:1 57194:1 57207:1 57209:1  |EV| 
-0.056759490004841429 611:1 14967:1 31397:1 49687:1 49718:1 49788:1 49880:1 49881:1 49897:1 49898:1 49905:1 49906:1 51666:1 52421:1 53745:1 56439:1 56446:1 56460:1 56634:1 56742:1 56897:1 57165:1 57172:1 57181:1 57183:1 57194:1 57207:1 57209:1  |EV| 
-0.017000170946853212 13031:1 29238:1 30992:1 49696:1 52349:1 52421:1 53700:1 56441:1 56446:1 56458:1 56605:1 56748:1 56888:1 57165:1 57172:1 57178:1 57183:1 57194:1 57204:1  |EV| 
-0.043093764051821089 1445:1 15859:1 32481:1 49689:1 49696:1 49828:1 49880:1 49937:1 50088:1 51738:1 52421:1 52614:1 53768:1 54360:1 54994:1 56441:1 56446:1 56448:1 56612:1 56742:1 56888:1 57165:1 57175:1 57179:1 57183:1 57196:1 57197:1 57206:1 57207:1 57209:1  |EV| 
0.078756977183070301 12308:1 28455:1 47249:1 49696:1 49729:1 51889:1 52421:1 53700:1 56441:1 56446:1 56458:1 56604:1 56754:1 56888:1 57165:1 57172:1 57179:1 57183:1 57194:1 57207:1 57209:1  |EV| 
0.05914682673221866 9029:1 24410:1 31406:1 49696:1 49880:1 51888:1 52421:1 53700:1 56441:1 56446:1 56458:1 56604:1 56754:1 56888:1 57165:1 57172:1 57179:1 57183:1 57194:1 57207:1 57209:1  |EV| 
0.045672453031113405 4254:1 18889:1 35972:1 49696:1 49935:1 50558:1 51861:1 52421:1 53700:1 56441:1 56446:1 56448:1 56604:1 56747:1 56888:1 57165:1 57175:1 57179:1 57183:1 57194:1 57207:1 57209:1  |EV| 
0.069065926661548996 4254:1 26760:1 45119:1 49696:1 49816:1 49952:1 51861:1 52421:1 53700:1 56441:1 56446:1 56448:1 56604:1 56747:1 56888:1 57165:1 57175:1 57179:1 57183:1 57194:1 57206:1 57207:1 57209:1  |EV| 
-0.02235726164080851 4928:1 19653:1 36997:1 49685:1 49687:1 49689:1 49694:1 49696:1 49699:1 49722:1 49726:1 49768:1 49801:1 49803:1 49877:1 49880:1 49924:1 49935:1 49974:1 49975:1 50000:1 50009:1 50011:1 50244:1 50258:1 50259:1 50287:1 50308:1 50309:1 50312:1 50331:1 50679:1 50680:1 50681:1 50682:1 50683:1 50684:1 50685:1 50686:1 50687:1 50688:1 50689:1 50690:1 50691:1 50692:1 51977:1 52421:1 56437:1 56446:1 56578:1 56604:1 56837:1 57123:1 57165:1 57172:1 57179:1 57183:1 57194:1 57207:1 57209:1  |EV| 
-0.050694251549104993 14239:1 30544:1 49567:1 49687:1 49689:1 49696:1 49729:1 52415:1 52416:1 52421:1 56428:1 56441:1 56446:1 56451:1 56604:1 56756:1 56888:1 57165:1 57173:1 57179:1 57183:1 57197:1 57199:1 57207:1 57209:1  |EV| 
-0.080452856806964942 8123:1 23308:1 41107:1 49689:1 49696:1 49880:1 52051:1 52422:1 53992:1 53993:1 56420:1 56441:1 56446:1 56448:1 56604:1 56747:1 56888:1 57165:1 57174:1 57179:1 57183:1 57207:1 57209:1  |EV| 
-0.0005737697671868979 4349:1 18999:1 34720:1 49696:1 49882:1 51947:1 52421:1 53749:1 56441:1 56446:1 56458:1 56604:1 56754:1 56888:1 57165:1 57172:1 57181:1 57183:1 57194:1 57206:1 57210:1  |EV| 
-0.047173164107204707 4851:1 19572:1 36766:1 49687:1 49689:1 49694:1 49726:1 49924:1 50009:1 50258:1 50259:1 50331:1 51977:1 52421:1 56440:1 56446:1 56469:1 56617:1 56735:1 56892:1 57165:1 57172:1 57179:1 57183:1 57194:1 57207:1 57209:1  |EV| 
0.10000000000000001 3916:1 18501:1 35508:1 49687:1 49689:1 49696:1 49699:1 49803:1 49905:1 50313:1 50538:1 50539:1 50540:1 50542:1 50549:1 50550:1 51925:1 52421:1 56441:1 56446:1 56467:1 56613:1 56785:1 56900:1 57165:1 57172:1 57181:1 57183:1 57194:1 57207:1 57209:1  |EV| 
0.10000000000000001 8840:1 24188:1 42175:1 49692:1 49696:1 50509:1 51648:1 52421:1 56437:1 56446:1 56459:1 56605:1 56739:1 56898:1 57165:1 57172:1 57181:1 57183:1 57194:1 57207:1 57209:1  |EV| 
0.070169154856424124 13400:1 29655:1 48538:1 49696:1 51698:1 52421:1 53600:1 54295:1 56279:1 56443:1 56446:1 56585:1 56605:1 56749:1 56885:1 57165:1 57171:1 57181:1 57183:1 57184:1 57193:1 57194:1 57207:1 57209:1  |EV| 
0.10000000000000001 3333:1 21309:1 38775:1 49689:1 49699:1 49877:1 49935:1 49964:1 49966:1 49967:1 50778:1 51694:1 52421:1 56437:1 56446:1 56449:1 56603:1 56761:1 56881:1 57165:1 57172:1 57181:1 57183:1 57186:1 57194:1 57207:1 57209:1  |EV| 
-0.11171387243853917 3912:1 18497:1 35504:1 49687:1 49689:1 49696:1 49699:1 49803:1 49905:1 50313:1 50538:1 50539:1 50540:1 50542:1 50550:1 50557:1 51925:1 52421:1 53700:1 56441:1 56446:1 56458:1 56625:1 56785:1 56913:1 57165:1 57172:1 57181:1 57183:1 57194:1 57207:1 57209:1  |EV| 
-0.04475365810022363 6172:1 21048:1 38466:1 49687:1 49689:1 49699:1 49706:1 49877:1 49935:1 49948:1 49949:1 49964:1 49966:1 49967:1 50778:1 50784:1 51694:1 52421:1 56437:1 56446:1 56464:1 56634:1 56761:1 56899:1 57165:1 57172:1 57181:1 57183:1 57194:1 57207:1 57209:1  |EV| 
-0.012719706802717423 10994:1 26952:1 45384:1 49692:1 49696:1 49829:1 49962:1 50045:1 50100:1 50193:1 50455:1 50467:1 52231:1 52421:1 56441:1 56446:1 56470:1 56604:1 56741:1 56900:1 57165:1 57172:1 57179:1 57183:1 57194:1  |EV| 
-0.085947917506445051 8792:1 26690:1 45041:1 49689:1 49696:1 49699:1 49806:1 49811:1 49814:1 49851:1 49887:1 49952:1 50195:1 50444:1 51225:1 51228:1 51660:1 52421:1 54126:1 56437:1 56446:1 56497:1 56605:1 56767:1 56902:1 57165:1 57172:1 57179:1 57183:1 57194:1 57207:1 57209:1  |EV| 
-0.053383322601128276 8841:1 24189:1 42119:1 49692:1 50509:1 51648:1 52421:1 53700:1 56438:1 56445:1 56458:1 56599:1 56739:1 56882:1 57165:1 57172:1 57181:1 57183:1 57194:1 57207:1 57209:1  |EV| 
0.070509117540439786 8149:1 23338:1 41137:1 49689:1 49696:1 49880:1 51035:1 51036:1 52051:1 52422:1 53859:1 56441:1 56446:1 56473:1 56604:1 56742:1 56888:1 57165:1 57174:1 57179:1 57183:1 57194:1 57207:1 57209:1  |EV| 
0.10000000000000001 14150:1 30435:1 49404:1 49687:1 49689:1 49696:1 49729:1 49786:1 49888:1 49974:1 49975:1 49999:1 50000:1 50002:1 50627:1 52415:1 52416:1 52421:1 56428:1 56441:1 56446:1 56447:1 56604:1 56785:1 56910:1 57165:1 57172:1 57179:1 57183:1 57194:1 57207:1 57209:1  |EV| 
0.10000000000000001 14035:1 30317:1 49257:1 49685:1 49687:1 49689:1 49695:1 49696:1 49710:1 49711:1 49718:1 49724:1 49729:1 49756:1 49781:1 49828:1 49882:1 49955:1 49962:1 50137:1 50348:1 50454:1 50985:1 51112:1 51347:1 51386:1 51551:1 51844:1 52421:1 56441:1 56446:1 56495:1 56634:1 56795:1 56962:1 57165:1 57172:1 57179:1 57183:1 57194:1 57207:1 57209:1  |EV| 
0.10000000000000001 11050:1 27107:1 45652:1 49689:1 49692:1 49694:1 49696:1 49724:1 49726:1 49728:1 49738:1 49762:1 49769:1 49781:1 49789:1 49811:1 50010:1 50072:1 50192:1 50193:1 50530:1 51142:1 51221:1 51224:1 51244:1 51247:1 52235:1 52421:1 56441:1 56446:1 56485:1 56604:1 56803:1 56894:1 57165:1 57172:1 57179:1 57183:1 57194:1 57209:1  |EV| 
-0.081916513110601274 14088:1 30370:1 49318:1 49685:1 49687:1 49689:1 49695:1 49696:1 49710:1 49711:1 49718:1 49724:1 49729:1 49756:1 49781:1 49828:1 49882:1 49955:1 49962:1 49987:1 50137:1 50348:1 50454:1 50985:1 51347:1 51386:1 51551:1 51844:1 52421:1 56441:1 56446:1 56482:1 56625:1 56795:1 56962:1 57165:1 57172:1 57179:1 57183:1 57194:1 57207:1 57209:1  |EV| 
-0.14864863631277814 14149:1 30434:1 49403:1 49687:1 49689:1 49696:1 49729:1 49786:1 49888:1 49974:1 49975:1 49999:1 50000:1 50002:1 50627:1 50784:1 51568:1 51569:1 52414:1 52421:1 56441:1 56446:1 56447:1 56613:1 56762:1 56910:1 57165:1 57172:1 57179:1 57183:1 57194:1 57206:1 57207:1 57209:1  |EV| 
-0.076658002277121329 10916:1 26873:1 45275:1 49689:1 49692:1 49694:1 49696:1 49724:1 49726:1 49728:1 49738:1 49762:1 49769:1 49781:1 49789:1 49811:1 50010:1 50072:1 50192:1 50193:1 50530:1 51126:1 51142:1 51221:1 51244:1 51247:1 52235:1 52421:1 56441:1 56446:1 56494:1 56624:1 56803:1 56908:1 57165:1 57172:1 57179:1 57183:1 57194:1 57209:1  |EV| 
-0.086063618877491671 12333:1 28482:1 47193:1 49692:1 49696:1 49701:1 49729:1 49751:1 49821:1 49884:1 49974:1 49989:1 50190:1 50498:1 50629:1 51358:1 51363:1 51889:1 52421:1 56441:1 56446:1 56479:1 56604:1 56752:1 56910:1 57165:1 57172:1 57179:1 57183:1 57194:1 57207:1 57209:1  |EV| 
-0.008035514595931775 12333:1 28482:1 47261:1 49692:1 49696:1 49701:1 49729:1 49751:1 49821:1 49884:1 49974:1 49989:1 50190:1 50498:1 50629:1 51358:1 51363:1 51889:1 52421:1 56441:1 56446:1 56471:1 56624:1 56752:1 56900:1 57165:1 57172:1 57179:1 57183:1 57194:1 57207:1 57209:1  |EV| 
0.10000000000000001 3916:1 18501:1 35700:1 49687:1 49699:1 50313:1 50330:1 50538:1 50539:1 50540:1 50542:1 51925:1 52421:1 53700:1 56441:1 56446:1 56458:1 56593:1 56778:1 56913:1 57165:1 57172:1 57181:1 57183:1 57194:1 57207:1 57209:1  |EV| 
0.082955834026679734 8792:1 26696:1 45050:1 49887:1 51660:1 52421:1 53700:1 56441:1 56446:1 56458:1 56605:1 56748:1 56888:1 57165:1 57172:1 57179:1 57183:1 57194:1 57207:1 57209:1  |EV| 
0.10000000000000001 6873:1 21831:1 39348:1 49696:1 49701:1 49703:1 49828:1 49937:1 50672:1 50877:1 52065:1 52421:1 52435:1 53707:1 54265:1 55597:1 56441:1 56446:1 56448:1 56613:1 56768:1 56888:1 57165:1 57173:1 57181:1 57183:1 57194:1 57197:1 57205:1 57209:1  |EV| 
-0.013959595854429917 661:1 15028:1 31465:1 49771:1 49877:1 49878:1 49879:1 51676:1 52421:1 53700:1 56441:1 56446:1 56458:1 56603:1 56756:1 56888:1 57165:1 57172:1 57181:1 57183:1 57194:1  |EV| 
-0.012674549224842069 8208:1 23407:1 41205:1 51049:1 51788:1 52421:1 53721:1 56441:1 56446:1 56458:1 56605:1 56748:1 56888:1 57165:1 57172:1 57181:1 57183:1 57194:1 57210:1  |EV| 
-0.0073031370467586841 6437:1 21330:1 38801:1 49769:1 52035:1 52421:1 52532:1 53768:1 54325:1 55525:1 56441:1 56446:1 56458:1 56605:1 56748:1 56888:1 57165:1 57172:1 57181:1 57183:1 57194:1 57210:1  |EV| 
-0.0046457881962545192 3900:1 18485:1 35491:1 50491:1 51652:1 52421:1 53700:1 56441:1 56446:1 56458:1 56605:1 56748:1 56888:1 57165:1 57172:1 57179:1 57183:1 57194:1 57208:1  |EV| 
0.10000000000000001 14227:1 30571:1 49606:1 49687:1 49689:1 49696:1 49729:1 49786:1 49888:1 49951:1 49974:1 49975:1 49999:1 50000:1 50002:1 50627:1 51568:1 51569:1 52414:1 52421:1 56441:1 56446:1 56477:1 56619:1 56762:1 56910:1 57165:1 57172:1 57179:1 57183:1 57194:1 57206:1 57207:1 57209:1  |EV| 
-0.053539452976204639 9029:1 24498:1 42452:1 49687:1 49689:1 49696:1 49701:1 49880:1 49914:1 49938:1 50188:1 50192:1 50707:1 50998:1 51098:1 51099:1 51100:1 51101:1 51888:1 52421:1 53775:1 56437:1 56446:1 56484:1 56604:1 56753:1 56919:1 57165:1 57172:1 57179:1 57183:1 57194:1 57207:1 57209:1  |EV| 
-0.0024366146686659192 9029:1 24410:1 42540:1 49687:1 49689:1 49695:1 49696:1 49701:1 49706:1 49768:1 49770:1 49880:1 49914:1 49938:1 50117:1 50188:1 50192:1 50195:1 50707:1 50937:1 50998:1 51098:1 51099:1 51100:1 51101:1 51102:1 51103:1 51104:1 51106:1 51888:1 52421:1 54090:1 56437:1 56446:1 56547:1 56604:1 56849:1 56944:1 57165:1 57172:1 57179:1 57183:1 57194:1 57207:1 57209:1  |EV| 
-0.013100763047547231 5590:1 23628:1 41430:1 49696:1 49810:1 49870:1 51692:1 52421:1 53700:1 56441:1 56446:1 56458:1 56610:1 56747:1 56888:1 57165:1 57172:1 57181:1 57183:1 57194:1 57204:1  |EV| 
-0.013379554957269913 14229:1 30573:1 49611:1 49687:1 49689:1 49696:1 49729:1 49786:1 49888:1 49951:1 49974:1 49975:1 49999:1 50000:1 50002:1 51568:1 51569:1 52418:1 52421:1 56436:1 56446:1 56477:1 56614:1 56768:1 56907:1 57165:1 57172:1 57179:1 57183:1 57194:1 57207:1 57209:1  |EV| 
-0.034626817811878298 10655:1 26568:1 44890:1 49689:1 49696:1 49703:1 49724:1 49781:1 51110:1 51196:1 51197:1 52220:1 52421:1 53116:1 53707:1 54516:1 55953:1 56416:1 56419:1 56423:1 56441:1 56446:1 56467:1 56604:1 56778:1 56900:1 57165:1 57175:1 57179:1 57183:1 57206:1 57207:1 57209:1  |EV| 
0.10000000000000001 8499:1 23790:1 41589:1 49696:1 49699:1 49729:1 50621:1 50701:1 51853:1 52421:1 53700:1 56441:1 56446:1 56458:1 56612:1 56757:1 56888:1 57165:1 57172:1 57181:1 57183:1 57194:1 57209:1  |EV| 
0.091534864046534423 11480:1 27531:1 46140:1 49692:1 50645:1 51264:1 51735:1 52270:1 52271:1 52421:1 53700:1 56428:1 56441:1 56446:1 56458:1 56610:1 56747:1 56888:1 57165:1 57172:1 57179:1 57183:1 57194:1 57209:1  |EV| 
0.080811628164759952 13442:1 29698:1 48578:1 49692:1 49937:1 50333:1 52381:1 52421:1 53700:1 56441:1 56446:1 56458:1 56610:1 56747:1 56888:1 57165:1 57172:1 57179:1 57183:1 57194:1 57209:1  |EV| 
0.10000000000000001 14149:1 30434:1 49519:1 49729:1 52414:1 52421:1 53700:1 56441:1 56446:1 56458:1 56605:1 56748:1 56888:1 57165:1 57172:1 57179:1 57183:1 57194:1 57206:1 57207:1 57209:1  |EV| 
0.068103450115664863 4578:1 19381:1 36560:1 50645:1 51952:1 52421:1 53700:1 56441:1 56446:1 56458:1 56605:1 56748:1 56888:1 57165:1 57172:1 57179:1 57183:1 57194:1 57209:1  |EV| 
-0.013000625776193047 7026:1 22014:1 39523:1 49689:1 49692:1 49696:1 49699:1 49701:1 49703:1 49708:1 49722:1 49729:1 49816:1 49828:1 49937:1 50313:1 50385:1 50672:1 50870:1 50871:1 50872:1 50875:1 50876:1 50877:1 52065:1 52421:1 53700:1 56441:1 56446:1 56458:1 56651:1 56803:1 56916:1 57165:1 57172:1 57181:1 57183:1 57194:1 57205:1 57209:1  |EV| 
-0.03079701236174591 8512:1 23810:1 41613:1 49729:1 50084:1 50342:1 51861:1 52421:1 53700:1 56441:1 56446:1 56458:1 56610:1 56747:1 56888:1 57165:1 57172:1 57179:1 57183:1 57194:1 57211:1  |EV| 
-0.041987494543946763 6951:1 21962:1 39472:1 49689:1 49692:1 49696:1 49699:1 49701:1 49703:1 49708:1 49722:1 49729:1 49816:1 49828:1 49937:1 50313:1 50336:1 50385:1 50672:1 50870:1 50871:1 50872:1 50875:1 50877:1 52065:1 52421:1 56441:1 56446:1 56505:1 56613:1 56803:1 56894:1 57165:1 57172:1 57181:1 57183:1 57194:1 57205:1 57209:1  |EV| 
-0.0099682771541243515 11435:1 27472:1 46080:1 49699:1 49726:1 51272:1 51913:1 52421:1 53700:1 56441:1 56446:1 56458:1 56610:1 56747:1 56888:1 57165:1 57172:1 57179:1 57183:1 57194:1 57207:1  |EV| 
-0.16721453472170561 8932:1 26236:1 44507:1 49689:1 49692:1 49696:1 49888:1 49962:1 51184:1 51212:1 51662:1 52421:1 53700:1 56441:1 56446:1 56458:1 56598:1 56768:1 56888:1 57165:1 57172:1 57179:1 57183:1 57194:1 57207:1 57209:1  |EV| 
-0.029051900825610811 10578:1 26458:1 44751:1 49689:1 49696:1 49703:1 49724:1 49726:1 49781:1 50184:1 51110:1 51194:1 51195:1 51196:1 51197:1 52220:1 52422:1 56441:1 56446:1 56482:1 56604:1 56775:1 56910:1 57165:1 57174:1 57179:1 57183:1 57206:1 57207:1 57209:1  |EV| 
-0.017673973332814737 14227:1 30529:1 49549:1 49687:1 49689:1 49696:1 49729:1 49786:1 49951:1 49974:1 49975:1 49999:1 50000:1 50002:1 50627:1 50784:1 51568:1 51569:1 52414:1 52421:1 53700:1 56441:1 56446:1 56458:1 56627:1 56762:1 56913:1 57165:1 57172:1 57179:1 57183:1 57194:1 57206:1 57207:1 57209:1  |EV| 
-0.016633988875299367 10312:1 26146:1 44416:1 49689:1 49696:1 49703:1 49724:1 49726:1 49781:1 50184:1 51110:1 51193:1 51194:1 51195:1 51196:1 51197:1 52220:1 52421:1 56416:1 56420:1 56441:1 56446:1 56478:1 56604:1 56771:1 56910:1 57165:1 57175:1 57179:1 57183:1 57206:1 57207:1 57209:1  |EV| 
-0.066090390360738674 1303:1 15717:1 32336:1 49689:1 49696:1 49828:1 49880:1 49937:1 50084:1 50085:1 50086:1 50087:1 50088:1 51738:1 52421:1 56441:1 56446:1 56456:1 56612:1 56741:1 56900:1 57165:1 57173:1 57179:1 57183:1 57197:1 57206:1 57207:1 57209:1  |EV| 
0.10000000000000001 8792:1 26321:1 44598:1 49689:1 49692:1 49696:1 49962:1 50031:1 51184:1 51212:1 51662:1 52421:1 56441:1 56446:1 56471:1 56605:1 56768:1 56888:1 57165:1 57172:1 57179:1 57183:1 57194:1 57207:1 57209:1  |EV| 
0.10000000000000001 6801:1 21733:1 39231:1 49696:1 49935:1 49962:1 51861:1 52421:1 53700:1 56441:1 56446:1 56458:1 56603:1 56756:1 56888:1 57165:1 57172:1 57179:1 57183:1 57194:1 57209:1  |EV| 
0.10000000000000001 6224:1 21104:1 38525:1 49692:1 49696:1 49701:1 49724:1 49781:1 49812:1 49880:1 50296:1 50511:1 50635:1 50796:1 50797:1 50798:1 50799:1 51841:1 52421:1 53700:1 56441:1 56446:1 56458:1 56641:1 56752:1 56913:1 57165:1 57172:1 57179:1 57183:1 57194:1 57209:1  |EV| 
0.10000000000000001 4609:1 19378:1 36557:1 49687:1 50645:1 50646:1 51955:1 52421:1 53700:1 56441:1 56446:1 56458:1 56610:1 56747:1 56888:1 57165:1 57172:1 57179:1 57183:1 57194:1 57209:1  |EV| 
-0.056076854971012842 11249:1 27256:1 45870:1 49692:1 49799:1 50081:1 50329:1 50645:1 51264:1 51270:1 51271:1 51735:1 52270:1 52271:1 52421:1 56428:1 56439:1 56446:1 56468:1 56634:1 56747:1 56897:1 57165:1 57172:1 57179:1 57183:1 57194:1 57209:1  |EV| 
-0.031671850122042954 7634:1 22760:1 40505:1 49687:1 49708:1 49778:1 49880:1 50137:1 50343:1 50372:1 50964:1 50965:1 50966:1 50978:1 52106:1 52421:1 54048:1 56437:1 56446:1 56489:1 56605:1 56784:1 56902:1 57165:1 57172:1 57179:1 57183:1 57194:1 57207:1 57209:1  |EV| 
-0.016807867059988837 1286:1 15700:1 32312:1 49695:1 49945:1 49946:1 51596:1 51686:1 52421:1 56425:1 56441:1 56446:1 56451:1 56605:1 56747:1 56888:1 57165:1 57172:1 57179:1 57183:1 57186:1 57194:1 57207:1  |EV| 
-0.0472171957152102 7631:1 22762:1 40506:1 49687:1 49708:1 49778:1 49880:1 50137:1 50372:1 50964:1 50965:1 50966:1 50977:1 51845:1 52107:1 52421:1 54048:1 56428:1 56437:1 56446:1 56489:1 56610:1 56755:1 56881:1 57165:1 57172:1 57179:1 57183:1 57194:1 57207:1 57209:1  |EV| 
-0.0039421504640322911 9728:1 25333:1 44619:1 49828:1 52200:1 52421:1 53700:1 56441:1 56446:1 56458:1 56605:1 56748:1 56888:1 57165:1 57172:1 57179:1 57183:1 57194:1 57208:1  |EV| 
0.10000000000000001 14229:1 30531:1 49551:1 49696:1 49786:1 49974:1 49975:1 49999:1 50000:1 50002:1 52418:1 52421:1 53700:1 56441:1 56446:1 56458:1 56598:1 56768:1 56888:1 57165:1 57172:1 57179:1 57183:1 57194:1 57207:1 57209:1  |EV| 
0.10000000000000001 4422:1 19077:1 36231:1 49689:1 49696:1 49701:1 49729:1 50123:1 50626:1 51888:1 52421:1 56437:1 56446:1 56454:1 56604:1 56761:1 56898:1 57165:1 57172:1 57179:1 57183:1 57194:1 57206:1 57207:1 57209:1  |EV| 
0.10000000000000001 6517:1 21415:1 38889:1 49689:1 49696:1 49729:1 52051:1 52421:1 56437:1 56446:1 56459:1 56604:1 56736:1 56898:1 57165:1 57172:1 57179:1 57183:1 57194:1 57207:1 57209:1  |EV| 
-0.0054193680317156474 4432:1 19087:1 36244:1 49696:1 49701:1 49729:1 51888:1 52421:1 52428:1 52607:1 53702:1 53755:1 54254:1 54354:1 55243:1 55343:1 56437:1 56446:1 56459:1 56604:1 56736:1 56898:1 57165:1 57173:1 57179:1 57183:1 57197:1 57206:1 57207:1 57209:1  |EV| 
-0.00023539377182582442 11372:1 27394:1 46002:1 49692:1 49724:1 50165:1 51285:1 52268:1 52421:1 53700:1 56441:1 56446:1 56458:1 56603:1 56756:1 56888:1 57165:1 57172:1 57179:1 57183:1 57186:1 57194:1 57207:1  |EV| 
-0.1098808281010413 7734:1 22800:1 40555:1 49689:1 49696:1 49880:1 49882:1 50272:1 50375:1 50973:1 50974:1 50975:1 50976:1 52106:1 52421:1 53700:1 56441:1 56446:1 56458:1 56597:1 56777:1 56913:1 57165:1 57172:1 57179:1 57183:1 57194:1 57207:1 57209:1  |EV| 
-0.029154115699270022 9811:1 25461:1 43188:1 49696:1 49701:1 49880:1 51660:1 52421:1 52428:1 53702:1 54254:1 55870:1 56437:1 56446:1 56459:1 56604:1 56736:1 56898:1 57165:1 57173:1 57179:1 57183:1 57184:1 57207:1 57209:1  |EV| 
-0.050104817705571097 6406:1 21297:1 38754:1 49689:1 49695:1 49696:1 49699:1 49701:1 49724:1 49727:1 49781:1 49800:1 49813:1 49816:1 49883:1 49935:1 49998:1 50117:1 50229:1 50266:1 50603:1 50788:1 50789:1 50790:1 50791:1 50793:1 52026:1 52421:1 56441:1 56446:1 56499:1 56604:1 56786:1 56894:1 57165:1 57172:1 57181:1 57183:1 57186:1 57194:1 57207:1 57209:1  |EV| 
0.077625346919186516 13289:1 29543:1 48438:1 49687:1 49880:1 51475:1 51735:1 52362:1 52363:1 52421:1 53700:1 56425:1 56428:1 56441:1 56446:1 56458:1 56610:1 56747:1 56888:1 57165:1 57172:1 57179:1 57183:1 57194:1 57207:1 57209:1  |EV| 
0.097363488624106501 9612:1 25151:1 43195:1 49687:1 49689:1 49696:1 49726:1 49880:1 50602:1 50652:1 51112:1 51116:1 51117:1 51121:1 52194:1 52421:1 56441:1 56446:1 56456:1 56624:1 56785:1 56900:1 57165:1 57172:1 57179:1 57183:1 57194:1 57207:1 57209:1  |EV| 
-0.08248482712199813 14232:1 30535:1 49556:1 49687:1 49689:1 49696:1 49729:1 49786:1 49951:1 49974:1 49975:1 49999:1 50000:1 50002:1 50627:1 52415:1 52416:1 52421:1 53700:1 56428:1 56441:1 56446:1 56458:1 56625:1 56785:1 56913:1 57165:1 57172:1 57179:1 57183:1 57194:1 57207:1 57209:1  |EV| 
-0.062299313724707421 9012:1 24392:1 42341:1 49689:1 49696:1 49726:1 49880:1 50602:1 50652:1 50661:1 51112:1 51115:1 51116:1 51117:1 52191:1 52421:1 56441:1 56446:1 56467:1 56613:1 56785:1 56900:1 57165:1 57175:1 57179:1 57183:1 57200:1 57207:1 57209:1  |EV| 
-0.0046253225463242231 7742:1 22808:1 40565:1 49687:1 49689:1 49880:1 50977:1 51845:1 52107:1 52421:1 56428:1 56441:1 56446:1 56448:1 56610:1 56756:1 56888:1 57165:1 57173:1 57179:1 57183:1 57197:1 57207:1 57209:1  |EV| 
0.10000000000000001 3371:1 17919:1 34850:1 49681:1 49692:1 49696:1 49699:1 49701:1 49759:1 49764:1 49834:1 49850:1 50346:1 50465:1 50473:1 50474:1 51901:1 52421:1 56441:1 56446:1 56478:1 56605:1 56775:1 56910:1 57165:1 57172:1 57179:1 57183:1 57194:1 57207:1 57209:1  |EV| 
0.10000000000000001 2168:1 16681:1 33500:1 49696:1 49703:1 51790:1 52421:1 56441:1 56446:1 56448:1 56605:1 56754:1 56888:1 57165:1 57175:1 57181:1 57183:1 57194:1 57207:1 57209:1  |EV| 
0.10000000000000001 3333:1 17880:1 34806:1 49681:1 49689:1 49696:1 49699:1 49798:1 49935:1 49966:1 50009:1 50259:1 50422:1 50423:1 50424:1 50425:1 50455:1 51897:1 52421:1 56441:1 56446:1 56470:1 56613:1 56752:1 56900:1 57165:1 57172:1 57181:1 57183:1 57194:1 57207:1 57209:1  |EV| 
-0.096152185391791101 2139:1 16649:1 33468:1 49696:1 49699:1 49703:1 49962:1 49983:1 51790:1 52421:1 56441:1 56446:1 56473:1 56605:1 56757:1 56888:1 57165:1 57172:1 57181:1 57183:1 57207:1 57209:1  |EV| 
-0.086336668973999053 3371:1 17919:1 34911:1 49681:1 49691:1 49692:1 49696:1 49699:1 49701:1 49722:1 49759:1 49764:1 49834:1 49850:1 50346:1 50465:1 50473:1 50474:1 51901:1 52421:1 56441:1 56446:1 56495:1 56605:1 56762:1 56910:1 57165:1 57172:1 57179:1 57183:1 57207:1 57209:1  |EV| 
-0.040518963698256784 8484:1 23774:1 41574:1 49692:1 49696:1 49699:1 49729:1 50621:1 50701:1 51052:1 51853:1 52421:1 56436:1 56446:1 56470:1 56592:1 56757:1 56884:1 57165:1 57172:1 57181:1 57183:1 57194:1 57209:1  |EV| 
-0.011798838961467748 7031:1 22009:1 39518:1 49696:1 49699:1 49701:1 49703:1 49828:1 49937:1 50313:1 50672:1 50877:1 52065:1 52421:1 53175:1 53856:1 54456:1 55613:1 56441:1 56446:1 56473:1 56613:1 56741:1 56900:1 57165:1 57172:1 57181:1 57183:1 57196:1 57205:1 57209:1  |EV| 
0.063265065317422597 3097:1 17640:1 34555:1 49692:1 49696:1 49880:1 50193:1 51662:1 52421:1 56441:1 56446:1 56451:1 56604:1 56756:1 56888:1 57165:1 57172:1 57179:1 57183:1 57194:1 57209:1  |EV| 
-0.047316742195843961 6421:1 21314:1 38784:1 49689:1 49692:1 49696:1 49701:1 49724:1 49756:1 49781:1 49812:1 49880:1 50051:1 50296:1 50511:1 50635:1 50796:1 50797:1 50798:1 50799:1 51841:1 52421:1 56439:1 56446:1 56460:1 56618:1 56752:1 56911:1 57165:1 57172:1 57179:1 57183:1 57194:1 57209:1  |EV| 
-0.014645291775017692 4417:1 19072:1 36219:1 49692:1 49696:1 49724:1 49930:1 49995:1 50346:1 50632:1 51645:1 52421:1 56441:1 56446:1 56456:1 56604:1 56768:1 56888:1 57165:1 57172:1 57178:1 57183:1 57194:1 57204:1  |EV| 
-0.011546835210059685 674:1 15046:1 31486:1 49696:1 49698:1 49880:1 49886:1 49887:1 49890:1 51606:1 52421:1 53700:1 56441:1 56446:1 56458:1 56613:1 56742:1 56888:1 57165:1 57172:1 57178:1 57183:1 57194:1 57204:1  |EV| 
-0.0086285590255770726 13812:1 30087:1 48998:1 49696:1 49701:1 49761:1 49816:1 49847:1 50708:1 51974:1 52421:1 53700:1 56441:1 56446:1 56451:1 56603:1 56742:1 56888:1 57165:1 57172:1 57179:1 57183:1 57194:1 57205:1  |EV| 
-0.044199810443140447 4763:1 19475:1 36649:1 49692:1 49696:1 49701:1 50193:1 50347:1 51792:1 52421:1 56441:1 56446:1 56451:1 56603:1 56742:1 56888:1 57165:1 57172:1 57181:1 57183:1 57194:1 57207:1  |EV| 
-0.0088055334301943775 3676:1 18237:1 35600:1 49687:1 49699:1 50330:1 50538:1 50539:1 50540:1 50542:1 51832:1 52421:1 52432:1 53704:1 54258:1 55301:1 56437:1 56446:1 56449:1 56610:1 56744:1 56881:1 57165:1 57175:1 57179:1 57183:1 57197:1 57199:1 57207:1 57209:1  |EV| 
-0.065940313288444824 3537:1 18090:1 35041:1 49681:1 49689:1 49696:1 49699:1 49798:1 49888:1 49935:1 49966:1 50009:1 50259:1 50422:1 50423:1 50424:1 50425:1 51897:1 52421:1 53700:1 56441:1 56446:1 56448:1 56625:1 56752:1 56913:1 57165:1 57172:1 57181:1 57183:1 57194:1 57207:1 57209:1  |EV| 
-0.0039687908463787499 6774:1 22430:1 40055:1 49692:1 49771:1 50959:1 51667:1 52421:1 53700:1 56441:1 56446:1 56458:1 56610:1 56747:1 56888:1 57165:1 57172:1 57179:1 57183:1 57194:1 57206:1  |EV| 
-0.037896967498133663 8665:1 23986:1 41811:1 49687:1 49692:1 49696:1 49962:1 50031:1 50509:1 50646:1 51648:1 52421:1 56438:1 56445:1 56471:1 56601:1 56739:1 56882:1 57165:1 57172:1 57181:1 57183:1 57194:1 57207:1 57209:1  |EV| 
-0.0017208249090040952 6390:1 21281:1 38733:1 49689:1 49695:1 49696:1 49699:1 49701:1 49724:1 49727:1 49781:1 49800:1 49813:1 49816:1 49883:1 49935:1 49998:1 50117:1 50229:1 50266:1 50603:1 50788:1 50789:1 50790:1 50791:1 50800:1 52026:1 52421:1 53700:1 56441:1 56446:1 56458:1 56620:1 56786:1 56916:1 57165:1 57172:1 57181:1 57183:1 57194:1 57207:1 57209:1  |EV| 
-0.058163719221533842 6299:1 21184:1 38620:1 49689:1 49877:1 49964:1 49967:1 51694:1 52421:1 53700:1 56438:1 56445:1 56458:1 56600:1 56761:1 56882:1 57165:1 57172:1 57181:1 57183:1 57194:1 57207:1 57209:1  |EV| 
0.10000000000000001 13257:1 29503:1 48397:1 49681:1 49689:1 49696:1 49756:1 49793:1 50717:1 51450:1 52355:1 52421:1 56441:1 56446:1 56471:1 56604:1 56737:1 56900:1 57165:1 57172:1 57181:1 57183:1 57194:1 57207:1 57209:1  |EV| 
-0.12267328422539293 8766:1 24097:1 41945:1 49696:1 49701:1 49800:1 50179:1 50530:1 51002:1 51084:1 51790:1 52421:1 53700:1 56441:1 56446:1 56458:1 56624:1 56737:1 56900:1 57165:1 57172:1 57181:1 57183:1 57194:1 57207:1 57209:1  |EV| 
-0.031963444565838044 13251:1 29493:1 48387:1 49687:1 49696:1 49768:1 50514:1 51450:1 51452:1 51453:1 51454:1 52355:1 52421:1 53724:1 56437:1 56446:1 56490:1 56604:1 56755:1 56881:1 57165:1 57173:1 57181:1 57183:1 57194:1 57207:1 57209:1  |EV| 
-0.017000170946853115 9814:1 27076:1 30992:1 49696:1 51879:1 52421:1 53700:1 56441:1 56446:1 56458:1 56605:1 56748:1 56888:1 57165:1 57172:1 57178:1 57183:1 57194:1 57204:1  |EV| 
0.032643583897280608 2868:1 17402:1 34296:1 49729:1 49877:1 50296:1 51844:1 52421:1 53700:1 56441:1 56446:1 56458:1 56610:1 56747:1 56888:1 57165:1 57172:1 57179:1 57183:1 57194:1 57207:1 57209:1  |EV| 
-0.024384749195110796 7155:1 22151:1 39680:1 49696:1 50467:1 51789:1 52421:1 53700:1 56441:1 56446:1 56458:1 56604:1 56754:1 56888:1 57165:1 57172:1 57179:1 57183:1 57194:1  |EV| 
-0.0059347790386297282 3365:1 17913:1 34844:1 49709:1 49761:1 50483:1 51905:1 52421:1 53700:1 56441:1 56446:1 56458:1 56610:1 56747:1 56888:1 57165:1 57172:1 57179:1 57183:1 57194:1 57205:1 57206:1  |EV| 
-0.014524768502771077 820:1 15201:1 31660:1 49696:1 49880:1 49933:1 51680:1 52421:1 53700:1 56441:1 56446:1 56458:1 56610:1 56747:1 56888:1 57165:1 57172:1 57179:1 57183:1 57194:1 57211:1  |EV| 
-0.049003519434766253 608:1 14975:1 31406:1 49696:1 49880:1 51660:1 52421:1 53700:1 56441:1 56446:1 56458:1 56604:1 56754:1 56888:1 57165:1 57172:1 57179:1 57183:1 57194:1 57211:1  |EV| 
-0.0079009765621295015 8893:1 24251:1 42141:1 49696:1 49706:1 50492:1 52169:1 52421:1 53700:1 56441:1 56446:1 56458:1 56610:1 56747:1 56888:1 57165:1 57172:1 57179:1 57183:1 57194:1  |EV| 
-0.032700530595227227 8550:1 23852:1 41660:1 49687:1 49689:1 49692:1 49696:1 49698:1 49812:1 49814:1 49816:1 49828:1 49873:1 49883:1 49886:1 49935:1 49972:1 50072:1 50117:1 50193:1 50292:1 50498:1 50652:1 51091:1 51094:1 51095:1 51096:1 51656:1 52421:1 56436:1 56446:1 56462:1 56638:1 56757:1 56923:1 57165:1 57172:1 57179:1 57183:1 57184:1 57194:1 57207:1 57209:1  |EV| 
-0.0069024286011439041 8549:1 23851:1 41659:1 49687:1 49689:1 49692:1 49696:1 49698:1 49812:1 49814:1 49816:1 49828:1 49873:1 49883:1 49886:1 49916:1 49935:1 49972:1 50072:1 50117:1 50193:1 50292:1 50498:1 50652:1 51094:1 51095:1 51096:1 52174:1 52421:1 56436:1 56446:1 56462:1 56649:1 56747:1 56903:1 57165:1 57172:1 57179:1 57183:1 57184:1 57194:1 57207:1 57209:1  |EV| 
-0.0094092982537121398 8282:1 23503:1 41302:1 49689:1 49696:1 49699:1 49729:1 50162:1 50296:1 50621:1 50701:1 51050:1 51051:1 51052:1 51853:1 52421:1 56439:1 56446:1 56468:1 56633:1 56757:1 56897:1 57165:1 57172:1 57181:1 57183:1 57194:1 57209:1  |EV| 
-0.01549118985287801 4437:1 19092:1 36250:1 49681:1 49687:1 49689:1 49690:1 49692:1 49695:1 49696:1 49701:1 49903:1 50017:1 50123:1 50149:1 50432:1 50618:1 50619:1 50620:1 50621:1 50622:1 50626:1 51888:1 52421:1 56438:1 56445:1 56450:1 56660:1 56761:1 56921:1 57165:1 57172:1 57179:1 57183:1 57194:1 57206:1 57207:1 57209:1  |EV| 
-0.043511088424540233 3513:1 18065:1 35015:1 49689:1 49935:1 49966:1 50009:1 50259:1 50424:1 50425:1 51897:1 52421:1 56441:1 56446:1 56448:1 56613:1 56768:1 56888:1 57165:1 57175:1 57181:1 57183:1 57200:1 57207:1 57209:1  |EV| 
0.060294806142447928 10035:1 25753:1 44380:1 49696:1 49729:1 49828:1 49877:1 50707:1 51169:1 51824:1 52421:1 53700:1 56441:1 56446:1 56458:1 56613:1 56742:1 56888:1 57165:1 57172:1 57179:1 57183:1 57194:1 57207:1 57209:1  |EV| 
0.10000000000000001 3459:1 19066:1 30992:1 49696:1 51628:1 52421:1 53700:1 56441:1 56446:1 56458:1 56605:1 56748:1 56888:1 57165:1 57172:1 57179:1 57183:1 57194:1 57207:1 57209:1  |EV| 
-0.072970793379811452 1201:1 21667:1 30992:1 49696:1 51628:1 52421:1 53700:1 56441:1 56446:1 56458:1 56605:1 56748:1 56888:1 57165:1 57172:1 57179:1 57183:1 57194:1  |EV| 
-0.021984878314429815 289:1 14632:1 30992:1 49696:1 51628:1 52421:1 53700:1 56441:1 56446:1 56458:1 56605:1 56748:1 56888:1 57165:1 57172:1 57179:1 57183:1 57194:1 57205:1  |EV| 
-0.021952789636852047 401:1 21341:1 30992:1 49696:1 51628:1 52421:1 53700:1 56441:1 56446:1 56458:1 56605:1 56748:1 56888:1 57165:1 57172:1 57179:1 57183:1 57194:1 57205:1  |EV| 
-0.02058193494045573 6451:1 21346:1 30992:1 49696:1 52043:1 52421:1 53700:1 56441:1 56446:1 56458:1 56605:1 56748:1 56888:1 57165:1 57172:1 57179:1 57183:1 57194:1 57205:1  |EV| 
-0.016685244469508642 11301:1 27311:1 30992:1 49696:1 52226:1 52421:1 53700:1 56441:1 56446:1 56458:1 56605:1 56748:1 56888:1 57165:1 57172:1 57178:1 57183:1 57194:1  |EV| 
-0.07180332141772619 13318:1 29572:1 48464:1 49687:1 49880:1 51019:1 51475:1 51735:1 52362:1 52363:1 52421:1 56425:1 56428:1 56436:1 56446:1 56467:1 56602:1 56747:1 56884:1 57165:1 57172:1 57179:1 57183:1 57194:1 57207:1 57209:1  |EV| 
-0.033433244205017289 2746:1 17278:1 34154:1 49689:1 49696:1 49726:1 49729:1 49875:1 49877:1 49951:1 50296:1 50339:1 50349:1 50350:1 51844:1 52421:1 53758:1 56439:1 56446:1 56454:1 56633:1 56747:1 56897:1 57165:1 57172:1 57179:1 57183:1 57194:1 57207:1 57209:1  |EV| 
0.069271355186314471 9611:1 25149:1 43193:1 49696:1 49880:1 51660:1 52422:1 52428:1 54254:1 55870:1 56443:1 56446:1 56585:1 56604:1 56748:1 56885:1 57165:1 57171:1 57179:1 57183:1 57184:1 57193:1 57194:1 57207:1 57209:1  |EV| 
0.10000000000000001 1321:1 15735:1 32354:1 49689:1 49696:1 49759:1 49828:1 49880:1 49937:1 50059:1 50084:1 50085:1 50086:1 50087:1 50088:1 51738:1 52421:1 56416:1 56441:1 56446:1 56467:1 56612:1 56769:1 56900:1 57165:1 57175:1 57179:1 57183:1 57194:1 57206:1 57207:1 57209:1  |EV| 
-0.015636761868720275 7631:1 22677:1 40408:1 49687:1 49689:1 49696:1 49699:1 49793:1 49880:1 49882:1 50272:1 50375:1 50612:1 50973:1 50974:1 50975:1 50976:1 50977:1 50979:1 51845:1 52107:1 52421:1 56428:1 56439:1 56446:1 56459:1 56632:1 56785:1 56924:1 57165:1 57172:1 57179:1 57183:1 57194:1 57207:1 57209:1  |EV| 
-0.031376283017712836 10748:1 26685:1 45217:1 49689:1 49692:1 49728:1 49769:1 49781:1 49811:1 50010:1 50072:1 51142:1 51224:1 52235:1 52421:1 56441:1 56446:1 56496:1 56604:1 56769:1 56910:1 57165:1 57175:1 57179:1 57183:1 57209:1  |EV| 
-0.04218942433503356 10695:1 26624:1 44963:1 49689:1 49696:1 49703:1 49781:1 51110:1 52220:1 52421:1 56416:1 56423:1 56441:1 56446:1 56455:1 56604:1 56757:1 56888:1 57165:1 57175:1 57179:1 57183:1 57206:1 57207:1 57209:1  |EV| 
-0.037370759890652812 7541:1 22573:1 40552:1 49687:1 49689:1 49696:1 49793:1 49880:1 49882:1 50137:1 50272:1 50375:1 50973:1 50974:1 50975:1 50976:1 50977:1 51845:1 52107:1 52421:1 56428:1 56436:1 56446:1 56477:1 56592:1 56785:1 56879:1 57165:1 57172:1 57179:1 57183:1 57194:1 57207:1 57209:1  |EV| 
-0.051822511177455177 7430:1 22456:1 40104:1 50227:1 52094:1 52421:1 53700:1 56441:1 56446:1 56458:1 56605:1 56748:1 56888:1 57165:1 57172:1 57179:1 57183:1 57186:1 57194:1 57206:1 57207:1  |EV| 
0.075523592494222705 13198:1 29427:1 48318:1 49681:1 49689:1 49769:1 49814:1 49880:1 50137:1 50229:1 51474:1 52131:1 52421:1 56441:1 56446:1 56467:1 56605:1 56737:1 56900:1 57165:1 57172:1 57179:1 57183:1 57194:1 57207:1 57209:1  |EV| 
0.058111240318204589 6138:1 21013:1 38432:1 49699:1 49816:1 49935:1 52026:1 52421:1 53740:1 56441:1 56446:1 56448:1 56604:1 56747:1 56888:1 57165:1 57172:1 57181:1 57183:1 57186:1 57194:1 57207:1 57209:1  |EV| 
0.052285471951524193 9610:1 25148:1 43192:1 49689:1 49696:1 49726:1 49880:1 50602:1 50652:1 51112:1 51116:1 51117:1 52191:1 52421:1 56441:1 56446:1 56456:1 56613:1 56777:1 56900:1 57165:1 57172:1 57179:1 57183:1 57194:1 57207:1 57209:1  |EV| 
0.076733154823407562 8550:1 23852:1 41933:1 49687:1 49692:1 49935:1 50193:1 51091:1 51656:1 52421:1 56441:1 56446:1 56451:1 56610:1 56757:1 56888:1 57165:1 57172:1 57179:1 57183:1 57194:1 57207:1 57209:1  |EV| 
0.036062387665312938 13451:1 29707:1 48587:1 49692:1 49868:1 49880:1 51684:1 52382:1 52421:1 56425:1 56428:1 56441:1 56446:1 56451:1 56605:1 56747:1 56888:1 57165:1 57172:1 57179:1 57183:1 57194:1 57207:1 57209:1  |EV| 
-0.039000470769078234 13320:1 29574:1 48466:1 49687:1 49880:1 50081:1 51019:1 51476:1 51477:1 52360:1 52421:1 56436:1 56446:1 56467:1 56617:1 56748:1 56884:1 57165:1 57172:1 57179:1 57183:1 57194:1 57207:1 57209:1  |EV| 
-0.020462508349745875 8840:1 24188:1 42049:1 49687:1 49689:1 49692:1 49696:1 49708:1 49892:1 49962:1 50031:1 50117:1 50509:1 50646:1 50937:1 51090:1 51648:1 52421:1 56437:1 56446:1 56483:1 56605:1 56760:1 56902:1 57165:1 57172:1 57181:1 57183:1 57194:1 57207:1 57209:1  |EV| 
-0.027497382661128784 4503:1 19161:1 36344:1 49687:1 49692:1 49696:1 49699:1 49708:1 49892:1 50464:1 50645:1 50646:1 50650:1 51955:1 52421:1 53759:1 56437:1 56446:1 56453:1 56610:1 56755:1 56881:1 57165:1 57172:1 57179:1 57183:1 57194:1 57209:1  |EV| 
-0.047109185268788649 9014:1 24394:1 42343:1 49689:1 49696:1 49726:1 49880:1 50602:1 50652:1 50661:1 51112:1 51115:1 51116:1 52192:1 52421:1 56441:1 56446:1 56467:1 56603:1 56777:1 56900:1 57165:1 57175:1 57179:1 57183:1 57200:1 57207:1 57209:1  |EV| 
-0.018563634863951496 4502:1 19160:1 36343:1 49687:1 49692:1 49696:1 49699:1 49708:1 49892:1 50464:1 50645:1 50647:1 50650:1 51952:1 52421:1 53759:1 56437:1 56446:1 56453:1 56605:1 56745:1 56881:1 57165:1 57172:1 57179:1 57183:1 57194:1 57209:1  |EV| 
0.030677317160629918 13974:1 30256:1 49190:1 49696:1 49718:1 49728:1 49729:1 49877:1 50296:1 51550:1 51853:1 52421:1 53700:1 56441:1 56446:1 56448:1 56613:1 56768:1 56888:1 57165:1 57172:1 57179:1 57183:1 57194:1 57207:1 57209:1  |EV| 
-0.042218960482898901 1571:1 15988:1 49518:1 49701:1 49729:1 51590:1 51596:1 52421:1 53700:1 56441:1 56446:1 56458:1 56610:1 56747:1 56888:1 57165:1 57172:1 57179:1 57183:1 57194:1 57207:1  |EV| 
-0.030417406404606818 11002:1 26962:1 45749:1 50215:1 50652:1 51663:1 52421:1 54135:1 56441:1 56446:1 56458:1 56604:1 56754:1 56888:1 57165:1 57172:1 57178:1 57183:1 57194:1 57207:1  |EV| 
-0.021200346779775059 13537:1 29794:1 48687:1 49829:1 49978:1 50017:1 52385:1 52421:1 53700:1 56441:1 56446:1 56451:1 56605:1 56747:1 56888:1 57165:1 57172:1 57179:1 57183:1 57194:1 57207:1 57211:1  |EV| 
-0.00089348810099802928 11002:1 26962:1 45439:1 49706:1 49834:1 50215:1 50652:1 51081:1 51219:1 51663:1 52421:1 54134:1 56441:1 56446:1 56473:1 56604:1 56742:1 56888:1 57165:1 57172:1 57178:1 57183:1 57194:1 57207:1  |EV| 
-0.02794309327347122 719:1 15093:1 32274:1 49696:1 49701:1 49931:1 51696:1 52421:1 53700:1 56441:1 56446:1 56458:1 56610:1 56747:1 56888:1 57165:1 57172:1 57179:1 57183:1 57194:1 57207:1  |EV| 
0.041522564027963657 9609:1 25143:1 43187:1 49689:1 49696:1 49726:1 49880:1 50602:1 50652:1 51112:1 51116:1 52192:1 52421:1 56441:1 56446:1 56456:1 56603:1 56778:1 56900:1 57165:1 57172:1 57179:1 57183:1 57194:1 57207:1 57209:1  |EV| 
-0.028189868214813875 6823:1 21768:1 39274:1 49689:1 49696:1 49793:1 49935:1 49962:1 50854:1 51861:1 52421:1 56439:1 56446:1 56460:1 56624:1 56756:1 56885:1 57165:1 57172:1 57179:1 57183:1 57194:1 57209:1  |EV| 
-0.0091163174122199583 6801:1 21733:1 40544:1 49696:1 49882:1 50973:1 50974:1 50975:1 50976:1 51861:1 52421:1 53700:1 56441:1 56446:1 56458:1 56598:1 56768:1 56888:1 57165:1 57172:1 57179:1 57183:1 57194:1 57207:1  |EV| 
-0.0019677133865862733 7936:1 23069:1 40864:1 49701:1 49794:1 49952:1 49964:1 50295:1 50876:1 51977:1 52421:1 56441:1 56446:1 56458:1 56613:1 56742:1 56888:1 57165:1 57172:1 57179:1 57183:1 57194:1 57207:1  |EV| 
-0.04153320135122289 8530:1 23831:1 41637:1 49724:1 51093:1 52170:1 52421:1 53768:1 56441:1 56446:1 56458:1 56604:1 56754:1 56888:1 57165:1 57172:1 57179:1 57183:1 57194:1 57207:1  |EV| 
-0.043727929257705626 1283:1 17968:1 34901:1 49935:1 50481:1 51907:1 52421:1 53700:1 56441:1 56446:1 56458:1 56604:1 56754:1 56888:1 57165:1 57172:1 57179:1 57183:1 57194:1 57207:1 57208:1  |EV| 
-0.02767857994322984 14225:1 30526:1 49545:1 49685:1 49687:1 49689:1 49701:1 49729:1 49842:1 49948:1 49951:1 51188:1 52414:1 52421:1 56436:1 56446:1 56496:1 56611:1 56748:1 56907:1 57165:1 57172:1 57179:1 57183:1 57194:1 57206:1 57207:1 57209:1  |EV| 
-0.042597771921006479 13676:1 29939:1 48845:1 50017:1 51861:1 52421:1 53700:1 56441:1 56446:1 56458:1 56605:1 56748:1 56888:1 57165:1 57172:1 57179:1 57183:1 57194:1 57207:1 57208:1  |EV| 
-0.035864698049063219 6672:1 21580:1 30994:1 49689:1 52051:1 52421:1 53700:1 56438:1 56445:1 56458:1 56595:1 56736:1 56882:1 57165:1 57172:1 57179:1 57183:1 57194:1 57207:1 57209:1  |EV| 
-0.025677274257147768 562:1 14912:1 31328:1 49771:1 49877:1 49878:1 51672:1 52421:1 52510:1 53743:1 54307:1 54870:1 56437:1 56446:1 56459:1 56604:1 56736:1 56898:1 57165:1 57175:1 57181:1 57183:1 57207:1 57209:1  |EV| 
-0.020631427333681944 7587:1 22922:1 40708:1 49689:1 49696:1 49880:1 49882:1 50375:1 50976:1 52106:1 52421:1 56416:1 56441:1 56446:1 56456:1 56605:1 56742:1 56888:1 57165:1 57175:1 57179:1 57183:1 57195:1 57196:1 57200:1 57207:1 57209:1  |EV| 
-0.016505829546726303 3084:1 17625:1 34541:1 49692:1 49696:1 49880:1 50117:1 50193:1 51662:1 52421:1 56441:1 56446:1 56455:1 56604:1 56757:1 56888:1 57165:1 57173:1 57179:1 57183:1 57195:1 57209:1  |EV| 
-0.013083442150880045 7544:1 22576:1 40546:1 49687:1 49689:1 49696:1 49793:1 49880:1 49882:1 50137:1 50272:1 50343:1 50375:1 50973:1 50974:1 50975:1 50976:1 50978:1 52106:1 52421:1 56436:1 56446:1 56477:1 56617:1 56777:1 56879:1 57165:1 57172:1 57179:1 57183:1 57194:1 57207:1 57209:1  |EV| 
-0.01388881788429791 7634:1 22681:1 40412:1 49689:1 49696:1 49699:1 49793:1 49880:1 49882:1 50272:1 50375:1 50612:1 50973:1 50974:1 50975:1 50976:1 50979:1 52106:1 52421:1 56439:1 56446:1 56459:1 56627:1 56777:1 56911:1 57165:1 57172:1 57179:1 57183:1 57194:1 57207:1 57209:1  |EV| 
-0.024119048754381558 662:1 15029:1 31466:1 49687:1 49718:1 49880:1 49881:1 49898:1 51657:1 52421:1 56437:1 56446:1 56469:1 56604:1 56743:1 56898:1 57165:1 57175:1 57179:1 57183:1 57197:1 57199:1 57207:1 57209:1  |EV| 
-0.0073746233975838507 14211:1 30512:1 49515:1 49685:1 49701:1 49729:1 49948:1 52414:1 52421:1 53706:1 56437:1 56446:1 56468:1 56605:1 56743:1 56898:1 57165:1 57172:1 57179:1 57183:1 57206:1 57207:1 57209:1  |EV| 
-0.020744686887312857 13586:1 29844:1 48751:1 49696:1 49706:1 49762:1 49828:1 51861:1 52421:1 53721:1 56441:1 56446:1 56455:1 56604:1 56757:1 56888:1 57165:1 57172:1 57179:1 57183:1 57194:1 57205:1 57207:1  |EV| 
-0.016791571731990119 1587:1 16006:1 32646:1 49695:1 49717:1 50150:1 50151:1 51769:1 52421:1 53700:1 56441:1 56446:1 56458:1 56603:1 56756:1 56888:1 57165:1 57172:1 57179:1 57183:1 57194:1 57207:1  |EV| 
-0.022044218293306821 13900:1 30182:1 49111:1 49768:1 51538:1 52396:1 52421:1 53700:1 56441:1 56446:1 56458:1 56604:1 56754:1 56888:1 57165:1 57172:1 57179:1 57183:1 57186:1 57194:1 57207:1  |EV| 
-0.011751851979692777 4063:1 18688:1 35731:1 49689:1 49696:1 49888:1 49935:1 50558:1 51861:1 52421:1 56436:1 56446:1 56471:1 56592:1 56747:1 56884:1 57165:1 57175:1 57179:1 57183:1 57194:1 57207:1 57209:1  |EV| 
-0.038933395028390161 13716:1 29982:1 48886:1 49696:1 49816:1 49847:1 51983:1 52421:1 53700:1 56441:1 56446:1 56451:1 56605:1 56747:1 56888:1 57165:1 57172:1 57178:1 57183:1 57194:1  |EV| 
-0.033043739875247405 13057:1 29267:1 48154:1 49681:1 49695:1 49806:1 50008:1 52131:1 52421:1 53700:1 56441:1 56446:1 56448:1 56610:1 56756:1 56888:1 57165:1 57172:1 57179:1 57183:1 57186:1 57194:1 57207:1  |EV| 
-0.028481632581138269 4762:1 19474:1 36648:1 49692:1 49696:1 50193:1 51964:1 52421:1 56441:1 56446:1 56451:1 56605:1 56747:1 56888:1 57165:1 57172:1 57181:1 57183:1 57194:1 57206:1 57210:1  |EV| 
-0.035058370768783119 25:1 14305:1 30629:1 49681:1 49696:1 49701:1 49729:1 49730:1 49731:1 49732:1 51596:1 52421:1 53700:1 56441:1 56446:1 56448:1 56613:1 56768:1 56888:1 57165:1 57172:1 57179:1 57183:1 57194:1 57207:1  |EV| 
-0.018161700285032265 3141:1 17685:1 34600:1 49692:1 49712:1 49812:1 50007:1 50115:1 50193:1 50393:1 51815:1 52421:1 56441:1 56446:1 56456:1 56604:1 56768:1 56888:1 57165:1 57172:1 57179:1 57183:1 57194:1 57208:1  |EV| 
0.028295576755049262 13285:1 29538:1 36976:1 49880:1 52360:1 52421:1 53700:1 56441:1 56446:1 56458:1 56605:1 56748:1 56888:1 57165:1 57172:1 57179:1 57183:1 57194:1 57207:1 57209:1  |EV| 
0.037580156586758021 11479:1 27530:1 36560:1 50645:1 52258:1 52421:1 53700:1 56441:1 56446:1 56458:1 56605:1 56748:1 56888:1 57165:1 57172:1 57179:1 57183:1 57194:1 57209:1  |EV| 
-0.021563672635533482 4490:1 19146:1 36330:1 50117:1 50645:1 51952:1 52421:1 52435:1 53707:1 54265:1 55352:1 56416:1 56419:1 56441:1 56446:1 56448:1 56605:1 56754:1 56888:1 57165:1 57173:1 57179:1 57183:1 57195:1 57209:1  |EV| 
-0.038703289864154083 5020:1 19749:1 37782:1 49687:1 49689:1 49694:1 49726:1 49924:1 50009:1 50258:1 50259:1 50679:1 51977:1 52421:1 56440:1 56446:1 56480:1 56595:1 56735:1 56892:1 57165:1 57172:1 57179:1 57183:1 57194:1 57207:1 57209:1  |EV| 
-0.03531943114935588 533:1 14879:1 31292:1 49788:1 49880:1 49881:1 49905:1 49906:1 51657:1 52421:1 53745:1 56439:1 56446:1 56460:1 56613:1 56754:1 56885:1 57165:1 57172:1 57179:1 57183:1 57194:1 57207:1 57209:1  |EV| 
-0.024543936324479973 7973:1 23202:1 41001:1 49794:1 52132:1 52421:1 56441:1 56446:1 56458:1 56605:1 56748:1 56888:1 57165:1 57172:1 57181:1 57183:1 57194:1 57206:1 57210:1  |EV| 
-0.024439370104506485 10724:1 26660:1 45261:1 49692:1 49726:1 49728:1 49814:1 49829:1 49868:1 50940:1 51219:1 52236:1 52421:1 56441:1 56446:1 56457:1 56604:1 56777:1 56900:1 57165:1 57172:1 57179:1 57183:1 57194:1 57207:1 57208:1  |EV| 
-0.028808682960721987 6338:1 21224:1 38666:1 49861:1 49880:1 50295:1 51889:1 52421:1 53700:1 56441:1 56446:1 56458:1 56610:1 56747:1 56888:1 57165:1 57172:1 57179:1 57183:1 57194:1 57207:1 57211:1  |EV| 
-0.028904435156060528 5762:1 20632:1 38005:1 49699:1 49880:1 50736:1 51832:1 52421:1 53700:1 56441:1 56446:1 56458:1 56610:1 56747:1 56888:1 57165:1 57172:1 57179:1 57183:1 57194:1 57207:1 57211:1  |EV| 
-0.023521365128029537 2816:1 17348:1 34234:1 49692:1 49696:1 49729:1 49877:1 50296:1 50342:1 51599:1 52421:1 53700:1 56441:1 56446:1 56458:1 56613:1 56742:1 56888:1 57165:1 57172:1 57179:1 57183:1 57194:1  |EV| 
-0.01569428098723016 9887:1 25561:1 43896:1 49689:1 49696:1 49699:1 49729:1 49791:1 49806:1 49828:1 49877:1 49930:1 49951:1 50137:1 50707:1 51159:1 51169:1 51170:1 51824:1 52421:1 56436:1 56446:1 56477:1 56601:1 56742:1 56907:1 57165:1 57172:1 57179:1 57183:1 57194:1 57207:1 57209:1  |EV| 
-0.016996314110427183 3770:1 18337:1 30992:1 49696:1 51920:1 52421:1 53700:1 56441:1 56446:1 56458:1 56605:1 56748:1 56888:1 57165:1 57172:1 57178:1 57183:1 57194:1 57204:1  |EV| 
-0.0099055412293361234 6903:1 21863:1 39378:1 49696:1 49699:1 49701:1 49703:1 49729:1 49828:1 49937:1 50313:1 50672:1 50870:1 50877:1 52065:1 52422:1 53133:1 53855:1 54571:1 55615:1 56441:1 56446:1 56467:1 56613:1 56785:1 56900:1 57165:1 57174:1 57181:1 57183:1 57196:1 57205:1 57209:1  |EV| 
-0.011560257385097457 5902:1 20777:1 38180:1 49696:1 49754:1 49798:1 49828:1 50248:1 50758:1 52002:1 52003:1 52421:1 56425:1 56428:1 56441:1 56446:1 56473:1 56604:1 56742:1 56888:1 57165:1 57172:1 57181:1 57183:1 57194:1 57210:1  |EV| 
-0.021519372728635147 9446:1 24921:1 43664:1 49692:1 49696:1 49940:1 51789:1 52421:1 56441:1 56446:1 56451:1 56605:1 56747:1 56888:1 57165:1 57172:1 57179:1 57183:1 57194:1 57206:1  |EV| 
-0.013604243935631149 12653:1 28829:1 30992:1 49696:1 52323:1 52421:1 53700:1 56441:1 56446:1 56458:1 56605:1 56748:1 56888:1 57165:1 57172:1 57181:1 57183:1 57194:1 57210:1  |EV| 
-0.013399232889495872 9216:1 24643:1 42623:1 49696:1 49768:1 51143:1 51144:1 52201:1 52421:1 53700:1 56441:1 56446:1 56458:1 56603:1 56756:1 56888:1 57165:1 57172:1 57179:1 57183:1 57194:1 57206:1 57207:1  |EV| 
-0.0087764878417482504 9926:1 25613:1 43994:1 49687:1 49695:1 49696:1 49722:1 49726:1 49729:1 49751:1 49759:1 49769:1 49810:1 49828:1 49850:1 49877:1 49941:1 49951:1 49974:1 49981:1 49989:1 50002:1 50038:1 50045:1 50123:1 50143:1 50432:1 50502:1 50626:1 50707:1 50816:1 51168:1 51169:1 51171:1 51824:1 52421:1 56439:1 56446:1 56515:1 56646:1 56742:1 56946:1 57165:1 57172:1 57179:1 57183:1 57194:1 57207:1 57209:1  |EV| 
-0.014433005521024684 7108:1 22099:1 39718:1 49692:1 49798:1 49868:1 51626:1 52421:1 56441:1 56446:1 56451:1 56605:1 56747:1 56888:1 57165:1 57172:1 57179:1 57183:1 57194:1 57205:1  |EV| 
-0.013881179932345064 7732:1 22798:1 40553:1 49687:1 49689:1 49696:1 49880:1 49882:1 50272:1 50375:1 50973:1 50974:1 50975:1 50976:1 50977:1 51845:1 52107:1 52421:1 53700:1 56428:1 56441:1 56446:1 56458:1 56625:1 56785:1 56913:1 57165:1 57172:1 57179:1 57183:1 57194:1 57207:1 57209:1  |EV| 
-0.0071044268676489618 8128:1 23313:1 41112:1 49687:1 49696:1 49718:1 49880:1 52051:1 52422:1 53732:1 56437:1 56446:1 56468:1 56604:1 56739:1 56898:1 57165:1 57174:1 57179:1 57183:1 57196:1 57207:1 57209:1  |EV| 
-0.0011132853964040625 680:1 15054:1 30805:1 51673:1 52421:1 52520:1 53746:1 54314:1 54888:1 56441:1 56446:1 56458:1 56619:1 56749:1 56888:1 57165:1 57172:1 57178:1 57183:1 57194:1 57204:1  |EV| 
-0.0068370731595099729 6538:1 21436:1 38910:1 49696:1 49724:1 49769:1 50100:1 50422:1 50816:1 52035:1 52421:1 56416:1 56420:1 56441:1 56446:1 56456:1 56605:1 56742:1 56888:1 57165:1 57172:1 57181:1 57183:1 57194:1 57210:1  |EV| 
-0.0032322201890167251 2471:1 16992:1 48274:1 49681:1 49696:1 51809:1 52421:1 53700:1 56441:1 56446:1 56448:1 56605:1 56754:1 56888:1 57165:1 57172:1 57181:1 57183:1 57194:1 57210:1  |EV| 
-0.023146717065884288 7743:1 22809:1 40566:1 49689:1 49880:1 52106:1 52421:1 56441:1 56446:1 56448:1 56605:1 56754:1 56888:1 57165:1 57173:1 57179:1 57183:1 57197:1 57207:1 57209:1  |EV| 
-0.010512396167558637 10645:1 26558:1 44478:1 49689:1 49696:1 51662:1 52421:1 56441:1 56446:1 56448:1 56605:1 56754:1 56888:1 57165:1 57173:1 57179:1 57183:1 57198:1 57207:1 57209:1  |EV| 
-0.010086339164897335 8652:1 23970:1 41858:1 49687:1 49689:1 49692:1 49935:1 50117:1 50193:1 51091:1 51656:1 52421:1 56441:1 56446:1 56473:1 56610:1 56768:1 56888:1 57165:1 57173:1 57179:1 57183:1 57207:1 57209:1  |EV| 
-0.01921203188392592 6246:1 21128:1 38549:1 49695:1 49696:1 51599:1 52421:1 53700:1 56441:1 56446:1 56458:1 56604:1 56754:1 56888:1 57165:1 57172:1 57179:1 57183:1 57194:1  |EV| 
0.028021906895059911 8549:1 23851:1 41932:1 49692:1 49935:1 50193:1 52174:1 52421:1 56441:1 56446:1 56451:1 56605:1 56747:1 56888:1 57165:1 57172:1 57179:1 57183:1 57194:1 57207:1 57209:1  |EV| 
0.022009886545877617 3795:1 18364:1 35577:1 49699:1 50330:1 50542:1 51832:1 52421:1 53700:1 56441:1 56446:1 56458:1 56610:1 56747:1 56888:1 57165:1 57172:1 57179:1 57183:1 57194:1 57207:1 57209:1  |EV| 
-0.01572846712649573 14086:1 30368:1 49316:1 49692:1 49789:1 51552:1 51656:1 52421:1 53721:1 56441:1 56446:1 56458:1 56610:1 56747:1 56888:1 57165:1 57172:1 57179:1 57183:1 57186:1 57194:1 57207:1  |EV| 
-0.0085891959940835004 13174:1 29401:1 48290:1 49689:1 49696:1 50511:1 50645:1 51009:1 51322:1 51735:1 52134:1 52135:1 52421:1 53700:1 56441:1 56446:1 56458:1 56613:1 56742:1 56888:1 57165:1 57172:1 57179:1 57183:1 57194:1  |EV| 
-0.013173778080490892 13151:1 29374:1 48263:1 49689:1 49696:1 49756:1 51450:1 52355:1 52421:1 56441:1 56446:1 56451:1 56604:1 56756:1 56888:1 57165:1 57175:1 57181:1 57183:1 57200:1 57207:1 57209:1  |EV| 
-0.012628376832985276 8653:1 23971:1 41857:1 49689:1 49692:1 49935:1 50117:1 50193:1 52174:1 52421:1 56441:1 56446:1 56473:1 56605:1 56757:1 56888:1 57165:1 57173:1 57179:1 57183:1 57207:1 57209:1  |EV| 
-0.0092274821072130166 11010:1 26986:1 45445:1 49689:1 49696:1 49814:1 49887:1 49888:1 50195:1 51660:1 52421:1 56436:1 56446:1 56467:1 56617:1 56748:1 56884:1 57165:1 57172:1 57179:1 57183:1 57194:1 57207:1 57209:1  |EV| 
-0.0073705322073601342 9020:1 24400:1 42349:1 49687:1 49689:1 49696:1 49726:1 49880:1 50602:1 50652:1 50661:1 51112:1 51115:1 51116:1 51117:1 51121:1 52194:1 52421:1 56441:1 56446:1 56467:1 56624:1 56775:1 56900:1 57165:1 57175:1 57179:1 57183:1 57200:1 57207:1 57209:1  |EV| 
-0.0061645980395346163 9668:1 25250:1 43315:1 49687:1 49689:1 49696:1 49701:1 49770:1 49814:1 49851:1 50195:1 50476:1 51128:1 51129:1 51130:1 51131:1 51770:1 52421:1 56441:1 56446:1 56456:1 56634:1 56775:1 56913:1 57165:1 57172:1 57178:1 57183:1 57196:1 57204:1 57209:1  |EV| 
-0.0086698612016399123 3254:1 17798:1 35081:1 49695:1 50435:1 51766:1 51892:1 52421:1 56428:1 56441:1 56446:1 56448:1 56605:1 56754:1 56888:1 57165:1 57172:1 57179:1 57183:1 57186:1 57194:1 57207:1  |EV| 
-0.0035075407520482396 11224:1 27227:1 45839:1 49692:1 50117:1 50645:1 51264:1 51735:1 52270:1 52271:1 52421:1 53702:1 53738:1 54138:1 56419:1 56428:1 56441:1 56446:1 56448:1 56610:1 56756:1 56888:1 57165:1 57173:1 57179:1 57183:1 57198:1 57209:1  |EV| 
-0.0095704400477698501 7405:1 22429:1 33454:1 49692:1 52101:1 52421:1 53700:1 56441:1 56446:1 56458:1 56605:1 56748:1 56888:1 57165:1 57172:1 57179:1 57183:1 57194:1 57207:1 57208:1  |EV| 
-0.0096605563407055998 10337:1 26172:1 33454:1 49692:1 52230:1 52421:1 53700:1 56441:1 56446:1 56458:1 56605:1 56748:1 56888:1 57165:1 57172:1 57179:1 57183:1 57194:1 57207:1 57208:1  |EV| 
-0.0099887292400592676 4335:1 18983:1 36095:1 49696:1 49803:1 49816:1 51686:1 51928:1 52421:1 53700:1 53766:1 56416:1 56428:1 56441:1 56446:1 56448:1 56604:1 56747:1 56888:1 57165:1 57172:1 57179:1 57183:1 57194:1 57207:1 57208:1  |EV| 
-0.016967339495660819 9086:1 24485:1 30992:1 49696:1 51832:1 52421:1 53700:1 56441:1 56446:1 56458:1 56605:1 56748:1 56888:1 57165:1 57172:1 57179:1 57183:1 57194:1 57208:1  |EV| 
-0.01038785640485438 9036:1 24417:1 42367:1 49696:1 49701:1 49880:1 50432:1 52187:1 52421:1 53700:1 56441:1 56446:1 56458:1 56603:1 56756:1 56888:1 57165:1 57172:1 57179:1 57183:1 57194:1  |EV| 
-0.0041341440444668575 12579:1 28749:1 47577:1 49742:1 52317:1 52421:1 53700:1 56441:1 56446:1 56458:1 56605:1 56748:1 56888:1 57165:1 57172:1 57181:1 57183:1 57194:1 57208:1  |EV| 
-0.0022274245559196905 13704:1 29968:1 48871:1 49681:1 49685:1 49703:1 49712:1 49884:1 50302:1 51472:1 51536:1 51537:1 51541:1 51542:1 52395:1 52421:1 56441:1 56446:1 56457:1 56604:1 56777:1 56900:1 57165:1 57172:1 57181:1 57183:1 57194:1 57206:1 57210:1  |EV| 
-0.0029431426502808718 4224:1 18858:1 35929:1 49692:1 49733:1 50010:1 50565:1 51770:1 52421:1 52850:1 53707:1 54459:1 55324:1 56441:1 56446:1 56448:1 56610:1 56756:1 56888:1 57165:1 57172:1 57178:1 57183:1 57194:1  |EV| 
-0.002477902154419754 13514:1 29771:1 30992:1 49696:1 51638:1 52422:1 54221:1 56441:1 56446:1 56458:1 56605:1 56748:1 56888:1 57165:1 57174:1 57179:1 57183:1 57194:1 57206:1  |EV| 
-0.005011434055520245 4560:1 19222:1 36405:1 50467:1 50652:1 51917:1 51963:1 52421:1 53700:1 56428:1 56441:1 56446:1 56458:1 56604:1 56754:1 56888:1 57165:1 57172:1 57181:1 57183:1 57186:1 57187:1 57194:1  |EV| 
-0.0075419649814258798 648:1 15013:1 31238:1 49689:1 49696:1 49722:1 51661:1 52421:1 53730:1 56441:1 56446:1 56451:1 56605:1 56747:1 56888:1 57165:1 57173:1 57181:1 57183:1 57195:1 57207:1 57209:1  |EV| 
-0.0066396170521641025 8737:1 24066:1 42190:1 49689:1 49692:1 49696:1 49789:1 49892:1 49935:1 50117:1 50193:1 52174:1 52421:1 56441:1 56446:1 56470:1 56605:1 56778:1 56900:1 57165:1 57173:1 57179:1 57183:1 57197:1 57207:1 57209:1  |EV| 
-0.006909164472512757 3777:1 18344:1 35326:1 49769:1 49880:1 49962:1 51754:1 52421:1 53700:1 56441:1 56446:1 56458:1 56610:1 56747:1 56888:1 57165:1 57172:1 57181:1 57183:1 57194:1 57210:1  |EV| 
-0.0085670598356679274 12308:1 28455:1 47161:1 49696:1 49729:1 49751:1 49974:1 49989:1 50190:1 50498:1 51889:1 52421:1 56439:1 56446:1 56459:1 56624:1 56754:1 56885:1 57165:1 57172:1 57179:1 57183:1 57194:1 57207:1 57209:1  |EV| 
0.019755901249945512 5042:1 19771:1 36976:1 49880:1 51626:1 52421:1 53700:1 56441:1 56446:1 56458:1 56605:1 56748:1 56888:1 57165:1 57172:1 57179:1 57183:1 57194:1 57207:1 57209:1  |EV| 
-0.0059542331254703179 10786:1 26728:1 45764:1 49706:1 52235:1 52421:1 53700:1 56441:1 56446:1 56458:1 56605:1 56748:1 56888:1 57165:1 57172:1 57179:1 57183:1 57194:1 57205:1  |EV| 
-0.0042126549011522359 2737:1 17269:1 34135:1 49689:1 49696:1 49722:1 49726:1 49729:1 49875:1 49877:1 50296:1 50339:1 51844:1 52421:1 56416:1 56441:1 56446:1 56471:1 56610:1 56778:1 56900:1 57165:1 57173:1 57179:1 57183:1 57195:1 57196:1 57207:1 57209:1  |EV| 
-0.0041757440040755822 2242:1 16759:1 30805:1 51803:1 52421:1 53828:1 56441:1 56446:1 56458:1 56619:1 56749:1 56888:1 57165:1 57172:1 57179:1 57183:1 57194:1 57205:1  |EV| 
-0.0029803288024306388 4469:1 19125:1 33839:1 49695:1 51631:1 52421:1 53700:1 56441:1 56446:1 56458:1 56605:1 56748:1 56888:1 57165:1 57172:1 57179:1 57183:1 57186:1 57194:1 57207:1 57211:1  |EV| 
-0.00063313728205399483 14215:1 30516:1 49521:1 49689:1 52414:1 52421:1 53777:1 53778:1 56419:1 56441:1 56446:1 56448:1 56619:1 56748:1 56888:1 57165:1 57173:1 57179:1 57183:1 57197:1 57199:1 57206:1 57207:1 57209:1  |EV| 
-0.00060304350265907283 3692:1 18254:1 35413:1 49696:1 50313:1 51692:1 52421:1 53700:1 56441:1 56446:1 56458:1 56604:1 56754:1 56888:1 57165:1 57172:1 57181:1 57183:1 57194:1 57204:1 57210:1  |EV| 
