SVM-light Version V5.01-TK-1.2
0 # kernel type
3 # kernel parameter -d 
1 # kernel parameter -g 
1 # kernel parameter -s 
1 # kernel parameter -r 
empty# kernel parameter -u 
0.4 # kernel parameter -L 
1 # kernel parameter -T 
T # kernel parameter -C 
1 # kernel parameter -F 
0 # kernel parameter -S 
1.000000 # kernel parameter -D 
3 # kernel parameter -N 
S # kernel parameter -V 
S # kernel parameter -W 
18897 # highest feature index 
6216 # number of training documents 
676 # number of support vectors plus 1 
3.1073831 # threshold b, each following line is a SV (starting with alpha*y)
-0.014128960992941069 2771:1 7630:1 13128:1 15573:1 15582:1 15588:1 15605:1 15617:1 15624:1 15668:1 15676:1 15677:1 15678:1 15707:1 15714:1 15715:1 15729:1 15732:1 15917:1 15940:1 15944:1 16075:1 16151:1 16275:1 16283:1 16452:1 16483:1 16505:1 16602:1 16603:1 16604:1 16605:1 16606:1 16607:1 16608:1 16609:1 16610:1 16611:1 16612:1 17046:1 17148:1 18294:1 18303:1 18389:1 18426:1 18613:1 18761:1 18853:1 18861:1 18869:1 18874:1 18888:1 18897:1  |EV| 
-0.078403757351233672 800:1 5427:1 9758:1 17046:1 17148:1 17468:1 18292:1 18303:1 18315:1 18426:1 18547:1 18655:1 18853:1 18864:1 18869:1 18874:1 18889:1 18897:1  |EV| 
-0.0410066023600347 3:1 4594:1 9744:1 15563:1 15564:1 15565:1 17044:1 17148:1 17447:1 17448:1 18272:1 18292:1 18303:1 18304:1 18426:1 18544:1 18655:1 18853:1 18861:1 18869:1 18874:1 18897:1  |EV| 
0.049811994342214415 322:1 4914:1 10079:1 15579:1 15676:1 15677:1 17059:1 17148:1 17505:1 18292:1 18303:1 18304:1 18426:1 18544:1 18655:1 18853:1 18861:1 18869:1 18874:1 18888:1 18897:1  |EV| 
0.047542770813142482 1387:1 6086:1 11463:1 15573:1 15588:1 15706:1 15777:1 16204:1 16205:1 17042:1 17148:1 17457:1 17508:1 18272:1 18292:1 18303:1 18320:1 18430:1 18561:1 18655:1 18853:1 18861:1 18869:1 18874:1 18888:1 18897:1  |EV| 
0.061443085178672474 19:1 4610:1 9760:1 15563:1 15568:1 15569:1 15570:1 15571:1 15587:1 15597:1 17045:1 17148:1 18292:1 18303:1 18326:1 18426:1 18561:1 18655:1 18853:1 18861:1 18869:1 18874:1 18888:1 18897:1  |EV| 
0.053178977581941664 4212:1 9330:1 15099:1 15582:1 15636:1 15834:1 16778:1 16938:1 17079:1 17148:1 18292:1 18303:1 18307:1 18426:1 18540:1 18655:1 18853:1 18861:1 18869:1 18874:1 18888:1 18897:1  |EV| 
-0.0074649354079629479 259:1 4852:1 10002:1 15563:1 15573:1 15588:1 15716:1 15743:1 15753:1 15754:1 15755:1 17059:1 17148:1 17495:1 18294:1 18303:1 18325:1 18426:1 18542:1 18659:1 18853:1 18861:1 18869:1 18874:1 18888:1 18897:1  |EV| 
0.028359241716976531 124:1 4715:1 9861:1 15653:1 17052:1 17147:1 17457:1 18292:1 18303:1 18315:1 18430:1 18539:1 18655:1 18853:1 18861:1 18869:1 18874:1 18888:1 18897:1  |EV| 
0.079679065742491104 31:1 4622:1 9771:1 15574:1 17046:1 17047:1 17148:1 18282:1 18297:1 18303:1 18331:1 18430:1 18547:1 18666:1 18853:1 18860:1 18869:1 18874:1 18877:1 18885:1 18888:1 18897:1  |EV| 
-0.10000000000000001 1895:1 6628:1 9758:1 17074:1 17108:1 17148:1 17457:1 18283:1 18292:1 18303:1 18315:1 18426:1 18547:1 18655:1 18853:1 18861:1 18869:1 18874:1 18888:1 18897:1  |EV| 
-0.10000000000000001 1790:1 6521:1 9758:1 17042:1 17148:1 17457:1 18292:1 18303:1 18315:1 18426:1 18547:1 18655:1 18853:1 18861:1 18869:1 18874:1 18888:1 18897:1  |EV| 
-0.10000000000000001 25:1 4616:1 9765:1 15563:1 15568:1 15569:1 15570:1 15571:1 15585:1 15587:1 17045:1 17148:1 17457:1 18292:1 18303:1 18315:1 18438:1 18561:1 18655:1 18853:1 18861:1 18869:1 18874:1 18888:1 18897:1  |EV| 
-0.06775674939861985 4541:1 9689:1 15513:1 15582:1 15587:1 15588:1 15596:1 15656:1 15681:1 15690:1 15791:1 15923:1 16131:1 16166:1 17026:1 17027:1 17059:1 17148:1 17457:1 18292:1 18303:1 18315:1 18449:1 18570:1 18669:1 18853:1 18861:1 18869:1 18874:1 18888:1 18897:1  |EV| 
-0.030147769090412075 21:1 4612:1 9762:1 15563:1 15568:1 15569:1 15570:1 15571:1 15597:1 17043:1 17148:1 18295:1 18303:1 18326:1 18424:1 18547:1 18663:1 18853:1 18861:1 18869:1 18874:1 18888:1 18897:1  |EV| 
0.10000000000000001 366:1 8448:1 14106:1 15573:1 16570:1 16820:1 17042:1 17148:1 18294:1 18303:1 18310:1 18422:1 18545:1 18657:1 18853:1 18861:1 18869:1 18874:1 18888:1 18897:1  |EV| 
0.014085974046453002 438:1 5032:1 10394:1 15573:1 15757:1 15783:1 15863:1 17042:1 17148:1 18294:1 18303:1 18312:1 18430:1 18538:1 18657:1 18853:1 18861:1 18869:1 18874:1 18888:1 18897:1  |EV| 
0.10000000000000001 4328:1 9535:1 15348:1 15566:1 15573:1 15600:1 15626:1 15654:1 15735:1 15836:1 15852:1 16131:1 16274:1 16376:1 16982:1 16983:1 16984:1 16985:1 16999:1 17000:1 17001:1 17043:1 17148:1 17440:1 17574:1 17940:1 18246:1 18294:1 18303:1 18329:1 18427:1 18586:1 18716:1 18853:1 18864:1 18869:1 18874:1 18888:1 18897:1  |EV| 
0.081442119281483816 877:1 5575:1 10912:1 15565:1 15665:1 15783:1 16044:1 17044:1 17148:1 18294:1 18303:1 18312:1 18430:1 18538:1 18657:1 18853:1 18861:1 18869:1 18874:1 18878:1 18888:1 18897:1  |EV| 
0.10000000000000001 4399:1 9532:1 15345:1 15573:1 15587:1 15600:1 15626:1 15654:1 15735:1 15836:1 15852:1 16131:1 16274:1 16376:1 16982:1 16983:1 16984:1 16985:1 16999:1 17000:1 17001:1 17044:1 17148:1 17440:1 17574:1 17940:1 18252:1 18294:1 18303:1 18329:1 18423:1 18589:1 18716:1 18853:1 18864:1 18869:1 18874:1 18888:1 18897:1  |EV| 
0.10000000000000001 397:1 5577:1 10916:1 15563:1 15573:1 15586:1 15588:1 15600:1 15626:1 15665:1 15774:1 15783:1 15886:1 16027:1 16044:1 16045:1 17042:1 17148:1 18292:1 18303:1 18334:1 18430:1 18566:1 18660:1 18853:1 18861:1 18869:1 18874:1 18888:1 18897:1  |EV| 
-0.080825192477471094 4400:1 9533:1 15346:1 15566:1 15573:1 15587:1 15626:1 15654:1 15735:1 15836:1 15852:1 16131:1 16274:1 16376:1 16982:1 16983:1 16984:1 16985:1 16999:1 17000:1 17001:1 17042:1 17148:1 17574:1 17910:1 18066:1 18294:1 18303:1 18329:1 18453:1 18541:1 18692:1 18853:1 18864:1 18869:1 18874:1 18888:1  |EV| 
-0.049561657519986133 1177:1 6898:1 12359:1 15600:1 15763:1 16440:1 16441:1 17042:1 17148:1 18292:1 18303:1 18307:1 18426:1 18540:1 18655:1 18853:1 18861:1 18869:1 18874:1 18897:1  |EV| 
-0.02657557742221666 366:1 8448:1 14108:1 15573:1 15600:1 15783:1 15886:1 16570:1 16820:1 17042:1 17148:1 18298:1 18303:1 18310:1 18444:1 18556:1 18666:1 18853:1 18861:1 18869:1 18874:1 18888:1 18897:1  |EV| 
-0.06296173304095222 1642:1 6362:1 11733:1 15573:1 15588:1 15626:1 15638:1 15707:1 15783:1 16034:1 17091:1 17106:1 17148:1 17457:1 18282:1 18292:1 18303:1 18315:1 18444:1 18559:1 18662:1 18853:1 18861:1 18869:1 18874:1 18888:1 18897:1  |EV| 
0.028103957637525771 1657:1 6377:1 11747:1 15582:1 15606:1 15651:1 17079:1 17148:1 17457:1 18292:1 18303:1 18311:1 18422:1 18544:1 18655:1 18853:1 18861:1 18869:1 18874:1 18888:1 18897:1  |EV| 
0.014202911971758011 1478:1 6182:1 9758:1 17101:1 17148:1 17457:1 17544:1 17659:1 18272:1 18274:1 18292:1 18303:1 18315:1 18426:1 18547:1 18655:1 18853:1 18864:1 18869:1 18874:1 18888:1 18897:1  |EV| 
0.015023238794540095 4281:1 9409:1 15202:1 15563:1 15654:1 15707:1 15920:1 16612:1 16952:1 16959:1 16960:1 17063:1 17148:1 18292:1 18303:1 18326:1 18430:1 18559:1 18662:1 18853:1 18861:1 18869:1 18874:1 18880:1 18888:1 18891:1 18897:1  |EV| 
0.025942557737395809 2091:1 6861:1 9758:1 17059:1 17148:1 17457:1 18292:1 18303:1 18315:1 18426:1 18547:1 18655:1 18853:1 18864:1 18869:1 18874:1 18888:1 18897:1  |EV| 
0.044283888860939889 702:1 5319:1 9758:1 17059:1 17148:1 17152:1 17456:1 17896:1 18059:1 18292:1 18303:1 18315:1 18426:1 18547:1 18655:1 18853:1 18864:1 18869:1 18874:1 18887:1 18888:1 18897:1  |EV| 
-0.0012948036122212329 17:1 4608:1 9758:1 17045:1 17148:1 17152:1 17456:1 17896:1 18025:1 18273:1 18274:1 18292:1 18303:1 18315:1 18426:1 18547:1 18655:1 18853:1 18863:1 18869:1 18874:1 18889:1 18890:1 18897:1  |EV| 
-0.10000000000000001 1137:1 5815:1 11161:1 15641:1 15655:1 15880:1 16132:1 17091:1 17148:1 18292:1 18303:1 18317:1 18426:1 18546:1 18655:1 18853:1 18861:1 18869:1 18874:1 18888:1 18897:1  |EV| 
-0.10000000000000001 1310:1 6525:1 11900:1 15641:1 15658:1 15880:1 16362:1 17091:1 17148:1 18292:1 18303:1 18317:1 18426:1 18546:1 18655:1 18853:1 18861:1 18869:1 18874:1 18888:1 18897:1  |EV| 
-0.10000000000000001 4139:1 9250:1 15015:1 15563:1 15698:1 16058:1 16904:1 17048:1 17148:1 17872:1 18294:1 18303:1 18312:1 18426:1 18551:1 18657:1 18853:1 18865:1 18869:1 18874:1 18888:1 18897:1  |EV| 
0.10000000000000001 376:1 5353:1 13827:1 15566:1 15573:1 15613:1 15626:1 15822:1 15899:1 15980:1 16131:1 16791:1 17042:1 17148:1 17450:1 18298:1 18303:1 18309:1 18459:1 18550:1 18667:1 18853:1 18861:1 18869:1 18874:1 18888:1 18897:1  |EV| 
0.10000000000000001 3448:1 8429:1 14080:1 15563:1 15573:1 15588:1 15600:1 15613:1 15822:1 15886:1 16722:1 16831:1 17042:1 17148:1 18292:1 18303:1 18319:1 18430:1 18576:1 18662:1 18853:1 18861:1 18869:1 18874:1 18888:1 18897:1  |EV| 
0.10000000000000001 2037:1 6796:1 12243:1 15563:1 15573:1 15588:1 15600:1 15927:1 16001:1 16350:1 16380:1 16389:1 16390:1 16391:1 16414:1 16415:1 17042:1 17148:1 18292:1 18303:1 18314:1 18450:1 18570:1 18669:1 18853:1 18861:1 18869:1 18874:1 18888:1 18897:1  |EV| 
0.10000000000000001 438:1 5087:1 10317:1 15563:1 15565:1 15573:1 15588:1 15598:1 15600:1 15613:1 15630:1 15659:1 15696:1 15704:1 15757:1 15779:1 15804:1 15820:1 15836:1 15840:1 15860:1 15864:1 15882:1 15888:1 15893:1 15894:1 15898:1 15899:1 17042:1 17148:1 18292:1 18303:1 18360:1 18429:1 18607:1 18711:1 18853:1 18861:1 18869:1 18874:1 18888:1 18897:1  |EV| 
0.10000000000000001 606:1 5222:1 10529:1 15563:1 15572:1 15573:1 15588:1 15600:1 15602:1 15608:1 15626:1 15668:1 15707:1 15748:1 15790:1 15804:1 15814:1 15867:1 15940:1 15941:1 15942:1 15943:1 15944:1 15945:1 15946:1 15947:1 15950:1 15951:1 15952:1 15953:1 15959:1 17082:1 17148:1 18295:1 18303:1 18379:1 18428:1 18579:1 18730:1 18853:1 18861:1 18869:1 18874:1 18888:1 18897:1  |EV| 
-0.032516577577000362 603:1 5219:1 10526:1 15563:1 15572:1 15573:1 15588:1 15600:1 15602:1 15608:1 15626:1 15668:1 15707:1 15748:1 15790:1 15804:1 15814:1 15867:1 15940:1 15941:1 15942:1 15943:1 15944:1 15945:1 15946:1 15947:1 15950:1 15951:1 15952:1 15953:1 17082:1 17148:1 17457:1 18292:1 18303:1 18311:1 18466:1 18579:1 18696:1 18853:1 18861:1 18869:1 18874:1 18888:1 18897:1  |EV| 
-0.015748451148019579 614:1 5230:1 10537:1 15563:1 15572:1 15573:1 15588:1 15600:1 15602:1 15608:1 15626:1 15668:1 15707:1 15748:1 15790:1 15804:1 15814:1 15867:1 15940:1 15941:1 15942:1 15943:1 15944:1 15945:1 15946:1 15947:1 15950:1 15951:1 15952:1 15959:1 17082:1 17148:1 18292:1 18303:1 18334:1 18456:1 18579:1 18677:1 18853:1 18861:1 18869:1 18874:1 18888:1 18897:1  |EV| 
-0.016591923531708578 515:1 5125:1 10398:1 15563:1 15565:1 15573:1 15588:1 15598:1 15600:1 15613:1 15630:1 15659:1 15696:1 15704:1 15757:1 15779:1 15804:1 15820:1 15836:1 15840:1 15860:1 15864:1 15882:1 15883:1 15888:1 15893:1 15894:1 15899:1 17042:1 17148:1 18292:1 18303:1 18370:1 18459:1 18607:1 18727:1 18853:1 18861:1 18869:1 18874:1 18888:1 18897:1  |EV| 
-0.062496028602511251 654:1 5270:1 10578:1 15563:1 15572:1 15573:1 15588:1 15600:1 15602:1 15608:1 15626:1 15668:1 15707:1 15748:1 15790:1 15804:1 15814:1 15867:1 15940:1 15941:1 15942:1 15944:1 15945:1 15946:1 15947:1 15950:1 15951:1 15952:1 15953:1 15959:1 17082:1 17148:1 18292:1 18303:1 18363:1 18453:1 18579:1 18729:1 18853:1 18861:1 18869:1 18874:1 18888:1 18897:1  |EV| 
-0.10000000000000001 516:1 5126:1 10399:1 15565:1 15573:1 15588:1 15598:1 15600:1 15613:1 15630:1 15659:1 15696:1 15704:1 15757:1 15779:1 15804:1 15820:1 15836:1 15840:1 15864:1 15882:1 15883:1 15888:1 15893:1 15894:1 15899:1 17066:1 17148:1 18292:1 18303:1 18370:1 18423:1 18601:1 18665:1 18853:1 18861:1 18869:1 18874:1 18888:1 18897:1  |EV| 
0.096711889903615178 1790:1 6511:1 11886:1 15638:1 15641:1 16352:1 16353:1 17042:1 17148:1 17457:1 18292:1 18303:1 18317:1 18426:1 18546:1 18655:1 18853:1 18861:1 18869:1 18874:1 18888:1 18897:1  |EV| 
0.034389375370641524 80:1 4671:1 9817:1 15582:1 15688:1 15689:1 15690:1 17045:1 17147:1 18292:1 18303:1 18317:1 18426:1 18546:1 18655:1 18853:1 18861:1 18869:1 18874:1 18888:1 18897:1  |EV| 
0.018418255443384306 1123:1 5794:1 9758:1 17091:1 17148:1 17241:1 17456:1 17912:1 18093:1 18292:1 18303:1 18315:1 18426:1 18547:1 18655:1 18853:1 18861:1 18869:1 18874:1 18887:1 18888:1 18897:1  |EV| 
-0.044126411990647318 1808:1 6532:1 11908:1 15573:1 15582:1 15600:1 15698:1 16348:1 16354:1 16355:1 17044:1 17148:1 17453:1 18294:1 18303:1 18327:1 18422:1 18541:1 18657:1 18853:1 18864:1 18869:1 18874:1 18888:1 18894:1 18897:1  |EV| 
0.0076548823501013446 1659:1 6379:1 11749:1 15606:1 17049:1 17074:1 17148:1 17457:1 18281:1 18283:1 18292:1 18303:1 18311:1 18426:1 18539:1 18655:1 18853:1 18861:1 18869:1 18874:1 18888:1 18897:1  |EV| 
-0.10000000000000001 3051:1 7960:1 13484:1 15563:1 15566:1 15588:1 15623:1 15669:1 15770:1 16106:1 16257:1 16678:1 16700:1 17079:1 17148:1 18292:1 18303:1 18319:1 18430:1 18576:1 18662:1 18853:1 18861:1 18869:1 18874:1 18888:1 18897:1  |EV| 
-0.10000000000000001 4348:1 9481:1 15285:1 15573:1 15600:1 15638:1 15665:1 15702:1 16222:1 17042:1 17148:1 17887:1 18292:1 18303:1 18307:1 18430:1 18555:1 18655:1 18853:1 18864:1 18869:1 18878:1 18888:1 18891:1 18897:1  |EV| 
-0.0057717836787786235 597:1 5212:1 10519:1 15563:1 15566:1 15573:1 15588:1 15602:1 15637:1 15638:1 15649:1 15696:1 15759:1 15924:1 15925:1 15926:1 15927:1 15928:1 15929:1 17078:1 17148:1 17910:1 18056:1 18295:1 18303:1 18370:1 18445:1 18543:1 18703:1 18853:1 18861:1 18869:1 18874:1 18888:1 18897:1  |EV| 
-0.10000000000000001 2937:1 7839:1 10667:1 17059:1 17148:1 17450:1 18298:1 18303:1 18309:1 18430:1 18543:1 18666:1 18853:1 18861:1 18869:1 18874:1 18888:1 18897:1  |EV| 
-0.10000000000000001 4024:1 9105:1 14863:1 15573:1 15598:1 15613:1 15707:1 15866:1 16318:1 16880:1 17044:1 17148:1 18292:1 18303:1 18319:1 18426:1 18550:1 18662:1 18853:1 18864:1 18869:1 18874:1 18878:1 18888:1 18897:1  |EV| 
0.10000000000000001 621:1 5237:1 10544:1 15563:1 15572:1 15573:1 15588:1 15600:1 15602:1 15608:1 15626:1 15668:1 15707:1 15748:1 15790:1 15804:1 15814:1 15867:1 15940:1 15941:1 15942:1 15943:1 15944:1 15945:1 15946:1 15948:1 15950:1 15951:1 15952:1 15953:1 15959:1 17081:1 17148:1 18295:1 18303:1 18379:1 18421:1 18583:1 18730:1 18853:1 18861:1 18869:1 18874:1 18888:1 18897:1  |EV| 
0.10000000000000001 448:1 5086:1 10309:1 15563:1 15565:1 15573:1 15588:1 15598:1 15600:1 15613:1 15630:1 15659:1 15696:1 15704:1 15757:1 15779:1 15804:1 15820:1 15836:1 15840:1 15860:1 15864:1 15882:1 15888:1 15893:1 15894:1 15898:1 15899:1 17046:1 17148:1 18292:1 18303:1 18360:1 18427:1 18577:1 18711:1 18853:1 18861:1 18869:1 18874:1 18888:1 18897:1  |EV| 
-0.10000000000000001 1380:1 8136:1 13687:1 15563:1 15566:1 15579:1 15637:1 15845:1 15872:1 15954:1 16147:1 17046:1 17148:1 17457:1 18292:1 18303:1 18315:1 18444:1 18559:1 18662:1 18853:1 18861:1 18869:1 18874:1 18888:1 18897:1  |EV| 
-0.0060866807028791374 1425:1 6126:1 11501:1 15573:1 15588:1 15601:1 17087:1 17148:1 17457:1 18296:1 18302:1 18315:1 18434:1 18538:1 18664:1 18853:1 18861:1 18869:1 18874:1 18888:1 18897:1  |EV| 
-0.036368460623720088 604:1 5220:1 10527:1 15563:1 15572:1 15573:1 15588:1 15600:1 15602:1 15608:1 15626:1 15668:1 15707:1 15748:1 15790:1 15804:1 15814:1 15867:1 15940:1 15941:1 15942:1 15943:1 15944:1 15945:1 15946:1 15950:1 15951:1 15952:1 15953:1 17081:1 17148:1 17457:1 18292:1 18303:1 18311:1 18495:1 18583:1 18696:1 18853:1 18861:1 18869:1 18874:1 18888:1 18897:1  |EV| 
-0.036457501228716986 653:1 5269:1 10577:1 15563:1 15572:1 15573:1 15588:1 15600:1 15602:1 15608:1 15626:1 15668:1 15707:1 15748:1 15790:1 15804:1 15814:1 15867:1 15940:1 15941:1 15942:1 15944:1 15945:1 15946:1 15950:1 15951:1 15952:1 15953:1 15959:1 17081:1 17148:1 18292:1 18303:1 18363:1 18452:1 18583:1 18729:1 18853:1 18861:1 18869:1 18874:1 18888:1 18897:1  |EV| 
-0.035246492247024627 612:1 5228:1 10535:1 15563:1 15572:1 15573:1 15588:1 15600:1 15602:1 15608:1 15626:1 15668:1 15707:1 15748:1 15790:1 15804:1 15814:1 15867:1 15940:1 15941:1 15942:1 15943:1 15944:1 15945:1 15946:1 15950:1 15951:1 15952:1 15959:1 17081:1 17148:1 18292:1 18303:1 18334:1 18481:1 18583:1 18677:1 18853:1 18861:1 18869:1 18874:1 18888:1 18897:1  |EV| 
-0.022307045678495879 518:1 5128:1 10401:1 15563:1 15565:1 15573:1 15588:1 15598:1 15600:1 15613:1 15630:1 15659:1 15696:1 15704:1 15757:1 15779:1 15804:1 15820:1 15836:1 15840:1 15860:1 15864:1 15882:1 15883:1 15888:1 15893:1 15894:1 15899:1 17046:1 17148:1 18292:1 18303:1 18370:1 18433:1 18577:1 18727:1 18853:1 18861:1 18869:1 18874:1 18888:1 18897:1  |EV| 
0.014341441161014873 4394:1 9527:1 15340:1 15566:1 15573:1 15587:1 15600:1 15626:1 15654:1 15735:1 15836:1 16376:1 16982:1 16983:1 16984:1 16985:1 16999:1 17000:1 17001:1 17144:1 17148:1 17441:1 17442:1 17574:1 18021:1 18022:1 18250:1 18251:1 18282:1 18294:1 18303:1 18329:1 18430:1 18588:1 18716:1 18853:1 18864:1 18869:1 18874:1 18888:1 18897:1  |EV| 
0.10000000000000001 2912:1 7812:1 13337:1 15566:1 15582:1 15583:1 15588:1 15886:1 16101:1 16115:1 16648:1 16649:1 17050:1 17083:1 17148:1 18283:1 18294:1 18303:1 18333:1 18426:1 18584:1 18661:1 18853:1 18861:1 18869:1 18874:1 18888:1 18897:1  |EV| 
0.10000000000000001 505:1 5494:1 10806:1 15573:1 15586:1 15783:1 15892:1 16028:1 16029:1 16030:1 17064:1 17148:1 18294:1 18303:1 18325:1 18426:1 18542:1 18659:1 18853:1 18861:1 18869:1 18874:1 18888:1 18897:1  |EV| 
-0.036332066384173488 2037:1 6796:1 12287:1 15563:1 15573:1 15588:1 15600:1 15626:1 15649:1 15659:1 15735:1 15927:1 16131:1 16350:1 16380:1 16389:1 16390:1 16391:1 16399:1 16414:1 16415:1 17042:1 17148:1 18294:1 18303:1 18329:1 18427:1 18586:1 18716:1 18853:1 18861:1 18869:1 18874:1 18888:1 18897:1  |EV| 
-0.082782626302175089 1092:1 5761:1 11108:1 15626:1 15676:1 15700:1 15701:1 15721:1 16101:1 16102:1 16103:1 17042:1 17148:1 18294:1 18303:1 18325:1 18426:1 18542:1 18659:1 18853:1 18861:1 18869:1 18874:1 18888:1 18897:1  |EV| 
-0.10000000000000001 505:1 5106:1 10371:1 15582:1 15619:1 15647:1 15716:1 15886:1 17064:1 17148:1 17527:1 18294:1 18303:1 18306:1 18426:1 18541:1 18657:1 18853:1 18861:1 18869:1 18874:1 18888:1 18897:1  |EV| 
-0.071026546458285406 2933:1 7834:1 13356:1 15566:1 15582:1 15583:1 15588:1 16101:1 16115:1 16648:1 16649:1 17050:1 17083:1 17148:1 17450:1 18283:1 18293:1 18303:1 18309:1 18436:1 18584:1 18680:1 18853:1 18861:1 18869:1 18874:1 18888:1 18897:1  |EV| 
-0.10000000000000001 2698:1 7547:1 13106:1 15573:1 15605:1 15688:1 15704:1 15759:1 15871:1 16613:1 16614:1 17045:1 17148:1 18294:1 18303:1 18316:1 18426:1 18553:1 18659:1 18853:1 18861:1 18869:1 18874:1 18888:1 18897:1  |EV| 
0.10000000000000001 658:1 5274:1 10583:1 15572:1 15573:1 15588:1 15608:1 15668:1 15707:1 15748:1 15790:1 15804:1 15814:1 15867:1 15940:1 15941:1 15942:1 15950:1 15951:1 15952:1 15953:1 15959:1 17042:1 17148:1 18292:1 18303:1 18363:1 18426:1 18598:1 18688:1 18853:1 18861:1 18869:1 18874:1 18888:1 18897:1  |EV| 
0.10000000000000001 207:1 8645:1 14380:1 15563:1 15565:1 15572:1 15573:1 15588:1 15598:1 15602:1 15656:1 15698:1 15732:1 15783:1 15923:1 15938:1 15988:1 16131:1 16135:1 16364:1 16511:1 16852:1 16854:1 16855:1 16856:1 17060:1 17148:1 18292:1 18303:1 18352:1 18444:1 18574:1 18665:1 18853:1 18861:1 18869:1 18874:1 18888:1 18897:1  |EV| 
0.10000000000000001 3621:1 8646:1 14381:1 15563:1 15565:1 15572:1 15573:1 15588:1 15598:1 15602:1 15656:1 15698:1 15720:1 15732:1 15783:1 15923:1 15938:1 15988:1 16131:1 16135:1 16364:1 16511:1 16852:1 16854:1 16855:1 16856:1 17087:1 17148:1 18292:1 18303:1 18352:1 18442:1 18601:1 18724:1 18853:1 18861:1 18869:1 18874:1 18888:1 18897:1  |EV| 
-0.050012711199281537 3610:1 8632:1 14365:1 15563:1 15565:1 15572:1 15573:1 15588:1 15598:1 15602:1 15656:1 15698:1 15720:1 15732:1 15783:1 15923:1 15938:1 15955:1 15988:1 16131:1 16135:1 16511:1 16852:1 16854:1 16855:1 16856:1 17087:1 17148:1 18292:1 18303:1 18346:1 18450:1 18601:1 18724:1 18853:1 18861:1 18869:1 18874:1 18888:1 18897:1  |EV| 
-0.050428636685799604 3602:1 8624:1 14357:1 15563:1 15565:1 15572:1 15573:1 15588:1 15598:1 15602:1 15656:1 15698:1 15732:1 15783:1 15923:1 15938:1 15955:1 15988:1 16131:1 16135:1 16511:1 16852:1 16854:1 16855:1 16856:1 17060:1 17148:1 18292:1 18303:1 18346:1 18459:1 18574:1 18724:1 18853:1 18861:1 18869:1 18874:1 18888:1 18897:1  |EV| 
-0.10000000000000001 3665:1 8692:1 14425:1 15565:1 15572:1 15573:1 15588:1 15598:1 15656:1 15732:1 15783:1 15923:1 15938:1 15955:1 15988:1 16131:1 16135:1 16511:1 16854:1 16855:1 16856:1 17064:1 17148:1 18292:1 18303:1 18346:1 18423:1 18587:1 18665:1 18853:1 18861:1 18869:1 18874:1 18888:1 18897:1  |EV| 
-0.10000000000000001 3631:1 8656:1 14391:1 15565:1 15572:1 15573:1 15588:1 15598:1 15656:1 15732:1 15923:1 15938:1 16135:1 16364:1 16511:1 16854:1 16855:1 16856:1 17091:1 17148:1 18295:1 18303:1 18352:1 18428:1 18566:1 18695:1 18853:1 18861:1 18869:1 18874:1 18888:1 18897:1  |EV| 
-0.025688715440605997 608:1 5224:1 10531:1 15572:1 15573:1 15588:1 15608:1 15668:1 15707:1 15748:1 15790:1 15804:1 15814:1 15867:1 15940:1 15941:1 15942:1 15943:1 15950:1 15951:1 15952:1 15959:1 17042:1 17148:1 18292:1 18303:1 18334:1 18442:1 18598:1 18724:1 18853:1 18861:1 18869:1 18874:1 18888:1 18897:1  |EV| 
0.10000000000000001 2321:1 7107:1 12575:1 15626:1 16516:1 16517:1 17042:1 17148:1 17319:1 17485:1 17719:1 17910:1 18066:1 18274:1 18298:1 18303:1 18322:1 18429:1 18543:1 18666:1 18853:1 18861:1 18869:1 18874:1 18888:1 18897:1  |EV| 
0.016913635762256025 60:1 4651:1 9797:1 15582:1 15641:1 15642:1 17050:1 17148:1 18292:1 18303:1 18304:1 18426:1 18544:1 18655:1 18853:1 18861:1 18869:1 18874:1 18888:1 18897:1  |EV| 
0.10000000000000001 387:1 4980:1 10340:1 15600:1 15613:1 15634:1 15757:1 15798:1 15834:1 15860:1 15861:1 17042:1 17148:1 18292:1 18303:1 18319:1 18430:1 18576:1 18662:1 18853:1 18861:1 18869:1 18874:1 18888:1 18897:1  |EV| 
0.018228634419831052 4154:1 9265:1 10667:1 17142:1 17148:1 17450:1 18298:1 18303:1 18309:1 18430:1 18543:1 18666:1 18853:1 18861:1 18869:1 18874:1 18888:1 18897:1  |EV| 
0.039355827348395267 3634:1 8659:1 10667:1 17044:1 17148:1 17450:1 18298:1 18303:1 18309:1 18430:1 18543:1 18666:1 18853:1 18861:1 18869:1 18874:1 18888:1 18897:1  |EV| 
-0.10000000000000001 3180:1 8110:1 13659:1 15606:1 15631:1 15634:1 15834:1 15861:1 16766:1 16767:1 17123:1 17148:1 17457:1 18292:1 18303:1 18314:1 18429:1 18561:1 18655:1 18853:1 18861:1 18869:1 18874:1 18888:1 18897:1  |EV| 
-0.10000000000000001 387:1 4980:1 10451:1 15600:1 15613:1 15634:1 15757:1 15798:1 15834:1 15860:1 15861:1 17042:1 17148:1 18292:1 18303:1 18304:1 18438:1 18576:1 18662:1 18853:1 18861:1 18869:1 18874:1 18888:1 18897:1  |EV| 
-0.063463037658144331 1198:1 5888:1 10667:1 17090:1 17148:1 17450:1 18298:1 18303:1 18309:1 18430:1 18543:1 18666:1 18853:1 18861:1 18869:1 18874:1 18897:1  |EV| 
-0.083803335428559972 3316:1 8312:1 13925:1 15600:1 15655:1 16792:1 16799:1 17046:1 17148:1 18298:1 18303:1 18310:1 18429:1 18543:1 18666:1 18853:1 18861:1 18869:1 18874:1 18888:1 18897:1  |EV| 
0.039999516712859916 1310:1 6525:1 14355:1 15565:1 15572:1 15573:1 15598:1 15656:1 15732:1 15923:1 15938:1 16135:1 16511:1 16854:1 16855:1 16856:1 17091:1 17148:1 18292:1 18303:1 18346:1 18426:1 18566:1 18660:1 18853:1 18861:1 18869:1 18874:1 18888:1 18897:1  |EV| 
0.10000000000000001 3603:1 8625:1 14358:1 15565:1 15572:1 15573:1 15588:1 15598:1 15656:1 15732:1 15783:1 15923:1 15938:1 15988:1 16131:1 16135:1 16364:1 16511:1 16854:1 16855:1 16856:1 17064:1 17148:1 18292:1 18303:1 18352:1 18439:1 18587:1 18665:1 18853:1 18861:1 18869:1 18874:1 18888:1 18897:1  |EV| 
0.10000000000000001 1519:1 6225:1 11592:1 15563:1 15573:1 15582:1 15588:1 15600:1 15626:1 15639:1 15690:1 15706:1 15779:1 15893:1 16058:1 16092:1 16252:1 16253:1 16254:1 16255:1 17063:1 17148:1 18292:1 18303:1 18334:1 18438:1 18587:1 18665:1 18853:1 18861:1 18869:1 18874:1 18888:1 18897:1  |EV| 
-0.056640050773847705 1535:1 6241:1 11607:1 15563:1 15573:1 15582:1 15588:1 15600:1 15626:1 15639:1 15690:1 15706:1 15779:1 15893:1 16024:1 16058:1 16092:1 16122:1 16252:1 16253:1 16254:1 16255:1 17063:1 17148:1 18295:1 18303:1 18348:1 18428:1 18587:1 18697:1 18853:1 18861:1 18869:1 18874:1 18888:1 18897:1  |EV| 
0.0046404575192541689 551:1 5163:1 10474:1 15573:1 15588:1 15759:1 17079:1 17148:1 18294:1 18303:1 18310:1 18426:1 18538:1 18657:1 18853:1 18861:1 18869:1 18874:1 18888:1 18897:1  |EV| 
0.10000000000000001 575:1 5189:1 10497:1 15573:1 15696:1 17078:1 17148:1 17185:1 17468:1 17910:1 18056:1 18295:1 18303:1 18304:1 18431:1 18543:1 18663:1 18853:1 18861:1 18869:1 18874:1 18888:1 18897:1  |EV| 
0.10000000000000001 2042:1 6803:1 12255:1 15563:1 16422:1 16424:1 17110:1 17148:1 18295:1 18303:1 18307:1 18428:1 18556:1 18663:1 18853:1 18861:1 18869:1 18874:1 18888:1 18897:1  |EV| 
0.10000000000000001 2597:1 7441:1 12924:1 15563:1 15588:1 15668:1 15714:1 15715:1 16601:1 16602:1 17046:1 17148:1 18294:1 18303:1 18327:1 18422:1 18541:1 18657:1 18853:1 18861:1 18869:1 18874:1 18888:1 18897:1  |EV| 
0.10000000000000001 4414:1 9548:1 15368:1 15588:1 15631:1 15711:1 17053:1 17148:1 17457:1 18296:1 18302:1 18311:1 18434:1 18548:1 18664:1 18853:1 18861:1 18869:1 18874:1 18888:1 18897:1  |EV| 
0.10000000000000001 1912:1 6649:1 12201:1 15588:1 15656:1 17067:1 17148:1 18293:1 18303:1 18305:1 18432:1 18538:1 18656:1 18853:1 18861:1 18869:1 18874:1 18888:1 18897:1  |EV| 
-0.064980009226860716 877:1 5512:1 10826:1 15565:1 15783:1 16044:1 17044:1 17148:1 17457:1 18296:1 18302:1 18315:1 18434:1 18538:1 18664:1 18853:1 18861:1 18869:1 18874:1 18880:1 18888:1 18897:1  |EV| 
-0.10000000000000001 405:1 4998:1 10173:1 15860:1 17044:1 17148:1 17472:1 18294:1 18303:1 18305:1 18426:1 18545:1 18657:1 18853:1 18861:1 18869:1 18874:1 18888:1 18897:1  |EV| 
-0.018079586545563877 1807:1 6530:1 11989:1 15588:1 15656:1 16356:1 17067:1 17148:1 17457:1 18296:1 18302:1 18315:1 18434:1 18538:1 18664:1 18853:1 18861:1 18869:1 18874:1 18888:1 18897:1  |EV| 
-0.068470529136561348 2597:1 7470:1 12955:1 15588:1 15668:1 15714:1 15715:1 16283:1 16602:1 17046:1 17148:1 17457:1 18296:1 18302:1 18311:1 18443:1 18541:1 18664:1 18853:1 18861:1 18869:1 18874:1 18888:1 18897:1  |EV| 
-0.10000000000000001 2127:1 6900:1 12361:1 15588:1 16457:1 17091:1 17148:1 18268:1 18292:1 18303:1 18314:1 18426:1 18544:1 18655:1 18853:1 18861:1 18869:1 18874:1 18888:1 18897:1  |EV| 
0.10000000000000001 1208:1 5903:1 11591:1 15563:1 15573:1 15582:1 15588:1 15600:1 15626:1 15639:1 15690:1 15779:1 15893:1 16058:1 16092:1 16252:1 16253:1 16254:1 16255:1 17079:1 17148:1 18292:1 18303:1 18334:1 18429:1 18557:1 18660:1 18853:1 18861:1 18869:1 18874:1 18888:1 18897:1  |EV| 
-0.10000000000000001 3636:1 8661:1 14410:1 15573:1 15582:1 15600:1 15613:1 15626:1 15668:1 15690:1 15717:1 15718:1 15923:1 16166:1 16199:1 16218:1 16526:1 16853:1 17078:1 17148:1 18292:1 18303:1 18352:1 18426:1 18572:1 18660:1 18853:1 18861:1 18869:1 18874:1 18888:1 18897:1  |EV| 
-0.06118108410120169 2875:1 7774:1 13287:1 15572:1 15588:1 15637:1 15804:1 15839:1 15854:1 16146:1 16318:1 16629:1 16630:1 17044:1 17148:1 18292:1 18303:1 18314:1 18444:1 18576:1 18662:1 18853:1 18861:1 18869:1 18874:1 18888:1 18897:1  |EV| 
-0.0011728337076208923 1590:1 6330:1 11697:1 15563:1 15566:1 15588:1 15600:1 15650:1 15845:1 16035:1 16171:1 16174:1 16280:1 16281:1 16282:1 16283:1 16284:1 16285:1 17091:1 17148:1 18296:1 18302:1 18304:1 18471:1 18580:1 18685:1 18853:1 18861:1 18869:1 18874:1 18888:1 18897:1  |EV| 
-0.10000000000000001 4236:1 9358:1 15132:1 15563:1 15565:1 15572:1 15573:1 15579:1 15582:1 15598:1 15600:1 15605:1 15624:1 15719:1 15792:1 15823:1 15868:1 15927:1 15984:1 16542:1 16911:1 16912:1 16913:1 16914:1 16943:1 17087:1 17148:1 18292:1 18303:1 18368:1 18426:1 18609:1 18688:1 18853:1 18861:1 18869:1 18874:1 18888:1 18897:1  |EV| 
0.10000000000000001 2444:1 8354:1 13983:1 15600:1 15659:1 15820:1 15822:1 17053:1 17148:1 18296:1 18302:1 18314:1 18424:1 18548:1 18664:1 18853:1 18861:1 18869:1 18874:1 18888:1 18897:1  |EV| 
0.10000000000000001 3530:1 8526:1 14241:1 15840:1 16117:1 16834:1 17135:1 17148:1 17457:1 18296:1 18302:1 18315:1 18434:1 18538:1 18664:1 18853:1 18861:1 18869:1 18874:1 18888:1 18897:1  |EV| 
0.10000000000000001 3129:1 8046:1 13597:1 15588:1 16077:1 16078:1 16730:1 17053:1 17148:1 17457:1 18296:1 18302:1 18311:1 18424:1 18538:1 18664:1 18853:1 18861:1 18869:1 18874:1 18888:1 18897:1  |EV| 
0.10000000000000001 182:1 4775:1 9923:1 15588:1 15730:1 17053:1 17148:1 17457:1 18296:1 18302:1 18315:1 18421:1 18548:1 18664:1 18853:1 18861:1 18869:1 18874:1 18888:1 18897:1  |EV| 
0.10000000000000001 2753:1 7607:1 13102:1 15588:1 16623:1 17053:1 17148:1 17457:1 18296:1 18302:1 18315:1 18421:1 18548:1 18664:1 18853:1 18861:1 18869:1 18874:1 18888:1 18897:1  |EV| 
-0.0061411986376170733 2951:1 7854:1 13375:1 15563:1 15588:1 17121:1 17148:1 17457:1 18296:1 18302:1 18315:1 18421:1 18548:1 18664:1 18853:1 18861:1 18869:1 18874:1 18888:1 18897:1  |EV| 
-0.039310206265634716 3148:1 8071:1 13611:1 15735:1 15777:1 17045:1 17148:1 17160:1 17496:1 17900:1 18192:1 18292:1 18303:1 18314:1 18426:1 18556:1 18655:1 18853:1 18861:1 18869:1 18874:1 18887:1 18897:1  |EV| 
-0.069116812619399476 1296:1 8133:1 13685:1 15588:1 16759:1 17044:1 17148:1 17457:1 18296:1 18302:1 18315:1 18421:1 18548:1 18664:1 18853:1 18861:1 18869:1 18874:1 18888:1 18897:1  |EV| 
-0.022423222745745316 2272:1 7056:1 12525:1 15588:1 15683:1 15688:1 17090:1 17148:1 17457:1 18296:1 18302:1 18311:1 18434:1 18548:1 18664:1 18853:1 18861:1 18869:1 18874:1 18888:1 18897:1  |EV| 
-0.074795933207629506 59:1 8638:1 14373:1 15588:1 15683:1 17042:1 17148:1 17457:1 18296:1 18302:1 18315:1 18421:1 18548:1 18664:1 18853:1 18861:1 18869:1 18874:1 18888:1 18897:1  |EV| 
0.10000000000000001 1061:1 5730:1 15185:1 15563:1 15565:1 15572:1 15573:1 15579:1 15582:1 15588:1 15598:1 15600:1 15624:1 15719:1 15792:1 15823:1 15868:1 15927:1 15962:1 15984:1 16542:1 16911:1 16912:1 16913:1 16914:1 16915:1 16916:1 16943:1 17042:1 17148:1 18292:1 18303:1 18341:1 18429:1 18577:1 18711:1 18853:1 18861:1 18869:1 18874:1 18888:1 18897:1  |EV| 
0.065833095512307344 1059:1 5728:1 15182:1 15563:1 15565:1 15572:1 15573:1 15579:1 15582:1 15598:1 15600:1 15624:1 15719:1 15792:1 15823:1 15868:1 15927:1 15984:1 16542:1 16911:1 16912:1 16913:1 16914:1 16943:1 17087:1 17148:1 18292:1 18303:1 18341:1 18426:1 18574:1 18688:1 18853:1 18861:1 18869:1 18874:1 18888:1 18897:1  |EV| 
0.10000000000000001 2990:1 7932:1 13456:1 15563:1 15573:1 15582:1 15588:1 15600:1 15626:1 15668:1 15669:1 15684:1 15685:1 16106:1 16141:1 16370:1 16680:1 16681:1 16691:1 17056:1 17148:1 18294:1 18303:1 18353:1 18426:1 18604:1 18716:1 18853:1 18861:1 18869:1 18874:1 18888:1 18897:1  |EV| 
0.10000000000000001 2167:1 6945:1 12406:1 15563:1 15573:1 15582:1 15588:1 15613:1 15623:1 15865:1 16295:1 16448:1 16449:1 16450:1 16451:1 16452:1 16453:1 16454:1 16457:1 17091:1 17148:1 18268:1 18292:1 18303:1 18370:1 18426:1 18563:1 18665:1 18853:1 18861:1 18869:1 18874:1 18888:1 18897:1  |EV| 
0.10000000000000001 131:1 4722:1 9867:1 15572:1 15573:1 15582:1 15588:1 15606:1 15618:1 15619:1 15620:1 15621:1 15622:1 15623:1 15624:1 15625:1 15626:1 15696:1 15721:1 15722:1 17049:1 17148:1 18295:1 18303:1 18337:1 18432:1 18564:1 18697:1 18853:1 18861:1 18869:1 18874:1 18888:1 18897:1  |EV| 
-0.063390358419321696 2079:1 6849:1 12315:1 15563:1 15573:1 15582:1 15588:1 15613:1 15623:1 15819:1 15865:1 15886:1 16035:1 16131:1 16295:1 16448:1 16449:1 16450:1 16451:1 16452:1 16453:1 16454:1 17046:1 17067:1 17113:1 17148:1 18282:1 18292:1 18303:1 18354:1 18429:1 18599:1 18665:1 18853:1 18861:1 18869:1 18874:1 18888:1 18897:1  |EV| 
-0.10000000000000001 156:1 4748:1 9893:1 15572:1 15573:1 15582:1 15588:1 15606:1 15618:1 15619:1 15620:1 15621:1 15622:1 15623:1 15624:1 15625:1 15626:1 15696:1 15721:1 17049:1 17148:1 17457:1 18292:1 18303:1 18314:1 18441:1 18564:1 18681:1 18853:1 18861:1 18869:1 18874:1 18888:1 18897:1  |EV| 
-0.076788909853818157 135:1 4726:1 9871:1 15572:1 15573:1 15582:1 15588:1 15606:1 15618:1 15619:1 15620:1 15621:1 15622:1 15623:1 15624:1 15625:1 15626:1 15651:1 15671:1 15696:1 15721:1 17046:1 17148:1 17457:1 18292:1 18303:1 18314:1 18440:1 18563:1 18681:1 18853:1 18861:1 18869:1 18874:1 18888:1 18897:1  |EV| 
-0.014673172293485097 958:1 6189:1 11558:1 15563:1 15573:1 15582:1 15588:1 15600:1 15605:1 15626:1 15659:1 15696:1 15707:1 15716:1 15782:1 15822:1 15838:1 15852:1 15953:1 16113:1 16257:1 16258:1 16259:1 16260:1 16261:1 16262:1 16263:1 16264:1 16266:1 17042:1 17148:1 18292:1 18303:1 18382:1 18426:1 18618:1 18710:1 18853:1 18861:1 18869:1 18874:1 18888:1 18897:1  |EV| 
0.10000000000000001 1685:1 6405:1 11857:1 15638:1 15703:1 17091:1 17106:1 17148:1 17898:1 18095:1 18282:1 18296:1 18302:1 18311:1 18421:1 18545:1 18664:1 18853:1 18861:1 18869:1 18874:1 18880:1 18888:1 18897:1  |EV| 
0.10000000000000001 3879:1 8929:1 14666:1 15565:1 15566:1 15573:1 15582:1 15598:1 15840:1 15841:1 16041:1 16876:1 17089:1 17148:1 17457:1 18296:1 18302:1 18315:1 18467:1 18553:1 18675:1 18853:1 18861:1 18869:1 18874:1 18888:1 18897:1  |EV| 
0.10000000000000001 113:1 5897:1 11259:1 15573:1 15588:1 15617:1 15759:1 15783:1 17059:1 17148:1 17457:1 18292:1 18303:1 18315:1 18423:1 18555:1 18655:1 18853:1 18861:1 18869:1 18874:1 18888:1 18897:1  |EV| 
-0.10000000000000001 2667:1 7514:1 13001:1 15574:1 15582:1 15588:1 15613:1 15668:1 15714:1 15783:1 16456:1 16602:1 16623:1 17053:1 17148:1 18296:1 18302:1 18319:1 18451:1 18548:1 18675:1 18853:1 18861:1 18869:1 18874:1 18888:1 18897:1  |EV| 
-0.10000000000000001 2141:1 6915:1 12377:1 15573:1 15597:1 15638:1 15669:1 15783:1 17059:1 17147:1 18292:1 18303:1 18307:1 18426:1 18540:1 18655:1 18853:1 18861:1 18869:1 18874:1 18888:1 18897:1  |EV| 
-0.07428679938052625 2099:1 6870:1 12334:1 15573:1 15638:1 15669:1 15783:1 16075:1 17059:1 17147:1 17457:1 18292:1 18303:1 18315:1 18429:1 18540:1 18655:1 18853:1 18861:1 18869:1 18874:1 18888:1 18897:1  |EV| 
-0.045349844726259997 396:1 4989:1 10825:1 15565:1 15566:1 15783:1 16044:1 17071:1 17148:1 17457:1 18296:1 18302:1 18315:1 18424:1 18551:1 18664:1 18853:1 18861:1 18869:1 18874:1 18880:1 18888:1 18897:1  |EV| 
0.10000000000000001 2169:1 6947:1 12408:1 15563:1 15573:1 15582:1 15588:1 15613:1 15623:1 15865:1 16035:1 16131:1 16295:1 16448:1 16449:1 16450:1 16451:1 16452:1 16453:1 16454:1 16457:1 17046:1 17067:1 17113:1 17148:1 18268:1 18282:1 18292:1 18303:1 18370:1 18422:1 18599:1 18665:1 18853:1 18861:1 18869:1 18874:1 18888:1 18897:1  |EV| 
0.097531444465161876 111:1 4702:1 9848:1 15572:1 15573:1 15582:1 15588:1 15606:1 15618:1 15619:1 15620:1 15621:1 15622:1 15623:1 15624:1 15625:1 15626:1 15651:1 15696:1 15721:1 15722:1 17046:1 17148:1 18292:1 18303:1 18337:1 18426:1 18563:1 18688:1 18853:1 18861:1 18869:1 18874:1 18888:1 18897:1  |EV| 
-0.023362708316598917 4271:1 9399:1 15183:1 15563:1 15565:1 15573:1 15579:1 15582:1 15598:1 15600:1 15624:1 15719:1 15792:1 15823:1 15868:1 15927:1 15984:1 16542:1 16911:1 16912:1 16913:1 16914:1 16943:1 17045:1 17148:1 18295:1 18303:1 18341:1 18487:1 18544:1 18691:1 18853:1 18861:1 18869:1 18874:1 18888:1 18897:1  |EV| 
-0.041629604594828958 3714:1 8748:1 14480:1 15566:1 15572:1 15573:1 15574:1 15588:1 15626:1 15707:1 15804:1 15822:1 15840:1 15841:1 16054:1 16309:1 16626:1 16868:1 16873:1 16874:1 16875:1 16881:1 17052:1 17148:1 18292:1 18303:1 18363:1 18422:1 18573:1 18688:1 18853:1 18861:1 18869:1 18874:1 18888:1 18897:1  |EV| 
-0.058745911782339816 417:1 5010:1 10442:1 15563:1 15566:1 15572:1 15573:1 15586:1 15588:1 15600:1 15626:1 15747:1 15781:1 15798:1 15823:1 15840:1 15860:1 15868:1 15869:1 15872:1 15900:1 17072:1 17148:1 18292:1 18303:1 18337:1 18426:1 18563:1 18688:1 18853:1 18861:1 18869:1 18874:1 18880:1 18888:1 18897:1  |EV| 
-0.011607187504356662 1668:1 6388:1 11758:1 15563:1 15572:1 15573:1 15582:1 15588:1 15606:1 15617:1 15626:1 15651:1 15691:1 15714:1 15715:1 15774:1 15926:1 15941:1 16137:1 16157:1 16306:1 16307:1 16308:1 16330:1 16331:1 16332:1 16333:1 16334:1 16335:1 16336:1 17079:1 17148:1 18295:1 18303:1 18376:1 18488:1 18544:1 18756:1 18853:1 18861:1 18869:1 18874:1 18880:1 18888:1 18897:1  |EV| 
-0.016135741362100501 2443:1 7349:1 12812:1 15563:1 15566:1 15573:1 15576:1 15588:1 15600:1 15613:1 15637:1 15712:1 15735:1 15872:1 15994:1 16015:1 16478:1 16560:1 16561:1 16562:1 16563:1 17045:1 17148:1 18292:1 18303:1 18337:1 18426:1 18563:1 18688:1 18853:1 18861:1 18869:1 18874:1 18888:1 18897:1  |EV| 
0.10000000000000001 2343:1 7132:1 12600:1 15626:1 15716:1 15741:1 15909:1 15923:1 17114:1 17148:1 17160:1 17496:1 17900:1 18171:1 18292:1 18303:1 18311:1 18427:1 18540:1 18655:1 18853:1 18863:1 18869:1 18874:1 18888:1 18889:1 18897:1  |EV| 
0.039369597801830754 2847:1 7737:1 13252:1 15600:1 15613:1 15619:1 15715:1 15798:1 17042:1 17119:1 17120:1 17148:1 18282:1 18283:1 18292:1 18303:1 18314:1 18439:1 18540:1 18655:1 18853:1 18861:1 18869:1 18874:1 18888:1 18897:1  |EV| 
0.10000000000000001 698:1 5433:1 10746:1 15582:1 15613:1 15783:1 16008:1 17042:1 17148:1 17457:1 18292:1 18303:1 18315:1 18427:1 18546:1 18655:1 18853:1 18861:1 18869:1 18874:1 18888:1 18897:1  |EV| 
0.055883378415125404 4565:1 9715:1 15540:1 15600:1 15686:1 15712:1 15836:1 17029:1 17090:1 17147:1 18292:1 18303:1 18307:1 18426:1 18540:1 18655:1 18853:1 18861:1 18869:1 18874:1 18888:1 18897:1  |EV| 
0.10000000000000001 292:1 4885:1 10038:1 15563:1 15605:1 15644:1 15668:1 17042:1 17148:1 17457:1 18292:1 18303:1 18314:1 18422:1 18546:1 18655:1 18853:1 18861:1 18869:1 18874:1 18888:1 18897:1  |EV| 
-0.10000000000000001 4368:1 9501:1 15308:1 15923:1 16141:1 16402:1 16989:1 17079:1 17148:1 17467:1 18292:1 18303:1 18311:1 18439:1 18546:1 18655:1 18853:1 18861:1 18869:1 18874:1 18888:1 18897:1  |EV| 
-0.10000000000000001 2125:1 6897:1 12358:1 15588:1 16035:1 16131:1 16457:1 17046:1 17067:1 17113:1 17148:1 18268:1 18282:1 18292:1 18303:1 18314:1 18422:1 18540:1 18655:1 18853:1 18861:1 18869:1 18874:1 18888:1 18897:1  |EV| 
-0.10000000000000001 180:1 4773:1 12027:1 15582:1 16380:1 17042:1 17148:1 17457:1 18292:1 18303:1 18315:1 18422:1 18556:1 18655:1 18853:1 18861:1 18869:1 18874:1 18888:1 18897:1  |EV| 
-0.10000000000000001 478:1 5077:1 10293:1 15563:1 15665:1 15858:1 15859:1 17042:1 17148:1 17457:1 18292:1 18303:1 18315:1 18427:1 18546:1 18655:1 18853:1 18861:1 18869:1 18874:1 18880:1 18888:1 18897:1  |EV| 
-0.10000000000000001 1396:1 6097:1 11475:1 15659:1 17097:1 17147:1 17265:1 17574:1 17947:1 18114:1 18292:1 18303:1 18315:1 18430:1 18539:1 18655:1 18853:1 18861:1 18869:1 18874:1 18888:1  |EV| 
0.10000000000000001 1663:1 6383:1 11753:1 15563:1 15573:1 15588:1 15600:1 15613:1 15717:1 16146:1 16310:1 16311:1 16312:1 16313:1 16314:1 16315:1 17045:1 17107:1 17148:1 17281:1 17495:1 17958:1 18133:1 18282:1 18298:1 18303:1 18333:1 18449:1 18547:1 18683:1 18853:1 18861:1 18869:1 18874:1 18888:1 18897:1  |EV| 
0.10000000000000001 370:1 4962:1 10137:1 15573:1 15588:1 15634:1 15783:1 15822:1 15823:1 15824:1 15825:1 17044:1 17148:1 18294:1 18303:1 18316:1 18422:1 18560:1 18659:1 18853:1 18861:1 18869:1 18874:1 18888:1 18897:1  |EV| 
0.10000000000000001 2484:1 8249:1 13830:1 15573:1 15613:1 15899:1 15980:1 17044:1 17148:1 17450:1 18298:1 18303:1 18309:1 18429:1 18544:1 18666:1 18853:1 18861:1 18869:1 18874:1 18888:1 18897:1  |EV| 
0.10000000000000001 3898:1 8952:1 14692:1 15563:1 15565:1 15566:1 15573:1 15598:1 15600:1 15613:1 15707:1 15866:1 16318:1 16817:1 16880:1 16882:1 16883:1 16884:1 17052:1 17148:1 18292:1 18303:1 18352:1 18430:1 18557:1 18660:1 18853:1 18864:1 18869:1 18874:1 18888:1 18897:1  |EV| 
-0.021648768757269354 3778:1 8814:1 14545:1 15563:1 15565:1 15566:1 15573:1 15588:1 15598:1 15600:1 15613:1 15723:1 15822:1 15866:1 15977:1 16002:1 16816:1 16817:1 16880:1 16882:1 16883:1 16884:1 16885:1 17089:1 17148:1 18294:1 18303:1 18367:1 18430:1 18575:1 18668:1 18853:1 18861:1 18869:1 18874:1 18888:1 18897:1  |EV| 
-0.065712289828528544 4022:1 9103:1 14861:1 15563:1 15565:1 15573:1 15588:1 15598:1 15600:1 15723:1 15822:1 15977:1 16002:1 16816:1 16817:1 16883:1 16884:1 16885:1 17044:1 17148:1 18294:1 18303:1 18338:1 18426:1 18586:1 18661:1 18853:1 18861:1 18869:1 18874:1 18878:1 18888:1 18897:1  |EV| 
-0.09680247507054271 3714:1 9214:1 14977:1 15565:1 15573:1 15588:1 15598:1 15822:1 15977:1 16816:1 16884:1 16885:1 17052:1 17148:1 18294:1 18303:1 18316:1 18430:1 18542:1 18659:1 18853:1 18861:1 18869:1 18874:1 18888:1 18897:1  |EV| 
-0.014035061927694345 1703:1 6424:1 11793:1 15563:1 15573:1 15582:1 15588:1 15600:1 15613:1 15717:1 15718:1 16146:1 16309:1 16310:1 16311:1 16312:1 16313:1 16314:1 16315:1 17045:1 17107:1 17148:1 17958:1 18133:1 18282:1 18298:1 18303:1 18324:1 18440:1 18547:1 18683:1 18853:1 18861:1 18869:1 18888:1 18897:1  |EV| 
-0.041222376044410411 4401:1 9534:1 15347:1 15566:1 15573:1 15587:1 15600:1 15626:1 15654:1 15694:1 15735:1 15836:1 16376:1 16980:1 16982:1 16983:1 16984:1 16985:1 16999:1 17000:1 17001:1 17144:1 17148:1 18282:1 18294:1 18303:1 18365:1 18430:1 18604:1 18716:1 18853:1 18864:1 18869:1 18874:1 18897:1  |EV| 
0.10000000000000001 3760:1 8796:1 14568:1 15882:1 15923:1 16873:1 17046:1 17148:1 17457:1 18292:1 18303:1 18315:1 18439:1 18544:1 18655:1 18853:1 18861:1 18869:1 18874:1 18888:1 18897:1  |EV| 
0.02986813633474757 3765:1 8801:1 9758:1 17052:1 17138:1 17148:1 17457:1 18283:1 18284:1 18292:1 18303:1 18315:1 18426:1 18547:1 18655:1 18853:1 18861:1 18869:1 18874:1 18888:1 18897:1  |EV| 
0.078997472579947187 1408:1 6132:1 11506:1 15582:1 15703:1 16187:1 16199:1 16219:1 17046:1 17074:1 17096:1 17148:1 17457:1 18284:1 18292:1 18303:1 18314:1 18439:1 18540:1 18655:1 18853:1 18861:1 18869:1 18874:1 18888:1 18897:1  |EV| 
0.037716274204719735 4536:1 9684:1 12396:1 15582:1 15681:1 17091:1 17148:1 17457:1 18292:1 18303:1 18315:1 18422:1 18556:1 18655:1 18853:1 18861:1 18869:1 18874:1 18888:1 18897:1  |EV| 
0.098450867892297983 2160:1 6937:1 12399:1 15582:1 15681:1 16456:1 17087:1 17148:1 17457:1 18292:1 18303:1 18315:1 18439:1 18544:1 18655:1 18853:1 18861:1 18869:1 18874:1 18888:1 18897:1  |EV| 
-0.10000000000000001 438:1 7394:1 12874:1 15573:1 16577:1 17042:1 17148:1 17457:1 18292:1 18303:1 18315:1 18422:1 18556:1 18655:1 18853:1 18861:1 18869:1 18874:1 18888:1 18897:1  |EV| 
-0.10000000000000001 613:1 5229:1 10536:1 15573:1 15579:1 15954:1 15956:1 17083:1 17148:1 17457:1 18292:1 18303:1 18314:1 18422:1 18546:1 18655:1 18853:1 18861:1 18869:1 18874:1 18888:1 18897:1  |EV| 
-0.028095461223721207 1106:1 5776:1 11127:1 15655:1 16130:1 17091:1 17148:1 17192:1 17450:1 17912:1 18093:1 18298:1 18303:1 18313:1 18439:1 18547:1 18666:1 18853:1 18861:1 18869:1 18874:1 18887:1 18888:1 18897:1  |EV| 
-0.10000000000000001 1118:1 5788:1 11136:1 15641:1 15655:1 16130:1 16132:1 17091:1 17148:1 17457:1 18292:1 18303:1 18311:1 18439:1 18546:1 18655:1 18853:1 18861:1 18869:1 18874:1 18888:1 18897:1  |EV| 
0.10000000000000001 1590:1 6297:1 11667:1 15563:1 15566:1 15588:1 15600:1 15845:1 16171:1 16174:1 16280:1 16281:1 16282:1 16283:1 16284:1 17091:1 17148:1 18294:1 18303:1 18332:1 18426:1 18580:1 18661:1 18853:1 18861:1 18869:1 18874:1 18888:1 18897:1  |EV| 
0.10000000000000001 341:1 4933:1 10103:1 15563:1 15573:1 15588:1 15757:1 15758:1 15771:1 17052:1 17148:1 18294:1 18303:1 18321:1 18430:1 18541:1 18657:1 18853:1 18861:1 18869:1 18874:1 18888:1 18897:1  |EV| 
0.10000000000000001 139:1 6185:1 11554:1 15565:1 15588:1 15598:1 16095:1 16250:1 16251:1 17052:1 17148:1 18294:1 18303:1 18321:1 18430:1 18541:1 18657:1 18853:1 18861:1 18869:1 18874:1 18888:1 18897:1  |EV| 
0.10000000000000001 1595:1 6302:1 11672:1 15563:1 15588:1 15600:1 15845:1 16131:1 16171:1 16174:1 16280:1 16281:1 16282:1 16283:1 16284:1 17044:1 17148:1 18294:1 18303:1 18332:1 18430:1 18568:1 18661:1 18853:1 18861:1 18869:1 18874:1 18888:1 18897:1  |EV| 
-0.035060746735676912 1585:1 6292:1 11662:1 15563:1 15588:1 15600:1 15605:1 15650:1 15845:1 16035:1 16131:1 16171:1 16174:1 16280:1 16281:1 16282:1 16283:1 16284:1 17044:1 17148:1 18294:1 18303:1 18338:1 18430:1 18552:1 18661:1 18853:1 18861:1 18869:1 18874:1 18888:1 18897:1  |EV| 
-0.063582691279011117 1582:1 6288:1 11658:1 15563:1 15566:1 15588:1 15600:1 15605:1 15650:1 15845:1 16035:1 16171:1 16174:1 16280:1 16281:1 16282:1 16283:1 16284:1 17091:1 17148:1 18294:1 18303:1 18338:1 18426:1 18586:1 18661:1 18853:1 18861:1 18869:1 18874:1 18888:1 18897:1  |EV| 
-0.10000000000000001 3060:1 7971:1 13495:1 15573:1 15582:1 15588:1 15626:1 15668:1 15684:1 16680:1 17056:1 17148:1 17490:1 18294:1 18303:1 18327:1 18426:1 18560:1 18657:1 18853:1 18861:1 18869:1 18874:1 18888:1 18897:1  |EV| 
-0.10000000000000001 3558:1 8557:1 14293:1 15563:1 15588:1 15732:1 16838:1 16839:1 16841:1 17136:1 17148:1 17546:1 18294:1 18303:1 18321:1 18426:1 18554:1 18657:1 18853:1 18861:1 18869:1 18874:1 18888:1 18897:1  |EV| 
-0.10000000000000001 896:1 5531:1 10847:1 15563:1 15573:1 15613:1 15836:1 15882:1 17078:1 17148:1 17495:1 18294:1 18303:1 18306:1 18426:1 18541:1 18657:1 18853:1 18861:1 18869:1 18874:1 18888:1 18897:1  |EV| 
0.10000000000000001 515:1 8253:1 13838:1 15573:1 15977:1 17042:1 17148:1 17457:1 18292:1 18303:1 18315:1 18422:1 18556:1 18655:1 18853:1 18861:1 18869:1 18874:1 18880:1 18888:1 18897:1  |EV| 
0.10000000000000001 515:1 8253:1 11254:1 15573:1 15783:1 17042:1 17148:1 17457:1 18292:1 18303:1 18315:1 18422:1 18556:1 18655:1 18853:1 18861:1 18869:1 18874:1 18880:1 18888:1 18897:1  |EV| 
0.10000000000000001 1247:1 5943:1 11317:1 15573:1 15598:1 15659:1 15660:1 15669:1 15683:1 17045:1 17074:1 17092:1 17093:1 17148:1 17457:1 18282:1 18292:1 18303:1 18315:1 18423:1 18555:1 18655:1 18853:1 18861:1 18869:1 18874:1 18888:1 18897:1  |EV| 
0.097221737128008606 89:1 4680:1 9826:1 15565:1 15573:1 15588:1 15598:1 15626:1 15691:1 15692:1 15693:1 15694:1 15695:1 15699:1 17055:1 17147:1 17457:1 18292:1 18303:1 18315:1 18440:1 18564:1 18681:1 18853:1 18861:1 18869:1 18874:1 18888:1 18897:1  |EV| 
-0.019702413557105787 1209:1 5904:1 11261:1 15669:1 17090:1 17148:1 17457:1 18292:1 18303:1 18315:1 18430:1 18539:1 18655:1 18853:1 18861:1 18869:1 18874:1 18897:1  |EV| 
-0.027343844533106808 3880:1 8930:1 14667:1 15573:1 15578:1 15783:1 15887:1 16388:1 16877:1 17052:1 17138:1 17148:1 17457:1 18283:1 18284:1 18292:1 18303:1 18315:1 18423:1 18555:1 18655:1 18853:1 18861:1 18869:1 18874:1 18888:1 18897:1  |EV| 
-0.0044929973041833082 4112:1 9220:1 14983:1 15573:1 15598:1 15613:1 15707:1 15866:1 16880:1 16882:1 17044:1 17148:1 17457:1 18292:1 18303:1 18315:1 18442:1 18550:1 18669:1 18853:1 18864:1 18869:1 18874:1 18888:1 18897:1  |EV| 
0.0034500336739385663 1359:1 6058:1 11438:1 15573:1 17094:1 17148:1 17457:1 18292:1 18303:1 18315:1 18430:1 18539:1 18655:1 18853:1 18861:1 18869:1 18874:1 18888:1 18897:1  |EV| 
-0.10000000000000001 1477:1 6181:1 11551:1 15563:1 15732:1 16220:1 16221:1 16222:1 17042:1 17148:1 17457:1 17544:1 17659:1 18272:1 18274:1 18292:1 18303:1 18315:1 18429:1 18540:1 18655:1 18853:1 18864:1 18869:1 18874:1 18888:1 18897:1  |EV| 
0.096128066370417278 1281:1 5978:1 11357:1 15563:1 15575:1 15582:1 15588:1 15617:1 15624:1 15753:1 15941:1 16157:1 16158:1 16159:1 16160:1 16161:1 17044:1 17148:1 18294:1 18303:1 18336:1 18426:1 18589:1 18661:1 18853:1 18861:1 18869:1 18874:1 18888:1 18897:1  |EV| 
0.10000000000000001 4220:1 9341:1 15114:1 15563:1 15566:1 15573:1 15576:1 15579:1 15807:1 15822:1 15868:1 15892:1 16598:1 16910:1 16940:1 17050:1 17083:1 17148:1 18282:1 18294:1 18303:1 18324:1 18426:1 18589:1 18661:1 18853:1 18861:1 18869:1 18874:1 18888:1 18897:1  |EV| 
0.10000000000000001 2771:1 7630:1 13243:1 15588:1 15668:1 15714:1 15715:1 16602:1 17046:1 17148:1 18294:1 18303:1 18306:1 18426:1 18541:1 18657:1 18853:1 18861:1 18869:1 18874:1 18888:1 18897:1  |EV| 
0.062687070836421319 1520:1 6226:1 11385:1 15588:1 17103:1 17148:1 18294:1 18303:1 18305:1 18426:1 18545:1 18657:1 18853:1 18861:1 18869:1 18874:1 18888:1 18897:1  |EV| 
0.10000000000000001 959:1 8696:1 14429:1 15582:1 15588:1 15628:1 16848:1 17089:1 17148:1 18294:1 18303:1 18312:1 18426:1 18551:1 18657:1 18853:1 18861:1 18869:1 18874:1 18888:1 18897:1  |EV| 
-0.10000000000000001 272:1 4865:1 10099:1 15565:1 15582:1 15588:1 15661:1 15684:1 15751:1 17059:1 17148:1 18294:1 18303:1 18321:1 18426:1 18554:1 18657:1 18853:1 18861:1 18869:1 18874:1 18880:1 18888:1 18897:1  |EV| 
-0.10000000000000001 411:1 5017:1 10197:1 15864:1 15871:1 17056:1 17074:1 17075:1 17076:1 17077:1 17148:1 17169:1 17518:1 17905:1 18048:1 18284:1 18294:1 18303:1 18321:1 18426:1 18548:1 18657:1 18853:1 18861:1 18869:1 18874:1 18888:1 18897:1  |EV| 
0.054208204268999485 1177:1 5868:1 14366:1 15573:1 15602:1 15624:1 15757:1 15962:1 16166:1 16444:1 16845:1 17042:1 17148:1 17457:1 18292:1 18303:1 18311:1 18438:1 18559:1 18662:1 18853:1 18861:1 18869:1 18874:1 18888:1 18897:1  |EV| 
-0.060274956264682523 489:1 5092:1 10453:1 15588:1 15600:1 15649:1 15862:1 17046:1 17148:1 17474:1 18294:1 18303:1 18312:1 18426:1 18551:1 18657:1 18853:1 18861:1 18869:1 18874:1 18888:1 18897:1  |EV| 
-0.036321221016337155 2087:1 6886:1 12347:1 15588:1 15634:1 15669:1 15732:1 16442:1 17042:1 17148:1 18294:1 18303:1 18306:1 18426:1 18541:1 18657:1 18853:1 18861:1 18869:1 18874:1 18888:1 18897:1  |EV| 
0.10000000000000001 3899:1 8953:1 14693:1 15563:1 15565:1 15566:1 15573:1 15598:1 15600:1 15613:1 15707:1 15723:1 15822:1 15866:1 16318:1 16816:1 16817:1 16880:1 16882:1 16883:1 16884:1 17140:1 17141:1 17148:1 18282:1 18283:1 18288:1 18292:1 18303:1 18352:1 18423:1 18599:1 18665:1 18853:1 18864:1 18869:1 18874:1 18888:1 18897:1  |EV| 
0.10000000000000001 180:1 4773:1 9921:1 15563:1 15582:1 15624:1 15643:1 15644:1 15645:1 15653:1 17042:1 17148:1 17457:1 18292:1 18303:1 18315:1 18444:1 18559:1 18662:1 18853:1 18861:1 18869:1 18874:1 18888:1 18897:1  |EV| 
0.10000000000000001 1474:1 6178:1 11548:1 15563:1 15732:1 16220:1 16221:1 16249:1 17042:1 17148:1 18272:1 18274:1 18292:1 18303:1 18307:1 18426:1 18540:1 18655:1 18853:1 18864:1 18869:1 18874:1 18888:1 18897:1  |EV| 
0.10000000000000001 364:1 4956:1 10131:1 15573:1 15578:1 15588:1 15634:1 15647:1 15688:1 15716:1 15774:1 15834:1 17042:1 17148:1 18292:1 18303:1 18319:1 18426:1 18550:1 18662:1 18853:1 18864:1 18869:1 18874:1 18888:1 18897:1  |EV| 
0.077190660796644522 2578:1 7419:1 12900:1 15563:1 15573:1 15613:1 16029:1 16035:1 17090:1 17148:1 17350:1 17655:1 17990:1 18180:1 18292:1 18303:1 18304:1 18439:1 18555:1 18655:1 18853:1 18861:1 18869:1 18874:1 18888:1 18891:1 18897:1  |EV| 
-0.10000000000000001 1434:1 6138:1 11512:1 15573:1 15598:1 15651:1 15659:1 16195:1 16196:1 17097:1 17148:1 18272:1 18274:1 18292:1 18303:1 18307:1 18430:1 18555:1 18655:1 18853:1 18861:1 18869:1 18874:1 18888:1  |EV| 
-0.10000000000000001 881:1 5516:1 10831:1 15563:1 16047:1 16048:1 17063:1 17148:1 17568:1 18292:1 18303:1 18315:1 18439:1 18544:1 18655:1 18853:1 18864:1 18869:1 18874:1 18888:1 18897:1  |EV| 
0.018910321612627904 1137:1 7786:1 13303:1 15606:1 16635:1 17091:1 17148:1 17457:1 18292:1 18303:1 18311:1 18430:1 18556:1 18655:1 18853:1 18861:1 18869:1 18874:1 18888:1 18897:1  |EV| 
-0.10000000000000001 4588:1 9738:1 15559:1 15563:1 15579:1 15602:1 15623:1 17032:1 17062:1 17148:1 18292:1 18303:1 18307:1 18426:1 18540:1 18655:1 18853:1 18861:1 18869:1 18874:1 18888:1 18897:1  |EV| 
-0.069406168153127348 1426:1 6128:1 11502:1 15565:1 15573:1 15588:1 15598:1 15651:1 15652:1 15659:1 16195:1 16196:1 16198:1 17052:1 17148:1 18272:1 18274:1 18292:1 18303:1 18307:1 18429:1 18576:1 18662:1 18853:1 18861:1 18869:1 18874:1 18888:1 18897:1  |EV| 
0.10000000000000001 50:1 5629:1 10963:1 15588:1 15742:1 16028:1 16085:1 16086:1 17045:1 17148:1 18294:1 18303:1 18321:1 18426:1 18554:1 18657:1 18853:1 18861:1 18869:1 18874:1 18888:1 18897:1  |EV| 
0.079816848585373912 2955:1 8168:1 13717:1 15588:1 15845:1 16759:1 17044:1 17148:1 18294:1 18303:1 18310:1 18430:1 18548:1 18657:1 18853:1 18861:1 18869:1 18874:1 18888:1 18897:1  |EV| 
0.10000000000000001 396:1 5576:1 10914:1 15565:1 15566:1 15783:1 16044:1 17071:1 17148:1 18294:1 18303:1 18312:1 18426:1 18551:1 18657:1 18853:1 18861:1 18869:1 18874:1 18878:1 18888:1 18897:1  |EV| 
0.10000000000000001 3240:1 8185:1 13740:1 15573:1 15588:1 15604:1 15626:1 16339:1 16475:1 17087:1 17148:1 18294:1 18303:1 18321:1 18426:1 18554:1 18657:1 18853:1 18861:1 18869:1 18874:1 18888:1 18897:1  |EV| 
0.10000000000000001 1281:1 5978:1 12180:1 15676:1 15700:1 15701:1 16317:1 17044:1 17148:1 18294:1 18303:1 18312:1 18426:1 18551:1 18657:1 18853:1 18861:1 18869:1 18874:1 18888:1 18897:1  |EV| 
-0.10000000000000001 3764:1 9118:1 14878:1 15573:1 16598:1 16880:1 17044:1 17148:1 18294:1 18303:1 18312:1 18430:1 18538:1 18657:1 18853:1 18861:1 18869:1 18874:1 18888:1 18897:1  |EV| 
-0.069510780107941053 505:1 5581:1 10922:1 15563:1 15566:1 15573:1 15586:1 15588:1 15624:1 15626:1 15690:1 15783:1 15823:1 15825:1 15866:1 15867:1 15887:1 15892:1 15977:1 16028:1 16029:1 16030:1 16031:1 16032:1 16033:1 16034:1 17064:1 17148:1 18294:1 18303:1 18373:1 18426:1 18617:1 18743:1 18853:1 18861:1 18869:1 18874:1 18888:1 18897:1  |EV| 
-0.10000000000000001 341:1 5773:1 11122:1 15649:1 16127:1 16128:1 16129:1 17052:1 17148:1 17546:1 18294:1 18303:1 18312:1 18426:1 18551:1 18657:1 18853:1 18861:1 18869:1 18874:1 18888:1 18897:1  |EV| 
-0.05987800065290487 2460:1 7269:1 12734:1 15573:1 15587:1 15588:1 16282:1 17045:1 17074:1 17116:1 17148:1 17471:1 18282:1 18294:1 18303:1 18327:1 18426:1 18541:1 18657:1 18853:1 18861:1 18869:1 18874:1 18888:1 18891:1 18897:1  |EV| 
-0.057966201419014131 3763:1 8799:1 14852:1 15573:1 15578:1 15582:1 15588:1 15729:1 15783:1 15982:1 16017:1 16886:1 16887:1 17059:1 17148:1 18294:1 18303:1 18333:1 18426:1 18595:1 18661:1 18853:1 18861:1 18869:1 18874:1 18888:1 18897:1  |EV| 
0.10000000000000001 3714:1 8848:1 14581:1 15574:1 15588:1 15804:1 16309:1 16626:1 17052:1 17148:1 18292:1 18303:1 18317:1 18422:1 18555:1 18655:1 18853:1 18861:1 18869:1 18874:1 18888:1 18897:1  |EV| 
0.10000000000000001 3380:1 8351:1 13980:1 15563:1 15573:1 15586:1 15587:1 15600:1 15780:1 15820:1 17052:1 17131:1 17148:1 18292:1 18303:1 18314:1 18429:1 18561:1 18655:1 18853:1 18861:1 18869:1 18874:1 18888:1 18897:1  |EV| 
0.10000000000000001 411:1 5004:1 10456:1 15573:1 15588:1 15634:1 15774:1 15841:1 15884:1 15885:1 17056:1 17074:1 17075:1 17076:1 17077:1 17148:1 18284:1 18292:1 18303:1 18326:1 18426:1 18561:1 18655:1 18853:1 18861:1 18869:1 18874:1 18888:1 18897:1  |EV| 
0.10000000000000001 3657:1 8683:1 15556:1 15563:1 15600:1 15741:1 16715:1 17038:1 17066:1 17148:1 17457:1 18292:1 18303:1 18315:1 18429:1 18540:1 18655:1 18853:1 18861:1 18869:1 18874:1 18888:1 18897:1  |EV| 
0.06653548666577401 2038:1 6798:1 12246:1 15573:1 15600:1 16001:1 16414:1 16415:1 17108:1 17148:1 18292:1 18303:1 18314:1 18439:1 18540:1 18655:1 18853:1 18861:1 18869:1 18874:1 18888:1 18897:1  |EV| 
-0.10000000000000001 3839:1 8986:1 14729:1 15574:1 15588:1 15804:1 16364:1 16626:1 17052:1 17148:1 18292:1 18303:1 18314:1 18427:1 18555:1 18655:1 18853:1 18861:1 18869:1 18874:1 18888:1 18897:1  |EV| 
-0.057398324546303496 3515:1 8508:1 14203:1 15588:1 15600:1 15747:1 15820:1 16265:1 16301:1 17042:1 17148:1 17457:1 18292:1 18303:1 18311:1 18429:1 18555:1 18655:1 18853:1 18861:1 18869:1 18874:1 18888:1 18897:1  |EV| 
-0.10000000000000001 3698:1 8731:1 14747:1 15574:1 15588:1 15804:1 16364:1 17120:1 17148:1 18292:1 18303:1 18314:1 18422:1 18546:1 18655:1 18853:1 18861:1 18869:1 18874:1 18888:1 18897:1  |EV| 
-0.06094186427018479 429:1 5023:1 10207:1 15573:1 15588:1 15634:1 15841:1 15870:1 15884:1 15885:1 17056:1 17074:1 17075:1 17076:1 17077:1 17148:1 17457:1 18284:1 18292:1 18303:1 18315:1 18438:1 18561:1 18655:1 18853:1 18861:1 18869:1 18874:1 18888:1 18897:1  |EV| 
-0.090241700711669287 397:1 8424:1 14277:1 15572:1 15600:1 15866:1 15901:1 16301:1 16822:1 17042:1 17148:1 18292:1 18303:1 18314:1 18429:1 18561:1 18655:1 18853:1 18861:1 18869:1 18874:1 18880:1 18888:1 18897:1  |EV| 
0.10000000000000001 3312:1 8310:1 13927:1 15655:1 16792:1 16799:1 17042:1 17148:1 18294:1 18303:1 18310:1 18426:1 18538:1 18657:1 18853:1 18861:1 18869:1 18874:1 18888:1 18897:1  |EV| 
0.075954562041283091 2698:1 7547:1 13033:1 15573:1 15759:1 17045:1 17148:1 18294:1 18303:1 18322:1 18426:1 18548:1 18657:1 18853:1 18861:1 18869:1 18874:1 18888:1 18897:1  |EV| 
0.086540019617079272 2874:1 7773:1 13873:1 15570:1 16256:1 16796:1 16797:1 17042:1 17148:1 18294:1 18303:1 18312:1 18430:1 18538:1 18657:1 18853:1 18861:1 18869:1 18874:1 18888:1 18897:1  |EV| 
0.081260589990715879 4582:1 9732:1 15553:1 15581:1 15582:1 17062:1 17148:1 17453:1 18294:1 18303:1 18322:1 18426:1 18548:1 18657:1 18853:1 18861:1 18869:1 18874:1 18888:1 18897:1  |EV| 
-0.0044879591766562327 506:1 5111:1 10381:1 15582:1 15619:1 15647:1 15698:1 15716:1 15867:1 15886:1 15887:1 17056:1 17148:1 17457:1 18292:1 18303:1 18315:1 18444:1 18559:1 18662:1 18853:1 18861:1 18869:1 18874:1 18888:1 18897:1  |EV| 
-0.024510409379438693 3804:1 8841:1 14777:1 15566:1 15573:1 15665:1 15707:1 15739:1 15747:1 15841:1 15844:1 15845:1 16117:1 16478:1 16888:1 17044:1 17148:1 18292:1 18303:1 18361:1 18430:1 18569:1 18660:1 18853:1 18861:1 18869:1 18874:1 18888:1 18897:1  |EV| 
-0.10000000000000001 2964:1 7869:1 13391:1 15563:1 15588:1 17121:1 17148:1 17495:1 18294:1 18303:1 18322:1 18426:1 18548:1 18657:1 18853:1 18861:1 18869:1 18874:1 18888:1 18897:1  |EV| 
-0.10000000000000001 1066:1 5735:1 11069:1 15600:1 15626:1 15676:1 15700:1 15701:1 15721:1 15748:1 15904:1 16101:1 16102:1 16103:1 16114:1 17087:1 17148:1 18292:1 18303:1 18334:1 18426:1 18569:1 18660:1 18853:1 18861:1 18869:1 18874:1 18888:1 18897:1  |EV| 
-0.10000000000000001 4189:1 9304:1 15187:1 15573:1 15613:1 15630:1 15836:1 15852:1 16256:1 16935:1 17065:1 17148:1 18294:1 18303:1 18327:1 18426:1 18560:1 18657:1 18853:1 18861:1 18869:1 18874:1 18880:1 18888:1 18897:1  |EV| 
-0.029818418699471397 3312:1 8310:1 13923:1 15566:1 15573:1 15600:1 15613:1 15626:1 15655:1 15822:1 15899:1 15980:1 16131:1 16791:1 16792:1 16799:1 17042:1 17148:1 18298:1 18303:1 18310:1 18453:1 18550:1 18667:1 18853:1 18861:1 18869:1 18874:1 18888:1 18897:1  |EV| 
0.10000000000000001 2730:1 7582:1 13425:1 15588:1 15613:1 15659:1 15660:1 17046:1 17148:1 17457:1 18292:1 18303:1 18315:1 18427:1 18546:1 18655:1 18853:1 18861:1 18869:1 18874:1 18888:1 18897:1  |EV| 
0.10000000000000001 694:1 5311:1 10621:1 15866:1 15891:1 15979:1 15980:1 17059:1 17148:1 17457:1 18292:1 18303:1 18315:1 18427:1 18546:1 18655:1 18853:1 18861:1 18869:1 18874:1 18878:1 18880:1 18888:1 18897:1  |EV| 
0.095931370347100239 2467:1 7276:1 12740:1 15578:1 15588:1 16558:1 17115:1 17148:1 17336:1 17496:1 17986:1 18175:1 18292:1 18303:1 18314:1 18430:1 18544:1 18655:1 18853:1 18864:1 18869:1 18874:1 18888:1 18894:1 18897:1  |EV| 
0.083834058648746948 4441:1 9577:1 15398:1 15588:1 16096:1 17003:1 17004:1 17084:1 17148:1 17457:1 18292:1 18303:1 18315:1 18427:1 18546:1 18655:1 18853:1 18861:1 18869:1 18874:1 18888:1 18897:1  |EV| 
0.10000000000000001 808:1 8392:1 14206:1 15573:1 15586:1 15588:1 15600:1 15820:1 15836:1 15893:1 16824:1 17133:1 17148:1 18296:1 18302:1 18314:1 18451:1 18553:1 18675:1 18853:1 18861:1 18869:1 18874:1 18888:1 18897:1  |EV| 
-0.074170418085322529 694:1 5311:1 10619:1 15582:1 15729:1 15836:1 15866:1 15891:1 15979:1 15980:1 15990:1 17059:1 17148:1 17457:1 18292:1 18303:1 18315:1 18444:1 18559:1 18662:1 18853:1 18861:1 18869:1 18874:1 18878:1 18880:1 18888:1 18897:1  |EV| 
-0.09003180779773573 4427:1 9561:1 15385:1 17002:1 17043:1 17148:1 17457:1 18296:1 18302:1 18315:1 18431:1 18545:1 18664:1 18853:1 18861:1 18869:1 18874:1 18888:1 18897:1  |EV| 
-0.10000000000000001 515:1 8253:1 14286:1 16570:1 17042:1 17148:1 17457:1 18296:1 18302:1 18315:1 18431:1 18545:1 18664:1 18853:1 18861:1 18869:1 18874:1 18888:1 18897:1  |EV| 
-0.10000000000000001 404:1 4997:1 10196:1 15566:1 15702:1 15860:1 15881:1 17072:1 17148:1 17457:1 18292:1 18303:1 18315:1 18427:1 18546:1 18655:1 18853:1 18861:1 18869:1 18874:1 18888:1 18897:1  |EV| 
-0.04744043341150439 1274:1 5970:1 11347:1 15563:1 15575:1 15582:1 15588:1 15617:1 15624:1 15753:1 15941:1 16157:1 16158:1 16159:1 16160:1 16161:1 17044:1 17148:1 17457:1 18296:1 18302:1 18315:1 18435:1 18589:1 18685:1 18853:1 18861:1 18869:1 18874:1 18888:1 18897:1  |EV| 
0.10000000000000001 1675:1 6395:1 11765:1 15563:1 15573:1 15588:1 15600:1 15613:1 16310:1 16311:1 16312:1 16313:1 16314:1 16315:1 17090:1 17148:1 17495:1 18294:1 18303:1 18333:1 18426:1 18595:1 18661:1 18853:1 18861:1 18869:1 18874:1 18888:1 18897:1  |EV| 
0.077486420865844632 3179:1 8165:1 13714:1 15563:1 15572:1 15573:1 15576:1 15579:1 15600:1 15634:1 15637:1 15654:1 15718:1 15735:1 15822:1 16455:1 16768:1 16769:1 16770:1 16774:1 17042:1 17148:1 18292:1 18303:1 18337:1 18426:1 18563:1 18688:1 18853:1 18861:1 18869:1 18874:1 18888:1 18897:1  |EV| 
0.055064710688167665 362:1 4954:1 10129:1 15563:1 15582:1 15588:1 15600:1 15626:1 15783:1 15827:1 15828:1 15829:1 15830:1 15831:1 15832:1 15833:1 17056:1 17069:1 17148:1 18283:1 18284:1 18292:1 18303:1 18346:1 18426:1 18566:1 18660:1 18853:1 18861:1 18869:1 18874:1 18888:1 18897:1  |EV| 
0.051639394944085842 2055:1 6820:1 12277:1 15563:1 15565:1 15566:1 15573:1 15579:1 15588:1 15598:1 15606:1 15626:1 15725:1 15865:1 15987:1 16351:1 16388:1 16402:1 16403:1 16404:1 16405:1 16406:1 16407:1 16408:1 16409:1 16410:1 16411:1 16412:1 16413:1 17042:1 17148:1 17711:1 17972:1 18152:1 18274:1 18292:1 18303:1 18363:1 18438:1 18603:1 18711:1 18853:1 18861:1 18869:1 18874:1 18888:1 18897:1  |EV| 
-0.10000000000000001 3488:1 8478:1 14147:1 15573:1 15582:1 15588:1 15600:1 15634:1 15783:1 15820:1 15828:1 16135:1 16640:1 16829:1 16830:1 17132:1 17148:1 18292:1 18303:1 18334:1 18426:1 18569:1 18660:1 18853:1 18861:1 18869:1 18874:1 18888:1 18897:1  |EV| 
-0.10000000000000001 3682:1 8714:1 14446:1 15573:1 15588:1 15600:1 15634:1 15783:1 15855:1 15916:1 16175:1 16575:1 16858:1 16861:1 16866:1 17042:1 17148:1 18292:1 18303:1 18346:1 18426:1 18566:1 18660:1 18853:1 18863:1 18869:1 18874:1 18888:1 18897:1  |EV| 
-0.10000000000000001 2532:1 7368:1 12841:1 15573:1 15578:1 15588:1 15667:1 15783:1 16282:1 16558:1 17115:1 17148:1 18292:1 18303:1 18320:1 18430:1 18561:1 18655:1 18853:1 18861:1 18869:1 18874:1 18888:1 18897:1  |EV| 
-0.10000000000000001 1820:1 6545:1 11922:1 15566:1 15573:1 15582:1 15600:1 15698:1 15710:1 15716:1 15783:1 16348:1 16354:1 16355:1 17090:1 17148:1 18292:1 18303:1 18361:1 18426:1 18567:1 18660:1 18853:1 18861:1 18869:1 18874:1 18888:1 18897:1  |EV| 
-0.071444196527786608 783:1 5410:1 10724:1 15563:1 15588:1 15600:1 15630:1 15637:1 15702:1 15716:1 15725:1 15923:1 15988:1 16001:1 16002:1 16003:1 16004:1 17086:1 17148:1 18292:1 18303:1 18318:1 18426:1 18558:1 18660:1 18853:1 18861:1 18869:1 18874:1 18888:1 18897:1  |EV| 
0.10000000000000001 86:1 4677:1 9960:1 15573:1 15588:1 15626:1 15646:1 15696:1 17053:1 17148:1 17457:1 18296:1 18302:1 18315:1 18437:1 18541:1 18664:1 18853:1 18861:1 18869:1 18874:1 18888:1 18897:1  |EV| 
0.10000000000000001 282:1 4875:1 10072:1 15711:1 15748:1 17053:1 17148:1 17457:1 18296:1 18302:1 18311:1 18421:1 18545:1 18664:1 18853:1 18861:1 18869:1 18874:1 18888:1 18897:1  |EV| 
0.047264322817210415 272:1 4865:1 9758:1 17059:1 17148:1 17457:1 18292:1 18303:1 18315:1 18426:1 18547:1 18655:1 18853:1 18861:1 18869:1 18874:1 18880:1 18888:1 18897:1  |EV| 
-0.054240523235779624 3746:1 8782:1 14514:1 15565:1 15588:1 17140:1 17141:1 17148:1 17457:1 18282:1 18283:1 18288:1 18296:1 18302:1 18315:1 18421:1 18548:1 18664:1 18853:1 18861:1 18869:1 18874:1 18888:1 18897:1  |EV| 
-0.029028973727864067 963:1 5697:1 11028:1 15588:1 15742:1 16028:1 16085:1 16086:1 17045:1 17148:1 17457:1 18296:1 18302:1 18315:1 18443:1 18554:1 18664:1 18853:1 18861:1 18869:1 18874:1 18888:1 18897:1  |EV| 
-0.10000000000000001 397:1 4990:1 13814:1 15570:1 16796:1 16797:1 17042:1 17148:1 17457:1 18296:1 18302:1 18315:1 18434:1 18538:1 18664:1 18853:1 18861:1 18869:1 18874:1 18888:1 18897:1  |EV| 
-0.057365032702738163 3289:1 8239:1 13817:1 15570:1 15600:1 16796:1 16797:1 17063:1 17148:1 17457:1 18296:1 18302:1 18315:1 18424:1 18551:1 18664:1 18853:1 18861:1 18869:1 18874:1 18888:1 18897:1  |EV| 
-0.093713552225186403 3175:1 8103:1 13653:1 17103:1 17148:1 17367:1 17457:1 17998:1 18195:1 18296:1 18302:1 18315:1 18428:1 18549:1 18664:1 18853:1 18861:1 18869:1 18874:1 18888:1 18897:1  |EV| 
0.10000000000000001 1026:1 7694:1 15520:1 15582:1 15587:1 15588:1 15656:1 15681:1 15690:1 15791:1 15923:1 16131:1 16166:1 16443:1 17026:1 17027:1 17059:1 17148:1 18292:1 18303:1 18355:1 18426:1 18570:1 18660:1 18853:1 18861:1 18869:1 18874:1 18888:1 18897:1  |EV| 
0.10000000000000001 378:1 4971:1 10144:1 15563:1 15566:1 15573:1 15582:1 15600:1 15707:1 15721:1 15739:1 15820:1 15828:1 15836:1 15838:1 15839:1 15840:1 15841:1 17070:1 17148:1 18292:1 18303:1 18352:1 18426:1 18572:1 18660:1 18853:1 18861:1 18869:1 18874:1 18888:1 18891:1 18897:1  |EV| 
0.10000000000000001 1407:1 6108:1 11484:1 15565:1 15573:1 15588:1 15598:1 15651:1 15659:1 16195:1 16196:1 16197:1 16198:1 17052:1 17148:1 17458:1 17465:1 18272:1 18274:1 18292:1 18303:1 18350:1 18426:1 18576:1 18660:1 18853:1 18861:1 18869:1 18874:1 18888:1 18897:1  |EV| 
0.059459445188613784 931:1 5585:1 10926:1 15563:1 15573:1 15582:1 15588:1 15638:1 15770:1 15812:1 15813:1 16064:1 16065:1 16066:1 16067:1 17048:1 17148:1 18292:1 18303:1 18346:1 18426:1 18566:1 18660:1 18853:1 18861:1 18869:1 18874:1 18888:1 18897:1  |EV| 
0.089484830006934024 3580:1 8602:1 14370:1 15582:1 15600:1 15690:1 15717:1 15718:1 15923:1 16166:1 16526:1 17095:1 17148:1 18292:1 18303:1 18308:1 18430:1 18550:1 18662:1 18853:1 18861:1 18869:1 18874:1 18888:1 18897:1  |EV| 
-0.033950052868224785 4156:1 9320:1 15213:1 15563:1 15573:1 15579:1 15582:1 15600:1 15605:1 15606:1 15634:1 15637:1 15669:1 15756:1 15820:1 15834:1 15845:1 15852:1 15923:1 16064:1 16388:1 16922:1 16923:1 16924:1 16925:1 16926:1 16927:1 17089:1 17148:1 18292:1 18303:1 18347:1 18426:1 18611:1 18688:1 18853:1 18861:1 18869:1 18874:1 18888:1 18897:1  |EV| 
-0.10000000000000001 1608:1 8077:1 13617:1 15582:1 15600:1 15636:1 15680:1 15735:1 15751:1 15777:1 16747:1 17045:1 17148:1 18292:1 18303:1 18319:1 18426:1 18550:1 18662:1 18853:1 18861:1 18869:1 18874:1 18888:1 18897:1  |EV| 
-0.087888371354020903 3109:1 8023:1 13550:1 15563:1 15579:1 15588:1 15600:1 15605:1 15741:1 15770:1 16353:1 16717:1 16719:1 17117:1 17148:1 18292:1 18303:1 18308:1 18422:1 18576:1 18662:1 18853:1 18861:1 18869:1 18874:1 18888:1 18897:1  |EV| 
-0.10000000000000001 2252:1 7036:1 12560:1 15573:1 15588:1 15605:1 15626:1 15682:1 15847:1 16379:1 16487:1 16488:1 17043:1 17148:1 18292:1 18303:1 18350:1 18426:1 18576:1 18660:1 18853:1 18861:1 18869:1 18874:1 18888:1 18897:1  |EV| 
0.10000000000000001 1358:1 6057:1 11437:1 15565:1 15566:1 15573:1 15598:1 16180:1 16181:1 17042:1 17147:1 17450:1 18298:1 18303:1 18313:1 18438:1 18546:1 18666:1 18853:1 18861:1 18869:1 18874:1 18888:1 18897:1  |EV| 
-0.10000000000000001 1366:1 6065:1 11445:1 15573:1 17094:1 17147:1 17450:1 18299:1 18303:1 18313:1 18430:1 18565:1 18666:1 18853:1 18861:1 18869:1 18874:1 18888:1 18897:1  |EV| 
-0.062409701078241335 3181:1 8140:1 13692:1 15606:1 15631:1 15634:1 15834:1 16767:1 16771:1 17124:1 17148:1 18295:1 18303:1 18326:1 18421:1 18556:1 18663:1 18853:1 18861:1 18869:1 18874:1 18888:1 18897:1  |EV| 
-0.0063457598925564579 1056:1 5725:1 11057:1 15588:1 16100:1 17089:1 17148:1 17608:1 18268:1 18292:1 18303:1 18314:1 18426:1 18544:1 18655:1 18853:1 18861:1 18869:1 18874:1 18897:1  |EV| 
-0.019555320468497762 1473:1 6177:1 11547:1 15563:1 16220:1 16221:1 16249:1 17101:1 17148:1 18272:1 18274:1 18295:1 18303:1 18307:1 18421:1 18547:1 18663:1 18853:1 18864:1 18869:1 18874:1 18888:1 18897:1  |EV| 
-0.10000000000000001 1026:1 7694:1 13474:1 15588:1 16684:1 17059:1 17148:1 18298:1 18303:1 18313:1 18439:1 18547:1 18666:1 18853:1 18861:1 18869:1 18874:1 18888:1 18897:1  |EV| 
0.10000000000000001 489:1 5092:1 10341:1 15600:1 15634:1 15757:1 15798:1 15834:1 15860:1 15861:1 17046:1 17148:1 18292:1 18303:1 18319:1 18426:1 18550:1 18662:1 18853:1 18861:1 18869:1 18874:1 18888:1 18897:1  |EV| 
0.10000000000000001 346:1 4938:1 10108:1 15572:1 15582:1 15588:1 15600:1 15635:1 15644:1 15710:1 15735:1 15741:1 15777:1 15778:1 15779:1 15780:1 15781:1 15782:1 17067:1 17148:1 18295:1 18303:1 18354:1 18432:1 18558:1 18695:1 18853:1 18861:1 18869:1 18874:1 18888:1 18897:1  |EV| 
0.10000000000000001 3853:1 8900:1 14632:1 15563:1 15573:1 15574:1 15613:1 15665:1 15804:1 15984:1 16191:1 17046:1 17148:1 18292:1 18303:1 18320:1 18422:1 18559:1 18662:1 18853:1 18861:1 18869:1 18874:1 18888:1 18897:1  |EV| 
0.087022470247484912 3381:1 8352:1 13981:1 15563:1 15573:1 15600:1 15613:1 15783:1 15890:1 15892:1 16806:1 16811:1 17129:1 17148:1 18292:1 18303:1 18350:1 18426:1 18576:1 18660:1 18853:1 18861:1 18869:1 18874:1 18880:1 18888:1 18897:1  |EV| 
0.04077149025636205 3415:1 8389:1 14021:1 15572:1 15600:1 15866:1 15881:1 16301:1 16822:1 17042:1 17148:1 18292:1 18303:1 18326:1 18426:1 18561:1 18655:1 18853:1 18861:1 18869:1 18874:1 18888:1 18897:1  |EV| 
-0.076557450249131576 268:1 4861:1 10014:1 15572:1 15582:1 15588:1 15600:1 15635:1 15644:1 15735:1 15741:1 15777:1 15778:1 15779:1 15780:1 15781:1 15782:1 17067:1 17148:1 17496:1 18292:1 18303:1 18317:1 18459:1 18558:1 18669:1 18853:1 18861:1 18869:1 18874:1 18888:1 18897:1  |EV| 
-0.10000000000000001 3760:1 8796:1 14528:1 15563:1 15573:1 15574:1 15613:1 15645:1 15804:1 15984:1 16191:1 17046:1 17148:1 17457:1 18292:1 18303:1 18315:1 18444:1 18559:1 18662:1 18853:1 18861:1 18869:1 18874:1 18888:1 18897:1  |EV| 
-0.10000000000000001 489:1 5092:1 10449:1 15600:1 15634:1 15757:1 15798:1 15834:1 15860:1 15861:1 17046:1 17148:1 18292:1 18303:1 18304:1 18423:1 18550:1 18662:1 18853:1 18861:1 18869:1 18874:1 18888:1 18897:1  |EV| 
-0.10000000000000001 3743:1 8779:1 14511:1 15563:1 15573:1 15574:1 15645:1 15804:1 15984:1 17046:1 17047:1 17148:1 17457:1 18283:1 18292:1 18303:1 18315:1 18423:1 18555:1 18655:1 18853:1 18861:1 18869:1 18874:1 18888:1 18897:1  |EV| 
0.10000000000000001 1360:1 6059:1 10130:1 15573:1 17044:1 17147:1 17450:1 18298:1 18303:1 18313:1 18422:1 18543:1 18666:1 18853:1 18861:1 18869:1 18874:1 18888:1 18897:1  |EV| 
0.074242987875380598 3681:1 8713:1 10130:1 15573:1 17044:1 17148:1 17450:1 18298:1 18303:1 18313:1 18422:1 18543:1 18666:1 18853:1 18861:1 18869:1 18874:1 18888:1 18897:1  |EV| 
0.10000000000000001 2910:1 7836:1 13358:1 15626:1 17050:1 17083:1 17148:1 17453:1 18298:1 18303:1 18313:1 18422:1 18543:1 18666:1 18853:1 18861:1 18869:1 18874:1 18888:1 18897:1  |EV| 
0.043456562592247922 2425:1 7224:1 10130:1 15573:1 17042:1 17148:1 17450:1 18298:1 18303:1 18313:1 18422:1 18543:1 18666:1 18853:1 18861:1 18869:1 18874:1 18888:1 18897:1  |EV| 
0.10000000000000001 2036:1 6795:1 12242:1 15563:1 16422:1 17110:1 17148:1 18295:1 18303:1 18304:1 18428:1 18547:1 18663:1 18853:1 18861:1 18869:1 18874:1 18888:1 18897:1  |EV| 
-0.0096811878384307718 3378:1 8349:1 13979:1 15563:1 15573:1 15613:1 15783:1 15890:1 15892:1 16806:1 17042:1 17119:1 17130:1 17148:1 18282:1 18295:1 18303:1 18350:1 18437:1 18547:1 18699:1 18853:1 18861:1 18869:1 18874:1 18880:1 18888:1 18897:1  |EV| 
-0.10000000000000001 376:1 5353:1 13822:1 15655:1 16792:1 17042:1 17148:1 17450:1 18293:1 18303:1 18309:1 18431:1 18538:1 18656:1 18853:1 18861:1 18869:1 18874:1 18888:1 18897:1  |EV| 
-0.10000000000000001 2019:1 6776:1 12222:1 15563:1 15565:1 15572:1 15573:1 15579:1 15581:1 15598:1 15626:1 15819:1 15852:1 16228:1 16392:1 16393:1 16394:1 16395:1 16396:1 16397:1 16398:1 17042:1 17148:1 17665:1 18292:1 18303:1 18355:1 18429:1 18587:1 18665:1 18853:1 18861:1 18869:1 18874:1 18888:1 18891:1 18897:1  |EV| 
-0.029504409839352933 733:1 5356:1 10669:1 15890:1 15975:1 15976:1 17084:1 17148:1 17499:1 18298:1 18303:1 18305:1 18427:1 18547:1 18666:1 18853:1 18861:1 18869:1 18874:1 18888:1 18897:1  |EV| 
-0.016018758987818446 1475:1 6179:1 11549:1 15588:1 15703:1 15989:1 17042:1 17148:1 17656:1 17657:1 18273:1 18274:1 18292:1 18303:1 18304:1 18426:1 18544:1 18655:1 18853:1 18863:1 18869:1 18874:1 18887:1 18897:1  |EV| 
0.080221592671888012 401:1 4994:1 10169:1 15573:1 15588:1 15626:1 15716:1 15867:1 15878:1 15879:1 17073:1 17148:1 17516:1 18292:1 18303:1 18326:1 18430:1 18559:1 18662:1 18853:1 18864:1 18869:1 18874:1 18888:1 18889:1 18891:1 18897:1  |EV| 
0.035816118235832008 4318:1 9451:1 15255:1 15588:1 15735:1 15741:1 15923:1 16028:1 16544:1 16977:1 16978:1 16979:1 16980:1 17043:1 17148:1 18274:1 18292:1 18303:1 18326:1 18439:1 18576:1 18662:1 18853:1 18864:1 18869:1 18874:1 18888:1 18897:1  |EV| 
0.087525693420599349 1922:1 6660:1 12060:1 15563:1 15566:1 15582:1 15588:1 15623:1 15847:1 15922:1 16112:1 16376:1 16377:1 16378:1 16381:1 16382:1 17045:1 17148:1 17457:1 18292:1 18303:1 18361:1 18439:1 18570:1 18660:1 18853:1 18861:1 18869:1 18874:1 18888:1 18897:1  |EV| 
0.085799341081683966 3255:1 8200:1 13756:1 15573:1 15588:1 15696:1 15741:1 16080:1 16291:1 16544:1 16787:1 17046:1 17113:1 17127:1 17148:1 17457:1 18282:1 18292:1 18303:1 18315:1 18444:1 18559:1 18662:1 18853:1 18861:1 18869:1 18874:1 18888:1 18897:1  |EV| 
0.10000000000000001 1900:1 6635:1 12030:1 15566:1 15573:1 15600:1 16348:1 16354:1 16355:1 17064:1 17148:1 17457:1 18292:1 18303:1 18315:1 18423:1 18555:1 18655:1 18853:1 18861:1 18869:1 18874:1 18888:1 18897:1  |EV| 
-0.086651477892398368 2950:1 7852:1 13373:1 15572:1 15582:1 15588:1 15626:1 15633:1 15716:1 15735:1 15922:1 15933:1 16003:1 16049:1 16651:1 16652:1 16653:1 17050:1 17083:1 17148:1 18292:1 18303:1 18334:1 18422:1 18570:1 18660:1 18853:1 18861:1 18869:1 18874:1 18888:1 18897:1  |EV| 
-0.10000000000000001 2347:1 7136:1 12604:1 15573:1 15588:1 15712:1 15735:1 16010:1 16282:1 17063:1 17148:1 17752:1 18292:1 18303:1 18320:1 18426:1 18555:1 18655:1 18853:1 18864:1 18869:1 18874:1 18880:1 18888:1 18897:1  |EV| 
-0.10000000000000001 3789:1 9055:1 14989:1 15563:1 15573:1 15588:1 16282:1 17089:1 17148:1 17457:1 18292:1 18303:1 18315:1 18427:1 18546:1 18655:1 18853:1 18861:1 18869:1 18874:1 18888:1 18897:1  |EV| 
0.10000000000000001 2065:1 6834:1 12301:1 15563:1 15565:1 15572:1 15573:1 15579:1 15581:1 15598:1 15626:1 15819:1 15852:1 16228:1 16392:1 16393:1 16394:1 16395:1 16396:1 16397:1 16427:1 17042:1 17148:1 18292:1 18303:1 18328:1 18430:1 18587:1 18665:1 18853:1 18861:1 18869:1 18874:1 18888:1 18891:1 18897:1  |EV| 
0.095277461258886725 3185:1 8116:1 13667:1 16173:1 17103:1 17148:1 17369:1 17499:1 17998:1 18195:1 18294:1 18303:1 18305:1 18430:1 18549:1 18657:1 18853:1 18861:1 18869:1 18874:1 18888:1 18897:1  |EV| 
-0.014851227441153319 4357:1 9490:1 15294:1 15566:1 15573:1 15587:1 15626:1 15654:1 16376:1 16982:1 16983:1 16984:1 16985:1 17144:1 17148:1 18282:1 18294:1 18303:1 18332:1 18430:1 18584:1 18661:1 18853:1 18864:1 18869:1 18874:1 18894:1 18897:1  |EV| 
-0.091749513411952782 3639:1 8664:1 14397:1 15573:1 15582:1 15613:1 15626:1 15668:1 17095:1 17147:1 17916:1 18224:1 18294:1 18303:1 18306:1 18430:1 18551:1 18657:1 18853:1 18861:1 18869:1 18874:1 18888:1 18897:1  |EV| 
0.10000000000000001 1208:1 5903:1 11258:1 15563:1 15573:1 15576:1 15588:1 15602:1 15617:1 15647:1 15729:1 15757:1 15759:1 15783:1 16150:1 17079:1 17148:1 17457:1 18292:1 18303:1 18315:1 18453:1 18558:1 18669:1 18853:1 18861:1 18869:1 18874:1 18888:1 18897:1  |EV| 
0.10000000000000001 113:1 5897:1 11251:1 15563:1 15573:1 15576:1 15588:1 15602:1 15617:1 15647:1 15706:1 15729:1 15757:1 15759:1 15783:1 16150:1 17059:1 17148:1 17457:1 18292:1 18303:1 18315:1 18441:1 18572:1 18669:1 18853:1 18861:1 18869:1 18874:1 18888:1 18897:1  |EV| 
0.10000000000000001 1593:1 6300:1 11670:1 15573:1 15588:1 15741:1 15783:1 16291:1 16292:1 16293:1 16294:1 17063:1 17148:1 18294:1 18303:1 18316:1 18427:1 18541:1 18659:1 18853:1 18861:1 18869:1 18874:1 18888:1 18897:1  |EV| 
0.10000000000000001 3917:1 8975:1 14753:1 15574:1 15588:1 15804:1 16309:1 17120:1 17148:1 18292:1 18303:1 18317:1 18426:1 18546:1 18655:1 18853:1 18861:1 18869:1 18874:1 18888:1 18897:1  |EV| 
0.10000000000000001 2825:1 7702:1 13211:1 15563:1 15573:1 15582:1 15588:1 15770:1 15774:1 15941:1 16159:1 16619:1 16620:1 17059:1 17148:1 18292:1 18303:1 18361:1 18426:1 18567:1 18660:1 18853:1 18861:1 18869:1 18874:1 18888:1 18897:1  |EV| 
-0.046356011068662779 685:1 6303:1 11673:1 15573:1 15588:1 15722:1 15741:1 15783:1 16064:1 16256:1 16291:1 16292:1 16293:1 16294:1 17042:1 17148:1 18298:1 18303:1 18316:1 18452:1 18539:1 18683:1 18853:1 18861:1 18869:1 18874:1 18888:1 18897:1  |EV| 
-0.10000000000000001 1790:1 6511:1 12036:1 15563:1 15588:1 15600:1 15602:1 15638:1 15641:1 15732:1 15798:1 15868:1 16132:1 16156:1 16349:1 16350:1 16351:1 16352:1 16353:1 17042:1 17148:1 18292:1 18303:1 18352:1 18426:1 18572:1 18660:1 18853:1 18861:1 18869:1 18874:1 18888:1 18897:1  |EV| 
-0.075262643358195713 3094:1 8005:1 13528:1 15573:1 15585:1 15588:1 15644:1 15686:1 15741:1 15893:1 16455:1 16715:1 16716:1 17045:1 17148:1 17457:1 18292:1 18303:1 18315:1 18433:1 18576:1 18669:1 18853:1 18861:1 18869:1 18874:1 18888:1 18897:1  |EV| 
-0.083308255756367716 349:1 4941:1 10113:1 15588:1 15605:1 15722:1 15739:1 15740:1 15741:1 15747:1 15775:1 15776:1 17061:1 17148:1 18292:1 18303:1 18326:1 18422:1 18550:1 18662:1 18853:1 18861:1 18869:1 18874:1 18888:1 18897:1  |EV| 
-0.056537785721974904 2979:1 7885:1 13404:1 15563:1 15588:1 15600:1 15669:1 16141:1 16370:1 16681:1 17050:1 17083:1 17148:1 17495:1 18284:1 18294:1 18303:1 18316:1 18426:1 18542:1 18659:1 18853:1 18861:1 18869:1 18874:1 18888:1 18897:1  |EV| 
0.10000000000000001 4324:1 9457:1 15261:1 15566:1 15570:1 15582:1 15626:1 15716:1 15735:1 16223:1 16224:1 16225:1 16226:1 16227:1 16228:1 16981:1 17042:1 17148:1 18292:1 18303:1 18308:1 18429:1 18566:1 18662:1 18853:1 18864:1 18869:1 18874:1 18888:1 18897:1  |EV| 
-0.10000000000000001 709:1 5326:1 10646:1 15582:1 15729:1 15836:1 15859:1 15866:1 15891:1 15979:1 15980:1 17059:1 17148:1 18292:1 18303:1 18308:1 18426:1 18559:1 18662:1 18853:1 18861:1 18869:1 18874:1 18888:1 18897:1  |EV| 
-0.10000000000000001 2241:1 7025:1 12490:1 15563:1 15624:1 15626:1 15824:1 15838:1 16132:1 16156:1 16462:1 16510:1 17043:1 17148:1 17457:1 18268:1 18292:1 18303:1 18317:1 18423:1 18567:1 18662:1 18853:1 18861:1 18869:1 18874:1 18888:1 18897:1  |EV| 
-0.10000000000000001 4004:1 9082:1 14833:1 15578:1 15582:1 15588:1 15600:1 15680:1 15739:1 15911:1 16664:1 17048:1 17148:1 18292:1 18303:1 18308:1 18426:1 18559:1 18662:1 18853:1 18861:1 18869:1 18874:1 18888:1 18897:1  |EV| 
0.10000000000000001 934:1 7927:1 13451:1 15588:1 15613:1 15659:1 15660:1 15668:1 15714:1 15715:1 16602:1 17043:1 17148:1 17457:1 18292:1 18303:1 18315:1 18442:1 18550:1 18669:1 18853:1 18861:1 18869:1 18874:1 18888:1 18897:1  |EV| 
0.10000000000000001 728:1 5348:1 10661:1 15563:1 15573:1 15579:1 15581:1 15588:1 15619:1 15634:1 15686:1 15688:1 15693:1 15981:1 15982:1 15983:1 15992:1 15993:1 15994:1 15995:1 15996:1 15997:1 15998:1 15999:1 17043:1 17148:1 18294:1 18303:1 18339:1 18426:1 18593:1 18668:1 18853:1 18861:1 18869:1 18874:1 18888:1 18897:1  |EV| 
0.021787754838066161 896:1 5531:1 14565:1 15882:1 17078:1 17148:1 17457:1 18292:1 18303:1 18315:1 18430:1 18539:1 18655:1 18853:1 18861:1 18869:1 18874:1 18888:1 18897:1  |EV| 
0.045671845995995886 3180:1 8145:1 13697:1 15606:1 15631:1 15634:1 15834:1 16766:1 16767:1 16771:1 17123:1 17148:1 18292:1 18303:1 18326:1 18426:1 18561:1 18655:1 18853:1 18861:1 18869:1 18874:1 18888:1 18897:1  |EV| 
-0.10000000000000001 4542:1 9690:1 15514:1 15582:1 15588:1 15681:1 15791:1 16131:1 17043:1 17148:1 17457:1 18292:1 18303:1 18315:1 18429:1 18540:1 18655:1 18853:1 18861:1 18869:1 18874:1 18888:1 18897:1  |EV| 
-0.10000000000000001 476:1 5075:1 10290:1 15563:1 15858:1 15859:1 17071:1 17148:1 17457:1 18292:1 18303:1 18315:1 18439:1 18544:1 18655:1 18853:1 18861:1 18869:1 18874:1 18880:1 18888:1 18897:1  |EV| 
-0.10000000000000001 2149:1 6924:1 12386:1 15588:1 15819:1 15886:1 17091:1 17148:1 17457:1 18292:1 18303:1 18315:1 18439:1 18544:1 18655:1 18853:1 18861:1 18869:1 18874:1 18888:1 18897:1  |EV| 
0.060860842389868247 2289:1 7074:1 12543:1 15563:1 15617:1 15624:1 15626:1 15824:1 15838:1 15886:1 16132:1 16462:1 16510:1 17043:1 17148:1 18292:1 18303:1 18361:1 18426:1 18567:1 18660:1 18853:1 18861:1 18869:1 18874:1 18888:1 18897:1  |EV| 
0.10000000000000001 1627:1 6346:1 11721:1 15573:1 15588:1 15706:1 15729:1 15791:1 16298:1 16299:1 16304:1 17059:1 17148:1 18292:1 18303:1 18308:1 18426:1 18559:1 18662:1 18853:1 18861:1 18869:1 18874:1 18888:1 18897:1  |EV| 
0.10000000000000001 272:1 4865:1 13621:1 15563:1 15588:1 15626:1 15710:1 15732:1 15867:1 15962:1 16157:1 16441:1 16746:1 17059:1 17148:1 18292:1 18303:1 18350:1 18426:1 18576:1 18660:1 18853:1 18861:1 18869:1 18874:1 18888:1 18897:1  |EV| 
0.10000000000000001 396:1 5578:1 10917:1 15563:1 15573:1 15586:1 15588:1 15600:1 15626:1 15774:1 15783:1 15886:1 16027:1 16044:1 16045:1 17071:1 17148:1 18292:1 18303:1 18334:1 18426:1 18569:1 18660:1 18853:1 18861:1 18869:1 18874:1 18888:1 18897:1  |EV| 
-0.070845278078898052 2776:1 7637:1 13137:1 15563:1 15573:1 15582:1 15588:1 15605:1 15706:1 15732:1 15770:1 15774:1 15783:1 15880:1 15941:1 16159:1 16619:1 16620:1 17059:1 17148:1 18292:1 18303:1 18328:1 18426:1 18564:1 18665:1 18853:1 18861:1 18869:1 18874:1 18888:1 18897:1  |EV| 
-0.0026215824758559856 1590:1 6330:1 15441:1 15582:1 15588:1 15681:1 16443:1 17091:1 17148:1 18295:1 18303:1 18307:1 18428:1 18556:1 18663:1 18853:1 18861:1 18869:1 18874:1 18888:1 18897:1  |EV| 
-0.012954370601653961 264:1 4857:1 10010:1 15573:1 15588:1 15635:1 15759:1 15774:1 17062:1 17148:1 18295:1 18303:1 18320:1 18421:1 18539:1 18663:1 18853:1 18864:1 18869:1 18874:1 18888:1 18897:1  |EV| 
-0.093917651210701988 3805:1 8842:1 14767:1 15566:1 15573:1 15665:1 15707:1 15739:1 15747:1 15841:1 15844:1 16117:1 16478:1 16888:1 17048:1 17148:1 18292:1 18303:1 18361:1 18426:1 18567:1 18660:1 18853:1 18861:1 18869:1 18874:1 18888:1 18897:1  |EV| 
-0.10000000000000001 2383:1 7178:1 12644:1 15573:1 15588:1 16478:1 16560:1 17046:1 17148:1 18294:1 18303:1 18312:1 18426:1 18551:1 18657:1 18853:1 18864:1 18869:1 18874:1 18888:1 18897:1  |EV| 
0.10000000000000001 2449:1 7256:1 12716:1 15572:1 15582:1 16556:1 17043:1 17148:1 17457:1 18292:1 18303:1 18315:1 18439:1 18544:1 18655:1 18853:1 18861:1 18869:1 18874:1 18888:1 18897:1  |EV| 
0.022469763813655206 247:1 4840:1 10082:1 15582:1 15806:1 15807:1 17042:1 17148:1 17457:1 18292:1 18303:1 18315:1 18439:1 18544:1 18655:1 18853:1 18861:1 18869:1 18874:1 18888:1 18897:1  |EV| 
0.083203510228144373 3453:1 8436:1 14087:1 15804:1 15984:1 16823:1 17088:1 17148:1 17457:1 18292:1 18303:1 18315:1 18439:1 18544:1 18655:1 18853:1 18861:1 18869:1 18874:1 18888:1 18897:1  |EV| 
-0.090929449622099701 515:1 5551:1 10874:1 15563:1 15573:1 15586:1 15588:1 15600:1 15626:1 15665:1 15774:1 15783:1 15859:1 16027:1 16044:1 16045:1 17042:1 17148:1 17457:1 18292:1 18303:1 18315:1 18452:1 18566:1 18669:1 18853:1 18861:1 18869:1 18874:1 18888:1 18897:1  |EV| 
0.10000000000000001 262:1 4855:1 10008:1 15573:1 15588:1 15723:1 15758:1 17066:1 17148:1 18294:1 18303:1 18312:1 18426:1 18551:1 18657:1 18853:1 18861:1 18869:1 18874:1 18888:1 18897:1  |EV| 
0.10000000000000001 81:1 4672:1 9818:1 15563:1 15588:1 15673:1 15674:1 15675:1 15676:1 15677:1 15678:1 17055:1 17148:1 17473:1 18294:1 18303:1 18342:1 18426:1 18584:1 18661:1 18853:1 18864:1 18869:1 18874:1 18888:1 18897:1  |EV| 
-0.069685712090394938 1127:1 5801:1 11148:1 15563:1 15649:1 15656:1 15723:1 16059:1 16118:1 16119:1 16120:1 16127:1 16128:1 16129:1 17043:1 17148:1 17615:1 18294:1 18303:1 18333:1 18426:1 18595:1 18661:1 18853:1 18861:1 18869:1 18874:1 18888:1 18897:1  |EV| 
-0.10000000000000001 2306:1 7091:1 10630:1 15582:1 17046:1 17148:1 17151:1 17453:1 17895:1 18032:1 18294:1 18303:1 18305:1 18426:1 18545:1 18657:1 18853:1 18864:1 18869:1 18874:1 18888:1 18889:1 18894:1 18897:1  |EV| 
-0.0070606523049064132 4187:1 9302:1 15066:1 15563:1 15573:1 15576:1 15600:1 15613:1 15638:1 15836:1 15852:1 16386:1 16947:1 16948:1 16949:1 17063:1 17148:1 18292:1 18303:1 18355:1 18426:1 18570:1 18660:1 18853:1 18863:1 18869:1 18874:1 18889:1 18897:1  |EV| 
0.10000000000000001 515:1 7381:1 12851:1 15573:1 16096:1 16572:1 16573:1 16574:1 17042:1 17148:1 17457:1 18292:1 18303:1 18315:1 18429:1 18540:1 18655:1 18853:1 18861:1 18869:1 18874:1 18888:1 18897:1  |EV| 
-0.010639436546123576 4108:1 9215:1 14978:1 15563:1 15565:1 15566:1 15573:1 15598:1 15600:1 15613:1 15707:1 15723:1 15822:1 15866:1 16002:1 16816:1 16817:1 16880:1 16882:1 16883:1 16884:1 17140:1 17141:1 17148:1 17457:1 18282:1 18283:1 18288:1 18292:1 18303:1 18315:1 18481:1 18599:1 18670:1 18853:1 18864:1 18869:1 18874:1 18888:1 18897:1  |EV| 
-0.10000000000000001 2278:1 7063:1 12534:1 15588:1 15753:1 16157:1 16493:1 16500:1 17046:1 17148:1 17457:1 18292:1 18303:1 18311:1 18427:1 18540:1 18655:1 18853:1 18861:1 18869:1 18874:1 18888:1 18897:1  |EV| 
-0.10000000000000001 1655:1 6375:1 11745:1 15573:1 15582:1 15588:1 15606:1 15651:1 15691:1 15706:1 15714:1 15715:1 15774:1 17062:1 17148:1 17457:1 18292:1 18303:1 18311:1 18442:1 18576:1 18669:1 18853:1 18861:1 18869:1 18874:1 18888:1 18897:1  |EV| 
-0.038190198409774154 1029:1 5692:1 11023:1 15573:1 15588:1 15623:1 15626:1 15729:1 15759:1 16068:1 16069:1 16070:1 16071:1 17043:1 17148:1 17457:1 18292:1 18303:1 18315:1 18433:1 18576:1 18669:1 18853:1 18861:1 18869:1 18874:1 18888:1 18897:1  |EV| 
-0.015841298616049521 776:1 5403:1 10715:1 16006:1 17086:1 17148:1 17194:1 17450:1 17914:1 18065:1 18294:1 18303:1 18305:1 18426:1 18545:1 18657:1 18853:1 18861:1 18869:1 18874:1 18892:1 18897:1  |EV| 
0.10000000000000001 1310:1 6007:1 11385:1 15588:1 17091:1 17148:1 18294:1 18303:1 18305:1 18426:1 18545:1 18657:1 18853:1 18861:1 18869:1 18874:1 18888:1 18897:1  |EV| 
0.10000000000000001 2183:1 6962:1 11385:1 15588:1 17091:1 17148:1 18294:1 18303:1 18305:1 18426:1 18545:1 18657:1 18853:1 18861:1 18869:1 18874:1 18888:1 18897:1  |EV| 
-0.094139170484202173 4300:1 9432:1 15236:1 15573:1 16292:1 16961:1 17063:1 17148:1 17450:1 18294:1 18303:1 18310:1 18426:1 18538:1 18657:1 18853:1 18861:1 18869:1 18874:1 18892:1 18897:1  |EV| 
0.10000000000000001 2294:1 7079:1 12548:1 15588:1 15665:1 15753:1 16157:1 16493:1 17046:1 17148:1 18292:1 18303:1 18307:1 18426:1 18540:1 18655:1 18853:1 18861:1 18869:1 18874:1 18888:1 18897:1  |EV| 
0.099471128522432645 1638:1 6358:1 11729:1 15573:1 15582:1 15588:1 15606:1 15651:1 15691:1 15706:1 15714:1 15715:1 16308:1 17062:1 17148:1 18292:1 18303:1 18308:1 18422:1 18576:1 18662:1 18853:1 18861:1 18869:1 18874:1 18888:1 18897:1  |EV| 
0.10000000000000001 2038:1 6797:1 12244:1 15563:1 15573:1 15588:1 15600:1 15927:1 16001:1 16350:1 16380:1 16389:1 16390:1 16414:1 16415:1 17109:1 17148:1 18292:1 18303:1 18314:1 18459:1 18566:1 18669:1 18853:1 18861:1 18869:1 18874:1 18888:1 18897:1  |EV| 
0.10000000000000001 3805:1 8842:1 14575:1 15739:1 17048:1 17148:1 17457:1 18292:1 18303:1 18311:1 18426:1 18539:1 18655:1 18853:1 18861:1 18869:1 18874:1 18888:1 18897:1  |EV| 
0.10000000000000001 1026:1 7694:1 13203:1 15582:1 15647:1 15656:1 15729:1 15920:1 16035:1 16292:1 16622:1 16625:1 17059:1 17148:1 18292:1 18303:1 18308:1 18430:1 18550:1 18662:1 18853:1 18861:1 18869:1 18874:1 18888:1 18897:1  |EV| 
-0.10000000000000001 3486:1 8476:1 14145:1 15588:1 15597:1 15600:1 15747:1 15820:1 16301:1 17042:1 17148:1 18292:1 18303:1 18320:1 18426:1 18555:1 18655:1 18853:1 18861:1 18869:1 18874:1 18888:1 18897:1  |EV| 
-0.10000000000000001 315:1 4864:1 10068:1 15563:1 15579:1 15588:1 15676:1 15677:1 15729:1 15804:1 15805:1 15811:1 17065:1 17148:1 18292:1 18303:1 18319:1 18426:1 18550:1 18662:1 18853:1 18861:1 18869:1 18874:1 18888:1 18897:1  |EV| 
-0.10000000000000001 423:1 5016:1 10195:1 15582:1 15619:1 15647:1 15698:1 15716:1 15867:1 15887:1 15890:1 17056:1 17148:1 18292:1 18303:1 18320:1 18422:1 18559:1 18662:1 18853:1 18861:1 18869:1 18874:1 18888:1 18897:1  |EV| 
0.10000000000000001 341:1 5773:1 11126:1 15563:1 15573:1 15587:1 15588:1 15656:1 15698:1 15759:1 16025:1 16118:1 16119:1 16120:1 16122:1 16123:1 16124:1 16125:1 16126:1 17052:1 17148:1 18292:1 18303:1 18354:1 18426:1 18557:1 18660:1 18853:1 18861:1 18869:1 18874:1 18888:1 18897:1  |EV| 
0.027995906399211033 1388:1 6087:1 11464:1 15573:1 15588:1 15777:1 16204:1 16205:1 17079:1 17148:1 17457:1 17508:1 18272:1 18292:1 18303:1 18320:1 18426:1 18555:1 18655:1 18853:1 18861:1 18869:1 18874:1 18888:1 18897:1  |EV| 
0.10000000000000001 324:1 4916:1 10083:1 15563:1 15605:1 17064:1 17148:1 17457:1 18292:1 18303:1 18314:1 18426:1 18556:1 18655:1 18853:1 18861:1 18869:1 18874:1 18888:1 18897:1  |EV| 
0.049880745679774893 3818:1 8860:1 14593:1 15578:1 15588:1 17048:1 17148:1 17417:1 17496:1 18017:1 18237:1 18292:1 18303:1 18314:1 18426:1 18556:1 18655:1 18853:1 18861:1 18869:1 18874:1 18888:1 18892:1 18897:1  |EV| 
0.10000000000000001 1127:1 5801:1 11177:1 15573:1 15588:1 15698:1 15759:1 16122:1 16123:1 16124:1 16125:1 16126:1 17043:1 17148:1 18292:1 18303:1 18350:1 18426:1 18576:1 18660:1 18853:1 18861:1 18869:1 18874:1 18888:1 18897:1  |EV| 
-0.10000000000000001 392:1 4985:1 10463:1 15566:1 15702:1 15860:1 15901:1 17072:1 17148:1 17532:1 18292:1 18303:1 18317:1 18426:1 18546:1 18655:1 18853:1 18861:1 18869:1 18874:1 18888:1 18897:1  |EV| 
-0.10000000000000001 2955:1 7858:1 9758:1 17044:1 17148:1 17493:1 18292:1 18303:1 18315:1 18426:1 18547:1 18655:1 18853:1 18861:1 18869:1 18874:1 18897:1  |EV| 
-0.10000000000000001 3184:1 8115:1 13665:1 16159:1 16173:1 16274:1 17043:1 17148:1 17499:1 18298:1 18303:1 18305:1 18427:1 18547:1 18666:1 18853:1 18861:1 18869:1 18874:1 18888:1 18897:1  |EV| 
-0.066743785665468014 4304:1 9437:1 12215:1 15716:1 17044:1 17148:1 17160:1 17496:1 17900:1 18212:1 18292:1 18303:1 18311:1 18426:1 18539:1 18655:1 18853:1 18864:1 18869:1 18874:1 18897:1  |EV| 
0.10000000000000001 4420:1 9554:1 15379:1 15573:1 15706:1 15923:1 16141:1 16402:1 16988:1 16990:1 16991:1 17042:1 17148:1 18292:1 18303:1 18317:1 18427:1 18559:1 18662:1 18853:1 18861:1 18869:1 18874:1 18888:1 18897:1  |EV| 
0.10000000000000001 3934:1 8996:1 14875:1 15573:1 15582:1 15588:1 15600:1 15732:1 15823:1 15827:1 15841:1 15844:1 15868:1 16892:1 16893:1 16900:1 17090:1 17148:1 18292:1 18303:1 18346:1 18426:1 18566:1 18660:1 18853:1 18861:1 18869:1 18874:1 18888:1 18897:1  |EV| 
-0.10000000000000001 4369:1 9502:1 15352:1 15573:1 15706:1 15923:1 16141:1 16402:1 16989:1 16990:1 16991:1 17042:1 17148:1 17467:1 18292:1 18303:1 18311:1 18438:1 18559:1 18662:1 18853:1 18861:1 18869:1 18874:1 18888:1 18897:1  |EV| 
-0.10000000000000001 4158:1 9270:1 15034:1 15563:1 15573:1 15576:1 15582:1 15688:1 15706:1 15973:1 16173:1 16700:1 17087:1 17148:1 17457:1 18292:1 18303:1 18311:1 18444:1 18550:1 18662:1 18853:1 18861:1 18869:1 18874:1 18888:1 18897:1  |EV| 
0.076971357622674041 417:1 5010:1 9758:1 17072:1 17148:1 17457:1 18292:1 18303:1 18315:1 18426:1 18547:1 18655:1 18853:1 18861:1 18869:1 18874:1 18878:1 18880:1 18888:1 18897:1  |EV| 
0.10000000000000001 423:1 5057:1 10261:1 15867:1 17056:1 17148:1 17450:1 18298:1 18303:1 18309:1 18422:1 18547:1 18666:1 18853:1 18861:1 18869:1 18874:1 18888:1 18897:1  |EV| 
0.012519979271940538 1641:1 6361:1 11732:1 15573:1 15923:1 16328:1 16329:1 17042:1 17148:1 18266:1 18269:1 18292:1 18303:1 18317:1 18426:1 18540:1 18655:1 18853:1 18861:1 18869:1 18874:1 18888:1 18897:1  |EV| 
0.10000000000000001 2336:1 7123:1 12591:1 15735:1 17063:1 17148:1 17665:1 18292:1 18303:1 18311:1 18426:1 18539:1 18655:1 18853:1 18863:1 18869:1 18874:1 18880:1 18888:1 18897:1  |EV| 
0.061818911796100745 397:1 4990:1 10165:1 15563:1 15665:1 15857:1 15858:1 17042:1 17148:1 18292:1 18303:1 18304:1 18430:1 18546:1 18655:1 18853:1 18861:1 18869:1 18874:1 18880:1 18888:1 18897:1  |EV| 
0.016137559610316436 2584:1 7427:1 12908:1 15819:1 17046:1 17148:1 17457:1 18292:1 18303:1 18315:1 18430:1 18539:1 18655:1 18853:1 18861:1 18869:1 18874:1 18888:1 18897:1  |EV| 
-0.045711529104464556 1433:1 6137:1 11511:1 15565:1 15588:1 15652:1 15659:1 16198:1 17052:1 17147:1 17574:1 18292:1 18303:1 18315:1 18429:1 18540:1 18655:1 18853:1 18861:1 18869:1 18874:1 18888:1 18897:1  |EV| 
0.076242039001519629 3450:1 8432:1 14084:1 15563:1 15573:1 15588:1 15600:1 15822:1 15886:1 16722:1 16831:1 17046:1 17148:1 18292:1 18303:1 18319:1 18426:1 18550:1 18662:1 18853:1 18861:1 18869:1 18874:1 18888:1 18897:1  |EV| 
0.10000000000000001 698:1 7736:1 13251:1 15573:1 15600:1 15613:1 15619:1 15715:1 15798:1 16626:1 17042:1 17148:1 18292:1 18303:1 18314:1 18423:1 18559:1 18662:1 18853:1 18861:1 18869:1 18874:1 18888:1 18897:1  |EV| 
-0.055280211120729741 345:1 4937:1 10107:1 15563:1 15573:1 15588:1 15710:1 15723:1 15757:1 15758:1 15771:1 17064:1 17148:1 18298:1 18303:1 18321:1 18442:1 18547:1 18679:1 18853:1 18861:1 18869:1 18874:1 18888:1 18897:1  |EV| 
0.10000000000000001 990:1 5717:1 15435:1 15582:1 15588:1 15681:1 16131:1 16443:1 17043:1 17148:1 18292:1 18303:1 18307:1 18426:1 18540:1 18655:1 18853:1 18861:1 18869:1 18874:1 18888:1 18897:1  |EV| 
0.083135540331666868 4242:1 9364:1 15151:1 15582:1 15688:1 15973:1 16173:1 17079:1 17148:1 17457:1 18292:1 18303:1 18311:1 18439:1 18546:1 18655:1 18853:1 18861:1 18869:1 18874:1 18888:1 18897:1  |EV| 
-0.073129977097785945 4372:1 9505:1 15322:1 16992:1 17042:1 17148:1 17888:1 18292:1 18303:1 18311:1 18426:1 18539:1 18655:1 18853:1 18861:1 18869:1 18874:1 18897:1  |EV| 
-0.059004682350970006 3567:1 8581:1 11749:1 15606:1 17136:1 17148:1 17457:1 18292:1 18303:1 18311:1 18426:1 18539:1 18655:1 18853:1 18861:1 18869:1 18874:1 18897:1  |EV| 
-0.064066429622885931 1150:1 5830:1 11188:1 15573:1 15588:1 15698:1 15759:1 16025:1 16123:1 16124:1 16125:1 16126:1 17043:1 17148:1 17457:1 18292:1 18303:1 18315:1 18433:1 18576:1 18669:1 18853:1 18861:1 18869:1 18874:1 18888:1 18897:1  |EV| 
0.040306992793349754 958:1 5613:1 10950:1 15588:1 16068:1 17042:1 17148:1 18294:1 18303:1 18322:1 18426:1 18548:1 18657:1 18853:1 18861:1 18869:1 18874:1 18888:1 18897:1  |EV| 
0.10000000000000001 1361:1 7752:1 13266:1 15572:1 15588:1 15637:1 15645:1 15804:1 15839:1 16146:1 16318:1 16629:1 16630:1 17044:1 17148:1 17504:1 18292:1 18303:1 18326:1 18439:1 18576:1 18662:1 18853:1 18861:1 18869:1 18874:1 18888:1 18897:1  |EV| 
0.061301144050544466 4156:1 9320:1 15087:1 15582:1 15600:1 15606:1 16064:1 16927:1 17089:1 17148:1 18292:1 18303:1 18307:1 18426:1 18540:1 18655:1 18853:1 18861:1 18869:1 18874:1 18888:1 18897:1  |EV| 
0.0050686847555565812 2292:1 7077:1 12546:1 15588:1 16072:1 16386:1 16477:1 16514:1 17045:1 17148:1 18292:1 18303:1 18320:1 18426:1 18555:1 18655:1 18853:1 18861:1 18869:1 18874:1 18888:1 18897:1  |EV| 
-0.10000000000000001 2939:1 7841:1 13362:1 15563:1 15588:1 15605:1 16031:1 16676:1 17043:1 17148:1 18292:1 18303:1 18307:1 18426:1 18540:1 18655:1 18853:1 18861:1 18869:1 18874:1 18888:1 18891:1 18897:1  |EV| 
-0.034268336310969032 373:1 4965:1 10140:1 15563:1 15582:1 15600:1 15820:1 15828:1 15836:1 17070:1 17148:1 18292:1 18303:1 18326:1 18426:1 18561:1 18655:1 18853:1 18863:1 18869:1 18874:1 18887:1 18897:1  |EV| 
-0.10000000000000001 2298:1 7083:1 12553:1 15582:1 15588:1 15613:1 15665:1 15716:1 15753:1 15783:1 16157:1 16493:1 16500:1 17073:1 17148:1 18292:1 18303:1 18350:1 18426:1 18576:1 18660:1 18853:1 18861:1 18869:1 18874:1 18888:1 18897:1  |EV| 
-0.10000000000000001 3179:1 8109:1 13658:1 15573:1 15587:1 15633:1 15739:1 15746:1 15884:1 15885:1 15890:1 17042:1 17148:1 18292:1 18303:1 18308:1 18426:1 18559:1 18662:1 18853:1 18861:1 18869:1 18874:1 18888:1 18897:1  |EV| 
-0.027400291012776072 3417:1 8391:1 14022:1 15572:1 15600:1 15881:1 16301:1 16822:1 17072:1 17148:1 18295:1 18303:1 18326:1 18421:1 18556:1 18663:1 18853:1 18861:1 18869:1 18874:1 18888:1 18897:1  |EV| 
-0.013156443453410868 3889:1 8943:1 14683:1 15563:1 15565:1 15573:1 15598:1 15600:1 15613:1 15707:1 15866:1 16318:1 16817:1 16880:1 16882:1 16883:1 17044:1 17148:1 18295:1 18303:1 18352:1 18424:1 18550:1 18695:1 18853:1 18864:1 18869:1 18874:1 18888:1 18897:1  |EV| 
0.067965884414520866 3162:1 8090:1 13640:1 15566:1 15588:1 16759:1 17048:1 17148:1 18294:1 18303:1 18310:1 18426:1 18538:1 18657:1 18853:1 18861:1 18869:1 18874:1 18888:1 18897:1  |EV| 
0.075597974576920315 1392:1 6091:1 11469:1 15573:1 15588:1 15601:1 17087:1 17148:1 18294:1 18303:1 18310:1 18426:1 18538:1 18657:1 18853:1 18861:1 18869:1 18874:1 18888:1 18897:1  |EV| 
-0.014315736352593769 1029:1 7684:1 13222:1 15563:1 15588:1 15613:1 15668:1 15697:1 15714:1 15715:1 15779:1 16601:1 16602:1 17043:1 17148:1 18293:1 18303:1 18327:1 18434:1 18580:1 18680:1 18853:1 18861:1 18869:1 18874:1 18888:1 18897:1  |EV| 
-0.020607877975823363 2174:1 7603:1 13097:1 15563:1 15587:1 15588:1 15613:1 15668:1 15697:1 15714:1 15715:1 15779:1 16048:1 16075:1 16283:1 16601:1 16602:1 17059:1 17148:1 18298:1 18303:1 18332:1 18455:1 18539:1 18683:1 18853:1 18861:1 18869:1 18874:1 18888:1 18897:1  |EV| 
0.10000000000000001 109:1 7290:1 12753:1 15868:1 16183:1 16568:1 16569:1 17045:1 17148:1 17457:1 18292:1 18303:1 18315:1 18427:1 18546:1 18655:1 18853:1 18861:1 18869:1 18874:1 18888:1 18897:1  |EV| 
-0.10000000000000001 4149:1 9260:1 9758:1 17048:1 17148:1 17457:1 18292:1 18303:1 18315:1 18426:1 18547:1 18655:1 18853:1 18861:1 18869:1 18874:1 18897:1  |EV| 
-0.059178998768948672 424:1 5053:1 10253:1 15582:1 15619:1 15647:1 15716:1 17064:1 17148:1 17450:1 18293:1 18303:1 18309:1 18434:1 18541:1 18656:1 18853:1 18861:1 18869:1 18874:1 18888:1 18897:1  |EV| 
-0.090871304129859318 3194:1 8126:1 13677:1 15573:1 15633:1 15739:1 15884:1 15885:1 17043:1 17148:1 18294:1 18303:1 18306:1 18426:1 18541:1 18657:1 18853:1 18861:1 18869:1 18874:1 18888:1 18897:1  |EV| 
-0.088058326668070924 1138:1 5816:1 11162:1 15641:1 15655:1 15880:1 16131:1 16132:1 17044:1 17148:1 18292:1 18303:1 18317:1 18430:1 18540:1 18655:1 18853:1 18861:1 18869:1 18874:1 18888:1 18897:1  |EV| 
-0.0047829001635913485 2345:1 7134:1 12602:1 15573:1 15588:1 15712:1 15735:1 16282:1 16535:1 17063:1 17148:1 17665:1 18292:1 18303:1 18311:1 18429:1 18555:1 18655:1 18853:1 18864:1 18869:1 18874:1 18878:1 18888:1 18897:1  |EV| 
-0.051152062152210118 4205:1 9321:1 15088:1 15563:1 15565:1 15572:1 15573:1 15579:1 15582:1 15588:1 15598:1 15600:1 15624:1 15719:1 15792:1 15823:1 15868:1 15927:1 15962:1 15984:1 16103:1 16542:1 16911:1 16912:1 16913:1 16914:1 16915:1 16916:1 17042:1 17148:1 18292:1 18303:1 18304:1 18484:1 18577:1 18740:1 18853:1 18861:1 18869:1 18874:1 18888:1 18897:1  |EV| 
-0.10000000000000001 2078:1 6848:1 12314:1 15563:1 15573:1 15582:1 15588:1 15613:1 15623:1 15819:1 15865:1 15886:1 16295:1 16448:1 16449:1 16450:1 16451:1 16452:1 16453:1 16454:1 17091:1 17148:1 18292:1 18303:1 18354:1 18439:1 18563:1 18665:1 18853:1 18861:1 18869:1 18874:1 18888:1 18897:1  |EV| 
-0.017479989204087418 4200:1 9315:1 15082:1 15563:1 15565:1 15572:1 15573:1 15579:1 15582:1 15598:1 15600:1 15624:1 15719:1 15792:1 15823:1 15868:1 15927:1 15984:1 16103:1 16542:1 16911:1 16912:1 16913:1 16914:1 17087:1 17148:1 18292:1 18303:1 18304:1 18446:1 18574:1 18670:1 18853:1 18861:1 18869:1 18874:1 18888:1 18897:1  |EV| 
-0.082035678232573961 4220:1 9341:1 15172:1 15563:1 15566:1 15573:1 15576:1 15579:1 15688:1 15807:1 15822:1 15834:1 15868:1 15892:1 16598:1 16910:1 16940:1 17050:1 17083:1 17148:1 17457:1 18282:1 18296:1 18302:1 18314:1 18471:1 18589:1 18685:1 18853:1 18861:1 18869:1 18874:1 18888:1 18897:1  |EV| 
-0.075859407885343941 232:1 4825:1 9978:1 15563:1 15572:1 15573:1 15582:1 15588:1 15626:1 15644:1 15654:1 15673:1 15674:1 15675:1 15676:1 15677:1 15678:1 15679:1 15680:1 15681:1 17055:1 17148:1 18294:1 18303:1 18365:1 18426:1 18582:1 18668:1 18853:1 18861:1 18869:1 18874:1 18888:1 18897:1  |EV| 
0.10000000000000001 2279:1 7064:1 12215:1 15716:1 17073:1 17148:1 18292:1 18303:1 18311:1 18426:1 18539:1 18655:1 18853:1 18864:1 18869:1 18874:1 18888:1 18889:1 18894:1 18897:1  |EV| 
0.10000000000000001 3854:1 8901:1 14633:1 15563:1 15573:1 15574:1 15665:1 15804:1 15984:1 17046:1 17047:1 17148:1 18283:1 18292:1 18303:1 18320:1 18426:1 18555:1 18655:1 18853:1 18861:1 18869:1 18874:1 18888:1 18897:1  |EV| 
0.10000000000000001 4418:1 9552:1 15372:1 15573:1 15600:1 15638:1 15665:1 15702:1 16992:1 17042:1 17148:1 17457:1 18292:1 18303:1 18320:1 18426:1 18555:1 18655:1 18853:1 18864:1 18869:1 18874:1 18888:1 18891:1 18897:1  |EV| 
