SVM-light Version V5.01-TK-1.2
0 # kernel type
3 # kernel parameter -d 
1 # kernel parameter -g 
1 # kernel parameter -s 
1 # kernel parameter -r 
empty# kernel parameter -u 
0.4 # kernel parameter -L 
1 # kernel parameter -T 
T # kernel parameter -C 
1 # kernel parameter -F 
0 # kernel parameter -S 
1.000000 # kernel parameter -D 
3 # kernel parameter -N 
S # kernel parameter -V 
S # kernel parameter -W 
61821 # highest feature index 
20965 # number of training documents 
559 # number of support vectors plus 1 
2.4149795 # threshold b, each following line is a SV (starting with alpha*y)
-0.01 1:1 15392:1 32986:1 53428:1 55339:1 56270:1 57876:1 61044:1 61053:1 61054:1 61199:1 61344:1 61486:1 61775:1 61782:1 61789:1 61793:1 61804:1 61815:1 61816:1  |EV| 
-0.01 2279:1 17853:1 35907:1 53430:1 53438:1 53466:1 53474:1 53531:1 53541:1 53569:1 53622:1 53803:1 53969:1 53992:1 53994:1 53995:1 53999:1 54000:1 54001:1 55563:1 56270:1 61044:1 61053:1 61070:1 61223:1 61364:1 61488:1 61775:1 61782:1 61788:1 61793:1 61804:1 61818:1  |EV| 
-0.01 12009:1 29063:1 48824:1 53433:1 53438:1 53449:1 53466:1 53473:1 53488:1 53506:1 53626:1 53648:1 54009:1 54018:1 54019:1 55060:1 55061:1 55475:1 56270:1 61049:1 61053:1 61072:1 61209:1 61345:1 61498:1 61775:1 61782:1 61788:1 61793:1 61804:1 61818:1  |EV| 
-0.0075355003554472997 8439:1 24974:1 44073:1 53428:1 53519:1 53710:1 55864:1 56270:1 57876:1 61044:1 61053:1 61054:1 61201:1 61348:1 61486:1 61775:1 61782:1 61790:1 61793:1 61804:1 61821:1  |EV| 
-0.01 5120:1 21053:1 39576:1 53430:1 53438:1 53446:1 53447:1 53453:1 53457:1 53462:1 53474:1 53513:1 53710:1 53786:1 53787:1 53896:1 53899:1 54135:1 54199:1 54361:1 54362:1 54363:1 54364:1 54365:1 54369:1 55771:1 56270:1 61045:1 61053:1 61109:1 61257:1 61345:1 61518:1 61775:1 61782:1 61789:1 61793:1 61804:1 61818:1  |EV| 
0.048892759962071611 59:1 15450:1 33044:1 53433:1 55356:1 56271:1 56291:1 58445:1 59067:1 61050:1 61053:1 61089:1 61199:1 61343:1 61505:1 61775:1 61781:1 61789:1 61793:1 61794:1 61803:1 61804:1 61815:1 61818:1  |EV| 
0.029776749472055167 322:1 15727:1 33327:1 53433:1 53453:1 53488:1 53578:1 53616:1 55405:1 56270:1 61044:1 61053:1 61074:1 61200:1 61378:1 61486:1 61775:1 61782:1 61789:1 61793:1 61804:1 61818:1  |EV| 
0.043451508218164257 364:1 15769:1 33429:1 53430:1 53433:1 53457:1 53484:1 53513:1 53595:1 53596:1 53597:1 53598:1 53621:1 55415:1 56270:1 61044:1 61053:1 61068:1 61201:1 61350:1 61500:1 61775:1 61782:1 61789:1 61793:1 61804:1 61818:1  |EV| 
0.047194669914660835 548:1 15959:1 33604:1 53433:1 53438:1 53479:1 53539:1 53659:1 53670:1 53671:1 53672:1 55429:1 56270:1 61044:1 61053:1 61069:1 61200:1 61346:1 61500:1 61775:1 61784:1 61789:1 61793:1 61804:1 61818:1  |EV| 
0.088624337590022292 1199:1 16801:1 34671:1 53452:1 53474:1 53767:1 55356:1 56270:1 57881:1 61045:1 61053:1 61087:1 61204:1 61345:1 61505:1 61775:1 61782:1 61789:1 61793:1 61804:1 61818:1  |EV| 
-0.01 1199:1 16657:1 34463:1 53452:1 53453:1 53474:1 53506:1 53553:1 53555:1 53766:1 53767:1 53841:1 55356:1 56270:1 61044:1 61053:1 61069:1 61204:1 61350:1 61500:1 61775:1 61782:1 61789:1 61793:1 61804:1 61818:1  |EV| 
-0.01 462:1 15870:1 33496:1 53430:1 53433:1 53438:1 53457:1 53475:1 53484:1 53513:1 53595:1 53596:1 53597:1 53598:1 53621:1 55415:1 56270:1 61044:1 61053:1 61067:1 61201:1 61367:1 61500:1 61775:1 61782:1 61789:1 61793:1 61818:1  |EV| 
-0.01 772:1 16187:1 33869:1 53433:1 53438:1 53479:1 53539:1 53670:1 53671:1 53672:1 53716:1 55429:1 56270:1 57876:1 61044:1 61053:1 61061:1 61227:1 61346:1 61500:1 61775:1 61784:1 61789:1 61793:1 61804:1 61818:1  |EV| 
-0.01 13318:1 30593:1 51103:1 53433:1 53438:1 53449:1 53453:1 53464:1 53473:1 53525:1 53584:1 53597:1 53678:1 53694:1 53710:1 53728:1 53729:1 53745:1 53981:1 54008:1 54245:1 54606:1 54997:1 55134:1 55136:1 55400:1 56270:1 61044:1 61053:1 61120:1 61200:1 61407:1 61534:1 61775:1 61782:1 61789:1 61793:1 61804:1 61818:1  |EV| 
-0.01 1454:1 16945:1 34913:1 53452:1 53474:1 53766:1 53767:1 55356:1 56270:1 56362:1 57937:1 58436:1 59191:1 61044:1 61053:1 61061:1 61204:1 61378:1 61486:1 61775:1 61784:1 61789:1 61793:1 61811:1 61818:1  |EV| 
0.075715026015182832 11164:1 28102:1 37141:1 53432:1 55622:1 56270:1 57876:1 61044:1 61053:1 61054:1 61199:1 61344:1 61486:1 61775:1 61782:1 61789:1 61793:1 61799:1 61804:1 61815:1 61818:1  |EV| 
0.019094542496386858 4089:1 19979:1 38407:1 53428:1 53872:1 54218:1 55609:1 56270:1 57876:1 61044:1 61053:1 61054:1 61201:1 61348:1 61486:1 61775:1 61782:1 61789:1 61793:1 61804:1 61815:1 61818:1  |EV| 
0.04780907158677631 14769:1 32282:1 52680:1 53428:1 56243:1 56270:1 61046:1 61053:1 61056:1 61199:1 61342:1 61489:1 61775:1 61782:1 61790:1 61793:1 61804:1 61818:1  |EV| 
0.068393145922579043 8335:1 24862:1 43948:1 53428:1 53432:1 53433:1 53453:1 54730:1 55352:1 56270:1 57876:1 61044:1 61053:1 61054:1 61222:1 61378:1 61486:1 61775:1 61782:1 61789:1 61793:1 61804:1 61818:1  |EV| 
0.047445552340491866 9972:1 26784:1 46203:1 53428:1 53453:1 54826:1 55352:1 56270:1 57876:1 61044:1 61053:1 61054:1 61201:1 61348:1 61486:1 61775:1 61782:1 61789:1 61793:1 61804:1 61815:1 61818:1  |EV| 
-0.01 14764:1 32276:1 34237:1 56243:1 56270:1 57876:1 61047:1 61052:1 61054:1 61205:1 61342:1 61491:1 61775:1 61782:1 61790:1 61793:1 61804:1 61818:1  |EV| 
-0.01 5014:1 21103:1 39627:1 53488:1 53508:1 54021:1 54342:1 54359:1 54360:1 55757:1 56270:1 61044:1 61053:1 61074:1 61201:1 61371:1 61486:1 61775:1 61782:1 61789:1 61793:1 61804:1 61815:1 61818:1  |EV| 
-0.0028197730451262623 13835:1 31310:1 51489:1 53433:1 53457:1 53531:1 53700:1 53743:1 53783:1 56183:1 56270:1 57876:1 61047:1 61052:1 61054:1 61212:1 61357:1 61491:1 61775:1 61782:1 61789:1 61793:1 61804:1 61815:1 61819:1  |EV| 
-0.01 11093:1 28028:1 47693:1 53432:1 53447:1 54093:1 54458:1 55622:1 56270:1 58213:1 61045:1 61053:1 61056:1 61222:1 61344:1 61505:1 61775:1 61782:1 61789:1 61793:1 61804:1 61815:1 61818:1  |EV| 
-0.01 10267:1 27092:1 37141:1 53432:1 55981:1 56270:1 57876:1 61044:1 61053:1 61054:1 61199:1 61344:1 61486:1 61775:1 61782:1 61789:1 61793:1 61804:1 61815:1 61817:1 61818:1  |EV| 
0.0478176368375966 7848:1 24323:1 43335:1 53430:1 53453:1 53474:1 53778:1 53941:1 54520:1 54642:1 54649:1 54650:1 55899:1 56270:1 57182:1 57937:1 58786:1 60068:1 61044:1 61053:1 61074:1 61227:1 61350:1 61500:1 61775:1 61783:1 61788:1 61793:1 61804:1 61818:1  |EV| 
0.010176756618652418 7912:1 24389:1 43422:1 53430:1 53432:1 53433:1 53438:1 53718:1 53721:1 53772:1 54140:1 54355:1 54660:1 54661:1 55777:1 56270:1 61044:1 61053:1 61069:1 61234:1 61367:1 61500:1 61775:1 61782:1 61788:1 61793:1 61804:1 61818:1  |EV| 
0.074396378877245636 1482:1 16979:1 34986:1 53433:1 53438:1 53474:1 53488:1 53767:1 53818:1 53819:1 53820:1 55375:1 56270:1 57970:1 61044:1 61053:1 61068:1 61201:1 61350:1 61500:1 61775:1 61784:1 61788:1 61793:1 61804:1 61805:1 61809:1 61818:1  |EV| 
0.051525148262384676 12934:1 30137:1 50049:1 53430:1 53433:1 53456:1 53457:1 53458:1 53525:1 53626:1 53725:1 55356:1 56108:1 56150:1 56270:1 61034:1 61044:1 61053:1 61069:1 61204:1 61350:1 61500:1 61775:1 61782:1 61789:1 61793:1 61804:1 61818:1  |EV| 
0.043963475713449052 7913:1 24390:1 43423:1 53430:1 53432:1 53433:1 53438:1 53718:1 53721:1 53772:1 54140:1 54355:1 54403:1 54660:1 54661:1 55897:1 56270:1 61044:1 61053:1 61069:1 61217:1 61392:1 61500:1 61775:1 61782:1 61788:1 61793:1 61804:1 61818:1  |EV| 
-0.01 13579:1 31000:1 51086:1 53430:1 53433:1 53438:1 53446:1 53447:1 53456:1 53457:1 53458:1 53525:1 53536:1 53548:1 53626:1 53725:1 53736:1 53982:1 54033:1 55056:1 55127:1 55356:1 56108:1 56150:1 56270:1 61034:1 61045:1 61053:1 61059:1 61224:1 61350:1 61513:1 61775:1 61782:1 61789:1 61793:1 61804:1 61818:1  |EV| 
-0.01 12997:1 30212:1 50142:1 53430:1 53433:1 53438:1 53446:1 53447:1 53456:1 53457:1 53458:1 53464:1 53466:1 53525:1 53536:1 53548:1 53626:1 53725:1 53736:1 53982:1 53993:1 54033:1 55046:1 55056:1 55126:1 55127:1 55356:1 56108:1 56150:1 56270:1 61034:1 61045:1 61053:1 61095:1 61261:1 61350:1 61552:1 61775:1 61782:1 61789:1 61793:1 61795:1 61804:1 61818:1  |EV| 
-0.01 10173:1 26996:1 46443:1 53430:1 53433:1 53438:1 53618:1 53925:1 54140:1 54879:1 54880:1 55378:1 56270:1 61044:1 61053:1 61068:1 61199:1 61346:1 61500:1 61775:1 61782:1 61788:1 61793:1 61818:1  |EV| 
-0.01 13104:1 30342:1 50282:1 53430:1 53433:1 53456:1 53457:1 53458:1 53548:1 53626:1 53725:1 55356:1 56108:1 56150:1 56270:1 57876:1 61034:1 61044:1 61053:1 61054:1 61203:1 61350:1 61488:1 61775:1 61782:1 61789:1 61793:1 61804:1 61818:1  |EV| 
-0.00073451760251337509 11350:1 28710:1 33070:1 53433:1 55475:1 56270:1 57876:1 61044:1 61053:1 61054:1 61199:1 61344:1 61486:1 61775:1 61782:1 61788:1 61793:1 61799:1 61804:1 61814:1  |EV| 
0.1938608862735558 10383:1 27217:1 46686:1 53433:1 53438:1 53507:1 55981:1 56270:1 57876:1 61047:1 61052:1 61054:1 61214:1 61362:1 61491:1 61775:1 61782:1 61789:1 61793:1 61799:1 61804:1 61815:1 61817:1 61818:1  |EV| 
0.10664915986656981 2187:1 17735:1 35793:1 53453:1 53466:1 53507:1 53649:1 53964:1 53965:1 55340:1 56270:1 61047:1 61052:1 61075:1 61212:1 61358:1 61491:1 61775:1 61782:1 61789:1 61793:1 61804:1 61817:1 61818:1  |EV| 
0.0762826804964261 13318:1 30593:1 50917:1 53464:1 53694:1 53729:1 55400:1 56270:1 57876:1 61044:1 61053:1 61061:1 61200:1 61348:1 61486:1 61775:1 61782:1 61789:1 61793:1 61804:1 61818:1  |EV| 
0.037784415441592424 4:1 25337:1 44498:1 53453:1 53553:1 53632:1 55340:1 56270:1 57876:1 61044:1 61053:1 61061:1 61200:1 61348:1 61486:1 61775:1 61782:1 61789:1 61793:1 61804:1 61815:1 61818:1  |EV| 
0.060005753680100964 7171:1 23459:1 33126:1 53474:1 55375:1 56270:1 57876:1 61047:1 61052:1 61054:1 61219:1 61349:1 61491:1 61775:1 61782:1 61789:1 61793:1 61804:1 61818:1 61819:1  |EV| 
-0.01 2857:1 18534:1 36967:1 53474:1 54077:1 55366:1 56270:1 56688:1 57876:1 58469:1 59539:1 61047:1 61052:1 61054:1 61218:1 61363:1 61491:1 61775:1 61782:1 61788:1 61793:1 61799:1 61804:1 61818:1  |EV| 
-0.01 6871:1 23085:1 41889:1 53474:1 53516:1 54199:1 55375:1 56270:1 61047:1 61052:1 61075:1 61214:1 61349:1 61491:1 61775:1 61782:1 61789:1 61793:1 61804:1 61818:1 61819:1  |EV| 
-0.0050909267892026147 11464:1 28444:1 33162:1 56064:1 56270:1 57876:1 61044:1 61053:1 61054:1 61231:1 61343:1 61486:1 61775:1 61782:1 61789:1 61793:1 61804:1 61817:1 61819:1  |EV| 
-0.01 10912:1 27810:1 47444:1 53537:1 53694:1 53756:1 55471:1 56270:1 57884:1 61047:1 61052:1 61054:1 61214:1 61362:1 61491:1 61775:1 61782:1 61789:1 61793:1 61804:1 61818:1  |EV| 
-0.01 7519:1 24098:1 43047:1 53438:1 53475:1 53530:1 54078:1 54625:1 55423:1 56270:1 57876:1 61047:1 61052:1 61054:1 61213:1 61374:1 61491:1 61775:1 61782:1 61788:1 61793:1 61804:1 61818:1  |EV| 
0.084741588870010418 9813:1 26620:1 45996:1 53430:1 53433:1 53438:1 53464:1 54206:1 54251:1 54443:1 54444:1 54809:1 55837:1 56270:1 61044:1 61053:1 61081:1 61199:1 61367:1 61506:1 61775:1 61782:1 61789:1 61793:1 61804:1 61818:1  |EV| 
0.058689345008295236 3280:1 19006:1 37192:1 53430:1 53432:1 53438:1 53452:1 53479:1 53510:1 53592:1 53941:1 54133:1 54134:1 54135:1 54136:1 54137:1 54138:1 55398:1 56270:1 61049:1 61053:1 61063:1 61219:1 61373:1 61494:1 61775:1 61782:1 61790:1 61793:1 61804:1 61818:1  |EV| 
0.074811806513246704 5379:1 21350:1 39885:1 53430:1 53433:1 53438:1 53457:1 53466:1 54140:1 54434:1 54435:1 54436:1 54437:1 55782:1 55790:1 56270:1 57931:1 61035:1 61046:1 61053:1 61085:1 61200:1 61365:1 61501:1 61775:1 61782:1 61789:1 61793:1 61804:1 61818:1  |EV| 
0.052183365594743923 14638:1 32150:1 52542:1 53428:1 53433:1 53464:1 53466:1 53488:1 53510:1 53558:1 53743:1 53783:1 54165:1 54341:1 54479:1 55277:1 55278:1 55279:1 55280:1 55287:1 55288:1 56232:1 56270:1 57828:1 57893:1 58502:1 60939:1 61046:1 61053:1 61109:1 61222:1 61351:1 61536:1 61775:1 61784:1 61789:1 61793:1 61804:1 61818:1  |EV| 
-0.01 5303:1 21272:1 39801:1 53430:1 53433:1 53438:1 53453:1 53457:1 53466:1 53580:1 53581:1 54140:1 54433:1 54434:1 54435:1 54436:1 54437:1 55782:1 55790:1 56270:1 61035:1 61046:1 61053:1 61088:1 61234:1 61365:1 61501:1 61775:1 61782:1 61789:1 61804:1 61818:1  |EV| 
-0.01 8362:1 25138:1 44259:1 53430:1 53432:1 53433:1 53460:1 53464:1 53466:1 53558:1 53974:1 54006:1 54699:1 54700:1 54701:1 55352:1 56270:1 61044:1 61053:1 61065:1 61200:1 61392:1 61506:1 61775:1 61784:1 61789:1 61793:1 61804:1 61818:1  |EV| 
-0.01 8323:1 25091:1 44421:1 53430:1 53432:1 53433:1 53438:1 53457:1 53460:1 53464:1 53466:1 53541:1 53558:1 53592:1 53771:1 53974:1 54006:1 54245:1 54698:1 54699:1 54700:1 54701:1 55352:1 56270:1 61044:1 61053:1 61093:1 61200:1 61388:1 61534:1 61775:1 61782:1 61789:1 61793:1 61804:1 61818:1  |EV| 
-0.01 4201:1 28780:1 48496:1 53433:1 53438:1 53453:1 53466:1 53538:1 53626:1 53648:1 53710:1 53733:1 54169:1 54474:1 55058:1 55059:1 55060:1 55475:1 56270:1 61044:1 61053:1 61065:1 61200:1 61392:1 61506:1 61775:1 61782:1 61788:1 61793:1 61804:1 61818:1  |EV| 
-0.01 3018:1 18700:1 36859:1 53433:1 53453:1 53488:1 55396:1 56270:1 61044:1 61053:1 61061:1 61200:1 61348:1 61486:1 61775:1 61782:1 61789:1 61793:1 61818:1  |EV| 
0.079723690956351359 5792:1 21787:1 40666:1 53474:1 53481:1 55812:1 56270:1 57876:1 61047:1 61052:1 61061:1 61218:1 61349:1 61491:1 61775:1 61782:1 61788:1 61793:1 61804:1 61818:1  |EV| 
-0.00031483324365993174 9745:1 27262:1 35709:1 53466:1 53649:1 55405:1 56270:1 61044:1 61053:1 61075:1 61231:1 61345:1 61486:1 61775:1 61782:1 61789:1 61793:1 61804:1 61820:1  |EV| 
-0.01 10286:1 27115:1 46572:1 53432:1 53433:1 53438:1 53507:1 55981:1 56270:1 57919:1 61046:1 61053:1 61078:1 61199:1 61362:1 61489:1 61775:1 61782:1 61789:1 61793:1 61804:1 61815:1 61817:1 61818:1  |EV| 
-0.01 5834:1 21832:1 35259:1 53542:1 55391:1 56270:1 57876:1 61047:1 61052:1 61054:1 61219:1 61349:1 61491:1 61775:1 61782:1 61789:1 61793:1 61804:1 61818:1  |EV| 
-0.01 3600:1 19377:1 33215:1 53438:1 55451:1 56270:1 57876:1 61047:1 61052:1 61054:1 61219:1 61349:1 61491:1 61775:1 61782:1 61789:1 61793:1 61804:1 61818:1  |EV| 
-0.01 10316:1 27147:1 33215:1 53438:1 55987:1 56270:1 57876:1 61047:1 61052:1 61054:1 61219:1 61349:1 61491:1 61775:1 61782:1 61789:1 61793:1 61804:1 61818:1  |EV| 
-0.01 7626:1 24067:1 43008:1 53438:1 53550:1 55405:1 56270:1 57876:1 61047:1 61052:1 61061:1 61218:1 61349:1 61491:1 61775:1 61782:1 61789:1 61793:1 61804:1 61818:1  |EV| 
0.0550640668095322 14181:1 31693:1 52054:1 53430:1 53432:1 53433:1 53457:1 53460:1 53466:1 53542:1 53700:1 53718:1 53743:1 53783:1 53884:1 54356:1 54372:1 54978:1 55199:1 55215:1 55216:1 56188:1 56270:1 61044:1 61053:1 61072:1 61234:1 61388:1 61495:1 61775:1 61782:1 61788:1 61793:1 61804:1 61818:1  |EV| 
0.089755954693448756 10142:1 26965:1 46411:1 53430:1 53433:1 53438:1 53452:1 53453:1 53466:1 53488:1 53528:1 53546:1 53600:1 53929:1 53942:1 54175:1 54470:1 54850:1 54870:1 55704:1 56270:1 61046:1 61053:1 61082:1 61200:1 61379:1 61536:1 61775:1 61782:1 61789:1 61793:1 61804:1 61818:1  |EV| 
0.042844638602916853 14159:1 31669:1 52012:1 53430:1 53432:1 53433:1 53457:1 53460:1 53466:1 53542:1 53700:1 53718:1 53743:1 53783:1 53884:1 54356:1 54372:1 54978:1 55199:1 55214:1 55215:1 56188:1 56270:1 61044:1 61053:1 61071:1 61204:1 61388:1 61495:1 61775:1 61782:1 61788:1 61793:1 61804:1 61818:1  |EV| 
0.10139978264457951 15182:1 32758:1 53180:1 53428:1 53433:1 53438:1 53874:1 55318:1 55319:1 55320:1 55431:1 56270:1 61046:1 61053:1 61059:1 61200:1 61356:1 61501:1 61775:1 61784:1 61789:1 61793:1 61804:1 61818:1  |EV| 
-0.01 14019:1 31515:1 51755:1 53430:1 53432:1 53433:1 53457:1 53460:1 53466:1 53542:1 53700:1 53718:1 53743:1 53783:1 54356:1 54372:1 54978:1 55199:1 55214:1 55215:1 56188:1 56270:1 57786:1 58398:1 59002:1 60824:1 61044:1 61053:1 61091:1 61204:1 61368:1 61495:1 61775:1 61785:1 61788:1 61793:1 61809:1 61818:1  |EV| 
-0.01 13931:1 31418:1 51626:1 53430:1 53432:1 53433:1 53457:1 53460:1 53466:1 53542:1 53700:1 53718:1 53743:1 53783:1 54356:1 54372:1 54978:1 55199:1 55215:1 55216:1 56188:1 56270:1 57782:1 58037:1 59002:1 60824:1 61044:1 61053:1 61063:1 61234:1 61368:1 61495:1 61775:1 61785:1 61788:1 61793:1 61809:1 61818:1  |EV| 
-0.01 13831:1 31305:1 51483:1 53430:1 53433:1 53457:1 53460:1 53466:1 53542:1 53700:1 53718:1 53743:1 53783:1 54372:1 54978:1 55199:1 55214:1 55215:1 56188:1 56270:1 61044:1 61053:1 61092:1 61204:1 61382:1 61495:1 61775:1 61783:1 61788:1 61793:1 61805:1 61818:1  |EV| 
-0.0021363827046915573 5004:1 20936:1 39455:1 53433:1 53584:1 53596:1 54367:1 54368:1 55417:1 56270:1 61044:1 61053:1 61075:1 61201:1 61378:1 61486:1 61775:1 61782:1 61790:1 61793:1 61804:1 61817:1  |EV| 
-0.01 2007:1 17523:1 35585:1 53430:1 53433:1 53453:1 53466:1 53507:1 53959:1 53960:1 53961:1 53964:1 53965:1 55340:1 56270:1 57919:1 61046:1 61053:1 61062:1 61234:1 61358:1 61501:1 61775:1 61782:1 61789:1 61793:1 61804:1 61817:1 61818:1  |EV| 
0.099578893660054291 10114:1 26930:1 46377:1 53438:1 53601:1 54475:1 54847:1 55987:1 56270:1 61046:1 61053:1 61078:1 61201:1 61349:1 61489:1 61775:1 61782:1 61789:1 61793:1 61804:1 61818:1  |EV| 
0.045856282547301508 8455:1 24990:1 44090:1 53432:1 53489:1 54237:1 54488:1 54708:1 55922:1 56270:1 57876:1 61044:1 61053:1 61054:1 61222:1 61378:1 61486:1 61775:1 61782:1 61789:1 61793:1 61804:1 61818:1  |EV| 
-0.01 10120:1 26938:1 46385:1 53432:1 53433:1 53438:1 53475:1 53507:1 53601:1 53615:1 54475:1 54847:1 54869:1 55987:1 56270:1 61046:1 61053:1 61085:1 61201:1 61365:1 61501:1 61775:1 61782:1 61789:1 61793:1 61804:1 61818:1  |EV| 
-0.01 10091:1 26907:1 46355:1 53432:1 53433:1 53438:1 53475:1 53507:1 53601:1 53615:1 54475:1 54847:1 54848:1 55981:1 56270:1 61046:1 61053:1 61085:1 61217:1 61362:1 61501:1 61775:1 61782:1 61789:1 61793:1 61804:1 61815:1 61817:1 61818:1  |EV| 
-0.01 15069:1 32629:1 53039:1 53433:1 53438:1 53874:1 54357:1 55318:1 55319:1 55320:1 55431:1 56270:1 57876:1 61047:1 61052:1 61061:1 61211:1 61356:1 61491:1 61775:1 61784:1 61789:1 61793:1 61804:1 61818:1  |EV| 
-0.01 1752:1 17261:1 35288:1 53474:1 53481:1 53496:1 53601:1 53632:1 53868:1 53931:1 53934:1 53935:1 53945:1 53946:1 55533:1 56270:1 61044:1 61053:1 61067:1 61200:1 61373:1 61500:1 61775:1 61782:1 61790:1 61793:1 61804:1 61819:1 61821:1  |EV| 
-0.01 10892:1 27789:1 47420:1 53428:1 53433:1 53537:1 53694:1 53756:1 55471:1 56270:1 61046:1 61053:1 61090:1 61200:1 61362:1 61489:1 61775:1 61782:1 61789:1 61793:1 61804:1 61818:1  |EV| 
0.046883460264287295 1755:1 17264:1 35291:1 53433:1 53450:1 53453:1 53466:1 53488:1 53921:1 53925:1 53929:1 53930:1 53936:1 53947:1 55518:1 56270:1 61044:1 61053:1 61081:1 61199:1 61367:1 61506:1 61775:1 61782:1 61789:1 61793:1 61804:1 61818:1  |EV| 
0.069400104760093714 5367:1 21338:1 39870:1 53430:1 53432:1 53433:1 53438:1 53453:1 53479:1 53481:1 53488:1 53509:1 53566:1 53590:1 53594:1 53596:1 53659:1 53845:1 53874:1 53899:1 54061:1 54171:1 54206:1 54395:1 54396:1 54397:1 54398:1 54399:1 54400:1 54401:1 54406:1 55777:1 56270:1 61044:1 61053:1 61125:1 61231:1 61419:1 61519:1 61775:1 61782:1 61788:1 61793:1 61799:1 61804:1 61818:1  |EV| 
0.053175877013330063 1577:1 17079:1 35101:1 53453:1 53700:1 53724:1 53867:1 53868:1 53869:1 55500:1 56270:1 57902:1 61044:1 61053:1 61054:1 61234:1 61371:1 61486:1 61775:1 61782:1 61790:1 61793:1 61804:1 61818:1  |EV| 
-0.01 5275:1 21243:1 39770:1 53430:1 53432:1 53433:1 53438:1 53453:1 53479:1 53481:1 53488:1 53509:1 53566:1 53590:1 53594:1 53596:1 53659:1 53874:1 53899:1 54061:1 54171:1 54206:1 54395:1 54396:1 54397:1 54398:1 54399:1 54400:1 54401:1 54402:1 54406:1 55777:1 56270:1 57876:1 61044:1 61053:1 61061:1 61265:1 61419:1 61543:1 61775:1 61782:1 61788:1 61793:1 61804:1 61818:1  |EV| 
-0.01 5334:1 21304:1 39834:1 53430:1 53432:1 53433:1 53438:1 53453:1 53479:1 53481:1 53488:1 53509:1 53566:1 53590:1 53594:1 53596:1 53845:1 53874:1 53899:1 54061:1 54171:1 54206:1 54395:1 54396:1 54397:1 54398:1 54399:1 54400:1 54401:1 54402:1 54406:1 55777:1 56270:1 61044:1 61053:1 61077:1 61257:1 61419:1 61551:1 61775:1 61782:1 61788:1 61793:1 61804:1 61818:1  |EV| 
-0.01 1561:1 17061:1 35083:1 53438:1 53450:1 53453:1 53488:1 53542:1 53700:1 53724:1 53865:1 53866:1 53867:1 53868:1 53869:1 55500:1 56270:1 61044:1 61053:1 61069:1 61234:1 61367:1 61500:1 61775:1 61782:1 61790:1 61793:1 61818:1  |EV| 
-0.01 1872:1 17383:1 35421:1 53433:1 53450:1 53453:1 53466:1 53488:1 53921:1 53925:1 53927:1 53929:1 53930:1 53936:1 55518:1 56270:1 57876:1 61044:1 61053:1 61075:1 61203:1 61367:1 61488:1 61775:1 61782:1 61789:1 61793:1 61804:1 61818:1  |EV| 
-0.01 1830:1 17340:1 35369:1 53453:1 53466:1 53488:1 53929:1 53930:1 53936:1 55518:1 56270:1 61044:1 61053:1 61069:1 61199:1 61361:1 61486:1 61775:1 61782:1 61789:1 61793:1 61818:1  |EV| 
0.073234699630746108 5015:1 24035:1 42970:1 53438:1 54140:1 55405:1 56270:1 61046:1 61053:1 61057:1 61199:1 61349:1 61489:1 61775:1 61782:1 61789:1 61793:1 61804:1 61818:1  |EV| 
0.089591455365999148 13942:1 31434:1 51645:1 53433:1 53558:1 53783:1 53803:1 53994:1 54101:1 54788:1 54958:1 56033:1 56173:1 56270:1 57878:1 61048:1 61053:1 61056:1 61212:1 61354:1 61496:1 61775:1 61782:1 61789:1 61793:1 61804:1 61815:1 61818:1  |EV| 
0.095061479827939721 3501:1 19250:1 37555:1 53438:1 53453:1 54160:1 55451:1 56270:1 61046:1 61053:1 61060:1 61200:1 61349:1 61489:1 61775:1 61782:1 61789:1 61793:1 61804:1 61818:1  |EV| 
-0.01 13794:1 31264:1 51431:1 53430:1 53433:1 53558:1 53783:1 53803:1 53994:1 54101:1 54788:1 54958:1 55171:1 56033:1 56173:1 56270:1 61048:1 61053:1 61060:1 61212:1 61353:1 61496:1 61775:1 61782:1 61789:1 61793:1 61804:1 61815:1 61818:1  |EV| 
-0.01 8603:1 25168:1 44296:1 53430:1 53432:1 53489:1 54237:1 54488:1 54708:1 54710:1 55922:1 56270:1 57931:1 61046:1 61053:1 61073:1 61222:1 61363:1 61489:1 61775:1 61782:1 61789:1 61793:1 61804:1 61818:1  |EV| 
-0.0094358131933211745 11779:1 28803:1 48789:1 53466:1 53479:1 53648:1 56100:1 56270:1 61044:1 61053:1 61075:1 61199:1 61348:1 61486:1 61775:1 61782:1 61789:1 61793:1 61804:1 61815:1 61816:1  |EV| 
-0.0049593766130573659 15374:1 32966:1 53409:1 53430:1 53450:1 53452:1 53453:1 53477:1 53479:1 53560:1 53612:1 54905:1 55328:1 55329:1 55453:1 56270:1 61044:1 61053:1 61086:1 61234:1 61373:1 61500:1 61775:1 61782:1 61788:1 61793:1 61804:1  |EV| 
-0.01 3092:1 18787:1 37066:1 53453:1 53474:1 54077:1 55366:1 56270:1 56704:1 58071:1 58469:1 59539:1 61046:1 61053:1 61060:1 61199:1 61363:1 61489:1 61775:1 61782:1 61788:1 61793:1 61804:1 61818:1  |EV| 
0.062257916012906436 10165:1 26988:1 46435:1 53428:1 53433:1 53438:1 53457:1 53519:1 53520:1 53528:1 53566:1 53594:1 54765:1 55417:1 56270:1 57876:1 61044:1 61053:1 61054:1 61206:1 61373:1 61488:1 61775:1 61782:1 61790:1 61793:1 61804:1 61818:1  |EV| 
0.075527868626821759 6677:1 22843:1 41646:1 53433:1 53453:1 53466:1 53512:1 53888:1 53918:1 54531:1 54532:1 55854:1 56270:1 61044:1 61053:1 61077:1 61231:1 61346:1 61500:1 61775:1 61782:1 61791:1 61793:1 61804:1 61818:1 61819:1  |EV| 
0.038604674230175981 6358:1 22468:1 41257:1 53430:1 53433:1 53553:1 53678:1 54517:1 54518:1 54519:1 55828:1 56270:1 61044:1 61053:1 61086:1 61201:1 61346:1 61500:1 61775:1 61782:1 61789:1 61793:1 61804:1 61818:1 61819:1  |EV| 
-0.01 6518:1 22639:1 41446:1 53433:1 53453:1 53466:1 53512:1 53888:1 53918:1 54146:1 54532:1 55854:1 56270:1 57876:1 61044:1 61053:1 61054:1 61217:1 61346:1 61500:1 61775:1 61782:1 61791:1 61793:1 61804:1 61818:1 61819:1  |EV| 
-0.01 15221:1 32804:1 53236:1 53428:1 53438:1 53453:1 53512:1 53630:1 54165:1 55312:1 56257:1 56270:1 57876:1 61044:1 61053:1 61054:1 61227:1 61361:1 61486:1 61775:1 61782:1 61789:1 61793:1 61804:1 61818:1  |EV| 
-0.01 9504:1 26256:1 45560:1 53438:1 53453:1 53457:1 53528:1 53543:1 53594:1 53710:1 53814:1 53888:1 54007:1 54765:1 55850:1 56270:1 57876:1 61044:1 61053:1 61054:1 61206:1 61373:1 61488:1 61775:1 61782:1 61788:1 61793:1 61804:1 61818:1  |EV| 
-0.01 6126:1 22188:1 40892:1 53433:1 53453:1 53464:1 53466:1 53474:1 53505:1 53555:1 53710:1 53848:1 54140:1 54459:1 54460:1 54462:1 55807:1 55808:1 56270:1 61034:1 61044:1 61053:1 61081:1 61201:1 61392:1 61506:1 61775:1 61782:1 61789:1 61793:1 61804:1 61818:1  |EV| 
-0.01 3359:1 19087:1 37390:1 53433:1 53466:1 53597:1 54144:1 54145:1 54146:1 55627:1 55628:1 55629:1 56270:1 57876:1 61033:1 61034:1 61044:1 61053:1 61054:1 61227:1 61361:1 61486:1 61775:1 61782:1 61788:1 61793:1 61804:1 61818:1  |EV| 
0.054637967747098878 15342:1 32933:1 53376:1 53432:1 53466:1 53732:1 56264:1 56270:1 61044:1 61053:1 61075:1 61199:1 61348:1 61486:1 61775:1 61782:1 61789:1 61793:1 61804:1 61818:1  |EV| 
0.046994044090589999 8065:1 24552:1 43633:1 53432:1 53433:1 54377:1 54458:1 55396:1 56270:1 57876:1 61044:1 61053:1 61061:1 61201:1 61366:1 61486:1 61775:1 61782:1 61789:1 61793:1 61804:1 61818:1  |EV| 
0.043859037024166221 11162:1 28100:1 37141:1 53432:1 55859:1 56270:1 61044:1 61053:1 61054:1 61199:1 61344:1 61486:1 61775:1 61782:1 61789:1 61793:1 61804:1 61818:1  |EV| 
-0.01 10143:1 26963:1 46409:1 53432:1 53433:1 53438:1 53507:1 53615:1 54851:1 55981:1 56270:1 61049:1 61053:1 61068:1 61214:1 61344:1 61502:1 61775:1 61782:1 61789:1 61793:1 61799:1 61804:1 61815:1 61817:1 61818:1  |EV| 
-0.01 8073:1 24563:1 43650:1 53432:1 54061:1 54612:1 55437:1 55504:1 56270:1 61033:1 61044:1 61053:1 61075:1 61199:1 61348:1 61486:1 61775:1 61782:1 61789:1 61793:1 61799:1 61804:1 61815:1  |EV| 
-0.0033836206538735533 5130:1 21065:1 39589:1 53432:1 53433:1 53553:1 54377:1 55401:1 56270:1 57902:1 61044:1 61053:1 61054:1 61204:1 61366:1 61486:1 61775:1 61782:1 61789:1 61793:1 61799:1 61804:1 61815:1  |EV| 
-0.0036520488513720464 1610:1 17118:1 35141:1 53433:1 53464:1 53591:1 53803:1 55431:1 56270:1 57902:1 61044:1 61053:1 61074:1 61200:1 61378:1 61486:1 61775:1 61782:1 61789:1 61793:1 61804:1 61815:1 61820:1  |EV| 
-0.01 5853:1 21853:1 41010:1 53488:1 54454:1 54455:1 55504:1 56270:1 61044:1 61053:1 61074:1 61231:1 61348:1 61486:1 61775:1 61782:1 61789:1 61793:1 61818:1  |EV| 
0.026214506121418613 6588:1 26341:1 45683:1 53438:1 53453:1 53456:1 53457:1 53528:1 53543:1 53594:1 53710:1 53814:1 53888:1 54765:1 55850:1 56270:1 61044:1 61053:1 61067:1 61200:1 61373:1 61500:1 61775:1 61782:1 61788:1 61793:1 61804:1 61818:1  |EV| 
0.043286344039139869 3519:1 19271:1 37577:1 53433:1 53466:1 53525:1 53597:1 54144:1 54145:1 55627:1 55628:1 55629:1 56270:1 61033:1 61034:1 61044:1 61053:1 61069:1 61199:1 61361:1 61486:1 61775:1 61782:1 61788:1 61793:1 61804:1 61818:1  |EV| 
0.03071170947880799 2381:1 17955:1 36023:1 53453:1 53466:1 53648:1 53814:1 53918:1 54014:1 54015:1 54016:1 55573:1 56270:1 61044:1 61053:1 61074:1 61222:1 61346:1 61500:1 61775:1 61782:1 61789:1 61793:1 61804:1 61818:1  |EV| 
0.055965541390084549 3092:1 18787:1 35224:1 53453:1 55366:1 56270:1 57876:1 61044:1 61053:1 61054:1 61199:1 61344:1 61486:1 61775:1 61782:1 61788:1 61793:1 61804:1 61818:1  |EV| 
-0.01 2290:1 17864:1 35933:1 53430:1 53438:1 53466:1 53474:1 53531:1 53541:1 53569:1 53622:1 53803:1 53969:1 53992:1 53993:1 53994:1 53995:1 54000:1 54001:1 55563:1 56270:1 61044:1 61053:1 61063:1 61200:1 61364:1 61506:1 61775:1 61782:1 61788:1 61793:1 61804:1 61818:1  |EV| 
-0.01 6054:1 22094:1 35224:1 53453:1 55817:1 56270:1 57876:1 61044:1 61053:1 61054:1 61199:1 61344:1 61486:1 61775:1 61782:1 61788:1 61793:1 61804:1  |EV| 
-0.01 2119:1 17649:1 35709:1 53466:1 53649:1 55494:1 56270:1 61044:1 61053:1 61075:1 61231:1 61345:1 61486:1 61775:1 61782:1 61788:1 61793:1 61804:1  |EV| 
-0.01 3090:1 22714:1 41731:1 53474:1 53484:1 53725:1 54557:1 55378:1 56270:1 61044:1 61053:1 61070:1 61231:1 61366:1 61486:1 61775:1 61782:1 61788:1 61793:1 61818:1  |EV| 
-0.0047918128839721449 4322:1 20230:1 38560:1 53519:1 55692:1 56270:1 56858:1 57893:1 58459:1 59702:1 61044:1 61053:1 61054:1 61199:1 61344:1 61486:1 61775:1 61782:1 61790:1 61793:1 61804:1 61821:1  |EV| 
0.044922907037199263 6258:1 22356:1 41122:1 53433:1 53474:1 54140:1 54462:1 55807:1 55808:1 56270:1 56362:1 56513:1 57937:1 58436:1 58543:1 59899:1 59900:1 61034:1 61044:1 61053:1 61061:1 61201:1 61366:1 61486:1 61775:1 61784:1 61789:1 61793:1 61804:1 61811:1 61818:1  |EV| 
0.067441389385060127 5008:1 20940:1 39459:1 53488:1 54342:1 54360:1 55757:1 56270:1 61044:1 61053:1 61054:1 61201:1 61348:1 61486:1 61775:1 61782:1 61789:1 61793:1 61804:1 61815:1 61818:1  |EV| 
0.066129480261489917 3112:1 18810:1 36970:1 53428:1 53433:1 53438:1 53488:1 53584:1 53612:1 53670:1 54069:1 54071:1 54073:1 54076:1 55368:1 55369:1 56270:1 61033:1 61034:1 61035:1 61044:1 61053:1 61068:1 61204:1 61373:1 61500:1 61775:1 61782:1 61789:1 61793:1 61804:1 61818:1  |EV| 
-0.01 2984:1 18665:1 36807:1 53428:1 53433:1 53438:1 53488:1 53584:1 53612:1 53670:1 54069:1 54071:1 54072:1 54073:1 55368:1 55369:1 56270:1 57876:1 61033:1 61034:1 61035:1 61044:1 61053:1 61054:1 61206:1 61373:1 61488:1 61775:1 61782:1 61789:1 61793:1 61804:1 61818:1  |EV| 
-0.01 7575:1 24010:1 43108:1 53428:1 53433:1 53438:1 53475:1 53488:1 53514:1 53778:1 54464:1 54607:1 54615:1 54628:1 55870:1 56270:1 61044:1 61053:1 61066:1 61201:1 61372:1 61506:1 61775:1 61782:1 61789:1 61793:1 61804:1 61818:1  |EV| 
-0.01 10116:1 26932:1 46379:1 53430:1 53433:1 53438:1 53453:1 53466:1 53488:1 53546:1 53600:1 53929:1 53942:1 54175:1 54470:1 54850:1 55704:1 56270:1 57931:1 61048:1 61053:1 61059:1 61213:1 61379:1 61509:1 61775:1 61782:1 61789:1 61793:1 61804:1 61818:1  |EV| 
-0.01 2868:1 18545:1 36681:1 53428:1 53433:1 53438:1 53488:1 53584:1 53612:1 53670:1 54069:1 54071:1 54072:1 54073:1 54074:1 54075:1 54076:1 55368:1 55369:1 56270:1 61033:1 61034:1 61035:1 61045:1 61053:1 61057:1 61232:1 61373:1 61503:1 61775:1 61782:1 61789:1 61793:1 61804:1 61818:1  |EV| 
-0.01 10314:1 27145:1 46605:1 53433:1 53438:1 53452:1 53453:1 53488:1 53528:1 53942:1 55704:1 56270:1 56322:1 57907:1 58458:1 60327:1 61046:1 61053:1 61073:1 61200:1 61374:1 61489:1 61775:1 61782:1 61789:1 61793:1 61804:1 61818:1  |EV| 
0.044203786445203209 2290:1 17864:1 35923:1 54000:1 54001:1 55563:1 56270:1 57876:1 61044:1 61053:1 61054:1 61200:1 61345:1 61486:1 61775:1 61782:1 61788:1 61793:1 61804:1 61818:1  |EV| 
0.064742841376528082 12878:1 30954:1 51022:1 53453:1 53466:1 53694:1 53859:1 56154:1 56270:1 61044:1 61053:1 61074:1 61199:1 61366:1 61486:1 61775:1 61782:1 61788:1 61793:1 61804:1 61814:1 61818:1  |EV| 
0.062188637313452755 11975:1 29028:1 48784:1 53626:1 55060:1 55475:1 56270:1 57876:1 61044:1 61053:1 61054:1 61200:1 61345:1 61486:1 61775:1 61782:1 61788:1 61793:1 61804:1 61818:1  |EV| 
0.061723766812279 7719:1 24185:1 35224:1 53453:1 55423:1 56270:1 57876:1 61044:1 61053:1 61054:1 61199:1 61344:1 61486:1 61775:1 61782:1 61788:1 61793:1 61804:1 61818:1  |EV| 
0.051718820883960757 6530:1 22727:1 33162:1 55378:1 56270:1 57876:1 61044:1 61053:1 61054:1 61231:1 61343:1 61486:1 61775:1 61782:1 61788:1 61793:1 61804:1 61818:1  |EV| 
-0.01 4112:1 20002:1 38433:1 53678:1 53698:1 54079:1 55668:1 56270:1 57876:1 61044:1 61053:1 61054:1 61201:1 61348:1 61486:1 61775:1 61782:1 61788:1 61793:1 61804:1 61817:1  |EV| 
-0.01 3745:1 19600:1 33162:1 55378:1 56270:1 57876:1 61044:1 61053:1 61054:1 61231:1 61343:1 61486:1 61775:1 61782:1 61788:1 61793:1 61804:1  |EV| 
-0.01 10611:1 27464:1 39037:1 53496:1 56016:1 56270:1 57876:1 61021:1 61044:1 61053:1 61054:1 61199:1 61345:1 61486:1 61775:1 61782:1 61788:1 61793:1 61804:1  |EV| 
-0.01 724:1 16138:1 33806:1 53477:1 53696:1 53715:1 55455:1 56270:1 57876:1 61044:1 61053:1 61061:1 61200:1 61348:1 61486:1 61775:1 61782:1 61788:1 61793:1 61804:1 61817:1  |EV| 
-0.01 12395:1 29536:1 33162:1 56015:1 56270:1 57876:1 61044:1 61053:1 61054:1 61231:1 61343:1 61486:1 61775:1 61782:1 61788:1 61793:1 61799:1 61804:1  |EV| 
0.039928082433453582 7622:1 24063:1 43004:1 53428:1 53430:1 53433:1 53479:1 53488:1 53543:1 53738:1 53740:1 53765:1 54166:1 54533:1 54638:1 55396:1 56270:1 61044:1 61053:1 61081:1 61200:1 61372:1 61506:1 61775:1 61782:1 61789:1 61793:1 61804:1 61818:1  |EV| 
-0.01 7784:1 24257:1 43261:1 53428:1 53430:1 53433:1 53488:1 53543:1 53738:1 53740:1 54166:1 54193:1 54533:1 54638:1 55396:1 56270:1 57876:1 61021:1 61044:1 61053:1 61070:1 61217:1 61372:1 61500:1 61775:1 61782:1 61789:1 61793:1 61804:1 61818:1  |EV| 
-0.01 14691:1 32203:1 52597:1 53428:1 53433:1 53464:1 53466:1 53488:1 53510:1 53558:1 53606:1 53743:1 53783:1 54165:1 54341:1 54479:1 55254:1 55277:1 55278:1 55279:1 55280:1 55287:1 55288:1 56232:1 56270:1 61046:1 61053:1 61100:1 61222:1 61379:1 61536:1 61775:1 61784:1 61789:1 61793:1 61818:1  |EV| 
-0.01 11135:1 28072:1 47752:1 53432:1 53433:1 53447:1 53466:1 53633:1 53759:1 53855:1 54093:1 54458:1 54638:1 55622:1 56270:1 61044:1 61053:1 61086:1 61222:1 61350:1 61500:1 61775:1 61782:1 61789:1 61793:1 61804:1 61815:1 61818:1  |EV| 
-0.01 13318:1 30593:1 50566:1 53433:1 53464:1 53473:1 53525:1 53597:1 53678:1 53694:1 53728:1 53729:1 53745:1 54245:1 55134:1 55400:1 56270:1 61044:1 61053:1 61081:1 61200:1 61372:1 61506:1 61775:1 61782:1 61789:1 61793:1 61804:1 61818:1  |EV| 
-0.01 7762:1 24229:1 43232:1 53428:1 53430:1 53433:1 53488:1 54533:1 55396:1 56270:1 61044:1 61053:1 61074:1 61200:1 61378:1 61486:1 61775:1 61784:1 61789:1 61793:1 61807:1 61818:1  |EV| 
0.073575215571924535 5141:1 21077:1 33162:1 55526:1 56270:1 57876:1 61044:1 61053:1 61054:1 61231:1 61343:1 61486:1 61775:1 61782:1 61790:1 61793:1 61804:1 61818:1  |EV| 
0.051093230106162422 6530:1 22767:1 33162:1 55378:1 56270:1 58189:1 61044:1 61053:1 61054:1 61231:1 61343:1 61486:1 61775:1 61782:1 61788:1 61793:1 61804:1 61818:1  |EV| 
0.013531372239285603 6530:1 22652:1 34516:1 53474:1 55378:1 56270:1 56407:1 57937:1 58507:1 59635:1 61044:1 61053:1 61061:1 61231:1 61344:1 61486:1 61775:1 61782:1 61788:1 61793:1 61804:1 61818:1  |EV| 
-0.01 5854:1 21854:1 40458:1 53430:1 53438:1 53542:1 53586:1 53587:1 54206:1 55368:1 55369:1 56270:1 61033:1 61046:1 61053:1 61059:1 61200:1 61357:1 61501:1 61775:1 61782:1 61789:1 61793:1 61804:1 61818:1  |EV| 
-0.00038635949899861811 12902:1 30095:1 50003:1 53433:1 53584:1 53981:1 55136:1 55418:1 56270:1 57876:1 61044:1 61053:1 61054:1 61222:1 61378:1 61486:1 61775:1 61782:1 61790:1 61793:1 61804:1  |EV| 
-0.01 9907:1 26718:1 46127:1 53428:1 53430:1 53438:1 53453:1 53475:1 54026:1 54825:1 54826:1 55352:1 56270:1 61044:1 61053:1 61086:1 61201:1 61346:1 61500:1 61775:1 61782:1 61789:1 61793:1 61804:1 61809:1 61815:1 61818:1  |EV| 
-0.01 6812:1 23013:1 35224:1 53453:1 55836:1 56270:1 57876:1 61044:1 61053:1 61054:1 61199:1 61344:1 61486:1 61775:1 61782:1 61790:1 61793:1 61804:1 61821:1  |EV| 
-0.01 3501:1 19338:1 37745:1 53433:1 53438:1 53491:1 53555:1 53670:1 54153:1 54154:1 54155:1 54156:1 55451:1 56270:1 61047:1 61052:1 61066:1 61209:1 61349:1 61499:1 61775:1 61782:1 61789:1 61793:1 61804:1 61818:1  |EV| 
-0.01 2975:1 18752:1 36908:1 53428:1 53433:1 53438:1 53466:1 53496:1 53546:1 53580:1 53581:1 53596:1 53597:1 53612:1 53639:1 53655:1 54066:1 54067:1 54068:1 55365:1 56270:1 61044:1 61053:1 61064:1 61201:1 61383:1 61506:1 61775:1 61782:1 61789:1 61793:1 61804:1 61818:1  |EV| 
-0.01 14124:1 31632:1 51940:1 53430:1 53433:1 53450:1 53466:1 53558:1 53582:1 53783:1 53803:1 53994:1 54101:1 54788:1 54958:1 55170:1 55171:1 56033:1 56173:1 56270:1 61047:1 61052:1 61074:1 61216:1 61353:1 61490:1 61775:1 61782:1 61789:1 61793:1 61804:1 61815:1 61818:1  |EV| 
-0.01 1002:1 16447:1 34198:1 53452:1 53453:1 53474:1 53506:1 53553:1 53555:1 53765:1 53766:1 53767:1 55356:1 56270:1 57876:1 61044:1 61053:1 61054:1 61203:1 61350:1 61488:1 61775:1 61782:1 61789:1 61793:1 61804:1 61818:1  |EV| 
-0.01 11115:1 28052:1 47725:1 53432:1 53433:1 53447:1 53466:1 53633:1 53759:1 53855:1 54093:1 54638:1 55004:1 55622:1 56270:1 61044:1 61053:1 61067:1 61199:1 61350:1 61500:1 61775:1 61782:1 61789:1 61793:1 61799:1 61804:1 61815:1 61818:1  |EV| 
0.052321235586028546 15122:1 32694:1 53109:1 53428:1 53438:1 53453:1 53512:1 54165:1 54531:1 55312:1 56257:1 56270:1 61044:1 61053:1 61086:1 61200:1 61361:1 61486:1 61775:1 61782:1 61789:1 61793:1 61804:1 61818:1  |EV| 
0.031139737837362732 15197:1 32776:1 53202:1 53432:1 53433:1 53496:1 55324:1 55325:1 55326:1 55418:1 56270:1 57857:1 58428:1 59040:1 60990:1 61044:1 61053:1 61086:1 61199:1 61371:1 61486:1 61775:1 61782:1 61790:1 61793:1 61804:1 61818:1  |EV| 
-0.01 4201:1 29187:1 48983:1 53433:1 53438:1 53449:1 53488:1 53506:1 53626:1 54018:1 54019:1 55060:1 55061:1 55475:1 56270:1 57934:1 61046:1 61053:1 61085:1 61200:1 61355:1 61501:1 61775:1 61782:1 61788:1 61793:1 61804:1 61818:1  |EV| 
-0.01 6500:1 26164:1 45450:1 53438:1 53543:1 53814:1 55850:1 56270:1 61044:1 61053:1 61061:1 61200:1 61348:1 61486:1 61775:1 61784:1 61788:1 61793:1 61811:1 61818:1  |EV| 
-0.01 12894:1 30800:1 50812:1 53438:1 53449:1 53453:1 53466:1 53511:1 53694:1 53859:1 56154:1 56270:1 61049:1 61053:1 61077:1 61219:1 61366:1 61502:1 61775:1 61782:1 61788:1 61793:1 61804:1 61814:1 61818:1  |EV| 
-0.01 3792:1 19657:1 38037:1 53433:1 53438:1 53546:1 53639:1 55405:1 56270:1 56765:1 57937:1 58660:1 59638:1 61044:1 61053:1 61075:1 61200:1 61366:1 61486:1 61775:1 61782:1 61789:1 61793:1 61818:1  |EV| 
-0.01 15175:1 32751:1 53172:1 53428:1 53438:1 54165:1 55312:1 56257:1 56270:1 61044:1 61053:1 61075:1 61200:1 61366:1 61486:1 61775:1 61784:1 61789:1 61793:1 61811:1 61818:1  |EV| 
0.048180823507330307 7575:1 24010:1 42940:1 53428:1 53433:1 54607:1 55870:1 56270:1 57876:1 61044:1 61053:1 61054:1 61201:1 61348:1 61486:1 61775:1 61782:1 61789:1 61793:1 61804:1 61818:1  |EV| 
0.035246441409755851 6443:1 22553:1 41361:1 53430:1 53433:1 53553:1 53678:1 54518:1 54519:1 55828:1 56270:1 61044:1 61053:1 61074:1 61201:1 61371:1 61486:1 61775:1 61782:1 61789:1 61793:1 61804:1 61818:1 61819:1  |EV| 
-0.01 1091:1 17738:1 35796:1 53430:1 53433:1 53466:1 53959:1 53960:1 53961:1 55340:1 56270:1 57876:1 61044:1 61053:1 61054:1 61234:1 61371:1 61486:1 61775:1 61782:1 61789:1 61793:1 61804:1 61817:1 61818:1  |EV| 
-0.01 8639:1 25215:1 44353:1 53430:1 54710:1 55922:1 56270:1 57876:1 61047:1 61052:1 61054:1 61218:1 61363:1 61491:1 61775:1 61782:1 61789:1 61793:1 61804:1 61818:1  |EV| 
-0.01 2089:1 17612:1 35672:1 53430:1 53433:1 53453:1 53466:1 53507:1 53649:1 53841:1 53959:1 53960:1 53961:1 53964:1 53965:1 53966:1 55340:1 56270:1 61049:1 61053:1 61063:1 61212:1 61371:1 61497:1 61775:1 61782:1 61789:1 61793:1 61804:1 61817:1 61818:1  |EV| 
-0.01 10208:1 27029:1 46481:1 53432:1 53433:1 53438:1 53507:1 53615:1 54851:1 54869:1 55987:1 56270:1 61047:1 61052:1 61068:1 61211:1 61349:1 61491:1 61775:1 61782:1 61789:1 61793:1 61799:1 61804:1 61818:1  |EV| 
-0.01 11762:1 28784:1 33162:1 56097:1 56270:1 57893:1 61044:1 61053:1 61054:1 61231:1 61343:1 61486:1 61775:1 61782:1 61789:1 61793:1 61804:1 61819:1 61820:1  |EV| 
0.029751495051517543 13818:1 31291:1 51465:1 53432:1 53433:1 53466:1 53649:1 54146:1 56187:1 56270:1 61044:1 61053:1 61074:1 61200:1 61378:1 61486:1 61775:1 61782:1 61790:1 61793:1 61804:1 61818:1  |EV| 
-0.01 3072:1 18767:1 36924:1 53433:1 53453:1 53488:1 53546:1 54080:1 55396:1 56270:1 61044:1 61053:1 61074:1 61200:1 61378:1 61486:1 61775:1 61782:1 61789:1 61793:1 61818:1  |EV| 
-0.01 1173:1 16631:1 34421:1 53433:1 53438:1 53474:1 53767:1 53820:1 55375:1 56270:1 57968:1 61044:1 61053:1 61075:1 61201:1 61378:1 61486:1 61775:1 61784:1 61788:1 61793:1 61818:1  |EV| 
-0.01 6622:1 22770:1 41575:1 53433:1 53438:1 53453:1 53466:1 53512:1 53575:1 53888:1 53918:1 54118:1 54146:1 54529:1 54530:1 54531:1 54532:1 55854:1 56270:1 61045:1 61053:1 61078:1 61248:1 61346:1 61503:1 61775:1 61782:1 61791:1 61793:1 61804:1 61818:1 61819:1  |EV| 
-0.01 6789:1 22987:1 41786:1 53433:1 53466:1 53888:1 53918:1 54532:1 55854:1 56270:1 61044:1 61053:1 61086:1 61231:1 61378:1 61486:1 61775:1 61784:1 61791:1 61793:1 61811:1 61818:1 61819:1  |EV| 
-0.01 6813:1 23014:1 41811:1 53433:1 53453:1 53512:1 53888:1 53918:1 55837:1 56270:1 57876:1 61044:1 61053:1 61054:1 61222:1 61378:1 61486:1 61775:1 61782:1 61790:1 61793:1 61804:1 61816:1  |EV| 
-0.01 5836:1 21834:1 40434:1 53430:1 53438:1 53542:1 53586:1 55624:1 56270:1 57876:1 61047:1 61052:1 61054:1 61230:1 61358:1 61491:1 61775:1 61782:1 61789:1 61793:1 61804:1 61818:1  |EV| 
-0.01 8372:1 24903:1 43993:1 53433:1 53438:1 53457:1 53837:1 55352:1 56270:1 57304:1 58124:1 58461:1 60166:1 61047:1 61052:1 61074:1 61213:1 61363:1 61491:1 61775:1 61782:1 61789:1 61793:1 61804:1 61809:1 61818:1  |EV| 
-0.01 6760:1 22951:1 41751:1 53433:1 53542:1 55378:1 56270:1 57876:1 61047:1 61052:1 61054:1 61218:1 61363:1 61491:1 61775:1 61784:1 61788:1 61793:1 61804:1 61818:1  |EV| 
-0.01 6859:1 23897:1 43603:1 53430:1 53438:1 55870:1 56270:1 57876:1 61047:1 61052:1 61054:1 61218:1 61363:1 61491:1 61775:1 61782:1 61789:1 61793:1 61804:1 61818:1  |EV| 
-0.01 10828:1 27685:1 40666:1 53474:1 53481:1 55454:1 56270:1 56305:1 57876:1 58449:1 60433:1 61047:1 61052:1 61061:1 61218:1 61349:1 61491:1 61775:1 61782:1 61790:1 61793:1 61804:1 61815:1  |EV| 
0.025471167657345854 8677:1 25269:1 44416:1 53428:1 53433:1 53712:1 53743:1 54738:1 55932:1 56270:1 57876:1 61044:1 61053:1 61054:1 61234:1 61371:1 61486:1 61775:1 61782:1 61789:1 61793:1 61804:1 61818:1  |EV| 
0.035732422612427352 7976:1 24455:1 43501:1 53433:1 53488:1 53675:1 54647:1 54648:1 55412:1 56270:1 57876:1 61044:1 61053:1 61074:1 61200:1 61378:1 61486:1 61775:1 61782:1 61789:1 61793:1 61804:1 61818:1 61819:1  |EV| 
-0.01 10142:1 26962:1 46408:1 53433:1 53438:1 53452:1 53453:1 53466:1 53488:1 53528:1 53600:1 53929:1 53942:1 54175:1 54470:1 54850:1 54870:1 55704:1 56270:1 61046:1 61053:1 61095:1 61200:1 61380:1 61508:1 61775:1 61782:1 61789:1 61793:1 61818:1  |EV| 
-0.01 8573:1 25129:1 44250:1 53428:1 53433:1 53438:1 53453:1 53527:1 53712:1 53734:1 53743:1 53967:1 54738:1 54748:1 54749:1 55932:1 56270:1 61049:1 61053:1 61092:1 61213:1 61371:1 61497:1 61775:1 61782:1 61789:1 61793:1 61804:1 61818:1  |EV| 
-0.01 15066:1 32626:1 53036:1 53428:1 53438:1 53453:1 53512:1 53630:1 54113:1 54165:1 54531:1 55312:1 56257:1 56270:1 61045:1 61053:1 61056:1 61206:1 61361:1 61487:1 61775:1 61782:1 61789:1 61793:1 61804:1 61818:1  |EV| 
-0.01 10967:1 27891:1 47543:1 53428:1 53433:1 53537:1 53663:1 53694:1 53756:1 53841:1 55471:1 56270:1 61049:1 61053:1 61077:1 61214:1 61345:1 61502:1 61775:1 61782:1 61789:1 61793:1 61804:1 61818:1  |EV| 
-0.01 15386:1 32978:1 53420:1 53432:1 53466:1 53622:1 53732:1 53855:1 53860:1 56264:1 56270:1 61044:1 61053:1 61069:1 61199:1 61361:1 61486:1 61775:1 61782:1 61789:1 61793:1 61818:1  |EV| 
-0.01 10127:1 26945:1 46392:1 53430:1 53438:1 53601:1 54007:1 54475:1 54847:1 55987:1 56270:1 61046:1 61053:1 61083:1 61222:1 61349:1 61489:1 61775:1 61782:1 61789:1 61793:1 61804:1 61818:1  |EV| 
-0.01 14795:1 27397:1 52704:1 53432:1 53452:1 53481:1 54640:1 55759:1 56270:1 57876:1 61044:1 61053:1 61061:1 61201:1 61366:1 61486:1 61775:1 61782:1 61789:1 61793:1 61799:1 61804:1 61815:1  |EV| 
-0.01 468:1 15876:1 33502:1 53510:1 55394:1 56270:1 57876:1 61044:1 61053:1 61054:1 61199:1 61344:1 61486:1 61775:1 61782:1 61790:1 61793:1 61804:1 61817:1  |EV| 
-0.01 11045:1 27969:1 47628:1 53543:1 53783:1 54979:1 54980:1 55676:1 56270:1 57876:1 61044:1 61053:1 61054:1 61204:1 61366:1 61486:1 61775:1 61782:1 61790:1 61793:1 61804:1  |EV| 
-0.01 233:1 19415:1 40027:1 53479:1 54429:1 55402:1 56270:1 57876:1 61044:1 61053:1 61054:1 61200:1 61345:1 61486:1 61775:1 61782:1 61789:1 61793:1 61804:1 61815:1 61817:1  |EV| 
-0.01 15138:1 32711:1 53130:1 53428:1 53433:1 53438:1 53460:1 53488:1 53507:1 53584:1 53591:1 53710:1 53874:1 54357:1 54753:1 55318:1 55319:1 55320:1 55431:1 56270:1 61046:1 61053:1 61082:1 61200:1 61379:1 61536:1 61775:1 61783:1 61789:1 61793:1 61818:1  |EV| 
-0.01 10254:1 27077:1 46532:1 53433:1 53438:1 53452:1 53453:1 53488:1 53528:1 53600:1 53929:1 53942:1 54175:1 54870:1 55704:1 56270:1 61046:1 61053:1 61079:1 61200:1 61354:1 61508:1 61775:1 61785:1 61789:1 61793:1 61810:1 61818:1  |EV| 
-0.01 9917:1 32678:1 53113:1 53428:1 53433:1 53438:1 53460:1 53507:1 53584:1 53710:1 53874:1 54357:1 54753:1 55318:1 55319:1 55320:1 55431:1 56270:1 61046:1 61053:1 61076:1 61200:1 61351:1 61508:1 61775:1 61783:1 61789:1 61793:1 61818:1  |EV| 
-0.01 14946:1 32478:1 52879:1 53430:1 53432:1 53433:1 53438:1 53452:1 53474:1 53475:1 53481:1 53510:1 53569:1 53592:1 53622:1 53675:1 53803:1 53894:1 55296:1 55297:1 55310:1 55412:1 56270:1 61044:1 61053:1 61097:1 61199:1 61397:1 61495:1 61775:1 61784:1 61789:1 61793:1 61799:1 61804:1 61815:1 61818:1 61819:1  |EV| 
-0.01 14039:1 31538:1 51784:1 53430:1 53433:1 53460:1 53466:1 53700:1 53783:1 54372:1 55199:1 55214:1 55215:1 56188:1 56270:1 61044:1 61053:1 61068:1 61204:1 61373:1 61500:1 61775:1 61784:1 61788:1 61793:1 61805:1 61818:1  |EV| 
0.068555656820908376 5129:1 21064:1 39588:1 53430:1 53896:1 55771:1 56270:1 57876:1 61044:1 61053:1 61054:1 61200:1 61345:1 61486:1 61775:1 61782:1 61789:1 61793:1 61804:1 61818:1  |EV| 
0.048994361304049605 13709:1 31175:1 51361:1 53550:1 53675:1 53730:1 56168:1 56270:1 57876:1 61044:1 61053:1 61075:1 61199:1 61348:1 61486:1 61775:1 61782:1 61789:1 61793:1 61804:1 61815:1 61818:1  |EV| 
-0.01 11462:1 28442:1 48146:1 53453:1 53457:1 55020:1 55920:1 56270:1 57876:1 61044:1 61053:1 61054:1 61201:1 61348:1 61486:1 61775:1 61782:1 61789:1 61793:1 61804:1 61815:1  |EV| 
-0.01 5918:1 21932:1 40547:1 53433:1 53453:1 53464:1 53466:1 53474:1 53555:1 53710:1 53848:1 54140:1 54459:1 54460:1 54461:1 54462:1 55807:1 55808:1 56270:1 57876:1 61034:1 61044:1 61053:1 61054:1 61228:1 61392:1 61488:1 61775:1 61782:1 61789:1 61793:1 61804:1 61818:1  |EV| 
-0.01 3766:1 31600:1 51878:1 53466:1 53783:1 55217:1 55482:1 56270:1 57876:1 61044:1 61053:1 61054:1 61201:1 61348:1 61486:1 61775:1 61782:1 61789:1 61793:1 61804:1 61819:1  |EV| 
-0.01 5446:1 21420:1 39961:1 53612:1 53923:1 53929:1 55796:1 56270:1 57876:1 61044:1 61053:1 61054:1 61201:1 61348:1 61486:1 61775:1 61782:1 61789:1 61793:1 61804:1 61819:1 61820:1  |EV| 
-0.01 1543:1 17042:1 35065:1 53847:1 53848:1 55499:1 56270:1 57876:1 61044:1 61053:1 61054:1 61200:1 61345:1 61486:1 61775:1 61782:1 61791:1 61793:1 61804:1 61819:1  |EV| 
-0.01 5851:1 21851:1 40455:1 53430:1 53438:1 53503:1 53504:1 53542:1 53587:1 54206:1 55391:1 56270:1 61046:1 61053:1 61059:1 61217:1 61349:1 61501:1 61775:1 61782:1 61789:1 61793:1 61804:1 61818:1  |EV| 
-0.01 5850:1 21850:1 40454:1 53430:1 53438:1 53503:1 53504:1 53542:1 53586:1 54206:1 55624:1 56270:1 61046:1 61053:1 61059:1 61222:1 61358:1 61501:1 61775:1 61782:1 61789:1 61793:1 61804:1 61818:1  |EV| 
-0.01 7533:1 23964:1 42893:1 53438:1 53453:1 53475:1 53530:1 54078:1 54625:1 55423:1 56270:1 61046:1 61053:1 61083:1 61199:1 61374:1 61489:1 61775:1 61782:1 61788:1 61793:1 61804:1 61818:1  |EV| 
-0.01 1002:1 16971:1 34964:1 53452:1 53453:1 53474:1 53506:1 53553:1 53555:1 53765:1 53767:1 55356:1 56270:1 57961:1 61045:1 61053:1 61090:1 61203:1 61345:1 61487:1 61775:1 61782:1 61789:1 61793:1 61804:1 61818:1  |EV| 
-0.01 7575:1 24010:1 43621:1 53428:1 53430:1 53433:1 53438:1 54607:1 55870:1 56270:1 61046:1 61053:1 61090:1 61201:1 61363:1 61489:1 61775:1 61782:1 61789:1 61793:1 61804:1 61818:1  |EV| 
0.010264160240973349 6829:1 23038:1 41838:1 53918:1 53996:1 54546:1 55431:1 56270:1 57876:1 61044:1 61053:1 61054:1 61201:1 61348:1 61486:1 61775:1 61782:1 61789:1 61793:1 61804:1 61818:1  |EV| 
-0.004564877532211113 3887:1 19772:1 38174:1 53450:1 53453:1 53479:1 55665:1 56270:1 58009:1 61044:1 61053:1 61061:1 61200:1 61348:1 61486:1 61775:1 61782:1 61790:1 61793:1 61799:1 61804:1 61815:1 61816:1  |EV| 
-0.01 733:1 16147:1 34082:1 53433:1 53457:1 55418:1 56270:1 57876:1 61044:1 61053:1 61054:1 61200:1 61345:1 61486:1 61775:1 61782:1 61790:1 61793:1 61799:1 61804:1 61815:1  |EV| 
-0.01 13836:1 31311:1 51492:1 53433:1 53775:1 55458:1 56270:1 57876:1 61044:1 61053:1 61054:1 61200:1 61345:1 61486:1 61775:1 61782:1 61789:1 61793:1 61804:1  |EV| 
-0.01 3997:1 19885:1 33084:1 53432:1 53433:1 55405:1 56270:1 57876:1 61044:1 61053:1 61054:1 61200:1 61345:1 61486:1 61775:1 61782:1 61789:1 61793:1 61804:1  |EV| 
-0.0079926743932212142 771:1 16186:1 33868:1 53433:1 53479:1 53539:1 55431:1 56270:1 57876:1 61044:1 61053:1 61061:1 61200:1 61348:1 61486:1 61775:1 61784:1 61789:1 61793:1 61804:1 61815:1 61816:1  |EV| 
-0.01 10382:1 27216:1 46685:1 53432:1 53433:1 53438:1 53475:1 53507:1 54869:1 55987:1 56270:1 57919:1 61048:1 61053:1 61078:1 61219:1 61365:1 61492:1 61775:1 61782:1 61789:1 61793:1 61804:1 61818:1  |EV| 
-0.01 7828:1 24302:1 43310:1 53430:1 53432:1 53433:1 54140:1 54355:1 54661:1 55777:1 56270:1 56545:1 58016:1 58433:1 60066:1 61046:1 61053:1 61073:1 61234:1 61349:1 61489:1 61775:1 61782:1 61788:1 61793:1 61808:1 61818:1  |EV| 
-0.01 2089:1 17843:1 35896:1 53453:1 53466:1 53507:1 53649:1 53964:1 53965:1 53966:1 55340:1 56270:1 57881:1 61048:1 61053:1 61087:1 61212:1 61365:1 61492:1 61775:1 61782:1 61789:1 61793:1 61817:1 61818:1  |EV| 
-0.01 10104:1 26920:1 46367:1 53432:1 53438:1 53601:1 53615:1 54475:1 54847:1 54848:1 55981:1 56270:1 61045:1 61053:1 61078:1 61217:1 61344:1 61505:1 61775:1 61782:1 61789:1 61793:1 61804:1 61815:1 61817:1 61818:1  |EV| 
-0.01 3501:1 19250:1 37825:1 53428:1 53430:1 53433:1 53438:1 53453:1 53475:1 53491:1 53507:1 53516:1 53536:1 53555:1 53670:1 54007:1 54058:1 54141:1 54142:1 54143:1 54153:1 54154:1 54155:1 54156:1 54157:1 54158:1 54159:1 54160:1 55451:1 56270:1 61046:1 61053:1 61119:1 61200:1 61408:1 61548:1 61775:1 61782:1 61789:1 61793:1 61804:1 61818:1  |EV| 
0.047286303290727999 14784:1 32299:1 52693:1 53452:1 53481:1 55412:1 56270:1 57876:1 61044:1 61053:1 61061:1 61199:1 61345:1 61486:1 61775:1 61782:1 61789:1 61793:1 61799:1 61804:1 61815:1 61818:1 61819:1  |EV| 
0.026173581373301232 10987:1 27909:1 47562:1 53428:1 53433:1 55471:1 56270:1 57876:1 61044:1 61053:1 61054:1 61200:1 61345:1 61486:1 61775:1 61782:1 61789:1 61793:1 61804:1 61818:1  |EV| 
0.042029579468302061 3814:1 19687:1 38070:1 53433:1 53546:1 55405:1 56270:1 57876:1 61044:1 61053:1 61054:1 61200:1 61345:1 61486:1 61775:1 61782:1 61789:1 61793:1 61804:1 61818:1  |EV| 
-0.01 7561:1 32768:1 53210:1 53466:1 53474:1 53519:1 53541:1 53558:1 53674:1 54063:1 54917:1 55322:1 55323:1 55493:1 56270:1 61044:1 61053:1 61067:1 61199:1 61350:1 61500:1 61775:1 61782:1 61789:1 61793:1 61818:1  |EV| 
-0.01 3764:1 19621:1 37994:1 53433:1 53438:1 53496:1 53515:1 53546:1 53639:1 53884:1 54183:1 54184:1 55405:1 56270:1 61044:1 61053:1 61077:1 61200:1 61350:1 61500:1 61775:1 61782:1 61789:1 61793:1 61818:1  |EV| 
-0.01 10080:1 26895:1 46341:1 53428:1 53430:1 53438:1 53453:1 53475:1 54026:1 54153:1 54826:1 55352:1 56270:1 57876:1 61044:1 61053:1 61054:1 61217:1 61346:1 61500:1 61775:1 61782:1 61789:1 61793:1 61804:1 61809:1 61815:1 61818:1  |EV| 
-0.01 12874:1 30054:1 50604:1 53433:1 53464:1 53473:1 53597:1 53678:1 53694:1 53728:1 53729:1 53745:1 53801:1 54245:1 55134:1 55400:1 56270:1 57876:1 61044:1 61053:1 61054:1 61223:1 61372:1 61488:1 61775:1 61782:1 61789:1 61793:1 61799:1 61804:1 61818:1  |EV| 
-0.01 1692:1 24514:1 43571:1 53528:1 53550:1 55453:1 56270:1 57876:1 61044:1 61053:1 61061:1 61199:1 61345:1 61486:1 61775:1 61782:1 61788:1 61793:1 61804:1 61817:1  |EV| 
-0.01 10401:1 27234:1 46705:1 53433:1 53438:1 53453:1 53488:1 53942:1 55704:1 56270:1 57474:1 58300:1 58458:1 60327:1 61047:1 61052:1 61054:1 61213:1 61374:1 61491:1 61775:1 61782:1 61789:1 61793:1 61804:1 61818:1  |EV| 
-0.01 5838:1 21836:1 40436:1 53430:1 53438:1 53542:1 53586:1 53587:1 55368:1 55369:1 56270:1 57876:1 61033:1 61047:1 61052:1 61054:1 61212:1 61357:1 61491:1 61775:1 61782:1 61789:1 61793:1 61804:1 61818:1  |EV| 
-0.01 5200:1 21165:1 39691:1 53438:1 53446:1 53447:1 53453:1 53457:1 53462:1 53474:1 53513:1 53710:1 53786:1 53787:1 53899:1 54135:1 54199:1 54361:1 54362:1 54363:1 54364:1 54365:1 54369:1 55526:1 56270:1 61045:1 61053:1 61109:1 61244:1 61343:1 61518:1 61775:1 61782:1 61790:1 61793:1 61804:1 61818:1  |EV| 
-0.01 6572:1 22700:1 41506:1 53433:1 53462:1 53542:1 53710:1 55378:1 56270:1 61049:1 61053:1 61086:1 61218:1 61343:1 61502:1 61775:1 61782:1 61788:1 61793:1 61804:1 61818:1  |EV| 
-0.01 8457:1 24992:1 44097:1 53428:1 53432:1 53433:1 53438:1 53453:1 53457:1 53837:1 54730:1 54743:1 54744:1 55352:1 56270:1 61049:1 61053:1 61064:1 61213:1 61378:1 61497:1 61775:1 61782:1 61789:1 61793:1 61804:1 61818:1  |EV| 
-0.01 9857:1 26666:1 46061:1 53430:1 53433:1 53438:1 53464:1 53481:1 54049:1 54166:1 54206:1 54251:1 54443:1 54444:1 54809:1 55837:1 56270:1 61044:1 61053:1 61092:1 61199:1 61376:1 61506:1 61775:1 61782:1 61789:1 61793:1 61818:1  |EV| 
-0.01 1768:1 17277:1 35304:1 53433:1 53450:1 53925:1 55524:1 56270:1 57876:1 61044:1 61053:1 61075:1 61199:1 61348:1 61486:1 61775:1 61782:1 61788:1 61793:1 61804:1  |EV| 
-0.0039228157124384993 3272:1 18998:1 37184:1 53466:1 53488:1 53560:1 53567:1 53568:1 53614:1 53632:1 54109:1 54120:1 54121:1 55505:1 56270:1 61044:1 61053:1 61069:1 61204:1 61350:1 61500:1 61775:1 61782:1 61788:1 61793:1 61804:1 61814:1  |EV| 
-0.01 13146:1 30392:1 50332:1 53430:1 53433:1 53456:1 53457:1 53458:1 53626:1 55356:1 56108:1 56150:1 56270:1 61034:1 61044:1 61053:1 61074:1 61204:1 61361:1 61486:1 61775:1 61782:1 61789:1 61793:1 61810:1 61818:1  |EV| 
-0.01 11770:1 28793:1 49057:1 53433:1 53434:1 53466:1 53488:1 53520:1 55062:1 55063:1 56093:1 56094:1 56270:1 61033:1 61034:1 61035:1 61044:1 61053:1 61086:1 61201:1 61346:1 61500:1 61775:1 61782:1 61789:1 61793:1 61804:1  |EV| 
-0.01 8523:1 25065:1 44179:1 53428:1 53432:1 53433:1 53438:1 53453:1 54730:1 55352:1 56270:1 56326:1 57914:1 58461:1 60166:1 61046:1 61053:1 61073:1 61222:1 61363:1 61489:1 61775:1 61782:1 61789:1 61793:1 61804:1 61809:1 61818:1  |EV| 
-0.01 15194:1 32771:1 53194:1 53428:1 53438:1 53453:1 53512:1 53516:1 53552:1 53575:1 53630:1 53803:1 54165:1 54531:1 55312:1 56257:1 56270:1 61049:1 61053:1 61092:1 61230:1 61361:1 61497:1 61775:1 61782:1 61789:1 61793:1 61804:1 61818:1  |EV| 
-0.01 6498:1 22618:1 41426:1 53433:1 53542:1 55378:1 56270:1 57919:1 61046:1 61053:1 61057:1 61231:1 61363:1 61489:1 61775:1 61784:1 61788:1 61793:1 61804:1 61818:1  |EV| 
-0.01 9599:1 26382:1 45731:1 53453:1 53457:1 53528:1 53594:1 53888:1 54765:1 55418:1 56270:1 57876:1 61044:1 61053:1 61054:1 61234:1 61371:1 61486:1 61775:1 61782:1 61790:1 61793:1 61804:1 61821:1  |EV| 
-0.01 7719:1 24185:1 43179:1 53438:1 53453:1 55423:1 56270:1 61046:1 61053:1 61057:1 61199:1 61349:1 61489:1 61775:1 61782:1 61788:1 61793:1 61818:1  |EV| 
-0.01 6352:1 22462:1 41251:1 53430:1 53432:1 53433:1 53553:1 53678:1 54517:1 54518:1 54519:1 54520:1 55445:1 56270:1 61044:1 61053:1 61086:1 61234:1 61373:1 61500:1 61775:1 61782:1 61789:1 61793:1 61804:1 61815:1 61819:1  |EV| 
-0.01 9818:1 26625:1 46007:1 53430:1 53433:1 53438:1 54206:1 54443:1 54444:1 55837:1 56270:1 61044:1 61053:1 61068:1 61199:1 61346:1 61500:1 61775:1 61783:1 61789:1 61793:1 61818:1  |EV| 
-0.01 6859:1 23897:1 42887:1 53428:1 53433:1 53438:1 53475:1 53488:1 53778:1 54464:1 54606:1 54607:1 54615:1 54628:1 55870:1 56270:1 57876:1 61044:1 61053:1 61054:1 61223:1 61372:1 61488:1 61775:1 61782:1 61789:1 61793:1 61804:1 61818:1  |EV| 
-0.01 13709:1 31175:1 51303:1 53447:1 53464:1 53475:1 53550:1 53675:1 53730:1 53765:1 55164:1 56168:1 56270:1 61044:1 61053:1 61068:1 61199:1 61346:1 61500:1 61775:1 61782:1 61789:1 61793:1 61815:1 61818:1  |EV| 
-0.0030485549573992213 1015:1 16462:1 34487:1 53457:1 53466:1 53538:1 53680:1 53712:1 53730:1 53747:1 53748:1 55462:1 56270:1 61044:1 61053:1 61067:1 61200:1 61373:1 61500:1 61775:1 61782:1 61789:1 61793:1 61804:1 61815:1 61817:1  |EV| 
-0.01 6480:1 22592:1 41400:1 53584:1 53925:1 55847:1 56270:1 57876:1 61044:1 61053:1 61061:1 61199:1 61345:1 61486:1 61775:1 61782:1 61788:1 61793:1 61804:1  |EV| 
-0.01 11325:1 28276:1 33070:1 53433:1 55586:1 56270:1 57876:1 61044:1 61053:1 61054:1 61199:1 61344:1 61486:1 61775:1 61782:1 61788:1 61793:1 61804:1  |EV| 
-0.01 2857:1 18534:1 36671:1 53453:1 53462:1 53474:1 53475:1 54077:1 55366:1 56270:1 61049:1 61053:1 61069:1 61218:1 61344:1 61502:1 61775:1 61782:1 61788:1 61793:1 61799:1 61804:1 61818:1  |EV| 
-0.01 1692:1 17201:1 35224:1 53453:1 55453:1 56270:1 57876:1 61044:1 61053:1 61054:1 61199:1 61344:1 61486:1 61775:1 61782:1 61788:1 61793:1 61799:1 61804:1 61817:1  |EV| 
-0.01 7736:1 24202:1 43200:1 53430:1 53453:1 53778:1 54642:1 54650:1 55828:1 56270:1 57170:1 58228:1 58433:1 60059:1 61046:1 61053:1 61083:1 61201:1 61362:1 61489:1 61775:1 61782:1 61789:1 61793:1 61808:1 61818:1  |EV| 
-0.01 14204:1 31716:1 52091:1 53430:1 53433:1 53450:1 53466:1 53475:1 53558:1 53582:1 53783:1 53803:1 53994:1 54101:1 54788:1 54958:1 55170:1 56033:1 56173:1 56270:1 61047:1 61052:1 61086:1 61216:1 61354:1 61490:1 61775:1 61782:1 61789:1 61793:1 61804:1 61815:1 61818:1  |EV| 
-0.01 13757:1 31223:1 51383:1 53430:1 53432:1 53433:1 53446:1 53447:1 53450:1 53453:1 53466:1 53489:1 53543:1 53558:1 53582:1 53687:1 53725:1 53737:1 53783:1 53803:1 53835:1 53994:1 54101:1 54747:1 54788:1 54958:1 55170:1 55171:1 55172:1 55173:1 55174:1 55175:1 55176:1 56033:1 56173:1 56270:1 61047:1 61052:1 61107:1 61280:1 61353:1 61527:1 61775:1 61782:1 61789:1 61793:1 61804:1 61815:1 61818:1  |EV| 
-0.01 11126:1 28063:1 47742:1 53430:1 53432:1 53433:1 53438:1 53466:1 53481:1 53488:1 53512:1 53592:1 53675:1 53860:1 54404:1 54471:1 54573:1 54788:1 55002:1 55003:1 55773:1 56270:1 61049:1 61053:1 61102:1 61219:1 61370:1 61533:1 61775:1 61782:1 61789:1 61793:1 61804:1 61818:1  |EV| 
-0.01 2977:1 18751:1 36907:1 53428:1 53430:1 53433:1 53438:1 53466:1 53496:1 53546:1 53580:1 53581:1 53596:1 53597:1 53612:1 53639:1 53655:1 54065:1 54066:1 54067:1 54068:1 55598:1 55599:1 56270:1 61033:1 61034:1 61044:1 61053:1 61064:1 61222:1 61382:1 61495:1 61775:1 61782:1 61789:1 61793:1 61804:1 61818:1  |EV| 
-0.01 6319:1 22426:1 41203:1 53430:1 53432:1 53433:1 53438:1 53450:1 53453:1 53466:1 53473:1 53481:1 53488:1 53520:1 53541:1 53665:1 53756:1 53803:1 53873:1 53916:1 53969:1 54164:1 54206:1 54376:1 54428:1 54454:1 54455:1 54456:1 54458:1 55368:1 55369:1 56270:1 61033:1 61044:1 61053:1 61103:1 61200:1 61405:1 61545:1 61775:1 61782:1 61789:1 61793:1 61804:1 61818:1  |EV| 
-0.01 9791:1 26598:1 33070:1 53433:1 55837:1 56270:1 58028:1 61044:1 61053:1 61054:1 61199:1 61344:1 61486:1 61775:1 61783:1 61789:1 61793:1 61818:1  |EV| 
-0.01 2602:1 18201:1 33162:1 55477:1 56270:1 57876:1 61044:1 61053:1 61054:1 61231:1 61343:1 61486:1 61775:1 61782:1 61789:1 61793:1 61804:1 61820:1  |EV| 
-0.01 6382:1 22492:1 33162:1 55831:1 56270:1 58189:1 61044:1 61053:1 61054:1 61231:1 61343:1 61486:1 61775:1 61782:1 61789:1 61793:1 61804:1 61820:1  |EV| 
-0.01 3238:1 18964:1 37141:1 53432:1 55620:1 56270:1 57876:1 61044:1 61053:1 61054:1 61199:1 61344:1 61486:1 61775:1 61782:1 61789:1 61793:1 61804:1 61817:1  |EV| 
-0.01 6469:1 22581:1 37141:1 53432:1 55714:1 55841:1 56270:1 57876:1 61037:1 61044:1 61053:1 61054:1 61199:1 61344:1 61486:1 61775:1 61782:1 61789:1 61793:1 61804:1 61817:1  |EV| 
-0.01 11924:1 29233:1 49049:1 53433:1 53438:1 53449:1 53466:1 53488:1 53506:1 53648:1 54018:1 54019:1 55061:1 55475:1 56270:1 61047:1 61052:1 61075:1 61209:1 61355:1 61504:1 61775:1 61782:1 61788:1 61793:1 61804:1 61818:1  |EV| 
-0.01 1060:1 16508:1 34272:1 53433:1 53438:1 53474:1 53479:1 53488:1 53506:1 53767:1 53776:1 53818:1 53819:1 53820:1 55375:1 56270:1 57952:1 61044:1 61053:1 61065:1 61201:1 61376:1 61506:1 61775:1 61784:1 61788:1 61793:1 61809:1 61818:1  |EV| 
-0.01 293:1 15692:1 33289:1 53430:1 53433:1 53438:1 53453:1 53464:1 53488:1 53515:1 53521:1 53578:1 53599:1 53600:1 53616:1 53617:1 55405:1 56270:1 61049:1 61053:1 61063:1 61221:1 61378:1 61497:1 61775:1 61782:1 61789:1 61793:1 61804:1 61818:1  |EV| 
-0.01 6141:1 22204:1 40923:1 53433:1 53453:1 53464:1 53466:1 53474:1 53505:1 53542:1 53555:1 53710:1 53848:1 54459:1 54460:1 55391:1 56270:1 61047:1 61052:1 61081:1 61208:1 61349:1 61499:1 61775:1 61782:1 61789:1 61793:1 61804:1 61818:1  |EV| 
-0.01 2220:1 17780:1 35837:1 53430:1 53433:1 53453:1 53466:1 53473:1 53507:1 53841:1 53959:1 53960:1 53961:1 53962:1 53963:1 53964:1 53965:1 55340:1 56270:1 58011:1 61046:1 61053:1 61104:1 61203:1 61358:1 61493:1 61775:1 61782:1 61789:1 61793:1 61804:1 61817:1 61818:1  |EV| 
-0.01 15306:1 32896:1 53340:1 53432:1 53466:1 53496:1 53622:1 53732:1 53855:1 53860:1 54166:1 54470:1 55332:1 56264:1 56270:1 61044:1 61053:1 61081:1 61199:1 61367:1 61506:1 61775:1 61782:1 61789:1 61793:1 61818:1  |EV| 
-0.01 2063:1 17583:1 35644:1 53471:1 53775:1 55553:1 55554:1 56270:1 57876:1 61034:1 61044:1 61053:1 61054:1 61200:1 61345:1 61486:1 61775:1 61782:1 61790:1 61793:1 61795:1 61799:1 61804:1  |EV| 
-0.01 8437:1 25224:1 44445:1 53433:1 53457:1 53592:1 55919:1 56270:1 57876:1 61044:1 61053:1 61061:1 61200:1 61348:1 61486:1 61775:1 61782:1 61790:1 61793:1 61804:1 61821:1  |EV| 
-0.01 10889:1 27785:1 47417:1 53428:1 54819:1 56036:1 56270:1 57876:1 61044:1 61053:1 61054:1 61200:1 61345:1 61486:1 61775:1 61782:1 61789:1 61793:1 61804:1 61815:1 61816:1  |EV| 
-0.01 5782:1 21775:1 47058:1 53488:1 53918:1 54932:1 55504:1 56270:1 57876:1 61044:1 61053:1 61054:1 61201:1 61348:1 61486:1 61775:1 61782:1 61789:1 61793:1 61804:1 61815:1  |EV| 
-0.01 2279:1 17853:1 35914:1 53438:1 53474:1 53531:1 53541:1 53803:1 53969:1 53994:1 53995:1 53999:1 54000:1 54001:1 55563:1 56270:1 61045:1 61053:1 61058:1 61223:1 61345:1 61507:1 61775:1 61782:1 61788:1 61793:1 61804:1 61818:1  |EV| 
-0.01 11932:1 29185:1 48974:1 53433:1 53438:1 53453:1 53466:1 53538:1 53626:1 53648:1 53710:1 54009:1 54169:1 54474:1 55058:1 55059:1 55060:1 55475:1 56270:1 61044:1 61053:1 61074:1 61206:1 61392:1 61488:1 61775:1 61782:1 61788:1 61793:1 61804:1 61818:1  |EV| 
-0.01 10039:1 26853:1 46286:1 53428:1 53430:1 53438:1 53453:1 54026:1 54153:1 54826:1 55352:1 56270:1 57931:1 61045:1 61053:1 61057:1 61217:1 61348:1 61505:1 61775:1 61782:1 61789:1 61793:1 61804:1 61815:1 61818:1  |EV| 
-0.01 14805:1 32320:1 52714:1 53430:1 53433:1 53438:1 53452:1 53474:1 53481:1 53505:1 53510:1 53592:1 53803:1 55296:1 55297:1 55412:1 56270:1 58099:1 61045:1 61053:1 61058:1 61223:1 61345:1 61507:1 61775:1 61782:1 61789:1 61793:1 61804:1 61815:1 61818:1 61819:1  |EV| 
-0.01 14155:1 31665:1 52005:1 53430:1 53433:1 53460:1 53466:1 53700:1 53783:1 54372:1 55199:1 55215:1 55216:1 56188:1 56270:1 61044:1 61053:1 61086:1 61234:1 61373:1 61500:1 61775:1 61784:1 61788:1 61793:1 61805:1 61818:1  |EV| 
-0.01 3678:1 19521:1 37879:1 53433:1 53452:1 55650:1 56270:1 57876:1 61044:1 61053:1 61054:1 61200:1 61345:1 61486:1 61775:1 61782:1 61789:1 61793:1 61804:1 61817:1  |EV| 
-0.01 9620:1 26408:1 45762:1 53553:1 53816:1 55401:1 56270:1 57876:1 61044:1 61053:1 61054:1 61200:1 61345:1 61486:1 61775:1 61782:1 61789:1 61793:1 61799:1 61804:1 61817:1  |EV| 
-0.01 1034:1 16481:1 34417:1 53464:1 53748:1 55404:1 56270:1 57876:1 61044:1 61053:1 61054:1 61200:1 61345:1 61486:1 61775:1 61782:1 61788:1 61793:1 61804:1 61814:1  |EV| 
-0.0072451431236714939 2592:1 18191:1 33162:1 55484:1 56270:1 57876:1 61044:1 61053:1 61054:1 61231:1 61343:1 61486:1 61775:1 61782:1 61789:1 61793:1 61799:1 61804:1 61817:1  |EV| 
-0.01 173:1 15567:1 33162:1 55384:1 56270:1 57876:1 61044:1 61053:1 61054:1 61231:1 61343:1 61486:1 61775:1 61782:1 61789:1 61793:1 61804:1 61817:1  |EV| 
-0.01 3098:1 18794:1 36951:1 53428:1 53438:1 53496:1 53546:1 53580:1 53581:1 53639:1 55365:1 56270:1 56513:1 57937:1 58543:1 59536:1 61044:1 61053:1 61070:1 61201:1 61361:1 61486:1 61775:1 61782:1 61789:1 61793:1 61818:1  |EV| 
-0.01 1190:1 16648:1 34452:1 53433:1 53438:1 53474:1 53767:1 53819:1 53820:1 55375:1 56270:1 57969:1 61044:1 61053:1 61070:1 61201:1 61361:1 61486:1 61775:1 61783:1 61788:1 61793:1 61805:1 61818:1  |EV| 
-0.01 8582:1 25140:1 44261:1 53430:1 53432:1 53473:1 53489:1 54237:1 54488:1 54707:1 54708:1 54710:1 55922:1 56270:1 61049:1 61053:1 61066:1 61218:1 61378:1 61497:1 61775:1 61782:1 61789:1 61793:1 61804:1 61818:1  |EV| 
-0.01 12202:1 29297:1 49134:1 53438:1 53453:1 53538:1 53626:1 54169:1 54474:1 55059:1 55060:1 55475:1 56270:1 61044:1 61053:1 61069:1 61200:1 61346:1 61500:1 61775:1 61784:1 61788:1 61793:1 61807:1 61818:1  |EV| 
-0.01 5173:1 21119:1 39644:1 53433:1 53446:1 53737:1 53794:1 55758:1 56270:1 61044:1 61053:1 61075:1 61200:1 61366:1 61486:1 61775:1 61783:1 61789:1 61793:1 61818:1 61819:1  |EV| 
-0.01 10357:1 27192:1 46659:1 53432:1 53433:1 53438:1 53475:1 53507:1 53615:1 54869:1 55987:1 56270:1 57876:1 61047:1 61052:1 61054:1 61211:1 61365:1 61491:1 61775:1 61782:1 61789:1 61793:1 61799:1 61804:1 61818:1  |EV| 
-0.01 5853:1 21853:1 40457:1 53430:1 53438:1 53503:1 53504:1 53542:1 53586:1 53587:1 55504:1 56270:1 61046:1 61053:1 61059:1 61231:1 61355:1 61501:1 61775:1 61782:1 61789:1 61793:1 61804:1 61818:1  |EV| 
-0.01 14068:1 31569:1 51849:1 53550:1 53730:1 54726:1 56179:1 56270:1 57876:1 61047:1 61052:1 61075:1 61214:1 61349:1 61491:1 61775:1 61782:1 61790:1 61793:1 61804:1  |EV| 
-0.01 8984:1 25605:1 32986:1 53428:1 55412:1 56270:1 57876:1 61044:1 61053:1 61054:1 61199:1 61344:1 61486:1 61775:1 61782:1 61789:1 61793:1 61804:1 61815:1 61816:1  |EV| 
-0.01 3737:1 19590:1 33070:1 53433:1 55396:1 56270:1 57876:1 61044:1 61053:1 61054:1 61199:1 61344:1 61486:1 61775:1 61782:1 61789:1 61793:1 61804:1  |EV| 
-0.01 1842:1 17352:1 35383:1 53453:1 53466:1 53488:1 53930:1 55518:1 56270:1 61044:1 61053:1 61074:1 61199:1 61366:1 61486:1 61775:1 61783:1 61789:1 61793:1 61810:1 61818:1  |EV| 
-0.01 5854:1 21854:1 41016:1 53438:1 53488:1 54206:1 54454:1 54455:1 55368:1 55369:1 56270:1 61033:1 61044:1 61053:1 61074:1 61200:1 61378:1 61486:1 61775:1 61782:1 61789:1 61793:1 61818:1  |EV| 
-0.01 3764:1 19627:1 34940:1 53433:1 55405:1 56270:1 56822:1 57903:1 58454:1 59645:1 61045:1 61053:1 61087:1 61200:1 61343:1 61505:1 61775:1 61782:1 61789:1 61793:1 61818:1  |EV| 
-0.01 2010:1 17526:1 35588:1 53452:1 53453:1 53694:1 55551:1 56270:1 58009:1 61044:1 61053:1 61061:1 61200:1 61348:1 61486:1 61775:1 61782:1 61788:1 61793:1 61804:1 61817:1  |EV| 
-0.01 5584:1 21563:1 40119:1 53430:1 53438:1 53488:1 53874:1 54171:1 55777:1 56270:1 61044:1 61053:1 61069:1 61231:1 61371:1 61486:1 61775:1 61782:1 61788:1 61793:1 61799:1 61809:1 61818:1  |EV| 
-0.01 10165:1 26988:1 46462:1 53428:1 53433:1 53438:1 53446:1 53457:1 53475:1 53514:1 53519:1 53520:1 53528:1 53566:1 53594:1 54765:1 54852:1 54853:1 54854:1 54855:1 55417:1 56270:1 58302:1 61044:1 61053:1 61077:1 61206:1 61370:1 61549:1 61775:1 61782:1 61790:1 61793:1 61818:1  |EV| 
-0.01 858:1 19123:1 37701:1 53428:1 53430:1 53433:1 53438:1 53491:1 53516:1 53555:1 53670:1 54007:1 54153:1 54154:1 54155:1 54156:1 54157:1 54158:1 54159:1 55451:1 56270:1 61047:1 61052:1 61091:1 61241:1 61349:1 61499:1 61775:1 61782:1 61789:1 61793:1 61804:1 61818:1  |EV| 
-0.01 10130:1 26948:1 46394:1 53430:1 53432:1 53433:1 53438:1 53475:1 53507:1 53601:1 53615:1 54007:1 54475:1 54847:1 54869:1 55987:1 56270:1 61046:1 61053:1 61084:1 61222:1 61365:1 61501:1 61775:1 61782:1 61789:1 61793:1 61804:1 61818:1  |EV| 
-0.01 6639:1 22794:1 41598:1 53430:1 53438:1 53453:1 53475:1 53496:1 54100:1 55378:1 56270:1 57895:1 61046:1 61053:1 61083:1 61231:1 61357:1 61489:1 61775:1 61782:1 61788:1 61793:1 61804:1 61818:1  |EV| 
-0.01 3004:1 18763:1 36919:1 53428:1 53433:1 53438:1 53466:1 53496:1 53546:1 53580:1 53581:1 53596:1 53597:1 53612:1 53630:1 53639:1 53655:1 54067:1 54068:1 55365:1 56270:1 57876:1 61044:1 61053:1 61054:1 61232:1 61383:1 61488:1 61775:1 61782:1 61789:1 61793:1 61804:1 61818:1  |EV| 
-0.01 7148:1 23432:1 42277:1 53453:1 53899:1 54574:1 55664:1 56270:1 57876:1 61044:1 61053:1 61054:1 61201:1 61348:1 61486:1 61775:1 61782:1 61790:1 61793:1 61804:1 61821:1  |EV| 
-0.01 9830:1 26638:1 46024:1 53543:1 53575:1 53918:1 55951:1 56270:1 57876:1 61044:1 61053:1 61054:1 61201:1 61348:1 61486:1 61775:1 61782:1 61789:1 61793:1 61804:1 61815:1 61816:1  |EV| 
-0.01 12121:1 29200:1 49002:1 53433:1 53464:1 54698:1 56095:1 56270:1 57876:1 61044:1 61053:1 61054:1 61201:1 61348:1 61486:1 61775:1 61782:1 61789:1 61793:1 61804:1  |EV| 
-0.01 15322:1 32913:1 53356:1 53466:1 53699:1 54135:1 56266:1 56270:1 57876:1 61044:1 61053:1 61054:1 61201:1 61348:1 61486:1 61775:1 61782:1 61789:1 61793:1 61804:1 61816:1  |EV| 
-0.0077934872364769734 10098:1 26914:1 46362:1 53488:1 53929:1 54175:1 55983:1 56270:1 58300:1 61044:1 61053:1 61054:1 61201:1 61348:1 61486:1 61775:1 61782:1 61791:1 61793:1 61804:1 61820:1  |EV| 
-0.01 5312:1 21282:1 39811:1 53430:1 53432:1 53433:1 53438:1 53453:1 53479:1 53481:1 53488:1 53509:1 53566:1 53590:1 53594:1 53596:1 53659:1 53660:1 53845:1 53874:1 53899:1 54061:1 54171:1 54206:1 54395:1 54396:1 54397:1 54398:1 54399:1 54400:1 54401:1 54403:1 54406:1 55773:1 56270:1 61044:1 61053:1 61125:1 61204:1 61394:1 61519:1 61775:1 61782:1 61789:1 61793:1 61799:1 61804:1 61815:1 61819:1  |EV| 
-0.01 5280:1 21248:1 39775:1 53432:1 53433:1 53438:1 53453:1 53479:1 53481:1 53509:1 53566:1 53590:1 53594:1 53596:1 53659:1 53899:1 54061:1 54206:1 54395:1 54396:1 54397:1 54398:1 54399:1 54400:1 54406:1 55776:1 56270:1 57876:1 61044:1 61053:1 61061:1 61254:1 61393:1 61523:1 61775:1 61782:1 61788:1 61793:1 61804:1 61819:1  |EV| 
-0.01 7857:1 24332:1 43348:1 53432:1 53433:1 54648:1 55412:1 56270:1 57185:1 57878:1 57882:1 58457:1 60069:1 61025:1 61046:1 61053:1 61060:1 61200:1 61349:1 61489:1 61775:1 61783:1 61789:1 61793:1 61805:1 61818:1 61819:1  |EV| 
-0.01 8323:1 24850:1 43937:1 53430:1 53432:1 53433:1 53438:1 53457:1 53460:1 53464:1 53466:1 53541:1 53558:1 53592:1 53974:1 54006:1 54110:1 54245:1 54698:1 54699:1 54700:1 54701:1 55352:1 56270:1 57876:1 61044:1 61053:1 61061:1 61253:1 61388:1 61523:1 61775:1 61782:1 61789:1 61793:1 61804:1 61818:1  |EV| 
-0.0032939556966603994 13788:1 31546:1 51826:1 53433:1 53453:1 53466:1 53481:1 53572:1 53597:1 53736:1 54096:1 54982:1 55201:1 56180:1 56270:1 61044:1 61053:1 61086:1 61234:1 61373:1 61500:1 61775:1 61782:1 61789:1 61793:1 61804:1  |EV| 
-0.01 2891:1 18569:1 36704:1 53428:1 53612:1 54069:1 55368:1 55369:1 56270:1 57881:1 61033:1 61034:1 61035:1 61045:1 61053:1 61056:1 61204:1 61343:1 61505:1 61775:1 61784:1 61789:1 61793:1 61811:1 61818:1  |EV| 
-0.01 5015:1 21106:1 39631:1 53488:1 53508:1 53553:1 53820:1 54021:1 54218:1 54342:1 54359:1 54360:1 55401:1 56270:1 61044:1 61053:1 61074:1 61234:1 61347:1 61500:1 61775:1 61782:1 61789:1 61793:1 61804:1 61815:1  |EV| 
-0.01 5014:1 20946:1 39464:1 53430:1 53438:1 53464:1 53466:1 53488:1 53508:1 53630:1 53729:1 54021:1 54080:1 54165:1 54218:1 54342:1 54355:1 54356:1 54357:1 54358:1 54359:1 54360:1 54370:1 55757:1 56270:1 61045:1 61053:1 61084:1 61224:1 61371:1 61558:1 61775:1 61782:1 61789:1 61793:1 61804:1 61815:1 61818:1  |EV| 
-0.01 6859:1 23897:1 42807:1 53428:1 53433:1 53438:1 53488:1 53778:1 54464:1 54606:1 54607:1 54615:1 54628:1 55870:1 56270:1 58213:1 61045:1 61053:1 61073:1 61223:1 61348:1 61487:1 61775:1 61782:1 61789:1 61793:1 61804:1 61818:1  |EV| 
-0.01 9997:1 26810:1 46231:1 53428:1 53453:1 53488:1 54093:1 54826:1 54827:1 54828:1 55352:1 56270:1 57878:1 61046:1 61053:1 61073:1 61201:1 61358:1 61489:1 61775:1 61782:1 61789:1 61793:1 61809:1 61815:1 61818:1  |EV| 
-0.0022970671190916145 9599:1 26986:1 46433:1 53438:1 53457:1 53519:1 53520:1 53528:1 53594:1 54765:1 55398:1 56270:1 57876:1 61044:1 61053:1 61054:1 61217:1 61346:1 61500:1 61775:1 61782:1 61790:1 61793:1 61804:1 61821:1  |EV| 
-0.01 14082:1 31585:1 51853:1 53430:1 53433:1 53700:1 53783:1 54372:1 55214:1 55215:1 56188:1 56270:1 61044:1 61053:1 61074:1 61204:1 61361:1 61486:1 61775:1 61783:1 61788:1 61793:1 61818:1  |EV| 
-0.01 13985:1 31478:1 51708:1 53433:1 53457:1 53531:1 53628:1 53700:1 53743:1 53783:1 55177:1 55404:1 56270:1 57876:1 61044:1 61053:1 61054:1 61217:1 61346:1 61500:1 61775:1 61782:1 61788:1 61793:1 61799:1 61804:1 61814:1  |EV| 
-0.01 2292:1 17866:1 35926:1 53438:1 53474:1 53531:1 53541:1 53569:1 53969:1 53994:1 53995:1 54000:1 54001:1 55563:1 56270:1 61044:1 61053:1 61077:1 61200:1 61350:1 61500:1 61775:1 61782:1 61788:1 61793:1 61807:1 61818:1  |EV| 
-0.01 11065:1 27998:1 33162:1 55910:1 56270:1 56956:1 57884:1 58718:1 60475:1 61044:1 61053:1 61054:1 61231:1 61343:1 61486:1 61775:1 61782:1 61788:1 61793:1 61804:1 61814:1  |EV| 
-0.01 364:1 15769:1 33371:1 53433:1 53438:1 53447:1 53457:1 53560:1 53568:1 53621:1 53622:1 53623:1 53624:1 55415:1 56270:1 56331:1 57921:1 58463:1 59112:1 61046:1 61053:1 61062:1 61201:1 61356:1 61501:1 61775:1 61782:1 61789:1 61793:1 61818:1  |EV| 
-0.01 10125:1 26943:1 46390:1 53430:1 53432:1 53433:1 53438:1 53475:1 53507:1 53601:1 53615:1 54007:1 54475:1 54847:1 54848:1 55981:1 56270:1 61046:1 61053:1 61084:1 61203:1 61362:1 61493:1 61775:1 61782:1 61789:1 61793:1 61804:1 61815:1 61817:1 61818:1  |EV| 
-0.01 17:1 15408:1 33002:1 53430:1 53433:1 55356:1 56270:1 61044:1 61053:1 61061:1 61199:1 61345:1 61486:1 61775:1 61784:1 61789:1 61793:1 61794:1 61805:1 61806:1 61815:1 61818:1  |EV| 
-0.01 76:1 15467:1 33061:1 53430:1 53433:1 53449:1 53450:1 53451:1 53452:1 53453:1 53454:1 53455:1 55356:1 56270:1 56292:1 57892:1 58437:1 59052:1 61046:1 61053:1 61059:1 61199:1 61365:1 61501:1 61775:1 61782:1 61789:1 61793:1 61794:1 61809:1 61815:1 61818:1  |EV| 
-0.01 14568:1 32080:1 52466:1 53428:1 53433:1 53464:1 53488:1 53510:1 53783:1 54165:1 54341:1 54479:1 55277:1 55278:1 55279:1 56232:1 56270:1 61046:1 61053:1 61084:1 61222:1 61365:1 61501:1 61775:1 61784:1 61789:1 61793:1 61811:1 61818:1  |EV| 
-0.01 641:1 16053:1 33705:1 53453:1 53634:1 55449:1 56270:1 57876:1 61044:1 61053:1 61054:1 61200:1 61345:1 61486:1 61775:1 61782:1 61790:1 61793:1 61804:1 61821:1  |EV| 
-0.01 1017:1 16464:1 33162:1 55469:1 56270:1 57876:1 61044:1 61053:1 61054:1 61231:1 61343:1 61486:1 61775:1 61782:1 61790:1 61793:1 61799:1 61804:1 61820:1  |EV| 
-0.0095870315011314083 1006:1 24884:1 44160:1 53433:1 54356:1 55418:1 56270:1 57876:1 61044:1 61053:1 61054:1 61200:1 61345:1 61486:1 61775:1 61782:1 61790:1 61793:1 61804:1 61814:1 61821:1  |EV| 
-0.0044570121209337307 2360:1 26454:1 45809:1 53457:1 53466:1 53553:1 53680:1 55398:1 56270:1 61044:1 61053:1 61075:1 61200:1 61366:1 61486:1 61775:1 61782:1 61790:1 61793:1 61804:1 61821:1  |EV| 
-0.01 15379:1 32971:1 34082:1 53433:1 53457:1 56198:1 56270:1 57876:1 61044:1 61053:1 61054:1 61200:1 61345:1 61486:1 61775:1 61782:1 61790:1 61793:1 61804:1 61821:1  |EV| 
-0.01 5829:1 21827:1 40428:1 53430:1 53438:1 53503:1 53504:1 53542:1 53586:1 53587:1 55504:1 56270:1 57876:1 61047:1 61052:1 61054:1 61210:1 61355:1 61504:1 61775:1 61782:1 61789:1 61793:1 61804:1 61818:1  |EV| 
-0.01 12969:1 30178:1 50184:1 53433:1 53438:1 53449:1 53453:1 53464:1 53473:1 53525:1 53584:1 53597:1 53678:1 53694:1 53710:1 53728:1 53729:1 53745:1 53801:1 53981:1 54008:1 54245:1 54997:1 55134:1 55136:1 55400:1 56270:1 57876:1 61044:1 61053:1 61054:1 61259:1 61407:1 61523:1 61775:1 61782:1 61789:1 61793:1 61804:1 61818:1  |EV| 
-0.01 10052:1 28046:1 47714:1 53430:1 53432:1 53433:1 53438:1 53481:1 53488:1 53504:1 53512:1 53675:1 53860:1 53918:1 54404:1 54471:1 54573:1 54580:1 54788:1 55002:1 55003:1 55773:1 56270:1 61045:1 61053:1 61083:1 61263:1 61370:1 61532:1 61775:1 61782:1 61789:1 61793:1 61804:1 61818:1  |EV| 
-0.01 8659:1 25247:1 44392:1 53430:1 53432:1 53433:1 53460:1 53464:1 53466:1 53558:1 53974:1 54006:1 54110:1 54700:1 54701:1 55352:1 56270:1 57876:1 61044:1 61053:1 61054:1 61228:1 61392:1 61488:1 61775:1 61784:1 61789:1 61793:1 61804:1 61818:1  |EV| 
-0.01 5847:1 21847:1 40451:1 53433:1 53453:1 53464:1 53466:1 53474:1 53555:1 53848:1 54140:1 54459:1 54460:1 54461:1 54462:1 55807:1 55808:1 56270:1 56387:1 57027:1 57878:1 58436:1 58543:1 59899:1 59900:1 61034:1 61045:1 61053:1 61073:1 61228:1 61366:1 61487:1 61775:1 61784:1 61789:1 61793:1 61804:1 61811:1 61818:1  |EV| 
-0.01 10006:1 26819:1 46242:1 53488:1 53675:1 53929:1 55979:1 56270:1 57902:1 61044:1 61053:1 61054:1 61201:1 61348:1 61486:1 61775:1 61782:1 61789:1 61793:1 61804:1 61820:1  |EV| 
-0.01 1316:1 16779:1 34998:1 53471:1 53764:1 55404:1 56270:1 57976:1 61044:1 61053:1 61054:1 61200:1 61345:1 61486:1 61775:1 61782:1 61788:1 61793:1 61804:1 61815:1  |EV| 
-0.01 9695:1 26499:1 45856:1 53432:1 53626:1 53805:1 55950:1 56270:1 61044:1 61053:1 61075:1 61199:1 61348:1 61486:1 61775:1 61782:1 61789:1 61793:1 61804:1 61820:1  |EV| 
-0.01 839:1 16263:1 34044:1 53433:1 53632:1 53638:1 55428:1 56270:1 57876:1 61044:1 61053:1 61061:1 61200:1 61348:1 61486:1 61775:1 61782:1 61789:1 61793:1 61804:1 61817:1 61819:1  |EV| 
-0.01 13259:1 30529:1 51235:1 53433:1 53466:1 53732:1 55458:1 56270:1 61044:1 61053:1 61075:1 61199:1 61348:1 61486:1 61775:1 61782:1 61789:1 61793:1 61804:1 61819:1  |EV| 
-0.01 9867:1 26676:1 46083:1 53430:1 53433:1 53438:1 54206:1 54251:1 54443:1 54444:1 55837:1 56270:1 57899:1 61044:1 61053:1 61067:1 61199:1 61350:1 61500:1 61775:1 61783:1 61789:1 61793:1 61818:1  |EV| 
-0.01 13324:1 30600:1 50580:1 53464:1 53473:1 53694:1 53729:1 54245:1 55400:1 56270:1 61044:1 61053:1 61074:1 61200:1 61378:1 61486:1 61775:1 61783:1 61789:1 61793:1 61818:1  |EV| 
-0.01 3187:1 18910:1 37083:1 53428:1 53438:1 53612:1 54069:1 54073:1 55368:1 55369:1 56270:1 61033:1 61034:1 61035:1 61044:1 61053:1 61061:1 61204:1 61378:1 61486:1 61775:1 61783:1 61789:1 61793:1 61805:1 61818:1  |EV| 
-0.01 14985:1 32526:1 52927:1 53452:1 53474:1 53475:1 53481:1 55412:1 56270:1 61044:1 61053:1 61074:1 61199:1 61366:1 61486:1 61775:1 61785:1 61789:1 61793:1 61799:1 61815:1 61818:1 61819:1  |EV| 
-0.01 811:1 16232:1 33926:1 53438:1 53671:1 53672:1 55429:1 56270:1 61044:1 61053:1 61061:1 61200:1 61348:1 61486:1 61775:1 61783:1 61789:1 61793:1 61805:1 61806:1 61818:1  |EV| 
-0.01 4206:1 20103:1 38559:1 53457:1 53519:1 53626:1 53743:1 53745:1 55482:1 56270:1 57876:1 61044:1 61053:1 61054:1 61222:1 61378:1 61486:1 61775:1 61782:1 61789:1 61793:1 61799:1 61804:1  |EV| 
-0.01 2014:1 17530:1 35592:1 53430:1 53433:1 53466:1 53841:1 53959:1 53960:1 53961:1 53962:1 53963:1 55340:1 56270:1 57925:1 61045:1 61053:1 61056:1 61203:1 61371:1 61487:1 61775:1 61782:1 61789:1 61793:1 61804:1 61817:1 61818:1  |EV| 
-0.01 358:1 15763:1 33365:1 53432:1 53481:1 53614:1 55403:1 56270:1 57876:1 61044:1 61053:1 61075:1 61199:1 61348:1 61486:1 61775:1 61782:1 61789:1 61793:1 61804:1 61817:1  |EV| 
-0.01 8563:1 25118:1 44238:1 54697:1 55400:1 56270:1 57876:1 61044:1 61053:1 61054:1 61199:1 61344:1 61486:1 61775:1 61782:1 61789:1 61793:1 61804:1 61817:1  |EV| 
-0.01 1721:1 17230:1 35258:1 53675:1 55431:1 56270:1 57876:1 61044:1 61053:1 61054:1 61199:1 61344:1 61486:1 61775:1 61782:1 61789:1 61793:1 61804:1 61815:1 61817:1  |EV| 
-0.01 4:1 25337:1 44612:1 53438:1 53453:1 53507:1 53553:1 55340:1 56270:1 61046:1 61053:1 61078:1 61200:1 61363:1 61489:1 61775:1 61782:1 61789:1 61793:1 61815:1 61818:1  |EV| 
-0.01 2975:1 18655:1 36795:1 53428:1 53496:1 55365:1 56270:1 57878:1 61045:1 61053:1 61055:1 61201:1 61343:1 61505:1 61775:1 61782:1 61789:1 61793:1 61818:1  |EV| 
-0.01 15315:1 32906:1 53349:1 53430:1 53450:1 53452:1 53453:1 53477:1 53479:1 53612:1 55329:1 56261:1 56270:1 61044:1 61053:1 61086:1 61201:1 61346:1 61500:1 61775:1 61782:1 61788:1 61793:1 61804:1 61814:1  |EV| 
-0.01 1308:1 16768:1 34612:1 53433:1 53466:1 53648:1 53710:1 53730:1 53772:1 53773:1 53775:1 53845:1 55481:1 56270:1 61044:1 61053:1 61077:1 61200:1 61350:1 61500:1 61775:1 61782:1 61789:1 61793:1 61804:1  |EV| 
-0.01 5325:1 21295:1 40223:1 53432:1 53570:1 55369:1 55691:1 56270:1 61034:1 61044:1 61053:1 61061:1 61199:1 61345:1 61486:1 61775:1 61782:1 61789:1 61793:1 61799:1 61804:1 61815:1  |EV| 
-0.01 7473:1 23895:1 43607:1 53433:1 53488:1 54605:1 55878:1 56270:1 57876:1 61044:1 61053:1 61054:1 61201:1 61348:1 61486:1 61775:1 61782:1 61789:1 61793:1 61804:1 61815:1  |EV| 
-0.01 12852:1 30028:1 49930:1 53428:1 53433:1 53488:1 54404:1 56146:1 56270:1 57876:1 61044:1 61053:1 61054:1 61204:1 61366:1 61486:1 61775:1 61782:1 61789:1 61793:1 61804:1  |EV| 
-0.01 4293:1 20200:1 33070:1 53433:1 55685:1 56270:1 57876:1 61044:1 61053:1 61054:1 61199:1 61344:1 61486:1 61775:1 61782:1 61788:1 61793:1 61804:1 61814:1  |EV| 
-0.01 8432:1 24966:1 33070:1 53433:1 55927:1 56270:1 57876:1 61044:1 61053:1 61054:1 61199:1 61344:1 61486:1 61775:1 61782:1 61788:1 61793:1 61804:1 61814:1  |EV| 
-0.01 12588:1 29755:1 33162:1 56127:1 56270:1 57876:1 61044:1 61053:1 61054:1 61231:1 61343:1 61486:1 61775:1 61782:1 61788:1 61793:1 61804:1 61817:1  |EV| 
-0.01 13709:1 31175:1 51378:1 53438:1 53542:1 53675:1 56168:1 56270:1 57771:1 58390:1 58994:1 60802:1 61046:1 61053:1 61060:1 61199:1 61363:1 61489:1 61775:1 61782:1 61789:1 61793:1 61815:1 61818:1  |EV| 
-0.01 6722:1 22903:1 41704:1 53433:1 53457:1 53776:1 55854:1 56270:1 57878:1 61046:1 61053:1 61060:1 61231:1 61362:1 61489:1 61775:1 61784:1 61791:1 61793:1 61805:1 61811:1 61818:1 61819:1  |EV| 
-0.01 14851:1 32370:1 52763:1 53432:1 53452:1 55412:1 56270:1 57878:1 61046:1 61053:1 61057:1 61199:1 61349:1 61489:1 61775:1 61783:1 61789:1 61793:1 61799:1 61805:1 61815:1 61818:1 61819:1  |EV| 
-0.01 12874:1 30054:1 50943:1 53433:1 53464:1 53597:1 53678:1 53694:1 53728:1 53729:1 53745:1 53801:1 54245:1 55134:1 55400:1 56270:1 57919:1 61045:1 61053:1 61073:1 61223:1 61348:1 61487:1 61775:1 61782:1 61789:1 61793:1 61799:1 61804:1 61818:1  |EV| 
-0.01 14779:1 32293:1 52688:1 53428:1 53433:1 53473:1 53514:1 56243:1 56270:1 61046:1 61053:1 61078:1 61199:1 61362:1 61489:1 61775:1 61783:1 61790:1 61793:1 61807:1 61818:1  |EV| 
-0.01 9745:1 27262:1 46851:1 53438:1 53453:1 53466:1 53649:1 54882:1 55405:1 56270:1 61044:1 61053:1 61075:1 61201:1 61378:1 61486:1 61775:1 61782:1 61789:1 61793:1 61804:1  |EV| 
-0.01 671:1 16083:1 35828:1 53453:1 53584:1 55405:1 56270:1 57876:1 61044:1 61053:1 61054:1 61200:1 61345:1 61486:1 61775:1 61782:1 61789:1 61793:1 61804:1 61817:1  |EV| 
-0.01 1974:1 17489:1 35546:1 53597:1 53937:1 55539:1 56270:1 57876:1 61044:1 61053:1 61054:1 61200:1 61345:1 61486:1 61775:1 61782:1 61789:1 61793:1 61799:1 61804:1 61815:1  |EV| 
-0.01 5850:1 21850:1 41014:1 53438:1 53488:1 53503:1 53504:1 54206:1 54454:1 54455:1 55624:1 56270:1 61044:1 61053:1 61074:1 61222:1 61346:1 61500:1 61775:1 61782:1 61789:1 61793:1 61818:1  |EV| 
-0.005173816997308605 10582:1 27503:1 47091:1 53453:1 53466:1 53540:1 53658:1 54918:1 55652:1 56270:1 61044:1 61053:1 61070:1 61200:1 61371:1 61486:1 61775:1 61782:1 61788:1 61793:1 61804:1 61814:1  |EV| 
-0.006655876389271214 7561:1 32750:1 53171:1 53430:1 53438:1 53488:1 53519:1 53528:1 53541:1 53558:1 53560:1 53561:1 53567:1 53612:1 53692:1 54139:1 55083:1 55313:1 55314:1 55493:1 56270:1 61046:1 61053:1 61082:1 61199:1 61359:1 61536:1 61775:1 61782:1 61789:1 61793:1 61818:1  |EV| 
-0.01 6761:1 22952:1 37997:1 53466:1 55854:1 56270:1 56956:1 57884:1 58718:1 59968:1 61044:1 61053:1 61061:1 61231:1 61344:1 61486:1 61775:1 61784:1 61791:1 61793:1 61806:1 61818:1 61819:1  |EV| 
-0.01 13761:1 31227:1 51387:1 53531:1 53700:1 53783:1 55395:1 56270:1 57876:1 61047:1 61052:1 61054:1 61214:1 61362:1 61491:1 61775:1 61782:1 61790:1 61793:1 61804:1 61815:1  |EV| 
-0.01 10394:1 27093:1 35206:1 53433:1 53464:1 55782:1 55790:1 56270:1 61036:1 61044:1 61053:1 61054:1 61200:1 61345:1 61486:1 61775:1 61782:1 61789:1 61793:1 61804:1 61820:1  |EV| 
-0.01 7569:1 24004:1 42934:1 53433:1 53460:1 53507:1 53584:1 55437:1 55504:1 56270:1 57876:1 61034:1 61035:1 61044:1 61053:1 61054:1 61204:1 61366:1 61486:1 61775:1 61782:1 61789:1 61793:1 61804:1  |EV| 
-0.01 12845:1 30021:1 47562:1 53428:1 53433:1 55773:1 56270:1 57876:1 61044:1 61053:1 61054:1 61200:1 61345:1 61486:1 61775:1 61782:1 61789:1 61793:1 61804:1 61815:1 61816:1  |EV| 
-0.01 3264:1 18990:1 37270:1 53433:1 53918:1 55609:1 56270:1 57876:1 61044:1 61053:1 61054:1 61200:1 61345:1 61486:1 61775:1 61782:1 61789:1 61793:1 61804:1 61815:1 61816:1  |EV| 
-0.0066553296423377661 876:1 16304:1 34039:1 53433:1 53488:1 53632:1 53638:1 53664:1 55420:1 56270:1 57876:1 61044:1 61053:1 61061:1 61204:1 61378:1 61486:1 61775:1 61782:1 61789:1 61793:1 61804:1 61815:1  |EV| 
-0.01 10278:1 27104:1 52826:1 53433:1 53481:1 55417:1 56270:1 57876:1 61044:1 61053:1 61061:1 61199:1 61345:1 61486:1 61775:1 61782:1 61790:1 61793:1 61804:1 61821:1  |EV| 
-0.01 10473:1 27314:1 46795:1 53433:1 53929:1 54079:1 56001:1 56270:1 57876:1 61044:1 61053:1 61054:1 61201:1 61348:1 61486:1 61775:1 61782:1 61789:1 61793:1 61804:1 61817:1  |EV| 
-0.01 6794:1 22994:1 41792:1 53433:1 53453:1 53457:1 53466:1 53512:1 53776:1 53888:1 53918:1 54531:1 54532:1 54533:1 55835:1 56270:1 61044:1 61053:1 61077:1 61204:1 61367:1 61500:1 61775:1 61782:1 61790:1 61793:1 61804:1 61815:1 61821:1  |EV| 
-0.01 2241:1 17802:1 35856:1 53453:1 53471:1 53584:1 53743:1 53774:1 53775:1 53983:1 53984:1 55352:1 56270:1 61044:1 61053:1 61077:1 61200:1 61350:1 61500:1 61775:1 61782:1 61789:1 61793:1 61804:1 61817:1  |EV| 
-0.0099363803141014704 11192:1 28130:1 47836:1 53432:1 53447:1 53466:1 53855:1 54093:1 55004:1 55622:1 56270:1 61044:1 61053:1 61086:1 61199:1 61371:1 61486:1 61775:1 61784:1 61789:1 61793:1 61799:1 61811:1 61815:1 61818:1  |EV| 
-0.00089897625136980042 11900:1 28944:1 48735:1 53432:1 53466:1 53471:1 53763:1 54190:1 55057:1 56093:1 56094:1 56270:1 61033:1 61037:1 61044:1 61053:1 61068:1 61199:1 61346:1 61500:1 61775:1 61782:1 61789:1 61793:1 61804:1 61817:1  |EV| 
-2.6195297138563096e-005 4298:1 20205:1 38657:1 53453:1 53466:1 54242:1 54243:1 55683:1 56270:1 61044:1 61053:1 61074:1 61199:1 61366:1 61486:1 61775:1 61782:1 61789:1 61793:1 61804:1 61817:1  |EV| 
-0.01 6383:1 22493:1 51723:1 53597:1 53944:1 55182:1 55183:1 55404:1 56270:1 57876:1 61044:1 61053:1 61054:1 61204:1 61366:1 61486:1 61775:1 61782:1 61788:1 61793:1 61804:1  |EV| 
-0.01 1090:1 16920:1 34859:1 53433:1 53528:1 53694:1 53768:1 55458:1 56270:1 57876:1 61044:1 61053:1 61061:1 61201:1 61366:1 61486:1 61775:1 61782:1 61789:1 61793:1 61804:1 61817:1  |EV| 
-0.01 2062:1 17582:1 35643:1 53433:1 53990:1 55395:1 56270:1 57876:1 61044:1 61053:1 61061:1 61199:1 61345:1 61486:1 61775:1 61782:1 61790:1 61793:1 61799:1 61804:1 61820:1  |EV| 
-0.0036270865177182136 1423:1 16908:1 34837:1 53433:1 53489:1 53725:1 53802:1 55492:1 56270:1 57876:1 61044:1 61053:1 61054:1 61204:1 61366:1 61486:1 61775:1 61782:1 61788:1 61793:1 61804:1 61815:1  |EV| 
-0.0066004346546788967 11038:1 27960:1 47617:1 53464:1 53729:1 55400:1 56270:1 57876:1 61044:1 61053:1 61054:1 61200:1 61345:1 61486:1 61775:1 61782:1 61788:1 61793:1 61804:1 61820:1  |EV| 
-0.0041254819220497493 3065:1 18757:1 36913:1 53428:1 53438:1 53488:1 53612:1 54069:1 54071:1 54073:1 55368:1 55369:1 56270:1 61033:1 61034:1 61035:1 61044:1 61053:1 61074:1 61204:1 61361:1 61486:1 61775:1 61783:1 61789:1 61793:1 61807:1 61809:1 61818:1  |EV| 
-0.01 14119:1 31627:1 51928:1 53628:1 56183:1 56270:1 57876:1 61044:1 61053:1 61054:1 61199:1 61344:1 61486:1 61775:1 61782:1 61789:1 61793:1 61799:1 61804:1 61815:1 61819:1  |EV| 
-0.01 12626:1 29793:1 49702:1 53466:1 53808:1 55088:1 55672:1 56270:1 57902:1 61044:1 61053:1 61054:1 61201:1 61348:1 61486:1 61775:1 61782:1 61789:1 61793:1 61799:1 61804:1 61815:1  |EV| 
-0.0069594702068902971 5007:1 20939:1 39458:1 53488:1 53553:1 53820:1 54218:1 54342:1 54360:1 55401:1 56270:1 61044:1 61053:1 61054:1 61234:1 61371:1 61486:1 61775:1 61782:1 61789:1 61793:1 61804:1 61815:1  |EV| 
-0.0068993925807299943 13787:1 31257:1 51531:1 53466:1 53596:1 53680:1 55412:1 56270:1 61044:1 61053:1 61075:1 61199:1 61348:1 61486:1 61775:1 61782:1 61789:1 61793:1 61804:1 61820:1  |EV| 
-0.01 11932:1 28982:1 48733:1 53433:1 53438:1 53449:1 53453:1 53488:1 53506:1 53538:1 53626:1 53710:1 54009:1 54018:1 54019:1 54169:1 54474:1 55059:1 55060:1 55061:1 55475:1 56270:1 61046:1 61053:1 61109:1 61206:1 61355:1 61547:1 61775:1 61782:1 61788:1 61793:1 61804:1 61818:1  |EV| 
-0.01 11824:1 28854:1 48579:1 53433:1 53438:1 53453:1 53538:1 53626:1 53710:1 54009:1 54169:1 54474:1 55060:1 55475:1 56270:1 61045:1 61053:1 61083:1 61206:1 61345:1 61487:1 61775:1 61782:1 61788:1 61793:1 61804:1 61818:1  |EV| 
-0.01 14809:1 32324:1 52718:1 53430:1 53432:1 53433:1 53438:1 53452:1 53474:1 53475:1 53481:1 53505:1 53510:1 53569:1 53592:1 53622:1 53675:1 53803:1 53894:1 55296:1 55297:1 55412:1 56270:1 57876:1 61044:1 61053:1 61068:1 61223:1 61397:1 61549:1 61775:1 61784:1 61789:1 61793:1 61804:1 61815:1 61818:1 61819:1  |EV| 
-0.0086732291314900352 3366:1 19094:1 37397:1 53428:1 53430:1 53433:1 53438:1 53475:1 53491:1 53507:1 53516:1 53536:1 53555:1 53670:1 54007:1 54058:1 54141:1 54142:1 54143:1 54153:1 54154:1 54155:1 54156:1 54157:1 54158:1 54159:1 55451:1 56270:1 61047:1 61052:1 61107:1 61247:1 61349:1 61555:1 61775:1 61782:1 61789:1 61793:1 61799:1 61804:1 61818:1  |EV| 
-0.01 6859:1 23897:1 43073:1 53428:1 53430:1 53433:1 53438:1 53475:1 54606:1 54607:1 55870:1 56270:1 61049:1 61053:1 61077:1 61218:1 61348:1 61502:1 61775:1 61782:1 61789:1 61793:1 61804:1 61818:1  |EV| 
-0.01 3501:1 19338:1 37656:1 53428:1 53430:1 53433:1 53438:1 53475:1 53491:1 53507:1 53516:1 53536:1 53555:1 53670:1 54058:1 54141:1 54142:1 54143:1 54153:1 54154:1 54155:1 54156:1 54157:1 54158:1 54159:1 55451:1 56270:1 58094:1 61048:1 61053:1 61085:1 61209:1 61408:1 61563:1 61775:1 61782:1 61789:1 61793:1 61804:1 61818:1  |EV| 
-0.01 3005:1 18762:1 36917:1 53428:1 53430:1 53433:1 53438:1 53466:1 53496:1 53546:1 53580:1 53581:1 53596:1 53597:1 53612:1 53630:1 53639:1 53655:1 54065:1 54067:1 54068:1 55598:1 55599:1 56270:1 57876:1 61033:1 61034:1 61044:1 61053:1 61054:1 61220:1 61382:1 61549:1 61775:1 61782:1 61789:1 61793:1 61804:1 61818:1  |EV| 
-0.01 2083:1 17606:1 35666:1 53453:1 53466:1 53507:1 53649:1 53965:1 53966:1 55340:1 56270:1 58434:1 59051:1 61047:1 61052:1 61069:1 61212:1 61342:1 61491:1 61775:1 61783:1 61789:1 61793:1 61817:1 61818:1  |EV| 
-0.01 13777:1 31246:1 51411:1 53433:1 53558:1 53783:1 53994:1 54101:1 54788:1 56033:1 56173:1 56270:1 58451:1 60806:1 61047:1 61052:1 61075:1 61212:1 61358:1 61491:1 61775:1 61783:1 61789:1 61793:1 61805:1 61815:1 61818:1  |EV| 
-0.01 3567:1 24050:1 42990:1 53438:1 53453:1 53475:1 53530:1 53855:1 54078:1 54199:1 54625:1 55423:1 56270:1 61049:1 61053:1 61067:1 61213:1 61344:1 61502:1 61775:1 61782:1 61788:1 61793:1 61804:1 61818:1  |EV| 
-0.0070348114298260205 3567:1 24050:1 43136:1 53438:1 53530:1 53855:1 54078:1 54625:1 55423:1 56270:1 61047:1 61052:1 61070:1 61213:1 61349:1 61491:1 61775:1 61782:1 61788:1 61793:1 61818:1  |EV| 
-0.01 14016:1 31512:1 51752:1 53783:1 56189:1 56270:1 57876:1 61047:1 61052:1 61054:1 61219:1 61349:1 61491:1 61775:1 61782:1 61788:1 61793:1 61799:1 61804:1  |EV| 
-0.01 8374:1 24905:1 44370:1 53430:1 53432:1 53433:1 53438:1 53457:1 53460:1 53464:1 53466:1 53541:1 53558:1 53592:1 53771:1 53974:1 54006:1 54110:1 54245:1 54698:1 54700:1 54701:1 55352:1 56270:1 61044:1 61053:1 61077:1 61228:1 61388:1 61549:1 61775:1 61782:1 61789:1 61793:1 61804:1 61818:1  |EV| 
-0.01 1519:1 17016:1 35040:1 53433:1 53438:1 53450:1 53453:1 53466:1 53488:1 53542:1 53700:1 53724:1 53859:1 53860:1 53861:1 53862:1 53863:1 53864:1 53865:1 53866:1 53867:1 53868:1 53869:1 55500:1 56270:1 61044:1 61053:1 61072:1 61234:1 61388:1 61495:1 61775:1 61782:1 61790:1 61793:1 61818:1  |EV| 
-0.01 3018:1 18700:1 36844:1 53430:1 53433:1 53488:1 53692:1 55396:1 56270:1 61046:1 61053:1 61078:1 61200:1 61363:1 61489:1 61775:1 61782:1 61789:1 61793:1 61818:1  |EV| 
-0.01 5281:1 21249:1 39776:1 53430:1 53432:1 53433:1 53438:1 53479:1 53488:1 53566:1 53594:1 53659:1 53874:1 53899:1 54061:1 54171:1 54206:1 54395:1 54396:1 54397:1 54398:1 54399:1 54400:1 54401:1 54406:1 55777:1 56270:1 61044:1 61053:1 61103:1 61231:1 61403:1 61534:1 61775:1 61784:1 61788:1 61793:1 61799:1 61811:1 61818:1  |EV| 
-0.01 32:1 15423:1 33017:1 53428:1 53429:1 53430:1 53432:1 53433:1 53434:1 53435:1 53436:1 53437:1 53462:1 55341:1 56270:1 61044:1 61053:1 61068:1 61201:1 61350:1 61500:1 61775:1 61782:1 61789:1 61793:1 61804:1  |EV| 
-0.009058587013085477 14162:1 31672:1 52015:1 53430:1 53432:1 53433:1 53446:1 53447:1 53450:1 53453:1 53466:1 53475:1 53489:1 53543:1 53558:1 53582:1 53687:1 53725:1 53737:1 53783:1 53803:1 53835:1 53994:1 54101:1 54747:1 54788:1 54958:1 55170:1 55172:1 55173:1 55174:1 55175:1 55176:1 56033:1 56173:1 56270:1 61047:1 61052:1 61103:1 61280:1 61354:1 61527:1 61775:1 61782:1 61789:1 61793:1 61804:1 61815:1 61818:1  |EV| 
-0.01 6230:1 22322:1 41080:1 53433:1 53453:1 53464:1 53466:1 53473:1 53474:1 53505:1 53542:1 53555:1 53848:1 54459:1 54460:1 55391:1 56270:1 57937:1 61047:1 61052:1 61061:1 61208:1 61369:1 61490:1 61775:1 61784:1 61789:1 61793:1 61804:1 61811:1 61818:1  |EV| 
-0.01 10675:1 27543:1 47109:1 53447:1 53496:1 54904:1 56013:1 56270:1 57878:1 61048:1 61053:1 61056:1 61205:1 61358:1 61492:1 61775:1 61782:1 61789:1 61793:1 61818:1 61819:1  |EV| 
-0.01 5865:1 21866:1 40472:1 53433:1 53453:1 53464:1 53466:1 53473:1 53542:1 53555:1 53848:1 54459:1 54460:1 55391:1 56270:1 57878:1 61048:1 61053:1 61073:1 61219:1 61369:1 61496:1 61775:1 61784:1 61789:1 61793:1 61804:1 61811:1 61818:1  |EV| 
-0.0039463307101746045 13772:1 31241:1 51405:1 53432:1 53433:1 53725:1 56177:1 56270:1 57876:1 61047:1 61052:1 61054:1 61214:1 61362:1 61491:1 61775:1 61782:1 61791:1 61793:1 61804:1 61819:1  |EV| 
-0.0091382000190994676 3749:1 19604:1 37973:1 53433:1 53438:1 53496:1 53515:1 53546:1 53639:1 54183:1 54184:1 55405:1 56270:1 56807:1 58031:1 58669:1 59631:1 61044:1 61053:1 61068:1 61200:1 61347:1 61500:1 61775:1 61785:1 61789:1 61793:1 61809:1 61818:1  |EV| 
-0.01 13841:1 31318:1 51502:1 53430:1 53433:1 53700:1 53783:1 54372:1 55215:1 55216:1 56188:1 56270:1 61044:1 61053:1 61061:1 61234:1 61361:1 61486:1 61775:1 61783:1 61788:1 61793:1 61818:1  |EV| 
-0.01 15204:1 32787:1 53213:1 53428:1 53438:1 53453:1 53475:1 53512:1 54165:1 54531:1 55312:1 56257:1 56270:1 61044:1 61053:1 61068:1 61200:1 61347:1 61500:1 61775:1 61783:1 61789:1 61793:1 61810:1 61818:1  |EV| 
-0.008222636438779525 5171:1 21117:1 39642:1 53430:1 55771:1 56270:1 56395:1 57881:1 58433:1 59840:1 61045:1 61053:1 61087:1 61200:1 61343:1 61505:1 61775:1 61784:1 61789:1 61793:1 61808:1 61818:1  |EV| 
-0.0064163144768433341 2121:1 17652:1 33183:1 55555:1 56270:1 57881:1 61048:1 61053:1 61087:1 61198:1 61349:1 61492:1 61775:1 61782:1 61788:1 61793:1 61804:1  |EV| 
-0.01 10133:1 26951:1 46396:1 53430:1 53432:1 53438:1 53601:1 53615:1 54007:1 54475:1 54847:1 54848:1 55981:1 56270:1 61045:1 61053:1 61083:1 61203:1 61344:1 61487:1 61775:1 61782:1 61789:1 61793:1 61804:1 61815:1 61817:1 61818:1  |EV| 
-0.01 3008:1 18690:1 36833:1 53453:1 53474:1 53475:1 53686:1 54077:1 55366:1 56270:1 56674:1 58068:1 58632:1 59530:1 61046:1 61053:1 61090:1 61199:1 61358:1 61489:1 61775:1 61782:1 61788:1 61793:1 61807:1 61818:1  |EV| 
-0.01 6859:1 23897:1 42847:1 53428:1 53430:1 53433:1 53438:1 53475:1 53488:1 53514:1 53778:1 54464:1 54606:1 54607:1 54615:1 54628:1 55870:1 56270:1 61049:1 61053:1 61071:1 61218:1 61372:1 61494:1 61775:1 61782:1 61789:1 61793:1 61804:1 61818:1  |EV| 
-0.01 14797:1 32311:1 40666:1 53474:1 53481:1 56250:1 56270:1 57876:1 61047:1 61052:1 61061:1 61218:1 61349:1 61491:1 61775:1 61782:1 61791:1 61793:1 61799:1 61804:1  |EV| 
-0.01 12783:1 29955:1 49855:1 53432:1 53433:1 53639:1 55111:1 56140:1 56270:1 56513:1 57937:1 58543:1 60719:1 61044:1 61053:1 61061:1 61201:1 61366:1 61486:1 61775:1 61782:1 61791:1 61793:1 61804:1  |EV| 
-0.01 6315:1 22422:1 41198:1 53430:1 53432:1 53433:1 53438:1 53450:1 53453:1 53466:1 53473:1 53481:1 53488:1 53520:1 53541:1 53665:1 53756:1 53803:1 53873:1 53916:1 53969:1 54164:1 54376:1 54428:1 54454:1 54455:1 54456:1 54458:1 55504:1 56270:1 61044:1 61053:1 61103:1 61231:1 61403:1 61534:1 61775:1 61782:1 61789:1 61793:1 61804:1 61818:1  |EV| 
-0.01 6812:1 23013:1 35224:1 53453:1 55836:1 56270:1 57876:1 61044:1 61053:1 61054:1 61199:1 61344:1 61486:1 61775:1 61782:1 61790:1 61793:1 61804:1 61821:1  |EV| 
-0.01 2671:1 18292:1 33162:1 55390:1 56270:1 57876:1 61044:1 61053:1 61054:1 61231:1 61343:1 61486:1 61775:1 61782:1 61789:1 61793:1 61804:1 61817:1  |EV| 
-0.0068452140991477079 11043:1 27966:1 47624:1 53543:1 54979:1 56045:1 56270:1 57876:1 61044:1 61053:1 61054:1 61200:1 61345:1 61486:1 61775:1 61782:1 61790:1 61793:1 61804:1 61815:1 61816:1  |EV| 
-0.01 14913:1 32444:1 33162:1 55759:1 56270:1 57876:1 61044:1 61053:1 61054:1 61231:1 61343:1 61486:1 61775:1 61782:1 61789:1 61793:1 61804:1 61817:1  |EV| 
-0.01 8536:1 25081:1 44199:1 53428:1 53432:1 53433:1 53438:1 53453:1 53457:1 54730:1 54744:1 55352:1 56270:1 56322:1 57907:1 58458:1 60176:1 61046:1 61053:1 61062:1 61222:1 61374:1 61501:1 61775:1 61782:1 61789:1 61793:1 61805:1 61818:1  |EV| 
-0.0061507322488182263 15098:1 32662:1 53073:1 53428:1 53433:1 53453:1 53461:1 53516:1 53552:1 53575:1 53584:1 53803:1 55312:1 56257:1 56270:1 58420:1 61046:1 61053:1 61062:1 61200:1 61365:1 61501:1 61775:1 61784:1 61789:1 61793:1 61807:1 61818:1  |EV| 
-0.0086952991913600008 3764:1 19627:1 38000:1 53432:1 53433:1 53438:1 53446:1 53447:1 53453:1 53519:1 53520:1 53529:1 53546:1 54191:1 54192:1 55405:1 56270:1 58099:1 61046:1 61053:1 61079:1 61200:1 61354:1 61508:1 61775:1 61782:1 61789:1 61793:1 61818:1  |EV| 
-0.01 3081:1 18776:1 36935:1 53430:1 53433:1 53488:1 53546:1 53678:1 53692:1 53860:1 55396:1 56270:1 61046:1 61053:1 61073:1 61200:1 61374:1 61489:1 61775:1 61782:1 61789:1 61793:1 61818:1  |EV| 
-0.0019002140135075632 15063:1 32623:1 53033:1 53428:1 53433:1 53438:1 53584:1 53710:1 53874:1 54357:1 54753:1 55318:1 55319:1 55320:1 55431:1 56270:1 61046:1 61053:1 61104:1 61200:1 61353:1 61508:1 61775:1 61784:1 61789:1 61793:1 61805:1 61807:1 61818:1  |EV| 
-0.01 6460:1 22572:1 43060:1 54625:1 55597:1 56270:1 57876:1 61047:1 61052:1 61054:1 61219:1 61349:1 61491:1 61775:1 61782:1 61788:1 61793:1 61804:1  |EV| 
-0.01 6530:1 23035:1 41835:1 53474:1 53484:1 54557:1 55371:1 56270:1 57937:1 61047:1 61052:1 61061:1 61214:1 61363:1 61491:1 61775:1 61782:1 61788:1 61793:1 61804:1  |EV| 
-0.0093557864492611002 10094:1 26933:1 46380:1 53466:1 53488:1 53929:1 54175:1 54470:1 54850:1 55378:1 56270:1 58300:1 61044:1 61053:1 61054:1 61227:1 61361:1 61486:1 61775:1 61782:1 61788:1 61793:1 61804:1  |EV| 
-0.0091194604581654477 167:1 19023:1 37214:1 53432:1 53438:1 54113:1 55371:1 56270:1 57876:1 61044:1 61053:1 61054:1 61201:1 61348:1 61486:1 61775:1 61782:1 61788:1 61793:1 61804:1  |EV| 
-0.0063164184703890236 3090:1 24187:1 43347:1 53438:1 53453:1 53679:1 55371:1 56270:1 57876:1 61044:1 61053:1 61054:1 61201:1 61348:1 61486:1 61775:1 61782:1 61788:1 61793:1 61804:1  |EV| 
-0.0045841030585867639 13462:1 30818:1 50835:1 53430:1 53433:1 53438:1 53446:1 53447:1 53456:1 53457:1 53458:1 53464:1 53466:1 53471:1 53473:1 53525:1 53536:1 53597:1 53626:1 53725:1 53736:1 53805:1 53982:1 53993:1 54033:1 55046:1 55056:1 55125:1 55126:1 55127:1 55129:1 55356:1 56108:1 56150:1 56270:1 61034:1 61044:1 61053:1 61123:1 61204:1 61416:1 61577:1 61775:1 61784:1 61789:1 61793:1 61804:1 61818:1  |EV| 
-0.0050395301532893347 13529:1 30917:1 50974:1 53430:1 53433:1 53438:1 53446:1 53447:1 53456:1 53457:1 53458:1 53464:1 53466:1 53471:1 53525:1 53536:1 53548:1 53597:1 53626:1 53725:1 53736:1 53982:1 53993:1 54033:1 55046:1 55056:1 55125:1 55126:1 55127:1 55129:1 55356:1 56108:1 56150:1 56270:1 61034:1 61045:1 61053:1 61105:1 61250:1 61350:1 61572:1 61775:1 61782:1 61789:1 61793:1 61804:1 61818:1  |EV| 
-0.0098480696907565432 1578:1 17080:1 35102:1 53867:1 55457:1 56270:1 57902:1 61044:1 61053:1 61054:1 61199:1 61344:1 61486:1 61775:1 61782:1 61790:1 61793:1 61804:1 61821:1  |EV| 
-0.0067222424145782066 11639:1 28648:1 48363:1 53507:1 53532:1 55572:1 56270:1 57876:1 61047:1 61052:1 61061:1 61218:1 61349:1 61491:1 61775:1 61782:1 61789:1 61793:1 61799:1 61804:1 61815:1  |EV| 
-0.01 6295:1 22400:1 41178:1 53433:1 53453:1 53466:1 53474:1 53555:1 53710:1 54140:1 54460:1 54462:1 55807:1 55808:1 56270:1 61034:1 61044:1 61053:1 61069:1 61201:1 61347:1 61500:1 61775:1 61783:1 61789:1 61793:1 61810:1 61818:1  |EV| 
-0.0071070857769072677 2080:1 17742:1 35800:1 53959:1 55541:1 56270:1 57876:1 61044:1 61053:1 61054:1 61199:1 61344:1 61486:1 61775:1 61782:1 61789:1 61793:1 61804:1 61816:1  |EV| 
-0.0070178534590603081 11506:1 28501:1 35800:1 53959:1 56059:1 56270:1 57876:1 61044:1 61053:1 61054:1 61199:1 61344:1 61486:1 61775:1 61782:1 61789:1 61793:1 61804:1 61816:1  |EV| 
-0.0046506968090714784 10579:1 27427:1 47059:1 53918:1 56008:1 56270:1 57876:1 61044:1 61053:1 61054:1 61199:1 61344:1 61486:1 61775:1 61782:1 61789:1 61793:1 61804:1 61815:1 61816:1 61819:1  |EV| 
-0.01 1091:1 28720:1 48438:1 53428:1 53433:1 53466:1 53648:1 55340:1 56270:1 61044:1 61053:1 61075:1 61200:1 61366:1 61486:1 61775:1 61782:1 61789:1 61793:1 61804:1 61816:1  |EV| 
