SVM-light Version V5.01-TK-1.2
0 # kernel type
3 # kernel parameter -d 
1 # kernel parameter -g 
1 # kernel parameter -s 
1 # kernel parameter -r 
empty# kernel parameter -u 
0.4 # kernel parameter -L 
1 # kernel parameter -T 
T # kernel parameter -C 
1 # kernel parameter -F 
0 # kernel parameter -S 
1.000000 # kernel parameter -D 
3 # kernel parameter -N 
S # kernel parameter -V 
S # kernel parameter -W 
18897 # highest feature index 
6216 # number of training documents 
676 # number of support vectors plus 1 
3.1070654 # threshold b, each following line is a SV (starting with alpha*y)
0.046882122550585013 1278:1 6002:1 9803:1 17060:1 17148:1 17451:1 18292:1 18303:1 18317:1 18425:1 18553:1 18655:1 18853:1 18861:1 18869:1 18874:1 18878:1 18887:1 18897:1  |EV| 
0.083470163988676446 2313:1 7133:1 12511:1 15593:1 15673:1 15745:1 16287:1 17050:1 17148:1 17451:1 18292:1 18303:1 18321:1 18442:1 18541:1 18655:1 18853:1 18861:1 18869:1 18874:1 18887:1 18897:1  |EV| 
-0.028034030404705746 2388:1 7222:1 12617:1 15573:1 16460:1 17068:1 17148:1 17256:1 17463:1 17942:1 18167:1 18294:1 18303:1 18319:1 18442:1 18553:1 18662:1 18853:1 18861:1 18869:1 18874:1 18887:1 18892:1 18897:1  |EV| 
-0.10000000000000001 4:1 4596:1 9746:1 15563:1 15568:1 15569:1 15570:1 15571:1 15574:1 17043:1 17148:1 17448:1 18293:1 18303:1 18313:1 18425:1 18548:1 18656:1 18853:1 18861:1 18869:1 18874:1 18887:1 18897:1  |EV| 
0.03795447821726828 454:1 5087:1 14507:1 15563:1 15571:1 15577:1 15593:1 15650:1 15679:1 15810:1 15839:1 15967:1 16250:1 16511:1 16800:1 16801:1 17044:1 17148:1 18292:1 18303:1 18353:1 18436:1 18573:1 18667:1 18853:1 18861:1 18869:1 18874:1 18887:1 18897:1  |EV| 
-0.02248679735297484 335:1 4957:1 10178:1 15585:1 15837:1 17042:1 17148:1 17519:1 18293:1 18303:1 18325:1 18425:1 18561:1 18656:1 18853:1 18861:1 18869:1 18874:1 18897:1  |EV| 
-0.022147909556766859 272:1 4894:1 10046:1 15571:1 15582:1 15762:1 17054:1 17148:1 18292:1 18303:1 18304:1 18425:1 18545:1 18655:1 18853:1 18865:1 18869:1 18874:1 18892:1 18897:1  |EV| 
0.10000000000000001 25:1 4637:1 9785:1 15563:1 15583:1 15584:1 15585:1 15586:1 15587:1 17046:1 17148:1 18293:1 18303:1 18313:1 18436:1 18562:1 18656:1 18853:1 18861:1 18869:1 18874:1 18887:1 18897:1  |EV| 
0.018869393882652817 803:1 5478:1 10712:1 15575:1 16033:1 17068:1 17148:1 17451:1 18292:1 18303:1 18321:1 18436:1 18559:1 18655:1 18853:1 18861:1 18869:1 18874:1 18887:1 18897:1  |EV| 
-0.10000000000000001 444:1 5076:1 9803:1 17069:1 17070:1 17148:1 17451:1 18285:1 18292:1 18303:1 18317:1 18425:1 18553:1 18655:1 18853:1 18861:1 18869:1 18874:1 18887:1 18897:1  |EV| 
-0.027322012645392829 3006:1 7930:1 13436:1 15577:1 15719:1 15843:1 15878:1 16282:1 16688:1 17046:1 17120:1 17148:1 17451:1 18281:1 18285:1 18292:1 18303:1 18317:1 18423:1 18547:1 18655:1 18853:1 18861:1 18869:1 18874:1 18887:1 18897:1  |EV| 
-0.10000000000000001 335:1 4967:1 9803:1 17042:1 17148:1 17451:1 18292:1 18303:1 18317:1 18425:1 18553:1 18655:1 18853:1 18861:1 18869:1 18874:1 18887:1 18897:1  |EV| 
-0.067731175251510276 1287:1 9292:1 15107:1 15611:1 15690:1 15792:1 15873:1 15898:1 16176:1 17044:1 17148:1 17451:1 18292:1 18303:1 18317:1 18423:1 18547:1 18655:1 18853:1 18861:1 18869:1 18874:1 18878:1 18887:1  |EV| 
-0.10000000000000001 2400:1 7234:1 12626:1 15573:1 15760:1 15820:1 16460:1 17068:1 17148:1 17451:1 18292:1 18303:1 18321:1 18442:1 18541:1 18655:1 18853:1 18861:1 18869:1 18874:1 18887:1 18897:1  |EV| 
0.061836613031714359 1342:1 6067:1 11348:1 15563:1 15571:1 15577:1 15588:1 16210:1 16221:1 17090:1 17148:1 18293:1 18303:1 18313:1 18425:1 18548:1 18656:1 18853:1 18861:1 18869:1 18874:1 18887:1 18897:1  |EV| 
0.10000000000000001 1278:1 6002:1 15543:1 15563:1 15569:1 15571:1 15582:1 15717:1 15727:1 16027:1 16632:1 16734:1 17030:1 17060:1 17148:1 18292:1 18303:1 18320:1 18425:1 18556:1 18667:1 18853:1 18861:1 18869:1 18874:1 18887:1 18897:1  |EV| 
0.10000000000000001 1268:1 5992:1 11256:1 15563:1 15577:1 15588:1 16210:1 17090:1 17148:1 18293:1 18303:1 18307:1 18425:1 18543:1 18656:1 18853:1 18861:1 18869:1 18874:1 18887:1 18897:1  |EV| 
0.10000000000000001 3686:1 9673:1 15472:1 15563:1 15593:1 16846:1 17001:1 17114:1 17148:1 18293:1 18303:1 18307:1 18425:1 18543:1 18656:1 18853:1 18861:1 18869:1 18874:1 18887:1 18897:1  |EV| 
0.10000000000000001 909:1 7353:1 12752:1 15563:1 15566:1 15571:1 15580:1 15679:1 15748:1 16006:1 16127:1 16178:1 16313:1 16420:1 16589:1 17068:1 17148:1 18293:1 18303:1 18324:1 18425:1 18587:1 18663:1 18853:1 18861:1 18869:1 18874:1 18887:1 18897:1  |EV| 
-0.063460848004147752 2084:1 6881:1 9880:1 17055:1 17148:1 17463:1 18294:1 18303:1 18308:1 18436:1 18542:1 18662:1 18853:1 18861:1 18869:1 18874:1 18897:1  |EV| 
-0.10000000000000001 1278:1 6002:1 11345:1 15563:1 15578:1 15587:1 15593:1 15956:1 16194:1 17060:1 17148:1 18293:1 18303:1 18313:1 18425:1 18548:1 18656:1 18853:1 18861:1 18869:1 18874:1 18878:1 18887:1 18897:1  |EV| 
-0.063666705629074227 2487:1 7344:1 12743:1 15563:1 15566:1 15571:1 15580:1 15589:1 15679:1 15748:1 15892:1 16006:1 16125:1 16127:1 16178:1 16313:1 16420:1 16589:1 17068:1 17148:1 18293:1 18303:1 18350:1 18425:1 18598:1 18663:1 18853:1 18861:1 18869:1 18874:1 18887:1 18897:1  |EV| 
-0.034877992148630334 2490:1 7348:1 12747:1 15563:1 15571:1 15580:1 15589:1 15679:1 15748:1 15892:1 15906:1 16006:1 16125:1 16127:1 16178:1 16313:1 16420:1 16589:1 17044:1 17148:1 18293:1 18303:1 18350:1 18436:1 18595:1 18663:1 18853:1 18861:1 18869:1 18874:1 18887:1 18897:1  |EV| 
0.10000000000000001 619:1 5278:1 10497:1 15571:1 15943:1 15946:1 17075:1 17148:1 18297:1 18303:1 18328:1 18438:1 18559:1 18692:1 18853:1 18861:1 18869:1 18874:1 18887:1 18897:1  |EV| 
0.10000000000000001 4022:1 9616:1 10030:1 15563:1 15628:1 17042:1 17148:1 18293:1 18303:1 18325:1 18425:1 18561:1 18656:1 18853:1 18861:1 18869:1 18874:1 18887:1 18897:1  |EV| 
0.010688164000986574 2191:1 6996:1 9803:1 17060:1 17148:1 17520:1 18292:1 18303:1 18317:1 18425:1 18553:1 18655:1 18853:1 18861:1 18869:1 18874:1 18887:1 18897:1  |EV| 
0.047563992893672788 2005:1 6795:1 12130:1 15563:1 15564:1 15577:1 15602:1 16442:1 16443:1 17042:1 17148:1 17451:1 17494:1 18274:1 18292:1 18303:1 18314:1 18436:1 18552:1 18655:1 18853:1 18861:1 18869:1 18874:1 18887:1 18897:1  |EV| 
-0.013380778377868845 1478:1 6212:1 11506:1 15593:1 15635:1 16152:1 16183:1 16294:1 17098:1 17148:1 17450:1 18293:1 18303:1 18306:1 18425:1 18562:1 18656:1 18853:1 18865:1 18869:1 18874:1 18878:1 18879:1 18887:1 18892:1 18897:1  |EV| 
0.041904936281822014 2234:1 7044:1 9803:1 17091:1 17148:1 17451:1 18292:1 18303:1 18317:1 18425:1 18553:1 18655:1 18853:1 18861:1 18869:1 18874:1 18878:1 18887:1 18897:1  |EV| 
-0.10000000000000001 858:1 5537:1 11192:1 15577:1 16166:1 17042:1 17148:1 17451:1 18292:1 18303:1 18317:1 18422:1 18559:1 18655:1 18853:1 18861:1 18869:1 18874:1 18887:1 18897:1  |EV| 
-0.10000000000000001 4326:1 9451:1 9803:1 17053:1 17148:1 17451:1 18292:1 18303:1 18317:1 18425:1 18553:1 18655:1 18853:1 18861:1 18869:1 18874:1 18897:1  |EV| 
-0.0029871020360473419 248:1 4870:1 10018:1 15585:1 15739:1 15740:1 15741:1 15756:1 15757:1 17061:1 17148:1 17496:1 18293:1 18303:1 18313:1 18425:1 18548:1 18656:1 18853:1 18863:1 18869:1 18874:1 18889:1 18890:1 18897:1  |EV| 
0.10000000000000001 421:1 7358:1 12757:1 15563:1 15571:1 15580:1 15679:1 15748:1 15906:1 16006:1 16127:1 16178:1 16313:1 16420:1 16589:1 17044:1 17148:1 18293:1 18303:1 18324:1 18436:1 18560:1 18663:1 18853:1 18861:1 18869:1 18874:1 18887:1 18897:1  |EV| 
0.10000000000000001 663:1 5369:1 10603:1 15563:1 15571:1 15577:1 15580:1 15582:1 15593:1 15645:1 15646:1 15751:1 15858:1 15956:1 15957:1 15958:1 15959:1 15960:1 15977:1 17071:1 17148:1 18293:1 18303:1 18345:1 18425:1 18588:1 18684:1 18853:1 18861:1 18869:1 18874:1 18887:1 18897:1  |EV| 
0.10000000000000001 4059:1 9623:1 15423:1 15563:1 15569:1 15571:1 15577:1 15585:1 15587:1 15590:1 15626:1 15658:1 15692:1 15703:1 15719:1 15765:1 15825:1 15835:1 15906:1 16334:1 16566:1 17005:1 17007:1 17008:1 17009:1 17134:1 17148:1 18292:1 18303:1 18364:1 18435:1 18593:1 18689:1 18853:1 18861:1 18869:1 18874:1 18887:1 18897:1  |EV| 
0.10000000000000001 4488:1 9624:1 15424:1 15563:1 15569:1 15571:1 15577:1 15585:1 15587:1 15590:1 15626:1 15658:1 15692:1 15703:1 15719:1 15765:1 15825:1 15835:1 15906:1 16334:1 16566:1 16869:1 17005:1 17007:1 17008:1 17009:1 17045:1 17148:1 18292:1 18303:1 18364:1 18447:1 18617:1 18710:1 18853:1 18861:1 18869:1 18874:1 18887:1 18897:1  |EV| 
-0.049951266047751387 4477:1 9611:1 15408:1 15563:1 15569:1 15571:1 15577:1 15585:1 15587:1 15590:1 15626:1 15658:1 15703:1 15719:1 15765:1 15825:1 15835:1 15906:1 16334:1 16566:1 16869:1 16993:1 17005:1 17007:1 17008:1 17009:1 17045:1 17148:1 18292:1 18303:1 18353:1 18429:1 18617:1 18710:1 18853:1 18861:1 18869:1 18874:1 18887:1 18897:1  |EV| 
-0.050530921011065287 4469:1 9603:1 15400:1 15563:1 15569:1 15571:1 15577:1 15585:1 15587:1 15590:1 15626:1 15658:1 15703:1 15719:1 15765:1 15825:1 15835:1 15906:1 16334:1 16566:1 16993:1 17005:1 17007:1 17008:1 17009:1 17134:1 17148:1 18292:1 18303:1 18353:1 18439:1 18593:1 18710:1 18853:1 18861:1 18869:1 18874:1 18887:1 18897:1  |EV| 
0.03922519181734669 4501:1 9637:1 9880:1 17044:1 17148:1 17463:1 18294:1 18303:1 18308:1 18436:1 18542:1 18662:1 18853:1 18861:1 18869:1 18874:1 18887:1 18897:1  |EV| 
-0.10000000000000001 4531:1 9669:1 15468:1 15563:1 15569:1 15577:1 15585:1 15587:1 15590:1 15626:1 15658:1 15719:1 15765:1 15825:1 15906:1 16334:1 16566:1 16993:1 17007:1 17008:1 17009:1 17066:1 17148:1 18292:1 18303:1 18353:1 18423:1 18579:1 18689:1 18853:1 18861:1 18869:1 18874:1 18887:1 18897:1  |EV| 
-0.10000000000000001 4498:1 9634:1 15434:1 15563:1 15569:1 15577:1 15585:1 15587:1 15626:1 15658:1 15692:1 15765:1 15825:1 16334:1 16566:1 17007:1 17008:1 17009:1 17068:1 17148:1 18297:1 18303:1 18364:1 18438:1 18558:1 18674:1 18853:1 18861:1 18869:1 18874:1 18887:1 18897:1  |EV| 
0.10000000000000001 1202:1 7579:1 14381:1 15577:1 16291:1 17042:1 17148:1 17451:1 18292:1 18303:1 18317:1 18422:1 18559:1 18655:1 18853:1 18861:1 18869:1 18874:1 18878:1 18887:1 18897:1  |EV| 
0.037733810429149424 3863:1 8959:1 12915:1 15593:1 16261:1 17068:1 17148:1 17451:1 18292:1 18303:1 18317:1 18422:1 18559:1 18655:1 18853:1 18861:1 18869:1 18874:1 18887:1 18897:1  |EV| 
0.078990164297718143 2027:1 6842:1 12174:1 15593:1 15821:1 16110:1 16424:1 16455:1 17056:1 17069:1 17106:1 17148:1 17451:1 18281:1 18292:1 18303:1 18327:1 18442:1 18540:1 18655:1 18853:1 18861:1 18869:1 18874:1 18887:1 18897:1  |EV| 
0.10000000000000001 1202:1 7579:1 12229:1 15577:1 15719:1 17042:1 17148:1 17451:1 18292:1 18303:1 18317:1 18422:1 18559:1 18655:1 18853:1 18861:1 18869:1 18874:1 18878:1 18887:1 18897:1  |EV| 
0.015111898514578071 1167:1 5883:1 11122:1 15577:1 15792:1 16153:1 17054:1 17148:1 17451:1 18292:1 18303:1 18317:1 18442:1 18545:1 18655:1 18853:1 18861:1 18869:1 18874:1 18887:1 18897:1  |EV| 
-0.10000000000000001 451:1 5084:1 10251:1 15593:1 15868:1 17042:1 17148:1 17451:1 18292:1 18303:1 18317:1 18422:1 18559:1 18655:1 18853:1 18861:1 18869:1 18874:1 18887:1 18897:1  |EV| 
-0.046377486099235615 1402:1 7359:1 12758:1 15563:1 15577:1 15603:1 15719:1 15784:1 15879:1 16279:1 16344:1 16511:1 16594:1 16595:1 17042:1 17148:1 18294:1 18303:1 18310:1 18446:1 18539:1 18664:1 18853:1 18861:1 18869:1 18874:1 18887:1 18897:1  |EV| 
-0.10000000000000001 1202:1 7579:1 13220:1 16158:1 17042:1 17148:1 17451:1 18295:1 18302:1 18317:1 18444:1 18555:1 18658:1 18853:1 18861:1 18869:1 18874:1 18887:1 18897:1  |EV| 
-0.10000000000000001 288:1 4910:1 10063:1 15563:1 15593:1 15620:1 15690:1 15715:1 15716:1 15717:1 15718:1 15719:1 15738:1 17061:1 17148:1 18292:1 18303:1 18320:1 18425:1 18556:1 18667:1 18853:1 18861:1 18869:1 18874:1 18887:1 18897:1  |EV| 
0.016449907033850991 1242:1 5965:1 11226:1 15916:1 17056:1 17148:1 17451:1 18292:1 18303:1 18317:1 18436:1 18539:1 18655:1 18853:1 18861:1 18869:1 18874:1 18887:1 18897:1  |EV| 
0.10000000000000001 4470:1 9604:1 15401:1 15563:1 15569:1 15577:1 15585:1 15587:1 15590:1 15626:1 15658:1 15692:1 15719:1 15765:1 15825:1 15906:1 16334:1 16566:1 17007:1 17008:1 17009:1 17066:1 17148:1 18292:1 18303:1 18364:1 18442:1 18579:1 18689:1 18853:1 18861:1 18869:1 18874:1 18887:1 18897:1  |EV| 
0.039996680509946363 348:1 4971:1 15398:1 15569:1 15577:1 15585:1 15587:1 15626:1 15658:1 15765:1 15825:1 16334:1 16566:1 17007:1 17008:1 17009:1 17068:1 17148:1 18292:1 18303:1 18353:1 18425:1 18558:1 18667:1 18853:1 18861:1 18869:1 18874:1 18887:1 18897:1  |EV| 
0.10000000000000001 4374:1 9502:1 15296:1 15563:1 15571:1 15577:1 15580:1 15582:1 15610:1 15624:1 15626:1 15703:1 15741:1 15751:1 16011:1 16101:1 16176:1 16203:1 16232:1 16251:1 16325:1 16339:1 16341:1 16734:1 16906:1 16941:1 16986:1 16987:1 16988:1 16989:1 16992:1 17142:1 17148:1 18297:1 18303:1 18408:1 18438:1 18618:1 18747:1 18853:1 18861:1 18869:1 18874:1 18887:1 18897:1  |EV| 
-0.03235507089158754 4371:1 9499:1 15293:1 15563:1 15571:1 15577:1 15580:1 15582:1 15610:1 15624:1 15626:1 15703:1 15741:1 15751:1 16101:1 16176:1 16203:1 16232:1 16251:1 16325:1 16339:1 16341:1 16734:1 16906:1 16941:1 16986:1 16987:1 16988:1 16989:1 16992:1 17142:1 17148:1 17451:1 18292:1 18303:1 18321:1 18502:1 18618:1 18681:1 18853:1 18861:1 18869:1 18874:1 18887:1 18897:1  |EV| 
-0.015726988302574442 4381:1 9510:1 15304:1 15563:1 15571:1 15577:1 15580:1 15582:1 15610:1 15626:1 15703:1 15741:1 15751:1 16011:1 16101:1 16176:1 16203:1 16232:1 16251:1 16325:1 16339:1 16341:1 16734:1 16906:1 16941:1 16986:1 16987:1 16988:1 16989:1 16992:1 17142:1 17148:1 18292:1 18303:1 18326:1 18472:1 18618:1 18743:1 18853:1 18861:1 18869:1 18874:1 18887:1 18897:1  |EV| 
-0.062645831791553586 4417:1 9550:1 15345:1 15563:1 15571:1 15577:1 15580:1 15582:1 15610:1 15624:1 15626:1 15703:1 15741:1 15751:1 16011:1 16101:1 16176:1 16203:1 16232:1 16251:1 16325:1 16339:1 16341:1 16734:1 16906:1 16941:1 16986:1 16988:1 16989:1 16992:1 17142:1 17148:1 18292:1 18303:1 18352:1 18456:1 18618:1 18738:1 18853:1 18861:1 18869:1 18874:1 18887:1 18897:1  |EV| 
-0.03634598508192368 4372:1 9500:1 15294:1 15563:1 15571:1 15577:1 15580:1 15582:1 15610:1 15624:1 15626:1 15703:1 15741:1 15751:1 16101:1 16176:1 16203:1 16232:1 16251:1 16325:1 16339:1 16341:1 16734:1 16906:1 16941:1 16986:1 16987:1 16988:1 16992:1 17141:1 17148:1 17451:1 18292:1 18303:1 18321:1 18507:1 18619:1 18681:1 18853:1 18861:1 18869:1 18874:1 18887:1 18897:1  |EV| 
0.0047542942130010249 706:1 5376:1 9803:1 17051:1 17148:1 17451:1 18292:1 18303:1 18317:1 18425:1 18553:1 18655:1 18853:1 18861:1 18869:1 18874:1 18878:1 18887:1 18897:1  |EV| 
0.10000000000000001 451:1 5084:1 14952:1 15571:1 15593:1 15739:1 15852:1 16199:1 16746:1 16852:1 17042:1 17148:1 17451:1 18292:1 18303:1 18317:1 18435:1 18564:1 18659:1 18853:1 18861:1 18869:1 18874:1 18887:1 18897:1  |EV| 
0.10000000000000001 1652:1 6398:1 11700:1 15563:1 16348:1 17082:1 17148:1 17451:1 18295:1 18302:1 18317:1 18421:1 18561:1 18658:1 18853:1 18861:1 18869:1 18874:1 18887:1 18897:1  |EV| 
0.10000000000000001 447:1 9141:1 14954:1 15563:1 16874:1 17082:1 17148:1 17451:1 18295:1 18302:1 18317:1 18421:1 18561:1 18658:1 18853:1 18861:1 18869:1 18874:1 18887:1 18897:1  |EV| 
0.10000000000000001 1415:1 7319:1 12719:1 15593:1 15690:1 15719:1 16573:1 17042:1 17148:1 17451:1 18292:1 18303:1 18317:1 18428:1 18541:1 18655:1 18853:1 18861:1 18869:1 18874:1 18887:1 18897:1  |EV| 
0.10000000000000001 3962:1 9063:1 14868:1 15565:1 15580:1 15582:1 15593:1 15620:1 15665:1 15693:1 15742:1 15955:1 15973:1 16071:1 16133:1 16475:1 16868:1 17082:1 17148:1 18295:1 18302:1 18309:1 18478:1 18554:1 18749:1 18853:1 18861:1 18869:1 18874:1 18887:1 18897:1  |EV| 
-0.10000000000000001 348:1 4971:1 10124:1 15726:1 15820:1 15840:1 15841:1 17068:1 17148:1 18292:1 18303:1 18309:1 18425:1 18541:1 18655:1 18853:1 18861:1 18869:1 18874:1 18887:1 18897:1  |EV| 
0.10000000000000001 4386:1 9517:1 15311:1 15563:1 15571:1 15577:1 15580:1 15582:1 15610:1 15624:1 15626:1 15703:1 15741:1 15751:1 16011:1 16101:1 16176:1 16203:1 16232:1 16251:1 16325:1 16339:1 16341:1 16734:1 16906:1 16941:1 16986:1 16987:1 16988:1 16990:1 16992:1 17141:1 17148:1 18297:1 18303:1 18408:1 18421:1 18619:1 18747:1 18853:1 18861:1 18869:1 18874:1 18887:1 18897:1  |EV| 
0.10000000000000001 4230:1 9554:1 15350:1 15563:1 15577:1 15610:1 15624:1 15626:1 15741:1 15751:1 16011:1 16101:1 16176:1 16203:1 16232:1 16251:1 16325:1 16734:1 16906:1 16941:1 16986:1 16992:1 17042:1 17148:1 18292:1 18303:1 18352:1 18425:1 18604:1 18701:1 18853:1 18861:1 18869:1 18874:1 18887:1 18897:1  |EV| 
0.10000000000000001 893:1 5572:1 10807:1 15563:1 15571:1 15577:1 15580:1 15690:1 15746:1 15988:1 16071:1 16074:1 16075:1 16076:1 16077:1 16078:1 17064:1 17086:1 17148:1 17219:1 17499:1 17932:1 18087:1 18282:1 18294:1 18303:1 18312:1 18441:1 18553:1 18664:1 18853:1 18861:1 18869:1 18874:1 18887:1 18897:1  |EV| 
0.10000000000000001 615:1 5272:1 10486:1 15563:1 15571:1 15577:1 15580:1 15815:1 15868:1 15902:1 15903:1 15904:1 15934:1 15935:1 15944:1 17074:1 17148:1 18292:1 18303:1 18327:1 18439:1 18558:1 18668:1 18853:1 18861:1 18869:1 18874:1 18887:1 18897:1  |EV| 
-0.014069882104711691 935:1 5614:1 10847:1 15563:1 15571:1 15577:1 15580:1 15593:1 15690:1 15693:1 15746:1 15988:1 16071:1 16073:1 16074:1 16075:1 16076:1 16077:1 16078:1 17064:1 17086:1 17148:1 17932:1 18087:1 18282:1 18294:1 18303:1 18338:1 18460:1 18553:1 18664:1 18853:1 18861:1 18869:1 18887:1 18897:1  |EV| 
-0.0057157689361282803 4365:1 9492:1 15286:1 15563:1 15566:1 15571:1 15577:1 15619:1 15630:1 15678:1 15703:1 15810:1 15904:1 16034:1 16098:1 16976:1 16977:1 16978:1 16979:1 17059:1 17148:1 17898:1 18235:1 18297:1 18303:1 18354:1 18482:1 18542:1 18728:1 18853:1 18861:1 18869:1 18874:1 18887:1 18897:1  |EV| 
-0.036391173537513331 4416:1 9549:1 15344:1 15563:1 15571:1 15577:1 15580:1 15582:1 15610:1 15624:1 15626:1 15703:1 15741:1 15751:1 16011:1 16101:1 16176:1 16203:1 16232:1 16251:1 16325:1 16339:1 16341:1 16734:1 16906:1 16941:1 16986:1 16988:1 16992:1 17141:1 17148:1 18292:1 18303:1 18352:1 18446:1 18619:1 18738:1 18853:1 18861:1 18869:1 18874:1 18887:1 18897:1  |EV| 
-0.030172684575213549 1778:1 9497:1 15291:1 15563:1 15577:1 15610:1 15624:1 15626:1 15741:1 15751:1 16101:1 16176:1 16203:1 16232:1 16251:1 16325:1 16734:1 16906:1 16941:1 16986:1 16987:1 16992:1 17042:1 17148:1 17451:1 18292:1 18303:1 18321:1 18462:1 18604:1 18756:1 18853:1 18861:1 18869:1 18874:1 18887:1 18897:1  |EV| 
0.096370535656429307 335:1 4957:1 10110:1 15810:1 15818:1 15819:1 15820:1 17042:1 17148:1 17451:1 18292:1 18303:1 18309:1 18425:1 18541:1 18655:1 18853:1 18861:1 18869:1 18874:1 18887:1 18897:1  |EV| 
0.10000000000000001 2185:1 6990:1 12348:1 15582:1 15620:1 15658:1 15784:1 16479:1 17111:1 17148:1 17150:1 17449:1 17896:1 18154:1 18292:1 18303:1 18321:1 18428:1 18540:1 18655:1 18853:1 18863:1 18869:1 18874:1 18887:1 18890:1 18897:1  |EV| 
0.012916328807485045 2540:1 7413:1 12811:1 15577:1 15690:1 15752:1 16610:1 17053:1 17148:1 17540:1 18292:1 18303:1 18309:1 18425:1 18541:1 18655:1 18853:1 18863:1 18869:1 18874:1 18887:1 18889:1 18897:1  |EV| 
-0.10000000000000001 3414:1 8428:1 14296:1 15566:1 15674:1 16663:1 16765:1 17098:1 17148:1 17800:1 18292:1 18303:1 18309:1 18425:1 18541:1 18655:1 18853:1 18861:1 18869:1 18874:1 18887:1 18897:1  |EV| 
-0.0069352592004351971 937:1 5616:1 10849:1 15577:1 15658:1 17042:1 17148:1 17450:1 17572:1 17898:1 18028:1 18263:1 18269:1 18292:1 18303:1 18327:1 18425:1 18545:1 18655:1 18853:1 18864:1 18869:1 18874:1 18889:1 18897:1  |EV| 
-0.02322357009210213 2344:1 7170:1 12543:1 15571:1 15577:1 15580:1 15585:1 15587:1 15593:1 15651:1 15739:1 15814:1 15880:1 15904:1 16116:1 16233:1 16266:1 16475:1 16495:1 16496:1 16497:1 16498:1 16529:1 17064:1 17148:1 18297:1 18303:1 18332:1 18471:1 18545:1 18713:1 18853:1 18861:1 18869:1 18874:1 18887:1 18897:1  |EV| 
-0.10000000000000001 786:1 5459:1 10692:1 15563:1 15577:1 15580:1 15683:1 15719:1 16010:1 16015:1 16016:1 16021:1 16022:1 16023:1 16024:1 17042:1 17148:1 18292:1 18303:1 18353:1 18425:1 18558:1 18667:1 18853:1 18863:1 18869:1 18874:1 18887:1 18897:1  |EV| 
-0.0043342794669346003 3495:1 8523:1 14166:1 15580:1 15683:1 17056:1 17148:1 18292:1 18303:1 18327:1 18425:1 18559:1 18655:1 18853:1 18863:1 18869:1 18874:1 18892:1 18897:1  |EV| 
0.10000000000000001 1348:1 6073:1 11353:1 15563:1 15564:1 15580:1 15593:1 15595:1 15615:1 15626:1 15653:1 15727:1 15784:1 15853:1 16056:1 16199:1 16224:1 16226:1 17067:1 17148:1 18297:1 18303:1 18331:1 18434:1 18572:1 18674:1 18853:1 18861:1 18869:1 18874:1 18887:1 18897:1  |EV| 
0.10000000000000001 3989:1 9093:1 14898:1 15563:1 15575:1 15577:1 15582:1 15593:1 15619:1 15626:1 15739:1 15742:1 15855:1 15879:1 15895:1 16369:1 16842:1 16843:1 16844:1 16845:1 17083:1 17148:1 18297:1 18303:1 18360:1 18434:1 18585:1 18694:1 18853:1 18861:1 18869:1 18874:1 18887:1 18897:1  |EV| 
0.026513601740425916 1118:1 5815:1 11054:1 16125:1 17060:1 17148:1 17451:1 18292:1 18303:1 18317:1 18436:1 18539:1 18655:1 18853:1 18861:1 18869:1 18874:1 18887:1 18897:1  |EV| 
-0.10000000000000001 4010:1 9116:1 14924:1 15563:1 15575:1 15577:1 15582:1 15593:1 15619:1 15626:1 15739:1 15742:1 15855:1 15895:1 16369:1 16842:1 16843:1 16844:1 16845:1 17083:1 17148:1 17451:1 18292:1 18303:1 18327:1 18455:1 18585:1 18741:1 18853:1 18861:1 18869:1 18874:1 18887:1 18897:1  |EV| 
-0.076605840126577146 1274:1 5998:1 11261:1 15563:1 15564:1 15580:1 15593:1 15595:1 15615:1 15626:1 15653:1 15784:1 15853:1 16056:1 16199:1 16224:1 16226:1 17067:1 17148:1 17449:1 18292:1 18303:1 18309:1 18439:1 18572:1 18668:1 18853:1 18861:1 18869:1 18874:1 18887:1 18897:1  |EV| 
-0.076677064548134527 3991:1 9096:1 14902:1 15563:1 15575:1 15577:1 15582:1 15593:1 15619:1 15626:1 15739:1 15742:1 15855:1 15895:1 16067:1 16369:1 16842:1 16843:1 16844:1 16845:1 16858:1 17056:1 17148:1 17451:1 18292:1 18303:1 18327:1 18460:1 18576:1 18741:1 18853:1 18861:1 18869:1 18874:1 18887:1 18897:1  |EV| 
0.10000000000000001 3430:1 8446:1 14289:1 15563:1 15577:1 15664:1 15667:1 15683:1 15705:1 15898:1 17069:1 17071:1 17125:1 17126:1 17127:1 17148:1 18281:1 18292:1 18303:1 18315:1 18425:1 18552:1 18655:1 18853:1 18861:1 18869:1 18874:1 18887:1 18897:1  |EV| 
0.10000000000000001 261:1 5349:1 12234:1 15563:1 15577:1 15719:1 15770:1 16034:1 17060:1 17148:1 17451:1 18292:1 18303:1 18317:1 18423:1 18547:1 18655:1 18853:1 18861:1 18869:1 18874:1 18887:1 18897:1  |EV| 
0.070093646830773002 2538:1 7411:1 12810:1 15563:1 16608:1 16609:1 17054:1 17148:1 17662:1 18292:1 18303:1 18309:1 18425:1 18541:1 18655:1 18853:1 18864:1 18869:1 18874:1 18887:1 18897:1  |EV| 
0.10000000000000001 3044:1 7975:1 13522:1 15563:1 16073:1 16176:1 16345:1 17112:1 17148:1 18292:1 18303:1 18309:1 18425:1 18541:1 18655:1 18853:1 18861:1 18869:1 18874:1 18887:1 18897:1  |EV| 
0.10000000000000001 2837:1 7847:1 13350:1 15563:1 16073:1 16176:1 16345:1 16492:1 17046:1 17148:1 18292:1 18303:1 18309:1 18422:1 18547:1 18655:1 18853:1 18861:1 18869:1 18874:1 18887:1 18897:1  |EV| 
-0.10000000000000001 2964:1 7986:1 13498:1 15563:1 15692:1 16176:1 16345:1 16492:1 17046:1 17148:1 18292:1 18303:1 18327:1 18428:1 18547:1 18655:1 18853:1 18861:1 18869:1 18874:1 18887:1 18897:1  |EV| 
-0.10000000000000001 2623:1 7504:1 12896:1 15577:1 15645:1 15719:1 15810:1 16650:1 17060:1 17147:1 18292:1 18303:1 18328:1 18425:1 18540:1 18655:1 18853:1 18861:1 18869:1 18874:1 18887:1 18897:1  |EV| 
-0.10000000000000001 2912:1 8055:1 13758:1 15563:1 15571:1 15577:1 16127:1 17114:1 17148:1 17451:1 18292:1 18303:1 18317:1 18428:1 18541:1 18655:1 18853:1 18861:1 18869:1 18874:1 18887:1 18897:1  |EV| 
-0.060819141332538414 3446:1 8464:1 14045:1 15563:1 15577:1 15664:1 15667:1 15683:1 15898:1 16769:1 17069:1 17071:1 17125:1 17126:1 17127:1 17148:1 17451:1 18281:1 18292:1 18303:1 18317:1 18430:1 18552:1 18655:1 18853:1 18861:1 18869:1 18874:1 18887:1 18897:1  |EV| 
-0.10000000000000001 2821:1 7729:1 13516:1 15563:1 15692:1 16176:1 16345:1 17112:1 17148:1 18292:1 18303:1 18327:1 18422:1 18541:1 18655:1 18853:1 18861:1 18869:1 18874:1 18887:1 18897:1  |EV| 
0.10000000000000001 3966:1 9067:1 14872:1 15563:1 15578:1 15580:1 15585:1 15587:1 15593:1 15611:1 15697:1 15713:1 15716:1 15751:1 15825:1 15829:1 15841:1 16067:1 16160:1 16199:1 16460:1 16853:1 16854:1 16855:1 16856:1 16857:1 17042:1 17148:1 18292:1 18303:1 18332:1 18425:1 18593:1 18701:1 18853:1 18861:1 18869:1 18874:1 18887:1 18897:1  |EV| 
0.10000000000000001 1887:1 6670:1 11996:1 15577:1 15580:1 15582:1 15613:1 15638:1 15653:1 15663:1 15697:1 15792:1 15864:1 15906:1 16388:1 16389:1 16390:1 16391:1 16405:1 16406:1 16407:1 17044:1 17148:1 17192:1 17512:1 17913:1 18127:1 18293:1 18303:1 18342:1 18423:1 18580:1 18684:1 18853:1 18865:1 18869:1 18874:1 18887:1 18897:1  |EV| 
0.10000000000000001 321:1 4943:1 10096:1 15566:1 15582:1 15593:1 15620:1 15653:1 15776:1 15777:1 15781:1 15782:1 15803:1 15804:1 15805:1 15806:1 17042:1 17148:1 18292:1 18303:1 18316:1 18424:1 18558:1 18659:1 18853:1 18865:1 18869:1 18874:1 18887:1 18897:1  |EV| 
0.10000000000000001 66:1 4678:1 9826:1 15563:1 15571:1 15577:1 15580:1 15582:1 15591:1 15592:1 15593:1 15594:1 15595:1 15596:1 15598:1 15599:1 15600:1 15601:1 15602:1 15639:1 17049:1 17148:1 18292:1 18303:1 18326:1 18430:1 18579:1 18689:1 18853:1 18861:1 18869:1 18874:1 18887:1 18897:1  |EV| 
-0.056649176451417864 82:1 4694:1 9842:1 15563:1 15571:1 15577:1 15580:1 15582:1 15591:1 15592:1 15593:1 15594:1 15595:1 15596:1 15597:1 15598:1 15599:1 15600:1 15601:1 15602:1 15604:1 15639:1 17049:1 17148:1 18297:1 18303:1 18356:1 18438:1 18579:1 18694:1 18853:1 18861:1 18869:1 18874:1 18887:1 18897:1  |EV| 
-0.0047099385977816275 36:1 4648:1 9796:1 15563:1 15571:1 15577:1 15580:1 15582:1 15591:1 15592:1 15593:1 15594:1 15595:1 15596:1 15597:1 15598:1 15599:1 15600:1 15601:1 15602:1 15638:1 15639:1 17049:1 17148:1 18294:1 18303:1 18305:1 18461:1 18579:1 18677:1 18853:1 18861:1 18869:1 18874:1 18887:1 18897:1  |EV| 
-0.022945404853528188 81:1 4693:1 9841:1 15563:1 15571:1 15577:1 15580:1 15582:1 15591:1 15592:1 15593:1 15594:1 15595:1 15596:1 15597:1 15598:1 15599:1 15600:1 15601:1 15603:1 15604:1 15639:1 17050:1 17148:1 18297:1 18303:1 18356:1 18421:1 18577:1 18693:1 18853:1 18861:1 18869:1 18874:1 18887:1 18897:1  |EV| 
-0.080855832844558564 4164:1 9278:1 15092:1 15563:1 16913:1 17051:1 17148:1 18294:1 18303:1 18319:1 18442:1 18553:1 18662:1 18853:1 18861:1 18869:1 18874:1 18887:1 18897:1  |EV| 
-0.011390172666885036 858:1 8473:1 14213:1 15577:1 15580:1 15685:1 15686:1 15719:1 15816:1 16153:1 16767:1 17042:1 17148:1 18294:1 18303:1 18307:1 18439:1 18541:1 18657:1 18853:1 18861:1 18869:1 18874:1 18887:1 18897:1  |EV| 
0.025721328958838205 2132:1 6934:1 12286:1 15563:1 15564:1 15645:1 15746:1 17042:1 17148:1 17150:1 17449:1 17896:1 18091:1 18292:1 18303:1 18327:1 18422:1 18541:1 18655:1 18853:1 18861:1 18869:1 18874:1 18887:1 18897:1  |EV| 
0.10000000000000001 1296:1 6020:1 11285:1 15571:1 15589:1 15751:1 16199:1 17042:1 17148:1 17451:1 18292:1 18303:1 18327:1 18422:1 18541:1 18655:1 18853:1 18861:1 18869:1 18874:1 18887:1 18897:1  |EV| 
0.083643579734249088 4206:1 9324:1 15136:1 15563:1 16161:1 16920:1 16921:1 17097:1 17148:1 17451:1 18292:1 18303:1 18317:1 18428:1 18541:1 18655:1 18853:1 18861:1 18869:1 18874:1 18887:1 18897:1  |EV| 
0.044964179392944559 2138:1 6940:1 12295:1 15563:1 15564:1 15645:1 17055:1 17148:1 17150:1 17449:1 17896:1 18060:1 18292:1 18303:1 18327:1 18436:1 18545:1 18655:1 18853:1 18861:1 18869:1 18874:1 18887:1 18897:1  |EV| 
0.10000000000000001 673:1 5340:1 10572:1 15563:1 15611:1 15690:1 15829:1 17056:1 17148:1 17451:1 18292:1 18303:1 18317:1 18428:1 18541:1 18655:1 18853:1 18861:1 18869:1 18874:1 18887:1 18897:1  |EV| 
-0.10000000000000001 3151:1 8105:1 13632:1 15577:1 15585:1 15610:1 15690:1 16080:1 16293:1 16691:1 17044:1 17148:1 18292:1 18303:1 18362:1 18425:1 18544:1 18659:1 18853:1 18865:1 18869:1 18874:1 18879:1 18887:1 18897:1  |EV| 
-0.080825980326988678 1888:1 6671:1 11997:1 15566:1 15577:1 15582:1 15613:1 15638:1 15653:1 15663:1 15697:1 15792:1 15864:1 15906:1 16388:1 16389:1 16390:1 16391:1 16405:1 16406:1 16407:1 17042:1 17148:1 17512:1 17898:1 18028:1 18293:1 18303:1 18342:1 18456:1 18562:1 18704:1 18853:1 18865:1 18869:1 18874:1 18887:1  |EV| 
-0.066781521313103956 301:1 4923:1 10043:1 15620:1 17044:1 17148:1 17150:1 17449:1 17896:1 18025:1 18292:1 18303:1 18321:1 18425:1 18539:1 18655:1 18853:1 18865:1 18869:1 18874:1 18897:1  |EV| 
-0.01241651931420026 1904:1 6688:1 12021:1 15563:1 15577:1 15580:1 15630:1 15658:1 15674:1 15716:1 15749:1 15810:1 15848:1 15890:1 15920:1 15959:1 16138:1 16392:1 16393:1 16394:1 16398:1 17050:1 17148:1 18292:1 18303:1 18352:1 18425:1 18604:1 18701:1 18853:1 18865:1 18869:1 18874:1 18887:1 18889:1 18897:1  |EV| 
0.10000000000000001 65:1 4677:1 9825:1 15563:1 15571:1 15577:1 15580:1 15582:1 15591:1 15592:1 15593:1 15594:1 15595:1 15596:1 15598:1 15599:1 15600:1 15601:1 15639:1 17050:1 17148:1 18292:1 18303:1 18326:1 18424:1 18577:1 18667:1 18853:1 18861:1 18869:1 18874:1 18887:1 18897:1  |EV| 
-0.10000000000000001 335:1 4957:1 10260:1 15563:1 15569:1 15571:1 15580:1 15703:1 15760:1 15763:1 15810:1 15813:1 15814:1 15815:1 15816:1 15817:1 15818:1 15819:1 15820:1 17042:1 17148:1 18292:1 18303:1 18364:1 18425:1 18584:1 18667:1 18853:1 18861:1 18869:1 18874:1 18887:1 18897:1  |EV| 
-0.0026412393824765848 4584:1 9730:1 15542:1 15563:1 15569:1 15571:1 15582:1 15717:1 15727:1 16632:1 16734:1 17030:1 17045:1 17148:1 18297:1 18303:1 18320:1 18433:1 18553:1 18666:1 18853:1 18861:1 18869:1 18874:1 18887:1 18897:1  |EV| 
-0.10000000000000001 3899:1 8997:1 14786:1 15580:1 15582:1 15654:1 15729:1 15847:1 15848:1 15895:1 16148:1 16203:1 16353:1 16834:1 16840:1 17045:1 17148:1 18292:1 18303:1 18326:1 18425:1 18563:1 18667:1 18853:1 18861:1 18869:1 18874:1 18887:1 18897:1  |EV| 
-0.0014023680418253012 909:1 5588:1 12782:1 15563:1 15566:1 15571:1 15580:1 15679:1 15748:1 15892:1 16006:1 16125:1 16127:1 16178:1 16313:1 16420:1 16589:1 16590:1 17068:1 17148:1 18295:1 18302:1 18304:1 18448:1 18587:1 18749:1 18853:1 18861:1 18869:1 18874:1 18887:1 18897:1  |EV| 
-0.056489317907683564 4197:1 9313:1 15126:1 15563:1 15571:1 15580:1 15626:1 15645:1 15739:1 15811:1 16004:1 16598:1 16924:1 16925:1 17042:1 17148:1 18292:1 18303:1 18326:1 18425:1 18563:1 18667:1 18853:1 18861:1 18869:1 18874:1 18887:1 18897:1  |EV| 
0.10000000000000001 590:1 6181:1 14370:1 15566:1 15577:1 15582:1 15612:1 15690:1 15906:1 16183:1 16781:1 16784:1 17042:1 17148:1 17463:1 18294:1 18303:1 18308:1 18439:1 18544:1 18660:1 18853:1 18861:1 18869:1 18874:1 18887:1 18897:1  |EV| 
0.10000000000000001 268:1 4890:1 10043:1 15620:1 17061:1 17148:1 18292:1 18303:1 18321:1 18425:1 18539:1 18655:1 18853:1 18865:1 18869:1 18874:1 18887:1 18890:1 18893:1 18897:1  |EV| 
0.10000000000000001 578:1 5232:1 10446:1 15563:1 15577:1 15620:1 15683:1 15685:1 15705:1 15745:1 15843:1 15890:1 17042:1 17148:1 18292:1 18303:1 18362:1 18425:1 18544:1 18659:1 18853:1 18865:1 18869:1 18874:1 18887:1 18897:1  |EV| 
0.10000000000000001 4187:1 9302:1 10445:1 15577:1 17044:1 17147:1 17463:1 18294:1 18303:1 18319:1 18422:1 18542:1 18662:1 18853:1 18861:1 18869:1 18874:1 18887:1 18897:1  |EV| 
0.10000000000000001 3845:1 8937:1 14715:1 15563:1 15577:1 16034:1 16098:1 16828:1 16829:1 16830:1 17054:1 17148:1 18293:1 18303:1 18310:1 18425:1 18596:1 18669:1 18853:1 18865:1 18869:1 18874:1 18887:1 18897:1  |EV| 
-0.05017140595708041 1818:1 6601:1 11919:1 15563:1 16222:1 17060:1 17148:1 18294:1 18303:1 18319:1 18442:1 18553:1 18662:1 18853:1 18861:1 18869:1 18874:1 18887:1 18897:1  |EV| 
-0.049393466774121562 17:1 7487:1 12878:1 15580:1 16214:1 16631:1 16632:1 17042:1 17148:1 18292:1 18303:1 18328:1 18425:1 18540:1 18655:1 18853:1 18861:1 18869:1 18874:1 18897:1  |EV| 
-0.012839178019290805 1270:1 5994:1 11258:1 15563:1 15577:1 15705:1 16034:1 16224:1 17062:1 17148:1 18297:1 18303:1 18314:1 18421:1 18539:1 18692:1 18853:1 18865:1 18869:1 18874:1 18887:1 18897:1  |EV| 
0.059738380388498317 1413:1 7592:1 12950:1 15580:1 16602:1 17098:1 17148:1 18292:1 18303:1 18327:1 18425:1 18559:1 18655:1 18853:1 18861:1 18869:1 18874:1 18878:1 18887:1 18897:1  |EV| 
-0.054189987496002422 3809:1 8900:1 14679:1 15563:1 15577:1 16034:1 16098:1 16313:1 16828:1 16829:1 16830:1 17054:1 17148:1 17451:1 18295:1 18302:1 18321:1 18440:1 18596:1 18679:1 18853:1 18865:1 18869:1 18874:1 18887:1 18897:1  |EV| 
0.055151528132079401 576:1 5230:1 10444:1 15563:1 15571:1 15580:1 15582:1 15593:1 15719:1 15883:1 15884:1 15885:1 15886:1 15887:1 15888:1 15889:1 17071:1 17072:1 17148:1 18281:1 18285:1 18292:1 18303:1 18353:1 18425:1 18558:1 18667:1 18853:1 18861:1 18869:1 18874:1 18887:1 18897:1  |EV| 
0.10000000000000001 592:1 5247:1 10460:1 15566:1 15571:1 15577:1 15580:1 15593:1 15607:1 15610:1 15666:1 15792:1 15884:1 15893:1 15895:1 15896:1 15897:1 15898:1 17073:1 17148:1 18292:1 18303:1 18364:1 18425:1 18584:1 18667:1 18853:1 18861:1 18869:1 18874:1 18887:1 18889:1 18897:1  |EV| 
0.054342898404133241 909:1 5588:1 10823:1 15571:1 15626:1 15646:1 15727:1 15846:1 15855:1 16080:1 16108:1 16109:1 17068:1 17148:1 18292:1 18303:1 18362:1 18425:1 18544:1 18659:1 18853:1 18861:1 18869:1 18874:1 18887:1 18897:1  |EV| 
0.10000000000000001 613:1 5270:1 10484:1 15571:1 15943:1 17075:1 17148:1 18297:1 18303:1 18304:1 18438:1 18553:1 18692:1 18853:1 18861:1 18869:1 18874:1 18887:1 18897:1  |EV| 
-0.029345044070756238 1452:1 6184:1 11476:1 15680:1 16289:1 16290:1 17097:1 17148:1 17477:1 18294:1 18303:1 18305:1 18428:1 18553:1 18662:1 18853:1 18861:1 18869:1 18874:1 18887:1 18897:1  |EV| 
-0.10000000000000001 596:1 5251:1 10464:1 15571:1 15577:1 15582:1 15585:1 15587:1 15613:1 15626:1 15641:1 15651:1 15806:1 15909:1 15910:1 15911:1 15912:1 15913:1 15914:1 15915:1 15916:1 17042:1 17148:1 17465:1 18292:1 18303:1 18346:1 18424:1 18579:1 18689:1 18853:1 18861:1 18869:1 18874:1 18887:1 18889:1 18897:1  |EV| 
-0.069759780867384089 1646:1 7246:1 12637:1 15571:1 15588:1 15630:1 15825:1 16038:1 16045:1 16554:1 16555:1 16561:1 16562:1 16563:1 17054:1 17148:1 17712:1 18293:1 18303:1 18312:1 18425:1 18557:1 18663:1 18853:1 18861:1 18869:1 18874:1 18887:1 18897:1  |EV| 
-0.10000000000000001 4503:1 9639:1 15453:1 15577:1 15580:1 15582:1 15593:1 15594:1 15658:1 15690:1 15693:1 15751:1 15821:1 16004:1 16071:1 16454:1 16473:1 17006:1 17059:1 17148:1 18292:1 18303:1 18364:1 18425:1 18584:1 18667:1 18853:1 18861:1 18869:1 18874:1 18887:1 18897:1  |EV| 
-0.088888752882054112 737:1 5408:1 10918:1 15571:1 15626:1 15646:1 15833:1 15846:1 15855:1 16080:1 16108:1 16109:1 17068:1 17148:1 17451:1 18292:1 18303:1 18317:1 18447:1 18544:1 18668:1 18853:1 18861:1 18869:1 18874:1 18887:1 18897:1  |EV| 
0.095912624454153189 1121:1 5818:1 11057:1 15563:1 15843:1 16139:1 17087:1 17148:1 17233:1 17449:1 17936:1 18095:1 18292:1 18303:1 18327:1 18436:1 18545:1 18655:1 18853:1 18865:1 18869:1 18874:1 18887:1 18893:1 18897:1  |EV| 
0.10000000000000001 830:1 7556:1 13138:1 15563:1 15577:1 15580:1 15592:1 15657:1 15792:1 15893:1 16665:1 17117:1 17148:1 18295:1 18302:1 18327:1 18443:1 18596:1 18679:1 18853:1 18861:1 18869:1 18874:1 18887:1 18897:1  |EV| 
0.10000000000000001 4559:1 9698:1 15519:1 15563:1 16808:1 16809:1 17014:1 17082:1 17148:1 17451:1 18295:1 18302:1 18321:1 18445:1 18538:1 18658:1 18853:1 18861:1 18869:1 18874:1 18887:1 18897:1  |EV| 
0.10000000000000001 1902:1 6686:1 12019:1 15563:1 15681:1 16133:1 17082:1 17148:1 17451:1 18295:1 18302:1 18321:1 18426:1 18561:1 18658:1 18853:1 18861:1 18869:1 18874:1 18887:1 18897:1  |EV| 
0.10000000000000001 916:1 5595:1 10911:1 15810:1 16110:1 17068:1 17085:1 17148:1 17901:1 18090:1 18282:1 18295:1 18302:1 18321:1 18421:1 18555:1 18658:1 18853:1 18861:1 18869:1 18874:1 18878:1 18887:1 18897:1  |EV| 
0.023331415255763089 737:1 5408:1 9803:1 17068:1 17148:1 17451:1 18292:1 18303:1 18317:1 18425:1 18553:1 18655:1 18853:1 18861:1 18869:1 18874:1 18887:1 18897:1  |EV| 
-0.063111705280573333 872:1 5551:1 10787:1 15563:1 15577:1 15582:1 15610:1 15719:1 15810:1 16090:1 17068:1 17085:1 17148:1 17451:1 18282:1 18292:1 18303:1 18317:1 18435:1 18564:1 18659:1 18853:1 18861:1 18869:1 18874:1 18887:1 18897:1  |EV| 
-0.068941715520083713 172:1 4786:1 9939:1 15563:1 15655:1 17044:1 17148:1 17451:1 18295:1 18302:1 18317:1 18421:1 18561:1 18658:1 18853:1 18861:1 18869:1 18874:1 18887:1 18897:1  |EV| 
-0.022553353412056033 260:1 4882:1 10033:1 15563:1 15628:1 15745:1 17055:1 17148:1 17451:1 18295:1 18302:1 18321:1 18426:1 18561:1 18658:1 18853:1 18861:1 18869:1 18874:1 18887:1 18897:1  |EV| 
-0.054292576893971142 2869:1 7780:1 13283:1 15563:1 15587:1 17122:1 17123:1 17148:1 17451:1 18282:1 18285:1 18288:1 18295:1 18302:1 18317:1 18421:1 18561:1 18658:1 18853:1 18861:1 18869:1 18874:1 18887:1 18897:1  |EV| 
0.10000000000000001 3025:1 7953:1 13462:1 15566:1 15571:1 15577:1 15580:1 15585:1 15587:1 15588:1 15610:1 15612:1 15690:1 16064:1 16065:1 16080:1 16293:1 16691:1 16693:1 16694:1 16696:1 17122:1 17123:1 17148:1 18282:1 18285:1 18288:1 18292:1 18303:1 18364:1 18423:1 18578:1 18689:1 18853:1 18865:1 18869:1 18874:1 18887:1 18897:1  |EV| 
0.10000000000000001 642:1 5309:1 10543:1 15571:1 15577:1 15582:1 15585:1 15587:1 15613:1 15626:1 15641:1 15651:1 15806:1 15909:1 15910:1 15911:1 15912:1 15913:1 15914:1 15916:1 15949:1 17042:1 17148:1 18292:1 18303:1 18365:1 18436:1 18579:1 18689:1 18853:1 18861:1 18869:1 18874:1 18887:1 18889:1 18897:1  |EV| 
0.10000000000000001 3024:1 7952:1 13461:1 15566:1 15571:1 15577:1 15580:1 15585:1 15587:1 15610:1 15690:1 16065:1 16080:1 16293:1 16691:1 16693:1 16694:1 16696:1 17046:1 17148:1 18292:1 18303:1 18364:1 18436:1 18577:1 18667:1 18853:1 18865:1 18869:1 18874:1 18887:1 18897:1  |EV| 
0.10000000000000001 4130:1 9238:1 15047:1 15569:1 15571:1 16878:1 16879:1 16899:1 17042:1 17148:1 18274:1 18276:1 18292:1 18303:1 18328:1 18425:1 18540:1 18655:1 18853:1 18865:1 18869:1 18874:1 18887:1 18897:1  |EV| 
-0.10000000000000001 2054:1 6848:1 12180:1 15577:1 15585:1 15611:1 16067:1 16432:1 16433:1 17107:1 17148:1 18274:1 18276:1 18292:1 18303:1 18328:1 18436:1 18547:1 18655:1 18853:1 18861:1 18869:1 18874:1 18887:1  |EV| 
-0.10000000000000001 1202:1 8564:1 14235:1 15563:1 15577:1 15580:1 15585:1 15587:1 15592:1 15595:1 15611:1 15619:1 15647:1 15690:1 15792:1 15893:1 15897:1 16153:1 16176:1 16225:1 16276:1 16701:1 16708:1 16776:1 16778:1 16781:1 17042:1 17148:1 18292:1 18303:1 18354:1 18430:1 18567:1 18689:1 18853:1 18861:1 18869:1 18874:1 18887:1 18897:1  |EV| 
-0.032974593396904693 3152:1 8106:1 13633:1 15566:1 15571:1 15577:1 15580:1 15585:1 15587:1 15610:1 15690:1 16065:1 16080:1 16293:1 16691:1 16694:1 16695:1 16696:1 17046:1 17148:1 18292:1 18303:1 18362:1 18435:1 18577:1 18659:1 18853:1 18865:1 18869:1 18874:1 18879:1 18887:1 18897:1  |EV| 
-0.10000000000000001 2609:1 7489:1 12880:1 15563:1 16646:1 17068:1 17148:1 18266:1 18292:1 18303:1 18327:1 18425:1 18545:1 18655:1 18853:1 18861:1 18869:1 18874:1 18887:1 18897:1  |EV| 
0.10000000000000001 580:1 7614:1 13036:1 15577:1 16158:1 16659:1 17042:1 17148:1 18293:1 18303:1 18311:1 18422:1 18555:1 18656:1 18853:1 18861:1 18869:1 18874:1 18887:1 18897:1  |EV| 
0.10000000000000001 442:1 9050:1 14988:1 15563:1 15577:1 15582:1 15619:1 16850:1 17082:1 17148:1 17451:1 18295:1 18302:1 18317:1 18431:1 18562:1 18658:1 18853:1 18861:1 18869:1 18874:1 18887:1 18897:1  |EV| 
0.10000000000000001 2787:1 7693:1 13173:1 15897:1 15942:1 16676:1 17119:1 17148:1 17451:1 18295:1 18302:1 18317:1 18426:1 18538:1 18658:1 18853:1 18861:1 18869:1 18874:1 18887:1 18897:1  |EV| 
0.10000000000000001 1287:1 6011:1 11319:1 16133:1 16203:1 17082:1 17148:1 17451:1 18295:1 18302:1 18321:1 18421:1 18555:1 18658:1 18853:1 18861:1 18869:1 18874:1 18887:1 18897:1  |EV| 
-0.10000000000000001 2697:1 8432:1 14357:1 15777:1 16789:1 16790:1 17042:1 17148:1 17451:1 18295:1 18302:1 18317:1 18426:1 18538:1 18658:1 18853:1 18861:1 18869:1 18874:1 18887:1 18897:1  |EV| 
-0.065064959781546278 3355:1 8348:1 13890:1 15587:1 15719:1 16741:1 17044:1 17148:1 17451:1 18295:1 18302:1 18317:1 18426:1 18538:1 18658:1 18853:1 18861:1 18869:1 18874:1 18878:1 18887:1 18897:1  |EV| 
0.012660169425073741 871:1 5550:1 10786:1 15577:1 15658:1 15687:1 16089:1 17042:1 17148:1 18263:1 18269:1 18292:1 18303:1 18309:1 18425:1 18540:1 18655:1 18853:1 18861:1 18869:1 18874:1 18887:1 18897:1  |EV| 
-0.045443182147911779 2785:1 7691:1 13889:1 15566:1 15587:1 15719:1 16741:1 17100:1 17148:1 17451:1 18295:1 18302:1 18317:1 18445:1 18543:1 18658:1 18853:1 18861:1 18869:1 18874:1 18878:1 18887:1 18897:1  |EV| 
-0.093592824635546273 142:1 4754:1 9906:1 17048:1 17148:1 17173:1 17451:1 17908:1 18046:1 18295:1 18302:1 18317:1 18438:1 18551:1 18658:1 18853:1 18861:1 18869:1 18874:1 18887:1 18897:1  |EV| 
0.10000000000000001 858:1 8528:1 14151:1 15563:1 15571:1 15577:1 15580:1 15585:1 15587:1 15592:1 15595:1 15611:1 15619:1 15647:1 15690:1 15792:1 15893:1 15897:1 16153:1 16176:1 16225:1 16276:1 16708:1 16765:1 16776:1 16778:1 16780:1 16781:1 17042:1 17148:1 18292:1 18303:1 18382:1 18424:1 18571:1 18699:1 18853:1 18861:1 18869:1 18874:1 18887:1 18897:1  |EV| 
0.10000000000000001 3463:1 8527:1 14143:1 15563:1 15571:1 15577:1 15580:1 15585:1 15587:1 15592:1 15595:1 15611:1 15619:1 15647:1 15690:1 15792:1 15893:1 15897:1 16153:1 16176:1 16225:1 16276:1 16708:1 16765:1 16776:1 16778:1 16780:1 16781:1 17056:1 17148:1 18292:1 18303:1 18382:1 18428:1 18597:1 18699:1 18853:1 18861:1 18869:1 18874:1 18887:1 18897:1  |EV| 
0.10000000000000001 2648:1 7534:1 12925:1 15563:1 15571:1 15577:1 15593:1 15690:1 15855:1 15922:1 16326:1 16596:1 16639:1 16640:1 16641:1 16642:1 16643:1 16644:1 16646:1 17068:1 17148:1 18266:1 18292:1 18303:1 18354:1 18425:1 18576:1 18689:1 18853:1 18861:1 18869:1 18874:1 18887:1 18897:1  |EV| 
0.10000000000000001 2026:1 6818:1 12152:1 15563:1 15577:1 15585:1 15587:1 15611:1 15997:1 16067:1 16432:1 16433:1 16434:1 17046:1 17148:1 17672:1 17673:1 18274:1 18276:1 18292:1 18303:1 18320:1 18425:1 18556:1 18667:1 18853:1 18861:1 18869:1 18874:1 18887:1 18897:1  |EV| 
-0.06338771432556195 2564:1 7439:1 12834:1 15563:1 15571:1 15577:1 15593:1 15690:1 15769:1 15855:1 15906:1 15916:1 15922:1 16125:1 16326:1 16596:1 16639:1 16640:1 16641:1 16642:1 16643:1 16644:1 17056:1 17067:1 17096:1 17148:1 18282:1 18292:1 18303:1 18331:1 18424:1 18578:1 18689:1 18853:1 18861:1 18869:1 18874:1 18887:1 18897:1  |EV| 
-0.022140727689417026 1165:1 8567:1 14234:1 15563:1 15571:1 15577:1 15580:1 15585:1 15587:1 15592:1 15595:1 15611:1 15619:1 15647:1 15690:1 15792:1 15893:1 15897:1 16153:1 16176:1 16225:1 16276:1 16701:1 16708:1 16765:1 16776:1 16778:1 16781:1 17056:1 17148:1 18292:1 18303:1 18354:1 18427:1 18597:1 18744:1 18853:1 18861:1 18869:1 18874:1 18887:1 18897:1  |EV| 
-0.069563714877647065 2046:1 6838:1 12170:1 15563:1 15577:1 15585:1 15587:1 15611:1 16067:1 16432:1 16433:1 16434:1 16435:1 17046:1 17148:1 18274:1 18276:1 18292:1 18303:1 18328:1 18424:1 18556:1 18659:1 18853:1 18861:1 18869:1 18874:1 18887:1 18897:1  |EV| 
0.054820825851570595 1181:1 5900:1 11140:1 16144:1 16145:1 17044:1 17148:1 17451:1 18292:1 18303:1 18317:1 18422:1 18559:1 18655:1 18853:1 18865:1 18869:1 18874:1 18887:1 18897:1  |EV| 
0.0075540905099563283 1251:1 5975:1 11238:1 15666:1 15784:1 16198:1 17077:1 17148:1 17451:1 18292:1 18303:1 18321:1 18422:1 18545:1 18655:1 18853:1 18861:1 18869:1 18874:1 18887:1 18897:1  |EV| 
0.10000000000000001 1135:1 5832:1 11071:1 15814:1 16155:1 16156:1 16157:1 17064:1 17148:1 17451:1 18292:1 18303:1 18317:1 18428:1 18541:1 18655:1 18853:1 18861:1 18869:1 18874:1 18887:1 18897:1  |EV| 
0.095223342469096861 153:1 4767:1 9921:1 15673:1 17048:1 17148:1 17176:1 17477:1 17908:1 18046:1 18293:1 18303:1 18305:1 18436:1 18551:1 18656:1 18853:1 18861:1 18869:1 18874:1 18887:1 18897:1  |EV| 
0.10000000000000001 1410:1 6137:1 11430:1 16152:1 16183:1 16293:1 16294:1 17060:1 17148:1 17451:1 18292:1 18303:1 18317:1 18428:1 18541:1 18655:1 18853:1 18861:1 18869:1 18874:1 18878:1 18879:1 18887:1 18897:1  |EV| 
-0.10000000000000001 3493:1 8518:1 14127:1 15571:1 15716:1 16025:1 16764:1 17042:1 17148:1 17451:1 18292:1 18303:1 18317:1 18428:1 18541:1 18655:1 18853:1 18861:1 18869:1 18874:1 18878:1 18887:1 18897:1  |EV| 
-0.10000000000000001 3491:1 8516:1 14125:1 15571:1 16025:1 16764:1 17100:1 17148:1 17451:1 18292:1 18303:1 18317:1 18442:1 18545:1 18655:1 18853:1 18861:1 18869:1 18874:1 18878:1 18887:1 18897:1  |EV| 
-0.10000000000000001 1784:1 6565:1 9880:1 17060:1 17148:1 17463:1 18294:1 18303:1 18308:1 18436:1 18542:1 18662:1 18853:1 18861:1 18869:1 18874:1 18887:1 18897:1  |EV| 
-0.10000000000000001 1856:1 6639:1 11959:1 15658:1 15920:1 15959:1 16395:1 17050:1 17148:1 17662:1 18292:1 18303:1 18321:1 18442:1 18541:1 18655:1 18853:1 18861:1 18869:1 18874:1 18887:1 18897:1  |EV| 
-0.10000000000000001 4380:1 9509:1 15303:1 15577:1 15651:1 15662:1 16329:1 17051:1 17148:1 17451:1 18292:1 18303:1 18327:1 18422:1 18541:1 18655:1 18853:1 18861:1 18869:1 18874:1 18887:1 18897:1  |EV| 
0.10000000000000001 2650:1 7536:1 12927:1 15563:1 15571:1 15577:1 15593:1 15690:1 15855:1 15906:1 15922:1 16125:1 16326:1 16596:1 16639:1 16640:1 16641:1 16642:1 16643:1 16644:1 16646:1 17056:1 17067:1 17096:1 17148:1 18266:1 18282:1 18292:1 18303:1 18354:1 18422:1 18578:1 18689:1 18853:1 18861:1 18869:1 18874:1 18887:1 18897:1  |EV| 
-0.0053166679683685977 3658:1 8724:1 10445:1 15577:1 17042:1 17148:1 17410:1 17463:1 18009:1 18215:1 18294:1 18303:1 18319:1 18422:1 18542:1 18662:1 18853:1 18861:1 18869:1 18874:1 18897:1  |EV| 
-0.016766016969437587 1202:1 8564:1 14232:1 15563:1 15571:1 15577:1 15580:1 15585:1 15587:1 15592:1 15595:1 15611:1 15619:1 15647:1 15690:1 15792:1 15893:1 15897:1 16153:1 16176:1 16225:1 16276:1 16701:1 16708:1 16765:1 16776:1 16778:1 16781:1 17042:1 17148:1 18292:1 18303:1 18354:1 18439:1 18571:1 18744:1 18853:1 18861:1 18869:1 18874:1 18887:1 18897:1  |EV| 
-0.016070294671843101 1096:1 5890:1 11130:1 15563:1 15565:1 15566:1 15571:1 15577:1 15580:1 15653:1 15678:1 15689:1 15690:1 15696:1 16141:1 16142:1 16143:1 16144:1 16145:1 16146:1 16147:1 17064:1 17148:1 18292:1 18303:1 18360:1 18425:1 18576:1 18701:1 18853:1 18861:1 18869:1 18874:1 18887:1 18897:1  |EV| 
0.10000000000000001 2164:1 6966:1 12323:1 15582:1 16464:1 16465:1 17042:1 17148:1 17292:1 17468:1 17687:1 17898:1 18028:1 18276:1 18294:1 18303:1 18325:1 18424:1 18542:1 18662:1 18853:1 18861:1 18869:1 18874:1 18887:1 18897:1  |EV| 
0.10000000000000001 4185:1 9300:1 15115:1 15566:1 15577:1 15585:1 15587:1 16915:1 16916:1 17042:1 17147:1 17463:1 18294:1 18303:1 18319:1 18430:1 18541:1 18662:1 18853:1 18861:1 18869:1 18874:1 18887:1 18897:1  |EV| 
0.10000000000000001 4343:1 9469:1 15264:1 15577:1 15619:1 17059:1 17148:1 17429:1 17540:1 17898:1 18235:1 18297:1 18303:1 18304:1 18444:1 18542:1 18692:1 18853:1 18861:1 18869:1 18874:1 18887:1 18897:1  |EV| 
0.10000000000000001 1139:1 8643:1 14373:1 15577:1 15690:1 16183:1 16781:1 17044:1 17148:1 17463:1 18294:1 18303:1 18308:1 18424:1 18545:1 18662:1 18853:1 18861:1 18869:1 18874:1 18887:1 18897:1  |EV| 
0.030659644016488338 2566:1 7441:1 12836:1 15575:1 15699:1 15739:1 16004:1 17068:1 17148:1 17451:1 18292:1 18303:1 18321:1 18442:1 18541:1 18655:1 18853:1 18861:1 18869:1 18874:1 18887:1 18897:1  |EV| 
-0.10000000000000001 4192:1 9308:1 15123:1 15577:1 17138:1 17147:1 17463:1 18298:1 18303:1 18319:1 18436:1 18609:1 18662:1 18853:1 18861:1 18869:1 18874:1 18887:1 18897:1  |EV| 
-0.060763900087635776 1190:1 5909:1 11149:1 15563:1 15577:1 15612:1 15898:1 16139:1 17087:1 17148:1 17519:1 18293:1 18303:1 18306:1 18436:1 18543:1 18656:1 18853:1 18861:1 18869:1 18874:1 18887:1 18897:1  |EV| 
-0.067379455884788081 2824:1 7733:1 13236:1 15563:1 15566:1 15571:1 15577:1 15582:1 15593:1 15636:1 15668:1 15880:1 16193:1 16552:1 16689:1 16691:1 17046:1 17121:1 17148:1 18285:1 18288:1 18293:1 18303:1 18338:1 18422:1 18560:1 18663:1 18853:1 18861:1 18869:1 18874:1 18887:1 18897:1  |EV| 
-0.091854740251827119 4506:1 9642:1 15440:1 15577:1 15582:1 15593:1 15690:1 15751:1 17105:1 17147:1 17933:1 18246:1 18293:1 18303:1 18306:1 18436:1 18543:1 18656:1 18853:1 18861:1 18869:1 18874:1 18887:1 18897:1  |EV| 
0.10000000000000001 261:1 5349:1 12226:1 15563:1 15571:1 15577:1 15602:1 15635:1 15696:1 15703:1 15719:1 15770:1 15890:1 16034:1 16153:1 16458:1 17060:1 17148:1 17451:1 18292:1 18303:1 18317:1 18455:1 18584:1 18668:1 18853:1 18861:1 18869:1 18874:1 18887:1 18897:1  |EV| 
0.10000000000000001 2092:1 6890:1 12227:1 15563:1 15571:1 15577:1 15602:1 15635:1 15696:1 15703:1 15719:1 15770:1 15890:1 16034:1 16153:1 16458:1 17046:1 17148:1 17451:1 18292:1 18303:1 18317:1 18468:1 18579:1 18756:1 18853:1 18861:1 18869:1 18874:1 18887:1 18897:1  |EV| 
0.10000000000000001 65:1 4677:1 12233:1 15563:1 15571:1 15577:1 15635:1 15696:1 15703:1 15719:1 15770:1 15890:1 16034:1 16153:1 16458:1 17050:1 17148:1 17451:1 18292:1 18303:1 18317:1 18456:1 18572:1 18668:1 18853:1 18861:1 18869:1 18874:1 18887:1 18897:1  |EV| 
0.077470407494968932 147:1 4820:1 9970:1 15571:1 15577:1 15580:1 15612:1 15626:1 15651:1 15653:1 15678:1 15683:1 15693:1 15694:1 15695:1 15696:1 15697:1 15698:1 15699:1 15706:1 17042:1 17148:1 18292:1 18303:1 18360:1 18425:1 18576:1 18701:1 18853:1 18861:1 18869:1 18874:1 18887:1 18897:1  |EV| 
-0.018649020681895088 378:1 5003:1 10159:1 15566:1 15577:1 15593:1 15812:1 15822:1 15823:1 15835:1 17042:1 17148:1 17450:1 18293:1 18303:1 18318:1 18428:1 18538:1 18656:1 18853:1 18865:1 18869:1 18874:1 18887:1 18893:1 18897:1  |EV| 
-0.041639670426144797 2837:1 7746:1 13249:1 15563:1 15566:1 15577:1 15582:1 15610:1 15612:1 15626:1 15897:1 15898:1 16073:1 16176:1 16345:1 16492:1 16660:1 16677:1 16683:1 16684:1 16685:1 16692:1 17046:1 17148:1 18292:1 18303:1 18352:1 18422:1 18589:1 18701:1 18853:1 18861:1 18869:1 18874:1 18887:1 18897:1  |EV| 
0.014279336594516205 1882:1 6665:1 11991:1 15566:1 15577:1 15580:1 15582:1 15653:1 15663:1 15697:1 15792:1 15864:1 16388:1 16389:1 16390:1 16391:1 16405:1 16406:1 16407:1 17104:1 17148:1 17263:1 17264:1 17512:1 17954:1 17955:1 18125:1 18126:1 18282:1 18293:1 18303:1 18342:1 18436:1 18565:1 18684:1 18853:1 18865:1 18869:1 18874:1 18887:1 18897:1  |EV| 
-0.014626377205044047 29:1 4641:1 9789:1 15563:1 15571:1 15577:1 15580:1 15582:1 15589:1 15593:1 15605:1 15606:1 15607:1 15608:1 15609:1 15610:1 15611:1 15612:1 15613:1 15614:1 15615:1 15616:1 15617:1 15618:1 15619:1 15620:1 15621:1 15623:1 15624:1 17042:1 17148:1 18292:1 18303:1 18335:1 18425:1 18570:1 18672:1 18853:1 18861:1 18869:1 18874:1 18887:1 18897:1  |EV| 
0.10000000000000001 668:1 6536:1 11857:1 15563:1 15566:1 15593:1 15725:1 15769:1 16353:1 16354:1 16355:1 16356:1 17051:1 17052:1 17148:1 18285:1 18293:1 18303:1 18312:1 18425:1 18554:1 18663:1 18853:1 18861:1 18869:1 18874:1 18887:1 18897:1  |EV| 
0.10000000000000001 675:1 8772:1 14546:1 15563:1 15799:1 15966:1 16815:1 16816:1 17064:1 17148:1 18293:1 18303:1 18313:1 18425:1 18548:1 18656:1 18853:1 18861:1 18869:1 18874:1 18887:1 18897:1  |EV| 
0.058877753951604155 129:1 4741:1 9880:1 17051:1 17148:1 17463:1 18294:1 18303:1 18308:1 18436:1 18542:1 18662:1 18853:1 18861:1 18869:1 18874:1 18887:1 18897:1  |EV| 
0.04425935433879314 115:1 4727:1 9880:1 17051:1 17052:1 17148:1 17463:1 18281:1 18294:1 18303:1 18308:1 18436:1 18542:1 18662:1 18853:1 18861:1 18869:1 18874:1 18887:1 18897:1  |EV| 
0.081682843142112979 3355:1 8409:1 13974:1 15587:1 15716:1 15719:1 16741:1 17044:1 17148:1 18293:1 18303:1 18307:1 18436:1 18538:1 18656:1 18853:1 18861:1 18869:1 18874:1 18879:1 18887:1 18897:1  |EV| 
-0.10000000000000001 3339:1 8545:1 14205:1 15593:1 15620:1 15742:1 15769:1 15890:1 17066:1 17148:1 17647:1 18293:1 18303:1 18306:1 18425:1 18562:1 18656:1 18853:1 18861:1 18869:1 18874:1 18887:1 18897:1  |EV| 
-0.10000000000000001 1811:1 6594:1 11912:1 15563:1 15571:1 17103:1 17148:1 17499:1 18293:1 18303:1 18325:1 18425:1 18561:1 18656:1 18853:1 18861:1 18869:1 18874:1 18887:1 18897:1  |EV| 
-0.10000000000000001 4316:1 9441:1 15237:1 15571:1 15639:1 15835:1 16970:1 17053:1 17148:1 17865:1 18293:1 18303:1 18307:1 18425:1 18543:1 18656:1 18853:1 18864:1 18869:1 18874:1 18887:1 18897:1  |EV| 
-0.070931795688867053 1058:1 5744:1 10985:1 15571:1 15814:1 16155:1 16156:1 16157:1 16158:1 16159:1 17064:1 17148:1 17499:1 18293:1 18303:1 18318:1 18428:1 18538:1 18656:1 18853:1 18861:1 18869:1 18874:1 18887:1 18897:1  |EV| 
-0.054890161966915506 1586:1 6352:1 11646:1 15563:1 15571:1 15595:1 15663:1 15751:1 15954:1 15955:1 15973:1 16014:1 16312:1 16333:1 17056:1 17148:1 18293:1 18303:1 18324:1 18435:1 18562:1 18669:1 18853:1 18861:1 18869:1 18874:1 18887:1 18897:1  |EV| 
0.10000000000000001 1415:1 7015:1 12370:1 15577:1 15580:1 15690:1 15742:1 15816:1 15973:1 16492:1 17042:1 17148:1 18292:1 18303:1 18327:1 18423:1 18564:1 18659:1 18853:1 18861:1 18869:1 18874:1 18887:1 18897:1  |EV| 
0.051578602096498283 632:1 5295:1 10519:1 15563:1 15566:1 15571:1 15575:1 15577:1 15582:1 15585:1 15587:1 15651:1 15817:1 15844:1 15878:1 15920:1 15921:1 15922:1 15923:1 15924:1 15925:1 15926:1 15927:1 15928:1 15929:1 15930:1 15931:1 15932:1 15933:1 17042:1 17148:1 17538:1 17929:1 18080:1 18276:1 18292:1 18303:1 18352:1 18430:1 18568:1 18699:1 18853:1 18861:1 18869:1 18874:1 18887:1 18897:1  |EV| 
0.10000000000000001 2978:1 7899:1 13401:1 15571:1 15577:1 15690:1 15716:1 16176:1 16266:1 16345:1 16428:1 17056:1 17148:1 18292:1 18303:1 18314:1 18422:1 18564:1 18659:1 18853:1 18861:1 18869:1 18874:1 18887:1 18897:1  |EV| 
0.10000000000000001 3061:1 7996:1 13644:1 15563:1 15569:1 15577:1 15580:1 15593:1 15814:1 15880:1 15883:1 15898:1 15901:1 16705:1 16706:1 16714:1 17055:1 17148:1 18292:1 18303:1 18353:1 18425:1 18558:1 18667:1 18853:1 18861:1 18869:1 18874:1 18887:1 18897:1  |EV| 
0.10000000000000001 2701:1 7595:1 13010:1 15563:1 15571:1 15577:1 15580:1 15612:1 15690:1 15769:1 16672:1 16673:1 17042:1 17148:1 18292:1 18303:1 18362:1 18436:1 18556:1 18659:1 18853:1 18861:1 18869:1 18874:1 18887:1 18897:1  |EV| 
-0.10000000000000001 2519:1 7387:1 12789:1 15563:1 15577:1 15602:1 15635:1 16410:1 16599:1 16600:1 16605:1 17060:1 17148:1 18292:1 18303:1 18327:1 18423:1 18564:1 18659:1 18853:1 18861:1 18869:1 18874:1 18887:1 18897:1  |EV| 
-0.037522681504882902 1202:1 8664:1 14412:1 15563:1 15566:1 15577:1 15580:1 15582:1 15612:1 15630:1 15690:1 15719:1 15811:1 15906:1 16183:1 16781:1 16784:1 16791:1 17042:1 17148:1 18292:1 18303:1 18361:1 18422:1 18577:1 18667:1 18853:1 18861:1 18869:1 18874:1 18878:1 18887:1 18897:1  |EV| 
-0.10000000000000001 3376:1 8423:1 14284:1 15580:1 15683:1 15685:1 15686:1 15690:1 15816:1 16153:1 16765:1 17042:1 17148:1 18292:1 18303:1 18304:1 18430:1 18556:1 18659:1 18853:1 18861:1 18869:1 18874:1 18887:1 18897:1  |EV| 
-0.018252975207231795 2830:1 7739:1 13327:1 15563:1 15569:1 15577:1 15580:1 15593:1 15814:1 15880:1 15883:1 15898:1 15901:1 16705:1 16706:1 16707:1 17055:1 17148:1 18292:1 18303:1 18327:1 18439:1 18558:1 18668:1 18853:1 18861:1 18869:1 18874:1 18887:1 18897:1  |EV| 
0.060119833459727531 791:1 5465:1 15544:1 15563:1 15571:1 15577:1 15633:1 15705:1 15728:1 15729:1 15730:1 15731:1 15733:1 16272:1 17045:1 17148:1 18292:1 18303:1 18323:1 18425:1 18546:1 18667:1 18853:1 18861:1 18869:1 18874:1 18887:1 18897:1  |EV| 
0.081297696061662594 4303:1 9428:1 15226:1 15593:1 15641:1 17062:1 17148:1 17450:1 18293:1 18303:1 18325:1 18425:1 18561:1 18656:1 18853:1 18861:1 18869:1 18874:1 18887:1 18897:1  |EV| 
0.10000000000000001 1670:1 6421:1 11841:1 15563:1 15751:1 15954:1 15955:1 15973:1 17056:1 17148:1 18293:1 18303:1 18306:1 18425:1 18562:1 18656:1 18853:1 18861:1 18869:1 18874:1 18887:1 18897:1  |EV| 
0.10000000000000001 557:1 5206:1 10404:1 15729:1 15846:1 15847:1 15848:1 17044:1 17148:1 18293:1 18303:1 18307:1 18425:1 18543:1 18656:1 18853:1 18861:1 18869:1 18874:1 18887:1 18897:1  |EV| 
0.10000000000000001 1446:1 6176:1 11469:1 15563:1 15571:1 15577:1 15636:1 15641:1 15651:1 15683:1 15742:1 15745:1 16147:1 16295:1 16296:1 16297:1 16303:1 16304:1 16305:1 16306:1 16307:1 16308:1 16309:1 16310:1 17054:1 17148:1 18293:1 18303:1 18355:1 18425:1 18591:1 18675:1 18853:1 18861:1 18869:1 18874:1 18887:1 18897:1  |EV| 
0.076615992682532663 1646:1 6392:1 11693:1 15563:1 15571:1 15595:1 15690:1 15751:1 15954:1 15955:1 15973:1 16014:1 16312:1 16333:1 17054:1 17148:1 18293:1 18303:1 18324:1 18425:1 18587:1 18663:1 18853:1 18861:1 18869:1 18874:1 18887:1 18897:1  |EV| 
-0.10000000000000001 1565:1 6305:1 11599:1 15563:1 15593:1 15690:1 15719:1 15751:1 15954:1 15955:1 16345:1 16346:1 16348:1 17082:1 17148:1 18295:1 18302:1 18362:1 18443:1 18561:1 18679:1 18853:1 18861:1 18869:1 18874:1 18887:1 18897:1  |EV| 
-0.10000000000000001 4310:1 9435:1 15232:1 15571:1 15651:1 15703:1 15855:1 16961:1 17062:1 17148:1 18292:1 18303:1 18328:1 18425:1 18540:1 18655:1 18853:1 18861:1 18869:1 18874:1 18887:1 18897:1  |EV| 
-0.10000000000000001 194:1 4860:1 10008:1 15563:1 15571:1 15577:1 15711:1 15712:1 17054:1 17148:1 18293:1 18303:1 18306:1 18425:1 18562:1 18656:1 18853:1 18861:1 18869:1 18874:1 18887:1 18897:1  |EV| 
-0.10000000000000001 2887:1 8118:1 13647:1 15577:1 16193:1 16691:1 17044:1 17148:1 18293:1 18303:1 18307:1 18436:1 18538:1 18656:1 18853:1 18861:1 18869:1 18874:1 18887:1 18897:1  |EV| 
-0.075886779674991703 4084:1 9191:1 15006:1 15563:1 15571:1 15577:1 15582:1 15593:1 15626:1 15697:1 15729:1 15730:1 15731:1 15750:1 15809:1 15834:1 16199:1 16261:1 16860:1 16861:1 17131:1 17148:1 18293:1 18303:1 18344:1 18425:1 18590:1 18675:1 18853:1 18861:1 18869:1 18874:1 18887:1 18897:1  |EV| 
0.10000000000000001 3376:1 8423:1 14174:1 15580:1 15683:1 15685:1 15686:1 15690:1 15816:1 16153:1 16765:1 17042:1 17148:1 18292:1 18303:1 18362:1 18436:1 18556:1 18659:1 18853:1 18861:1 18869:1 18874:1 18887:1 18897:1  |EV| 
0.10000000000000001 614:1 5271:1 10485:1 15563:1 15571:1 15577:1 15580:1 15815:1 15868:1 15902:1 15903:1 15904:1 15905:1 15934:1 15935:1 15944:1 17042:1 17148:1 18292:1 18303:1 18327:1 18429:1 18573:1 18668:1 18853:1 18861:1 18869:1 18874:1 18887:1 18897:1  |EV| 
0.10000000000000001 1202:1 8879:1 14654:1 15563:1 15566:1 15626:1 15678:1 15746:1 15852:1 15896:1 16080:1 16176:1 16807:1 16826:1 16827:1 17042:1 17148:1 17534:1 18292:1 18303:1 18315:1 18423:1 18558:1 18659:1 18853:1 18861:1 18869:1 18874:1 18887:1 18897:1  |EV| 
-0.0276164997805723 2740:1 7639:1 13072:1 15563:1 15571:1 15577:1 15580:1 15612:1 15769:1 16435:1 16672:1 17056:1 17148:1 17451:1 18292:1 18303:1 18317:1 18447:1 18544:1 18668:1 18853:1 18861:1 18869:1 18874:1 18887:1 18897:1  |EV| 
0.10000000000000001 453:1 5086:1 10254:1 15566:1 15577:1 15580:1 15812:1 15822:1 15823:1 17066:1 17148:1 17451:1 18292:1 18303:1 18317:1 18423:1 18547:1 18655:1 18853:1 18861:1 18869:1 18874:1 18887:1 18897:1  |EV| 
-0.10000000000000001 1140:1 8531:1 14282:1 15580:1 15683:1 15685:1 15686:1 15816:1 16153:1 16765:1 17056:1 17148:1 18292:1 18303:1 18304:1 18423:1 18544:1 18659:1 18853:1 18861:1 18869:1 18874:1 18887:1 18897:1  |EV| 
-0.10000000000000001 2866:1 7777:1 13280:1 15571:1 15577:1 15852:1 16176:1 16266:1 16345:1 17056:1 17124:1 17148:1 17451:1 18285:1 18292:1 18303:1 18317:1 18423:1 18547:1 18655:1 18853:1 18861:1 18869:1 18874:1 18887:1 18897:1  |EV| 
-0.10000000000000001 3613:1 8671:1 14665:1 15563:1 15566:1 15626:1 15678:1 15746:1 15896:1 16080:1 16176:1 16762:1 16807:1 16826:1 16827:1 17042:1 17148:1 18292:1 18303:1 18327:1 18439:1 18558:1 18668:1 18853:1 18861:1 18869:1 18874:1 18887:1 18897:1  |EV| 
0.10000000000000001 1339:1 6064:1 11344:1 15563:1 15577:1 15719:1 15784:1 16206:1 17049:1 17148:1 18293:1 18303:1 18306:1 18422:1 18538:1 18656:1 18853:1 18861:1 18869:1 18874:1 18887:1 18897:1  |EV| 
0.10000000000000001 1378:1 6104:1 11394:1 15563:1 15577:1 15582:1 15808:1 16100:1 16257:1 17045:1 17148:1 18293:1 18303:1 18313:1 18425:1 18548:1 18656:1 18853:1 18861:1 18869:1 18874:1 18887:1 18897:1  |EV| 
0.10000000000000001 584:1 5238:1 10452:1 15563:1 15577:1 15612:1 15683:1 15719:1 15759:1 15880:1 15881:1 17044:1 17148:1 18293:1 18303:1 18310:1 18422:1 18549:1 18669:1 18853:1 18861:1 18869:1 18874:1 18887:1 18897:1  |EV| 
0.075884059891957983 2011:1 6801:1 12136:1 15563:1 15577:1 16436:1 17045:1 17148:1 18293:1 18303:1 18311:1 18425:1 18538:1 18656:1 18853:1 18861:1 18869:1 18874:1 18887:1 18897:1  |EV| 
-0.026667188831332213 2316:1 7137:1 12501:1 15580:1 16409:1 16473:1 17113:1 17148:1 17310:1 17705:1 17979:1 18165:1 18292:1 18303:1 18327:1 18436:1 18545:1 18655:1 18853:1 18861:1 18869:1 18874:1 18897:1  |EV| 
-0.069489432896203712 3339:1 8415:1 13984:1 15563:1 15566:1 15571:1 15577:1 15582:1 15594:1 15657:1 15719:1 15739:1 15799:1 15880:1 15881:1 16049:1 16090:1 16137:1 16282:1 16291:1 16293:1 16366:1 16459:1 16733:1 16734:1 16735:1 17066:1 17148:1 18293:1 18303:1 18337:1 18425:1 18600:1 18742:1 18853:1 18861:1 18869:1 18874:1 18887:1 18897:1  |EV| 
-0.096706981723648278 2837:1 8216:1 13746:1 15563:1 15577:1 15585:1 15587:1 15612:1 16064:1 16291:1 16696:1 16697:1 17046:1 17148:1 18293:1 18303:1 18310:1 18436:1 18550:1 18669:1 18853:1 18861:1 18869:1 18874:1 18887:1 18897:1  |EV| 
-0.065599803805907103 3149:1 8103:1 13630:1 15563:1 15571:1 15577:1 15580:1 15585:1 15587:1 15588:1 15612:1 16064:1 16065:1 16291:1 16694:1 16695:1 16696:1 16697:1 17044:1 17148:1 18293:1 18303:1 18350:1 18425:1 18598:1 18663:1 18853:1 18861:1 18869:1 18874:1 18879:1 18887:1 18897:1  |EV| 
-0.10000000000000001 366:1 4991:1 10146:1 15566:1 15577:1 15580:1 15593:1 15620:1 15719:1 15727:1 15812:1 15822:1 15823:1 15835:1 17055:1 17148:1 18292:1 18303:1 18323:1 18425:1 18546:1 18667:1 18853:1 18861:1 18869:1 18874:1 18887:1 18897:1  |EV| 
0.10000000000000001 3005:1 7929:1 13435:1 15566:1 15577:1 15585:1 15587:1 15593:1 15897:1 15898:1 16686:1 16687:1 17114:1 17148:1 17451:1 18295:1 18302:1 18317:1 18437:1 18596:1 18679:1 18853:1 18861:1 18869:1 18874:1 18887:1 18897:1  |EV| 
0.022555121057720489 2519:1 7387:1 12785:1 15602:1 16599:1 16600:1 17060:1 17148:1 18292:1 18303:1 18327:1 18436:1 18545:1 18655:1 18853:1 18861:1 18869:1 18874:1 18887:1 18897:1  |EV| 
0.10000000000000001 2979:1 7900:1 13402:1 15571:1 15577:1 15716:1 16176:1 16266:1 16345:1 17056:1 17124:1 17148:1 18285:1 18292:1 18303:1 18314:1 18425:1 18547:1 18655:1 18853:1 18861:1 18869:1 18874:1 18887:1 18897:1  |EV| 
0.077238944266863993 1236:1 5958:1 11218:1 15571:1 15577:1 15690:1 16125:1 16137:1 17055:1 17148:1 17248:1 17606:1 17940:1 18100:1 18292:1 18303:1 18304:1 18442:1 18547:1 18655:1 18853:1 18861:1 18869:1 18874:1 18887:1 18889:1 18897:1  |EV| 
0.053271574391279164 2283:1 7099:1 12459:1 15593:1 15685:1 15874:1 16263:1 16523:1 17050:1 17148:1 18292:1 18303:1 18328:1 18425:1 18540:1 18655:1 18853:1 18861:1 18869:1 18874:1 18887:1 18897:1  |EV| 
-0.10000000000000001 3359:1 8352:1 13894:1 15571:1 16014:1 16744:1 17049:1 17148:1 17520:1 18292:1 18303:1 18317:1 18442:1 18545:1 18655:1 18853:1 18865:1 18869:1 18874:1 18887:1 18897:1  |EV| 
0.10000000000000001 1343:1 7219:1 12616:1 15563:1 15571:1 15577:1 15597:1 15663:1 15825:1 15835:1 15974:1 16034:1 16038:1 16554:1 16555:1 16557:1 16558:1 16559:1 16560:1 17046:1 17148:1 18292:1 18303:1 18331:1 18425:1 18577:1 18667:1 18853:1 18861:1 18869:1 18874:1 18887:1 18897:1  |EV| 
0.10000000000000001 325:1 6673:1 11999:1 15566:1 15577:1 15580:1 15582:1 15613:1 15638:1 15653:1 15697:1 15792:1 15864:1 15906:1 16388:1 16389:1 16390:1 16391:1 16405:1 16406:1 16407:1 17054:1 17148:1 17192:1 17512:1 17913:1 18059:1 18293:1 18303:1 18342:1 18428:1 18598:1 18684:1 18853:1 18865:1 18869:1 18874:1 18887:1 18897:1  |EV| 
0.10000000000000001 1725:1 6492:1 11809:1 15563:1 15571:1 15577:1 15593:1 15675:1 15705:1 15741:1 15967:1 16340:1 16342:1 17060:1 17148:1 18292:1 18303:1 18323:1 18425:1 18546:1 18667:1 18853:1 18861:1 18869:1 18874:1 18887:1 18897:1  |EV| 
-0.10000000000000001 2260:1 7073:1 12547:1 15577:1 15603:1 15613:1 15690:1 15792:1 16225:1 16520:1 17091:1 17148:1 18293:1 18303:1 18318:1 18425:1 18549:1 18656:1 18853:1 18861:1 18869:1 18874:1 18878:1 18887:1 18897:1  |EV| 
-0.10000000000000001 2744:1 7644:1 13078:1 15563:1 15577:1 15580:1 15593:1 15683:1 15719:1 15884:1 15893:1 16040:1 16566:1 16670:1 16671:1 17116:1 17148:1 18292:1 18303:1 18326:1 18425:1 18563:1 18667:1 18853:1 18861:1 18869:1 18874:1 18887:1 18897:1  |EV| 
0.016891476612971593 3926:1 9026:1 14830:1 15593:1 15820:1 16849:1 17052:1 17148:1 18292:1 18303:1 18304:1 18425:1 18545:1 18655:1 18853:1 18861:1 18869:1 18874:1 18887:1 18897:1  |EV| 
-0.10000000000000001 2919:1 7831:1 13909:1 15571:1 15577:1 15690:1 15792:1 16708:1 17059:1 17148:1 17499:1 18293:1 18303:1 18306:1 18425:1 18562:1 18656:1 18853:1 18861:1 18869:1 18874:1 18887:1 18897:1  |EV| 
-0.10000000000000001 194:1 4860:1 10073:1 15563:1 15577:1 15582:1 15589:1 15707:1 15708:1 15709:1 15713:1 15737:1 17054:1 17148:1 18292:1 18303:1 18320:1 18425:1 18556:1 18667:1 18853:1 18861:1 18869:1 18874:1 18887:1 18897:1  |EV| 
0.10000000000000001 2883:1 7794:1 13337:1 15658:1 16683:1 16708:1 17056:1 17148:1 17451:1 18292:1 18303:1 18317:1 18442:1 18545:1 18655:1 18853:1 18861:1 18869:1 18874:1 18887:1 18897:1  |EV| 
0.061756353940919974 2697:1 8432:1 14004:1 15571:1 15716:1 16763:1 16764:1 17042:1 17148:1 18292:1 18303:1 18304:1 18436:1 18541:1 18655:1 18853:1 18861:1 18869:1 18874:1 18878:1 18887:1 18897:1  |EV| 
0.022490993458504593 452:1 5085:1 11329:1 15593:1 16244:1 16245:1 17042:1 17148:1 17451:1 18292:1 18303:1 18317:1 18442:1 18545:1 18655:1 18853:1 18861:1 18869:1 18874:1 18887:1 18897:1  |EV| 
-0.10000000000000001 4133:1 9241:1 15050:1 15569:1 15571:1 16138:1 16878:1 16879:1 17042:1 17148:1 17451:1 17700:1 17853:1 18274:1 18276:1 18292:1 18303:1 18317:1 18424:1 18540:1 18655:1 18853:1 18865:1 18869:1 18874:1 18887:1 18897:1  |EV| 
-0.10000000000000001 4263:1 9387:1 15192:1 15571:1 15663:1 15777:1 16728:1 16945:1 16946:1 16947:1 17064:1 17148:1 17451:1 18292:1 18303:1 18317:1 18430:1 18552:1 18655:1 18853:1 18861:1 18869:1 18874:1 18887:1 18897:1  |EV| 
-0.10000000000000001 1836:1 6619:1 11936:1 15577:1 15580:1 15674:1 15716:1 15810:1 16138:1 17042:1 17148:1 17661:1 18292:1 18303:1 18328:1 18436:1 18547:1 18655:1 18853:1 18865:1 18869:1 18879:1 18887:1 18889:1 18897:1  |EV| 
0.10000000000000001 3339:1 8330:1 13870:1 15577:1 15657:1 15719:1 15799:1 16049:1 16137:1 16459:1 17066:1 17148:1 18293:1 18303:1 18330:1 18425:1 18550:1 18669:1 18853:1 18861:1 18869:1 18874:1 18887:1 18897:1  |EV| 
0.10000000000000001 2497:1 7356:1 12755:1 15563:1 15577:1 15719:1 15784:1 16279:1 16344:1 16594:1 16595:1 17049:1 17148:1 18293:1 18303:1 18310:1 18428:1 18562:1 18669:1 18853:1 18861:1 18869:1 18874:1 18887:1 18897:1  |EV| 
0.10000000000000001 2785:1 8412:1 13979:1 15563:1 15571:1 15577:1 15580:1 15582:1 15657:1 15705:1 15719:1 15769:1 16732:1 16741:1 16742:1 17100:1 17148:1 18292:1 18303:1 18326:1 18425:1 18563:1 18667:1 18853:1 18861:1 18869:1 18874:1 18887:1 18897:1  |EV| 
0.10000000000000001 3946:1 9046:1 14849:1 15563:1 15571:1 15729:1 15730:1 15731:1 15809:1 15834:1 16860:1 17131:1 17148:1 17830:1 18293:1 18303:1 18322:1 18425:1 18554:1 18663:1 18853:1 18865:1 18869:1 18874:1 18887:1 18897:1  |EV| 
0.020689399733084996 257:1 4879:1 10030:1 15563:1 15628:1 17055:1 17148:1 18293:1 18303:1 18325:1 18425:1 18561:1 18656:1 18853:1 18861:1 18869:1 18874:1 18887:1 18897:1  |EV| 
-0.01517375687067149 2912:1 8055:1 13575:1 15563:1 15566:1 15571:1 15577:1 15585:1 15587:1 15593:1 15897:1 15898:1 16127:1 16686:1 16687:1 17114:1 17148:1 17499:1 18293:1 18303:1 18324:1 18428:1 18596:1 18669:1 18853:1 18861:1 18869:1 18874:1 18887:1 18897:1  |EV| 
-0.017355290308717859 709:1 5379:1 10612:1 15563:1 15566:1 15571:1 15605:1 15855:1 15952:1 15953:1 15967:1 17051:1 17148:1 17546:1 18293:1 18303:1 18330:1 18425:1 18550:1 18669:1 18853:1 18861:1 18869:1 18874:1 18878:1 18887:1 18897:1  |EV| 
-0.075186766176250044 1457:1 6189:1 11481:1 15571:1 15577:1 15580:1 15593:1 15630:1 15657:1 16284:1 16285:1 16286:1 16287:1 17097:1 17148:1 17483:1 18293:1 18303:1 18322:1 18425:1 18554:1 18663:1 18853:1 18861:1 18869:1 18874:1 18887:1 18897:1  |EV| 
-0.01558903483009101 1650:1 6396:1 11697:1 15571:1 15595:1 16312:1 17056:1 17148:1 17637:1 18292:1 18303:1 18327:1 18422:1 18541:1 18655:1 18853:1 18863:1 18869:1 18874:1 18890:1 18891:1 18897:1  |EV| 
0.061283919143762799 2045:1 9381:1 15187:1 15571:1 15663:1 15777:1 16650:1 16945:1 16946:1 16947:1 17064:1 17148:1 18292:1 18303:1 18315:1 18425:1 18552:1 18655:1 18853:1 18861:1 18869:1 18874:1 18887:1 18897:1  |EV| 
0.10000000000000001 833:1 5510:1 10750:1 15571:1 15577:1 15580:1 15657:1 15663:1 15893:1 16056:1 17046:1 17081:1 17148:1 18292:1 18303:1 18327:1 18424:1 18552:1 18655:1 18853:1 18861:1 18869:1 18874:1 18887:1 18897:1  |EV| 
0.055603647792117315 4285:1 9410:1 15213:1 15565:1 15580:1 15636:1 15792:1 16958:1 17055:1 17147:1 18292:1 18303:1 18328:1 18425:1 18540:1 18655:1 18853:1 18861:1 18869:1 18874:1 18887:1 18897:1  |EV| 
0.10000000000000001 1140:1 8531:1 14175:1 15580:1 15683:1 15685:1 15686:1 15816:1 16153:1 16765:1 17056:1 17148:1 18292:1 18303:1 18362:1 18425:1 18544:1 18659:1 18853:1 18861:1 18869:1 18874:1 18887:1 18897:1  |EV| 
-0.10000000000000001 2607:1 7486:1 12877:1 15563:1 15906:1 16125:1 16646:1 17056:1 17067:1 17096:1 17148:1 18266:1 18282:1 18292:1 18303:1 18327:1 18422:1 18540:1 18655:1 18853:1 18861:1 18869:1 18874:1 18887:1 18897:1  |EV| 
-0.10000000000000001 2742:1 7642:1 13076:1 15563:1 15580:1 15811:1 15893:1 16602:1 16650:1 17042:1 17148:1 18292:1 18303:1 18314:1 18425:1 18547:1 18655:1 18853:1 18861:1 18869:1 18874:1 18887:1 18897:1  |EV| 
-0.10000000000000001 2888:1 7974:1 13486:1 15577:1 15719:1 15769:1 15843:1 16282:1 16688:1 17046:1 17120:1 17148:1 18281:1 18285:1 18292:1 18303:1 18314:1 18425:1 18547:1 18655:1 18853:1 18861:1 18869:1 18874:1 18887:1 18897:1  |EV| 
-0.10000000000000001 148:1 4761:1 9913:1 15575:1 15681:1 15682:1 15683:1 15684:1 15685:1 15686:1 17057:1 17148:1 17451:1 18292:1 18303:1 18327:1 18424:1 18552:1 18655:1 18853:1 18861:1 18869:1 18874:1 18887:1 18897:1  |EV| 
-0.10000000000000001 147:1 4760:1 9912:1 15577:1 15663:1 15664:1 15665:1 15666:1 15667:1 15669:1 15680:1 17042:1 17148:1 18292:1 18303:1 18316:1 18425:1 18564:1 18659:1 18853:1 18861:1 18869:1 18874:1 18887:1 18897:1  |EV| 
0.10000000000000001 2291:1 7110:1 12474:1 15566:1 15571:1 15577:1 15612:1 15651:1 15696:1 15814:1 16049:1 16193:1 16245:1 16525:1 16526:1 17051:1 17052:1 17148:1 18282:1 18293:1 18303:1 18338:1 18425:1 18580:1 18663:1 18853:1 18861:1 18869:1 18874:1 18887:1 18897:1  |EV| 
0.087516112862117523 478:1 5113:1 10284:1 15563:1 15566:1 15571:1 15593:1 15707:1 15830:1 15855:1 15864:1 15865:1 15866:1 15867:1 15869:1 15870:1 17064:1 17148:1 17451:1 18292:1 18303:1 18323:1 18442:1 18573:1 18667:1 18853:1 18861:1 18869:1 18874:1 18887:1 18897:1  |EV| 
0.10000000000000001 905:1 5584:1 10819:1 15563:1 15571:1 15577:1 15580:1 15690:1 15988:1 16074:1 16075:1 16076:1 16077:1 16078:1 17055:1 17148:1 17499:1 18293:1 18303:1 18312:1 18425:1 18557:1 18663:1 18853:1 18861:1 18869:1 18874:1 18887:1 18897:1  |EV| 
0.097201298165469907 3951:1 9052:1 14857:1 15563:1 15577:1 15582:1 15585:1 15587:1 15733:1 16068:1 16304:1 16408:1 16863:1 16864:1 17131:1 17147:1 17451:1 18292:1 18303:1 18317:1 18460:1 18585:1 18741:1 18853:1 18861:1 18869:1 18874:1 18887:1 18897:1  |EV| 
-0.0034838684430559094 644:1 5311:1 10545:1 15563:1 15571:1 15575:1 15582:1 15585:1 15587:1 15651:1 15844:1 15878:1 15923:1 15924:1 15925:1 15926:1 15927:1 15928:1 15929:1 15930:1 15931:1 17044:1 17148:1 18292:1 18303:1 18364:1 18442:1 18579:1 18689:1 18853:1 18861:1 18869:1 18874:1 18897:1  |EV| 
-0.021762232199483904 2901:1 7812:1 13314:1 15563:1 15566:1 15571:1 15577:1 15580:1 15585:1 15587:1 15588:1 15612:1 15690:1 16064:1 16065:1 16291:1 16293:1 16691:1 16693:1 16694:1 16695:1 16696:1 16697:1 17114:1 17148:1 18293:1 18303:1 18383:1 18436:1 18566:1 18675:1 18853:1 18861:1 18869:1 18874:1 18887:1 18897:1  |EV| 
0.029732006767441883 2888:1 7799:1 9803:1 17046:1 17120:1 17148:1 17451:1 18281:1 18285:1 18292:1 18303:1 18317:1 18425:1 18553:1 18655:1 18853:1 18861:1 18869:1 18874:1 18887:1 18897:1  |EV| 
0.10000000000000001 3717:1 8855:1 14670:1 15563:1 15593:1 15906:1 16261:1 16634:1 17054:1 17148:1 18292:1 18303:1 18328:1 18425:1 18540:1 18655:1 18853:1 18861:1 18869:1 18874:1 18887:1 18897:1  |EV| 
0.10000000000000001 284:1 4906:1 10057:1 15563:1 15715:1 15716:1 15717:1 15718:1 17056:1 17148:1 18292:1 18303:1 18328:1 18425:1 18540:1 18655:1 18853:1 18861:1 18869:1 18874:1 18887:1 18897:1  |EV| 
0.015089254852352423 2354:1 7181:1 12562:1 15571:1 15610:1 15691:1 15697:1 16008:1 16539:1 16547:1 16548:1 17049:1 17148:1 18292:1 18303:1 18315:1 18436:1 18564:1 18659:1 18853:1 18861:1 18869:1 18874:1 18878:1 18887:1 18889:1 18897:1  |EV| 
0.10000000000000001 1202:1 5921:1 11169:1 15577:1 16161:1 16162:1 16163:1 16164:1 17042:1 17148:1 17451:1 18292:1 18303:1 18317:1 18424:1 18540:1 18655:1 18853:1 18861:1 18869:1 18874:1 18887:1 18897:1  |EV| 
-0.10000000000000001 2010:1 6800:1 12135:1 15563:1 15587:1 15611:1 15997:1 16434:1 17046:1 17147:1 17662:1 18292:1 18303:1 18328:1 18425:1 18540:1 18655:1 18853:1 18861:1 18869:1 18874:1 18887:1 18897:1  |EV| 
-0.10000000000000001 2015:1 6807:1 12142:1 15611:1 17107:1 17147:1 17269:1 17512:1 17957:1 18130:1 18292:1 18303:1 18317:1 18436:1 18539:1 18655:1 18853:1 18861:1 18869:1 18874:1 18887:1  |EV| 
-0.10000000000000001 1786:1 6567:1 11883:1 15563:1 15571:1 15589:1 16366:1 16386:1 17054:1 17148:1 18292:1 18303:1 18328:1 18425:1 18540:1 18655:1 18853:1 18861:1 18869:1 18874:1 18887:1 18889:1 18897:1  |EV| 
-0.10000000000000001 803:1 7260:1 12650:1 15760:1 15820:1 15840:1 16460:1 17068:1 17148:1 18292:1 18303:1 18309:1 18425:1 18541:1 18655:1 18853:1 18861:1 18869:1 18874:1 18887:1 18897:1  |EV| 
0.10000000000000001 836:1 5513:1 10753:1 15580:1 15611:1 15612:1 15893:1 17082:1 17148:1 18295:1 18302:1 18327:1 18445:1 18561:1 18658:1 18853:1 18861:1 18869:1 18874:1 18887:1 18897:1  |EV| 
0.086405267545899195 3613:1 8671:1 14415:1 15603:1 15777:1 16789:1 16790:1 17042:1 17148:1 18293:1 18303:1 18307:1 18436:1 18538:1 18656:1 18853:1 18861:1 18869:1 18874:1 18887:1 18897:1  |EV| 
-0.057350395324499905 3584:1 8633:1 14360:1 15580:1 15777:1 16789:1 16790:1 17049:1 17148:1 17451:1 18295:1 18302:1 18317:1 18445:1 18543:1 18658:1 18853:1 18861:1 18869:1 18874:1 18887:1 18897:1  |EV| 
-0.074837613434760489 2314:1 7182:1 15416:1 15563:1 15628:1 17042:1 17148:1 17451:1 18295:1 18302:1 18317:1 18421:1 18561:1 18658:1 18853:1 18861:1 18869:1 18874:1 18887:1 18897:1  |EV| 
-0.090012524748437281 3784:1 8868:1 14644:1 16825:1 17054:1 17148:1 17451:1 18295:1 18302:1 18317:1 18444:1 18555:1 18658:1 18853:1 18861:1 18869:1 18874:1 18887:1 18897:1  |EV| 
0.10000000000000001 3214:1 8188:1 13717:1 15563:1 15577:1 15690:1 15692:1 16293:1 17054:1 17148:1 18292:1 18303:1 18328:1 18425:1 18540:1 18655:1 18853:1 18861:1 18869:1 18874:1 18887:1 18897:1  |EV| 
0.034290989826993065 3945:1 9045:1 14848:1 15593:1 15594:1 15745:1 16494:1 17064:1 17147:1 18292:1 18303:1 18309:1 18425:1 18541:1 18655:1 18853:1 18861:1 18869:1 18874:1 18887:1 18897:1  |EV| 
0.061606169775350911 2227:1 7089:1 12447:1 15575:1 15580:1 15593:1 16511:1 16512:1 17114:1 17148:1 18292:1 18303:1 18328:1 18425:1 18540:1 18655:1 18853:1 18861:1 18869:1 18874:1 18887:1 18897:1  |EV| 
0.049068559678823863 4480:1 9614:1 9803:1 17059:1 17147:1 17520:1 18292:1 18303:1 18317:1 18425:1 18553:1 18655:1 18853:1 18861:1 18869:1 18874:1 18887:1 18897:1  |EV| 
0.10000000000000001 2136:1 6938:1 12292:1 15577:1 15585:1 15611:1 15628:1 15645:1 15829:1 17064:1 17069:1 17109:1 17110:1 17148:1 17451:1 18282:1 18292:1 18303:1 18317:1 18423:1 18547:1 18655:1 18853:1 18861:1 18869:1 18874:1 18887:1 18897:1  |EV| 
-0.10000000000000001 2511:1 9728:1 15539:1 15564:1 15580:1 15593:1 15653:1 15750:1 15874:1 16194:1 17031:1 17064:1 17148:1 18292:1 18303:1 18362:1 18425:1 18544:1 18659:1 18853:1 18861:1 18869:1 18874:1 18887:1 18897:1  |EV| 
-0.036617931393536821 3388:1 8395:1 13952:1 15563:1 15571:1 15577:1 15582:1 15657:1 15705:1 16732:1 17100:1 17148:1 18292:1 18303:1 18315:1 18425:1 18552:1 18655:1 18853:1 18863:1 18869:1 18874:1 18892:1 18897:1  |EV| 
-0.10000000000000001 729:1 5398:1 10632:1 15563:1 15566:1 15571:1 15605:1 15645:1 15646:1 15855:1 15952:1 15967:1 15987:1 17050:1 17148:1 18292:1 18303:1 18362:1 18436:1 18556:1 18659:1 18853:1 18861:1 18869:1 18874:1 18887:1 18897:1  |EV| 
-0.10000000000000001 137:1 4749:1 10961:1 15563:1 15577:1 16141:1 16142:1 17056:1 17148:1 18293:1 18303:1 18307:1 18425:1 18543:1 18656:1 18853:1 18865:1 18869:1 18874:1 18887:1 18897:1  |EV| 
-0.0064123900264925126 2044:1 6836:1 12169:1 15563:1 15577:1 16436:1 17045:1 17148:1 17451:1 18295:1 18302:1 18317:1 18426:1 18538:1 18658:1 18853:1 18861:1 18869:1 18874:1 18887:1 18897:1  |EV| 
-0.068454389338817465 1493:1 6258:1 11553:1 15563:1 15751:1 15954:1 15955:1 15973:1 16313:1 17056:1 17148:1 17451:1 18295:1 18302:1 18321:1 18432:1 18562:1 18658:1 18853:1 18861:1 18869:1 18874:1 18887:1 18897:1  |EV| 
-0.020643869847569937 3994:1 9100:1 14932:1 15593:1 15892:1 16067:1 17129:1 17148:1 18292:1 18303:1 18304:1 18425:1 18545:1 18655:1 18853:1 18861:1 18869:1 18874:1 18897:1  |EV| 
-0.029040310697271497 3690:1 8835:1 14611:1 15563:1 15799:1 15966:1 16815:1 16816:1 17064:1 17148:1 17451:1 18295:1 18302:1 18317:1 18432:1 18548:1 18658:1 18853:1 18861:1 18869:1 18874:1 18887:1 18897:1  |EV| 
0.080187247582456475 3421:1 8436:1 14008:1 15563:1 15577:1 15582:1 15620:1 15735:1 16734:1 16775:1 17061:1 17148:1 17452:1 18292:1 18303:1 18315:1 18436:1 18564:1 18659:1 18853:1 18865:1 18869:1 18874:1 18887:1 18889:1 18890:1 18897:1  |EV| 
0.030075919536409531 320:1 4942:1 10095:1 15582:1 15593:1 15620:1 15653:1 15803:1 15804:1 15805:1 15806:1 17044:1 17148:1 18292:1 18303:1 18316:1 18425:1 18564:1 18659:1 18853:1 18865:1 18869:1 18874:1 18887:1 18897:1  |EV| 
0.089177537272120133 4447:1 9581:1 15413:1 15580:1 15593:1 15594:1 15658:1 15693:1 16004:1 16071:1 16473:1 17105:1 17148:1 18292:1 18303:1 18316:1 18436:1 18544:1 18659:1 18853:1 18861:1 18869:1 18874:1 18887:1 18897:1  |EV| 
0.10000000000000001 1168:1 8870:1 14645:1 15563:1 15626:1 15678:1 15746:1 15852:1 15896:1 16080:1 16176:1 16826:1 16827:1 17044:1 17148:1 17534:1 18292:1 18303:1 18315:1 18442:1 18556:1 18659:1 18853:1 18861:1 18869:1 18874:1 18887:1 18897:1  |EV| 
-0.10000000000000001 1426:1 6153:1 11454:1 15593:1 15635:1 15792:1 16025:1 16152:1 16183:1 16293:1 16294:1 17060:1 17148:1 18292:1 18303:1 18316:1 18425:1 18564:1 18659:1 18853:1 18861:1 18869:1 18874:1 18887:1 18897:1  |EV| 
-0.10000000000000001 3440:1 8457:1 14033:1 15593:1 15620:1 15680:1 15742:1 15835:1 15890:1 16282:1 16734:1 17071:1 17148:1 18292:1 18303:1 18314:1 18422:1 18564:1 18659:1 18853:1 18861:1 18869:1 18874:1 18887:1 18897:1  |EV| 
-0.10000000000000001 765:1 5436:1 10670:1 15571:1 15580:1 15597:1 15636:1 15816:1 15971:1 15972:1 15978:1 17060:1 17148:1 18292:1 18303:1 18327:1 18423:1 18564:1 18659:1 18853:1 18861:1 18869:1 18874:1 18887:1 18897:1  |EV| 
0.10000000000000001 1493:1 6229:1 11521:1 15563:1 15571:1 15751:1 15954:1 15955:1 15973:1 16312:1 17056:1 17148:1 18293:1 18303:1 18318:1 18422:1 18562:1 18656:1 18853:1 18861:1 18869:1 18874:1 18887:1 18897:1  |EV| 
0.10000000000000001 696:1 5364:1 10598:1 15563:1 15611:1 15690:1 15751:1 15829:1 15954:1 15955:1 15973:1 17054:1 17148:1 17451:1 18292:1 18303:1 18317:1 18447:1 18544:1 18668:1 18853:1 18861:1 18869:1 18874:1 18887:1 18897:1  |EV| 
-0.059871834519144254 1114:1 5811:1 11050:1 15563:1 15577:1 15663:1 16127:1 17064:1 17069:1 17088:1 17148:1 17596:1 18282:1 18293:1 18303:1 18318:1 18425:1 18562:1 18656:1 18853:1 18861:1 18869:1 18874:1 18887:1 18889:1 18897:1  |EV| 
0.10000000000000001 261:1 5349:1 10580:1 15571:1 15580:1 15636:1 15816:1 15970:1 15971:1 15972:1 15978:1 17060:1 17148:1 18292:1 18303:1 18328:1 18442:1 18564:1 18659:1 18853:1 18861:1 18869:1 18874:1 18887:1 18897:1  |EV| 
0.10000000000000001 150:1 4763:1 9915:1 15566:1 15571:1 15651:1 15661:1 15662:1 15677:1 15678:1 15679:1 17056:1 17148:1 18292:1 18303:1 18316:1 18425:1 18564:1 18659:1 18853:1 18861:1 18869:1 18874:1 18887:1 18897:1  |EV| 
0.10000000000000001 1103:1 7400:1 12806:1 15563:1 15577:1 15602:1 15635:1 15833:1 16599:1 16600:1 16605:1 17060:1 17148:1 18292:1 18303:1 18316:1 18425:1 18564:1 18659:1 18853:1 18861:1 18869:1 18874:1 18887:1 18897:1  |EV| 
0.10000000000000001 1927:1 6711:1 12048:1 15580:1 15585:1 15587:1 16004:1 16277:1 16415:1 16416:1 16417:1 17054:1 17148:1 17451:1 18292:1 18303:1 18317:1 18435:1 18564:1 18659:1 18853:1 18861:1 18869:1 18874:1 18887:1 18897:1  |EV| 
-0.10000000000000001 228:1 4849:1 9997:1 15571:1 15582:1 15607:1 15739:1 15759:1 15760:1 15761:1 15762:1 15763:1 17054:1 17148:1 17451:1 18266:1 18292:1 18303:1 18309:1 18423:1 18546:1 18659:1 18853:1 18861:1 18869:1 18874:1 18887:1 18897:1  |EV| 
-0.087819688892679257 4154:1 9265:1 15076:1 15563:1 15571:1 15580:1 15589:1 15651:1 15784:1 15819:1 15967:1 16902:1 16904:1 17089:1 17148:1 18292:1 18303:1 18316:1 18422:1 18556:1 18659:1 18853:1 18861:1 18869:1 18874:1 18887:1 18897:1  |EV| 
-0.083284734794463369 1351:1 6076:1 11357:1 15563:1 15589:1 15666:1 15784:1 15811:1 15845:1 15879:1 16197:1 16198:1 17077:1 17148:1 18292:1 18303:1 18315:1 18422:1 18544:1 18659:1 18853:1 18861:1 18869:1 18874:1 18887:1 18897:1  |EV| 
-0.10000000000000001 1857:1 6640:1 12003:1 15577:1 15602:1 15658:1 15920:1 15959:1 16395:1 16396:1 16397:1 17042:1 17148:1 17662:1 18292:1 18303:1 18321:1 18430:1 18564:1 18659:1 18853:1 18861:1 18869:1 18874:1 18887:1 18897:1  |EV| 
0.10000000000000001 348:1 6744:1 9827:1 15563:1 17068:1 17148:1 18293:1 18303:1 18305:1 18425:1 18555:1 18656:1 18853:1 18861:1 18869:1 18874:1 18887:1 18897:1  |EV| 
0.10000000000000001 3274:1 8257:1 9827:1 15563:1 17068:1 17148:1 18293:1 18303:1 18305:1 18425:1 18555:1 18656:1 18853:1 18861:1 18869:1 18874:1 18887:1 18897:1  |EV| 
0.10000000000000001 3607:1 8704:1 14469:1 16460:1 16785:1 16792:1 17042:1 17148:1 18293:1 18303:1 18311:1 18425:1 18538:1 18656:1 18853:1 18861:1 18869:1 18874:1 18887:1 18897:1  |EV| 
0.10000000000000001 2785:1 8410:1 13976:1 15566:1 15587:1 15719:1 16741:1 17100:1 17148:1 18293:1 18303:1 18307:1 18425:1 18543:1 18656:1 18853:1 18861:1 18869:1 18874:1 18879:1 18887:1 18897:1  |EV| 
0.10000000000000001 3456:1 8475:1 14229:1 15577:1 15580:1 15719:1 16767:1 17090:1 17148:1 18293:1 18303:1 18307:1 18425:1 18543:1 18656:1 18853:1 18861:1 18869:1 18874:1 18887:1 18897:1  |EV| 
-0.10000000000000001 590:1 6181:1 14365:1 16460:1 16785:1 17042:1 17148:1 17463:1 18296:1 18303:1 18308:1 18444:1 18538:1 18691:1 18853:1 18861:1 18869:1 18874:1 18887:1 18897:1  |EV| 
0.08002510916484433 279:1 4901:1 10053:1 15563:1 15571:1 15626:1 15771:1 15772:1 15773:1 15774:1 17055:1 17148:1 18292:1 18303:1 18314:1 18422:1 18564:1 18659:1 18853:1 18861:1 18869:1 18874:1 18887:1 18897:1  |EV| 
0.10000000000000001 1908:1 6692:1 12030:1 15577:1 15602:1 15658:1 15920:1 15959:1 16394:1 16396:1 16397:1 17042:1 17148:1 18292:1 18303:1 18309:1 18428:1 18564:1 18659:1 18853:1 18861:1 18869:1 18874:1 18887:1 18897:1  |EV| 
0.099562391826494637 868:1 5547:1 10783:1 15563:1 15575:1 15577:1 15593:1 15602:1 15955:1 15973:1 16067:1 16068:1 16072:1 17062:1 17148:1 18292:1 18303:1 18316:1 18422:1 18556:1 18659:1 18853:1 18861:1 18869:1 18874:1 18887:1 18897:1  |EV| 
0.092302753289132955 830:1 5507:1 10748:1 15571:1 15577:1 15580:1 15588:1 15657:1 15663:1 15893:1 16056:1 16059:1 17056:1 17148:1 18292:1 18303:1 18327:1 18430:1 18544:1 18659:1 18853:1 18861:1 18869:1 18874:1 18887:1 18897:1  |EV| 
-0.10000000000000001 2630:1 7512:1 12905:1 15563:1 15769:1 15916:1 17068:1 17148:1 17451:1 18292:1 18303:1 18317:1 18442:1 18545:1 18655:1 18853:1 18861:1 18869:1 18874:1 18887:1 18897:1  |EV| 
-0.014352934259596391 4546:1 9685:1 15486:1 15563:1 15590:1 15620:1 15678:1 16225:1 16337:1 17010:1 17059:1 17148:1 18293:1 18303:1 18330:1 18425:1 18550:1 18669:1 18853:1 18861:1 18869:1 18874:1 18887:1 18897:1  |EV| 
-0.071291018323774907 4549:1 9688:1 15489:1 15563:1 15571:1 15580:1 15590:1 15620:1 15658:1 15674:1 15678:1 15844:1 15944:1 16225:1 16337:1 16695:1 17010:1 17144:1 17148:1 18292:1 18303:1 18361:1 18425:1 18572:1 18667:1 18853:1 18861:1 18869:1 18874:1 18887:1 18897:1  |EV| 
0.10000000000000001 468:1 5102:1 10425:1 15563:1 15825:1 17067:1 17148:1 18296:1 18303:1 18305:1 18434:1 18538:1 18691:1 18853:1 18861:1 18869:1 18874:1 18887:1 18897:1  |EV| 
0.079708679574676741 4268:1 9393:1 15197:1 16345:1 17056:1 17124:1 17148:1 18282:1 18300:1 18303:1 18375:1 18436:1 18553:1 18662:1 18853:1 18860:1 18869:1 18874:1 18876:1 18885:1 18887:1 18897:1  |EV| 
-0.048822083999688182 2569:1 7444:1 12839:1 15577:1 15580:1 15593:1 16261:1 16346:1 16634:1 16635:1 17045:1 17148:1 18297:1 18303:1 18316:1 18421:1 18545:1 18692:1 18853:1 18861:1 18869:1 18874:1 18887:1 18897:1  |EV| 
-0.036155289101503028 2025:1 6817:1 12151:1 15563:1 15577:1 15879:1 16027:1 16436:1 17064:1 17148:1 18294:1 18303:1 18311:1 18423:1 18553:1 18662:1 18853:1 18861:1 18869:1 18874:1 18887:1 18897:1  |EV| 
-0.019548545631928236 4129:1 9237:1 15046:1 15571:1 16878:1 16879:1 16899:1 17137:1 17148:1 18274:1 18276:1 18297:1 18303:1 18328:1 18421:1 18553:1 18692:1 18853:1 18865:1 18869:1 18874:1 18887:1 18897:1  |EV| 
0.059440287593607206 3661:1 8729:1 14509:1 15563:1 15571:1 15577:1 15593:1 15650:1 15810:1 15839:1 15967:1 16250:1 16511:1 16800:1 16801:1 17053:1 17148:1 18292:1 18303:1 18353:1 18425:1 18558:1 18667:1 18853:1 18861:1 18869:1 18874:1 18887:1 18897:1  |EV| 
0.10000000000000001 1102:1 5798:1 11032:1 15593:1 15626:1 16135:1 17054:1 17148:1 17451:1 18292:1 18303:1 18317:1 18442:1 18545:1 18655:1 18853:1 18861:1 18869:1 18874:1 18887:1 18897:1  |EV| 
0.10000000000000001 1326:1 6051:1 11330:1 15571:1 15589:1 17066:1 17148:1 17451:1 18292:1 18303:1 18327:1 18425:1 18559:1 18655:1 18853:1 18861:1 18869:1 18874:1 18887:1 18897:1  |EV| 
0.027984344988752102 2006:1 6796:1 12131:1 15563:1 15564:1 15577:1 16442:1 16443:1 17050:1 17148:1 17451:1 17494:1 18274:1 18292:1 18303:1 18314:1 18425:1 18547:1 18655:1 18853:1 18861:1 18869:1 18874:1 18887:1 18897:1  |EV| 
0.089666570775389642 558:1 5207:1 10405:1 15820:1 17068:1 17148:1 18292:1 18303:1 18321:1 18425:1 18539:1 18655:1 18853:1 18861:1 18869:1 18874:1 18887:1 18897:1  |EV| 
-0.10000000000000001 145:1 6584:1 9803:1 17044:1 17148:1 17481:1 18292:1 18303:1 18317:1 18425:1 18553:1 18655:1 18853:1 18861:1 18869:1 18874:1 18897:1  |EV| 
0.042844838975161385 675:1 7407:1 12809:1 15563:1 15807:1 15808:1 17064:1 17148:1 18293:1 18303:1 18311:1 18425:1 18538:1 18656:1 18853:1 18861:1 18869:1 18874:1 18887:1 18897:1  |EV| 
0.014168816420698237 4134:1 9242:1 9803:1 17137:1 17148:1 17451:1 17700:1 17853:1 18274:1 18276:1 18292:1 18303:1 18317:1 18425:1 18553:1 18655:1 18853:1 18865:1 18869:1 18874:1 18887:1 18897:1  |EV| 
0.050915276738686344 3414:1 8428:1 9803:1 17098:1 17148:1 17798:1 18292:1 18303:1 18317:1 18425:1 18553:1 18655:1 18853:1 18861:1 18869:1 18874:1 18887:1 18897:1  |EV| 
0.076122116398374476 1413:1 6140:1 9803:1 17098:1 17148:1 17451:1 18292:1 18303:1 18317:1 18425:1 18553:1 18655:1 18853:1 18861:1 18869:1 18874:1 18878:1 18879:1 18887:1 18897:1  |EV| 
0.044186421536949141 1419:1 6146:1 9803:1 17060:1 17148:1 17170:1 17475:1 17906:1 18113:1 18292:1 18303:1 18317:1 18425:1 18553:1 18655:1 18853:1 18865:1 18869:1 18874:1 18887:1 18892:1 18897:1  |EV| 
0.021512381469774099 259:1 4881:1 9803:1 17050:1 17148:1 17481:1 18292:1 18303:1 18317:1 18425:1 18553:1 18655:1 18853:1 18863:1 18869:1 18874:1 18887:1 18897:1  |EV| 
-0.078505086834925006 2460:1 7314:1 9803:1 17056:1 17148:1 17540:1 18292:1 18303:1 18317:1 18425:1 18553:1 18655:1 18853:1 18865:1 18869:1 18874:1 18890:1 18897:1  |EV| 
-0.073196631056332284 1860:1 6643:1 11973:1 16398:1 17042:1 17148:1 17663:1 18292:1 18303:1 18321:1 18425:1 18539:1 18655:1 18853:1 18861:1 18869:1 18874:1 18897:1  |EV| 
-0.10000000000000001 2189:1 6994:1 12352:1 15563:1 15565:1 15577:1 15653:1 16127:1 16491:1 17049:1 17148:1 17693:1 18292:1 18303:1 18314:1 18425:1 18547:1 18655:1 18853:1 18865:1 18869:1 18874:1 18878:1 18887:1 18897:1  |EV| 
0.10000000000000001 2178:1 6981:1 12339:1 15653:1 17049:1 17148:1 17465:1 18292:1 18303:1 18321:1 18425:1 18539:1 18655:1 18853:1 18863:1 18869:1 18874:1 18878:1 18887:1 18897:1  |EV| 
0.035828926904266097 315:1 4937:1 10090:1 15563:1 15653:1 15658:1 15783:1 15784:1 15798:1 15799:1 15800:1 15801:1 15802:1 17054:1 17148:1 18276:1 18292:1 18303:1 18315:1 18442:1 18556:1 18659:1 18853:1 18865:1 18869:1 18874:1 18887:1 18897:1  |EV| 
-0.030057474638661919 4260:1 9383:1 15189:1 15571:1 15777:1 16650:1 16945:1 16946:1 16947:1 17054:1 17148:1 18297:1 18303:1 18315:1 18445:1 18553:1 18692:1 18853:1 18861:1 18869:1 18874:1 18887:1 18897:1  |EV| 
-0.019612645638445492 2530:1 7401:1 12801:1 15580:1 16606:1 17064:1 17148:1 18274:1 18276:1 18297:1 18303:1 18304:1 18438:1 18553:1 18692:1 18853:1 18861:1 18869:1 18874:1 18887:1 18897:1  |EV| 
0.025212123444074388 2374:1 7206:1 12598:1 15571:1 15577:1 15580:1 15613:1 15626:1 15690:1 15696:1 15774:1 15792:1 15810:1 16127:1 16334:1 16344:1 16533:1 16534:1 16540:1 17049:1 17148:1 18292:1 18303:1 18364:1 18422:1 18585:1 18689:1 18853:1 18861:1 18869:1 18874:1 18887:1 18897:1  |EV| 
-0.10000000000000001 1317:1 6001:1 11315:1 15563:1 15571:1 15635:1 15651:1 15729:1 15730:1 16176:1 16243:1 16249:1 17091:1 17148:1 18292:1 18303:1 18362:1 18425:1 18544:1 18659:1 18853:1 18861:1 18869:1 18874:1 18887:1 18897:1  |EV| 
0.093424994082037152 3622:1 8680:1 14425:1 15580:1 15777:1 16789:1 16790:1 17049:1 17148:1 18293:1 18303:1 18307:1 18425:1 18543:1 18656:1 18853:1 18861:1 18869:1 18874:1 18887:1 18897:1  |EV| 
0.089833891878721706 2477:1 7334:1 12733:1 15580:1 15593:1 15893:1 16027:1 16276:1 16575:1 16576:1 16577:1 16582:1 17115:1 17148:1 18292:1 18303:1 18304:1 18423:1 18544:1 18659:1 18853:1 18861:1 18869:1 18874:1 18887:1 18897:1  |EV| 
0.10000000000000001 4308:1 9433:1 15229:1 15571:1 15580:1 15784:1 16009:1 16967:1 17090:1 17148:1 17451:1 18292:1 18303:1 18317:1 18424:1 18540:1 18655:1 18853:1 18861:1 18869:1 18874:1 18887:1 18897:1  |EV| 
0.026110615581942248 2270:1 7083:1 12441:1 15580:1 15651:1 16475:1 17064:1 17148:1 18292:1 18303:1 18304:1 18425:1 18545:1 18655:1 18853:1 18861:1 18869:1 18874:1 18887:1 18897:1  |EV| 
-0.10000000000000001 2263:1 7076:1 12431:1 15571:1 15580:1 15589:1 15651:1 16475:1 17064:1 17148:1 18292:1 18303:1 18328:1 18425:1 18540:1 18655:1 18853:1 18861:1 18869:1 18874:1 18887:1 18897:1  |EV| 
-0.050303279884909742 3456:1 8475:1 14208:1 15577:1 15580:1 15685:1 15686:1 15719:1 15816:1 16153:1 16767:1 17090:1 17148:1 18294:1 18303:1 18307:1 18427:1 18545:1 18657:1 18853:1 18861:1 18869:1 18874:1 18887:1 18897:1  |EV| 
-0.090045733669914377 2697:1 7590:1 13211:1 15580:1 15626:1 16293:1 16602:1 16662:1 16663:1 17042:1 17148:1 18292:1 18303:1 18327:1 18424:1 18552:1 18655:1 18853:1 18861:1 18869:1 18874:1 18878:1 18887:1 18897:1  |EV| 
-0.05720543809335036 2771:1 7674:1 13135:1 15563:1 15580:1 15622:1 15811:1 15893:1 16602:1 17042:1 17148:1 17451:1 18292:1 18303:1 18321:1 18424:1 18547:1 18655:1 18853:1 18861:1 18869:1 18874:1 18887:1 18897:1  |EV| 
0.10000000000000001 1646:1 7246:1 12666:1 15563:1 15577:1 15597:1 15835:1 16034:1 16557:1 16558:1 16559:1 16560:1 17054:1 17148:1 18292:1 18303:1 18320:1 18425:1 18556:1 18667:1 18853:1 18861:1 18869:1 18874:1 18887:1 18897:1  |EV| 
0.10000000000000001 2887:1 8147:1 13674:1 15563:1 15571:1 15582:1 15588:1 15593:1 15636:1 15880:1 16080:1 16193:1 16552:1 16689:1 16690:1 16718:1 17044:1 17148:1 18292:1 18303:1 18326:1 18436:1 18558:1 18667:1 18853:1 18861:1 18869:1 18874:1 18887:1 18897:1  |EV| 
0.10000000000000001 696:1 8732:1 14512:1 15563:1 15577:1 15582:1 15635:1 15723:1 15855:1 16034:1 16314:1 16802:1 16804:1 17054:1 17148:1 18292:1 18303:1 18315:1 18442:1 18556:1 18659:1 18853:1 18861:1 18869:1 18874:1 18887:1 18897:1  |EV| 
-0.023143230549325187 837:1 8170:1 13695:1 15563:1 15571:1 15577:1 15582:1 15689:1 15880:1 15897:1 16100:1 16460:1 16575:1 16678:1 16679:1 16680:1 16681:1 16682:1 17054:1 17148:1 17499:1 18293:1 18303:1 18342:1 18425:1 18594:1 18675:1 18853:1 18861:1 18869:1 18874:1 18887:1 18897:1  |EV| 
-0.090893376809568105 163:1 4777:1 9931:1 15577:1 15664:1 15665:1 15666:1 15667:1 17054:1 17148:1 18293:1 18303:1 18306:1 18425:1 18562:1 18656:1 18853:1 18861:1 18869:1 18874:1 18887:1 18897:1  |EV| 
-0.0037070745977975782 1189:1 8631:1 14354:1 15563:1 15566:1 15577:1 15580:1 15582:1 15612:1 15630:1 15906:1 16183:1 16282:1 16781:1 16784:1 16791:1 17056:1 17148:1 17483:1 18293:1 18303:1 18339:1 18436:1 18587:1 18663:1 18853:1 18861:1 18869:1 18874:1 18887:1 18897:1  |EV| 
-0.038333218734754801 2477:1 7676:1 13142:1 15563:1 15577:1 15580:1 15593:1 15683:1 15719:1 15884:1 15893:1 16040:1 16176:1 16266:1 16566:1 16664:1 16670:1 16671:1 17115:1 17148:1 18292:1 18303:1 18326:1 18442:1 18572:1 18667:1 18853:1 18861:1 18869:1 18874:1 18887:1 18897:1  |EV| 
-0.061166002091767466 2984:1 7905:1 14666:1 15563:1 15626:1 15678:1 15746:1 15896:1 16080:1 16176:1 16762:1 16826:1 16827:1 17044:1 17148:1 18292:1 18303:1 18327:1 18435:1 18556:1 18659:1 18853:1 18861:1 18869:1 18874:1 18887:1 18897:1  |EV| 
-0.014011692987099944 1537:1 6475:1 11820:1 15563:1 15571:1 15595:1 15690:1 15751:1 15954:1 15955:1 15973:1 16312:1 16333:1 17054:1 17148:1 18296:1 18303:1 18318:1 18426:1 18587:1 18661:1 18853:1 18861:1 18869:1 18874:1 18887:1 18897:1  |EV| 
-0.00066440743696883058 1164:1 5880:1 11119:1 15563:1 15577:1 15719:1 15843:1 16127:1 16138:1 16139:1 17087:1 17148:1 17451:1 18292:1 18303:1 18317:1 18430:1 18552:1 18655:1 18853:1 18861:1 18869:1 18874:1 18887:1 18897:1  |EV| 
0.048277109307715949 2634:1 7518:1 12911:1 15564:1 15566:1 15580:1 15593:1 16636:1 16651:1 17105:1 17148:1 18292:1 18303:1 18328:1 18436:1 18547:1 18655:1 18853:1 18861:1 18869:1 18874:1 18887:1 18897:1  |EV| 
0.04978593755272763 1324:1 6049:1 11326:1 15651:1 15729:1 15730:1 17060:1 17148:1 17614:1 18292:1 18303:1 18304:1 18425:1 18545:1 18655:1 18853:1 18861:1 18869:1 18874:1 18887:1 18897:1  |EV| 
-0.029691964790085183 3607:1 8704:1 14465:1 15566:1 15577:1 15580:1 15582:1 15612:1 15690:1 15906:1 16183:1 16460:1 16781:1 16784:1 16785:1 16792:1 17042:1 17148:1 18294:1 18303:1 18311:1 18456:1 18544:1 18660:1 18853:1 18861:1 18869:1 18874:1 18887:1 18897:1  |EV| 
0.10000000000000001 1343:1 6068:1 11349:1 15563:1 15571:1 15577:1 16153:1 16210:1 16221:1 17046:1 17148:1 18293:1 18303:1 18313:1 18436:1 18562:1 18656:1 18853:1 18861:1 18869:1 18874:1 18887:1 18897:1  |EV| 
0.079841575116508412 145:1 4823:1 9973:1 15563:1 15655:1 15679:1 17044:1 17148:1 18293:1 18303:1 18311:1 18436:1 18561:1 18656:1 18853:1 18861:1 18869:1 18874:1 18887:1 18897:1  |EV| 
0.034605399475237053 4317:1 9442:1 15238:1 15620:1 15729:1 15730:1 17050:1 17148:1 18292:1 18303:1 18304:1 18425:1 18545:1 18655:1 18853:1 18863:1 18869:1 18874:1 18887:1 18889:1 18897:1  |EV| 
0.054158948981926879 17:1 6713:1 15409:1 15577:1 15703:1 15739:1 16004:1 16027:1 16153:1 16635:1 16998:1 17042:1 17148:1 17451:1 18292:1 18303:1 18321:1 18430:1 18564:1 18659:1 18853:1 18861:1 18869:1 18874:1 18887:1 18897:1  |EV| 
-0.016889075301215483 2341:1 7166:1 10459:1 15571:1 17045:1 17148:1 18292:1 18303:1 18321:1 18425:1 18539:1 18655:1 18853:1 18865:1 18869:1 18874:1 18893:1 18897:1  |EV| 
-0.040973567622072854 4243:1 9365:1 15173:1 15571:1 15587:1 16944:1 17044:1 17148:1 17858:1 17859:1 18274:1 18292:1 18303:1 18304:1 18425:1 18545:1 18655:1 18853:1 18861:1 18869:1 18874:1 18897:1  |EV| 
-0.095367481258900669 580:1 8310:1 13910:1 15563:1 15571:1 15577:1 15580:1 15582:1 15657:1 15716:1 15719:1 15769:1 16025:1 16732:1 16741:1 16742:1 17042:1 17148:1 18292:1 18303:1 18314:1 18430:1 18558:1 18659:1 18853:1 18861:1 18869:1 18874:1 18887:1 18897:1  |EV| 
-0.10000000000000001 3131:1 8082:1 13602:1 15563:1 15580:1 15593:1 15666:1 15750:1 15843:1 16375:1 16618:1 17053:1 17148:1 18292:1 18303:1 18316:1 18425:1 18564:1 18659:1 18853:1 18861:1 18869:1 18874:1 18887:1 18897:1  |EV| 
-0.084090205191174341 3611:1 8706:1 14467:1 15580:1 16460:1 16785:1 16792:1 17056:1 17148:1 18294:1 18303:1 18311:1 18424:1 18542:1 18662:1 18853:1 18861:1 18869:1 18874:1 18887:1 18897:1  |EV| 
-0.015299729563034702 2878:1 7789:1 13292:1 15577:1 15585:1 15690:1 16293:1 17044:1 17148:1 18292:1 18303:1 18309:1 18425:1 18541:1 18655:1 18853:1 18863:1 18869:1 18874:1 18879:1 18888:1 18889:1 18897:1  |EV| 
-0.020686334286629252 1656:1 6405:1 11708:1 15564:1 15577:1 15658:1 15893:1 16349:1 17054:1 17148:1 18292:1 18303:1 18328:1 18425:1 18540:1 18655:1 18853:1 18861:1 18869:1 18874:1 18897:1  |EV| 
-0.045722846183508435 25:1 6776:1 14927:1 15593:1 15892:1 16067:1 16852:1 17046:1 17148:1 18292:1 18303:1 18304:1 18436:1 18541:1 18655:1 18853:1 18861:1 18869:1 18874:1 18897:1  |EV| 
0.074385938101156457 2285:1 7101:1 12468:1 15571:1 15577:1 15593:1 15602:1 15673:1 15686:1 15696:1 15745:1 16287:1 17045:1 17148:1 18292:1 18303:1 18362:1 18425:1 18544:1 18659:1 18853:1 18861:1 18869:1 18874:1 18887:1 18897:1  |EV| 
0.049961347637811342 2942:1 7859:1 13362:1 15563:1 15843:1 17053:1 17148:1 17351:1 17449:1 17994:1 18192:1 18292:1 18303:1 18327:1 18425:1 18559:1 18655:1 18853:1 18861:1 18869:1 18874:1 18887:1 18894:1 18897:1  |EV| 
-0.10000000000000001 3425:1 8440:1 14012:1 16765:1 17044:1 17148:1 17594:1 18293:1 18303:1 18305:1 18425:1 18555:1 18656:1 18853:1 18861:1 18869:1 18874:1 18887:1 18897:1  |EV| 
-0.063956719621108216 1774:1 6554:1 12677:1 15563:1 15577:1 15835:1 15974:1 16034:1 16557:1 16558:1 16559:1 16560:1 17054:1 17148:1 17451:1 18292:1 18303:1 18317:1 18427:1 18556:1 18668:1 18853:1 18861:1 18869:1 18874:1 18887:1 18897:1  |EV| 
-0.10000000000000001 3430:1 8458:1 14035:1 15647:1 16171:1 17069:1 17071:1 17125:1 17126:1 17127:1 17148:1 17397:1 17469:1 18006:1 18212:1 18281:1 18293:1 18303:1 18313:1 18425:1 18561:1 18656:1 18853:1 18861:1 18869:1 18874:1 18887:1 18897:1  |EV| 
-0.048458814427663907 2092:1 6890:1 12678:1 15563:1 15571:1 15577:1 15663:1 15825:1 15835:1 15974:1 16034:1 16038:1 16045:1 16554:1 16555:1 16557:1 16558:1 16559:1 16560:1 17046:1 17148:1 17451:1 18292:1 18303:1 18317:1 18467:1 18577:1 18668:1 18853:1 18861:1 18869:1 18874:1 18887:1 18897:1  |EV| 
-0.10000000000000001 2883:1 7794:1 13297:1 15571:1 15577:1 15690:1 15852:1 16176:1 16266:1 16345:1 16428:1 17056:1 17148:1 17451:1 18292:1 18303:1 18317:1 18435:1 18564:1 18659:1 18853:1 18861:1 18869:1 18874:1 18887:1 18897:1  |EV| 
0.10000000000000001 196:1 7172:1 12545:1 15563:1 15571:1 15577:1 15580:1 15585:1 15587:1 15593:1 15626:1 15651:1 15739:1 15814:1 15880:1 15904:1 16027:1 16116:1 16233:1 16266:1 16475:1 16495:1 16496:1 16497:1 16498:1 16499:1 16500:1 16529:1 17042:1 17148:1 18292:1 18303:1 18332:1 18424:1 18597:1 18699:1 18853:1 18861:1 18869:1 18874:1 18887:1 18897:1  |EV| 
0.097452817591570387 3972:1 9074:1 14879:1 15563:1 15575:1 15577:1 15582:1 15593:1 15619:1 15626:1 15739:1 15742:1 15855:1 15879:1 15895:1 16067:1 16369:1 16842:1 16843:1 16844:1 16845:1 17056:1 17148:1 18292:1 18303:1 18360:1 18425:1 18576:1 18701:1 18853:1 18861:1 18869:1 18874:1 18887:1 18897:1  |EV| 
0.10000000000000001 1906:1 6690:1 12023:1 15577:1 15580:1 15674:1 15716:1 15810:1 16398:1 17042:1 17148:1 17451:1 18292:1 18303:1 18314:1 18425:1 18547:1 18655:1 18853:1 18865:1 18869:1 18874:1 18887:1 18889:1 18897:1  |EV| 
-0.073340950763310792 3929:1 9029:1 14833:1 15563:1 15578:1 15580:1 15585:1 15587:1 15593:1 15611:1 15697:1 15716:1 15751:1 15825:1 15829:1 15841:1 15852:1 16067:1 16160:1 16199:1 16460:1 16853:1 16854:1 16855:1 16856:1 16857:1 17042:1 17148:1 17451:1 18292:1 18303:1 18317:1 18472:1 18593:1 18756:1 18853:1 18861:1 18869:1 18874:1 18887:1 18897:1  |EV| 
-0.041212613905340117 3956:1 9057:1 14862:1 15563:1 15578:1 15580:1 15585:1 15587:1 15593:1 15611:1 15697:1 15713:1 15716:1 15751:1 15825:1 15829:1 15841:1 15852:1 16067:1 16160:1 16199:1 16460:1 16854:1 16855:1 16856:1 16857:1 17042:1 17148:1 18292:1 18303:1 18309:1 18462:1 18593:1 18756:1 18853:1 18861:1 18869:1 18874:1 18887:1 18897:1  |EV| 
