SVM-light Version V5.01-TK-1.2
0 # kernel type
3 # kernel parameter -d 
1 # kernel parameter -g 
1 # kernel parameter -s 
1 # kernel parameter -r 
empty# kernel parameter -u 
0.4 # kernel parameter -L 
1 # kernel parameter -T 
T # kernel parameter -C 
1 # kernel parameter -F 
0 # kernel parameter -S 
1.000000 # kernel parameter -D 
3 # kernel parameter -N 
S # kernel parameter -V 
S # kernel parameter -W 
61821 # highest feature index 
20965 # number of training documents 
558 # number of support vectors plus 1 
2.4149417 # threshold b, each following line is a SV (starting with alpha*y)
-0.01 3972:1 19662:1 37927:1 53431:1 53433:1 53438:1 53442:1 53457:1 53459:1 53469:1 53474:1 53506:1 53575:1 53649:1 53785:1 54239:1 54240:1 54241:1 54242:1 54243:1 54244:1 54245:1 55607:1 56270:1 57878:1 61045:1 61053:1 61059:1 61240:1 61397:1 61524:1 61775:1 61783:1 61790:1 61794:1 61806:1 61821:1  |EV| 
-0.01 4309:1 20056:1 38381:1 53431:1 53438:1 53442:1 53459:1 53469:1 53506:1 53649:1 54241:1 54242:1 54243:1 54244:1 54245:1 55607:1 56270:1 57878:1 61045:1 61053:1 61069:1 61252:1 61362:1 61520:1 61775:1 61785:1 61790:1 61794:1 61806:1 61821:1  |EV| 
-0.01 14103:1 31581:1 51825:1 53431:1 53433:1 53438:1 53442:1 53447:1 53451:1 53457:1 53466:1 53489:1 53551:1 53588:1 53594:1 53709:1 53764:1 53844:1 53877:1 55203:1 55204:1 55376:1 56270:1 57878:1 61045:1 61053:1 61077:1 61200:1 61384:1 61522:1 61775:1 61785:1 61790:1 61794:1 61806:1 61813:1 61818:1 61821:1  |EV| 
-0.01 6823:1 22856:1 41617:1 53670:1 53976:1 54350:1 55566:1 56270:1 57878:1 61045:1 61053:1 61069:1 61220:1 61358:1 61497:1 61775:1 61783:1 61789:1 61794:1 61806:1 61815:1  |EV| 
-0.01 811:1 16300:1 34285:1 53433:1 53438:1 53442:1 53447:1 53628:1 53692:1 53693:1 55438:1 56270:1 61044:1 61053:1 61080:1 61210:1 61358:1 61493:1 61775:1 61783:1 61790:1 61794:1 61806:1 61821:1  |EV| 
0.026164070833653245 686:1 16167:1 33874:1 53442:1 53628:1 55415:1 56270:1 57878:1 61045:1 61053:1 61069:1 61201:1 61364:1 61497:1 61775:1 61783:1 61790:1 61794:1 61806:1 61821:1  |EV| 
0.04836444019916223 919:1 16415:1 34151:1 53442:1 53628:1 53693:1 55438:1 56270:1 57878:1 61045:1 61053:1 61069:1 61220:1 61358:1 61497:1 61775:1 61783:1 61790:1 61794:1 61806:1 61821:1  |EV| 
0.073283542460617176 942:1 16440:1 34181:1 53433:1 53767:1 55348:1 56270:1 61046:1 61053:1 61076:1 61215:1 61347:1 61507:1 61775:1 61783:1 61790:1 61794:1 61806:1 61821:1  |EV| 
0.039889658907124342 970:1 16470:1 34216:1 53438:1 53442:1 53444:1 53512:1 53598:1 53625:1 53628:1 53685:1 53695:1 53749:1 53750:1 53778:1 55378:1 56270:1 61045:1 61053:1 61055:1 61201:1 61396:1 61517:1 61775:1 61783:1 61790:1 61794:1 61806:1 61821:1  |EV| 
0.0080140497697366517 998:1 16499:1 34253:1 53436:1 53466:1 53759:1 53771:1 53772:1 53773:1 55479:1 56270:1 56434:1 57884:1 58533:1 59239:1 61045:1 61053:1 61066:1 61220:1 61353:1 61497:1 61775:1 61784:1 61790:1 61794:1 61806:1 61821:1  |EV| 
-0.01 1150:1 16667:1 34474:1 53438:1 53442:1 53444:1 53512:1 53598:1 53625:1 53628:1 53685:1 53749:1 53750:1 53798:1 55378:1 56270:1 57878:1 61017:1 61045:1 61053:1 61086:1 61228:1 61396:1 61508:1 61775:1 61783:1 61790:1 61794:1 61806:1 61821:1  |EV| 
-0.01 5440:1 21305:1 39815:1 53628:1 55376:1 56270:1 57878:1 61045:1 61053:1 61069:1 61215:1 61345:1 61497:1 61775:1 61783:1 61790:1 61794:1 61806:1 61818:1 61819:1  |EV| 
-0.01 14328:1 31848:1 39815:1 53628:1 56200:1 56270:1 57878:1 61045:1 61053:1 61069:1 61215:1 61345:1 61497:1 61775:1 61783:1 61790:1 61794:1 61806:1 61818:1 61819:1  |EV| 
-0.01 9711:1 26279:1 33874:1 53442:1 53628:1 55663:1 56270:1 57878:1 61045:1 61053:1 61069:1 61201:1 61364:1 61497:1 61775:1 61783:1 61790:1 61794:1 61806:1 61818:1 61819:1  |EV| 
-0.01 586:1 16042:1 33728:1 53628:1 53629:1 55412:1 56270:1 57878:1 61045:1 61053:1 61069:1 61201:1 61364:1 61497:1 61775:1 61783:1 61790:1 61794:1 61806:1 61818:1 61819:1  |EV| 
0.069406748636556714 3561:1 19237:1 37452:1 53431:1 53433:1 53436:1 53438:1 53442:1 53444:1 53451:1 53487:1 53545:1 53636:1 53672:1 53695:1 53705:1 53724:1 53756:1 53860:1 54012:1 54169:1 54170:1 54171:1 54172:1 54173:1 54174:1 54175:1 54176:1 54177:1 54183:1 54202:1 55490:1 56270:1 61045:1 61053:1 61124:1 61232:1 61410:1 61592:1 61775:1 61783:1 61789:1 61793:1 61794:1 61806:1 61821:1  |EV| 
0.058659718545740626 13325:1 30737:1 50779:1 53431:1 53433:1 53438:1 53457:1 53489:1 53551:1 53599:1 53695:1 53702:1 53771:1 54080:1 55116:1 55117:1 55118:1 55403:1 56270:1 61044:1 61053:1 61083:1 61206:1 61391:1 61488:1 61775:1 61783:1 61791:1 61794:1 61806:1 61821:1  |EV| 
0.010117214906416538 1279:1 16799:1 34636:1 53431:1 53433:1 53438:1 53442:1 53767:1 53791:1 53792:1 53793:1 53794:1 53795:1 53796:1 55490:1 56270:1 61045:1 61053:1 61082:1 61223:1 61344:1 61508:1 61775:1 61783:1 61789:1 61794:1 61806:1 61821:1  |EV| 
0.074406967101220245 12063:1 29317:1 49241:1 53433:1 53442:1 53444:1 53466:1 53681:1 53722:1 54935:1 54995:1 55391:1 56270:1 57877:1 61045:1 61053:1 61077:1 61220:1 61352:1 61508:1 61775:1 61785:1 61789:1 61794:1 61803:1 61806:1 61808:1 61821:1  |EV| 
0.043960871395263515 1280:1 16800:1 34637:1 53431:1 53433:1 53438:1 53442:1 53767:1 53791:1 53792:1 53793:1 53794:1 53795:1 53796:1 53799:1 55487:1 56270:1 61045:1 61053:1 61082:1 61228:1 61362:1 61508:1 61775:1 61783:1 61789:1 61794:1 61806:1 61821:1  |EV| 
-0.01 3528:1 19203:1 37416:1 53431:1 53433:1 53436:1 53438:1 53442:1 53444:1 53451:1 53487:1 53545:1 53672:1 53695:1 53705:1 53724:1 53756:1 53860:1 54012:1 54169:1 54170:1 54171:1 54172:1 54173:1 54174:1 54175:1 54176:1 54177:1 54178:1 54183:1 54202:1 55490:1 56270:1 61045:1 61053:1 61080:1 61254:1 61410:1 61567:1 61775:1 61783:1 61789:1 61794:1 61806:1 61821:1  |EV| 
-0.01 3467:1 19141:1 37350:1 53431:1 53433:1 53436:1 53438:1 53442:1 53444:1 53451:1 53487:1 53545:1 53636:1 53672:1 53695:1 53705:1 53724:1 53756:1 53860:1 54012:1 54169:1 54170:1 54171:1 54172:1 54173:1 54174:1 54175:1 54176:1 54177:1 54178:1 54183:1 55490:1 56270:1 57878:1 61045:1 61053:1 61059:1 61281:1 61410:1 61534:1 61775:1 61783:1 61789:1 61794:1 61806:1 61821:1  |EV| 
-0.002053230416313018 8506:1 24812:1 43927:1 53442:1 53545:1 53556:1 54758:1 54759:1 55573:1 56270:1 61045:1 61053:1 61062:1 61220:1 61367:1 61497:1 61775:1 61783:1 61791:1 61794:1 61806:1 61815:1  |EV| 
0.035745485680017092 1343:1 16865:1 34715:1 53442:1 53444:1 53764:1 53765:1 53766:1 55376:1 56270:1 57878:1 61045:1 61053:1 61066:1 61201:1 61367:1 61497:1 61775:1 61783:1 61790:1 61794:1 61806:1 61813:1 61821:1  |EV| 
-0.0091370813265928084 3838:1 19522:1 50801:1 53431:1 53433:1 54561:1 55342:1 56270:1 57878:1 61045:1 61053:1 61069:1 61220:1 61358:1 61497:1 61775:1 61783:1 61789:1 61794:1 61806:1  |EV| 
0.075678750213272222 4826:1 20615:1 36456:1 53431:1 55381:1 56270:1 57878:1 61045:1 61053:1 61069:1 61215:1 61345:1 61497:1 61775:1 61783:1 61790:1 61793:1 61794:1 61806:1 61818:1 61821:1  |EV| 
0.047125529618612411 14078:1 31555:1 51800:1 53451:1 53551:1 55376:1 56270:1 57878:1 61045:1 61053:1 61059:1 61215:1 61364:1 61497:1 61775:1 61783:1 61790:1 61793:1 61794:1 61806:1 61813:1 61818:1 61821:1  |EV| 
0.1938587311749633 2783:1 18440:1 36596:1 53433:1 53442:1 53446:1 55570:1 56270:1 57878:1 61047:1 61052:1 61069:1 61230:1 61354:1 61491:1 61775:1 61783:1 61790:1 61793:1 61794:1 61806:1 61815:1 61818:1 61821:1  |EV| 
0.047641585870366085 6221:1 22237:1 40926:1 53436:1 53628:1 54483:1 55607:1 56270:1 57878:1 61045:1 61053:1 61069:1 61220:1 61358:1 61497:1 61775:1 61783:1 61790:1 61794:1 61806:1 61818:1 61821:1  |EV| 
0.068742908386142901 8618:1 24941:1 44060:1 53438:1 54752:1 55946:1 56270:1 57878:1 61045:1 61053:1 61069:1 61201:1 61364:1 61497:1 61775:1 61783:1 61790:1 61794:1 61806:1 61821:1  |EV| 
-0.01 10605:1 27474:1 46960:1 53466:1 53654:1 53886:1 55391:1 56270:1 61047:1 61052:1 61062:1 61230:1 61347:1 61491:1 61775:1 61783:1 61790:1 61794:1 61806:1 61813:1 61821:1  |EV| 
-0.01 1787:1 17324:1 35250:1 53617:1 55531:1 56270:1 57878:1 61047:1 61052:1 61069:1 61206:1 61347:1 61491:1 61775:1 61783:1 61790:1 61794:1 61806:1 61821:1  |EV| 
-0.01 609:1 16067:1 33755:1 53463:1 53634:1 53635:1 55415:1 56270:1 57923:1 61047:1 61052:1 61069:1 61230:1 61354:1 61491:1 61775:1 61783:1 61790:1 61794:1 61806:1 61821:1  |EV| 
-0.01 2714:1 18368:1 33418:1 53433:1 55581:1 56270:1 57878:1 61047:1 61052:1 61069:1 61206:1 61347:1 61491:1 61775:1 61783:1 61790:1 61794:1 61806:1 61821:1  |EV| 
-0.01 8293:1 24524:1 33418:1 53433:1 55731:1 56270:1 57878:1 61047:1 61052:1 61069:1 61206:1 61347:1 61491:1 61775:1 61783:1 61790:1 61794:1 61806:1 61821:1  |EV| 
0.089685665100018241 2531:1 18182:1 36315:1 53433:1 53436:1 53438:1 53442:1 53444:1 53459:1 53464:1 53508:1 53551:1 53554:1 53684:1 53894:1 53995:1 53996:1 54013:1 54026:1 55354:1 56270:1 61046:1 61053:1 61063:1 61201:1 61378:1 61528:1 61775:1 61783:1 61790:1 61794:1 61806:1 61821:1  |EV| 
0.042743124747162908 8005:1 24186:1 43195:1 53431:1 53438:1 53442:1 53459:1 53470:1 53474:1 53518:1 53546:1 53617:1 53619:1 53649:1 53794:1 53819:1 54060:1 54463:1 54685:1 54703:1 54704:1 55899:1 56270:1 61045:1 61053:1 61075:1 61214:1 61397:1 61516:1 61775:1 61783:1 61789:1 61794:1 61806:1 61821:1  |EV| 
0.055180579840478722 8027:1 24210:1 43237:1 53431:1 53438:1 53442:1 53459:1 53470:1 53474:1 53518:1 53546:1 53617:1 53619:1 53649:1 53794:1 53819:1 54060:1 54463:1 54685:1 54704:1 54705:1 55899:1 56270:1 61045:1 61053:1 61093:1 61223:1 61397:1 61516:1 61775:1 61783:1 61789:1 61794:1 61806:1 61821:1  |EV| 
0.10128338751215661 12989:1 30377:1 50377:1 53433:1 53442:1 53487:1 53628:1 55072:1 55073:1 55074:1 55636:1 56270:1 61046:1 61053:1 61104:1 61201:1 61365:1 61490:1 61775:1 61785:1 61790:1 61794:1 61806:1 61821:1  |EV| 
-0.01 4777:1 20565:1 39018:1 53431:1 53442:1 53459:1 53472:1 53568:1 53690:1 53750:1 54093:1 54377:1 54381:1 55381:1 56270:1 61045:1 61053:1 61068:1 61215:1 61352:1 61508:1 61775:1 61783:1 61790:1 61793:1 61794:1 61806:1 61818:1 61821:1  |EV| 
-0.01 2090:1 17684:1 35712:1 53436:1 53442:1 53459:1 53466:1 53469:1 53630:1 53709:1 53720:1 53767:1 53874:1 53880:1 53881:1 53884:1 55535:1 55536:1 56270:1 61036:1 61045:1 61053:1 61055:1 61220:1 61362:1 61517:1 61775:1 61783:1 61790:1 61794:1 61806:1 61821:1  |EV| 
-0.003450218927661924 3972:1 19902:1 38200:1 53431:1 53433:1 53438:1 53442:1 53457:1 53459:1 53469:1 53474:1 53506:1 53517:1 53575:1 53631:1 53649:1 53662:1 53720:1 53785:1 53864:1 53942:1 54060:1 54236:1 54237:1 54238:1 54239:1 54240:1 54241:1 54242:1 54243:1 54244:1 54246:1 55607:1 56270:1 61045:1 61053:1 61123:1 61201:1 61404:1 61592:1 61775:1 61783:1 61790:1 61794:1 61806:1 61821:1  |EV| 
-0.01 11794:1 29002:1 48725:1 53436:1 53466:1 53551:1 53630:1 53637:1 53710:1 53931:1 54399:1 54935:1 55594:1 56270:1 61045:1 61053:1 61082:1 61214:1 61352:1 61508:1 61775:1 61783:1 61790:1 61794:1 61806:1 61821:1  |EV| 
-0.01 14241:1 31737:1 51986:1 53431:1 53433:1 53438:1 53442:1 53447:1 53451:1 53457:1 53466:1 53489:1 53551:1 53588:1 53594:1 53764:1 53844:1 53877:1 55203:1 55204:1 55220:1 55376:1 56270:1 61045:1 61053:1 61081:1 61215:1 61384:1 61516:1 61775:1 61785:1 61790:1 61793:1 61794:1 61806:1 61813:1 61818:1 61821:1  |EV| 
0.059906780462417368 10901:1 27848:1 44171:1 53466:1 55391:1 56270:1 57878:1 61047:1 61052:1 61069:1 61206:1 61347:1 61491:1 61775:1 61783:1 61790:1 61794:1 61806:1 61813:1 61821:1  |EV| 
0.079823085330929217 1744:1 17279:1 35484:1 53451:1 53466:1 55543:1 56270:1 57878:1 61047:1 61052:1 61059:1 61210:1 61347:1 61491:1 61775:1 61783:1 61789:1 61794:1 61806:1 61821:1  |EV| 
0.10673281595703078 5053:1 20878:1 39362:1 53436:1 53446:1 53459:1 54212:1 54318:1 54397:1 55419:1 56270:1 61047:1 61052:1 61062:1 61221:1 61374:1 61491:1 61775:1 61783:1 61790:1 61794:1 61806:1 61815:1 61821:1  |EV| 
0.061667778662008503 1077:1 16594:1 34629:1 53436:1 55463:1 56270:1 57878:1 61045:1 61053:1 61069:1 61215:1 61345:1 61497:1 61775:1 61783:1 61789:1 61794:1 61806:1 61821:1  |EV| 
-0.01 12449:1 29761:1 49999:1 53466:1 53607:1 55949:1 56270:1 57581:1 57878:1 58685:1 60633:1 61047:1 61052:1 61069:1 61210:1 61350:1 61491:1 61775:1 61783:1 61789:1 61793:1 61794:1 61806:1 61821:1  |EV| 
-0.005079093768429784 4626:1 20401:1 33218:1 55712:1 56270:1 57878:1 61045:1 61053:1 61069:1 61232:1 61359:1 61497:1 61775:1 61783:1 61789:1 61793:1 61794:1 61806:1 61815:1  |EV| 
-0.0017457604350965585 12443:1 29755:1 33218:1 55465:1 56270:1 57878:1 61045:1 61053:1 61069:1 61232:1 61359:1 61497:1 61775:1 61783:1 61789:1 61793:1 61794:1 61806:1 61815:1  |EV| 
-0.0049843340874260664 14932:1 32482:1 33218:1 56236:1 56270:1 57878:1 61045:1 61053:1 61069:1 61232:1 61359:1 61497:1 61775:1 61783:1 61789:1 61793:1 61794:1 61806:1 61815:1  |EV| 
-0.01 15153:1 32707:1 33218:1 56255:1 56270:1 57878:1 61045:1 61053:1 61069:1 61232:1 61359:1 61497:1 61775:1 61783:1 61789:1 61794:1 61806:1 61815:1  |EV| 
0.052228426367363689 6437:1 22458:1 41183:1 53442:1 53444:1 53459:1 53469:1 53489:1 53503:1 53506:1 53518:1 53535:1 53628:1 53819:1 53906:1 54511:1 54512:1 54513:1 54514:1 54522:1 54523:1 55803:1 56270:1 56520:1 57945:1 58562:1 59881:1 61046:1 61053:1 61096:1 61222:1 61371:1 61528:1 61775:1 61785:1 61790:1 61794:1 61806:1 61821:1  |EV| 
0.084756852805067479 3106:1 18769:1 36945:1 53433:1 53438:1 53442:1 53469:1 53672:1 54038:1 54111:1 54112:1 54113:1 55628:1 56270:1 61045:1 61053:1 61055:1 61215:1 61344:1 61517:1 61775:1 61783:1 61790:1 61794:1 61806:1 61821:1  |EV| 
0.048964453002001092 14384:1 31906:1 52153:1 53442:1 55594:1 56271:1 57745:1 58486:1 60847:1 61050:1 61053:1 61193:1 61215:1 61359:1 61494:1 61775:1 61781:1 61790:1 61794:1 61796:1 61804:1 61806:1 61818:1 61821:1  |EV| 
0.051537817768337588 9802:1 26399:1 45674:1 53438:1 53442:1 53474:1 53754:1 53926:1 54277:1 54466:1 54582:1 55594:1 55999:1 56011:1 56270:1 61036:1 61045:1 61053:1 61082:1 61214:1 61352:1 61508:1 61775:1 61783:1 61790:1 61794:1 61806:1 61821:1  |EV| 
0.046836902950300227 14787:1 32320:1 52583:1 53436:1 53442:1 53444:1 53459:1 53508:1 53550:1 53572:1 53742:1 54426:1 54455:1 55280:1 56233:1 56270:1 61045:1 61053:1 61055:1 61215:1 61344:1 61517:1 61775:1 61783:1 61790:1 61794:1 61806:1 61821:1  |EV| 
-0.01 919:1 16415:1 34836:1 53433:1 53438:1 53442:1 53628:1 53693:1 55438:1 56270:1 61046:1 61053:1 61079:1 61220:1 61350:1 61507:1 61775:1 61783:1 61790:1 61794:1 61806:1 61821:1  |EV| 
-0.01 10457:1 27272:1 46713:1 53433:1 53438:1 53442:1 53472:1 53474:1 53517:1 53525:1 53528:1 53754:1 53890:1 53926:1 54162:1 54277:1 54414:1 54466:1 54582:1 54857:1 54858:1 55594:1 55999:1 56011:1 56270:1 61036:1 61048:1 61053:1 61104:1 61250:1 61352:1 61550:1 61775:1 61783:1 61790:1 61794:1 61806:1 61821:1  |EV| 
-0.0040415022713886683 12720:1 30066:1 50034:1 53431:1 53433:1 53435:1 53442:1 53449:1 53459:1 53467:1 53480:1 53515:1 53529:1 53545:1 53554:1 53573:1 53628:1 53707:1 53831:1 53993:1 54126:1 54324:1 55035:1 55036:1 55037:1 55948:1 56270:1 61048:1 61053:1 61065:1 61254:1 61383:1 61532:1 61775:1 61783:1 61790:1 61794:1 61806:1 61821:1  |EV| 
-0.0039025328988983852 7615:1 23758:1 42588:1 53431:1 53442:1 53926:1 55888:1 56270:1 57878:1 61047:1 61052:1 61069:1 61230:1 61354:1 61491:1 61775:1 61783:1 61788:1 61794:1 61806:1 61813:1  |EV| 
-0.01 2711:1 18365:1 36514:1 53433:1 53436:1 53442:1 53444:1 53464:1 53551:1 53684:1 55354:1 56270:1 56617:1 58013:1 58514:1 59441:1 61046:1 61053:1 61084:1 61201:1 61355:1 61507:1 61775:1 61783:1 61790:1 61794:1 61806:1 61821:1  |EV| 
0.051901430974735027 5951:1 25363:1 33218:1 55357:1 56270:1 57878:1 61045:1 61053:1 61069:1 61232:1 61359:1 61497:1 61775:1 61783:1 61789:1 61794:1 61806:1 61821:1  |EV| 
0.073289083462189514 8630:1 24954:1 33218:1 55771:1 56270:1 57878:1 61045:1 61053:1 61069:1 61232:1 61359:1 61497:1 61775:1 61783:1 61791:1 61794:1 61806:1 61821:1  |EV| 
0.050719606670187177 5951:1 25403:1 33218:1 55357:1 56270:1 58005:1 61045:1 61053:1 61069:1 61232:1 61359:1 61497:1 61775:1 61783:1 61789:1 61794:1 61806:1 61821:1  |EV| 
0.04420437604245582 15212:1 32766:1 53081:1 55312:1 55313:1 56261:1 56270:1 57878:1 61045:1 61053:1 61069:1 61201:1 61364:1 61497:1 61775:1 61783:1 61789:1 61794:1 61806:1 61821:1  |EV| 
0.056193467456175858 12675:1 30011:1 34629:1 53436:1 55949:1 56270:1 57878:1 61045:1 61053:1 61069:1 61215:1 61345:1 61497:1 61775:1 61783:1 61789:1 61794:1 61806:1 61821:1  |EV| 
-0.01 2661:1 18312:1 36456:1 53431:1 55570:1 56270:1 57878:1 61045:1 61053:1 61069:1 61215:1 61345:1 61497:1 61775:1 61783:1 61790:1 61794:1 61806:1 61815:1 61818:1 61821:1  |EV| 
-0.01 8515:1 24980:1 44099:1 53444:1 53541:1 53738:1 54297:1 54623:1 54750:1 55933:1 56270:1 61045:1 61053:1 61066:1 61220:1 61353:1 61497:1 61775:1 61783:1 61790:1 61794:1 61806:1 61818:1 61821:1  |EV| 
-0.0047804190288631178 6906:1 22946:1 41733:1 53516:1 55829:1 56270:1 56421:1 57945:1 58521:1 59934:1 61045:1 61053:1 61069:1 61215:1 61345:1 61497:1 61775:1 61783:1 61791:1 61794:1 61806:1 61820:1  |EV| 
-0.01 9166:1 25644:1 34629:1 53436:1 55966:1 56270:1 57878:1 61045:1 61053:1 61069:1 61215:1 61345:1 61497:1 61775:1 61783:1 61791:1 61794:1 61806:1 61820:1  |EV| 
0.074805595568844196 3573:1 19249:1 37467:1 53433:1 53438:1 53442:1 53459:1 53474:1 53767:1 54217:1 54218:1 54219:1 54220:1 55577:1 55578:1 56270:1 57952:1 61037:1 61046:1 61053:1 61103:1 61201:1 61368:1 61490:1 61775:1 61783:1 61790:1 61794:1 61806:1 61821:1  |EV| 
-0.01 3496:1 19170:1 37382:1 53433:1 53436:1 53438:1 53442:1 53459:1 53467:1 53474:1 53573:1 53767:1 54216:1 54217:1 54218:1 54219:1 54220:1 55577:1 55578:1 56270:1 61037:1 61046:1 61053:1 61098:1 61223:1 61368:1 61490:1 61775:1 61783:1 61790:1 61806:1 61821:1  |EV| 
-0.01 12876:1 30248:1 50236:1 53433:1 53442:1 53487:1 54442:1 55072:1 55073:1 55074:1 55636:1 56270:1 57878:1 61047:1 61052:1 61059:1 61212:1 61365:1 61491:1 61775:1 61785:1 61790:1 61794:1 61806:1 61821:1  |EV| 
-0.01 935:1 25254:1 44373:1 53442:1 53617:1 55357:1 56270:1 57936:1 61046:1 61053:1 61076:1 61232:1 61350:1 61507:1 61775:1 61785:1 61789:1 61794:1 61806:1 61821:1  |EV| 
-0.01 4873:1 20664:1 39152:1 53436:1 53438:1 53442:1 53446:1 53459:1 54212:1 54392:1 54393:1 54394:1 54397:1 55419:1 56270:1 57936:1 61046:1 61053:1 61064:1 61223:1 61374:1 61490:1 61775:1 61783:1 61790:1 61794:1 61806:1 61815:1 61821:1  |EV| 
-0.01 35:1 16474:1 34220:1 53433:1 53733:1 55348:1 56270:1 57878:1 61047:1 61052:1 61059:1 61210:1 61347:1 61491:1 61775:1 61783:1 61790:1 61794:1 61806:1 61821:1  |EV| 
0.031116962551191393 13004:1 30395:1 50399:1 53431:1 53435:1 53442:1 55080:1 55081:1 55082:1 55450:1 56270:1 57610:1 58349:1 58946:1 60653:1 61045:1 61053:1 61067:1 61215:1 61353:1 61497:1 61775:1 61783:1 61791:1 61794:1 61806:1 61821:1  |EV| 
0.064719168488695938 9746:1 27226:1 46649:1 53436:1 53459:1 53634:1 54791:1 56015:1 56270:1 61045:1 61053:1 61066:1 61215:1 61366:1 61497:1 61775:1 61783:1 61789:1 61794:1 61806:1 61816:1 61821:1  |EV| 
0.043815043470355038 4824:1 20613:1 36456:1 53431:1 55583:1 56270:1 61045:1 61053:1 61069:1 61215:1 61345:1 61497:1 61775:1 61783:1 61790:1 61794:1 61806:1 61821:1  |EV| 
0.06731867592572495 8509:1 24816:1 43931:1 53444:1 53541:1 54623:1 55933:1 56270:1 61045:1 61053:1 61069:1 61220:1 61358:1 61497:1 61775:1 61783:1 61790:1 61794:1 61806:1 61818:1 61821:1  |EV| 
-0.01 1807:1 17345:1 35831:1 53444:1 53865:1 53866:1 55345:1 56270:1 61045:1 61053:1 61066:1 61232:1 61358:1 61497:1 61775:1 61783:1 61790:1 61794:1 61821:1  |EV| 
-0.01 8055:1 24238:1 43283:1 53442:1 53459:1 53515:1 54298:1 54702:1 54714:1 55620:1 55903:1 55904:1 56270:1 57878:1 61033:1 61036:1 61045:1 61053:1 61069:1 61209:1 61372:1 61497:1 61775:1 61783:1 61789:1 61794:1 61806:1 61821:1  |EV| 
-0.01 1080:1 25350:1 44681:1 53466:1 53926:1 54102:1 54821:1 55357:1 56270:1 61045:1 61053:1 61086:1 61232:1 61366:1 61497:1 61775:1 61783:1 61789:1 61794:1 61821:1  |EV| 
-0.01 7290:1 23371:1 42184:1 53433:1 53442:1 53480:1 53554:1 55348:1 56270:1 56434:1 57884:1 58533:1 59996:1 61045:1 61053:1 61062:1 61201:1 61366:1 61497:1 61775:1 61783:1 61790:1 61794:1 61821:1  |EV| 
-0.01 14550:1 32074:1 52310:1 53431:1 53459:1 53568:1 53700:1 53877:1 54374:1 56219:1 56270:1 61045:1 61053:1 61082:1 61215:1 61372:1 61497:1 61775:1 61783:1 61790:1 61794:1 61821:1  |EV| 
0.09502818791854982 8197:1 24399:1 43450:1 53433:1 53436:1 54726:1 55731:1 56270:1 61046:1 61053:1 61070:1 61201:1 61347:1 61507:1 61775:1 61783:1 61790:1 61794:1 61806:1 61821:1  |EV| 
0.099604178746810754 2501:1 18147:1 36280:1 53428:1 53433:1 53902:1 53988:1 55581:1 56270:1 61046:1 61053:1 61078:1 61220:1 61347:1 61507:1 61775:1 61783:1 61790:1 61794:1 61806:1 61821:1  |EV| 
-0.01 2681:1 18335:1 36481:1 53431:1 53433:1 53442:1 53446:1 55570:1 56270:1 57936:1 61046:1 61053:1 61078:1 61215:1 61354:1 61507:1 61775:1 61783:1 61790:1 61794:1 61806:1 61815:1 61818:1 61821:1  |EV| 
-0.01 589:1 16046:1 33731:1 53442:1 53463:1 53628:1 53634:1 53635:1 55415:1 56270:1 61046:1 61053:1 61079:1 61201:1 61354:1 61507:1 61775:1 61783:1 61790:1 61794:1 61806:1 61821:1  |EV| 
-0.01 2508:1 18155:1 36288:1 53428:1 53431:1 53433:1 53442:1 53446:1 53447:1 53902:1 53918:1 53988:1 54025:1 55581:1 56270:1 61046:1 61053:1 61103:1 61220:1 61368:1 61490:1 61775:1 61783:1 61790:1 61794:1 61806:1 61821:1  |EV| 
-0.01 2515:1 18162:1 36295:1 53428:1 53433:1 53438:1 53902:1 53988:1 54027:1 55581:1 56270:1 61046:1 61053:1 61065:1 61222:1 61347:1 61507:1 61775:1 61783:1 61790:1 61794:1 61806:1 61821:1  |EV| 
-0.01 1804:1 17342:1 35272:1 53433:1 53438:1 53617:1 53672:1 53869:1 53870:1 53873:1 55530:1 56270:1 61046:1 61053:1 61104:1 61222:1 61374:1 61490:1 61775:1 61783:1 61790:1 61794:1 61806:1 61821:1  |EV| 
0.043329336846676232 8214:1 24419:1 43472:1 53442:1 53459:1 53515:1 53754:1 54298:1 54714:1 55620:1 55903:1 55904:1 56270:1 61033:1 61036:1 61045:1 61053:1 61082:1 61215:1 61372:1 61497:1 61775:1 61783:1 61789:1 61794:1 61806:1 61821:1  |EV| 
0.047818090111919682 1213:1 16733:1 34548:1 53436:1 53438:1 53466:1 53718:1 53759:1 53771:1 53772:1 53773:1 53797:1 55489:1 56270:1 56475:1 57884:1 58545:1 59266:1 61045:1 61053:1 61066:1 61209:1 61352:1 61508:1 61775:1 61784:1 61789:1 61794:1 61806:1 61821:1  |EV| 
0.044945891985167803 2228:1 17855:1 35945:1 53442:1 53466:1 53767:1 53884:1 55535:1 55536:1 56270:1 56296:1 56516:1 57884:1 58453:1 58558:1 59348:1 59349:1 61036:1 61045:1 61053:1 61059:1 61220:1 61366:1 61497:1 61775:1 61785:1 61790:1 61794:1 61806:1 61810:1 61821:1  |EV| 
0.075649380230437643 9035:1 25474:1 44595:1 53436:1 53442:1 53459:1 53476:1 54373:1 54450:1 54799:1 54800:1 55981:1 56270:1 61045:1 61053:1 61080:1 61232:1 61348:1 61508:1 61775:1 61783:1 61788:1 61794:1 61806:1 61813:1 61821:1  |EV| 
-0.01 8883:1 25275:1 44393:1 53436:1 53442:1 53459:1 53476:1 54373:1 54450:1 54702:1 54800:1 55981:1 56270:1 57878:1 61045:1 61053:1 61069:1 61228:1 61348:1 61508:1 61775:1 61783:1 61788:1 61794:1 61806:1 61813:1 61821:1  |EV| 
-0.01 9199:1 25686:1 44809:1 53433:1 53436:1 53442:1 53459:1 53562:1 53720:1 53901:1 53933:1 53940:1 54277:1 54732:1 54829:1 54830:1 54831:1 55654:1 56270:1 61045:1 61053:1 61092:1 61201:1 61362:1 61517:1 61775:1 61783:1 61789:1 61794:1 61806:1 61821:1  |EV| 
-0.01 7884:1 24055:1 42967:1 53438:1 53442:1 53459:1 53518:1 53546:1 53649:1 54463:1 54685:1 54703:1 54704:1 55899:1 56270:1 61045:1 61053:1 61077:1 61214:1 61391:1 61508:1 61775:1 61785:1 61789:1 61794:1 61808:1 61821:1  |EV| 
-0.01 8001:1 24182:1 43188:1 53438:1 53442:1 53459:1 53518:1 53546:1 53649:1 54463:1 54685:1 54704:1 54705:1 55899:1 56270:1 61045:1 61053:1 61067:1 61223:1 61391:1 61508:1 61775:1 61785:1 61789:1 61794:1 61808:1 61821:1  |EV| 
-0.01 14892:1 32438:1 52709:1 53436:1 53442:1 53444:1 53459:1 53508:1 53550:1 53572:1 54083:1 54426:1 54455:1 55280:1 56233:1 56270:1 57878:1 61045:1 61053:1 61062:1 61248:1 61344:1 61520:1 61775:1 61783:1 61790:1 61794:1 61806:1 61821:1  |EV| 
0.047789195472590237 12804:1 30171:1 50153:1 53628:1 56126:1 56270:1 61046:1 61053:1 61057:1 61215:1 61357:1 61507:1 61775:1 61783:1 61791:1 61794:1 61806:1 61821:1  |EV| 
0.062342110933234746 2555:1 18205:1 36339:1 53433:1 53442:1 53474:1 53516:1 53628:1 53684:1 53756:1 53862:1 54011:1 54012:1 55573:1 56270:1 57878:1 61045:1 61053:1 61069:1 61208:1 61391:1 61520:1 61775:1 61783:1 61791:1 61794:1 61806:1 61821:1  |EV| 
-0.01 12798:1 30165:1 36894:1 56126:1 56270:1 57878:1 61047:1 61052:1 61069:1 61203:1 61357:1 61491:1 61775:1 61783:1 61791:1 61794:1 61806:1 61821:1  |EV| 
-0.01 12675:1 30011:1 50099:1 53436:1 53466:1 53607:1 55949:1 56270:1 57597:1 58340:1 58685:1 60633:1 61046:1 61053:1 61070:1 61215:1 61350:1 61507:1 61775:1 61783:1 61789:1 61794:1 61806:1 61821:1  |EV| 
-0.01 13028:1 30423:1 50434:1 53433:1 53436:1 53503:1 53628:1 53707:1 54373:1 55064:1 56130:1 56270:1 57878:1 61045:1 61053:1 61069:1 61209:1 61372:1 61497:1 61775:1 61783:1 61790:1 61794:1 61806:1 61821:1  |EV| 
-0.01 5983:1 21957:1 40583:1 53433:1 53436:1 53474:1 53485:1 53625:1 53684:1 53720:1 54011:1 54012:1 54027:1 54450:1 55408:1 56270:1 57878:1 61045:1 61053:1 61069:1 61208:1 61391:1 61520:1 61775:1 61783:1 61789:1 61794:1 61806:1 61821:1  |EV| 
-0.01 8197:1 24486:1 43639:1 53433:1 53442:1 53540:1 53630:1 54122:1 54720:1 54721:1 54722:1 54723:1 55731:1 56270:1 61047:1 61052:1 61102:1 61236:1 61347:1 61527:1 61775:1 61783:1 61790:1 61794:1 61806:1 61821:1  |EV| 
0.06617135147086825 12695:1 30034:1 50002:1 53433:1 53442:1 53444:1 53449:1 53556:1 53628:1 53751:1 54122:1 54443:1 55038:1 55039:1 55528:1 55529:1 56270:1 61033:1 61036:1 61037:1 61045:1 61053:1 61077:1 61214:1 61391:1 61508:1 61775:1 61783:1 61790:1 61794:1 61806:1 61821:1  |EV| 
0.030800692754770938 8473:1 24778:1 43894:1 53436:1 53459:1 53476:1 53485:1 53940:1 54745:1 54746:1 54747:1 55929:1 56270:1 61045:1 61053:1 61066:1 61222:1 61348:1 61508:1 61775:1 61783:1 61790:1 61794:1 61806:1 61821:1  |EV| 
-0.01 10191:1 26858:1 46193:1 53442:1 53469:1 53515:1 53609:1 53634:1 53754:1 53785:1 53864:1 53930:1 53942:1 53976:1 54867:1 55406:1 56270:1 61045:1 61053:1 61055:1 61201:1 61396:1 61517:1 61775:1 61783:1 61790:1 61794:1 61806:1 61821:1  |EV| 
-0.01 12460:1 29772:1 49718:1 53433:1 53442:1 53444:1 53449:1 53556:1 53628:1 53751:1 54122:1 54443:1 55038:1 55039:1 55040:1 55041:1 55042:1 55528:1 55529:1 56270:1 61033:1 61036:1 61037:1 61048:1 61053:1 61076:1 61242:1 61391:1 61518:1 61775:1 61783:1 61790:1 61794:1 61806:1 61821:1  |EV| 
-0.01 12574:1 29891:1 49842:1 53433:1 53442:1 53444:1 53449:1 53556:1 53628:1 53751:1 54122:1 55038:1 55039:1 55040:1 55528:1 55529:1 56270:1 57878:1 61033:1 61036:1 61037:1 61045:1 61053:1 61069:1 61208:1 61391:1 61520:1 61775:1 61783:1 61790:1 61794:1 61806:1 61821:1  |EV| 
-0.01 9211:1 25699:1 45379:1 53442:1 53444:1 53459:1 53640:1 53862:1 54833:1 54834:1 55984:1 55985:1 56270:1 61033:1 61036:1 61037:1 61045:1 61053:1 61067:1 61220:1 61348:1 61508:1 61775:1 61783:1 61790:1 61794:1 61806:1  |EV| 
-0.01 919:1 16415:1 34320:1 53433:1 53442:1 53444:1 53447:1 53628:1 53693:1 53704:1 53712:1 53717:1 53718:1 53732:1 55438:1 56270:1 61045:1 61053:1 61102:1 61220:1 61396:1 61517:1 61775:1 61783:1 61790:1 61794:1 61806:1 61821:1  |EV| 
0.026180082291113568 6048:1 22042:1 40706:1 53433:1 53436:1 53474:1 53485:1 53625:1 53684:1 53720:1 54011:1 54012:1 54450:1 54466:1 55408:1 56270:1 61045:1 61053:1 61068:1 61201:1 61391:1 61508:1 61775:1 61783:1 61789:1 61794:1 61806:1 61821:1  |EV| 
0.062335451730649201 9423:1 25940:1 45103:1 54277:1 54831:1 55654:1 56270:1 57878:1 61045:1 61053:1 61069:1 61201:1 61364:1 61497:1 61775:1 61783:1 61789:1 61794:1 61806:1 61821:1  |EV| 
0.04586889894889342 4103:1 19802:1 38080:1 53431:1 53560:1 53921:1 54254:1 54255:1 55400:1 56270:1 57878:1 61045:1 61053:1 61069:1 61222:1 61367:1 61497:1 61775:1 61783:1 61790:1 61794:1 61806:1 61821:1  |EV| 
-0.01 11905:1 29119:1 49253:1 53962:1 54402:1 55420:1 56270:1 58312:1 61045:1 61053:1 61069:1 61201:1 61364:1 61497:1 61775:1 61783:1 61789:1 61794:1 61806:1 61818:1  |EV| 
-0.01 3465:1 19196:1 33340:1 53442:1 53474:1 55450:1 56270:1 57878:1 61045:1 61053:1 61069:1 61201:1 61364:1 61497:1 61775:1 61783:1 61791:1 61793:1 61794:1 61806:1 61818:1  |EV| 
-0.01 6040:1 25438:1 44559:1 53442:1 53554:1 53617:1 55450:1 56270:1 57878:1 61045:1 61053:1 61069:1 61220:1 61358:1 61497:1 61775:1 61783:1 61791:1 61794:1 61806:1 61816:1  |EV| 
0.0099888088525042495 9183:1 25668:1 44789:1 53476:1 53831:1 54089:1 55636:1 56270:1 57878:1 61045:1 61053:1 61069:1 61220:1 61358:1 61497:1 61775:1 61783:1 61790:1 61794:1 61806:1 61821:1  |EV| 
-0.0044961607361746394 6601:1 22622:1 41357:1 53436:1 53550:1 53695:1 55818:1 56270:1 57906:1 61045:1 61053:1 61059:1 61201:1 61358:1 61497:1 61775:1 61783:1 61791:1 61793:1 61794:1 61806:1 61818:1 61819:1  |EV| 
0.047090268806477473 4372:1 20128:1 38466:1 53433:1 53442:1 53636:1 53666:1 53695:1 54122:1 54305:1 54334:1 55423:1 56270:1 61045:1 61053:1 61082:1 61201:1 61348:1 61508:1 61775:1 61785:1 61790:1 61794:1 61806:1 61821:1  |EV| 
-0.01 4582:1 20348:1 38727:1 53433:1 53442:1 53666:1 53695:1 54122:1 54305:1 54334:1 54361:1 55423:1 56270:1 57878:1 61045:1 61053:1 61059:1 61209:1 61348:1 61508:1 61775:1 61785:1 61790:1 61794:1 61806:1 61821:1  |EV| 
-0.01 2599:1 18247:1 36387:1 53431:1 53433:1 53442:1 53446:1 53918:1 53997:1 54025:1 55581:1 56270:1 61047:1 61052:1 61077:1 61212:1 61347:1 61491:1 61775:1 61783:1 61790:1 61793:1 61794:1 61806:1 61821:1  |EV| 
-0.01 6490:1 22511:1 41238:1 53442:1 53444:1 53459:1 53469:1 53489:1 53503:1 53506:1 53518:1 53535:1 53628:1 53819:1 53834:1 53906:1 54511:1 54512:1 54513:1 54514:1 54515:1 54522:1 54523:1 55803:1 56270:1 61046:1 61053:1 61109:1 61222:1 61378:1 61528:1 61775:1 61785:1 61790:1 61794:1 61821:1  |EV| 
-0.01 4252:1 19976:1 38286:1 53431:1 53438:1 53560:1 53921:1 54254:1 54255:1 54257:1 55400:1 56270:1 57952:1 61046:1 61053:1 61084:1 61222:1 61350:1 61507:1 61775:1 61783:1 61790:1 61794:1 61806:1 61821:1  |EV| 
-0.01 4022:1 19716:1 37983:1 53433:1 53442:1 53474:1 54294:1 55607:1 56270:1 56788:1 58078:1 58602:1 59667:1 61047:1 61052:1 61066:1 61226:1 61350:1 61491:1 61775:1 61783:1 61790:1 61794:1 61803:1 61806:1 61821:1  |EV| 
0.039227545541302936 3524:1 19199:1 37412:1 53457:1 54215:1 55420:1 56270:1 57878:1 61045:1 61053:1 61059:1 61215:1 61364:1 61497:1 61775:1 61783:1 61789:1 61794:1 61806:1 61821:1  |EV| 
0.076410175593768809 10191:1 26858:1 46544:1 53469:1 53609:1 53634:1 55406:1 56270:1 57878:1 61045:1 61053:1 61059:1 61201:1 61358:1 61497:1 61775:1 61783:1 61790:1 61794:1 61806:1 61821:1  |EV| 
0.053279059528922146 8807:1 25181:1 44298:1 53436:1 53546:1 53925:1 54049:1 54055:1 54796:1 55364:1 56270:1 57898:1 61045:1 61053:1 61069:1 61223:1 61353:1 61497:1 61775:1 61783:1 61791:1 61794:1 61806:1 61821:1  |EV| 
0.049111679984762006 14576:1 32100:1 52393:1 53589:1 53733:1 53764:1 56224:1 56270:1 57878:1 61045:1 61053:1 61062:1 61215:1 61358:1 61497:1 61775:1 61783:1 61790:1 61794:1 61806:1 61818:1 61821:1  |EV| 
-0.01 11607:1 28794:1 48464:1 53436:1 53466:1 53551:1 53630:1 53710:1 53778:1 53931:1 54399:1 54935:1 55594:1 56270:1 57878:1 61045:1 61053:1 61069:1 61248:1 61352:1 61520:1 61775:1 61783:1 61790:1 61794:1 61806:1 61821:1  |EV| 
-0.01 15212:1 32766:1 53091:1 53433:1 53438:1 53450:1 53459:1 53466:1 53575:1 53588:1 53594:1 53757:1 53853:1 53877:1 54024:1 54856:1 55310:1 55312:1 55313:1 56261:1 56270:1 61045:1 61053:1 61083:1 61201:1 61375:1 61517:1 61775:1 61783:1 61789:1 61794:1 61806:1 61821:1  |EV| 
-0.01 2016:1 17589:1 34629:1 53436:1 55549:1 56270:1 57878:1 61045:1 61053:1 61069:1 61215:1 61345:1 61497:1 61775:1 61783:1 61789:1 61794:1 61806:1  |EV| 
-0.01 8847:1 25229:1 44347:1 53556:1 53572:1 55975:1 56270:1 57878:1 61045:1 61053:1 61059:1 61215:1 61364:1 61497:1 61775:1 61783:1 61789:1 61794:1 61806:1  |EV| 
-0.01 5907:1 21865:1 40472:1 53433:1 53485:1 53625:1 55408:1 56270:1 61045:1 61053:1 61059:1 61201:1 61358:1 61497:1 61775:1 61785:1 61789:1 61794:1 61810:1 61821:1  |EV| 
0.089602542846179745 7786:1 23951:1 42828:1 53442:1 53506:1 53518:1 53574:1 53588:1 53651:1 54024:1 54648:1 55405:1 55884:1 56270:1 57883:1 61049:1 61053:1 61057:1 61221:1 61390:1 61502:1 61775:1 61783:1 61790:1 61794:1 61806:1 61818:1 61821:1  |EV| 
-0.01 7637:1 23781:1 42614:1 53438:1 53442:1 53506:1 53518:1 53574:1 53588:1 53651:1 54024:1 54648:1 54650:1 55405:1 55884:1 56270:1 61049:1 61053:1 61070:1 61221:1 61380:1 61502:1 61775:1 61783:1 61790:1 61794:1 61806:1 61818:1 61821:1  |EV| 
-0.01 2503:1 18149:1 36282:1 53433:1 53436:1 53438:1 53442:1 53444:1 53459:1 53464:1 53508:1 53554:1 53894:1 53995:1 53996:1 54013:1 55354:1 56270:1 57952:1 61049:1 61053:1 61104:1 61226:1 61378:1 61496:1 61775:1 61783:1 61790:1 61794:1 61806:1 61821:1  |EV| 
-0.01 7970:1 24149:1 43123:1 53438:1 53442:1 53459:1 53506:1 53518:1 53550:1 53574:1 53588:1 53651:1 54024:1 54619:1 54648:1 54649:1 54650:1 55405:1 55884:1 56270:1 61047:1 61052:1 61066:1 61237:1 61380:1 61505:1 61775:1 61783:1 61790:1 61794:1 61806:1 61818:1 61821:1  |EV| 
-0.01 1808:1 17346:1 35276:1 53433:1 53438:1 53617:1 53672:1 53872:1 53873:1 55528:1 55529:1 56270:1 61033:1 61046:1 61053:1 61104:1 61201:1 61370:1 61490:1 61775:1 61783:1 61790:1 61794:1 61806:1 61821:1  |EV| 
-0.01 4956:1 20754:1 39241:1 53436:1 53438:1 53442:1 53446:1 53459:1 53637:1 54212:1 54318:1 54392:1 54393:1 54394:1 54397:1 54398:1 55419:1 56270:1 61044:1 61053:1 61083:1 61221:1 61353:1 61515:1 61775:1 61783:1 61790:1 61794:1 61806:1 61815:1 61821:1  |EV| 
0.013636069257052583 5951:1 25288:1 44406:1 53466:1 55357:1 56270:1 57096:1 57884:1 58735:1 59993:1 61045:1 61053:1 61059:1 61232:1 61345:1 61497:1 61775:1 61783:1 61789:1 61794:1 61806:1 61821:1  |EV| 
0.088636178693036166 11794:1 29141:1 48930:1 53466:1 53551:1 54935:1 55594:1 56270:1 57879:1 61048:1 61053:1 61088:1 61214:1 61364:1 61494:1 61775:1 61783:1 61790:1 61794:1 61806:1 61821:1  |EV| 
-0.01 12036:1 29284:1 49169:1 53466:1 53551:1 54399:1 54935:1 55594:1 56270:1 56296:1 57884:1 58453:1 60483:1 61045:1 61053:1 61059:1 61214:1 61367:1 61497:1 61775:1 61785:1 61790:1 61794:1 61810:1 61821:1  |EV| 
-0.01 4754:1 20541:1 38986:1 53431:1 53472:1 53769:1 54093:1 55381:1 56270:1 57935:1 61048:1 61053:1 61057:1 61222:1 61345:1 61494:1 61775:1 61783:1 61790:1 61794:1 61806:1 61818:1 61821:1  |EV| 
-0.01 14576:1 32100:1 52335:1 53447:1 53469:1 53472:1 53589:1 53733:1 53764:1 53778:1 55251:1 56224:1 56270:1 61045:1 61053:1 61077:1 61215:1 61348:1 61508:1 61775:1 61783:1 61790:1 61794:1 61818:1 61821:1  |EV| 
-0.01 905:1 30387:1 50408:1 53459:1 53466:1 53506:1 53516:1 53575:1 54028:1 55034:1 55077:1 55078:1 55079:1 55470:1 56270:1 61045:1 61053:1 61068:1 61215:1 61352:1 61508:1 61775:1 61783:1 61790:1 61794:1 61821:1  |EV| 
-0.01 12449:1 29761:1 49708:1 53436:1 53447:1 53466:1 53607:1 54766:1 55949:1 56270:1 61044:1 61053:1 61082:1 61210:1 61345:1 61493:1 61775:1 61783:1 61789:1 61793:1 61794:1 61806:1 61821:1  |EV| 
0.035296296728529734 2476:1 18122:1 36256:1 53438:1 53442:1 53710:1 53976:1 53978:1 53979:1 55479:1 56270:1 61045:1 61053:1 61066:1 61220:1 61353:1 61497:1 61775:1 61783:1 61790:1 61794:1 61806:1 61813:1 61821:1  |EV| 
0.03861430099595136 2391:1 18037:1 36152:1 53438:1 53442:1 53710:1 53976:1 53977:1 53978:1 53979:1 55479:1 56270:1 61045:1 61053:1 61067:1 61220:1 61348:1 61508:1 61775:1 61783:1 61790:1 61794:1 61806:1 61813:1 61821:1  |EV| 
-0.01 665:1 16149:1 33855:1 53442:1 53463:1 53465:1 53628:1 53634:1 53635:1 53637:1 55415:1 56270:1 61044:1 61053:1 61080:1 61230:1 61364:1 61493:1 61775:1 61783:1 61790:1 61794:1 61806:1 61821:1  |EV| 
-0.01 9975:1 26605:1 45908:1 53438:1 53442:1 53474:1 53890:1 53926:1 54277:1 54466:1 54582:1 55594:1 55999:1 56011:1 56270:1 57878:1 61036:1 61045:1 61053:1 61069:1 61248:1 61352:1 61520:1 61775:1 61783:1 61790:1 61794:1 61806:1 61821:1  |EV| 
-0.01 9199:1 26102:1 45305:1 53433:1 53442:1 53444:1 53547:1 53631:1 53931:1 54277:1 54749:1 54831:1 54832:1 55654:1 56270:1 58006:1 61046:1 61053:1 61103:1 61201:1 61356:1 61490:1 61775:1 61783:1 61789:1 61794:1 61806:1 61821:1  |EV| 
-0.01 3354:1 20881:1 39365:1 53438:1 53442:1 53459:1 54392:1 54393:1 54394:1 55419:1 56270:1 57878:1 61045:1 61053:1 61069:1 61223:1 61353:1 61497:1 61775:1 61783:1 61790:1 61794:1 61806:1 61815:1 61821:1  |EV| 
-0.01 7679:1 23828:1 42675:1 53442:1 54215:1 55552:1 56270:1 57878:1 61045:1 61053:1 61069:1 61201:1 61364:1 61497:1 61775:1 61783:1 61790:1 61794:1 61806:1  |EV| 
0.052262698772599085 12929:1 30313:1 50306:1 53433:1 53436:1 53503:1 53628:1 54373:1 54799:1 55064:1 56130:1 56270:1 61045:1 61053:1 61067:1 61201:1 61372:1 61497:1 61775:1 61783:1 61790:1 61794:1 61806:1 61821:1  |EV| 
0.029765990549389981 7661:1 23808:1 42648:1 53431:1 53442:1 53459:1 54318:1 54702:1 55898:1 56270:1 61045:1 61053:1 61066:1 61201:1 61367:1 61497:1 61775:1 61783:1 61791:1 61794:1 61806:1 61821:1  |EV| 
0.054655778107730146 14506:1 32029:1 52266:1 53431:1 53459:1 53700:1 56219:1 56270:1 61045:1 61053:1 61062:1 61215:1 61358:1 61497:1 61775:1 61783:1 61790:1 61794:1 61806:1 61821:1  |EV| 
0.068402175464220241 3983:1 19674:1 37938:1 53431:1 53436:1 53442:1 53628:1 54279:1 55607:1 56270:1 57878:1 61045:1 61053:1 61069:1 61222:1 61367:1 61497:1 61775:1 61783:1 61790:1 61794:1 61806:1 61821:1  |EV| 
-0.01 6155:1 22171:1 40850:1 53433:1 53436:1 53438:1 53447:1 53628:1 54481:1 54482:1 54483:1 55607:1 56270:1 61045:1 61053:1 61067:1 61220:1 61348:1 61508:1 61775:1 61783:1 61790:1 61794:1 61803:1 61806:1 61818:1 61821:1  |EV| 
-0.01 12873:1 30245:1 50233:1 53433:1 53436:1 53503:1 53628:1 53707:1 54373:1 54561:1 54799:1 55064:1 56130:1 56270:1 61048:1 61053:1 61057:1 61208:1 61372:1 61506:1 61775:1 61783:1 61790:1 61794:1 61806:1 61821:1  |EV| 
-0.01 12658:1 29992:1 49957:1 53436:1 53442:1 53444:1 53554:1 54541:1 55378:1 56270:1 61045:1 61053:1 61066:1 61201:1 61367:1 61497:1 61775:1 61783:1 61790:1 61794:1 61821:1  |EV| 
-0.01 13547:1 30978:1 51147:1 53431:1 53451:1 53937:1 56153:1 56270:1 57878:1 61045:1 61053:1 61062:1 61215:1 61358:1 61497:1 61775:1 61783:1 61790:1 61794:1 61806:1 61815:1  |EV| 
-0.01 4105:1 19804:1 38087:1 53431:1 53433:1 53436:1 53442:1 53474:1 53628:1 54279:1 54293:1 54294:1 54295:1 55607:1 56270:1 61044:1 61053:1 61094:1 61226:1 61367:1 61515:1 61775:1 61783:1 61790:1 61794:1 61806:1 61821:1  |EV| 
0.043464001365418128 13552:1 30983:1 51211:1 53430:1 53438:1 53442:1 53474:1 53515:1 53545:1 54102:1 55133:1 55134:1 55145:1 56160:1 56270:1 61045:1 61053:1 61077:1 61220:1 61352:1 61508:1 61775:1 61783:1 61790:1 61794:1 61806:1 61821:1  |EV| 
-0.01 2531:1 18179:1 36312:1 53433:1 53436:1 53442:1 53444:1 53459:1 53464:1 53508:1 53551:1 53684:1 53894:1 53995:1 53996:1 54013:1 54026:1 55354:1 56270:1 61046:1 61053:1 61095:1 61201:1 61379:1 61511:1 61775:1 61783:1 61790:1 61794:1 61821:1  |EV| 
-0.01 3150:1 18814:1 37010:1 53433:1 53438:1 53442:1 53451:1 53469:1 53672:1 53685:1 53888:1 54038:1 54111:1 54112:1 54113:1 55628:1 56270:1 61045:1 61053:1 61091:1 61215:1 61386:1 61517:1 61775:1 61783:1 61790:1 61794:1 61821:1  |EV| 
-0.01 12565:1 29977:1 49941:1 53433:1 53435:1 53442:1 53449:1 53459:1 53467:1 53480:1 53515:1 53529:1 53545:1 53554:1 53573:1 53628:1 54126:1 54324:1 55037:1 55948:1 56270:1 61045:1 61053:1 61094:1 61220:1 61383:1 61517:1 61775:1 61783:1 61790:1 61794:1 61806:1 61821:1  |EV| 
-0.01 4797:1 20585:1 39045:1 53431:1 53442:1 53459:1 53472:1 53568:1 53690:1 53750:1 53769:1 54093:1 54381:1 55381:1 56270:1 61045:1 61053:1 61067:1 61222:1 61352:1 61508:1 61775:1 61783:1 61790:1 61794:1 61806:1 61818:1 61821:1  |EV| 
-0.01 7674:1 23822:1 42666:1 53438:1 53442:1 53459:1 53474:1 53518:1 53546:1 53617:1 53619:1 53649:1 53794:1 53819:1 54463:1 54685:1 54703:1 54704:1 55899:1 56270:1 61045:1 61053:1 61091:1 61214:1 61387:1 61516:1 61775:1 61784:1 61789:1 61794:1 61808:1 61821:1  |EV| 
0.037624037074227949 5181:1 21035:1 39517:1 53436:1 53632:1 53710:1 55419:1 56270:1 57878:1 61045:1 61053:1 61059:1 61201:1 61358:1 61497:1 61775:1 61783:1 61790:1 61794:1 61806:1 61818:1 61821:1  |EV| 
-0.01 12356:1 29648:1 49587:1 53436:1 53474:1 55019:1 55695:1 56270:1 57878:1 61045:1 61053:1 61069:1 61220:1 61358:1 61497:1 61775:1 61783:1 61790:1 61794:1 61806:1 61818:1  |EV| 
-0.01 3641:1 19320:1 37543:1 53449:1 53508:1 54230:1 55685:1 56270:1 57878:1 61045:1 61053:1 61069:1 61220:1 61358:1 61497:1 61775:1 61783:1 61790:1 61794:1 61806:1 61813:1 61817:1  |EV| 
-0.01 746:1 16227:1 33941:1 53518:1 53625:1 53626:1 53627:1 55433:1 56270:1 57878:1 61045:1 61053:1 61069:1 61214:1 61366:1 61497:1 61775:1 61783:1 61791:1 61794:1 61806:1  |EV| 
-0.01 4458:1 20218:1 38566:1 53436:1 53787:1 55729:1 56270:1 57878:1 61045:1 61053:1 61069:1 61201:1 61364:1 61497:1 61775:1 61783:1 61791:1 61794:1 61806:1 61820:1  |EV| 
-0.01 5285:1 21730:1 47348:1 53436:1 53724:1 54909:1 55452:1 56270:1 57878:1 61045:1 61053:1 61069:1 61220:1 61358:1 61497:1 61775:1 61783:1 61791:1 61794:1 61806:1 61820:1  |EV| 
-0.01 8983:1 25406:1 44524:1 53433:1 53436:1 53442:1 53459:1 53476:1 53909:1 54035:1 54373:1 54450:1 54702:1 54797:1 54798:1 54799:1 54800:1 55981:1 56270:1 61048:1 61053:1 61078:1 61218:1 61348:1 61518:1 61775:1 61783:1 61788:1 61794:1 61806:1 61813:1 61821:1  |EV| 
-0.01 2555:1 18205:1 36367:1 53433:1 53442:1 53447:1 53474:1 53516:1 53528:1 53628:1 53684:1 53704:1 53756:1 53862:1 53998:1 53999:1 54000:1 54001:1 54011:1 54012:1 55573:1 56270:1 58014:1 61045:1 61053:1 61080:1 61208:1 61351:1 61522:1 61775:1 61783:1 61791:1 61794:1 61821:1  |EV| 
-0.01 9148:1 25625:1 44743:1 53436:1 53442:1 53459:1 53474:1 53476:1 53749:1 54143:1 54373:1 54450:1 54799:1 54800:1 55965:1 56270:1 61045:1 61053:1 61080:1 61214:1 61344:1 61508:1 61775:1 61783:1 61791:1 61794:1 61806:1 61818:1 61820:1  |EV| 
-0.01 876:1 16369:1 34104:1 53433:1 53436:1 53447:1 53602:1 53660:1 53729:1 55463:1 56270:1 61046:1 61053:1 61065:1 61215:1 61355:1 61507:1 61775:1 61783:1 61789:1 61794:1 61806:1 61821:1  |EV| 
-0.01 4170:1 19876:1 38169:1 53431:1 53433:1 53436:1 53442:1 53628:1 54279:1 55607:1 56270:1 56813:1 58089:1 58602:1 59667:1 61046:1 61053:1 61084:1 61222:1 61350:1 61507:1 61775:1 61783:1 61790:1 61794:1 61803:1 61806:1 61821:1  |EV| 
0.04677331195338913 1435:1 16962:1 34848:1 53431:1 53442:1 53769:1 53770:1 55378:1 56270:1 57878:1 61045:1 61053:1 61059:1 61220:1 61366:1 61497:1 61775:1 61783:1 61790:1 61794:1 61806:1 61821:1  |EV| 
0.01904491134435252 6801:1 22833:1 41591:1 53611:1 53628:1 54043:1 55664:1 56270:1 57878:1 61045:1 61053:1 61069:1 61220:1 61358:1 61497:1 61775:1 61783:1 61790:1 61794:1 61806:1 61818:1 61821:1  |EV| 
-0.01 9741:1 26312:1 46231:1 53442:1 53469:1 53515:1 53609:1 53634:1 53785:1 53864:1 53930:1 53942:1 53976:1 54867:1 54873:1 55406:1 56270:1 57878:1 61045:1 61053:1 61069:1 61200:1 61396:1 61520:1 61775:1 61783:1 61790:1 61793:1 61794:1 61806:1 61821:1  |EV| 
-0.01 12606:1 29925:1 49892:1 53436:1 53442:1 53444:1 55378:1 56270:1 61045:1 61053:1 61059:1 61201:1 61358:1 61497:1 61775:1 61783:1 61790:1 61794:1 61821:1  |EV| 
-0.01 4289:1 20023:1 38342:1 53438:1 54257:1 55400:1 56270:1 57878:1 61047:1 61052:1 61069:1 61210:1 61350:1 61491:1 61775:1 61783:1 61790:1 61794:1 61806:1 61821:1  |EV| 
-0.01 12831:1 30200:1 50183:1 53431:1 54209:1 54277:1 56129:1 56270:1 61045:1 61053:1 61062:1 61215:1 61358:1 61497:1 61775:1 61783:1 61790:1 61794:1 61806:1 61817:1  |EV| 
-0.01 4647:1 20424:1 38898:1 53442:1 53632:1 54311:1 55716:1 56270:1 57878:1 61045:1 61053:1 61059:1 61201:1 61358:1 61497:1 61775:1 61783:1 61790:1 61794:1 61806:1 61813:1 61815:1  |EV| 
-0.01 1805:1 17343:1 35273:1 53433:1 53438:1 53617:1 53672:1 53869:1 53870:1 53872:1 55531:1 56270:1 61046:1 61053:1 61104:1 61228:1 61347:1 61490:1 61775:1 61783:1 61790:1 61794:1 61806:1 61821:1  |EV| 
-0.01 2491:1 18137:1 36270:1 53428:1 53431:1 53433:1 53902:1 53918:1 53988:1 53989:1 55570:1 56270:1 61048:1 61053:1 61078:1 61228:1 61345:1 61494:1 61775:1 61783:1 61790:1 61794:1 61806:1 61815:1 61818:1 61821:1  |EV| 
-0.01 11607:1 29309:1 49219:1 53436:1 53466:1 53551:1 53630:1 53710:1 53778:1 53931:1 54935:1 55594:1 56270:1 58139:1 61048:1 61053:1 61079:1 61248:1 61364:1 61506:1 61775:1 61783:1 61790:1 61794:1 61806:1 61821:1  |EV| 
-0.01 14853:1 32395:1 52658:1 53436:1 53444:1 53459:1 53508:1 54426:1 55280:1 56233:1 56270:1 61045:1 61053:1 61082:1 61215:1 61372:1 61497:1 61775:1 61783:1 61790:1 61794:1 61821:1  |EV| 
-0.01 12945:1 30330:1 50327:1 53433:1 53442:1 53444:1 53446:1 53487:1 53509:1 53556:1 53628:1 53649:1 53720:1 54425:1 54442:1 55072:1 55073:1 55074:1 55636:1 56270:1 61046:1 61053:1 61063:1 61201:1 61378:1 61528:1 61775:1 61784:1 61790:1 61794:1 61821:1  |EV| 
-0.01 1789:1 17326:1 35252:1 53433:1 53438:1 53617:1 53873:1 55530:1 56270:1 57878:1 61047:1 61052:1 61069:1 61211:1 61374:1 61491:1 61775:1 61783:1 61790:1 61794:1 61806:1 61821:1  |EV| 
-0.01 5608:1 25582:1 44702:1 53442:1 53617:1 55357:1 56270:1 57878:1 61047:1 61052:1 61069:1 61210:1 61350:1 61491:1 61775:1 61785:1 61789:1 61794:1 61806:1 61821:1  |EV| 
-0.01 1791:1 17328:1 35254:1 53433:1 53438:1 53617:1 53872:1 53873:1 55528:1 55529:1 56270:1 57878:1 61033:1 61047:1 61052:1 61069:1 61221:1 61370:1 61491:1 61775:1 61783:1 61790:1 61794:1 61806:1 61821:1  |EV| 
-0.01 14796:1 32332:1 52596:1 53442:1 53550:1 53572:1 55774:1 56270:1 57878:1 61045:1 61053:1 61062:1 61215:1 61358:1 61497:1 61775:1 61783:1 61789:1 61794:1 61806:1  |EV| 
-0.01 7242:1 23313:1 33218:1 55357:1 56270:1 57878:1 61045:1 61053:1 61069:1 61232:1 61359:1 61497:1 61775:1 61783:1 61789:1 61794:1 61806:1  |EV| 
0.02969398285255144 13514:1 30945:1 51110:1 53436:1 53442:1 53444:1 53784:1 55143:1 55348:1 56270:1 61045:1 61053:1 61066:1 61201:1 61367:1 61497:1 61775:1 61783:1 61790:1 61794:1 61806:1 61821:1  |EV| 
-0.01 1123:1 16639:1 34444:1 53438:1 53442:1 53444:1 53628:1 53749:1 55378:1 56270:1 61045:1 61053:1 61066:1 61201:1 61367:1 61497:1 61775:1 61785:1 61790:1 61794:1 61805:1 61821:1  |EV| 
-0.01 8197:1 24399:1 43719:1 53433:1 53436:1 53438:1 53442:1 53446:1 53447:1 53525:1 53540:1 53628:1 53630:1 53886:1 54027:1 54090:1 54119:1 54122:1 54711:1 54712:1 54713:1 54720:1 54721:1 54722:1 54723:1 54724:1 54725:1 54726:1 55731:1 56270:1 61046:1 61053:1 61058:1 61201:1 61342:1 61545:1 61775:1 61783:1 61790:1 61794:1 61806:1 61821:1  |EV| 
-0.01 4012:1 19947:1 38249:1 53431:1 53438:1 53442:1 53459:1 53469:1 53506:1 53649:1 54240:1 54241:1 54242:1 54243:1 54244:1 55607:1 56270:1 61045:1 61053:1 61092:1 61201:1 61362:1 61517:1 61775:1 61785:1 61790:1 61794:1 61806:1 61821:1  |EV| 
-0.0037006429681358966 14649:1 32175:1 52442:1 53442:1 53469:1 53509:1 53588:1 55636:1 56270:1 57898:1 61045:1 61053:1 61066:1 61201:1 61367:1 61497:1 61775:1 61783:1 61790:1 61794:1 61806:1 61817:1 61818:1  |EV| 
-0.01 4222:1 19938:1 38240:1 53433:1 53436:1 53442:1 53475:1 53576:1 53628:1 53819:1 54140:1 54246:1 54288:1 54302:1 54303:1 55708:1 56270:1 61044:1 61053:1 61091:1 61226:1 61353:1 61515:1 61775:1 61783:1 61790:1 61794:1 61806:1 61821:1  |EV| 
-0.01 167:1 15598:1 33218:1 55343:1 56270:1 57878:1 61045:1 61053:1 61069:1 61232:1 61359:1 61497:1 61775:1 61783:1 61789:1 61793:1 61794:1 61806:1  |EV| 
-0.01 4986:1 20791:1 39278:1 53459:1 54318:1 55645:1 56270:1 61045:1 61053:1 61062:1 61232:1 61364:1 61497:1 61775:1 61783:1 61789:1 61794:1 61806:1  |EV| 
-0.01 1399:1 16924:1 34786:1 53684:1 53733:1 55480:1 56270:1 57878:1 61045:1 61053:1 61059:1 61215:1 61364:1 61497:1 61775:1 61783:1 61789:1 61794:1 61806:1 61815:1  |EV| 
-0.01 4956:1 20986:1 39465:1 53436:1 53446:1 53459:1 54212:1 54318:1 54397:1 54398:1 55419:1 56270:1 57879:1 61049:1 61053:1 61088:1 61221:1 61368:1 61499:1 61775:1 61783:1 61790:1 61794:1 61815:1 61821:1  |EV| 
-0.01 767:1 16256:1 33218:1 55430:1 56270:1 56408:1 57923:1 58508:1 59199:1 61045:1 61053:1 61069:1 61232:1 61359:1 61497:1 61775:1 61783:1 61789:1 61794:1 61806:1 61816:1  |EV| 
0.025439580266353085 4327:1 20079:1 38405:1 53442:1 53475:1 53628:1 53819:1 54288:1 55708:1 56270:1 57878:1 61045:1 61053:1 61069:1 61223:1 61353:1 61497:1 61775:1 61783:1 61790:1 61794:1 61806:1 61821:1  |EV| 
-0.01 2801:1 18457:1 36616:1 53433:1 53436:1 53442:1 53444:1 53464:1 55354:1 56270:1 56623:1 58008:1 58514:1 59441:1 61047:1 61052:1 61069:1 61226:1 61355:1 61491:1 61775:1 61783:1 61790:1 61794:1 61806:1 61821:1  |EV| 
-0.01 1873:1 17424:1 35365:1 53436:1 53442:1 53459:1 53466:1 53469:1 53630:1 53720:1 53767:1 53874:1 53880:1 53881:1 53883:1 53884:1 55535:1 55536:1 56270:1 57878:1 61036:1 61045:1 61053:1 61069:1 61252:1 61362:1 61520:1 61775:1 61783:1 61790:1 61794:1 61806:1 61821:1  |EV| 
-0.01 2106:1 17701:1 35744:1 53436:1 53442:1 53459:1 53466:1 53469:1 53617:1 53630:1 53709:1 53720:1 53874:1 53880:1 53881:1 55531:1 56270:1 61047:1 61052:1 61055:1 61238:1 61347:1 61527:1 61775:1 61783:1 61790:1 61794:1 61806:1 61821:1  |EV| 
-0.01 811:1 16300:1 34098:1 53433:1 53442:1 53444:1 53447:1 53628:1 53692:1 53693:1 53712:1 53717:1 53718:1 53732:1 55438:1 56270:1 57878:1 61045:1 61053:1 61069:1 61200:1 61396:1 61520:1 61775:1 61783:1 61790:1 61794:1 61806:1 61821:1  |EV| 
-0.01 2532:1 18180:1 36313:1 53431:1 53433:1 53442:1 53446:1 53918:1 53997:1 55570:1 56270:1 61044:1 61053:1 61077:1 61230:1 61345:1 61493:1 61775:1 61783:1 61790:1 61793:1 61794:1 61806:1 61815:1 61818:1 61821:1  |EV| 
-0.01 11770:1 28976:1 48684:1 53433:1 53442:1 53466:1 53722:1 54935:1 55391:1 56270:1 58308:1 61045:1 61053:1 61062:1 61220:1 61367:1 61497:1 61775:1 61785:1 61789:1 61794:1 61821:1  |EV| 
-0.01 3084:1 18747:1 33416:1 53442:1 55628:1 56270:1 57919:1 61045:1 61053:1 61069:1 61215:1 61345:1 61497:1 61775:1 61784:1 61790:1 61794:1 61821:1  |EV| 
-0.01 2416:1 18062:1 42906:1 53515:1 53656:1 54663:1 54664:1 55420:1 56270:1 57878:1 61045:1 61053:1 61069:1 61214:1 61366:1 61497:1 61775:1 61783:1 61789:1 61794:1 61806:1  |EV| 
-0.00812408659389381 1152:1 16669:1 34674:1 53675:1 53676:1 53731:1 53785:1 53790:1 55398:1 56270:1 61045:1 61053:1 61086:1 61215:1 61367:1 61497:1 61775:1 61783:1 61789:1 61794:1 61806:1  |EV| 
-0.01 7927:1 24102:1 43036:1 53438:1 53442:1 53518:1 53546:1 54463:1 54703:1 54704:1 55899:1 56270:1 61045:1 61053:1 61066:1 61214:1 61372:1 61497:1 61775:1 61784:1 61789:1 61794:1 61821:1  |EV| 
-0.01 2478:1 18124:1 36258:1 53428:1 53431:1 53433:1 53442:1 53446:1 53447:1 53902:1 53918:1 53988:1 53989:1 55570:1 56270:1 61046:1 61053:1 61103:1 61228:1 61354:1 61490:1 61775:1 61783:1 61790:1 61794:1 61806:1 61815:1 61818:1 61821:1  |EV| 
-0.01 1095:1 16611:1 34412:1 53436:1 53438:1 53718:1 53759:1 53773:1 55479:1 56270:1 56457:1 57965:1 58431:1 59255:1 61046:1 61053:1 61065:1 61220:1 61354:1 61507:1 61775:1 61783:1 61790:1 61794:1 61811:1 61821:1  |EV| 
-0.01 811:1 16300:1 34818:1 53433:1 53438:1 55438:1 56270:1 57878:1 61047:1 61052:1 61069:1 61210:1 61350:1 61491:1 61775:1 61783:1 61790:1 61794:1 61806:1 61821:1  |EV| 
-0.0030530411262674807 11619:1 28809:1 48749:1 53459:1 53474:1 53475:1 53562:1 53589:1 53615:1 54687:1 54966:1 56064:1 56270:1 61045:1 61053:1 61068:1 61201:1 61391:1 61508:1 61775:1 61783:1 61790:1 61794:1 61806:1 61815:1 61818:1  |EV| 
-0.01 8050:1 24233:1 43274:1 53438:1 53442:1 53447:1 53459:1 53506:1 53518:1 53550:1 53574:1 53588:1 53651:1 54024:1 54619:1 54648:1 54649:1 55405:1 55884:1 56270:1 61047:1 61052:1 61067:1 61237:1 61390:1 61505:1 61775:1 61783:1 61790:1 61794:1 61806:1 61818:1 61821:1  |EV| 
-0.01 14089:1 31566:1 51811:1 53431:1 53451:1 53551:1 53755:1 55935:1 56270:1 57878:1 61045:1 61053:1 61059:1 61220:1 61366:1 61497:1 61775:1 61783:1 61790:1 61793:1 61794:1 61806:1 61818:1  |EV| 
-0.01 7261:1 23334:1 42141:1 53433:1 53435:1 53442:1 53470:1 53480:1 53554:1 53698:1 54436:1 54596:1 55348:1 56270:1 61045:1 61053:1 61080:1 61201:1 61352:1 61508:1 61775:1 61783:1 61790:1 61794:1 61821:1  |EV| 
-0.01 6708:1 22736:1 41473:1 53431:1 53442:1 55348:1 56270:1 57878:1 61045:1 61053:1 61069:1 61201:1 61364:1 61497:1 61775:1 61783:1 61790:1 61794:1 61806:1  |EV| 
-0.01 13982:1 31441:1 51692:1 53474:1 53516:1 53819:1 53942:1 54277:1 55424:1 56270:1 57878:1 61045:1 61053:1 61069:1 61222:1 61367:1 61497:1 61775:1 61783:1 61790:1 61793:1 61794:1 61806:1  |EV| 
-0.01 11691:1 29260:1 49115:1 53442:1 53634:1 53684:1 54974:1 55552:1 56270:1 57878:1 61045:1 61053:1 61059:1 61220:1 61366:1 61497:1 61775:1 61783:1 61790:1 61794:1 61806:1 61815:1  |EV| 
-0.01 15201:1 32755:1 53072:1 53433:1 53450:1 53466:1 53575:1 53588:1 53736:1 53757:1 54024:1 55310:1 55312:1 55313:1 56261:1 56270:1 61048:1 61053:1 61060:1 61200:1 61364:1 61529:1 61775:1 61783:1 61789:1 61794:1 61806:1 61821:1  |EV| 
-0.01 1077:1 16594:1 34391:1 53433:1 53436:1 55463:1 56270:1 61046:1 61053:1 61076:1 61215:1 61347:1 61507:1 61775:1 61783:1 61789:1 61794:1 61821:1  |EV| 
-0.01 4231:1 19949:1 38251:1 53431:1 53438:1 53560:1 53864:1 53921:1 54253:1 54254:1 54255:1 54257:1 55400:1 56270:1 61044:1 61053:1 61102:1 61210:1 61367:1 61515:1 61775:1 61783:1 61790:1 61794:1 61806:1 61821:1  |EV| 
-0.01 2782:1 18439:1 36595:1 53431:1 53433:1 53442:1 53446:1 53447:1 54025:1 55581:1 56270:1 57936:1 61049:1 61053:1 61078:1 61206:1 61368:1 61499:1 61775:1 61783:1 61790:1 61794:1 61806:1 61821:1  |EV| 
-0.01 8685:1 25042:1 44162:1 53430:1 53433:1 53436:1 53466:1 53472:1 53474:1 53528:1 53601:1 53654:1 53720:1 53724:1 54070:1 54080:1 54159:1 54751:1 54753:1 54754:1 54755:1 54760:1 54766:1 55771:1 56270:1 61048:1 61053:1 61096:1 61253:1 61359:1 61540:1 61775:1 61783:1 61791:1 61794:1 61806:1 61821:1  |EV| 
-0.01 6328:1 22348:1 41064:1 53433:1 53436:1 53438:1 53447:1 53540:1 53628:1 54482:1 54483:1 55607:1 56270:1 57878:1 61045:1 61053:1 61069:1 61228:1 61348:1 61508:1 61775:1 61783:1 61790:1 61794:1 61803:1 61806:1 61818:1 61821:1  |EV| 
-0.01 12982:1 30370:1 50369:1 53433:1 53503:1 53628:1 55064:1 56130:1 56270:1 61045:1 61053:1 61062:1 61201:1 61366:1 61497:1 61775:1 61785:1 61790:1 61794:1 61810:1 61821:1  |EV| 
-0.01 7263:1 24117:1 43061:1 53459:1 53518:1 54706:1 55424:1 56270:1 57878:1 61045:1 61053:1 61069:1 61220:1 61358:1 61497:1 61775:1 61783:1 61790:1 61794:1 61806:1 61813:1  |EV| 
-0.01 8371:1 24667:1 43773:1 53442:1 53551:1 55920:1 56270:1 57878:1 61045:1 61053:1 61069:1 61201:1 61364:1 61497:1 61775:1 61783:1 61790:1 61794:1 61806:1 61815:1  |EV| 
-0.01 8774:1 25144:1 44262:1 53874:1 54784:1 55960:1 56270:1 57878:1 61045:1 61053:1 61069:1 61201:1 61364:1 61497:1 61775:1 61783:1 61788:1 61794:1 61806:1 61813:1  |EV| 
-0.01 1193:1 16712:1 34523:1 53431:1 53438:1 53442:1 53767:1 53795:1 53796:1 55490:1 56270:1 56472:1 57970:1 58431:1 59263:1 61046:1 61053:1 61084:1 61223:1 61347:1 61507:1 61775:1 61783:1 61789:1 61794:1 61811:1 61821:1  |EV| 
-0.01 1222:1 16742:1 34561:1 53431:1 53442:1 53766:1 55376:1 56270:1 56478:1 57883:1 57944:1 58546:1 59267:1 61027:1 61046:1 61053:1 61070:1 61201:1 61347:1 61507:1 61775:1 61784:1 61790:1 61794:1 61808:1 61813:1 61821:1  |EV| 
-0.01 2563:1 18213:1 36347:1 53433:1 53438:1 53442:1 53445:1 53572:1 53767:1 54041:1 54042:1 55357:1 56270:1 61045:1 61053:1 61077:1 61215:1 61348:1 61508:1 61775:1 61783:1 61789:1 61794:1 61821:1  |EV| 
-0.01 14145:1 31627:1 51870:1 53431:1 53551:1 55376:1 56270:1 57883:1 61046:1 61053:1 61076:1 61215:1 61347:1 61507:1 61775:1 61784:1 61790:1 61793:1 61794:1 61808:1 61813:1 61818:1 61821:1  |EV| 
-0.01 13001:1 30390:1 50391:1 53433:1 53436:1 53503:1 53538:1 53588:1 53628:1 53707:1 53886:1 54035:1 54373:1 54799:1 55064:1 56130:1 56270:1 61044:1 61053:1 61091:1 61211:1 61372:1 61515:1 61775:1 61783:1 61790:1 61794:1 61806:1 61821:1  |EV| 
-0.01 4929:1 20724:1 39212:1 54215:1 54402:1 55699:1 55752:1 56270:1 57878:1 61036:1 61045:1 61053:1 61069:1 61201:1 61364:1 61497:1 61775:1 61783:1 61791:1 61793:1 61794:1 61798:1 61806:1  |EV| 
-0.01 2554:1 22083:1 40754:1 53436:1 53474:1 53684:1 54011:1 54012:1 54450:1 55450:1 56270:1 57878:1 61045:1 61053:1 61069:1 61223:1 61353:1 61497:1 61775:1 61783:1 61791:1 61794:1 61806:1 61820:1  |EV| 
-0.01 1733:1 17267:1 53264:1 53444:1 53476:1 55337:1 55345:1 56270:1 57878:1 61045:1 61053:1 61069:1 61220:1 61358:1 61497:1 61775:1 61783:1 61790:1 61794:1 61806:1 61818:1  |EV| 
-0.01 1440:1 19383:1 37609:1 53695:1 54208:1 55687:1 56270:1 57878:1 61045:1 61053:1 61069:1 61201:1 61364:1 61497:1 61775:1 61783:1 61790:1 61794:1 61806:1 61815:1 61818:1  |EV| 
-0.007612806849009824 4088:1 19786:1 38063:1 53516:1 53628:1 53720:1 55516:1 56270:1 57878:1 61045:1 61053:1 61069:1 61220:1 61358:1 61497:1 61775:1 61783:1 61791:1 61794:1 61806:1 61820:1  |EV| 
-0.01 14470:1 31992:1 52230:1 53431:1 53435:1 53459:1 53568:1 53685:1 53700:1 53877:1 53894:1 54374:1 55243:1 56219:1 56270:1 61045:1 61053:1 61055:1 61215:1 61344:1 61517:1 61775:1 61783:1 61790:1 61794:1 61821:1  |EV| 
-0.01 9371:1 26149:1 45371:1 53433:1 53442:1 53444:1 53459:1 53547:1 53631:1 53931:1 53940:1 54749:1 54832:1 55654:1 56270:1 61047:1 61052:1 61062:1 61236:1 61356:1 61492:1 61775:1 61783:1 61789:1 61794:1 61806:1 61821:1  |EV| 
-0.01 9379:1 26100:1 45296:1 53433:1 53436:1 53442:1 53459:1 53562:1 53720:1 53901:1 53940:1 54136:1 54277:1 54732:1 54829:1 54830:1 54831:1 55654:1 56270:1 61045:1 61053:1 61066:1 61208:1 61362:1 61520:1 61775:1 61783:1 61789:1 61794:1 61806:1 61821:1  |EV| 
-0.01 9762:1 27068:1 46439:1 53433:1 53436:1 53459:1 53631:1 53634:1 53768:1 54791:1 56015:1 56270:1 61044:1 61053:1 61080:1 61206:1 61366:1 61493:1 61775:1 61783:1 61789:1 61794:1 61806:1 61816:1 61821:1  |EV| 
-0.01 6288:1 22306:1 41009:1 53433:1 53436:1 53438:1 53540:1 53628:1 54482:1 54483:1 55607:1 56270:1 57952:1 61048:1 61053:1 61076:1 61228:1 61358:1 61494:1 61775:1 61783:1 61790:1 61794:1 61806:1 61818:1 61821:1  |EV| 
-0.01 1353:1 23303:1 33416:1 53442:1 55378:1 56270:1 57878:1 61045:1 61053:1 61069:1 61215:1 61345:1 61497:1 61775:1 61783:1 61790:1 61794:1 61806:1  |EV| 
-0.01 8791:1 25163:1 44280:1 53433:1 53436:1 53444:1 53546:1 53550:1 53617:1 53925:1 54049:1 54055:1 54088:1 54420:1 54796:1 55364:1 56270:1 61045:1 61053:1 61082:1 61223:1 61344:1 61508:1 61775:1 61783:1 61791:1 61794:1 61821:1  |EV| 
-0.01 10417:1 27209:1 33218:1 56018:1 56270:1 57878:1 61045:1 61053:1 61069:1 61232:1 61359:1 61497:1 61775:1 61783:1 61790:1 61794:1 61806:1 61817:1  |EV| 
-0.01 2415:1 18061:1 33218:1 55567:1 56270:1 58005:1 61045:1 61053:1 61069:1 61232:1 61359:1 61497:1 61775:1 61783:1 61790:1 61794:1 61806:1 61817:1  |EV| 
-0.01 2673:1 18324:1 51933:1 53442:1 53451:1 55573:1 56270:1 57878:1 61045:1 61053:1 61059:1 61215:1 61364:1 61497:1 61775:1 61783:1 61791:1 61794:1 61806:1 61820:1  |EV| 
-0.01 860:1 16505:1 34259:1 53433:1 53447:1 53602:1 53660:1 53729:1 55463:1 56270:1 57878:1 61047:1 61052:1 61069:1 61226:1 61355:1 61491:1 61775:1 61783:1 61789:1 61794:1 61806:1 61821:1  |EV| 
-0.01 2756:1 18414:1 36569:1 53431:1 53433:1 53442:1 53446:1 53447:1 53918:1 54025:1 55581:1 56270:1 57878:1 61047:1 61052:1 61069:1 61212:1 61368:1 61491:1 61775:1 61783:1 61790:1 61793:1 61794:1 61806:1 61821:1  |EV| 
-0.01 10191:1 26858:1 46730:1 53433:1 53436:1 53442:1 53469:1 53515:1 53556:1 53609:1 53631:1 53634:1 53664:1 53692:1 53720:1 53754:1 53785:1 53864:1 53930:1 53942:1 53976:1 54151:1 54413:1 54867:1 54872:1 55406:1 56270:1 61045:1 61053:1 61054:1 61201:1 61346:1 61487:1 61775:1 61783:1 61790:1 61794:1 61806:1 61821:1  |EV| 
-0.01 5086:1 20923:1 39406:1 53436:1 53438:1 53442:1 53446:1 53459:1 53637:1 53864:1 54212:1 54392:1 54393:1 54394:1 54395:1 54396:1 54397:1 55419:1 56270:1 58092:1 61046:1 61053:1 61074:1 61248:1 61374:1 61509:1 61775:1 61783:1 61790:1 61794:1 61806:1 61815:1 61821:1  |EV| 
-0.01 4665:1 24273:1 43595:1 53433:1 53438:1 53442:1 53540:1 53628:1 53630:1 53886:1 54027:1 54090:1 54122:1 54720:1 54721:1 54722:1 54723:1 54724:1 54725:1 55731:1 56270:1 61047:1 61052:1 61090:1 61225:1 61347:1 61527:1 61775:1 61783:1 61790:1 61794:1 61806:1 61821:1  |EV| 
-0.01 10019:1 26656:1 45959:1 53438:1 53442:1 53474:1 54277:1 54466:1 54582:1 55594:1 55999:1 56011:1 56270:1 61036:1 61045:1 61053:1 61066:1 61214:1 61372:1 61497:1 61775:1 61783:1 61790:1 61794:1 61807:1 61821:1  |EV| 
-0.01 9143:1 25618:1 44737:1 53442:1 53459:1 53476:1 54450:1 54800:1 55981:1 56270:1 61045:1 61053:1 61067:1 61232:1 61367:1 61497:1 61775:1 61785:1 61788:1 61794:1 61810:1 61813:1 61821:1  |EV| 
-0.01 14865:1 32407:1 52672:1 53436:1 53444:1 53459:1 55280:1 56233:1 56270:1 61045:1 61053:1 61066:1 61215:1 61366:1 61497:1 61775:1 61784:1 61790:1 61794:1 61807:1 61821:1  |EV| 
-0.01 11786:1 28993:1 48715:1 53433:1 53442:1 53466:1 53722:1 54935:1 54995:1 55391:1 56270:1 57887:1 61045:1 61053:1 61086:1 61220:1 61372:1 61497:1 61775:1 61784:1 61789:1 61794:1 61808:1 61821:1  |EV| 
-0.01 2957:1 18618:1 36776:1 53431:1 53442:1 53480:1 54075:1 55618:1 56270:1 56516:1 57884:1 58558:1 59497:1 61045:1 61053:1 61059:1 61220:1 61366:1 61497:1 61775:1 61783:1 61788:1 61794:1 61806:1  |EV| 
-0.01 12593:1 29988:1 49952:1 53433:1 53435:1 53442:1 53449:1 53459:1 53467:1 53480:1 53515:1 53545:1 53554:1 53573:1 53628:1 53707:1 54126:1 54324:1 55037:1 55948:1 56270:1 57878:1 61045:1 61053:1 61069:1 61242:1 61383:1 61520:1 61775:1 61783:1 61790:1 61794:1 61806:1 61821:1  |EV| 
-0.01 2289:1 17925:1 36027:1 53431:1 53433:1 53436:1 53438:1 53442:1 53444:1 53450:1 53451:1 53459:1 53468:1 53550:1 53575:1 53588:1 53635:1 53672:1 53769:1 53862:1 53863:1 53864:1 53865:1 53866:1 53867:1 53868:1 53871:1 53878:1 53879:1 55528:1 55529:1 56270:1 61033:1 61045:1 61053:1 61072:1 61201:1 61395:1 61513:1 61775:1 61783:1 61790:1 61794:1 61806:1 61821:1  |EV| 
-0.01 1807:1 17345:1 35275:1 53433:1 53438:1 53617:1 53869:1 53870:1 53872:1 53873:1 55345:1 56270:1 61046:1 61053:1 61104:1 61232:1 61356:1 61490:1 61775:1 61783:1 61790:1 61794:1 61806:1 61821:1  |EV| 
-0.01 3972:1 19902:1 38410:1 53431:1 53433:1 53438:1 53442:1 53457:1 53459:1 53469:1 53474:1 53506:1 53575:1 53649:1 53662:1 53785:1 54239:1 54240:1 54241:1 54242:1 54243:1 54244:1 55607:1 56270:1 61045:1 61053:1 61073:1 61201:1 61397:1 61487:1 61775:1 61783:1 61790:1 61794:1 61806:1 61821:1  |EV| 
-0.01 12567:1 29976:1 49940:1 53433:1 53435:1 53438:1 53442:1 53449:1 53459:1 53467:1 53480:1 53515:1 53529:1 53545:1 53554:1 53573:1 53628:1 54126:1 54324:1 55036:1 55037:1 56109:1 56110:1 56270:1 61033:1 61036:1 61045:1 61053:1 61094:1 61222:1 61387:1 61516:1 61775:1 61783:1 61790:1 61794:1 61806:1 61821:1  |EV| 
-0.01 13649:1 31087:1 51284:1 53489:1 56152:1 56270:1 57878:1 61045:1 61053:1 61069:1 61215:1 61345:1 61497:1 61775:1 61783:1 61791:1 61794:1 61806:1 61815:1  |EV| 
-0.01 8934:1 25336:1 44454:1 53442:1 53617:1 53720:1 54766:1 55357:1 56270:1 61044:1 61053:1 61067:1 61210:1 61359:1 61493:1 61775:1 61783:1 61789:1 61794:1 61806:1 61821:1  |EV| 
-0.01 7965:1 24144:1 43111:1 53974:1 55894:1 56270:1 57878:1 61045:1 61053:1 61069:1 61215:1 61345:1 61497:1 61775:1 61783:1 61790:1 61793:1 61794:1 61806:1 61813:1 61818:1  |EV| 
-0.0039267391200238817 4526:1 24658:1 43763:1 53698:1 53784:1 55464:1 56270:1 57878:1 61045:1 61053:1 61059:1 61215:1 61364:1 61497:1 61775:1 61783:1 61789:1 61794:1 61806:1 61815:1 61816:1  |EV| 
-0.01 4876:1 20667:1 39155:1 53436:1 53551:1 53634:1 55750:1 56270:1 57906:1 61045:1 61053:1 61059:1 61201:1 61358:1 61497:1 61775:1 61783:1 61789:1 61794:1 61806:1 61815:1  |EV| 
-0.01 3160:1 18824:1 37032:1 53433:1 53438:1 53442:1 53672:1 54038:1 54112:1 54113:1 55628:1 56270:1 57912:1 61045:1 61053:1 61068:1 61215:1 61352:1 61508:1 61775:1 61784:1 61790:1 61794:1 61821:1  |EV| 
-0.01 7774:1 23935:1 42809:1 53431:1 53438:1 53442:1 53459:1 53474:1 53518:1 53546:1 53617:1 53619:1 53649:1 53794:1 53819:1 54060:1 54463:1 54685:1 54704:1 54705:1 55899:1 56270:1 57199:1 57996:1 58820:1 60111:1 61045:1 61053:1 61083:1 61223:1 61394:1 61516:1 61775:1 61782:1 61789:1 61794:1 61803:1 61821:1  |EV| 
-0.01 7864:1 24032:1 42938:1 53431:1 53438:1 53442:1 53459:1 53474:1 53518:1 53546:1 53617:1 53619:1 53649:1 53794:1 53819:1 54060:1 54463:1 54685:1 54703:1 54704:1 55899:1 56270:1 57203:1 58200:1 58820:1 60111:1 61045:1 61053:1 61090:1 61214:1 61394:1 61516:1 61775:1 61782:1 61789:1 61794:1 61803:1 61821:1  |EV| 
-0.01 3111:1 18774:1 36956:1 53433:1 53438:1 53442:1 53672:1 54038:1 54113:1 55628:1 56270:1 61045:1 61053:1 61077:1 61215:1 61348:1 61508:1 61775:1 61784:1 61790:1 61794:1 61821:1  |EV| 
-0.01 14358:1 31879:1 52128:1 53431:1 53438:1 53442:1 53628:1 53640:1 53828:1 54766:1 55222:1 55223:1 55224:1 56201:1 56270:1 61045:1 61053:1 61077:1 61220:1 61352:1 61508:1 61775:1 61783:1 61790:1 61794:1 61806:1  |EV| 
-0.01 7824:1 28828:1 48680:1 53469:1 54966:1 55420:1 56270:1 57878:1 61045:1 61053:1 61069:1 61201:1 61364:1 61497:1 61775:1 61783:1 61789:1 61794:1 61806:1 61816:1  |EV| 
-0.0066390553910391269 739:1 16218:1 33930:1 53469:1 53609:1 55406:1 56270:1 57878:1 61045:1 61053:1 61069:1 61201:1 61364:1 61497:1 61775:1 61783:1 61789:1 61794:1 61806:1 61817:1  |EV| 
-0.01 14989:1 32543:1 52832:1 53515:1 55285:1 56242:1 56270:1 57878:1 61045:1 61053:1 61069:1 61201:1 61364:1 61497:1 61775:1 61783:1 61790:1 61793:1 61794:1 61806:1 61818:1  |EV| 
-0.01 1399:1 32258:1 34629:1 53436:1 55480:1 56270:1 57878:1 61045:1 61053:1 61069:1 61215:1 61345:1 61497:1 61775:1 61783:1 61789:1 61793:1 61794:1 61806:1 61815:1  |EV| 
-0.01 12222:1 29487:1 33416:1 53442:1 56053:1 56270:1 57878:1 61045:1 61053:1 61069:1 61215:1 61345:1 61497:1 61775:1 61783:1 61789:1 61794:1 61806:1  |EV| 
-0.01 7600:1 23740:1 42566:1 53431:1 53436:1 53438:1 53442:1 53459:1 53472:1 53506:1 53518:1 53528:1 53550:1 53560:1 53574:1 53588:1 53625:1 53651:1 53926:1 53935:1 53959:1 54024:1 54300:1 54343:1 54619:1 54648:1 54649:1 54650:1 54651:1 54652:1 54653:1 54654:1 54655:1 55405:1 55884:1 56270:1 61047:1 61052:1 61101:1 61265:1 61380:1 61669:1 61775:1 61783:1 61790:1 61794:1 61806:1 61818:1 61821:1  |EV| 
-0.01 1801:1 17339:1 35269:1 53436:1 53442:1 53459:1 53466:1 53469:1 53630:1 53767:1 53874:1 53880:1 53881:1 53883:1 53884:1 55535:1 55536:1 56270:1 56295:1 56534:1 57883:1 58453:1 58558:1 59348:1 59349:1 61036:1 61048:1 61053:1 61084:1 61252:1 61366:1 61506:1 61775:1 61785:1 61790:1 61794:1 61806:1 61810:1 61821:1  |EV| 
-0.01 4788:1 20576:1 39035:1 53431:1 53433:1 53438:1 53442:1 53444:1 53451:1 53457:1 53459:1 53651:1 53764:1 53896:1 54179:1 54370:1 54371:1 54372:1 54373:1 54374:1 55663:1 56270:1 61044:1 61053:1 61061:1 61206:1 61351:1 61489:1 61775:1 61783:1 61790:1 61794:1 61806:1 61821:1  |EV| 
-0.01 6367:1 22388:1 41107:1 53442:1 53444:1 53469:1 53489:1 53503:1 53518:1 53535:1 53628:1 53906:1 54511:1 54512:1 54513:1 55803:1 56270:1 61046:1 61053:1 61108:1 61222:1 61368:1 61490:1 61775:1 61785:1 61790:1 61794:1 61810:1 61821:1  |EV| 
-0.01 4771:1 20559:1 39007:1 53431:1 53433:1 53438:1 53442:1 53444:1 53451:1 53476:1 53651:1 53764:1 53870:1 53896:1 54179:1 54370:1 54371:1 54372:1 54373:1 54374:1 54376:1 55663:1 56270:1 61048:1 61053:1 61065:1 61202:1 61351:1 61555:1 61775:1 61783:1 61790:1 61794:1 61806:1 61821:1  |EV| 
-0.01 4536:1 20301:1 38665:1 53439:1 54348:1 54360:1 55733:1 56270:1 57878:1 61045:1 61053:1 61059:1 61201:1 61358:1 61497:1 61775:1 61783:1 61789:1 61794:1 61806:1 61815:1  |EV| 
-0.01 15288:1 32850:1 42359:1 53435:1 55344:1 56270:1 57878:1 61017:1 61045:1 61053:1 61069:1 61215:1 61364:1 61497:1 61775:1 61783:1 61789:1 61794:1 61806:1  |EV| 
-0.0068140452183600448 744:1 16224:1 33937:1 53625:1 53626:1 55429:1 56270:1 57878:1 61045:1 61053:1 61069:1 61201:1 61364:1 61497:1 61775:1 61783:1 61791:1 61794:1 61806:1 61818:1 61819:1  |EV| 
-0.01 9166:1 25644:1 34629:1 53436:1 55966:1 56270:1 57878:1 61045:1 61053:1 61069:1 61215:1 61345:1 61497:1 61775:1 61783:1 61791:1 61794:1 61806:1 61820:1  |EV| 
-0.01 11621:1 28811:1 33218:1 56069:1 56270:1 57878:1 61045:1 61053:1 61069:1 61232:1 61359:1 61497:1 61775:1 61783:1 61791:1 61793:1 61794:1 61806:1 61817:1  |EV| 
-0.01 11661:1 28855:1 48537:1 53433:1 53442:1 53444:1 53466:1 53681:1 53695:1 53722:1 53931:1 54143:1 54935:1 54995:1 55391:1 56270:1 58120:1 61045:1 61053:1 61092:1 61220:1 61386:1 61517:1 61775:1 61785:1 61789:1 61794:1 61803:1 61821:1  |EV| 
-0.01 15214:1 32768:1 53084:1 53433:1 53450:1 53466:1 53575:1 53594:1 53757:1 54024:1 55310:1 55312:1 55313:1 56261:1 56270:1 61045:1 61053:1 61080:1 61201:1 61352:1 61508:1 61775:1 61783:1 61789:1 61794:1 61805:1 61821:1  |EV| 
-0.01 2648:1 18297:1 36440:1 53433:1 53436:1 53442:1 53444:1 53464:1 53508:1 53551:1 53684:1 53995:1 54013:1 54026:1 55354:1 56270:1 61046:1 61053:1 61056:1 61201:1 61390:1 61511:1 61775:1 61782:1 61790:1 61794:1 61807:1 61821:1  |EV| 
-0.01 14099:1 31577:1 51821:1 53433:1 53438:1 53442:1 53451:1 53457:1 53466:1 53489:1 53551:1 53588:1 53709:1 55203:1 55204:1 55376:1 56270:1 57983:1 61048:1 61053:1 61060:1 61200:1 61364:1 61529:1 61775:1 61783:1 61790:1 61794:1 61806:1 61813:1 61818:1 61821:1  |EV| 
-0.01 7261:1 23340:1 42243:1 53442:1 55348:1 56270:1 56766:1 58070:1 58444:1 59545:1 61048:1 61053:1 61088:1 61201:1 61359:1 61494:1 61775:1 61783:1 61790:1 61794:1 61821:1  |EV| 
-0.01 2385:1 18031:1 36146:1 53431:1 53438:1 53442:1 53710:1 53797:1 53976:1 53977:1 53978:1 53979:1 55352:1 56270:1 61045:1 61053:1 61067:1 61223:1 61391:1 61508:1 61775:1 61783:1 61790:1 61794:1 61806:1 61813:1 61818:1  |EV| 
-0.01 942:1 24983:1 44103:1 53444:1 53541:1 53710:1 53722:1 53738:1 54043:1 54297:1 54623:1 54750:1 55767:1 56270:1 61045:1 61053:1 61066:1 61223:1 61392:1 61508:1 61775:1 61783:1 61790:1 61794:1 61806:1 61818:1  |EV| 
-0.01 2518:1 18165:1 36298:1 53428:1 53431:1 53433:1 53438:1 53442:1 53446:1 53447:1 53902:1 53918:1 53988:1 54025:1 54027:1 55581:1 56270:1 61046:1 61053:1 61108:1 61222:1 61368:1 61490:1 61775:1 61783:1 61790:1 61794:1 61806:1 61821:1  |EV| 
-0.01 8836:1 25218:1 36456:1 53431:1 55350:1 55969:1 56270:1 57878:1 61038:1 61045:1 61053:1 61069:1 61215:1 61345:1 61497:1 61775:1 61783:1 61790:1 61794:1 61806:1 61815:1  |EV| 
-0.01 13286:1 30695:1 36456:1 53431:1 56132:1 56270:1 57878:1 61045:1 61053:1 61069:1 61215:1 61345:1 61497:1 61775:1 61783:1 61790:1 61794:1 61806:1 61815:1  |EV| 
-0.01 6710:1 22738:1 51072:1 53433:1 53436:1 53437:1 53438:1 53442:1 53444:1 53469:1 53477:1 53698:1 53784:1 54013:1 55143:1 55144:1 55348:1 56270:1 61044:1 61053:1 61083:1 61224:1 61367:1 61515:1 61775:1 61783:1 61790:1 61794:1 61806:1 61821:1  |EV| 
-0.01 6246:1 22263:1 40954:1 53436:1 53444:1 53628:1 54093:1 54483:1 54484:1 54485:1 55607:1 56270:1 57883:1 61046:1 61053:1 61084:1 61220:1 61374:1 61507:1 61775:1 61783:1 61790:1 61794:1 61803:1 61818:1 61821:1  |EV| 
-0.01 1808:1 17346:1 35837:1 53433:1 53444:1 53672:1 53865:1 53866:1 55528:1 55529:1 56270:1 61033:1 61045:1 61053:1 61066:1 61201:1 61367:1 61497:1 61775:1 61783:1 61790:1 61794:1 61821:1  |EV| 
-0.01 8999:1 25427:1 44547:1 53433:1 53435:1 53436:1 53438:1 53447:1 53448:1 55357:1 56270:1 57901:1 61046:1 61053:1 61065:1 61232:1 61370:1 61507:1 61775:1 61783:1 61789:1 61794:1 61806:1 61821:1  |EV| 
-0.01 811:1 16300:1 34018:1 53433:1 53442:1 53444:1 53628:1 53692:1 53693:1 53712:1 53717:1 53718:1 53732:1 55438:1 56270:1 57935:1 61048:1 61053:1 61084:1 61200:1 61358:1 61506:1 61775:1 61783:1 61790:1 61794:1 61806:1 61821:1  |EV| 
-0.01 14486:1 32009:1 52246:1 53459:1 53697:1 54080:1 56221:1 56270:1 57878:1 61045:1 61053:1 61069:1 61220:1 61358:1 61497:1 61775:1 61783:1 61790:1 61794:1 61806:1 61819:1  |EV| 
-0.01 15191:1 32745:1 53056:1 53459:1 53536:1 55299:1 55410:1 56270:1 57898:1 61045:1 61053:1 61069:1 61220:1 61358:1 61497:1 61775:1 61783:1 61790:1 61793:1 61794:1 61806:1 61818:1  |EV| 
-0.01 913:1 16409:1 34145:1 53442:1 53446:1 53556:1 53649:1 55345:1 55444:1 56270:1 57878:1 61036:1 61037:1 61045:1 61053:1 61069:1 61214:1 61366:1 61497:1 61775:1 61783:1 61790:1 61794:1 61806:1  |EV| 
-0.01 7913:1 24086:1 43032:1 53589:1 53733:1 54130:1 55890:1 56270:1 57878:1 61047:1 61052:1 61062:1 61230:1 61347:1 61491:1 61775:1 61783:1 61791:1 61794:1 61806:1  |EV| 
-0.01 13889:1 31341:1 51564:1 53442:1 53508:1 53670:1 56175:1 56270:1 57878:1 61045:1 61053:1 61069:1 61220:1 61358:1 61497:1 61775:1 61783:1 61790:1 61794:1 61806:1 61815:1  |EV| 
-0.01 9652:1 26214:1 45457:1 53433:1 53436:1 53562:1 53901:1 54277:1 54732:1 54830:1 54831:1 55654:1 56270:1 61045:1 61053:1 61082:1 61201:1 61348:1 61508:1 61775:1 61785:1 61789:1 61794:1 61805:1 61821:1  |EV| 
-0.01 3780:1 19463:1 37701:1 53433:1 53438:1 53444:1 53487:1 53860:1 55490:1 56270:1 61045:1 61053:1 61082:1 61232:1 61353:1 61497:1 61775:1 61783:1 61789:1 61793:1 61794:1 61803:1 61821:1  |EV| 
-0.01 14343:1 31864:1 44856:1 53438:1 53442:1 55594:1 56270:1 61045:1 61053:1 61059:1 61215:1 61364:1 61497:1 61775:1 61785:1 61790:1 61794:1 61796:1 61808:1 61809:1 61818:1 61821:1  |EV| 
-0.01 14785:1 32317:1 52580:1 53428:1 53435:1 53451:1 53466:1 53632:1 54049:1 55219:1 55283:1 55284:1 55288:1 55289:1 56240:1 56270:1 61045:1 61053:1 61068:1 61201:1 61391:1 61508:1 61775:1 61783:1 61791:1 61794:1 61806:1 61813:1 61820:1  |EV| 
-0.01 1444:1 16973:1 34865:1 53431:1 53705:1 53706:1 55345:1 55444:1 56270:1 61033:1 61045:1 61053:1 61062:1 61215:1 61358:1 61497:1 61775:1 61783:1 61790:1 61793:1 61794:1 61806:1 61818:1  |EV| 
-0.01 12565:1 29881:1 49830:1 53435:1 53628:1 55948:1 56270:1 57883:1 61048:1 61053:1 61071:1 61220:1 61359:1 61494:1 61775:1 61783:1 61790:1 61794:1 61821:1  |EV| 
-0.01 8609:1 24930:1 44048:1 53430:1 53433:1 53436:1 53438:1 53466:1 53472:1 53474:1 53528:1 53601:1 53654:1 53720:1 53724:1 54070:1 54080:1 54159:1 54751:1 54752:1 54753:1 54754:1 54755:1 54760:1 54766:1 55946:1 56270:1 61048:1 61053:1 61096:1 61254:1 61364:1 61540:1 61775:1 61783:1 61790:1 61794:1 61806:1 61821:1  |EV| 
-0.01 11897:1 29109:1 48872:1 53442:1 53459:1 53589:1 53720:1 53792:1 53847:1 53940:1 54202:1 54215:1 56059:1 56270:1 61045:1 61053:1 61080:1 61201:1 61352:1 61508:1 61775:1 61783:1 61790:1 61794:1 61806:1  |EV| 
-0.01 4081:1 19779:1 33416:1 53442:1 55702:1 56270:1 57878:1 61045:1 61053:1 61069:1 61215:1 61345:1 61497:1 61775:1 61783:1 61789:1 61794:1 61806:1 61816:1  |EV| 
-0.01 14062:1 31536:1 33416:1 53442:1 56188:1 56270:1 57878:1 61045:1 61053:1 61069:1 61215:1 61345:1 61497:1 61775:1 61783:1 61789:1 61794:1 61806:1 61816:1  |EV| 
-0.01 9838:1 26441:1 45810:1 53433:1 53436:1 53442:1 53469:1 53515:1 53556:1 53609:1 53631:1 53634:1 53664:1 53720:1 53754:1 53785:1 53864:1 53930:1 53942:1 53976:1 54151:1 54413:1 54867:1 54872:1 54873:1 55406:1 56270:1 57878:1 61045:1 61053:1 61069:1 61263:1 61346:1 61524:1 61775:1 61783:1 61790:1 61794:1 61806:1 61821:1  |EV| 
-0.01 10506:1 29247:1 33416:1 53442:1 55654:1 56270:1 57878:1 61045:1 61053:1 61069:1 61215:1 61345:1 61497:1 61775:1 61783:1 61789:1 61794:1 61806:1 61816:1  |EV| 
-0.01 1782:1 17319:1 35245:1 53433:1 53438:1 53617:1 53869:1 53870:1 53872:1 53873:1 55345:1 56270:1 57878:1 61047:1 61052:1 61069:1 61246:1 61356:1 61492:1 61775:1 61783:1 61790:1 61794:1 61806:1 61821:1  |EV| 
-0.01 4950:1 20748:1 39235:1 53436:1 53446:1 53459:1 54212:1 54318:1 54398:1 55419:1 56270:1 58687:1 59760:1 61047:1 61052:1 61082:1 61221:1 61357:1 61491:1 61775:1 61784:1 61790:1 61794:1 61815:1 61821:1  |EV| 
-0.01 5181:1 21035:1 39632:1 53433:1 53436:1 53446:1 53710:1 55419:1 56270:1 61046:1 61053:1 61078:1 61201:1 61350:1 61507:1 61775:1 61783:1 61790:1 61794:1 61818:1 61821:1  |EV| 
-0.0063458568400451667 8567:1 24880:1 43994:1 53442:1 53444:1 54757:1 55934:1 56270:1 56384:1 56716:1 57905:1 58048:1 58433:1 58556:1 60207:1 60208:1 61024:1 61027:1 61046:1 61053:1 61070:1 61201:1 61347:1 61507:1 61775:1 61784:1 61790:1 61794:1 61808:1 61813:1 61821:1  |EV| 
-0.01 9079:1 25534:1 44654:1 53442:1 53474:1 54143:1 55981:1 56270:1 57883:1 61046:1 61053:1 61070:1 61232:1 61354:1 61507:1 61775:1 61785:1 61788:1 61794:1 61808:1 61810:1 61813:1 61821:1  |EV| 
-0.01 4619:1 20393:1 38783:1 53433:1 53666:1 54334:1 55423:1 56270:1 61045:1 61053:1 61059:1 61201:1 61358:1 61497:1 61775:1 61784:1 61790:1 61794:1 61808:1 61809:1 61821:1  |EV| 
-0.0077676899964446927 2485:1 18131:1 36265:1 53444:1 53508:1 53995:1 55574:1 56270:1 58008:1 61045:1 61053:1 61069:1 61220:1 61358:1 61497:1 61775:1 61783:1 61788:1 61794:1 61806:1 61817:1  |EV| 
-0.01 3123:1 18787:1 36973:1 53476:1 53625:1 54035:1 55619:1 56270:1 57878:1 61045:1 61053:1 61069:1 61220:1 61358:1 61497:1 61775:1 61783:1 61790:1 61794:1 61806:1 61818:1 61819:1  |EV| 
-0.01 7830:1 23995:1 42891:1 53442:1 53474:1 53518:1 53546:1 53757:1 53819:1 53974:1 54656:1 55420:1 56270:1 57878:1 61045:1 61053:1 61069:1 61228:1 61348:1 61508:1 61775:1 61783:1 61789:1 61793:1 61794:1 61806:1 61816:1  |EV| 
-0.01 6255:1 22272:1 40965:1 53444:1 53508:1 53764:1 55790:1 56270:1 57898:1 61045:1 61053:1 61069:1 61220:1 61358:1 61497:1 61775:1 61783:1 61790:1 61794:1 61806:1 61817:1  |EV| 
-0.01 2513:1 18160:1 36293:1 53428:1 53431:1 53433:1 53438:1 53442:1 53446:1 53447:1 53902:1 53918:1 53988:1 53989:1 54027:1 55570:1 56270:1 61046:1 61053:1 61108:1 61248:1 61354:1 61509:1 61775:1 61783:1 61790:1 61794:1 61806:1 61815:1 61818:1 61821:1  |EV| 
-0.01 8515:1 24822:1 43936:1 53433:1 53438:1 53444:1 53459:1 53469:1 53503:1 53541:1 53609:1 53707:1 53738:1 53796:1 54043:1 54060:1 54297:1 54301:1 54442:1 54541:1 54623:1 54750:1 54761:1 55933:1 56270:1 61048:1 61053:1 61108:1 61250:1 61353:1 61510:1 61775:1 61783:1 61790:1 61794:1 61806:1 61818:1 61821:1  |EV| 
-0.01 4880:1 20671:1 39159:1 53438:1 53442:1 53459:1 53637:1 54392:1 54393:1 54394:1 54395:1 54396:1 55419:1 56270:1 57922:1 61048:1 61053:1 61057:1 61248:1 61353:1 61506:1 61775:1 61783:1 61790:1 61794:1 61806:1 61815:1 61821:1  |EV| 
-0.01 9266:1 25760:1 44895:1 53433:1 53436:1 53442:1 53562:1 53720:1 53901:1 54136:1 54277:1 54732:1 54831:1 55654:1 56270:1 61048:1 61053:1 61065:1 61208:1 61364:1 61506:1 61775:1 61783:1 61789:1 61794:1 61806:1 61821:1  |EV| 
-0.01 14091:1 31568:1 35484:1 53451:1 53466:1 56193:1 56270:1 57878:1 61047:1 61052:1 61059:1 61210:1 61347:1 61491:1 61775:1 61783:1 61788:1 61793:1 61794:1 61806:1  |EV| 
-0.01 9201:1 25689:1 44813:1 53472:1 54840:1 55987:1 56270:1 57945:1 61045:1 61053:1 61069:1 61201:1 61364:1 61497:1 61775:1 61783:1 61790:1 61794:1 61806:1 61818:1  |EV| 
-0.01 3519:1 19193:1 37805:1 53431:1 54182:1 55529:1 55667:1 56270:1 61036:1 61045:1 61053:1 61059:1 61215:1 61364:1 61497:1 61775:1 61783:1 61790:1 61793:1 61794:1 61806:1 61818:1  |EV| 
-0.0095467524384221583 9220:1 25709:1 45108:1 53459:1 53695:1 53940:1 55991:1 56270:1 61045:1 61053:1 61062:1 61215:1 61358:1 61497:1 61775:1 61783:1 61790:1 61794:1 61806:1 61818:1 61819:1  |EV| 
-0.01 8661:1 24996:1 44115:1 53442:1 53528:1 53935:1 54757:1 55934:1 56270:1 61045:1 61053:1 61062:1 61201:1 61366:1 61497:1 61775:1 61784:1 61790:1 61794:1 61813:1 61821:1  |EV| 
-0.01 3036:1 31289:1 51620:1 53433:1 53436:1 53459:1 54318:1 55169:1 55348:1 56270:1 61045:1 61053:1 61062:1 61220:1 61367:1 61497:1 61775:1 61783:1 61790:1 61794:1 61806:1  |EV| 
-0.01 12597:1 29915:1 49867:1 53436:1 53447:1 53466:1 53486:1 53607:1 55949:1 56270:1 57568:1 58337:1 58938:1 60624:1 61046:1 61053:1 61079:1 61215:1 61374:1 61507:1 61775:1 61783:1 61789:1 61794:1 61805:1 61821:1  |EV| 
-0.01 12815:1 30182:1 50161:1 53442:1 53628:1 53704:1 53864:1 56126:1 56270:1 61046:1 61053:1 61078:1 61215:1 61354:1 61507:1 61775:1 61784:1 61791:1 61794:1 61805:1 61821:1  |EV| 
-0.01 13552:1 30983:1 51153:1 53433:1 53442:1 53472:1 53474:1 53498:1 53561:1 53675:1 53877:1 55145:1 55146:1 56160:1 56270:1 57698:1 58368:1 58975:1 60749:1 61046:1 61053:1 61064:1 61220:1 61365:1 61490:1 61775:1 61783:1 61790:1 61794:1 61821:1  |EV| 
-0.01 7861:1 24029:1 42935:1 53518:1 55900:1 56270:1 57878:1 61047:1 61052:1 61069:1 61206:1 61347:1 61491:1 61775:1 61783:1 61789:1 61793:1 61794:1 61806:1  |EV| 
-0.01 9379:1 25894:1 45051:1 53433:1 53436:1 53442:1 53444:1 53547:1 53562:1 53631:1 53720:1 53901:1 53931:1 54136:1 54277:1 54732:1 54749:1 54830:1 54831:1 54832:1 55654:1 56270:1 61046:1 61053:1 61096:1 61208:1 61356:1 61514:1 61775:1 61783:1 61789:1 61794:1 61806:1 61821:1  |EV| 
-0.01 10132:1 26794:1 46862:1 53442:1 53459:1 53700:1 55552:1 56270:1 61045:1 61053:1 61062:1 61215:1 61358:1 61497:1 61775:1 61783:1 61790:1 61794:1 61806:1 61813:1  |EV| 
-0.0081594442837234406 4083:1 19781:1 38057:1 53431:1 53442:1 53800:1 54191:1 54290:1 54300:1 55546:1 56270:1 61045:1 61053:1 61059:1 61222:1 61353:1 61497:1 61775:1 61783:1 61790:1 61794:1 61806:1 61813:1  |EV| 
-0.0091413456797641273 7154:1 23211:1 36456:1 53431:1 55530:1 55840:1 56270:1 57878:1 61038:1 61045:1 61053:1 61069:1 61215:1 61345:1 61497:1 61775:1 61783:1 61790:1 61794:1 61806:1 61813:1 61815:1  |EV| 
-0.0011946368215030236 14498:1 32021:1 52258:1 53459:1 53615:1 53628:1 55442:1 56223:1 56270:1 61033:1 61036:1 61045:1 61053:1 61062:1 61215:1 61358:1 61497:1 61775:1 61783:1 61790:1 61794:1 61806:1 61818:1 61819:1  |EV| 
-0.01 1749:1 17285:1 35205:1 53431:1 53437:1 53897:1 53898:1 55532:1 56270:1 57878:1 61045:1 61053:1 61069:1 61214:1 61366:1 61497:1 61775:1 61783:1 61790:1 61794:1 61806:1 61818:1  |EV| 
-0.01 13223:1 30594:1 35484:1 53451:1 53466:1 55597:1 56270:1 57018:1 57878:1 58438:1 60706:1 61047:1 61052:1 61059:1 61210:1 61347:1 61491:1 61775:1 61783:1 61791:1 61794:1 61806:1 61818:1  |EV| 
-0.01 12482:1 29795:1 49741:1 53449:1 53628:1 55038:1 55528:1 55529:1 56270:1 57879:1 61033:1 61036:1 61037:1 61048:1 61053:1 61057:1 61214:1 61359:1 61494:1 61775:1 61785:1 61790:1 61794:1 61810:1 61821:1  |EV| 
-0.01 7620:1 23763:1 42594:1 53442:1 53506:1 53518:1 53651:1 54024:1 54648:1 55405:1 55884:1 56270:1 58433:1 60093:1 61047:1 61052:1 61062:1 61221:1 61374:1 61491:1 61775:1 61784:1 61790:1 61794:1 61808:1 61818:1 61821:1  |EV| 
-0.01 9609:1 26165:1 49542:1 55010:1 55419:1 56270:1 57878:1 61047:1 61052:1 61069:1 61206:1 61347:1 61491:1 61775:1 61783:1 61790:1 61793:1 61794:1 61806:1 61818:1  |EV| 
-0.0068184850772807053 3282:1 18949:1 37157:1 53446:1 53620:1 55644:1 56270:1 57878:1 61047:1 61052:1 61059:1 61210:1 61347:1 61491:1 61775:1 61783:1 61790:1 61793:1 61794:1 61806:1 61818:1  |EV| 
-0.01 4162:1 20945:1 39425:1 53436:1 53556:1 53819:1 54076:1 54215:1 54264:1 54402:1 54415:1 55607:1 56270:1 61045:1 61053:1 61080:1 61201:1 61352:1 61508:1 61775:1 61783:1 61790:1 61794:1 61806:1 61815:1  |EV| 
-0.01 9115:1 25583:1 42144:1 53459:1 55981:1 56270:1 56408:1 57923:1 58508:1 60268:1 61045:1 61053:1 61059:1 61232:1 61345:1 61497:1 61775:1 61785:1 61788:1 61794:1 61809:1 61813:1 61821:1  |EV| 
-0.0051960036320205516 15260:1 32889:1 53297:1 53436:1 53459:1 53913:1 54128:1 55325:1 55341:1 56270:1 61045:1 61053:1 61086:1 61201:1 61353:1 61497:1 61775:1 61783:1 61789:1 61794:1 61806:1 61816:1  |EV| 
-0.0092598178867997552 2481:1 18150:1 36283:1 53444:1 53459:1 53508:1 53894:1 53995:1 53996:1 55357:1 56270:1 58008:1 61045:1 61053:1 61069:1 61209:1 61372:1 61497:1 61775:1 61783:1 61789:1 61794:1 61806:1  |EV| 
-0.01 4024:1 19718:1 38359:1 53431:1 53433:1 53438:1 53442:1 53457:1 53459:1 53469:1 53474:1 53506:1 53575:1 53649:1 53662:1 53785:1 54239:1 54241:1 54242:1 54243:1 54244:1 54245:1 55607:1 56270:1 61045:1 61053:1 61080:1 61252:1 61397:1 61522:1 61775:1 61783:1 61790:1 61794:1 61806:1 61821:1  |EV| 
-0.0037080609317799223 1892:1 20449:1 38857:1 53632:1 54308:1 55342:1 56270:1 57878:1 61047:1 61052:1 61059:1 61210:1 61347:1 61491:1 61775:1 61783:1 61789:1 61794:1 61806:1  |EV| 
-0.01 855:1 16518:1 34272:1 53660:1 55465:1 56270:1 57878:1 61047:1 61052:1 61069:1 61206:1 61347:1 61491:1 61775:1 61783:1 61789:1 61794:1 61806:1  |EV| 
-0.01 7604:1 23744:1 42570:1 53518:1 53546:1 53757:1 55556:1 56270:1 57878:1 61047:1 61052:1 61069:1 61230:1 61354:1 61491:1 61775:1 61783:1 61791:1 61794:1 61806:1 61818:1  |EV| 
-0.01 6165:1 30297:1 50310:1 53433:1 53442:1 53446:1 53487:1 53556:1 53628:1 53649:1 53720:1 54425:1 54442:1 55072:1 55073:1 55074:1 55636:1 56270:1 61046:1 61053:1 61087:1 61201:1 61371:1 61511:1 61775:1 61784:1 61790:1 61794:1 61821:1  |EV| 
-0.01 9741:1 26312:1 46570:1 53442:1 53469:1 53515:1 53609:1 53634:1 53785:1 53930:1 53942:1 53976:1 54867:1 54873:1 55406:1 56270:1 57936:1 61048:1 61053:1 61084:1 61200:1 61358:1 61506:1 61775:1 61783:1 61790:1 61793:1 61794:1 61806:1 61821:1  |EV| 
-0.01 12770:1 30134:1 50115:1 53433:1 53449:1 53628:1 53751:1 55038:1 55528:1 55529:1 56270:1 61033:1 61036:1 61037:1 61045:1 61053:1 61059:1 61214:1 61367:1 61497:1 61775:1 61784:1 61790:1 61794:1 61808:1 61821:1  |EV| 
-0.01 9718:1 26286:1 45555:1 53442:1 53444:1 53628:1 54179:1 56005:1 56270:1 57878:1 61045:1 61053:1 61069:1 61214:1 61366:1 61497:1 61775:1 61783:1 61790:1 61794:1 61806:1  |EV| 
-0.0049940130066045627 7892:1 24064:1 42979:1 53442:1 54442:1 55422:1 56270:1 57878:1 61045:1 61053:1 61059:1 61215:1 61364:1 61497:1 61775:1 61783:1 61790:1 61794:1 61806:1 61815:1  |EV| 
-2.5417774448513329e-005 8884:1 25276:1 44394:1 53433:1 53436:1 53438:1 53442:1 53446:1 53447:1 53474:1 53476:1 53550:1 53551:1 53566:1 53567:1 53625:1 53771:1 53831:1 53959:1 54089:1 54125:1 54191:1 54812:1 54813:1 54814:1 54815:1 54816:1 54817:1 54818:1 54824:1 55636:1 56270:1 61046:1 61053:1 61107:1 61220:1 61342:1 61547:1 61775:1 61783:1 61790:1 61794:1 61821:1  |EV| 
-0.0074414117711426595 3642:1 19321:1 37603:1 53442:1 53459:1 53467:1 55577:1 55578:1 56270:1 57878:1 61036:1 61045:1 61053:1 61059:1 61201:1 61358:1 61497:1 61775:1 61783:1 61790:1 61794:1 61806:1 61815:1  |EV| 
-0.0022909874129054208 2554:1 18203:1 36337:1 53433:1 53474:1 53516:1 53684:1 53862:1 54011:1 54012:1 55403:1 56270:1 57878:1 61045:1 61053:1 61069:1 61228:1 61348:1 61508:1 61775:1 61783:1 61791:1 61794:1 61806:1 61820:1  |EV| 
-0.0032955748260238304 7631:1 24063:1 43009:1 53436:1 53442:1 53451:1 53459:1 53515:1 53517:1 53639:1 54674:1 54675:1 54688:1 55891:1 56270:1 61045:1 61053:1 61067:1 61223:1 61391:1 61508:1 61775:1 61783:1 61790:1 61794:1 61806:1  |EV| 
-0.0063619029424275509 4988:1 20794:1 33071:1 55703:1 56270:1 57879:1 61049:1 61053:1 61088:1 61213:1 61347:1 61499:1 61775:1 61783:1 61789:1 61794:1 61806:1  |EV| 
-0.0031163790507767785 2455:1 18101:1 36231:1 53431:1 53438:1 53442:1 53710:1 53797:1 53976:1 53978:1 53979:1 55352:1 56270:1 61045:1 61053:1 61066:1 61223:1 61392:1 61508:1 61775:1 61783:1 61790:1 61794:1 61806:1 61813:1 61818:1  |EV| 
-0.01 809:1 16298:1 34822:1 53442:1 53444:1 53691:1 55454:1 56270:1 57878:1 61045:1 61053:1 61069:1 61220:1 61358:1 61497:1 61775:1 61783:1 61790:1 61794:1 61806:1 61818:1  |EV| 
-0.0098849814596985251 4854:1 20643:1 39129:1 53431:1 53459:1 53472:1 53568:1 54093:1 54377:1 55381:1 56270:1 61045:1 61053:1 61067:1 61215:1 61353:1 61497:1 61775:1 61785:1 61790:1 61793:1 61794:1 61810:1 61818:1 61821:1  |EV| 
-0.0088195637922524345 9948:1 27149:1 46539:1 53436:1 54209:1 56007:1 56270:1 61045:1 61053:1 61059:1 61215:1 61364:1 61497:1 61775:1 61783:1 61791:1 61794:1 61806:1 61820:1  |EV| 
-0.01 3071:1 18733:1 39397:1 53436:1 53556:1 55348:1 56270:1 57878:1 61045:1 61053:1 61069:1 61201:1 61364:1 61497:1 61775:1 61783:1 61790:1 61794:1 61806:1 61815:1  |EV| 
-0.01 4211:1 19927:1 38228:1 54238:1 55406:1 56270:1 57878:1 61045:1 61053:1 61069:1 61215:1 61345:1 61497:1 61775:1 61783:1 61790:1 61794:1 61806:1 61815:1  |EV| 
-0.0039578357616706014 1080:1 30009:1 49976:1 53436:1 53466:1 53607:1 54780:1 55342:1 56270:1 57878:1 61045:1 61053:1 61069:1 61214:1 61366:1 61497:1 61775:1 61783:1 61789:1 61794:1 61806:1 61816:1  |EV| 
-0.01 8197:1 24486:1 43550:1 53433:1 53438:1 53442:1 53446:1 53447:1 53525:1 53540:1 53628:1 53630:1 53886:1 54090:1 54119:1 54122:1 54711:1 54712:1 54713:1 54720:1 54721:1 54722:1 54723:1 54724:1 54725:1 55731:1 56270:1 58225:1 61049:1 61053:1 61103:1 61236:1 61342:1 61560:1 61775:1 61783:1 61790:1 61794:1 61806:1 61821:1  |EV| 
-0.01 13643:1 31081:1 51278:1 53430:1 53433:1 53438:1 53442:1 53447:1 53474:1 53515:1 53545:1 54102:1 55133:1 55134:1 55145:1 56160:1 56270:1 61045:1 61053:1 61068:1 61220:1 61344:1 61508:1 61775:1 61783:1 61790:1 61794:1 61821:1  |EV| 
-0.008652774959669882 8062:1 24245:1 43290:1 53433:1 53438:1 53442:1 53446:1 53447:1 53525:1 53540:1 53628:1 53630:1 53886:1 54027:1 54090:1 54119:1 54122:1 54711:1 54712:1 54713:1 54720:1 54721:1 54722:1 54723:1 54724:1 54725:1 55731:1 56270:1 61047:1 61052:1 61101:1 61216:1 61347:1 61523:1 61775:1 61783:1 61790:1 61793:1 61794:1 61806:1 61821:1  |EV| 
-0.01 15201:1 32755:1 53065:1 53433:1 53438:1 53450:1 53459:1 53466:1 53575:1 53588:1 53594:1 53736:1 53757:1 53853:1 53877:1 54024:1 55310:1 55312:1 55313:1 56261:1 56270:1 61045:1 61053:1 61086:1 61200:1 61375:1 61520:1 61775:1 61783:1 61789:1 61794:1 61806:1 61821:1  |EV| 
-0.01 14401:1 31923:1 52169:1 53436:1 53438:1 53442:1 53550:1 53551:1 53631:1 54471:1 54679:1 55233:1 55594:1 56270:1 56883:1 57924:1 58457:1 60832:1 61046:1 61053:1 61104:1 61215:1 61368:1 61490:1 61775:1 61783:1 61790:1 61794:1 61796:1 61803:1 61818:1 61821:1  |EV| 
-0.01 12681:1 30018:1 49983:1 53433:1 53435:1 53467:1 53480:1 53554:1 53573:1 53628:1 55948:1 56270:1 56516:1 57884:1 58558:1 60630:1 61045:1 61053:1 61086:1 61220:1 61372:1 61497:1 61775:1 61783:1 61790:1 61794:1 61821:1  |EV| 
-0.01 1804:1 17342:1 35835:1 53433:1 53444:1 53672:1 53865:1 53866:1 53869:1 53870:1 55530:1 56270:1 61045:1 61053:1 61066:1 61222:1 61348:1 61508:1 61775:1 61783:1 61790:1 61794:1 61821:1  |EV| 
-0.01 958:1 16457:1 34202:1 53433:1 53436:1 53447:1 53568:1 53602:1 53654:1 53660:1 53729:1 55463:1 56270:1 61044:1 61053:1 61068:1 61226:1 61345:1 61493:1 61775:1 61783:1 61789:1 61794:1 61806:1 61821:1  |EV| 
-0.01 12594:1 29987:1 49950:1 53433:1 53435:1 53438:1 53442:1 53449:1 53459:1 53467:1 53480:1 53515:1 53545:1 53554:1 53573:1 53628:1 53707:1 54126:1 54324:1 55036:1 55037:1 56109:1 56110:1 56270:1 57878:1 61033:1 61036:1 61045:1 61053:1 61069:1 61231:1 61387:1 61522:1 61775:1 61783:1 61790:1 61794:1 61806:1 61821:1  |EV| 
-0.01 8751:1 25118:1 44237:1 53433:1 53436:1 53442:1 53444:1 53459:1 53546:1 53550:1 53617:1 53925:1 54049:1 54055:1 54088:1 54374:1 54420:1 54791:1 54792:1 54793:1 54794:1 54795:1 54796:1 55364:1 56270:1 61045:1 61053:1 61093:1 61223:1 61397:1 61516:1 61775:1 61783:1 61791:1 61794:1 61821:1  |EV| 
-0.01 14280:1 31785:1 52034:1 53447:1 53451:1 53466:1 53551:1 55376:1 56270:1 61045:1 61053:1 61066:1 61215:1 61366:1 61497:1 61775:1 61782:1 61790:1 61793:1 61794:1 61813:1 61818:1 61821:1  |EV| 
-0.01 12606:1 29925:1 49877:1 53438:1 53442:1 53444:1 54276:1 55378:1 56270:1 61046:1 61053:1 61078:1 61201:1 61350:1 61507:1 61775:1 61783:1 61790:1 61794:1 61821:1  |EV| 
-0.01 1820:1 17358:1 35290:1 53436:1 53442:1 53459:1 53469:1 53617:1 53630:1 53864:1 53874:1 53880:1 53881:1 55531:1 56270:1 57883:1 61049:1 61053:1 61084:1 61206:1 61343:1 61502:1 61775:1 61785:1 61790:1 61794:1 61806:1 61810:1 61821:1  |EV| 
-0.01 13011:1 30406:1 50411:1 53433:1 53436:1 53447:1 53503:1 53628:1 54373:1 54799:1 55064:1 56130:1 56270:1 61045:1 61053:1 61077:1 61201:1 61392:1 61508:1 61775:1 61784:1 61790:1 61794:1 61807:1 61821:1  |EV| 
-0.01 14576:1 32100:1 52410:1 53433:1 53617:1 53764:1 56224:1 56270:1 57775:1 58397:1 58994:1 60885:1 61046:1 61053:1 61070:1 61215:1 61350:1 61507:1 61775:1 61783:1 61790:1 61794:1 61818:1 61821:1  |EV| 
-0.01 9457:1 25976:1 45144:1 53433:1 53442:1 53444:1 53459:1 53547:1 53631:1 53864:1 53931:1 53940:1 54136:1 54277:1 54749:1 54831:1 54832:1 55654:1 56270:1 61044:1 61053:1 61093:1 61236:1 61364:1 61519:1 61775:1 61783:1 61789:1 61794:1 61806:1 61821:1  |EV| 
-0.01 4086:1 20032:1 38434:1 53442:1 53457:1 53474:1 55346:1 56270:1 57878:1 61045:1 61053:1 61059:1 61201:1 61358:1 61497:1 61775:1 61783:1 61791:1 61794:1 61806:1 61820:1  |EV| 
-0.01 811:1 16300:1 34058:1 53433:1 53438:1 53442:1 53444:1 53447:1 53628:1 53692:1 53693:1 53704:1 53712:1 53717:1 53718:1 53732:1 55438:1 56270:1 61044:1 61053:1 61075:1 61210:1 61396:1 61488:1 61775:1 61783:1 61790:1 61794:1 61806:1 61821:1  |EV| 
-0.01 3473:1 19147:1 37357:1 53431:1 53433:1 53438:1 53442:1 53444:1 53487:1 53636:1 53672:1 53695:1 53705:1 53724:1 53756:1 53860:1 54012:1 54171:1 54172:1 54173:1 54174:1 54175:1 54176:1 54177:1 54183:1 55490:1 56270:1 61045:1 61053:1 61072:1 61232:1 61407:1 61487:1 61775:1 61785:1 61789:1 61793:1 61794:1 61810:1 61821:1  |EV| 
-0.01 2265:1 17899:1 36002:1 53436:1 53442:1 53459:1 53466:1 53630:1 53720:1 53767:1 53881:1 53884:1 55535:1 55536:1 56270:1 61036:1 61045:1 61053:1 61082:1 61220:1 61392:1 61508:1 61775:1 61784:1 61790:1 61794:1 61807:1 61821:1  |EV| 
-0.01 2285:1 17921:1 36022:1 53431:1 53433:1 53436:1 53438:1 53442:1 53444:1 53450:1 53451:1 53459:1 53468:1 53550:1 53575:1 53588:1 53635:1 53769:1 53862:1 53863:1 53864:1 53865:1 53866:1 53867:1 53868:1 53871:1 53878:1 53879:1 55345:1 56270:1 61045:1 61053:1 61072:1 61232:1 61407:1 61487:1 61775:1 61783:1 61790:1 61794:1 61806:1 61821:1  |EV| 
-0.01 9570:1 26115:1 45324:1 53442:1 53469:1 54239:1 55986:1 56270:1 57878:1 61045:1 61053:1 61069:1 61220:1 61358:1 61497:1 61775:1 61783:1 61790:1 61794:1 61806:1  |EV| 
-0.01 9167:1 25645:1 44762:1 53436:1 53442:1 53476:1 54373:1 54450:1 55628:1 56270:1 57878:1 61045:1 61053:1 61069:1 61222:1 61367:1 61497:1 61775:1 61783:1 61791:1 61794:1 61806:1 61819:1  |EV| 
-0.01 874:1 16366:1 34101:1 53433:1 53447:1 53684:1 53733:1 53767:1 53768:1 55348:1 56270:1 61046:1 61053:1 61065:1 61215:1 61355:1 61507:1 61775:1 61783:1 61790:1 61794:1 61805:1 61821:1  |EV| 
-0.01 2521:1 18168:1 36300:1 53428:1 53431:1 53433:1 53438:1 53902:1 53918:1 53988:1 53989:1 54027:1 55570:1 56270:1 61048:1 61053:1 61065:1 61248:1 61345:1 61506:1 61775:1 61783:1 61790:1 61794:1 61806:1 61815:1 61818:1 61821:1  |EV| 
-0.01 876:1 16540:1 34302:1 53433:1 53436:1 53447:1 53729:1 55463:1 56270:1 61046:1 61053:1 61078:1 61215:1 61354:1 61507:1 61775:1 61783:1 61789:1 61794:1 61821:1  |EV| 
-0.01 127:1 15535:1 33147:1 53457:1 53469:1 55361:1 56270:1 57878:1 61045:1 61053:1 61059:1 61215:1 61364:1 61497:1 61775:1 61783:1 61790:1 61794:1 61806:1 61817:1  |EV| 
-0.0066548028574631539 905:1 30369:1 50368:1 53433:1 53438:1 53444:1 53449:1 53478:1 53506:1 53516:1 53575:1 53675:1 53676:1 53684:1 53744:1 54276:1 55065:1 55066:1 55067:1 55470:1 56270:1 61046:1 61053:1 61063:1 61215:1 61363:1 61528:1 61775:1 61783:1 61790:1 61794:1 61821:1  |EV| 
-0.01 14479:1 32002:1 52239:1 53436:1 53438:1 53439:1 53449:1 53550:1 53551:1 53695:1 55240:1 56216:1 56270:1 61045:1 61053:1 61067:1 61220:1 61348:1 61508:1 61775:1 61783:1 61789:1 61794:1 61806:1 61816:1  |EV| 
-0.0094664358915495274 761:1 16248:1 33965:1 53442:1 53463:1 53628:1 53634:1 53635:1 53638:1 55356:1 56270:1 57878:1 61045:1 61053:1 61069:1 61223:1 61353:1 61497:1 61775:1 61783:1 61789:1 61794:1 61806:1 61816:1  |EV| 
-0.01 111:1 22109:1 40785:1 53461:1 53710:1 55767:1 56270:1 57878:1 61045:1 61053:1 61069:1 61201:1 61364:1 61497:1 61775:1 61783:1 61790:1 61793:1 61794:1 61806:1 61815:1  |EV| 
-0.01 13310:1 30721:1 50857:1 53442:1 53476:1 55664:1 56270:1 57878:1 61045:1 61053:1 61069:1 61201:1 61364:1 61497:1 61775:1 61783:1 61790:1 61794:1 61806:1 61818:1 61819:1  |EV| 
-0.01 9202:1 25690:1 33218:1 55988:1 56270:1 57945:1 61045:1 61053:1 61069:1 61232:1 61359:1 61497:1 61775:1 61783:1 61790:1 61794:1 61806:1 61813:1 61817:1  |EV| 
-0.01 9866:1 26475:1 45768:1 53433:1 53438:1 53442:1 53459:1 53469:1 53472:1 53474:1 53517:1 53525:1 53528:1 53754:1 53890:1 53926:1 54147:1 54162:1 54277:1 54414:1 54466:1 54582:1 54855:1 54856:1 54857:1 54858:1 55594:1 55999:1 56011:1 56270:1 61036:1 61048:1 61053:1 61095:1 61251:1 61352:1 61552:1 61775:1 61783:1 61790:1 61794:1 61798:1 61806:1 61821:1  |EV| 
-0.01 2197:1 17820:1 35901:1 53436:1 53442:1 53459:1 53466:1 53469:1 53617:1 53630:1 53709:1 53864:1 53874:1 53880:1 53881:1 55531:1 56270:1 57884:1 61047:1 61052:1 61059:1 61238:1 61343:1 61505:1 61775:1 61785:1 61790:1 61794:1 61806:1 61810:1 61821:1  |EV| 
-0.0090888102249584626 8008:1 24189:1 43198:1 53431:1 53436:1 53438:1 53442:1 53447:1 53459:1 53472:1 53506:1 53518:1 53528:1 53550:1 53560:1 53574:1 53588:1 53625:1 53651:1 53926:1 53935:1 53959:1 54024:1 54300:1 54343:1 54619:1 54648:1 54649:1 54651:1 54652:1 54653:1 54654:1 54655:1 55405:1 55884:1 56270:1 61047:1 61052:1 61072:1 61265:1 61390:1 61669:1 61775:1 61783:1 61790:1 61794:1 61806:1 61818:1 61821:1  |EV| 
-0.01 12667:1 30001:1 49968:1 53438:1 53442:1 53444:1 53554:1 53976:1 54276:1 54374:1 55378:1 56270:1 61046:1 61053:1 61084:1 61201:1 61355:1 61507:1 61775:1 61783:1 61790:1 61794:1 61821:1  |EV| 
-0.01 4184:1 19892:1 38189:1 53431:1 53433:1 53436:1 53442:1 53474:1 53628:1 54279:1 54295:1 55607:1 56270:1 56617:1 58013:1 58514:1 59677:1 61046:1 61053:1 61064:1 61222:1 61355:1 61490:1 61775:1 61783:1 61790:1 61794:1 61808:1 61821:1  |EV| 
-0.01 8724:1 25086:1 33218:1 55957:1 56270:1 57878:1 61045:1 61053:1 61069:1 61232:1 61359:1 61497:1 61775:1 61783:1 61790:1 61794:1 61806:1 61815:1  |EV| 
-0.01 11424:1 28557:1 33218:1 56061:1 56270:1 57878:1 61045:1 61053:1 61069:1 61232:1 61359:1 61497:1 61775:1 61783:1 61790:1 61794:1 61806:1 61815:1  |EV| 
-0.01 4928:1 20723:1 39211:1 53442:1 54421:1 55556:1 56270:1 57878:1 61045:1 61053:1 61059:1 61215:1 61364:1 61497:1 61775:1 61783:1 61791:1 61793:1 61794:1 61806:1 61817:1  |EV| 
-0.01 14208:1 31702:1 33218:1 55935:1 56270:1 57878:1 61045:1 61053:1 61069:1 61232:1 61359:1 61497:1 61775:1 61783:1 61790:1 61794:1 61806:1 61815:1  |EV| 
-0.0072244539333882725 4947:1 20885:1 39369:1 54392:1 55740:1 56270:1 57878:1 61045:1 61053:1 61069:1 61215:1 61345:1 61497:1 61775:1 61783:1 61790:1 61794:1 61806:1 61819:1  |EV| 
-0.0032013153827600838 6483:1 22504:1 41231:1 53442:1 53444:1 53459:1 53469:1 53489:1 53503:1 53518:1 53535:1 53628:1 53819:1 53906:1 54511:1 54512:1 54513:1 55803:1 56270:1 61027:1 61046:1 61053:1 61098:1 61222:1 61390:1 61511:1 61775:1 61784:1 61790:1 61794:1 61805:1 61821:1  |EV| 
-0.0091946328005308789 7246:1 23317:1 42120:1 53433:1 53435:1 53442:1 53480:1 53554:1 53698:1 54436:1 54596:1 55348:1 56270:1 57080:1 58033:1 58771:1 59990:1 61045:1 61053:1 61077:1 61201:1 61392:1 61508:1 61775:1 61782:1 61790:1 61794:1 61803:1 61821:1  |EV| 
-0.01 6274:1 22292:1 40987:1 53433:1 53436:1 53438:1 53447:1 53628:1 54481:1 54482:1 54483:1 54486:1 55607:1 56270:1 61045:1 61053:1 61077:1 61220:1 61352:1 61508:1 61775:1 61783:1 61790:1 61794:1 61808:1 61818:1 61821:1  |EV| 
-0.01 811:1 16300:1 34805:1 53433:1 53438:1 53442:1 53444:1 53447:1 53628:1 53692:1 53693:1 53712:1 53717:1 53718:1 53732:1 55438:1 56270:1 57952:1 61046:1 61053:1 61098:1 61200:1 61350:1 61509:1 61775:1 61783:1 61790:1 61794:1 61806:1 61821:1  |EV| 
-0.01 14543:1 32067:1 33340:1 53442:1 53474:1 55373:1 56270:1 57878:1 61045:1 61053:1 61069:1 61201:1 61364:1 61497:1 61775:1 61783:1 61791:1 61794:1 61806:1 61820:1  |EV| 
-0.009412525592031859 4003:1 19696:1 38150:1 53442:1 54060:1 55450:1 56270:1 57878:1 61045:1 61053:1 61069:1 61201:1 61364:1 61497:1 61775:1 61783:1 61791:1 61794:1 61806:1 61816:1 61820:1  |EV| 
-0.01 2794:1 18313:1 36608:1 53442:1 53469:1 55577:1 55578:1 56270:1 61039:1 61045:1 61053:1 61069:1 61201:1 61364:1 61497:1 61775:1 61783:1 61790:1 61794:1 61806:1 61817:1  |EV| 
-0.0063180865213387331 8949:1 27603:1 34450:1 53442:1 53556:1 55636:1 56270:1 57878:1 61045:1 61053:1 61069:1 61201:1 61364:1 61497:1 61775:1 61783:1 61790:1 61794:1 61806:1 61813:1 61815:1  |EV| 
-0.0061107155133688241 9903:1 26517:1 45817:1 53442:1 54890:1 56020:1 56270:1 57878:1 61045:1 61053:1 61069:1 61201:1 61364:1 61497:1 61775:1 61783:1 61790:1 61794:1 61806:1 61813:1 61815:1  |EV| 
-0.01 7684:1 23835:1 42685:1 53438:1 53442:1 53518:1 53546:1 54463:1 54704:1 54705:1 55899:1 56270:1 61045:1 61053:1 61059:1 61223:1 61372:1 61497:1 61775:1 61784:1 61789:1 61794:1 61821:1  |EV| 
-0.01 15352:1 32929:1 53315:1 53435:1 53472:1 55314:1 56267:1 56270:1 57883:1 61049:1 61053:1 61057:1 61203:1 61374:1 61499:1 61775:1 61783:1 61790:1 61794:1 61813:1 61821:1  |EV| 
-0.01 3472:1 19146:1 37356:1 53431:1 53433:1 53436:1 53442:1 53451:1 53545:1 53636:1 53672:1 53695:1 53705:1 53724:1 53756:1 54012:1 54169:1 54170:1 54171:1 54172:1 54173:1 54174:1 54175:1 54176:1 54183:1 55668:1 56270:1 57878:1 61045:1 61053:1 61059:1 61233:1 61406:1 61524:1 61775:1 61783:1 61789:1 61794:1 61806:1 61813:1  |EV| 
-0.0079278306341362716 8499:1 24805:1 33074:1 53438:1 55771:1 56270:1 56291:1 57882:1 58431:1 60182:1 61046:1 61053:1 61057:1 61232:1 61347:1 61507:1 61775:1 61784:1 61791:1 61794:1 61811:1 61821:1  |EV| 
-0.0069763778713518455 9746:1 26321:1 45593:1 53433:1 53436:1 53575:1 53609:1 53617:1 53631:1 54658:1 54674:1 54874:1 56015:1 56270:1 57383:1 58265:1 58861:1 60320:1 61046:1 61053:1 61104:1 61215:1 61368:1 61490:1 61775:1 61783:1 61789:1 61794:1 61816:1 61821:1  |EV| 
