SVM-light Version V5.01-TK-1.2
0 # kernel type
3 # kernel parameter -d 
1 # kernel parameter -g 
1 # kernel parameter -s 
1 # kernel parameter -r 
empty# kernel parameter -u 
0.4 # kernel parameter -L 
1 # kernel parameter -T 
T # kernel parameter -C 
1 # kernel parameter -F 
0 # kernel parameter -S 
1.000000 # kernel parameter -D 
3 # kernel parameter -N 
S # kernel parameter -V 
S # kernel parameter -W 
61827 # highest feature index 
20967 # number of training documents 
622 # number of support vectors plus 1 
3.8991319 # threshold b, each following line is a SV (starting with alpha*y)
-0.10000000000000001 5182:1 31856:1 52111:1 53437:1 53444:1 53448:1 53634:1 53834:1 54920:1 55228:1 55229:1 55230:1 55425:1 56276:1 57884:1 61050:1 61059:1 61075:1 61210:1 61398:1 61526:1 61781:1 61789:1 61796:1 61800:1 61812:1 61821:1  |EV| 
0.10000000000000001 1875:1 17428:1 35371:1 53448:1 53465:1 53475:1 53880:1 53886:1 55540:1 56276:1 57884:1 61050:1 61059:1 61075:1 61228:1 61373:1 61503:1 61781:1 61789:1 61796:1 61800:1 61812:1 61821:1  |EV| 
-0.092152370406077266 9808:1 26408:1 50189:1 53437:1 53439:1 53448:1 53465:1 53475:1 53581:1 53773:1 53944:1 53948:1 54215:1 54283:1 54987:1 55052:1 55068:1 55069:1 55428:1 56276:1 61050:1 61059:1 61068:1 61258:1 61389:1 61526:1 61781:1 61789:1 61796:1 61800:1 61812:1 61821:1  |EV| 
-0.10000000000000001 8838:1 25222:1 44342:1 53448:1 53560:1 53562:1 53623:1 53726:1 54449:1 55642:1 56276:1 57884:1 61050:1 61059:1 61075:1 61215:1 61378:1 61503:1 61781:1 61789:1 61796:1 61800:1 61812:1 61821:1  |EV| 
0.10000000000000001 3339:1 19012:1 37222:1 53439:1 53444:1 53455:1 53522:1 53560:1 53594:1 54129:1 54130:1 54131:1 54132:1 54133:1 54134:1 54135:1 54136:1 54142:1 55558:1 56276:1 61050:1 61059:1 61096:1 61221:1 61393:1 61522:1 61781:1 61789:1 61796:1 61800:1 61812:1 61819:1 61821:1  |EV| 
0.012024993391978463 84:1 15479:1 33079:1 53455:1 53456:1 55346:1 56276:1 57884:1 61050:1 61059:1 61075:1 61207:1 61370:1 61503:1 61781:1 61789:1 61794:1 61799:1 61800:1 61812:1 61819:1 61821:1  |EV| 
0.043596815944047268 126:1 15536:1 33150:1 53463:1 53465:1 53475:1 53487:1 55366:1 56276:1 57884:1 61050:1 61059:1 61065:1 61226:1 61372:1 61503:1 61781:1 61789:1 61796:1 61800:1 61812:1 61821:1  |EV| 
0.07633531261043934 144:1 15650:1 33281:1 53453:1 53464:1 53472:1 53473:1 55363:1 56276:1 56324:1 57895:1 58472:1 59103:1 61050:1 61059:1 61092:1 61238:1 61372:1 61503:1 61781:1 61789:1 61795:1 61800:1 61812:1 61821:1  |EV| 
0.087669985965108374 210:1 15664:1 33296:1 53437:1 53441:1 53448:1 53450:1 53451:1 53476:1 53477:1 53478:1 55364:1 56276:1 61050:1 61059:1 61086:1 61238:1 61354:1 61514:1 61781:1 61789:1 61795:1 61799:1 61800:1 61812:1 61821:1  |EV| 
0.013680964625196645 236:1 15693:1 33222:1 55382:1 56276:1 57904:1 61050:1 61059:1 61075:1 61238:1 61365:1 61503:1 61781:1 61789:1 61796:1 61800:1 61812:1 61821:1  |EV| 
-0.02468699753483182 14992:1 32548:1 52839:1 53478:1 53521:1 55291:1 55292:1 55503:1 55872:1 56243:1 56244:1 56245:1 56276:1 57884:1 61038:1 61042:1 61050:1 61059:1 61075:1 61220:1 61372:1 61503:1 61781:1 61789:1 61796:1 61799:1 61800:1 61812:1  |EV| 
-0.10000000000000001 11694:1 29265:1 49122:1 53448:1 53640:1 53690:1 54980:1 55558:1 56276:1 57884:1 61050:1 61059:1 61065:1 61226:1 61372:1 61503:1 61781:1 61789:1 61796:1 61800:1 61812:1 61821:1  |EV| 
-0.040947490550558734 12296:1 29575:1 49516:1 53465:1 53478:1 53918:1 55038:1 56105:1 56276:1 57884:1 61050:1 61059:1 61075:1 61220:1 61372:1 61503:1 61781:1 61789:1 61796:1 61799:1 61800:1 61812:1 61824:1  |EV| 
-0.0024364773748339298 4312:1 20061:1 38388:1 53448:1 53475:1 54247:1 54248:1 55463:1 56276:1 57884:1 61050:1 61059:1 61075:1 61220:1 61372:1 61503:1 61781:1 61791:1 61796:1 61800:1 61812:1 61823:1  |EV| 
-0.040574892952033433 11624:1 28816:1 33222:1 56075:1 56276:1 57884:1 61050:1 61059:1 61075:1 61238:1 61365:1 61503:1 61781:1 61789:1 61797:1 61799:1 61800:1 61812:1 61823:1  |EV| 
0.090782601966933246 10993:1 27982:1 47535:1 53436:1 53437:1 53439:1 53442:1 53444:1 53445:1 53448:1 53454:1 53465:1 53467:1 53648:1 53660:1 53690:1 53730:1 54128:1 54449:1 54915:1 55603:1 56276:1 61050:1 61059:1 61106:1 61207:1 61383:1 61493:1 61781:1 61789:1 61797:1 61800:1 61812:1 61821:1  |EV| 
0.10000000000000001 11885:1 29298:1 49198:1 53434:1 53439:1 53442:1 53444:1 53448:1 53450:1 53475:1 53478:1 53524:1 53534:1 53724:1 53743:1 53808:1 54076:1 54165:1 54349:1 54982:1 54983:1 54984:1 54985:1 54986:1 54987:1 55402:1 56079:1 56080:1 56276:1 61038:1 61041:1 61051:1 61059:1 61113:1 61221:1 61348:1 61553:1 61781:1 61789:1 61796:1 61800:1 61812:1 61821:1  |EV| 
0.07376226792230442 13484:1 30909:1 51072:1 53434:1 53439:1 53442:1 53443:1 53444:1 53448:1 53450:1 53451:1 53475:1 53483:1 53704:1 53790:1 54019:1 55141:1 55149:1 55150:1 56162:1 56276:1 61050:1 61059:1 61089:1 61207:1 61381:1 61523:1 61781:1 61789:1 61796:1 61800:1 61812:1 61821:1  |EV| 
0.10000000000000001 562:1 16019:1 33707:1 53439:1 53442:1 53444:1 53448:1 53450:1 53454:1 53465:1 53467:1 53515:1 53542:1 53543:1 53544:1 53545:1 53546:1 53547:1 53548:1 53549:1 53550:1 53551:1 53552:1 53553:1 55388:1 56276:1 61050:1 61059:1 61118:1 61226:1 61412:1 61493:1 61781:1 61789:1 61796:1 61800:1 61812:1 61821:1  |EV| 
0.10000000000000001 812:1 27570:1 47060:1 53437:1 53439:1 53441:1 53442:1 53443:1 53444:1 53448:1 53450:1 53465:1 53471:1 53480:1 53488:1 53514:1 53521:1 53559:1 53566:1 53579:1 53594:1 53631:1 53696:1 53710:1 53790:1 53837:1 53868:1 53879:1 54041:1 54050:1 54051:1 54204:1 54205:1 54225:1 54226:1 54324:1 54378:1 54547:1 54564:1 54907:1 54908:1 54909:1 54910:1 54911:1 54912:1 54913:1 54914:1 54925:1 54926:1 54927:1 55500:1 56276:1 61050:1 61059:1 61199:1 61238:1 61484:1 61756:1 61781:1 61789:1 61796:1 61799:1 61800:1 61812:1 61821:1  |EV| 
-0.070402127114691862 10886:1 27831:1 47361:1 53437:1 53439:1 53441:1 53442:1 53443:1 53444:1 53448:1 53450:1 53465:1 53471:1 53480:1 53514:1 53521:1 53559:1 53566:1 53579:1 53594:1 53631:1 53696:1 53710:1 53790:1 53837:1 53868:1 53879:1 54041:1 54050:1 54051:1 54204:1 54205:1 54225:1 54226:1 54324:1 54378:1 54547:1 54564:1 54724:1 54907:1 54908:1 54909:1 54910:1 54911:1 54912:1 54913:1 54914:1 54925:1 54926:1 54927:1 55500:1 56276:1 61050:1 61059:1 61106:1 61265:1 61484:1 61711:1 61781:1 61789:1 61796:1 61799:1 61800:1 61812:1 61821:1  |EV| 
-0.02898451592335205 812:1 27466:1 46952:1 53437:1 53439:1 53441:1 53442:1 53443:1 53444:1 53448:1 53450:1 53465:1 53471:1 53480:1 53488:1 53514:1 53521:1 53559:1 53566:1 53579:1 53594:1 53631:1 53696:1 53790:1 53837:1 53868:1 53879:1 54041:1 54050:1 54051:1 54204:1 54205:1 54225:1 54226:1 54324:1 54378:1 54547:1 54564:1 54724:1 54907:1 54908:1 54909:1 54910:1 54911:1 54912:1 54913:1 54914:1 54925:1 54926:1 54927:1 55500:1 56276:1 61050:1 61059:1 61098:1 61293:1 61484:1 61749:1 61781:1 61789:1 61796:1 61799:1 61800:1 61812:1 61821:1  |EV| 
-0.046987676382027742 11885:1 29102:1 48861:1 53434:1 53439:1 53442:1 53444:1 53448:1 53450:1 53475:1 53478:1 53524:1 53534:1 53724:1 53743:1 53808:1 54076:1 54165:1 54982:1 54983:1 54984:1 54985:1 54986:1 54987:1 55402:1 56079:1 56080:1 56276:1 61038:1 61041:1 61054:1 61059:1 61071:1 61240:1 61348:1 61532:1 61781:1 61789:1 61796:1 61800:1 61812:1 61821:1  |EV| 
-0.0058260111124853464 12063:1 29318:1 49242:1 53434:1 53439:1 53442:1 53444:1 53448:1 53450:1 53475:1 53478:1 53524:1 53534:1 53724:1 53743:1 53808:1 54076:1 54165:1 54349:1 54982:1 54983:1 54984:1 54985:1 54986:1 54987:1 54995:1 54996:1 55402:1 56079:1 56080:1 56276:1 61038:1 61041:1 61052:1 61058:1 61072:1 61263:1 61348:1 61501:1 61781:1 61789:1 61796:1 61799:1 61800:1 61812:1 61821:1  |EV| 
-0.073745172270682002 520:1 15977:1 33649:1 53439:1 53442:1 53444:1 53448:1 53450:1 53454:1 53465:1 53467:1 53515:1 53542:1 53543:1 53544:1 53545:1 53547:1 53548:1 53549:1 53550:1 53551:1 53552:1 53553:1 53554:1 55388:1 56276:1 61050:1 61059:1 61098:1 61206:1 61412:1 61575:1 61781:1 61789:1 61796:1 61800:1 61812:1 61821:1  |EV| 
0.095897887516128044 2602:1 18252:1 36394:1 53444:1 53455:1 53514:1 54022:1 55593:1 56276:1 57884:1 61050:1 61059:1 61075:1 61220:1 61372:1 61503:1 61781:1 61789:1 61795:1 61799:1 61800:1 61812:1 61821:1 61824:1  |EV| 
-0.0045268979332391693 8653:1 24986:1 44107:1 53442:1 53453:1 53562:1 53968:1 54076:1 55381:1 56276:1 61050:1 61059:1 61072:1 61207:1 61373:1 61503:1 61781:1 61789:1 61796:1 61800:1 61821:1  |EV| 
0.095286289992896109 12446:1 29760:1 33222:1 55471:1 56276:1 57884:1 61050:1 61059:1 61075:1 61238:1 61365:1 61503:1 61781:1 61789:1 61795:1 61799:1 61800:1 61812:1 61821:1  |EV| 
-0.0026876268397050089 8952:1 25360:1 44480:1 53448:1 53562:1 53623:1 53726:1 55642:1 56276:1 61050:1 61059:1 61072:1 61207:1 61373:1 61503:1 61781:1 61789:1 61796:1 61800:1 61817:1 61821:1  |EV| 
0.10000000000000001 268:1 15725:1 33357:1 55374:1 56276:1 57884:1 61055:1 61059:1 61075:1 61219:1 61418:1 61499:1 61781:1 61791:1 61797:1 61799:1 61800:1 61811:1 61812:1 61821:1 61822:1  |EV| 
-0.10000000000000001 13431:1 30855:1 51018:1 53495:1 53704:1 53892:1 53923:1 55125:1 55848:1 56276:1 57884:1 61050:1 61059:1 61075:1 61228:1 61373:1 61503:1 61781:1 61789:1 61795:1 61800:1 61812:1 61821:1  |EV| 
-0.10000000000000001 12446:1 29760:1 49708:1 53442:1 53453:1 53472:1 53613:1 54772:1 54786:1 55471:1 56276:1 61050:1 61059:1 61088:1 61238:1 61359:1 61503:1 61781:1 61789:1 61795:1 61799:1 61800:1 61812:1 61821:1  |EV| 
-0.046877530041255361 167:1 15600:1 33222:1 55349:1 56276:1 57884:1 61050:1 61059:1 61075:1 61238:1 61365:1 61503:1 61781:1 61789:1 61795:1 61799:1 61800:1 61812:1  |EV| 
-0.10000000000000001 8545:1 24859:1 43973:1 53437:1 53465:1 53492:1 55363:1 56276:1 57884:1 57949:1 61029:1 61033:1 61050:1 61059:1 61075:1 61226:1 61364:1 61503:1 61781:1 61789:1 61795:1 61800:1 61812:1 61821:1  |EV| 
-0.003184632548473489 7243:1 23316:1 33222:1 55363:1 56276:1 57884:1 61050:1 61059:1 61075:1 61238:1 61365:1 61503:1 61781:1 61789:1 61795:1 61800:1 61812:1  |EV| 
0.10000000000000001 2329:1 17971:1 36080:1 53442:1 53444:1 53448:1 53465:1 53475:1 53518:1 53521:1 53640:1 53825:1 53939:1 53943:1 53944:1 53945:1 53946:1 55558:1 56276:1 61049:1 61059:1 61099:1 61227:1 61378:1 61521:1 61781:1 61789:1 61796:1 61800:1 61809:1 61812:1 61821:1  |EV| 
0.10000000000000001 12892:1 30270:1 50261:1 53439:1 53442:1 53444:1 53448:1 53450:1 53509:1 53515:1 53544:1 53562:1 53594:1 53634:1 53713:1 53892:1 54041:1 54379:1 54470:1 54805:1 55070:1 55076:1 55863:1 56276:1 61050:1 61059:1 61097:1 61215:1 61400:1 61522:1 61781:1 61789:1 61796:1 61800:1 61812:1 61821:1  |EV| 
-0.01288597135116025 13061:1 30460:1 50483:1 53439:1 53442:1 53444:1 53448:1 53450:1 53509:1 53515:1 53544:1 53562:1 53594:1 53634:1 53892:1 54041:1 54379:1 54470:1 54475:1 54805:1 55070:1 55076:1 55863:1 56276:1 61050:1 61059:1 61073:1 61248:1 61400:1 61528:1 61781:1 61789:1 61796:1 61800:1 61812:1 61821:1  |EV| 
-0.017773660341875459 13516:1 30949:1 51116:1 53434:1 53439:1 53442:1 53443:1 53444:1 53448:1 53450:1 53451:1 53475:1 53483:1 53704:1 53710:1 53790:1 54019:1 55141:1 55149:1 56162:1 56276:1 61050:1 61059:1 61072:1 61258:1 61381:1 61526:1 61781:1 61789:1 61796:1 61800:1 61812:1 61821:1  |EV| 
-0.00010091416903470347 14356:1 31879:1 52130:1 53439:1 53444:1 53475:1 53478:1 53534:1 55231:1 55232:1 55233:1 55234:1 55235:1 55236:1 55237:1 55238:1 55240:1 55933:1 56276:1 58175:1 61050:1 61059:1 61081:1 61221:1 61357:1 61522:1 61781:1 61789:1 61796:1 61800:1 61812:1 61823:1  |EV| 
-0.042951991618077681 12956:1 30343:1 50343:1 53439:1 53442:1 53444:1 53448:1 53450:1 53509:1 53515:1 53544:1 53562:1 53594:1 53634:1 53713:1 53892:1 54041:1 54379:1 54470:1 54475:1 55070:1 55076:1 55863:1 56276:1 57884:1 61050:1 61059:1 61075:1 61246:1 61400:1 61530:1 61781:1 61789:1 61796:1 61800:1 61812:1 61821:1  |EV| 
0.028301155916509134 6823:1 22858:1 41621:1 53676:1 53982:1 54356:1 55572:1 56276:1 57884:1 61050:1 61059:1 61075:1 61226:1 61364:1 61503:1 61781:1 61789:1 61795:1 61800:1 61812:1 61821:1  |EV| 
0.0007949621762866208 4537:1 20304:1 38670:1 53445:1 54354:1 54366:1 55739:1 56276:1 57884:1 61050:1 61059:1 61065:1 61207:1 61364:1 61503:1 61781:1 61789:1 61795:1 61800:1 61812:1 61821:1  |EV| 
0.03556872933516924 8674:1 25021:1 44143:1 53437:1 53465:1 54771:1 55363:1 56276:1 61029:1 61033:1 61050:1 61059:1 61072:1 61238:1 61364:1 61503:1 61781:1 61789:1 61795:1 61800:1 61812:1 61821:1  |EV| 
0.10000000000000001 3064:1 18728:1 36899:1 55439:1 56276:1 57884:1 61052:1 61058:1 61075:1 61209:1 61363:1 61497:1 61781:1 61789:1 61795:1 61800:1 61812:1 61821:1  |EV| 
-0.06532517822485219 15268:1 32826:1 53165:1 53437:1 53465:1 53512:1 54352:1 55723:1 56276:1 56771:1 58462:1 60979:1 61052:1 61058:1 61092:1 61217:1 61363:1 61497:1 61781:1 61789:1 61795:1 61800:1 61812:1 61821:1  |EV| 
-0.00097482816863677367 14822:1 32364:1 52631:1 53439:1 53448:1 53659:1 55302:1 55661:1 56276:1 61053:1 61059:1 61063:1 61228:1 61351:1 61500:1 61781:1 61789:1 61796:1 61800:1 61812:1 61821:1  |EV| 
-0.0086219013683721934 11841:1 29053:1 48793:1 53448:1 53465:1 53472:1 53870:1 54387:1 55558:1 56276:1 61050:1 61059:1 61092:1 61221:1 61373:1 61503:1 61781:1 61791:1 61796:1 61800:1 61816:1 61821:1  |EV| 
-0.10000000000000001 4290:1 26174:1 36899:1 55406:1 56276:1 57884:1 61052:1 61058:1 61075:1 61209:1 61363:1 61497:1 61781:1 61789:1 61796:1 61800:1 61812:1 61821:1  |EV| 
-0.013576586756147148 7870:1 24040:1 42948:1 53448:1 53480:1 53980:1 54662:1 55562:1 56276:1 57884:1 61050:1 61059:1 61075:1 61220:1 61372:1 61503:1 61781:1 61789:1 61797:1 61799:1 61800:1 61812:1 61824:1  |EV| 
0.10000000000000001 6069:1 22065:1 40732:1 53439:1 53442:1 53444:1 53448:1 53450:1 53451:1 53562:1 53642:1 53660:1 53696:1 53730:1 54429:1 54430:1 55767:1 56276:1 61050:1 61059:1 61061:1 61220:1 61392:1 61523:1 61781:1 61789:1 61796:1 61800:1 61812:1 61821:1  |EV| 
0.10000000000000001 13527:1 30960:1 51127:1 53436:1 53439:1 53442:1 53465:1 53478:1 53483:1 53495:1 53522:1 53534:1 53690:1 53704:1 53710:1 53760:1 53868:1 53892:1 53923:1 54067:1 54175:1 54252:1 55125:1 55126:1 55127:1 55128:1 56157:1 56276:1 61050:1 61059:1 61107:1 61221:1 61412:1 61493:1 61781:1 61789:1 61796:1 61800:1 61812:1 61821:1  |EV| 
0.070668964980139123 5974:1 21950:1 50423:1 53439:1 53442:1 53448:1 53509:1 53544:1 53562:1 53594:1 53634:1 53713:1 53892:1 54041:1 54379:1 54805:1 55070:1 55076:1 55579:1 56276:1 61050:1 61059:1 61097:1 61207:1 61389:1 61523:1 61781:1 61789:1 61797:1 61800:1 61812:1 61821:1  |EV| 
-0.025162252690183452 6887:1 22929:1 41717:1 53439:1 53465:1 53509:1 53804:1 54041:1 54390:1 55828:1 56276:1 61053:1 61059:1 61063:1 61215:1 61364:1 61500:1 61781:1 61789:1 61796:1 61800:1 61812:1 61821:1  |EV| 
-0.053091950100587051 8933:1 25590:1 44711:1 53465:1 55366:1 56276:1 61050:1 61059:1 61065:1 61221:1 61370:1 61503:1 61781:1 61789:1 61796:1 61800:1 61821:1  |EV| 
-0.062155547603110983 5850:1 21800:1 40384:1 53439:1 53441:1 53442:1 53444:1 53448:1 53450:1 53451:1 53453:1 53488:1 53551:1 53562:1 53642:1 53660:1 53696:1 53726:1 53730:1 54429:1 54430:1 55767:1 56276:1 61050:1 61059:1 61081:1 61220:1 61403:1 61522:1 61781:1 61789:1 61796:1 61800:1 61812:1 61821:1  |EV| 
-0.015973485032959908 1354:1 27495:1 46983:1 53437:1 53448:1 53560:1 53685:1 53742:1 53798:1 53876:1 54255:1 54382:1 54917:1 55669:1 56276:1 61051:1 61059:1 61070:1 61221:1 61362:1 61496:1 61781:1 61789:1 61796:1 61800:1 61819:1 61821:1  |EV| 
-0.003149708317972239 1445:1 16976:1 34870:1 53437:1 53711:1 53712:1 55351:1 55450:1 56276:1 61038:1 61050:1 61059:1 61068:1 61221:1 61364:1 61503:1 61781:1 61789:1 61796:1 61799:1 61800:1 61812:1 61824:1  |EV| 
0.10000000000000001 3585:1 19629:1 36899:1 55362:1 56276:1 56308:1 57884:1 58462:1 59656:1 61052:1 61058:1 61075:1 61209:1 61363:1 61497:1 61781:1 61789:1 61795:1 61799:1 61800:1 61812:1 61821:1  |EV| 
0.10000000000000001 8777:1 25149:1 36899:1 55965:1 56276:1 57884:1 61052:1 61058:1 61075:1 61209:1 61363:1 61497:1 61781:1 61789:1 61795:1 61800:1 61812:1 61821:1  |EV| 
0.10000000000000001 13218:1 30626:1 41502:1 53457:1 55629:1 56276:1 56308:1 57884:1 58462:1 60706:1 61052:1 61058:1 61065:1 61212:1 61363:1 61497:1 61781:1 61789:1 61796:1 61800:1 61812:1 61819:1 61821:1  |EV| 
0.096275671344607752 6711:1 22757:1 41502:1 53457:1 55773:1 56276:1 56308:1 57884:1 58462:1 59927:1 61052:1 61058:1 61065:1 61212:1 61363:1 61497:1 61781:1 61789:1 61796:1 61800:1 61812:1 61821:1  |EV| 
0.096872128427143406 13144:1 30548:1 41502:1 53457:1 56141:1 56276:1 56308:1 57884:1 58462:1 60674:1 61052:1 61058:1 61065:1 61212:1 61363:1 61497:1 61781:1 61789:1 61797:1 61800:1 61812:1 61821:1  |EV| 
-0.10000000000000001 15337:1 32912:1 53290:1 53512:1 55723:1 56276:1 56308:1 57884:1 58462:1 60979:1 61052:1 61058:1 61065:1 61212:1 61363:1 61497:1 61781:1 61789:1 61795:1 61800:1 61812:1 61821:1  |EV| 
-0.074525402178636971 8069:1 24254:1 43440:1 53452:1 55448:1 55449:1 55914:1 56276:1 56308:1 57884:1 58462:1 60136:1 61041:1 61052:1 61058:1 61075:1 61212:1 61353:1 61497:1 61781:1 61789:1 61796:1 61799:1 61800:1 61812:1 61821:1 61824:1  |EV| 
-0.10000000000000001 12405:1 29713:1 36899:1 55503:1 56098:1 56099:1 56276:1 57884:1 61041:1 61052:1 61058:1 61075:1 61209:1 61363:1 61497:1 61781:1 61789:1 61796:1 61800:1 61812:1 61821:1  |EV| 
-0.049333546535742311 9732:1 26304:1 45576:1 53434:1 53439:1 53442:1 53444:1 53448:1 53450:1 53475:1 53531:1 53649:1 53743:1 53870:1 53941:1 54136:1 54215:1 54283:1 54866:1 54867:1 54876:1 54877:1 55658:1 56276:1 61050:1 61059:1 61087:1 61221:1 61390:1 61522:1 61781:1 61789:1 61796:1 61800:1 61812:1 61819:1 61821:1  |EV| 
-0.089134061874904455 2327:1 28908:1 48598:1 53465:1 53595:1 53621:1 55456:1 56276:1 61052:1 61058:1 61072:1 61236:1 61363:1 61497:1 61781:1 61789:1 61797:1 61800:1 61812:1 61821:1  |EV| 
0.10000000000000001 4037:1 19734:1 38005:1 53439:1 53448:1 53637:1 53948:1 54243:1 54244:1 55428:1 56276:1 56798:1 57890:1 58673:1 59670:1 61050:1 61059:1 61068:1 61220:1 61359:1 61503:1 61781:1 61791:1 61796:1 61800:1 61812:1 61816:1 61821:1  |EV| 
0.10000000000000001 4447:1 20208:1 38555:1 53436:1 53444:1 53448:1 53453:1 53465:1 53690:1 55451:1 56276:1 57884:1 61050:1 61059:1 61068:1 61220:1 61359:1 61503:1 61781:1 61789:1 61796:1 61800:1 61812:1 61819:1 61821:1 61824:1  |EV| 
0.10000000000000001 14751:1 32283:1 52549:1 53437:1 53439:1 53444:1 53445:1 53448:1 53450:1 53465:1 53521:1 53540:1 53622:1 53638:1 53690:1 53730:1 54089:1 54158:1 54186:1 54283:1 54365:1 54388:1 54443:1 54445:1 54446:1 54941:1 55274:1 55275:1 55276:1 55277:1 55278:1 55279:1 56237:1 56276:1 61050:1 61059:1 61187:1 61221:1 61465:1 61665:1 61781:1 61789:1 61796:1 61800:1 61812:1 61821:1  |EV| 
0.10000000000000001 8537:1 24850:1 43965:1 53439:1 53444:1 53448:1 53450:1 53451:1 53465:1 53552:1 53588:1 53703:1 53726:1 53924:1 54231:1 54237:1 54323:1 54469:1 54680:1 54768:1 54769:1 55550:1 55941:1 55946:1 56276:1 61043:1 61053:1 61059:1 61110:1 61246:1 61398:1 61556:1 61781:1 61789:1 61796:1 61800:1 61812:1 61821:1  |EV| 
0.084833675928884952 2875:1 18536:1 36697:1 53439:1 54055:1 54075:1 54076:1 54078:1 55623:1 56276:1 61050:1 61059:1 61092:1 61221:1 61373:1 61503:1 61781:1 61790:1 61796:1 61800:1 61812:1 61821:1  |EV| 
-0.048213242140029068 11371:1 28746:1 48406:1 53439:1 53444:1 53448:1 53450:1 53475:1 53544:1 53631:1 53646:1 53870:1 53941:1 53942:1 54187:1 54408:1 54420:1 54488:1 54940:1 54941:1 54942:1 56065:1 56276:1 58301:1 61050:1 61059:1 61118:1 61221:1 61383:1 61493:1 61781:1 61789:1 61796:1 61800:1 61812:1 61821:1  |EV| 
-0.049015210019953612 14144:1 31671:1 51917:1 53437:1 53439:1 53444:1 53448:1 53465:1 53492:1 53560:1 53631:1 53870:1 54041:1 55213:1 55214:1 55661:1 56276:1 61050:1 61059:1 61098:1 61207:1 61368:1 61523:1 61781:1 61789:1 61796:1 61800:1 61812:1 61819:1 61821:1  |EV| 
-0.068596953519987805 14890:1 32437:1 52709:1 53437:1 53439:1 53444:1 53445:1 53448:1 53450:1 53465:1 53521:1 53540:1 53622:1 53638:1 53690:1 53730:1 54089:1 54158:1 54186:1 54283:1 54365:1 54388:1 54443:1 54445:1 54446:1 54941:1 55274:1 55275:1 55277:1 55278:1 55279:1 55280:1 56237:1 56276:1 61050:1 61059:1 61106:1 61249:1 61465:1 61681:1 61781:1 61789:1 61796:1 61800:1 61812:1 61821:1  |EV| 
-0.016224306063111947 10253:1 26954:1 46565:1 53439:1 53444:1 53448:1 53450:1 53634:1 53643:1 53668:1 53704:1 53870:1 53941:1 53945:1 54185:1 54460:1 54751:1 54851:1 54852:1 54853:1 54854:1 56007:1 56276:1 61050:1 61059:1 61067:1 61238:1 61383:1 61493:1 61781:1 61789:1 61796:1 61800:1 61812:1 61819:1 61821:1  |EV| 
-0.023316177128280813 4948:1 20889:1 39375:1 54398:1 55746:1 56276:1 57884:1 61050:1 61059:1 61075:1 61221:1 61351:1 61503:1 61781:1 61789:1 61796:1 61800:1 61812:1 61825:1  |EV| 
0.10000000000000001 4527:1 20294:1 38655:1 53486:1 55469:1 56276:1 56308:1 57884:1 58462:1 59711:1 61052:1 61058:1 61075:1 61212:1 61353:1 61497:1 61781:1 61789:1 61795:1 61799:1 61800:1 61812:1 61821:1  |EV| 
0.10000000000000001 2381:1 18029:1 36169:1 53452:1 53465:1 53512:1 53972:1 53973:1 55403:1 56276:1 61052:1 61058:1 61072:1 61232:1 61356:1 61497:1 61781:1 61789:1 61796:1 61800:1 61812:1 61821:1  |EV| 
0.10000000000000001 3947:1 19637:1 37905:1 53441:1 53442:1 53444:1 53473:1 54240:1 55430:1 56276:1 61052:1 61058:1 61065:1 61232:1 61380:1 61497:1 61781:1 61789:1 61796:1 61800:1 61812:1 61821:1 61824:1  |EV| 
-0.0081583221298854817 5054:1 20881:1 39367:1 53442:1 53452:1 53465:1 54218:1 54324:1 54403:1 55425:1 56276:1 61052:1 61058:1 61068:1 61227:1 61380:1 61497:1 61781:1 61789:1 61796:1 61800:1 61812:1 61821:1 61827:1  |EV| 
-0.010979188120704184 2958:1 18621:1 36781:1 53437:1 53448:1 53486:1 54081:1 55624:1 56276:1 56522:1 57890:1 58564:1 59503:1 61050:1 61059:1 61065:1 61226:1 61372:1 61503:1 61781:1 61789:1 61794:1 61800:1 61812:1  |EV| 
-0.10000000000000001 4513:1 20288:1 38649:1 53444:1 53465:1 53774:1 54332:1 55364:1 56276:1 61050:1 61059:1 61068:1 61207:1 61372:1 61503:1 61781:1 61789:1 61795:1 61800:1 61812:1 61821:1  |EV| 
-0.045372626558555756 2751:1 18410:1 36568:1 53439:1 53444:1 53455:1 53475:1 53514:1 53516:1 54022:1 54043:1 55593:1 56276:1 58024:1 61051:1 61059:1 61066:1 61220:1 61380:1 61496:1 61781:1 61789:1 61795:1 61799:1 61800:1 61812:1 61821:1 61824:1  |EV| 
0.060253641450655197 7133:1 23186:1 41984:1 53439:1 53448:1 53465:1 53486:1 53551:1 54283:1 54554:1 54600:1 55836:1 56276:1 57884:1 57949:1 61033:1 61050:1 61059:1 61088:1 61226:1 61398:1 61514:1 61781:1 61789:1 61795:1 61800:1 61812:1 61821:1  |EV| 
0.10000000000000001 14889:1 32436:1 52708:1 53437:1 53439:1 53448:1 53465:1 53521:1 53540:1 53622:1 53638:1 53690:1 53730:1 54089:1 54158:1 54186:1 54283:1 54365:1 54388:1 54443:1 54941:1 55274:1 55275:1 55737:1 56276:1 61050:1 61059:1 61106:1 61207:1 61383:1 61493:1 61781:1 61789:1 61796:1 61800:1 61812:1 61819:1 61821:1  |EV| 
0.10000000000000001 7610:1 23752:1 42580:1 53437:1 53439:1 53442:1 53444:1 53448:1 53465:1 53478:1 53482:1 53534:1 53556:1 53566:1 53631:1 53932:1 53941:1 53965:1 54306:1 54349:1 54625:1 54657:1 54658:1 54659:1 54660:1 54661:1 54663:1 54668:1 55406:1 56276:1 61050:1 61059:1 61107:1 61229:1 61399:1 61519:1 61781:1 61789:1 61796:1 61800:1 61812:1 61819:1 61821:1  |EV| 
0.06250709315082642 7429:1 23547:1 42380:1 53437:1 53439:1 53442:1 53444:1 53448:1 53450:1 53631:1 53827:1 53880:1 54019:1 54051:1 54620:1 54621:1 54622:1 55488:1 55503:1 55872:1 55873:1 55874:1 55875:1 56276:1 61038:1 61050:1 61059:1 61089:1 61238:1 61392:1 61523:1 61781:1 61789:1 61796:1 61800:1 61812:1 61821:1  |EV| 
-0.058337032337048463 14812:1 32354:1 52619:1 53437:1 53439:1 53448:1 53465:1 53521:1 53540:1 53622:1 53638:1 53690:1 53730:1 54158:1 54186:1 54283:1 54365:1 54388:1 54443:1 54941:1 55274:1 55275:1 55276:1 55737:1 56276:1 57884:1 61050:1 61059:1 61065:1 61256:1 61383:1 61530:1 61781:1 61789:1 61796:1 61800:1 61812:1 61819:1 61821:1  |EV| 
-0.024400163442282158 14814:1 32356:1 52621:1 53437:1 53439:1 53444:1 53445:1 53448:1 53450:1 53465:1 53521:1 53540:1 53622:1 53638:1 53690:1 53730:1 54158:1 54186:1 54283:1 54365:1 54388:1 54443:1 54445:1 54446:1 54941:1 55274:1 55275:1 55276:1 55277:1 55278:1 55279:1 55280:1 56237:1 56276:1 57884:1 61050:1 61059:1 61065:1 61320:1 61465:1 61708:1 61781:1 61789:1 61796:1 61800:1 61812:1 61821:1  |EV| 
-0.019768423076791414 1409:1 16936:1 34802:1 53444:1 53450:1 53518:1 53604:1 53631:1 53691:1 53701:1 53755:1 53784:1 55443:1 56276:1 61049:1 61059:1 61061:1 61216:1 61359:1 61521:1 61781:1 61789:1 61797:1 61800:1 61812:1 61821:1  |EV| 
-0.021028792830135028 7613:1 23755:1 42583:1 53437:1 53442:1 53444:1 53448:1 53465:1 53478:1 53482:1 53534:1 53556:1 53566:1 53631:1 53932:1 53941:1 53965:1 54306:1 54349:1 54625:1 54657:1 54658:1 54659:1 54660:1 54661:1 55893:1 56276:1 61050:1 61059:1 61107:1 61221:1 61412:1 61493:1 61781:1 61789:1 61796:1 61800:1 61812:1 61819:1  |EV| 
-0.0033112965450183001 460:1 23413:1 42234:1 53439:1 53444:1 53445:1 53448:1 53481:1 53531:1 53546:1 53551:1 53562:1 53655:1 53701:1 53726:1 53937:1 54128:1 54607:1 54611:1 55387:1 56276:1 61053:1 61059:1 61063:1 61239:1 61390:1 61561:1 61781:1 61789:1 61796:1 61800:1 61812:1 61821:1  |EV| 
0.10000000000000001 309:1 15766:1 33397:1 53464:1 53465:1 53472:1 55384:1 56276:1 61052:1 61058:1 61068:1 61236:1 61353:1 61497:1 61781:1 61789:1 61796:1 61800:1 61812:1 61821:1  |EV| 
0.10000000000000001 2695:1 18351:1 36499:1 53439:1 53444:1 54014:1 55599:1 56276:1 61051:1 61059:1 61076:1 61238:1 61360:1 61513:1 61781:1 61789:1 61794:1 61800:1 61812:1 61821:1  |EV| 
0.08330040694115895 6397:1 22420:1 41143:1 53448:1 53450:1 53465:1 53475:1 53495:1 53509:1 53512:1 53524:1 53541:1 53634:1 53825:1 53912:1 54516:1 54517:1 54518:1 54519:1 54520:1 55804:1 55805:1 56276:1 57951:1 58439:1 58556:1 59877:1 59878:1 61041:1 61051:1 61059:1 61102:1 61248:1 61360:1 61520:1 61781:1 61791:1 61796:1 61800:1 61812:1 61821:1  |EV| 
0.10000000000000001 7032:1 23080:1 41873:1 53557:1 53578:1 53611:1 53640:1 54477:1 54555:1 55560:1 56276:1 57889:1 61054:1 61059:1 61076:1 61212:1 61371:1 61505:1 61781:1 61789:1 61795:1 61800:1 61812:1 61821:1  |EV| 
0.10000000000000001 1441:1 24259:1 35613:1 53439:1 55693:1 56276:1 61051:1 61059:1 61063:1 61238:1 61353:1 61513:1 61781:1 61789:1 61796:1 61799:1 61800:1 61812:1 61821:1  |EV| 
-0.082229796018135085 4161:1 19869:1 38162:1 53439:1 53448:1 53948:1 54243:1 54244:1 55428:1 56276:1 57999:1 61051:1 61059:1 61085:1 61220:1 61353:1 61513:1 61781:1 61789:1 61796:1 61800:1 61812:1 61821:1  |EV| 
-0.10000000000000001 4163:1 20948:1 39430:1 53442:1 53562:1 53825:1 54082:1 54221:1 54270:1 54408:1 54421:1 55613:1 56276:1 61050:1 61059:1 61086:1 61207:1 61358:1 61514:1 61781:1 61789:1 61796:1 61800:1 61812:1 61821:1  |EV| 
-0.0054157208668553268 8260:1 24475:1 43537:1 53475:1 53509:1 55924:1 56276:1 57248:1 57929:1 58842:1 60155:1 61050:1 61059:1 61075:1 61207:1 61370:1 61503:1 61781:1 61789:1 61796:1 61800:1 61811:1 61812:1 61823:1  |EV| 
-0.057943342909919392 715:1 16192:1 33903:1 53444:1 53610:1 53670:1 55430:1 56276:1 56408:1 56409:1 58462:1 59191:1 61022:1 61052:1 61058:1 61068:1 61236:1 61353:1 61497:1 61781:1 61789:1 61796:1 61800:1 61812:1 61821:1  |EV| 
-0.085273770266383303 5972:1 21948:1 40570:1 53442:1 53562:1 53617:1 53892:1 53937:1 54468:1 54469:1 55582:1 56276:1 61049:1 61059:1 61086:1 61209:1 61373:1 61499:1 61781:1 61789:1 61797:1 61800:1 61812:1 61821:1  |EV| 
0.10000000000000001 13476:1 30901:1 51065:1 53439:1 53448:1 53450:1 53478:1 53531:1 53534:1 53685:1 54176:1 54411:1 54521:1 55135:1 55143:1 55144:1 55537:1 56276:1 57884:1 61050:1 61059:1 61075:1 61213:1 61390:1 61530:1 61781:1 61789:1 61796:1 61800:1 61812:1 61821:1  |EV| 
0.10000000000000001 7296:1 23380:1 42195:1 53439:1 53444:1 53445:1 53448:1 53481:1 53531:1 53551:1 53562:1 53655:1 53701:1 53726:1 53937:1 54128:1 54611:1 55387:1 56276:1 57884:1 61050:1 61059:1 61075:1 61213:1 61390:1 61530:1 61781:1 61789:1 61796:1 61800:1 61812:1 61821:1  |EV| 
-0.10000000000000001 2371:1 18019:1 36129:1 53437:1 53444:1 53448:1 53450:1 53465:1 53478:1 53524:1 53534:1 53556:1 53557:1 53832:1 53849:1 53974:1 53975:1 53976:1 53977:1 53978:1 53979:1 53980:1 55566:1 56276:1 57912:1 61050:1 61059:1 61097:1 61229:1 61390:1 61522:1 61781:1 61789:1 61796:1 61800:1 61809:1 61812:1 61821:1  |EV| 
-0.09804692319659139 10883:1 27828:1 47357:1 53436:1 53437:1 53439:1 53442:1 53444:1 53445:1 53448:1 53454:1 53465:1 53467:1 53648:1 53660:1 53690:1 53730:1 54128:1 54876:1 54915:1 55603:1 56276:1 57884:1 61050:1 61059:1 61075:1 61259:1 61383:1 61530:1 61781:1 61789:1 61797:1 61800:1 61812:1 61821:1  |EV| 
-0.016425113002402066 2017:1 17592:1 34634:1 53442:1 55555:1 56276:1 57884:1 61050:1 61059:1 61075:1 61221:1 61351:1 61503:1 61781:1 61789:1 61795:1 61800:1 61812:1  |EV| 
-0.014357479141501648 14768:1 32302:1 52567:1 53437:1 53439:1 53444:1 53445:1 53448:1 53450:1 53465:1 53521:1 53622:1 53638:1 53690:1 53730:1 54089:1 54158:1 54186:1 54283:1 54365:1 54388:1 54443:1 54445:1 54446:1 54941:1 55274:1 55275:1 55276:1 55277:1 55278:1 55279:1 55280:1 56237:1 56276:1 61050:1 61059:1 61098:1 61208:1 61465:1 61692:1 61781:1 61789:1 61796:1 61800:1 61812:1 61821:1  |EV| 
0.10000000000000001 11896:1 29129:1 49220:1 53448:1 53640:1 53668:1 53690:1 54980:1 55558:1 56276:1 61049:1 61059:1 61088:1 61219:1 61372:1 61499:1 61781:1 61789:1 61796:1 61800:1 61812:1 61821:1  |EV| 
0.065621870668266233 7593:1 23733:1 42560:1 53522:1 53948:1 55428:1 56276:1 57195:1 58492:1 60095:1 61056:1 61059:1 61130:1 61207:1 61351:1 61500:1 61781:1 61787:1 61796:1 61800:1 61802:1 61810:1 61812:1 61821:1  |EV| 
0.10000000000000001 14525:1 32051:1 52290:1 53442:1 53556:1 53557:1 55348:1 56276:1 57889:1 61054:1 61059:1 61063:1 61209:1 61380:1 61505:1 61781:1 61789:1 61795:1 61800:1 61812:1 61821:1  |EV| 
0.10000000000000001 4438:1 20199:1 38543:1 53442:1 53443:1 53483:1 53562:1 55723:1 56276:1 57884:1 61050:1 61059:1 61075:1 61220:1 61372:1 61503:1 61781:1 61789:1 61795:1 61799:1 61800:1 61812:1 61821:1  |EV| 
0.10000000000000001 7658:1 23806:1 42648:1 53442:1 54667:1 55902:1 56276:1 57885:1 61053:1 61059:1 61094:1 61226:1 61351:1 61500:1 61781:1 61789:1 61795:1 61800:1 61812:1 61821:1  |EV| 
-0.10000000000000001 11896:1 29129:1 48910:1 53442:1 53557:1 53561:1 53582:1 53716:1 54197:1 54978:1 55558:1 56276:1 57923:1 61054:1 61059:1 61071:1 61219:1 61374:1 61505:1 61781:1 61789:1 61796:1 61800:1 61812:1 61821:1  |EV| 
-0.072219393117251049 959:1 24480:1 43545:1 53488:1 53704:1 53790:1 55470:1 56276:1 61049:1 61059:1 61092:1 61219:1 61370:1 61499:1 61781:1 61789:1 61795:1 61800:1 61812:1 61821:1 61822:1  |EV| 
-0.033585121290061914 10655:1 27530:1 47019:1 53439:1 53442:1 53443:1 53480:1 53594:1 53631:1 53696:1 53710:1 54050:1 54378:1 54547:1 54564:1 54908:1 54909:1 54912:1 54913:1 54914:1 55484:1 56276:1 61049:1 61059:1 61106:1 61232:1 61402:1 61509:1 61781:1 61789:1 61795:1 61799:1 61800:1 61812:1 61821:1  |EV| 
-0.10000000000000001 12248:1 29516:1 33075:1 56101:1 56276:1 57885:1 61054:1 61059:1 61094:1 61219:1 61353:1 61505:1 61781:1 61789:1 61796:1 61800:1 61812:1 61821:1  |EV| 
-0.053510535356322858 13314:1 30727:1 50772:1 53450:1 53504:1 53681:1 53750:1 53943:1 55111:1 55387:1 56276:1 61054:1 61059:1 61076:1 61212:1 61371:1 61505:1 61781:1 61789:1 61796:1 61800:1 61812:1 61821:1  |EV| 
0.071162778498532989 2460:1 18108:1 36239:1 53437:1 53444:1 53448:1 53450:1 53465:1 53478:1 53524:1 53534:1 53556:1 53557:1 53832:1 53849:1 53974:1 53975:1 53976:1 53977:1 53978:1 53980:1 53981:1 55566:1 56276:1 61050:1 61059:1 61081:1 61207:1 61390:1 61522:1 61781:1 61789:1 61796:1 61800:1 61809:1 61812:1 61821:1  |EV| 
0.10000000000000001 13898:1 31352:1 51577:1 53439:1 53442:1 53444:1 53448:1 53450:1 53451:1 53455:1 53465:1 53542:1 53568:1 53982:1 54324:1 54334:1 54388:1 55052:1 55175:1 55189:1 55190:1 55191:1 55611:1 56276:1 61050:1 61059:1 61081:1 61220:1 61403:1 61522:1 61781:1 61789:1 61796:1 61800:1 61812:1 61821:1  |EV| 
0.10000000000000001 11384:1 28508:1 48116:1 53439:1 53444:1 53448:1 53450:1 53465:1 53642:1 53646:1 53726:1 53760:1 53784:1 54937:1 54952:1 54965:1 56048:1 56049:1 56051:1 56276:1 61044:1 61050:1 61059:1 61098:1 61207:1 61368:1 61523:1 61781:1 61789:1 61796:1 61800:1 61812:1 61821:1  |EV| 
0.10000000000000001 13780:1 31226:1 51442:1 53441:1 53444:1 53448:1 53465:1 53833:1 53834:1 53835:1 53836:1 55155:1 55156:1 55171:1 55376:1 55502:1 55505:1 56276:1 61029:1 61033:1 61044:1 61050:1 61059:1 61073:1 61234:1 61402:1 61514:1 61781:1 61791:1 61797:1 61800:1 61812:1 61821:1 61824:1  |EV| 
-0.068041902005654922 13934:1 31389:1 51629:1 53439:1 53442:1 53444:1 53448:1 53450:1 53451:1 53455:1 53465:1 53542:1 53568:1 53982:1 54324:1 54334:1 54388:1 54842:1 55052:1 55175:1 55189:1 55190:1 55611:1 56276:1 61050:1 61059:1 61068:1 61213:1 61403:1 61530:1 61781:1 61789:1 61796:1 61800:1 61812:1 61821:1  |EV| 
-0.07838795232560776 13726:1 31172:1 51389:1 53441:1 53444:1 53448:1 53465:1 53833:1 53834:1 53835:1 53836:1 54242:1 55155:1 55156:1 55376:1 55502:1 55505:1 56276:1 57884:1 57910:1 58380:1 61029:1 61033:1 61044:1 61050:1 61059:1 61075:1 61206:1 61402:1 61526:1 61781:1 61791:1 61797:1 61800:1 61812:1 61821:1 61824:1  |EV| 
-0.061114751163885477 11345:1 28459:1 48063:1 53439:1 53444:1 53448:1 53450:1 53465:1 53646:1 53726:1 53760:1 53784:1 54082:1 54937:1 54952:1 54965:1 56048:1 56049:1 56051:1 56276:1 61044:1 61050:1 61059:1 61088:1 61234:1 61368:1 61514:1 61781:1 61789:1 61796:1 61800:1 61812:1 61821:1  |EV| 
-0.013756399715081361 15180:1 32736:1 53047:1 53448:1 53450:1 55439:1 56276:1 57925:1 61052:1 61058:1 61075:1 61216:1 61356:1 61497:1 61781:1 61789:1 61795:1 61800:1 61812:1 61821:1  |EV| 
-0.01690904560782245 11501:1 28654:1 48288:1 53439:1 53444:1 53448:1 53450:1 53465:1 53642:1 53646:1 53760:1 54937:1 54952:1 56048:1 56049:1 56051:1 56276:1 61029:1 61044:1 61050:1 61059:1 61074:1 61207:1 61397:1 61514:1 61781:1 61791:1 61796:1 61800:1 61813:1 61816:1 61821:1  |EV| 
0.10000000000000001 8739:1 25105:1 44230:1 53437:1 53439:1 55534:1 55535:1 56276:1 61041:1 61051:1 61059:1 61076:1 61221:1 61353:1 61513:1 61781:1 61789:1 61796:1 61800:1 61812:1 61821:1  |EV| 
0.10000000000000001 15040:1 32596:1 52893:1 53439:1 53442:1 53521:1 55311:1 55885:1 56276:1 61051:1 61059:1 61084:1 61226:1 61353:1 61513:1 61781:1 61789:1 61796:1 61800:1 61812:1 61821:1  |EV| 
0.058850828189451629 641:1 16105:1 33854:1 53610:1 55430:1 56276:1 56405:1 58462:1 59191:1 61051:1 61059:1 61063:1 61238:1 61353:1 61513:1 61781:1 61789:1 61796:1 61800:1 61812:1 61821:1  |EV| 
0.10000000000000001 12649:1 29978:1 49940:1 53437:1 53439:1 53837:1 53999:1 55042:1 56122:1 56276:1 61051:1 61059:1 61071:1 61221:1 61361:1 61513:1 61781:1 61789:1 61796:1 61800:1 61812:1 61821:1  |EV| 
0.10000000000000001 1354:1 27495:1 47124:1 53437:1 53444:1 53448:1 53453:1 53480:1 53504:1 53512:1 53522:1 53560:1 53581:1 53681:1 53685:1 53707:1 53742:1 53750:1 53791:1 53798:1 53876:1 53896:1 54255:1 54382:1 54574:1 54917:1 54918:1 55669:1 56276:1 61051:1 61059:1 61064:1 61221:1 61366:1 61551:1 61781:1 61789:1 61796:1 61800:1 61812:1 61819:1 61821:1  |EV| 
-0.10000000000000001 2906:1 18568:1 36728:1 53439:1 53448:1 53568:1 54078:1 55623:1 56276:1 61051:1 61059:1 61084:1 61221:1 61360:1 61513:1 61781:1 61791:1 61796:1 61800:1 61812:1 61821:1  |EV| 
-0.10000000000000001 8088:1 24275:1 43322:1 53452:1 53531:1 55448:1 55449:1 55914:1 56276:1 56320:1 57891:1 58462:1 60136:1 61041:1 61051:1 61059:1 61084:1 61221:1 61353:1 61513:1 61781:1 61789:1 61796:1 61800:1 61812:1 61821:1 61824:1  |EV| 
-0.10000000000000001 7002:1 23049:1 41841:1 53439:1 53522:1 53531:1 53534:1 54046:1 54582:1 55536:1 56276:1 58042:1 61050:1 61059:1 61073:1 61221:1 61359:1 61503:1 61781:1 61789:1 61796:1 61800:1 61812:1 61821:1  |EV| 
-0.10000000000000001 15320:1 32891:1 53256:1 53442:1 55723:1 56276:1 56825:1 57928:1 58462:1 60979:1 61051:1 61059:1 61063:1 61221:1 61363:1 61513:1 61781:1 61789:1 61795:1 61800:1 61812:1 61821:1  |EV| 
-0.0059786717362599251 9828:1 26431:1 45712:1 53480:1 53594:1 54895:1 56007:1 56276:1 56291:1 56856:1 57886:1 58112:1 58439:1 58515:1 60331:1 60332:1 61032:1 61051:1 61059:1 61076:1 61207:1 61353:1 61513:1 61781:1 61791:1 61796:1 61800:1 61816:1 61821:1  |EV| 
0.060216618456405108 1556:1 17087:1 34991:1 53442:1 53450:1 53465:1 53472:1 53475:1 53501:1 53512:1 53830:1 53831:1 53832:1 53833:1 53834:1 53835:1 53836:1 55498:1 55499:1 56276:1 61043:1 61050:1 61059:1 61086:1 61229:1 61368:1 61514:1 61781:1 61791:1 61796:1 61800:1 61812:1 61821:1  |EV| 
0.10000000000000001 2674:1 18327:1 36473:1 53434:1 53444:1 53448:1 53465:1 53562:1 53621:1 53994:1 54000:1 54015:1 54016:1 55579:1 56276:1 61050:1 61059:1 61073:1 61228:1 61358:1 61514:1 61781:1 61789:1 61797:1 61800:1 61812:1 61821:1  |EV| 
0.10000000000000001 2376:1 18024:1 36179:1 53439:1 53444:1 53448:1 53465:1 53611:1 53859:1 53882:1 53961:1 53962:1 53963:1 53964:1 53965:1 53966:1 55568:1 56276:1 61050:1 61059:1 61068:1 61258:1 61389:1 61526:1 61781:1 61789:1 61796:1 61800:1 61812:1 61821:1  |EV| 
-0.10000000000000001 2367:1 18015:1 36180:1 53439:1 53444:1 53448:1 53450:1 53465:1 53498:1 53509:1 53611:1 53859:1 53882:1 53961:1 53962:1 53963:1 53964:1 53965:1 53966:1 55403:1 56276:1 61050:1 61059:1 61068:1 61237:1 61390:1 61528:1 61781:1 61789:1 61796:1 61800:1 61812:1 61821:1  |EV| 
-0.017551689854603487 2381:1 18029:1 36144:1 53439:1 53444:1 53448:1 53450:1 53452:1 53465:1 53498:1 53509:1 53512:1 53600:1 53611:1 53859:1 53882:1 53961:1 53962:1 53963:1 53964:1 53965:1 53966:1 53971:1 53972:1 53973:1 55403:1 56276:1 61049:1 61059:1 61091:1 61232:1 61390:1 61495:1 61781:1 61789:1 61796:1 61800:1 61812:1 61821:1  |EV| 
-0.10000000000000001 2635:1 18286:1 36430:1 53434:1 53444:1 53448:1 53465:1 53546:1 53562:1 53621:1 53994:1 54000:1 54016:1 55579:1 56276:1 61050:1 61059:1 61068:1 61234:1 61358:1 61514:1 61781:1 61789:1 61797:1 61800:1 61812:1 61821:1  |EV| 
-0.0074988110251700407 9749:1 27232:1 46657:1 53442:1 53465:1 53640:1 54797:1 56021:1 56276:1 61050:1 61059:1 61072:1 61221:1 61372:1 61503:1 61781:1 61789:1 61795:1 61800:1 61812:1 61822:1 61827:1  |EV| 
0.10000000000000001 2353:1 18000:1 36109:1 53439:1 53448:1 53475:1 53568:1 53604:1 53726:1 53941:1 53942:1 55428:1 56276:1 61051:1 61059:1 61110:1 61221:1 61374:1 61496:1 61781:1 61789:1 61796:1 61800:1 61812:1 61821:1  |EV| 
0.089790179848039053 10783:1 28057:1 47622:1 53439:1 53442:1 53443:1 53480:1 53631:1 54378:1 54547:1 54564:1 54912:1 54913:1 54914:1 55484:1 56276:1 61050:1 61059:1 61098:1 61221:1 61402:1 61523:1 61781:1 61789:1 61795:1 61799:1 61800:1 61812:1 61821:1  |EV| 
0.069462627268345081 13624:1 31061:1 51247:1 53495:1 53704:1 53710:1 53892:1 53923:1 55848:1 56276:1 61050:1 61059:1 61092:1 61221:1 61373:1 61503:1 61781:1 61789:1 61795:1 61800:1 61812:1 61821:1  |EV| 
0.10000000000000001 11896:1 29149:1 48941:1 53439:1 53448:1 53568:1 53641:1 53642:1 53644:1 55558:1 56276:1 61049:1 61059:1 61083:1 61219:1 61373:1 61499:1 61781:1 61789:1 61796:1 61800:1 61812:1 61821:1  |EV| 
0.048166818356101405 4527:1 24663:1 43770:1 53704:1 53790:1 55470:1 56276:1 57884:1 61050:1 61059:1 61065:1 61221:1 61370:1 61503:1 61781:1 61789:1 61795:1 61800:1 61812:1 61821:1 61822:1  |EV| 
-0.10000000000000001 2318:1 28849:1 48533:1 53439:1 53448:1 53568:1 53641:1 53644:1 55558:1 56276:1 57884:1 61050:1 61059:1 61075:1 61228:1 61373:1 61503:1 61781:1 61789:1 61796:1 61800:1 61812:1 61821:1  |EV| 
-0.10000000000000001 15083:1 32639:1 52955:1 53442:1 53448:1 53450:1 53465:1 53466:1 53473:1 53480:1 53544:1 53579:1 53594:1 53690:1 54041:1 54590:1 54618:1 55310:1 56259:1 56276:1 61050:1 61059:1 61099:1 61207:1 61393:1 61522:1 61781:1 61789:1 61796:1 61800:1 61812:1 61821:1  |EV| 
-0.031542952150516917 1592:1 17123:1 35027:1 53465:1 53472:1 53475:1 53833:1 53834:1 53835:1 53836:1 55498:1 55499:1 56276:1 56303:1 56521:1 57890:1 58458:1 58563:1 59315:1 59316:1 61043:1 61050:1 61059:1 61065:1 61229:1 61378:1 61503:1 61781:1 61791:1 61796:1 61800:1 61821:1  |EV| 
-0.10000000000000001 10905:1 27854:1 47386:1 53442:1 53892:1 54077:1 55522:1 56276:1 57884:1 61050:1 61059:1 61075:1 61226:1 61364:1 61503:1 61781:1 61789:1 61796:1 61800:1 61812:1 61819:1 61821:1 61824:1  |EV| 
-0.10000000000000001 1834:1 17483:1 36045:1 53465:1 55546:1 56276:1 57884:1 61050:1 61059:1 61075:1 61221:1 61351:1 61503:1 61781:1 61789:1 61796:1 61800:1 61812:1 61821:1  |EV| 
0.10000000000000001 4667:1 20447:1 38855:1 53439:1 53444:1 53448:1 53481:1 53531:1 54354:1 55603:1 56276:1 61051:1 61059:1 61071:1 61226:1 61360:1 61513:1 61781:1 61789:1 61797:1 61800:1 61812:1 61821:1  |EV| 
0.039437316694905744 2375:1 18023:1 36183:1 53444:1 53448:1 53465:1 53859:1 53882:1 53961:1 53962:1 53963:1 55567:1 56276:1 61050:1 61059:1 61068:1 61215:1 61398:1 61514:1 61781:1 61789:1 61796:1 61800:1 61812:1 61821:1  |EV| 
0.10000000000000001 12246:1 29513:1 49454:1 53448:1 53450:1 53465:1 53475:1 53480:1 53509:1 53523:1 54270:1 55000:1 55018:1 56094:1 56276:1 57885:1 61053:1 61059:1 61094:1 61253:1 61358:1 61524:1 61781:1 61789:1 61796:1 61800:1 61812:1 61821:1 61824:1  |EV| 
0.10000000000000001 3044:1 18708:1 36876:1 53437:1 53448:1 53450:1 53452:1 53512:1 53690:1 53917:1 54093:1 54109:1 55543:1 55625:1 56276:1 57884:1 61052:1 61058:1 61075:1 61205:1 61396:1 61511:1 61781:1 61789:1 61796:1 61799:1 61800:1 61812:1 61821:1  |EV| 
-0.063561931557770332 12113:1 29369:1 49314:1 53448:1 53450:1 53465:1 53475:1 53480:1 53509:1 53523:1 53704:1 54270:1 55000:1 55018:1 55020:1 55021:1 56094:1 56276:1 61053:1 61059:1 61076:1 61248:1 61358:1 61524:1 61781:1 61789:1 61796:1 61800:1 61812:1 61821:1 61824:1  |EV| 
-0.014577635049216144 9223:1 25714:1 45115:1 53465:1 53701:1 53946:1 55997:1 56276:1 61050:1 61059:1 61068:1 61221:1 61364:1 61503:1 61781:1 61789:1 61796:1 61800:1 61812:1 61824:1 61825:1  |EV| 
-0.04984167128214425 2536:1 18187:1 36322:1 53439:1 53475:1 53516:1 55593:1 56276:1 57885:1 61054:1 61059:1 61094:1 61216:1 61380:1 61505:1 61781:1 61789:1 61795:1 61800:1 61812:1 61821:1 61824:1  |EV| 
-0.088638844926922325 9860:1 27218:1 46639:1 53437:1 53439:1 53448:1 53450:1 53475:1 53521:1 53523:1 53531:1 53945:1 53948:1 54063:1 54222:1 54283:1 54472:1 54690:1 54855:1 54856:1 54857:1 54858:1 54859:1 56014:1 56276:1 61050:1 61059:1 61106:1 61226:1 61404:1 61493:1 61781:1 61789:1 61796:1 61800:1 61812:1 61821:1  |EV| 
-0.02265434637116464 14092:1 31571:1 51818:1 53437:1 53457:1 53557:1 53761:1 55941:1 56276:1 57884:1 61050:1 61059:1 61065:1 61226:1 61372:1 61503:1 61781:1 61789:1 61796:1 61799:1 61800:1 61812:1 61824:1  |EV| 
0.10000000000000001 5433:1 21299:1 39811:1 53442:1 53562:1 53617:1 53937:1 54469:1 55582:1 56276:1 57884:1 61050:1 61059:1 61075:1 61228:1 61373:1 61503:1 61781:1 61789:1 61797:1 61800:1 61812:1 61821:1  |EV| 
0.012597961568252115 5078:1 20916:1 39401:1 53442:1 53562:1 55613:1 56276:1 56400:1 57929:1 58503:1 59780:1 61050:1 61059:1 61075:1 61207:1 61370:1 61503:1 61781:1 61791:1 61796:1 61800:1 61811:1 61812:1 61821:1  |EV| 
0.057201975668161265 13723:1 31169:1 42364:1 53441:1 56170:1 56171:1 56276:1 57884:1 57910:1 58380:1 61029:1 61033:1 61044:1 61050:1 61059:1 61075:1 61221:1 61351:1 61503:1 61781:1 61791:1 61797:1 61800:1 61812:1 61821:1  |EV| 
0.10000000000000001 4925:1 20722:1 39212:1 53442:1 53562:1 54221:1 54270:1 54408:1 54421:1 55562:1 56276:1 57884:1 61050:1 61059:1 61075:1 61229:1 61359:1 61503:1 61781:1 61789:1 61797:1 61799:1 61800:1 61804:1 61812:1 61821:1 61822:1  |EV| 
0.10000000000000001 8448:1 24753:1 43871:1 53442:1 53465:1 53480:1 53726:1 54747:1 55933:1 56276:1 57884:1 61050:1 61059:1 61075:1 61228:1 61373:1 61503:1 61781:1 61789:1 61796:1 61800:1 61812:1 61821:1  |EV| 
-0.10000000000000001 3324:1 24762:1 43880:1 53442:1 53480:1 54747:1 55456:1 56276:1 57884:1 61050:1 61059:1 61075:1 61226:1 61364:1 61503:1 61781:1 61789:1 61797:1 61800:1 61812:1 61821:1 61826:1  |EV| 
-0.0016440571721652673 5622:1 21534:1 40074:1 53439:1 53442:1 53453:1 53455:1 53521:1 53554:1 53631:1 53701:1 53764:1 54025:1 54065:1 54439:1 54440:1 54441:1 54442:1 54443:1 54444:1 54445:1 55593:1 56276:1 56947:1 58133:1 58714:1 59796:1 61050:1 61059:1 61096:1 61221:1 61393:1 61522:1 61781:1 61790:1 61795:1 61800:1 61809:1 61812:1 61821:1  |EV| 
-0.10000000000000001 4438:1 20199:1 38868:1 53439:1 53442:1 53443:1 53483:1 53534:1 53562:1 55723:1 56276:1 61051:1 61059:1 61071:1 61220:1 61356:1 61513:1 61781:1 61789:1 61795:1 61799:1 61800:1 61812:1 61821:1  |EV| 
-0.10000000000000001 1986:1 17557:1 35537:1 53442:1 53448:1 53465:1 53882:1 53883:1 55468:1 56276:1 57884:1 61050:1 61059:1 61075:1 61228:1 61373:1 61503:1 61781:1 61789:1 61795:1 61800:1 61812:1 61819:1 61821:1  |EV| 
-0.020787411380159271 6922:1 22966:1 33421:1 53448:1 55844:1 56276:1 57884:1 61050:1 61059:1 61075:1 61221:1 61351:1 61503:1 61781:1 61789:1 61796:1 61800:1 61812:1 61823:1  |EV| 
0.10000000000000001 8088:1 24275:1 43606:1 53439:1 53444:1 53448:1 53531:1 53546:1 53634:1 53636:1 53892:1 54033:1 54096:1 54128:1 54726:1 54727:1 54728:1 54729:1 54730:1 54731:1 55448:1 55449:1 55914:1 56276:1 61041:1 61050:1 61059:1 61096:1 61221:1 61393:1 61522:1 61781:1 61789:1 61796:1 61800:1 61812:1 61821:1 61824:1  |EV| 
0.057350328790315389 2402:1 18050:1 36171:1 53439:1 53444:1 53448:1 53450:1 53457:1 53465:1 53475:1 53478:1 53507:1 53534:1 53556:1 53867:1 53883:1 53925:1 53949:1 53950:1 53951:1 53952:1 53953:1 53954:1 53955:1 53956:1 53957:1 53958:1 53959:1 53960:1 53967:1 53968:1 55571:1 56276:1 58009:1 58594:1 59395:1 61029:1 61050:1 61059:1 61106:1 61254:1 61432:1 61626:1 61781:1 61789:1 61796:1 61800:1 61812:1 61821:1  |EV| 
0.10000000000000001 7227:1 23297:1 42104:1 53439:1 53448:1 53465:1 53486:1 53560:1 53641:1 53681:1 53682:1 53683:1 53773:1 54612:1 55864:1 56276:1 57084:1 57890:1 58776:1 59992:1 61050:1 61059:1 61068:1 61210:1 61397:1 61526:1 61781:1 61789:1 61796:1 61800:1 61812:1 61821:1  |EV| 
0.10000000000000001 9860:1 26467:1 45761:1 53439:1 53531:1 54063:1 54222:1 54283:1 54472:1 56014:1 56276:1 61050:1 61059:1 61092:1 61226:1 61378:1 61503:1 61781:1 61789:1 61796:1 61800:1 61812:1 61821:1  |EV| 
-0.03732836793881876 8140:1 24332:1 43379:1 53439:1 53444:1 53448:1 53452:1 53453:1 53455:1 53531:1 53546:1 53634:1 53636:1 53892:1 54033:1 54096:1 54125:1 54128:1 54134:1 54717:1 54718:1 54719:1 54726:1 54727:1 54728:1 54729:1 54730:1 54731:1 55922:1 55923:1 56276:1 61038:1 61041:1 61050:1 61059:1 61107:1 61207:1 61413:1 61493:1 61781:1 61789:1 61795:1 61799:1 61800:1 61812:1 61821:1  |EV| 
-0.029466769662009687 8195:1 24493:1 43641:1 53439:1 53444:1 53448:1 53531:1 53546:1 53634:1 53636:1 53892:1 54096:1 54125:1 54128:1 54726:1 54727:1 54728:1 54729:1 54730:1 54731:1 55448:1 55449:1 55914:1 56276:1 61041:1 61050:1 61059:1 61108:1 61234:1 61393:1 61522:1 61781:1 61789:1 61796:1 61800:1 61812:1 61821:1 61824:1  |EV| 
-0.030367928847913384 12403:1 29711:1 39375:1 54398:1 56095:1 56276:1 57884:1 61050:1 61059:1 61075:1 61221:1 61351:1 61503:1 61781:1 61789:1 61796:1 61800:1 61812:1 61825:1  |EV| 
-0.10000000000000001 8604:1 24924:1 44042:1 53439:1 53448:1 53551:1 53562:1 54470:1 54537:1 54764:1 54765:1 55941:1 56276:1 61050:1 61059:1 61068:1 61215:1 61398:1 61514:1 61781:1 61789:1 61796:1 61800:1 61812:1 61821:1  |EV| 
-0.10000000000000001 9027:1 25461:1 44584:1 53448:1 53560:1 53562:1 53623:1 53726:1 54772:1 55642:1 56276:1 61050:1 61059:1 61073:1 61207:1 61378:1 61503:1 61781:1 61789:1 61796:1 61800:1 61812:1 61821:1  |EV| 
0.10000000000000001 15162:1 32718:1 53021:1 53442:1 53465:1 53466:1 53473:1 53480:1 53544:1 53579:1 53594:1 54041:1 54618:1 55439:1 56276:1 61050:1 61059:1 61086:1 61226:1 61397:1 61514:1 61781:1 61789:1 61795:1 61800:1 61812:1 61821:1  |EV| 
0.057242909588760535 9563:1 26109:1 45315:1 53442:1 53480:1 53760:1 54141:1 56003:1 56276:1 57884:1 61050:1 61059:1 61075:1 61220:1 61372:1 61503:1 61781:1 61789:1 61797:1 61800:1 61812:1 61821:1 61824:1  |EV| 
0.10000000000000001 14501:1 32026:1 52265:1 53442:1 53556:1 53557:1 53701:1 56223:1 56276:1 57889:1 61054:1 61059:1 61082:1 61209:1 61361:1 61505:1 61781:1 61789:1 61795:1 61800:1 61812:1 61821:1  |EV| 
-0.0043984251498064659 7862:1 24032:1 42940:1 53442:1 53444:1 53465:1 53970:1 54530:1 54618:1 54664:1 54665:1 54666:1 54667:1 55902:1 56276:1 61050:1 61059:1 61086:1 61226:1 61397:1 61514:1 61781:1 61789:1 61795:1 61800:1 61821:1  |EV| 
-0.032258581911780729 13779:1 31225:1 51441:1 53441:1 53444:1 55171:1 56170:1 56171:1 56276:1 61029:1 61033:1 61044:1 61049:1 61059:1 61073:1 61209:1 61351:1 61499:1 61781:1 61791:1 61797:1 61800:1 61812:1 61821:1  |EV| 
-0.068752057670585356 13409:1 30831:1 50994:1 53495:1 53710:1 53892:1 56158:1 56276:1 61049:1 61059:1 61092:1 61209:1 61351:1 61499:1 61781:1 61789:1 61797:1 61800:1 61812:1 61821:1  |EV| 
0.035444996117059771 12706:1 30050:1 50020:1 53444:1 53448:1 53562:1 53797:1 55062:1 55063:1 55064:1 56117:1 56276:1 61050:1 61059:1 61092:1 61226:1 61378:1 61503:1 61781:1 61789:1 61796:1 61800:1 61812:1 61821:1  |EV| 
-0.040148412829402166 14519:1 32045:1 52284:1 53442:1 53444:1 53445:1 53455:1 53557:1 56223:1 56276:1 57889:1 61053:1 61059:1 61063:1 61229:1 61370:1 61500:1 61781:1 61789:1 61795:1 61800:1 61812:1 61821:1  |EV| 
0.10000000000000001 7409:1 23523:1 42357:1 53444:1 53448:1 53450:1 53514:1 53562:1 55613:1 56276:1 57925:1 61050:1 61059:1 61075:1 61228:1 61373:1 61503:1 61781:1 61789:1 61796:1 61800:1 61812:1 61821:1 61823:1  |EV| 
0.10000000000000001 6993:1 23040:1 41832:1 53437:1 53439:1 53448:1 53482:1 53924:1 54598:1 55536:1 55846:1 56276:1 61043:1 61053:1 61059:1 61076:1 61215:1 61351:1 61500:1 61781:1 61789:1 61796:1 61800:1 61812:1 61819:1 61821:1  |EV| 
0.059810822233909468 13838:1 31286:1 51501:1 53434:1 53436:1 53437:1 53439:1 53448:1 53450:1 53451:1 53542:1 53657:1 53703:1 54086:1 54371:1 55180:1 56183:1 56276:1 61050:1 61059:1 61108:1 61220:1 61368:1 61523:1 61781:1 61789:1 61796:1 61800:1 61812:1 61819:1 61821:1  |EV| 
0.034408957095849707 2419:1 18067:1 36194:1 53439:1 53445:1 53448:1 53450:1 53465:1 53475:1 53522:1 53573:1 53989:1 53990:1 53991:1 53992:1 53993:1 55574:1 56276:1 58012:1 61050:1 61059:1 61100:1 61207:1 61392:1 61523:1 61781:1 61789:1 61796:1 61800:1 61812:1 61821:1  |EV| 
-0.0645006160064161 7975:1 24156:1 43132:1 53437:1 53439:1 53442:1 53444:1 53448:1 53465:1 53478:1 53482:1 53534:1 53556:1 53566:1 53631:1 53932:1 53941:1 53965:1 54251:1 54306:1 54349:1 54625:1 54658:1 54659:1 54660:1 54661:1 54663:1 54668:1 55406:1 56276:1 61050:1 61059:1 61072:1 61269:1 61399:1 61573:1 61781:1 61789:1 61796:1 61800:1 61812:1 61819:1 61821:1  |EV| 
-0.043854163332333176 12578:1 29897:1 49850:1 53448:1 53450:1 53562:1 54128:1 55963:1 56276:1 57884:1 61050:1 61059:1 61075:1 61220:1 61372:1 61503:1 61781:1 61789:1 61796:1 61800:1 61812:1 61824:1  |EV| 
-0.10000000000000001 4938:1 20738:1 47854:1 53444:1 53448:1 53760:1 54303:1 54875:1 55425:1 56276:1 57884:1 61050:1 61059:1 61075:1 61228:1 61373:1 61503:1 61781:1 61789:1 61796:1 61799:1 61800:1 61812:1 61821:1  |EV| 
0.10000000000000001 14717:1 32247:1 52512:1 53439:1 53444:1 53445:1 53448:1 53452:1 53475:1 53493:1 53515:1 53581:1 53594:1 53623:1 53965:1 54128:1 55224:1 55262:1 55267:1 55268:1 56232:1 56276:1 61050:1 61059:1 61087:1 61221:1 61390:1 61522:1 61781:1 61789:1 61797:1 61800:1 61812:1 61821:1  |EV| 
0.095496772010493544 10602:1 27473:1 46961:1 53442:1 53660:1 53892:1 55522:1 56276:1 61050:1 61059:1 61068:1 61221:1 61364:1 61503:1 61781:1 61789:1 61796:1 61800:1 61812:1 61819:1 61821:1 61824:1  |EV| 
-0.10000000000000001 14649:1 32177:1 52446:1 53439:1 53444:1 53445:1 53448:1 53493:1 53623:1 53965:1 55224:1 55262:1 55267:1 56232:1 56276:1 58408:1 61050:1 61059:1 61074:1 61221:1 61358:1 61514:1 61781:1 61789:1 61797:1 61800:1 61812:1 61821:1  |EV| 
-0.0073427246452423588 3648:1 19329:1 37554:1 53442:1 53448:1 53450:1 53457:1 53465:1 53512:1 53517:1 53581:1 53600:1 54099:1 54219:1 54227:1 54228:1 55685:1 56276:1 61050:1 61059:1 61097:1 61221:1 61392:1 61523:1 61781:1 61789:1 61796:1 61800:1 61812:1 61824:1 61825:1  |EV| 
-0.056542412844911911 12811:1 30180:1 50163:1 53448:1 53634:1 53710:1 55066:1 55558:1 56276:1 61053:1 61059:1 61063:1 61228:1 61351:1 61500:1 61781:1 61789:1 61796:1 61800:1 61812:1 61821:1  |EV| 
-0.018182942568293826 15204:1 32760:1 53076:1 53439:1 53456:1 53472:1 53581:1 53594:1 53763:1 54030:1 55316:1 55412:1 56276:1 61051:1 61059:1 61066:1 61221:1 61371:1 61496:1 61781:1 61789:1 61795:1 61800:1 61812:1 61821:1  |EV| 
-0.0036121666843549984 14716:1 32246:1 52511:1 53439:1 53444:1 53445:1 53448:1 53452:1 53475:1 53493:1 53515:1 53581:1 53594:1 53623:1 53965:1 54128:1 55224:1 55262:1 55263:1 55268:1 56232:1 56276:1 61050:1 61059:1 61108:1 61254:1 61390:1 61575:1 61781:1 61789:1 61797:1 61799:1 61800:1 61812:1 61821:1  |EV| 
0.10000000000000001 3355:1 20884:1 39370:1 53444:1 53448:1 53465:1 54398:1 54399:1 54400:1 55425:1 56276:1 57884:1 61050:1 61059:1 61075:1 61229:1 61359:1 61503:1 61781:1 61789:1 61796:1 61800:1 61812:1 61821:1 61827:1  |EV| 
0.10000000000000001 4052:1 30200:1 50184:1 53437:1 53439:1 53448:1 53465:1 53475:1 53581:1 53773:1 53896:1 53944:1 53948:1 54215:1 54283:1 55052:1 55068:1 55069:1 55428:1 56276:1 58012:1 61050:1 61059:1 61083:1 61210:1 61389:1 61526:1 61781:1 61789:1 61796:1 61800:1 61812:1 61821:1  |EV| 
-0.012014520118377855 14448:1 31972:1 40511:1 53437:1 53448:1 55425:1 56276:1 56850:1 57889:1 58693:1 59766:1 61051:1 61059:1 61082:1 61207:1 61363:1 61513:1 61781:1 61790:1 61796:1 61800:1 61821:1  |EV| 
0.10000000000000001 4052:1 19751:1 38348:1 53448:1 53465:1 53948:1 54264:1 54265:1 54266:1 54284:1 55428:1 56276:1 57884:1 61050:1 61059:1 61075:1 61234:1 61354:1 61514:1 61781:1 61789:1 61796:1 61800:1 61812:1 61821:1  |EV| 
0.10000000000000001 6538:1 22561:1 41296:1 53448:1 53465:1 53600:1 53623:1 53760:1 54509:1 54515:1 55799:1 56276:1 57884:1 61050:1 61059:1 61088:1 61226:1 61398:1 61514:1 61781:1 61791:1 61796:1 61800:1 61809:1 61812:1 61819:1 61821:1  |EV| 
-0.10000000000000001 9612:1 26170:1 45404:1 53444:1 53448:1 53465:1 53726:1 54399:1 54690:1 55425:1 56276:1 57884:1 61050:1 61059:1 61075:1 61215:1 61378:1 61503:1 61781:1 61789:1 61796:1 61800:1 61812:1 61821:1 61824:1  |EV| 
-0.10000000000000001 13771:1 31217:1 51434:1 53441:1 53444:1 53448:1 53465:1 54242:1 55155:1 55156:1 55498:1 55503:1 55525:1 55530:1 56276:1 57884:1 57910:1 58380:1 61029:1 61033:1 61044:1 61050:1 61059:1 61075:1 61215:1 61378:1 61503:1 61781:1 61791:1 61796:1 61800:1 61812:1 61821:1  |EV| 
-0.023407487721983831 7264:1 24122:1 43068:1 53465:1 53524:1 54712:1 55430:1 56276:1 57884:1 61050:1 61059:1 61075:1 61226:1 61364:1 61503:1 61781:1 61789:1 61796:1 61800:1 61812:1 61819:1  |EV| 
-0.10000000000000001 9506:1 26039:1 45216:1 53437:1 53465:1 54408:1 54608:1 54833:1 54834:1 55990:1 55991:1 56276:1 61038:1 61043:1 61050:1 61059:1 61068:1 61229:1 61354:1 61514:1 61781:1 61789:1 61796:1 61799:1 61800:1 61812:1 61821:1  |EV| 
0.086589122753689116 15303:1 32870:1 53218:1 53439:1 53441:1 53444:1 53450:1 53482:1 53562:1 53608:1 53678:1 53715:1 54941:1 55343:1 55471:1 56276:1 61050:1 61059:1 61108:1 61221:1 61397:1 61523:1 61781:1 61789:1 61795:1 61800:1 61812:1 61821:1  |EV| 
0.10000000000000001 14210:1 31807:1 52060:1 53439:1 53448:1 53676:1 55211:1 55843:1 56276:1 61051:1 61059:1 61084:1 61226:1 61353:1 61513:1 61781:1 61789:1 61795:1 61800:1 61812:1 61821:1  |EV| 
0.080803444319823545 3585:1 19629:1 47018:1 53439:1 53441:1 53442:1 53443:1 53480:1 53594:1 53631:1 53696:1 53710:1 54050:1 54378:1 54547:1 54564:1 54907:1 54908:1 54909:1 54912:1 54913:1 54914:1 55362:1 56276:1 61050:1 61059:1 61106:1 61221:1 61403:1 61493:1 61781:1 61789:1 61795:1 61799:1 61800:1 61812:1 61821:1  |EV| 
-0.040573015440868207 11622:1 28814:1 49126:1 53439:1 53452:1 53465:1 53480:1 56070:1 56276:1 57942:1 61051:1 61059:1 61084:1 61207:1 61356:1 61513:1 61781:1 61789:1 61796:1 61800:1 61812:1 61821:1 61824:1  |EV| 
-0.10000000000000001 5546:1 21447:1 39981:1 53439:1 53441:1 53448:1 55456:1 56276:1 61022:1 61051:1 61059:1 61076:1 61207:1 61353:1 61513:1 61781:1 61789:1 61797:1 61800:1 61812:1 61821:1  |EV| 
-0.10000000000000001 15149:1 32705:1 53008:1 53442:1 53448:1 53450:1 53466:1 53480:1 55439:1 56276:1 61051:1 61059:1 61085:1 61226:1 61356:1 61513:1 61781:1 61789:1 61795:1 61800:1 61812:1 61821:1  |EV| 
-0.0424883435973092 13830:1 31277:1 51493:1 53439:1 53448:1 53514:1 53676:1 55179:1 56181:1 56276:1 61053:1 61059:1 61077:1 61229:1 61364:1 61500:1 61781:1 61789:1 61796:1 61800:1 61812:1 61821:1  |EV| 
0.038092448271904361 4670:1 20451:1 38859:1 53556:1 53562:1 53681:1 53682:1 54283:1 55715:1 56276:1 58111:1 61050:1 61059:1 61072:1 61207:1 61373:1 61503:1 61781:1 61789:1 61795:1 61800:1 61812:1 61821:1 61823:1  |EV| 
0.10000000000000001 13773:1 31219:1 51436:1 53441:1 53444:1 53448:1 53465:1 55155:1 55156:1 55171:1 55498:1 55503:1 55525:1 55530:1 56276:1 61029:1 61033:1 61044:1 61050:1 61059:1 61073:1 61207:1 61378:1 61503:1 61781:1 61791:1 61796:1 61800:1 61812:1 61821:1  |EV| 
0.082847189951670466 12402:1 29709:1 49652:1 53444:1 53465:1 53834:1 54398:1 55017:1 55026:1 55027:1 56051:1 56106:1 56276:1 57884:1 61041:1 61050:1 61059:1 61075:1 61215:1 61378:1 61503:1 61781:1 61789:1 61796:1 61800:1 61812:1 61821:1  |EV| 
0.0020459288195543079 7031:1 23194:1 41992:1 53448:1 53456:1 53465:1 55356:1 55856:1 55857:1 56276:1 57884:1 61038:1 61041:1 61050:1 61059:1 61075:1 61226:1 61364:1 61503:1 61781:1 61789:1 61796:1 61800:1 61812:1 61821:1 61824:1  |EV| 
0.064265028257011816 12398:1 29699:1 49643:1 53448:1 53465:1 55029:1 55503:1 56098:1 56099:1 56276:1 57884:1 61044:1 61050:1 61059:1 61075:1 61226:1 61364:1 61503:1 61781:1 61789:1 61796:1 61800:1 61812:1 61821:1  |EV| 
-0.10000000000000001 11961:1 29190:1 49003:1 53444:1 53465:1 53760:1 54082:1 54995:1 56070:1 56276:1 57884:1 61050:1 61059:1 61075:1 61228:1 61373:1 61503:1 61781:1 61789:1 61796:1 61799:1 61800:1 61812:1 61821:1  |EV| 
-0.10000000000000001 666:1 16134:1 33835:1 53448:1 53465:1 53469:1 53471:1 53634:1 53640:1 53641:1 53643:1 53644:1 53645:1 55425:1 56276:1 61050:1 61059:1 61086:1 61226:1 61397:1 61514:1 61781:1 61789:1 61796:1 61800:1 61812:1 61821:1 61824:1  |EV| 
0.10000000000000001 8974:1 25389:1 44509:1 53439:1 53448:1 54149:1 55971:1 56276:1 61051:1 61059:1 61076:1 61207:1 61353:1 61513:1 61781:1 61789:1 61797:1 61800:1 61812:1 61821:1  |EV| 
0.10000000000000001 13753:1 31199:1 51416:1 53439:1 53448:1 53837:1 54109:1 55158:1 56177:1 56178:1 56276:1 61038:1 61041:1 61051:1 61059:1 61071:1 61220:1 61353:1 61513:1 61781:1 61789:1 61796:1 61800:1 61812:1 61821:1  |EV| 
-0.055024582711616858 9683:1 27279:1 46722:1 53439:1 53448:1 53478:1 53531:1 53534:1 54168:1 54420:1 54863:1 54864:1 55428:1 56276:1 61051:1 61059:1 61110:1 61220:1 61361:1 61496:1 61781:1 61789:1 61796:1 61800:1 61812:1 61821:1  |EV| 
-0.095964896550728568 840:1 16331:1 34096:1 53439:1 53448:1 53450:1 53718:1 53724:1 53738:1 55468:1 56276:1 57941:1 61051:1 61059:1 61090:1 61221:1 61376:1 61513:1 61781:1 61789:1 61796:1 61800:1 61812:1 61821:1  |EV| 
0.034661324310991712 14353:1 31876:1 52127:1 53439:1 53444:1 53465:1 53475:1 53478:1 53534:1 54750:1 55231:1 55232:1 55233:1 55234:1 55235:1 55236:1 55237:1 55238:1 55240:1 56055:1 56276:1 58175:1 61050:1 61059:1 61081:1 61226:1 61400:1 61522:1 61781:1 61789:1 61796:1 61800:1 61812:1 61821:1  |EV| 
0.03253598846109735 8703:1 25063:1 44185:1 53448:1 53684:1 55571:1 56276:1 57884:1 61050:1 61059:1 61075:1 61207:1 61370:1 61503:1 61781:1 61788:1 61796:1 61800:1 61809:1 61812:1 61821:1  |EV| 
0.073219440798643315 5283:1 21144:1 36941:1 53441:1 53448:1 55456:1 56276:1 57884:1 61022:1 61050:1 61059:1 61075:1 61207:1 61364:1 61503:1 61781:1 61789:1 61797:1 61800:1 61812:1 61821:1  |EV| 
0.040003632283030457 8140:1 24332:1 43506:1 53455:1 54134:1 55922:1 55923:1 56276:1 57884:1 61038:1 61041:1 61050:1 61059:1 61075:1 61207:1 61370:1 61503:1 61781:1 61789:1 61795:1 61799:1 61800:1 61812:1 61821:1  |EV| 
-0.020704072578908869 7827:1 28833:1 48687:1 53475:1 54972:1 55426:1 56276:1 57884:1 61050:1 61059:1 61075:1 61207:1 61370:1 61503:1 61781:1 61789:1 61795:1 61800:1 61812:1 61822:1  |EV| 
-0.011718650324070842 4930:1 20727:1 39217:1 54221:1 54408:1 55705:1 55758:1 56276:1 57884:1 61041:1 61050:1 61059:1 61075:1 61207:1 61370:1 61503:1 61781:1 61789:1 61797:1 61799:1 61800:1 61804:1 61812:1  |EV| 
-0.027155231678740455 8778:1 25150:1 44269:1 53880:1 54790:1 55966:1 56276:1 57884:1 61050:1 61059:1 61075:1 61207:1 61370:1 61503:1 61781:1 61789:1 61794:1 61800:1 61812:1 61819:1  |EV| 
-0.017579566653922497 2741:1 18400:1 36553:1 53444:1 53514:1 55590:1 56276:1 57884:1 61050:1 61059:1 61075:1 61207:1 61370:1 61503:1 61781:1 61789:1 61794:1 61799:1 61800:1 61812:1 61819:1  |EV| 
-0.0051237618196621924 10509:1 29252:1 33421:1 53448:1 55660:1 56276:1 57884:1 61050:1 61059:1 61075:1 61221:1 61351:1 61503:1 61781:1 61789:1 61795:1 61800:1 61812:1 61822:1  |EV| 
0.10000000000000001 7469:1 23593:1 42424:1 53448:1 53450:1 53465:1 54641:1 54642:1 55877:1 56276:1 57151:1 57911:1 58054:1 58439:1 60068:1 61029:1 61053:1 61059:1 61082:1 61215:1 61351:1 61500:1 61781:1 61789:1 61796:1 61800:1 61812:1 61821:1  |EV| 
0.10000000000000001 12037:1 29280:1 49162:1 53439:1 53444:1 53448:1 53465:1 53467:1 53478:1 53480:1 53481:1 53491:1 53515:1 53522:1 53534:1 53542:1 53561:1 53763:1 53825:1 53945:1 53946:1 54283:1 54895:1 54972:1 54974:1 54977:1 54997:1 55000:1 56078:1 56276:1 61050:1 61059:1 61060:1 61229:1 61432:1 61519:1 61781:1 61789:1 61796:1 61800:1 61812:1 61821:1  |EV| 
-0.099147431035931058 11821:1 29034:1 48769:1 53439:1 53444:1 53448:1 53465:1 53467:1 53478:1 53480:1 53481:1 53491:1 53515:1 53522:1 53534:1 53542:1 53561:1 53763:1 53825:1 53945:1 53946:1 54283:1 54879:1 54895:1 54972:1 54974:1 54997:1 55000:1 56078:1 56276:1 61050:1 61059:1 61087:1 61253:1 61432:1 61659:1 61781:1 61789:1 61796:1 61800:1 61812:1 61821:1  |EV| 
-0.042720058383415381 4252:1 29061:1 48801:1 53448:1 53465:1 53467:1 53478:1 53480:1 53481:1 53491:1 53515:1 53522:1 53534:1 53542:1 53825:1 53945:1 53946:1 54283:1 54895:1 54974:1 54997:1 55000:1 55562:1 56276:1 61050:1 61059:1 61087:1 61221:1 61390:1 61522:1 61781:1 61789:1 61797:1 61800:1 61812:1 61826:1  |EV| 
-0.10000000000000001 15030:1 32586:1 52882:1 53439:1 53448:1 53451:1 53465:1 53676:1 54142:1 56253:1 56276:1 61053:1 61059:1 61082:1 61234:1 61364:1 61500:1 61781:1 61789:1 61796:1 61800:1 61812:1 61821:1  |EV| 
-0.10000000000000001 13511:1 30943:1 51110:1 53439:1 53442:1 53448:1 53452:1 53453:1 53465:1 53531:1 53715:1 53744:1 53937:1 54175:1 55130:1 55131:1 55537:1 56276:1 61050:1 61059:1 61061:1 61207:1 61402:1 61523:1 61781:1 61789:1 61796:1 61800:1 61812:1 61821:1  |EV| 
0.053840085995605101 886:1 16382:1 34119:1 53441:1 53442:1 55474:1 56276:1 57884:1 61050:1 61059:1 61075:1 61207:1 61370:1 61503:1 61781:1 61789:1 61795:1 61799:1 61800:1 61812:1 61821:1  |EV| 
0.018040636799875751 14820:1 32362:1 52629:1 53434:1 55225:1 56240:1 56276:1 57884:1 61050:1 61059:1 61075:1 61207:1 61370:1 61503:1 61781:1 61789:1 61797:1 61799:1 61800:1 61812:1 61821:1 61824:1  |EV| 
0.012666193386406708 12594:1 29991:1 37344:1 53448:1 53521:1 55727:1 56276:1 57884:1 61050:1 61059:1 61075:1 61207:1 61370:1 61503:1 61781:1 61789:1 61796:1 61800:1 61812:1 61821:1 61824:1  |EV| 
-0.082250723039211257 12629:1 29975:1 49936:1 53439:1 53837:1 53999:1 55042:1 56122:1 56276:1 57884:1 61052:1 61058:1 61075:1 61232:1 61361:1 61497:1 61781:1 61789:1 61796:1 61800:1 61812:1 61821:1  |EV| 
-0.074704846620966991 15146:1 32702:1 33423:1 53439:1 55885:1 56276:1 57884:1 61052:1 61058:1 61075:1 61212:1 61353:1 61497:1 61781:1 61789:1 61796:1 61800:1 61812:1 61821:1  |EV| 
-0.033528445597547939 14557:1 32841:1 53183:1 53439:1 53441:1 53444:1 53450:1 53482:1 53562:1 53608:1 53678:1 54312:1 54941:1 55343:1 55471:1 56276:1 57884:1 61050:1 61059:1 61075:1 61214:1 61397:1 61526:1 61781:1 61789:1 61795:1 61800:1 61812:1 61821:1  |EV| 
0.10000000000000001 11825:1 29034:1 48773:1 53448:1 53465:1 53467:1 53478:1 53480:1 53481:1 53491:1 53515:1 53534:1 53542:1 53825:1 53945:1 53946:1 54283:1 54895:1 54997:1 55000:1 56078:1 56276:1 61049:1 61059:1 61087:1 61242:1 61373:1 61525:1 61781:1 61789:1 61796:1 61800:1 61812:1 61821:1  |EV| 
0.10000000000000001 14066:1 31542:1 51790:1 53448:1 53465:1 53475:1 53478:1 53534:1 55194:1 55195:1 56187:1 56276:1 57885:1 61053:1 61059:1 61077:1 61234:1 61373:1 61500:1 61781:1 61789:1 61796:1 61800:1 61812:1 61821:1  |EV| 
0.078676242573025981 7052:1 23101:1 41894:1 53439:1 53448:1 53478:1 53522:1 53531:1 53534:1 53853:1 54046:1 54175:1 54574:1 54582:1 55536:1 56276:1 58175:1 58176:1 61029:1 61033:1 61050:1 61059:1 61108:1 61221:1 61397:1 61523:1 61781:1 61789:1 61796:1 61800:1 61812:1 61821:1  |EV| 
-0.043946092004769038 12033:1 29280:1 49154:1 53439:1 53448:1 53465:1 53467:1 53478:1 53480:1 53481:1 53491:1 53515:1 53522:1 53534:1 53542:1 53561:1 53763:1 53825:1 53945:1 53946:1 54283:1 54895:1 54977:1 54997:1 55000:1 56078:1 56276:1 61049:1 61059:1 61060:1 61225:1 61373:1 61531:1 61781:1 61789:1 61796:1 61800:1 61812:1 61821:1  |EV| 
-0.10000000000000001 7091:1 23142:1 41939:1 53439:1 53448:1 53478:1 53522:1 53531:1 53534:1 53853:1 54175:1 54574:1 54582:1 54583:1 55536:1 56276:1 61029:1 61033:1 61050:1 61059:1 61073:1 61229:1 61397:1 61514:1 61781:1 61789:1 61796:1 61800:1 61812:1 61821:1  |EV| 
-0.037235010631218569 4924:1 20721:1 39211:1 53442:1 53562:1 53825:1 55613:1 56276:1 61032:1 61050:1 61059:1 61072:1 61207:1 61373:1 61503:1 61781:1 61791:1 61796:1 61800:1 61821:1  |EV| 
-0.060406213535069149 8890:1 25285:1 44405:1 53439:1 53457:1 55971:1 56276:1 57884:1 61052:1 61058:1 61065:1 61216:1 61353:1 61497:1 61781:1 61789:1 61797:1 61800:1 61812:1 61821:1  |EV| 
-0.083111647007892364 9595:1 26148:1 45466:1 53444:1 53448:1 53465:1 53726:1 53784:1 54399:1 55406:1 56276:1 61052:1 61058:1 61088:1 61227:1 61363:1 61497:1 61781:1 61789:1 61796:1 61800:1 61812:1 61821:1  |EV| 
0.10000000000000001 2341:1 17985:1 36094:1 53439:1 53448:1 53465:1 53472:1 53568:1 53595:1 53637:1 53642:1 53739:1 53937:1 55558:1 56276:1 61050:1 61059:1 61074:1 61207:1 61397:1 61514:1 61781:1 61791:1 61796:1 61800:1 61812:1 61821:1  |EV| 
-0.088414485887744004 3236:1 18904:1 37114:1 53439:1 53444:1 53455:1 53522:1 53560:1 53594:1 54129:1 54130:1 54131:1 54132:1 54133:1 54134:1 54135:1 54136:1 54137:1 55558:1 56276:1 57904:1 61050:1 61059:1 61089:1 61226:1 61393:1 61522:1 61781:1 61789:1 61796:1 61800:1 61812:1 61819:1 61821:1  |EV| 
-0.044987805425818685 14725:1 32255:1 52520:1 53439:1 53448:1 53452:1 53475:1 53581:1 53594:1 54128:1 55268:1 55384:1 56276:1 58439:1 59140:1 61049:1 61059:1 61108:1 61227:1 61351:1 61521:1 61781:1 61789:1 61796:1 61799:1 61800:1 61812:1 61821:1  |EV| 
-0.10000000000000001 11349:1 28463:1 48067:1 53444:1 53448:1 53480:1 53594:1 53760:1 53825:1 53870:1 54895:1 56066:1 56276:1 61050:1 61059:1 61086:1 61238:1 61354:1 61514:1 61781:1 61789:1 61796:1 61799:1 61800:1 61812:1 61821:1  |EV| 
0.10000000000000001 911:1 30586:1 50616:1 53448:1 53457:1 53472:1 53480:1 54064:1 55669:1 56276:1 57642:1 57884:1 58957:1 60686:1 61052:1 61058:1 61065:1 61232:1 61380:1 61497:1 61781:1 61789:1 61796:1 61800:1 61812:1 61819:1 61821:1  |EV| 
-0.011486018833809637 14440:1 31964:1 52207:1 53444:1 53465:1 53475:1 53534:1 54750:1 55240:1 56055:1 56276:1 58397:1 58400:1 61033:1 61050:1 61059:1 61072:1 61226:1 61359:1 61503:1 61781:1 61789:1 61796:1 61800:1 61821:1  |EV| 
-0.038404514154411019 13791:1 31237:1 51453:1 53439:1 54188:1 56177:1 56178:1 56276:1 57884:1 61038:1 61041:1 61052:1 61058:1 61065:1 61216:1 61353:1 61497:1 61781:1 61789:1 61796:1 61800:1 61812:1 61821:1  |EV| 
0.0095654530343121779 3052:1 18716:1 36941:1 53441:1 53448:1 55640:1 56276:1 57884:1 61050:1 61059:1 61075:1 61207:1 61370:1 61503:1 61781:1 61789:1 61795:1 61799:1 61800:1 61812:1 61821:1  |EV| 
-0.10000000000000001 7621:1 23766:1 42599:1 53448:1 54448:1 54690:1 55428:1 56276:1 61053:1 61059:1 61094:1 61220:1 61370:1 61500:1 61781:1 61789:1 61796:1 61800:1 61812:1 61821:1  |EV| 
0.10000000000000001 14683:1 32212:1 52479:1 53448:1 53594:1 55384:1 56276:1 57310:1 57904:1 58439:1 59140:1 61049:1 61059:1 61072:1 61219:1 61351:1 61499:1 61781:1 61789:1 61796:1 61800:1 61812:1 61821:1  |EV| 
0.098760137102576959 11582:1 28765:1 48430:1 53444:1 53448:1 53760:1 54082:1 54303:1 55425:1 56276:1 61050:1 61059:1 61092:1 61221:1 61373:1 61503:1 61781:1 61789:1 61796:1 61800:1 61812:1 61821:1  |EV| 
-0.10000000000000001 8024:1 24207:1 43229:1 53437:1 53444:1 53448:1 53453:1 53465:1 53556:1 54625:1 55660:1 56276:1 61050:1 61059:1 61073:1 61207:1 61378:1 61503:1 61781:1 61789:1 61795:1 61800:1 61812:1 61821:1  |EV| 
0.044698488579486481 1793:1 17332:1 35260:1 53437:1 53439:1 53442:1 53444:1 53455:1 53475:1 53724:1 53869:1 53910:1 53911:1 53912:1 53913:1 53914:1 53915:1 55351:1 55450:1 56276:1 57884:1 61041:1 61050:1 61059:1 61061:1 61220:1 61392:1 61523:1 61781:1 61789:1 61796:1 61800:1 61812:1 61821:1  |EV| 
0.070613237362845624 9459:1 25980:1 45150:1 53448:1 53465:1 53591:1 55406:1 56276:1 61051:1 61059:1 61076:1 61226:1 61363:1 61513:1 61781:1 61789:1 61796:1 61800:1 61812:1 61821:1  |EV| 
-0.035188107118792653 9771:1 26359:1 45781:1 53439:1 53442:1 53444:1 53448:1 53475:1 53478:1 53521:1 53534:1 53945:1 53948:1 54871:1 54872:1 55613:1 56276:1 57958:1 61051:1 61059:1 61114:1 61221:1 61386:1 61517:1 61781:1 61789:1 61796:1 61800:1 61812:1 61821:1  |EV| 
-0.10000000000000001 10420:1 27214:1 48173:1 53444:1 53448:1 53480:1 53594:1 53825:1 56024:1 56276:1 57958:1 61051:1 61059:1 61085:1 61221:1 61380:1 61513:1 61781:1 61789:1 61796:1 61800:1 61812:1 61821:1  |EV| 
-0.01850330661812671 9456:1 25977:1 45146:1 53448:1 53475:1 55352:1 56276:1 57889:1 61051:1 61059:1 61082:1 61221:1 61353:1 61513:1 61781:1 61790:1 61797:1 61800:1 61821:1  |EV| 
-0.020506573086776409 104:1 25569:1 44692:1 53441:1 53465:1 55366:1 56276:1 57889:1 61051:1 61059:1 61082:1 61221:1 61353:1 61513:1 61781:1 61789:1 61796:1 61800:1 61821:1  |EV| 
0.072310619579795371 3079:1 18744:1 36917:1 53448:1 53450:1 53451:1 53465:1 53482:1 53631:1 54041:1 54095:1 55626:1 55627:1 56276:1 57884:1 61038:1 61050:1 61059:1 61075:1 61234:1 61354:1 61514:1 61781:1 61789:1 61796:1 61800:1 61812:1 61821:1  |EV| 
-0.10000000000000001 5431:1 21297:1 39809:1 53442:1 53448:1 53542:1 53562:1 53617:1 53892:1 53937:1 54016:1 54303:1 54469:1 54475:1 55614:1 56276:1 57884:1 61050:1 61059:1 61075:1 61253:1 61350:1 61526:1 61781:1 61789:1 61797:1 61800:1 61812:1 61819:1 61821:1  |EV| 
-0.10000000000000001 6147:1 22164:1 40844:1 53448:1 53562:1 55642:1 56276:1 57885:1 61053:1 61059:1 61094:1 61226:1 61351:1 61500:1 61781:1 61789:1 61796:1 61800:1 61812:1 61819:1 61821:1  |EV| 
-0.10000000000000001 910:1 16408:1 34145:1 53437:1 53439:1 53441:1 53442:1 53465:1 53476:1 53583:1 53631:1 53701:1 53702:1 53703:1 53704:1 53705:1 53706:1 53707:1 53708:1 53709:1 53710:1 55360:1 56276:1 57884:1 61050:1 61059:1 61075:1 61213:1 61390:1 61530:1 61781:1 61789:1 61796:1 61799:1 61800:1 61812:1 61821:1  |EV| 
-0.044428967114539059 13082:1 30483:1 50507:1 53439:1 53442:1 53448:1 53509:1 53544:1 53562:1 53594:1 53634:1 53713:1 53892:1 54041:1 54379:1 54475:1 55070:1 55076:1 55579:1 56276:1 57884:1 61050:1 61059:1 61075:1 61248:1 61389:1 61526:1 61781:1 61789:1 61797:1 61800:1 61812:1 61821:1  |EV| 
0.10000000000000001 12772:1 30138:1 50121:1 53439:1 53465:1 55963:1 56276:1 61051:1 61059:1 61082:1 61221:1 61353:1 61513:1 61781:1 61789:1 61796:1 61800:1 61812:1 61821:1  |EV| 
0.10000000000000001 6709:1 31279:1 50121:1 53439:1 53465:1 55354:1 56276:1 61051:1 61059:1 61082:1 61221:1 61353:1 61513:1 61781:1 61789:1 61796:1 61800:1 61812:1 61821:1  |EV| 
0.070967855723697584 12116:1 29374:1 49320:1 53465:1 53704:1 55021:1 56101:1 56276:1 61051:1 61059:1 61076:1 61207:1 61353:1 61513:1 61781:1 61789:1 61796:1 61800:1 61812:1 61821:1  |EV| 
0.056478781222510217 9904:1 29064:1 48806:1 53448:1 53465:1 53481:1 55003:1 55456:1 56276:1 61051:1 61059:1 61084:1 61220:1 61363:1 61513:1 61781:1 61789:1 61797:1 61800:1 61812:1 61821:1  |EV| 
-0.073195512491334269 8933:1 25336:1 44456:1 53439:1 53441:1 53465:1 53560:1 53568:1 55366:1 56276:1 61051:1 61059:1 61085:1 61221:1 61380:1 61513:1 61781:1 61789:1 61796:1 61800:1 61812:1 61821:1  |EV| 
-0.059165999984697015 1838:1 17503:1 35737:1 53465:1 53478:1 55545:1 56276:1 57999:1 61051:1 61059:1 61082:1 61221:1 61353:1 61513:1 61781:1 61789:1 61796:1 61800:1 61821:1  |EV| 
-0.0048194014398348804 4429:1 20190:1 38597:1 53465:1 53763:1 55716:1 56276:1 57942:1 61051:1 61059:1 61082:1 61221:1 61353:1 61513:1 61781:1 61789:1 61796:1 61800:1 61821:1  |EV| 
-0.058740353708660577 9342:1 25852:1 44998:1 53439:1 53442:1 53448:1 53568:1 53907:1 54738:1 55456:1 56276:1 61051:1 61059:1 61071:1 61221:1 61361:1 61513:1 61781:1 61789:1 61797:1 61800:1 61812:1 61821:1  |EV| 
-0.030347726797077812 3038:1 18702:1 36869:1 53439:1 53448:1 53450:1 53451:1 53465:1 53480:1 53482:1 53628:1 53631:1 53715:1 54041:1 54092:1 54095:1 54102:1 54103:1 55626:1 55627:1 56276:1 57941:1 61038:1 61053:1 61059:1 61071:1 61245:1 61354:1 61524:1 61781:1 61789:1 61796:1 61800:1 61812:1 61821:1  |EV| 
0.10000000000000001 5295:1 21947:1 40569:1 53442:1 53448:1 53542:1 53562:1 53617:1 53892:1 53937:1 54016:1 54303:1 54468:1 54469:1 55614:1 56276:1 61050:1 61059:1 61086:1 61220:1 61350:1 61514:1 61781:1 61789:1 61797:1 61800:1 61812:1 61819:1 61821:1  |EV| 
0.010215588081320504 8952:1 27608:1 34455:1 53448:1 53562:1 55642:1 56276:1 57884:1 61050:1 61059:1 61075:1 61207:1 61370:1 61503:1 61781:1 61789:1 61796:1 61800:1 61812:1 61819:1 61821:1  |EV| 
0.043372676245178571 8911:1 25310:1 34455:1 53448:1 53562:1 55642:1 56276:1 57884:1 61050:1 61059:1 61075:1 61207:1 61370:1 61503:1 61781:1 61791:1 61796:1 61800:1 61812:1 61821:1  |EV| 
-0.10000000000000001 5111:1 20953:1 39434:1 53448:1 53465:1 53481:1 54405:1 55562:1 56276:1 57884:1 61050:1 61059:1 61075:1 61220:1 61372:1 61503:1 61781:1 61789:1 61797:1 61800:1 61821:1 61824:1  |EV| 
-0.044402843384957966 15262:1 32893:1 53303:1 53442:1 53465:1 53919:1 54134:1 55331:1 55347:1 56276:1 61050:1 61059:1 61092:1 61207:1 61359:1 61503:1 61781:1 61789:1 61795:1 61800:1 61812:1 61822:1  |EV| 
-0.047868297641243972 1062:1 30013:1 49982:1 53442:1 53453:1 53472:1 53492:1 53613:1 54786:1 55471:1 56276:1 57884:1 61050:1 61059:1 61075:1 61229:1 61359:1 61503:1 61781:1 61789:1 61795:1 61800:1 61812:1 61821:1  |EV| 
0.041815201222413473 11263:1 28360:1 47958:1 53465:1 53726:1 54965:1 56055:1 56276:1 57884:1 61050:1 61059:1 61075:1 61226:1 61364:1 61503:1 61781:1 61789:1 61796:1 61800:1 61812:1 61821:1  |EV| 
-0.059838930673016967 8576:1 24893:1 44009:1 53439:1 53448:1 53465:1 53552:1 53588:1 53703:1 53726:1 53924:1 54469:1 54680:1 54768:1 54769:1 55692:1 55951:1 56276:1 61043:1 61053:1 61059:1 61110:1 61258:1 61370:1 61535:1 61781:1 61789:1 61796:1 61800:1 61812:1 61821:1  |EV| 
-0.046276599456505231 4107:1 19809:1 38095:1 53444:1 53448:1 53562:1 54295:1 54302:1 54303:1 55613:1 56276:1 61049:1 61059:1 61083:1 61209:1 61372:1 61499:1 61781:1 61789:1 61796:1 61800:1 61812:1 61821:1  |EV| 
0.047500920744310719 610:1 16073:1 33764:1 53448:1 53465:1 53645:1 55425:1 56276:1 56400:1 57929:1 58503:1 59179:1 61050:1 61059:1 61075:1 61226:1 61364:1 61503:1 61781:1 61789:1 61796:1 61800:1 61812:1 61821:1 61824:1  |EV| 
0.10000000000000001 9211:1 26150:1 45461:1 53444:1 53448:1 53465:1 53726:1 53784:1 54399:1 55425:1 56276:1 61050:1 61059:1 61088:1 61221:1 61378:1 61503:1 61781:1 61789:1 61796:1 61800:1 61812:1 61821:1 61824:1  |EV| 
-0.10000000000000001 6364:1 22387:1 41108:1 53448:1 53465:1 53507:1 53551:1 53594:1 54001:1 54512:1 54513:1 54514:1 55803:1 56276:1 58042:1 61050:1 61059:1 61065:1 61234:1 61398:1 61514:1 61781:1 61789:1 61796:1 61800:1 61812:1 61821:1  |EV| 
0.10000000000000001 578:1 16036:1 33724:1 53448:1 53465:1 53514:1 55416:1 56276:1 57885:1 61053:1 61059:1 61094:1 61220:1 61370:1 61500:1 61781:1 61789:1 61796:1 61800:1 61812:1 61821:1 61824:1  |EV| 
-0.046096626492400337 1153:1 16672:1 34679:1 53681:1 53682:1 53737:1 53791:1 53796:1 55404:1 56276:1 61050:1 61059:1 61092:1 61221:1 61373:1 61503:1 61781:1 61789:1 61795:1 61800:1 61812:1  |EV| 
-0.090156467327207848 4:1 15420:1 33020:1 53464:1 53473:1 55363:1 56276:1 61050:1 61059:1 61068:1 61238:1 61370:1 61503:1 61781:1 61789:1 61795:1 61800:1 61821:1  |EV| 
-0.10000000000000001 4211:1 19929:1 38232:1 53442:1 53444:1 53581:1 54244:1 54289:1 55701:1 56276:1 57884:1 61050:1 61059:1 61075:1 61228:1 61373:1 61503:1 61781:1 61789:1 61796:1 61800:1 61812:1 61821:1 61824:1  |EV| 
0.10000000000000001 13853:1 31303:1 51519:1 53448:1 53450:1 53451:1 53465:1 53703:1 53716:1 54248:1 55176:1 55605:1 56276:1 57884:1 61050:1 61059:1 61075:1 61234:1 61354:1 61514:1 61781:1 61789:1 61796:1 61800:1 61812:1 61821:1  |EV| 
-0.10000000000000001 9465:1 25987:1 45157:1 53448:1 53465:1 53591:1 53726:1 53784:1 54262:1 55746:1 56276:1 61053:1 61059:1 61076:1 61210:1 61364:1 61512:1 61781:1 61789:1 61796:1 61800:1 61812:1 61821:1  |EV| 
-0.019962920189969882 4683:1 20467:1 38889:1 53437:1 53444:1 53448:1 53450:1 53453:1 53463:1 53465:1 53472:1 53475:1 53504:1 53621:1 53638:1 53681:1 53750:1 53874:1 54317:1 54318:1 54335:1 54336:1 54337:1 54338:1 54339:1 54349:1 55716:1 56276:1 61050:1 61059:1 61078:1 61238:1 61413:1 61493:1 61781:1 61789:1 61796:1 61800:1 61812:1 61821:1  |EV| 
-0.013559224256092033 11960:1 29189:1 49002:1 53448:1 53465:1 53481:1 53595:1 53621:1 53726:1 54693:1 55003:1 56069:1 56276:1 61053:1 61059:1 61084:1 61253:1 61373:1 61512:1 61781:1 61789:1 61796:1 61800:1 61812:1 61821:1  |EV| 
-0.10000000000000001 1354:1 23306:1 33421:1 53448:1 55384:1 56276:1 57884:1 61050:1 61059:1 61075:1 61221:1 61351:1 61503:1 61781:1 61789:1 61796:1 61800:1 61812:1  |EV| 
-0.057300734787347971 754:1 16242:1 33960:1 53444:1 53448:1 53465:1 53495:1 53512:1 53556:1 53568:1 53581:1 53655:1 53656:1 53657:1 53658:1 55428:1 56276:1 61050:1 61059:1 61100:1 61207:1 61392:1 61523:1 61781:1 61789:1 61796:1 61800:1 61814:1 61821:1  |EV| 
0.10000000000000001 840:1 16331:1 33421:1 53448:1 55468:1 56276:1 57884:1 61050:1 61059:1 61075:1 61221:1 61351:1 61503:1 61781:1 61789:1 61796:1 61800:1 61812:1 61821:1  |EV| 
0.041191974188585279 14758:1 32291:1 52558:1 53770:1 55642:1 56276:1 57884:1 61050:1 61059:1 61075:1 61221:1 61351:1 61503:1 61781:1 61789:1 61796:1 61800:1 61812:1 61821:1 61824:1  |EV| 
-0.03610432918220282 4082:1 19782:1 33421:1 53448:1 55708:1 56276:1 57884:1 61050:1 61059:1 61075:1 61221:1 61351:1 61503:1 61781:1 61789:1 61795:1 61800:1 61812:1 61822:1  |EV| 
-0.036104329182202861 14065:1 31541:1 33421:1 53448:1 56194:1 56276:1 57884:1 61050:1 61059:1 61075:1 61221:1 61351:1 61503:1 61781:1 61789:1 61795:1 61800:1 61812:1 61822:1  |EV| 
-0.034363518922070409 12225:1 29492:1 33421:1 53448:1 56059:1 56276:1 57884:1 61050:1 61059:1 61075:1 61221:1 61351:1 61503:1 61781:1 61789:1 61795:1 61800:1 61812:1  |EV| 
-0.008781386539839545 3314:1 19017:1 33421:1 53448:1 55660:1 56276:1 57884:1 61050:1 61059:1 61075:1 61221:1 61351:1 61503:1 61781:1 61789:1 61795:1 61799:1 61800:1 61812:1 61822:1  |EV| 
-0.048637775430318546 11830:1 29042:1 48779:1 53439:1 53452:1 53465:1 53480:1 53481:1 53568:1 53595:1 53621:1 53870:1 54693:1 54972:1 54976:1 56030:1 56077:1 56276:1 61038:1 61041:1 61050:1 61059:1 61099:1 61238:1 61389:1 61523:1 61781:1 61789:1 61797:1 61799:1 61800:1 61812:1 61821:1  |EV| 
-0.07460199365458417 1838:1 17503:1 35966:1 53439:1 53441:1 53444:1 53445:1 53465:1 53566:1 53611:1 53621:1 53623:1 53691:1 53790:1 53804:1 53863:1 53864:1 53865:1 53867:1 55545:1 56276:1 61050:1 61059:1 61099:1 61221:1 61381:1 61523:1 61781:1 61789:1 61796:1 61800:1 61812:1 61821:1  |EV| 
0.024458145446222962 1400:1 32262:1 34634:1 53442:1 55486:1 56276:1 57884:1 61050:1 61059:1 61075:1 61221:1 61351:1 61503:1 61781:1 61789:1 61795:1 61799:1 61800:1 61812:1 61821:1  |EV| 
-0.0039606238549296418 4987:1 20794:1 39283:1 53465:1 54324:1 55651:1 56276:1 61050:1 61059:1 61068:1 61238:1 61370:1 61503:1 61781:1 61789:1 61795:1 61800:1 61812:1  |EV| 
-0.0069538537420026905 12082:1 29336:1 49284:1 53448:1 54149:1 55456:1 56276:1 57904:1 61050:1 61059:1 61075:1 61207:1 61370:1 61503:1 61781:1 61790:1 61797:1 61799:1 61800:1 61821:1  |EV| 
-0.06700905872587104 5513:1 21401:1 39928:1 53439:1 53441:1 53448:1 53453:1 53488:1 53551:1 53726:1 55593:1 56276:1 58012:1 61050:1 61059:1 61083:1 61221:1 61354:1 61514:1 61781:1 61789:1 61795:1 61800:1 61812:1 61821:1  |EV| 
0.025169205861059935 10417:1 27208:1 46625:1 53594:1 54895:1 56007:1 56276:1 57884:1 61050:1 61059:1 61075:1 61207:1 61370:1 61503:1 61781:1 61789:1 61796:1 61800:1 61812:1 61821:1  |EV| 
0.018849215097764417 6213:1 22231:1 39401:1 53442:1 53562:1 55394:1 56276:1 57884:1 61050:1 61059:1 61075:1 61207:1 61370:1 61503:1 61781:1 61789:1 61795:1 61800:1 61812:1 61821:1  |EV| 
-0.025066736744229504 13342:1 30757:1 50807:1 53448:1 53773:1 56154:1 56276:1 57884:1 61050:1 61059:1 61075:1 61207:1 61370:1 61503:1 61781:1 61789:1 61796:1 61800:1 61812:1 61827:1  |EV| 
-0.028906620147003743 7682:1 23833:1 42682:1 53448:1 54221:1 55558:1 56276:1 57884:1 61050:1 61059:1 61075:1 61207:1 61370:1 61503:1 61781:1 61789:1 61796:1 61800:1 61812:1  |EV| 
-0.021795557404662883 12616:1 29937:1 49893:1 53455:1 53475:1 55621:1 56276:1 57884:1 61050:1 61059:1 61075:1 61207:1 61370:1 61503:1 61781:1 61789:1 61796:1 61800:1 61812:1 61823:1  |EV| 
-0.063482410913533308 6709:1 22739:1 41478:1 53437:1 53448:1 55354:1 56276:1 57884:1 61050:1 61059:1 61075:1 61207:1 61370:1 61503:1 61781:1 61789:1 61796:1 61800:1 61812:1  |EV| 
-0.025209701530804436 5946:1 21911:1 40528:1 53448:1 53542:1 53562:1 53892:1 54303:1 55614:1 56276:1 61050:1 61059:1 61065:1 61220:1 61373:1 61503:1 61781:1 61791:1 61797:1 61800:1 61811:1 61819:1 61821:1  |EV| 
0.088106023434536135 6450:1 22473:1 41201:1 53448:1 53465:1 53507:1 53551:1 53594:1 54001:1 54511:1 54513:1 54514:1 55803:1 56276:1 61050:1 61059:1 61092:1 61228:1 61398:1 61514:1 61781:1 61789:1 61796:1 61800:1 61812:1 61821:1  |EV| 
0.080947518720950393 8642:1 24971:1 44091:1 53439:1 53448:1 53551:1 53562:1 53713:1 54470:1 54764:1 54765:1 55941:1 56276:1 61050:1 61059:1 61086:1 61221:1 61398:1 61514:1 61781:1 61789:1 61796:1 61800:1 61812:1 61821:1  |EV| 
0.10000000000000001 14363:1 31886:1 52137:1 53437:1 53444:1 53448:1 53634:1 53834:1 54772:1 55228:1 55229:1 55230:1 55425:1 56276:1 61050:1 61059:1 61083:1 61207:1 61398:1 61514:1 61781:1 61789:1 61796:1 61800:1 61812:1 61821:1  |EV| 
0.10000000000000001 11622:1 28814:1 48754:1 53465:1 53480:1 53481:1 53568:1 53595:1 53621:1 54693:1 54972:1 56070:1 56276:1 61050:1 61059:1 61074:1 61207:1 61397:1 61514:1 61781:1 61789:1 61796:1 61800:1 61812:1 61821:1 61824:1  |EV| 
0.10000000000000001 7811:1 23978:1 42864:1 53434:1 53442:1 53444:1 53448:1 53482:1 53551:1 53655:1 53659:1 53739:1 54218:1 54671:1 54693:1 55898:1 56276:1 61050:1 61059:1 61074:1 61226:1 61350:1 61514:1 61781:1 61789:1 61796:1 61800:1 61812:1 61821:1  |EV| 
0.10000000000000001 478:1 15935:1 33597:1 53439:1 53478:1 53530:1 53531:1 53533:1 53534:1 55395:1 56276:1 61051:1 61059:1 61071:1 61207:1 61380:1 61513:1 61781:1 61789:1 61796:1 61800:1 61812:1 61821:1  |EV| 
0.10000000000000001 10521:1 27362:1 46822:1 53444:1 53448:1 53465:1 53475:1 53478:1 53480:1 53521:1 53531:1 53534:1 54153:1 54168:1 54215:1 54408:1 54860:1 54861:1 54863:1 54867:1 55428:1 56276:1 61050:1 61059:1 61099:1 61220:1 61390:1 61522:1 61781:1 61791:1 61796:1 61800:1 61812:1 61821:1  |EV| 
0.028723094692896141 4116:1 19818:1 38105:1 53448:1 53562:1 54295:1 54303:1 55613:1 56276:1 57884:1 61050:1 61059:1 61075:1 61220:1 61372:1 61503:1 61781:1 61789:1 61796:1 61800:1 61812:1 61821:1  |EV| 
0.075224360800283038 4341:1 20098:1 38430:1 53448:1 53480:1 53980:1 54066:1 55456:1 56276:1 57884:1 61050:1 61059:1 61075:1 61220:1 61372:1 61503:1 61781:1 61789:1 61797:1 61800:1 61812:1 61821:1  |EV| 
0.10000000000000001 1441:1 16970:1 34861:1 53437:1 53439:1 53441:1 53442:1 53465:1 53476:1 53583:1 53631:1 53701:1 53702:1 53703:1 53704:1 53705:1 53706:1 53707:1 53708:1 53709:1 53715:1 55360:1 56276:1 61050:1 61059:1 61087:1 61221:1 61390:1 61522:1 61781:1 61789:1 61796:1 61799:1 61800:1 61812:1 61821:1  |EV| 
-0.0043639170970834109 11629:1 28821:1 48496:1 53439:1 53452:1 53465:1 53480:1 53481:1 53568:1 54693:1 54976:1 56069:1 56276:1 61051:1 61059:1 61070:1 61207:1 61374:1 61496:1 61781:1 61789:1 61796:1 61800:1 61812:1 61821:1  |EV| 
-0.047653787081339799 1838:1 17795:1 35866:1 53437:1 53439:1 53442:1 53465:1 53478:1 53512:1 53517:1 53600:1 53637:1 53867:1 53883:1 53888:1 53891:1 53893:1 55545:1 56276:1 57991:1 61051:1 61059:1 61080:1 61221:1 61388:1 61517:1 61781:1 61789:1 61796:1 61800:1 61812:1 61821:1  |EV| 
0.10000000000000001 13569:1 31003:1 51182:1 53436:1 53442:1 53444:1 53465:1 53631:1 53896:1 54963:1 55131:1 56159:1 56276:1 57884:1 61050:1 61059:1 61075:1 61210:1 61398:1 61526:1 61781:1 61789:1 61796:1 61800:1 61812:1 61821:1  |EV| 
0.028812233679853329 8508:1 24816:1 43933:1 53448:1 53551:1 53562:1 54764:1 54765:1 55579:1 56276:1 61050:1 61059:1 61068:1 61226:1 61373:1 61503:1 61781:1 61789:1 61797:1 61800:1 61812:1 61821:1  |EV| 
0.097493640381541943 8071:1 24557:1 43642:1 53439:1 53444:1 53448:1 53521:1 53594:1 53693:1 54323:1 54721:1 54722:1 54723:1 55545:1 56276:1 61050:1 61059:1 61061:1 61238:1 61397:1 61523:1 61781:1 61789:1 61796:1 61800:1 61812:1 61821:1  |EV| 
0.060915050847209537 604:1 16064:1 33755:1 53437:1 53444:1 53448:1 53465:1 53495:1 53512:1 53523:1 53556:1 53568:1 53579:1 53581:1 53653:1 53654:1 53655:1 53656:1 53657:1 53658:1 55428:1 56276:1 61050:1 61059:1 61079:1 61207:1 61403:1 61493:1 61781:1 61789:1 61796:1 61800:1 61812:1 61821:1  |EV| 
0.10000000000000001 1354:1 16881:1 34737:1 53439:1 53448:1 53741:1 53742:1 53743:1 55384:1 56276:1 61051:1 61059:1 61085:1 61221:1 61380:1 61513:1 61781:1 61789:1 61796:1 61800:1 61812:1 61821:1  |EV| 
0.10000000000000001 4994:1 20888:1 39374:1 53448:1 53465:1 53481:1 55562:1 56276:1 57885:1 61053:1 61059:1 61094:1 61220:1 61370:1 61500:1 61781:1 61789:1 61797:1 61800:1 61812:1 61821:1 61824:1  |EV| 
-0.026973024191111042 7915:1 24090:1 43014:1 53444:1 53448:1 53450:1 53465:1 53475:1 53480:1 53514:1 53523:1 53551:1 53556:1 53566:1 53595:1 53655:1 53739:1 54136:1 54149:1 54319:1 54692:1 54693:1 54705:1 55889:1 56276:1 61053:1 61059:1 61104:1 61239:1 61359:1 61516:1 61781:1 61789:1 61797:1 61800:1 61812:1 61821:1  |EV| 
-0.06989345602939602 2674:1 18327:1 51940:1 53448:1 53457:1 55579:1 56276:1 57884:1 61050:1 61059:1 61065:1 61221:1 61370:1 61503:1 61781:1 61789:1 61797:1 61800:1 61812:1 61826:1  |EV| 
-0.049522191869815026 2092:1 17688:1 35718:1 53442:1 53448:1 53465:1 53472:1 53475:1 53636:1 53715:1 53726:1 53880:1 53886:1 55540:1 56276:1 61049:1 61059:1 61061:1 61236:1 61373:1 61521:1 61781:1 61789:1 61796:1 61800:1 61812:1 61821:1  |EV| 
0.077779962141958037 9616:1 26175:1 45408:1 53448:1 53465:1 53726:1 55746:1 56276:1 57884:1 61050:1 61059:1 61075:1 61226:1 61364:1 61503:1 61781:1 61789:1 61796:1 61800:1 61812:1 61821:1  |EV| 
0.05340675300726825 4510:1 20274:1 36757:1 53465:1 53621:1 55716:1 56276:1 61050:1 61059:1 61068:1 61238:1 61370:1 61503:1 61781:1 61789:1 61796:1 61800:1 61812:1 61821:1  |EV| 
-0.058755846574165438 12398:1 29699:1 49684:1 53444:1 53448:1 53465:1 53546:1 53759:1 53784:1 53870:1 54420:1 55017:1 55029:1 55503:1 56098:1 56099:1 56276:1 57941:1 61044:1 61050:1 61059:1 61074:1 61226:1 61350:1 61514:1 61781:1 61789:1 61796:1 61800:1 61812:1 61821:1  |EV| 
-0.10000000000000001 6340:1 22363:1 41084:1 53448:1 53465:1 53600:1 53623:1 53760:1 54242:1 54509:1 55799:1 56276:1 58161:1 61050:1 61059:1 61073:1 61220:1 61398:1 61514:1 61781:1 61791:1 61796:1 61804:1 61809:1 61812:1 61819:1 61821:1  |EV| 
-0.10000000000000001 11622:1 28814:1 48567:1 53465:1 53480:1 53481:1 53568:1 53595:1 53621:1 54693:1 54972:1 56070:1 56276:1 61050:1 61059:1 61072:1 61234:1 61397:1 61514:1 61781:1 61789:1 61796:1 61800:1 61812:1 61821:1 61824:1  |EV| 
-0.067634286221967863 13654:1 31094:1 51293:1 53436:1 53439:1 53442:1 53465:1 53478:1 53483:1 53495:1 53522:1 53534:1 53690:1 53704:1 53710:1 53760:1 53868:1 53892:1 53896:1 53923:1 54067:1 54175:1 54252:1 55126:1 55127:1 55128:1 56157:1 56276:1 61050:1 61059:1 61092:1 61246:1 61412:1 61530:1 61781:1 61789:1 61796:1 61800:1 61812:1 61821:1  |EV| 
-0.10000000000000001 9671:1 26239:1 45495:1 53439:1 53448:1 53465:1 53870:1 53946:1 54608:1 54772:1 55428:1 56276:1 61050:1 61059:1 61088:1 61207:1 61354:1 61514:1 61781:1 61789:1 61796:1 61800:1 61812:1 61821:1  |EV| 
0.10000000000000001 9641:1 26203:1 45444:1 53439:1 53444:1 53448:1 53465:1 53480:1 53523:1 53784:1 53850:1 54842:1 55703:1 55705:1 55999:1 56000:1 56276:1 61038:1 61050:1 61059:1 61074:1 61207:1 61397:1 61514:1 61781:1 61789:1 61796:1 61800:1 61812:1 61821:1  |EV| 
-0.054349194807263287 1441:1 19386:1 43656:1 53439:1 53444:1 53448:1 53521:1 53594:1 53693:1 54323:1 54721:1 54722:1 54723:1 55693:1 56276:1 61052:1 61058:1 61061:1 61244:1 61353:1 61533:1 61781:1 61789:1 61796:1 61800:1 61812:1 61821:1  |EV| 
-0.066362541495807503 13905:1 31359:1 51585:1 53434:1 53436:1 53437:1 53439:1 53448:1 53450:1 53451:1 53542:1 53657:1 53703:1 54086:1 54371:1 54920:1 56183:1 56276:1 57884:1 61050:1 61059:1 61075:1 61258:1 61368:1 61526:1 61781:1 61789:1 61796:1 61800:1 61812:1 61819:1 61821:1  |EV| 
-0.10000000000000001 2597:1 18247:1 36389:1 53439:1 53562:1 53996:1 55538:1 56276:1 61053:1 61059:1 61077:1 61220:1 61351:1 61500:1 61781:1 61789:1 61796:1 61800:1 61812:1 61821:1  |EV| 
-0.10000000000000001 9831:1 26434:1 46602:1 53439:1 53531:1 54063:1 54283:1 54472:1 54865:1 56014:1 56276:1 61050:1 61059:1 61068:1 61228:1 61378:1 61503:1 61781:1 61789:1 61796:1 61800:1 61812:1 61821:1  |EV| 
0.10000000000000001 3352:1 19027:1 42548:1 53448:1 53465:1 53480:1 53621:1 53716:1 53762:1 54063:1 55428:1 56276:1 61050:1 61059:1 61068:1 61215:1 61398:1 61514:1 61781:1 61789:1 61796:1 61800:1 61812:1 61821:1  |EV| 
-0.044322268223403821 13853:1 31303:1 51672:1 53439:1 53444:1 53448:1 53450:1 53451:1 53453:1 53465:1 53556:1 53696:1 53703:1 53716:1 53865:1 54105:1 54248:1 55176:1 55605:1 56276:1 61050:1 61059:1 61086:1 61234:1 61389:1 61514:1 61781:1 61789:1 61796:1 61800:1 61812:1 61821:1  |EV| 
-0.076604680334668995 10522:1 27363:1 46823:1 53444:1 53448:1 53465:1 53475:1 53478:1 53480:1 53521:1 53531:1 53534:1 54153:1 54168:1 54408:1 54860:1 54861:1 54862:1 54863:1 54867:1 55428:1 56276:1 57884:1 61050:1 61059:1 61075:1 61213:1 61390:1 61530:1 61781:1 61791:1 61796:1 61800:1 61812:1 61821:1  |EV| 
-0.05511810882611707 3481:1 19157:1 37369:1 53448:1 53465:1 53594:1 55584:1 56276:1 57889:1 58063:1 58439:1 59624:1 61021:1 61026:1 61050:1 61059:1 61068:1 61207:1 61373:1 61503:1 61781:1 61788:1 61796:1 61800:1 61809:1 61821:1  |EV| 
0.05763217393852009 4085:1 19785:1 38063:1 53437:1 53448:1 54296:1 54306:1 55497:1 56276:1 61050:1 61059:1 61065:1 61226:1 61372:1 61503:1 61781:1 61789:1 61796:1 61800:1 61812:1 61821:1  |EV| 
-0.033883146448688978 10204:1 26874:1 46220:1 53444:1 53448:1 53465:1 53475:1 53478:1 53480:1 53521:1 53531:1 53534:1 54153:1 54168:1 54215:1 54408:1 54861:1 54862:1 54863:1 54867:1 55428:1 56276:1 61050:1 61059:1 61074:1 61214:1 61390:1 61528:1 61781:1 61791:1 61796:1 61800:1 61804:1 61812:1 61821:1  |EV| 
-0.10000000000000001 12315:1 29602:1 49600:1 53444:1 53448:1 53465:1 53546:1 53759:1 54420:1 56095:1 56276:1 61051:1 61059:1 61071:1 61226:1 61360:1 61513:1 61781:1 61789:1 61796:1 61799:1 61800:1 61812:1 61821:1  |EV| 
0.075912482886765414 4273:1 20002:1 38317:1 53442:1 53444:1 53581:1 54244:1 54258:1 55701:1 56276:1 61050:1 61059:1 61092:1 61221:1 61373:1 61503:1 61781:1 61789:1 61796:1 61800:1 61812:1 61821:1 61824:1  |EV| 
0.069248342853332867 10420:1 27214:1 48078:1 53594:1 56024:1 56276:1 57884:1 61050:1 61059:1 61075:1 61221:1 61351:1 61503:1 61781:1 61789:1 61796:1 61800:1 61812:1 61821:1  |EV| 
0.040169973210361101 8423:1 24727:1 43845:1 53442:1 53448:1 53465:1 53482:1 53491:1 53553:1 53946:1 54751:1 54752:1 54753:1 54754:1 55931:1 56276:1 61050:1 61059:1 61072:1 61234:1 61397:1 61514:1 61781:1 61789:1 61797:1 61800:1 61812:1 61819:1 61821:1  |EV| 
-0.014346279187394569 15259:1 32818:1 53271:1 53482:1 56268:1 56276:1 57884:1 61050:1 61059:1 61075:1 61221:1 61351:1 61503:1 61781:1 61789:1 61796:1 61800:1 61812:1 61819:1 61824:1 61825:1  |EV| 
-0.028933352545770195 1354:1 28161:1 47735:1 53437:1 53876:1 54255:1 54382:1 54917:1 55669:1 56276:1 61051:1 61059:1 61085:1 61221:1 61380:1 61513:1 61781:1 61789:1 61796:1 61800:1 61819:1 61821:1  |EV| 
-0.037490315599792483 14996:1 32552:1 52847:1 53434:1 53457:1 53472:1 53638:1 54055:1 55225:1 55289:1 55290:1 56240:1 56276:1 61049:1 61059:1 61074:1 61217:1 61370:1 61499:1 61781:1 61789:1 61797:1 61800:1 61812:1 61821:1 61824:1  |EV| 
-0.022666428794475089 3305:1 18975:1 37185:1 53522:1 53594:1 54136:1 54142:1 55558:1 56276:1 61050:1 61059:1 61072:1 61221:1 61372:1 61503:1 61781:1 61789:1 61796:1 61800:1 61819:1 61821:1  |EV| 
-0.030361234382184653 9635:1 26195:1 45433:1 53439:1 53444:1 53448:1 53465:1 53480:1 53523:1 53784:1 53850:1 54583:1 55703:1 55705:1 55999:1 56000:1 56276:1 57884:1 61038:1 61050:1 61059:1 61075:1 61214:1 61397:1 61526:1 61781:1 61789:1 61796:1 61800:1 61812:1 61821:1  |EV| 
-0.082537332650757869 7637:1 23783:1 42906:1 53434:1 53442:1 53444:1 53448:1 53482:1 53551:1 53655:1 53659:1 53739:1 54021:1 54218:1 54671:1 55898:1 56276:1 57884:1 61050:1 61059:1 61065:1 61214:1 61350:1 61526:1 61781:1 61789:1 61796:1 61800:1 61812:1 61821:1  |EV| 
-0.088394908981228967 9211:1 26150:1 45374:1 53439:1 53448:1 53452:1 54843:1 55425:1 56276:1 57928:1 61051:1 61059:1 61084:1 61221:1 61360:1 61513:1 61781:1 61789:1 61796:1 61800:1 61812:1 61821:1 61824:1  |EV| 
-0.04965841708396012 1020:1 16529:1 34288:1 53439:1 53451:1 53690:1 53739:1 53773:1 53774:1 55486:1 56276:1 61053:1 61059:1 61082:1 61215:1 61370:1 61500:1 61781:1 61789:1 61795:1 61800:1 61812:1 61821:1  |EV| 
-0.051630328226430516 4249:1 19975:1 38286:1 53437:1 53444:1 53448:1 53465:1 53566:1 53870:1 53927:1 53948:1 54259:1 54260:1 54261:1 54262:1 54263:1 54264:1 54265:1 54266:1 54284:1 55428:1 56276:1 61050:1 61059:1 61108:1 61234:1 61393:1 61522:1 61781:1 61789:1 61796:1 61800:1 61812:1 61821:1  |EV| 
-0.041943554347644456 687:1 16158:1 33866:1 53448:1 53465:1 53469:1 53471:1 53634:1 53640:1 53641:1 53644:1 53645:1 53649:1 55425:1 56276:1 57884:1 61050:1 61059:1 61075:1 61214:1 61397:1 61526:1 61781:1 61789:1 61796:1 61800:1 61812:1 61821:1 61824:1  |EV| 
0.044392415437996283 9349:1 25861:1 45059:1 53437:1 53465:1 54015:1 54408:1 54608:1 54833:1 55990:1 55991:1 56276:1 61038:1 61043:1 61050:1 61059:1 61083:1 61221:1 61354:1 61514:1 61781:1 61789:1 61796:1 61800:1 61812:1 61821:1  |EV| 
0.10000000000000001 4696:1 20480:1 38907:1 53439:1 53448:1 53481:1 53531:1 55603:1 56276:1 61051:1 61059:1 61084:1 61226:1 61353:1 61513:1 61781:1 61789:1 61797:1 61800:1 61812:1 61821:1  |EV| 
0.051541585379860519 3396:1 19072:1 37281:1 53434:1 53465:1 53566:1 53760:1 53868:1 53946:1 54146:1 55587:1 56276:1 61050:1 61059:1 61073:1 61207:1 61378:1 61503:1 61781:1 61789:1 61796:1 61800:1 61812:1 61821:1  |EV| 
0.052750821264477804 12065:1 29321:1 49245:1 53444:1 53465:1 53760:1 54995:1 54996:1 56070:1 56276:1 61050:1 61059:1 61072:1 61207:1 61373:1 61503:1 61781:1 61789:1 61796:1 61799:1 61800:1 61812:1 61821:1  |EV| 
0.10000000000000001 12315:1 29602:1 49544:1 53448:1 53465:1 54420:1 56095:1 56276:1 57884:1 61050:1 61059:1 61075:1 61226:1 61364:1 61503:1 61781:1 61789:1 61796:1 61799:1 61800:1 61812:1 61821:1  |EV| 
-0.055536525535502944 14419:1 31943:1 52189:1 53465:1 53475:1 53534:1 54750:1 56055:1 56276:1 58397:1 61050:1 61059:1 61065:1 61226:1 61372:1 61503:1 61781:1 61789:1 61796:1 61800:1 61821:1  |EV| 
-0.031809008940779787 6365:1 22388:1 41109:1 53448:1 53507:1 53551:1 53594:1 54001:1 54511:1 55800:1 55801:1 56276:1 61038:1 61041:1 61050:1 61059:1 61092:1 61207:1 61359:1 61503:1 61781:1 61789:1 61797:1 61800:1 61812:1 61826:1  |EV| 
-0.048297090811788679 6486:1 22509:1 41238:1 53448:1 53465:1 54509:1 54515:1 55799:1 56276:1 58162:1 61050:1 61059:1 61065:1 61226:1 61372:1 61503:1 61781:1 61789:1 61796:1 61800:1 61819:1 61821:1  |EV| 
-0.037924520996267461 7759:1 23921:1 42789:1 53442:1 53465:1 54530:1 54618:1 54667:1 55902:1 56276:1 57203:1 58207:1 58825:1 60116:1 61050:1 61059:1 61068:1 61226:1 61373:1 61503:1 61781:1 61789:1 61795:1 61800:1 61821:1  |EV| 
0.040102002847816766 7635:1 24023:1 43012:1 53442:1 53448:1 53457:1 53465:1 53521:1 53645:1 54680:1 54681:1 54694:1 55428:1 56276:1 61050:1 61059:1 61073:1 61220:1 61398:1 61514:1 61781:1 61789:1 61796:1 61800:1 61812:1 61819:1 61821:1  |EV| 
-0.044241021178121502 14678:1 32207:1 52513:1 53436:1 53442:1 53448:1 53457:1 53465:1 53472:1 53583:1 53627:1 53663:1 54485:1 55269:1 55402:1 56276:1 61050:1 61059:1 61074:1 61226:1 61350:1 61514:1 61781:1 61789:1 61796:1 61800:1 61821:1  |EV| 
-0.036112714974753893 7811:1 23978:1 43221:1 53434:1 53482:1 53524:1 54671:1 55898:1 56276:1 61051:1 61059:1 61084:1 61226:1 61353:1 61513:1 61781:1 61789:1 61796:1 61800:1 61821:1  |EV| 
-0.039718420565319747 3352:1 19027:1 38413:1 53439:1 53444:1 53448:1 53463:1 53465:1 53475:1 53480:1 53512:1 53581:1 53655:1 53668:1 53791:1 54245:1 54246:1 54247:1 54248:1 54249:1 54250:1 55428:1 56276:1 61052:1 61058:1 61079:1 61262:1 61353:1 61529:1 61781:1 61789:1 61796:1 61800:1 61812:1 61821:1  |EV| 
-0.10000000000000001 814:1 16305:1 34291:1 53439:1 53444:1 53448:1 53453:1 53634:1 53698:1 53699:1 53700:1 55442:1 56276:1 61050:1 61059:1 61086:1 61221:1 61398:1 61514:1 61781:1 61789:1 61796:1 61800:1 61812:1 61819:1 61821:1  |EV| 
-0.072260115688066534 13368:1 30786:1 50867:1 53450:1 53465:1 53504:1 53681:1 53750:1 53943:1 54251:1 55111:1 55387:1 56276:1 61051:1 61059:1 61066:1 61221:1 61371:1 61496:1 61781:1 61789:1 61796:1 61800:1 61812:1 61821:1  |EV| 
0.056800931686105456 1838:1 17503:1 35468:1 53465:1 53623:1 53790:1 53864:1 53865:1 55545:1 56276:1 57884:1 61050:1 61059:1 61092:1 61221:1 61373:1 61503:1 61781:1 61789:1 61796:1 61800:1 61812:1 61821:1  |EV| 
0.10000000000000001 9431:1 25951:1 45119:1 53448:1 53553:1 53932:1 54283:1 54837:1 55931:1 56276:1 57884:1 61050:1 61059:1 61075:1 61228:1 61373:1 61503:1 61781:1 61789:1 61797:1 61800:1 61812:1 61819:1 61821:1  |EV| 
0.080237523973219232 2368:1 18016:1 36125:1 53448:1 53465:1 53859:1 53882:1 53961:1 53962:1 55564:1 56276:1 61050:1 61059:1 61068:1 61228:1 61378:1 61503:1 61781:1 61789:1 61796:1 61800:1 61812:1 61821:1  |EV| 
0.05158882676902412 12017:1 29261:1 49108:1 53442:1 53594:1 53919:1 56066:1 56276:1 61050:1 61059:1 61068:1 61221:1 61364:1 61503:1 61781:1 61789:1 61796:1 61800:1 61812:1 61821:1  |EV| 
-0.058685697794343746 8423:1 25720:1 44850:1 53439:1 53442:1 53448:1 53465:1 53553:1 53568:1 53726:1 53907:1 53932:1 53939:1 53946:1 54283:1 54738:1 54835:1 54836:1 54837:1 55931:1 56276:1 61050:1 61059:1 61098:1 61228:1 61381:1 61523:1 61781:1 61789:1 61797:1 61800:1 61812:1 61819:1 61821:1  |EV| 
-0.062580913823689202 7178:1 23238:1 42039:1 53439:1 53522:1 53531:1 53534:1 54582:1 54583:1 55536:1 56276:1 57951:1 61050:1 61059:1 61075:1 61229:1 61359:1 61503:1 61781:1 61789:1 61796:1 61800:1 61812:1 61821:1  |EV| 
-0.082893378765161507 1798:1 17338:1 35270:1 53442:1 53448:1 53465:1 53475:1 53636:1 53880:1 53886:1 55540:1 56276:1 57889:1 61051:1 61059:1 61090:1 61228:1 61356:1 61513:1 61781:1 61791:1 61796:1 61800:1 61812:1 61816:1 61821:1  |EV| 
-0.011141059745069213 14896:1 32444:1 52717:1 53448:1 53450:1 53514:1 53556:1 53578:1 54461:1 55770:1 56276:1 57884:1 61050:1 61059:1 61068:1 61220:1 61359:1 61503:1 61781:1 61789:1 61796:1 61800:1 61812:1 61823:1  |EV| 
-0.028970579771090826 12574:1 30060:1 50030:1 53448:1 53465:1 53521:1 54330:1 56119:1 56120:1 56276:1 57884:1 61040:1 61041:1 61050:1 61059:1 61075:1 61220:1 61372:1 61503:1 61781:1 61789:1 61794:1 61800:1 61812:1 61819:1  |EV| 
-0.021066342178201272 1345:1 16869:1 34721:1 53448:1 53450:1 53770:1 53771:1 53772:1 55382:1 56276:1 57884:1 61050:1 61059:1 61072:1 61207:1 61373:1 61503:1 61781:1 61789:1 61796:1 61800:1 61812:1 61819:1 61827:1  |EV| 
