SVM-light Version V5.01-TK-1.2
0 # kernel type
3 # kernel parameter -d 
1 # kernel parameter -g 
1 # kernel parameter -s 
1 # kernel parameter -r 
empty# kernel parameter -u 
0.4 # kernel parameter -L 
1 # kernel parameter -T 
T # kernel parameter -C 
1 # kernel parameter -F 
0 # kernel parameter -S 
1.000000 # kernel parameter -D 
3 # kernel parameter -N 
S # kernel parameter -V 
S # kernel parameter -W 
11790 # highest feature index 
3935 # number of training documents 
862 # number of support vectors plus 1 
1.0909024 # threshold b, each following line is a SV (starting with alpha*y)
-0.01 1:1 2557:1 5703:1 8848:1 8849:1 8850:1 10776:1 11370:1 11373:1 11378:1 11379:1 11496:1 11612:1 11727:1 11743:1 11750:1 11760:1 11761:1 11790:1  |EV| 
-0.0090179549951790658 572:1 3199:1 6330:1 8861:1 8879:1 8901:1 8944:1 9368:1 9501:1 9505:1 9506:1 9507:1 10776:1 11370:1 11373:1 11378:1 11402:1 11496:1 11612:1 11727:1 11743:1 11750:1 11760:1 11761:1 11790:1  |EV| 
-0.0091638610999033865 2408:1 5517:1 5749:1 10776:1 11143:1 11370:1 11373:1 11378:1 11407:1 11496:1 11612:1 11727:1 11743:1 11751:1 11760:1 11761:1 11775:1 11790:1  |EV| 
-0.0052150724577366084 1521:1 4355:1 7476:1 8848:1 8863:1 8979:1 9059:1 9538:1 9853:1 10776:1 11370:1 11373:1 11378:1 11431:1 11496:1 11612:1 11727:1 11743:1 11750:1 11760:1 11761:1 11790:1  |EV| 
-0.01 632:1 3263:1 6396:1 9015:1 9563:1 9564:1 10776:1 11370:1 11373:1 11378:1 11379:1 11496:1 11612:1 11727:1 11743:1 11750:1 11760:1 11761:1 11790:1  |EV| 
0.01 12:1 2569:1 5715:1 8848:1 8854:1 8855:1 8856:1 8857:1 8879:1 8885:1 8886:1 8887:1 8888:1 8889:1 10776:1 11370:1 11373:1 11378:1 11391:1 11496:1 11612:1 11729:1 11743:1 11750:1 11760:1 11761:1 11776:1 11790:1  |EV| 
0.0051386989626113393 175:1 3284:1 5749:1 10776:1 11370:1 11373:1 11378:1 11407:1 11496:1 11612:1 11727:1 11743:1 11750:1 11760:1 11761:1 11776:1 11790:1  |EV| 
0.01 27:1 2590:1 5737:1 8865:1 8866:1 8867:1 8868:1 10776:1 10791:1 11370:1 11373:1 11378:1 11401:1 11496:1 11612:1 11727:1 11743:1 11750:1 11760:1 11761:1 11776:1 11790:1  |EV| 
0.0057912400993167974 28:1 2591:1 5738:1 8850:1 8902:1 10776:1 10790:1 11370:1 11373:1 11378:1 11392:1 11496:1 11612:1 11727:1 11743:1 11750:1 11760:1 11761:1 11776:1 11790:1  |EV| 
0.01 37:1 2602:1 5747:1 8853:1 8908:1 10776:1 10779:1 11370:1 11374:1 11378:1 11383:1 11496:1 11612:1 11728:1 11743:1 11750:1 11760:1 11761:1 11776:1 11790:1  |EV| 
-0.01 72:1 2840:1 8677:1 8979:1 9000:1 10776:1 10790:1 11370:1 11373:1 11378:1 11392:1 11496:1 11612:1 11727:1 11743:1 11750:1 11760:1 11761:1 11776:1 11790:1  |EV| 
-0.01 337:1 2930:1 5749:1 10776:1 10790:1 11370:1 11373:1 11378:1 11407:1 11496:1 11612:1 11727:1 11743:1 11750:1 11760:1 11761:1 11776:1 11790:1  |EV| 
-0.01 340:1 2961:1 5749:1 10776:1 10790:1 11370:1 11373:1 11378:1 11407:1 11496:1 11612:1 11727:1 11743:1 11750:1 11760:1 11761:1 11776:1 11790:1  |EV| 
-0.01 80:1 2991:1 6135:1 8885:1 9135:1 9229:1 9342:1 10776:1 11370:1 11373:1 11378:1 11401:1 11496:1 11612:1 11727:1 11743:1 11750:1 11760:1 11761:1 11776:1 11790:1  |EV| 
-0.01 425:1 3252:1 5749:1 10776:1 10790:1 11370:1 11373:1 11378:1 11407:1 11496:1 11612:1 11727:1 11743:1 11750:1 11760:1 11761:1 11776:1 11790:1  |EV| 
0.01 832:1 4970:1 8116:1 8848:1 8851:1 8855:1 8858:1 8861:1 8863:1 8895:1 8901:1 8937:1 8944:1 9142:1 9165:1 9236:1 9510:1 9580:1 9753:1 10169:1 10410:1 10417:1 10418:1 10419:1 10420:1 10421:1 10422:1 10423:1 10776:1 11370:1 11374:1 11378:1 11421:1 11496:1 11612:1 11733:1 11743:1 11750:1 11760:1 11761:1 11776:1 11790:1  |EV| 
0.01 475:1 3089:1 6229:1 8848:1 8855:1 9449:1 9450:1 10776:1 11370:1 11374:1 11378:1 11382:1 11496:1 11612:1 11728:1 11743:1 11750:1 11760:1 11761:1 11776:1 11790:1  |EV| 
0.01 227:1 3130:1 6265:1 8848:1 8855:1 8858:1 8861:1 8862:1 8863:1 8870:1 8879:1 8938:1 8939:1 8956:1 9116:1 9316:1 9426:1 9427:1 9473:1 9474:1 10776:1 11370:1 11374:1 11378:1 11410:1 11496:1 11612:1 11732:1 11743:1 11750:1 11760:1 11761:1 11776:1 11790:1  |EV| 
0.01 109:1 2685:1 5831:1 8848:1 8851:1 9048:1 9049:1 10776:1 11370:1 11374:1 11378:1 11382:1 11496:1 11612:1 11728:1 11743:1 11750:1 11760:1 11761:1 11776:1 11790:1  |EV| 
0.01 464:1 3078:1 6220:1 8848:1 8855:1 8895:1 9351:1 9428:1 9429:1 9430:1 10776:1 11370:1 11374:1 11378:1 11389:1 11496:1 11612:1 11728:1 11743:1 11750:1 11760:1 11761:1 11776:1 11790:1  |EV| 
-0.01 1335:1 4106:1 7216:1 8855:1 8857:1 8858:1 8871:1 8892:1 9357:1 9361:1 9372:1 10091:1 10092:1 10093:1 10094:1 10776:1 10855:1 11370:1 11374:1 11378:1 11448:1 11496:1 11612:1 11731:1 11743:1 11750:1 11760:1 11761:1 11776:1 11790:1  |EV| 
-0.01 194:1 2774:1 5942:1 8879:1 10776:1 11370:1 11373:1 11378:1 11400:1 11496:1 11612:1 11727:1 11743:1 11750:1 11760:1 11761:1 11790:1  |EV| 
-0.01 2502:1 5642:1 5942:1 8879:1 10776:1 10779:1 11370:1 11373:1 11378:1 11400:1 11496:1 11612:1 11727:1 11743:1 11752:1 11760:1 11761:1 11773:1 11790:1  |EV| 
-0.0056458618654306389 114:1 2683:1 7542:1 8848:1 8879:1 8984:1 8990:1 9080:1 10776:1 11370:1 11373:1 11378:1 11393:1 11496:1 11612:1 11727:1 11743:1 11750:1 11760:1 11761:1 11764:1 11790:1  |EV| 
-0.01 11:1 2568:1 7520:1 8879:1 9075:1 9769:1 10254:1 10776:1 11370:1 11373:1 11378:1 11393:1 11496:1 11612:1 11727:1 11743:1 11750:1 11760:1 11761:1 11790:1  |EV| 
0.01 44:1 2612:1 5749:1 10776:1 10790:1 11370:1 11373:1 11378:1 11407:1 11496:1 11612:1 11727:1 11743:1 11753:1 11760:1 11761:1 11763:1 11775:1 11776:1 11790:1  |EV| 
-0.0081432879762046544 1332:1 4102:1 7211:1 8928:1 8998:1 10776:1 11370:1 11373:1 11378:1 11392:1 11496:1 11612:1 11727:1 11743:1 11751:1 11760:1 11761:1 11774:1 11790:1  |EV| 
-0.0093217217302698028 212:1 2794:1 5932:1 8848:1 9146:1 10776:1 11370:1 11373:1 11378:1 11392:1 11496:1 11612:1 11727:1 11743:1 11753:1 11760:1 11761:1 11774:1 11790:1  |EV| 
0.0063081910275776098 106:1 3655:1 7112:1 8879:1 9074:1 10776:1 11370:1 11373:1 11378:1 11392:1 11496:1 11612:1 11727:1 11743:1 11750:1 11760:1 11761:1 11776:1 11790:1  |EV| 
-0.01 194:1 2798:1 7516:1 8848:1 8853:1 8879:1 8956:1 8984:1 10186:1 10776:1 11370:1 11374:1 11378:1 11403:1 11496:1 11612:1 11728:1 11743:1 11750:1 11760:1 11761:1 11776:1 11790:1  |EV| 
-0.01 227:1 2814:1 7411:1 9143:1 9707:1 10193:1 10776:1 11370:1 11373:1 11378:1 11379:1 11496:1 11612:1 11727:1 11743:1 11750:1 11760:1 11761:1 11776:1 11790:1  |EV| 
-0.01 1560:1 4408:1 7521:1 8848:1 10247:1 10776:1 11346:1 11370:1 11373:1 11378:1 11392:1 11496:1 11612:1 11727:1 11743:1 11750:1 11760:1 11761:1 11776:1 11790:1  |EV| 
-0.01 860:1 3540:1 6678:1 8848:1 8866:1 8956:1 9755:1 10776:1 11370:1 11374:1 11378:1 11382:1 11496:1 11612:1 11728:1 11743:1 11750:1 11760:1 11761:1 11776:1 11790:1  |EV| 
-0.01 337:1 3800:1 5711:1 10776:1 10783:1 11370:1 11374:1 11378:1 11387:1 11496:1 11612:1 11728:1 11743:1 11750:1 11760:1 11761:1 11776:1 11790:1  |EV| 
0.01 165:1 4065:1 7885:1 8848:1 8853:1 8855:1 8857:1 8858:1 8861:1 8863:1 8864:1 8870:1 8879:1 8885:1 8892:1 8934:1 8938:1 8954:1 8982:1 8992:1 9015:1 9028:1 9111:1 9179:1 9229:1 9249:1 9291:1 9296:1 9437:1 9469:1 9477:1 9609:1 9610:1 9662:1 9663:1 9769:1 9803:1 9961:1 10005:1 10338:1 10339:1 10340:1 10341:1 10342:1 10343:1 10344:1 10345:1 10346:1 10347:1 10348:1 10776:1 11370:1 11373:1 11378:1 11489:1 11496:1 11612:1 11735:1 11743:1 11750:1 11760:1 11761:1 11763:1 11776:1 11790:1  |EV| 
0.01 109:1 2678:1 7284:1 8855:1 8857:1 8858:1 8861:1 8879:1 8901:1 8944:1 8979:1 8982:1 9028:1 9357:1 9361:1 9380:1 9701:1 9753:1 10046:1 10097:1 10098:1 10099:1 10100:1 10110:1 10776:1 11370:1 11373:1 11378:1 11454:1 11496:1 11612:1 11730:1 11743:1 11750:1 11760:1 11761:1 11776:1 11790:1  |EV| 
0.01 442:1 3056:1 6198:1 8855:1 8857:1 8858:1 8863:1 8901:1 8937:1 8939:1 8944:1 8979:1 9258:1 9263:1 9376:1 9377:1 9378:1 9379:1 9394:1 9404:1 10776:1 11370:1 11373:1 11378:1 11453:1 11496:1 11612:1 11729:1 11743:1 11750:1 11760:1 11761:1 11773:1 11776:1 11790:1  |EV| 
0.01 672:1 3314:1 6444:1 8848:1 8855:1 8857:1 8858:1 8861:1 8863:1 8882:1 8899:1 8973:1 9056:1 9091:1 9102:1 9123:1 9154:1 9180:1 9307:1 9425:1 9596:1 9597:1 9598:1 9599:1 9600:1 9601:1 9602:1 9603:1 9617:1 9618:1 9635:1 10776:1 11370:1 11373:1 11378:1 11420:1 11496:1 11612:1 11734:1 11743:1 11750:1 11760:1 11761:1 11763:1 11776:1 11790:1  |EV| 
0.01 1766:1 4688:1 7810:1 8851:1 8855:1 8858:1 8879:1 8892:1 8901:1 8934:1 8944:1 9201:1 9589:1 9620:1 10281:1 10282:1 10291:1 10776:1 11370:1 11373:1 11378:1 11436:1 11496:1 11612:1 11729:1 11743:1 11753:1 11760:1 11761:1 11776:1 11790:1  |EV| 
-0.01 415:1 3027:1 7604:1 8848:1 8858:1 8863:1 8975:1 9062:1 9355:1 9357:1 9700:1 10182:1 10268:1 10277:1 10776:1 10908:1 11370:1 11374:1 11378:1 11448:1 11496:1 11612:1 11731:1 11743:1 11750:1 11760:1 11761:1 11776:1 11790:1  |EV| 
-0.01 39:1 2607:1 5753:1 8848:1 8857:1 8879:1 8886:1 8887:1 8888:1 8889:1 10776:1 11370:1 11373:1 11378:1 11398:1 11496:1 11612:1 11727:1 11743:1 11750:1 11760:1 11761:1 11790:1  |EV| 
-0.01 624:1 5036:1 6403:1 8879:1 9367:1 10776:1 11370:1 11373:1 11378:1 11392:1 11496:1 11612:1 11727:1 11743:1 11750:1 11760:1 11761:1 11790:1  |EV| 
-0.01 2349:1 5448:1 8604:1 8855:1 8944:1 10662:1 10776:1 11295:1 11296:1 11356:1 11370:1 11373:1 11378:1 11379:1 11496:1 11612:1 11727:1 11743:1 11750:1 11760:1 11761:1 11790:1  |EV| 
-0.01 340:1 2999:1 6146:1 8848:1 8857:1 8861:1 8879:1 8901:1 8928:1 8930:1 9020:1 9062:1 9196:1 9304:1 9307:1 9308:1 9309:1 9321:1 10776:1 10901:1 11370:1 11374:1 11378:1 11394:1 11496:1 11612:1 11731:1 11743:1 11750:1 11760:1 11761:1 11776:1 11790:1  |EV| 
0.01 386:1 2993:1 6137:1 8851:1 8920:1 9094:1 9149:1 9344:1 10776:1 11370:1 11374:1 11378:1 11396:1 11496:1 11612:1 11728:1 11743:1 11750:1 11760:1 11761:1 11776:1 11790:1  |EV| 
0.01 1925:1 4918:1 8051:1 8848:1 8984:1 9059:1 10410:1 10776:1 10834:1 11370:1 11374:1 11378:1 11382:1 11496:1 11612:1 11728:1 11743:1 11750:1 11760:1 11761:1 11776:1 11790:1  |EV| 
0.01 70:1 2638:1 5711:1 10776:1 10783:1 11370:1 11374:1 11378:1 11387:1 11496:1 11612:1 11728:1 11743:1 11750:1 11760:1 11761:1 11776:1 11790:1  |EV| 
0.01 135:1 2706:1 5711:1 10776:1 10783:1 11370:1 11374:1 11378:1 11387:1 11496:1 11612:1 11728:1 11743:1 11750:1 11760:1 11761:1 11776:1 11790:1  |EV| 
0.01 461:1 3075:1 5711:1 10776:1 10783:1 11370:1 11374:1 11378:1 11387:1 11496:1 11612:1 11728:1 11743:1 11750:1 11760:1 11761:1 11776:1 11790:1  |EV| 
-0.01 511:1 4206:1 7358:1 8877:1 8941:1 10152:1 10153:1 10154:1 10776:1 10784:1 11370:1 11374:1 11378:1 11396:1 11496:1 11612:1 11728:1 11743:1 11750:1 11760:1 11761:1 11776:1 11790:1  |EV| 
-0.01 300:1 2893:1 8062:1 8851:1 10406:1 10776:1 10990:1 11370:1 11374:1 11378:1 11383:1 11496:1 11612:1 11728:1 11743:1 11750:1 11760:1 11761:1 11776:1 11790:1  |EV| 
-0.01 821:1 4205:1 7335:1 9105:1 10776:1 10783:1 11370:1 11374:1 11378:1 11381:1 11496:1 11612:1 11728:1 11743:1 11750:1 11760:1 11761:1 11775:1 11776:1 11790:1  |EV| 
-0.01 903:1 3584:1 6724:1 8901:1 9522:1 10776:1 10852:1 11370:1 11374:1 11378:1 11383:1 11496:1 11612:1 11728:1 11743:1 11750:1 11760:1 11761:1 11776:1 11790:1  |EV| 
-0.01 616:1 4632:1 7754:1 8851:1 8858:1 9563:1 10291:1 10776:1 11370:1 11374:1 11378:1 11396:1 11496:1 11612:1 11728:1 11743:1 11750:1 11760:1 11761:1 11776:1 11790:1  |EV| 
0.01 38:1 2603:1 7830:1 8848:1 8861:1 8870:1 8892:1 9015:1 9028:1 9111:1 9179:1 9469:1 9803:1 9961:1 10005:1 10338:1 10339:1 10340:1 10341:1 10342:1 10343:1 10776:1 11370:1 11373:1 11378:1 11418:1 11496:1 11612:1 11730:1 11743:1 11750:1 11760:1 11761:1 11763:1 11776:1 11790:1  |EV| 
0.01 499:1 4339:1 7892:1 8848:1 8858:1 8861:1 8903:1 8939:1 8966:1 9015:1 9028:1 9175:1 9179:1 9343:1 9443:1 9894:1 10343:1 10354:1 10355:1 10776:1 11370:1 11373:1 11378:1 11384:1 11496:1 11612:1 11729:1 11743:1 11750:1 11760:1 11761:1 11776:1 11790:1  |EV| 
0.01 2473:1 5612:1 8746:1 8861:1 8868:1 8879:1 8966:1 8992:1 9015:1 9199:1 9437:1 10776:1 11370:1 11373:1 11378:1 11404:1 11496:1 11612:1 11727:1 11743:1 11750:1 11760:1 11761:1 11776:1 11790:1  |EV| 
0.01 72:1 2640:1 5781:1 8848:1 8852:1 8855:1 8858:1 8861:1 8863:1 8872:1 8879:1 8951:1 8965:1 8966:1 8967:1 10776:1 11370:1 11373:1 11378:1 11423:1 11496:1 11612:1 11729:1 11743:1 11750:1 11760:1 11761:1 11776:1 11790:1  |EV| 
0.01 165:1 4065:1 7175:1 8848:1 8855:1 8857:1 8858:1 8861:1 8863:1 9028:1 9280:1 9293:1 9473:1 9477:1 10050:1 10051:1 10075:1 10776:1 11370:1 11373:1 11378:1 11388:1 11496:1 11612:1 11729:1 11743:1 11750:1 11760:1 11761:1 11776:1 11790:1  |EV| 
-0.01 21:1 2846:1 5993:1 8848:1 8861:1 8865:1 8892:1 9091:1 9092:1 9118:1 9119:1 9191:1 9217:1 10776:1 11370:1 11373:1 11378:1 11445:1 11496:1 11612:1 11729:1 11743:1 11750:1 11760:1 11761:1 11776:1 11790:1  |EV| 
-0.01 609:1 4576:1 8139:1 8848:1 8858:1 8861:1 8939:1 8957:1 8984:1 9002:1 9034:1 9035:1 9036:1 9056:1 9112:1 9292:1 9373:1 9650:1 10398:1 10414:1 10776:1 11370:1 11373:1 11378:1 11384:1 11496:1 11612:1 11729:1 11743:1 11750:1 11760:1 11761:1 11776:1 11790:1  |EV| 
-0.01 403:1 3015:1 6163:1 8851:1 8858:1 8861:1 8865:1 8879:1 9071:1 9119:1 9175:1 9293:1 9294:1 9295:1 10776:1 11370:1 11373:1 11378:1 11391:1 11496:1 11612:1 11729:1 11743:1 11750:1 11760:1 11761:1 11776:1 11790:1  |EV| 
-0.01 769:1 3998:1 7254:1 8858:1 8892:1 8937:1 8974:1 9020:1 9181:1 9278:1 9396:1 9472:1 10113:1 10776:1 11370:1 11373:1 11378:1 11445:1 11496:1 11612:1 11729:1 11743:1 11750:1 11760:1 11761:1 11776:1 11790:1  |EV| 
-0.01 1561:1 4409:1 7522:1 8848:1 8855:1 8858:1 8861:1 8880:1 8892:1 9385:1 9630:1 9859:1 10241:1 10242:1 10243:1 10244:1 10245:1 10246:1 10776:1 11370:1 11373:1 11378:1 11384:1 11496:1 11612:1 11729:1 11743:1 11750:1 11760:1 11761:1 11776:1 11790:1  |EV| 
0.01 2216:1 5292:1 8456:1 8848:1 8855:1 9094:1 9095:1 9096:1 9291:1 9302:1 10563:1 10564:1 10776:1 11271:1 11370:1 11374:1 11378:1 11408:1 11496:1 11612:1 11731:1 11743:1 11753:1 11760:1 11761:1 11776:1 11790:1  |EV| 
0.01 700:1 3345:1 6475:1 8848:1 8855:1 8858:1 8879:1 8892:1 9162:1 9451:1 9526:1 9607:1 9608:1 9609:1 9610:1 10776:1 10855:1 11370:1 11374:1 11378:1 11448:1 11496:1 11612:1 11731:1 11743:1 11750:1 11760:1 11761:1 11776:1 11790:1  |EV| 
0.01 310:1 3863:1 6988:1 8851:1 8858:1 8863:1 8879:1 8911:1 8925:1 8928:1 8937:1 8976:1 9033:1 9278:1 9325:1 9944:1 9945:1 9946:1 9947:1 9948:1 9949:1 9950:1 10776:1 10842:1 11370:1 11374:1 11378:1 11405:1 11496:1 11612:1 11732:1 11743:1 11753:1 11760:1 11761:1 11776:1 11790:1  |EV| 
0.01 2143:1 5201:1 8346:1 8982:1 9130:1 10776:1 10783:1 11370:1 11374:1 11378:1 11383:1 11496:1 11612:1 11728:1 11743:1 11753:1 11760:1 11761:1 11776:1 11790:1  |EV| 
0.01 104:1 2719:1 7286:1 8851:1 8855:1 8858:1 8863:1 8936:1 8938:1 8979:1 8982:1 8995:1 9563:1 9572:1 9783:1 10120:1 10126:1 10776:1 11370:1 11374:1 11378:1 11433:1 11496:1 11612:1 11731:1 11743:1 11750:1 11760:1 11761:1 11776:1 11790:1  |EV| 
-0.01 2383:1 5492:1 8636:1 8855:1 8861:1 8871:1 8880:1 8939:1 8979:1 9102:1 9987:1 10672:1 10673:1 10776:1 11370:1 11374:1 11378:1 11448:1 11496:1 11612:1 11731:1 11743:1 11750:1 11760:1 11761:1 11776:1 11790:1  |EV| 
-0.01 196:1 3109:1 7374:1 8855:1 8877:1 8941:1 9033:1 9343:1 9519:1 9533:1 10150:1 10151:1 10152:1 10153:1 10154:1 10776:1 11126:1 11370:1 11374:1 11378:1 11448:1 11496:1 11612:1 11731:1 11743:1 11750:1 11760:1 11761:1 11776:1 11790:1  |EV| 
-0.0080029536963935975 430:1 3043:1 6207:1 8848:1 8855:1 8858:1 8863:1 8877:1 8879:1 8908:1 8914:1 8925:1 8928:1 8935:1 9345:1 9374:1 9375:1 9380:1 9381:1 9401:1 9402:1 10776:1 11370:1 11374:1 11378:1 11405:1 11496:1 11612:1 11732:1 11743:1 11750:1 11760:1 11761:1 11776:1 11790:1  |EV| 
-0.01 358:1 2955:1 6126:1 8848:1 8855:1 9059:1 9091:1 9291:1 9300:1 9301:1 9302:1 10776:1 11370:1 11374:1 11378:1 11416:1 11496:1 11612:1 11731:1 11743:1 11750:1 11760:1 11761:1 11776:1 11790:1  |EV| 
-0.01 463:1 3116:1 6254:1 8848:1 8855:1 8863:1 8879:1 8938:1 8956:1 9316:1 9426:1 9427:1 10776:1 10855:1 11370:1 11374:1 11378:1 11416:1 11496:1 11612:1 11731:1 11743:1 11750:1 11760:1 11761:1 11776:1 11790:1  |EV| 
0.01 1537:1 4379:1 7495:1 8848:1 8855:1 8858:1 8861:1 8880:1 8892:1 9385:1 9630:1 9859:1 10241:1 10242:1 10243:1 10244:1 10245:1 10246:1 10247:1 10776:1 11346:1 11370:1 11373:1 11378:1 11440:1 11496:1 11612:1 11729:1 11743:1 11750:1 11760:1 11761:1 11776:1 11790:1  |EV| 
0.01 1685:1 4647:1 7790:1 8848:1 8853:1 8858:1 8861:1 8879:1 8982:1 9107:1 9198:1 9361:1 9373:1 10309:1 10310:1 10327:1 10776:1 11370:1 11373:1 11378:1 11435:1 11496:1 11612:1 11729:1 11743:1 11750:1 11760:1 11761:1 11776:1 11790:1  |EV| 
0.01 80:1 2991:1 8767:1 8853:1 8857:1 8858:1 8894:1 8901:1 8944:1 9015:1 9132:1 9343:1 9544:1 9665:1 10164:1 10735:1 10776:1 11370:1 11373:1 11378:1 11435:1 11496:1 11612:1 11729:1 11743:1 11750:1 11760:1 11761:1 11776:1 11790:1  |EV| 
0.01 840:1 3518:1 6652:1 8848:1 8849:1 8852:1 8857:1 8861:1 8879:1 8897:1 8928:1 8961:1 9104:1 9175:1 9179:1 9226:1 9580:1 9754:1 9782:1 10776:1 11370:1 11373:1 11378:1 11384:1 11496:1 11612:1 11729:1 11743:1 11750:1 11760:1 11761:1 11776:1 11790:1  |EV| 
0.01 72:1 2840:1 8752:1 8848:1 8853:1 8857:1 8858:1 8894:1 8901:1 8925:1 8944:1 9015:1 9072:1 9132:1 9343:1 9544:1 9665:1 10164:1 10735:1 10776:1 11370:1 11373:1 11378:1 11436:1 11496:1 11612:1 11729:1 11743:1 11750:1 11760:1 11761:1 11776:1 11790:1  |EV| 
-0.01 1362:1 4138:1 7251:1 8855:1 8857:1 8858:1 8861:1 8866:1 8879:1 8901:1 8944:1 8979:1 8982:1 9028:1 9357:1 9361:1 9380:1 9701:1 9753:1 10046:1 10097:1 10098:1 10099:1 10100:1 10110:1 10776:1 11370:1 11373:1 11378:1 11399:1 11496:1 11612:1 11730:1 11743:1 11750:1 11760:1 11761:1 11776:1 11790:1  |EV| 
-0.01 139:1 3407:1 6531:1 8851:1 8855:1 8858:1 8879:1 8928:1 8995:1 9672:1 9673:1 9674:1 9675:1 9676:1 10776:1 11370:1 11373:1 11378:1 11423:1 11496:1 11612:1 11729:1 11743:1 11753:1 11760:1 11761:1 11776:1 11790:1  |EV| 
-0.01 740:1 3392:1 6520:1 8848:1 8857:1 8858:1 8861:1 8892:1 9033:1 9501:1 9692:1 9693:1 9694:1 9695:1 10776:1 11370:1 11373:1 11378:1 11435:1 11496:1 11612:1 11729:1 11743:1 11750:1 11760:1 11761:1 11776:1 11790:1  |EV| 
-0.01 259:1 2850:1 5997:1 8848:1 8850:1 8857:1 8858:1 8990:1 9027:1 9059:1 9091:1 9092:1 9154:1 9155:1 9156:1 9157:1 10776:1 10852:1 11370:1 11373:1 11378:1 11435:1 11496:1 11612:1 11729:1 11743:1 11750:1 11760:1 11761:1 11776:1 11790:1  |EV| 
-0.01 499:1 3117:1 7241:1 8855:1 8857:1 8858:1 8866:1 8871:1 8892:1 9357:1 9361:1 9372:1 10090:1 10091:1 10092:1 10093:1 10094:1 10776:1 11370:1 11373:1 11378:1 11438:1 11496:1 11612:1 11729:1 11743:1 11750:1 11760:1 11761:1 11776:1 11790:1  |EV| 
0.01 227:1 3845:1 6971:1 8848:1 8851:1 8861:1 8863:1 8938:1 9173:1 9219:1 9806:1 9916:1 9927:1 9928:1 10776:1 11370:1 11374:1 11378:1 11448:1 11496:1 11612:1 11731:1 11743:1 11750:1 11760:1 11761:1 11776:1 11790:1  |EV| 
0.01 1688:1 4578:1 7695:1 8848:1 8855:1 8858:1 8863:1 8936:1 8984:1 9002:1 9373:1 10293:1 10294:1 10776:1 11370:1 11374:1 11378:1 11416:1 11496:1 11612:1 11731:1 11743:1 11750:1 11760:1 11761:1 11776:1 11777:1 11790:1  |EV| 
0.01 114:1 5623:1 8759:1 8848:1 8861:1 8934:1 10553:1 10739:1 10776:1 11370:1 11374:1 11378:1 11396:1 11496:1 11612:1 11728:1 11743:1 11750:1 11760:1 11761:1 11776:1 11790:1  |EV| 
0.01 185:1 2763:1 7897:1 8855:1 8857:1 8858:1 8866:1 8892:1 8920:1 8928:1 8935:1 8956:1 8997:1 9094:1 9098:1 9108:1 9141:1 9149:1 9182:1 9221:1 9301:1 9312:1 9611:1 9706:1 9800:1 9986:1 10352:1 10353:1 10776:1 11370:1 11374:1 11378:1 11429:1 11496:1 11612:1 11732:1 11743:1 11750:1 11760:1 11761:1 11776:1 11790:1  |EV| 
0.01 609:1 4834:1 7959:1 8858:1 9039:1 9071:1 9119:1 9249:1 9572:1 9695:1 10034:1 10776:1 11370:1 11374:1 11378:1 11425:1 11496:1 11612:1 11731:1 11743:1 11750:1 11760:1 11761:1 11776:1 11790:1  |EV| 
-0.01 2163:1 5228:1 8390:1 8920:1 9094:1 9149:1 9370:1 10776:1 11370:1 11374:1 11378:1 11382:1 11496:1 11612:1 11728:1 11743:1 11750:1 11760:1 11761:1 11776:1 11790:1  |EV| 
-0.01 2164:1 5229:1 8382:1 8863:1 8879:1 8920:1 9094:1 9149:1 9370:1 9677:1 9806:1 10540:1 10776:1 11370:1 11374:1 11378:1 11425:1 11496:1 11612:1 11731:1 11743:1 11750:1 11760:1 11761:1 11776:1 11790:1  |EV| 
-0.01 734:1 3382:1 6549:1 8848:1 8858:1 8936:1 9062:1 9119:1 9373:1 9501:1 9668:1 9669:1 9670:1 10776:1 10991:1 11370:1 11374:1 11378:1 11448:1 11496:1 11612:1 11731:1 11743:1 11750:1 11760:1 11761:1 11776:1 11790:1  |EV| 
-0.01 1612:1 4569:1 7688:1 8848:1 8858:1 8901:1 8936:1 8941:1 8944:1 9588:1 9848:1 10284:1 10285:1 10776:1 11370:1 11374:1 11378:1 11416:1 11496:1 11612:1 11731:1 11743:1 11750:1 11760:1 11761:1 11776:1 11790:1  |EV| 
-0.01 407:1 3413:1 6537:1 8848:1 8858:1 8936:1 9373:1 9669:1 9670:1 10776:1 10888:1 11370:1 11374:1 11378:1 11403:1 11496:1 11612:1 11728:1 11743:1 11750:1 11760:1 11761:1 11776:1 11790:1  |EV| 
0.01 423:1 5604:1 8739:1 8848:1 8855:1 8857:1 8858:1 8863:1 8871:1 8879:1 8934:1 8959:1 9063:1 9081:1 9116:1 9123:1 9493:1 9584:1 9612:1 9700:1 9775:1 9809:1 9858:1 9860:1 9862:1 10386:1 10699:1 10700:1 10707:1 10711:1 10712:1 10713:1 10776:1 11370:1 11373:1 11378:1 11486:1 11496:1 11612:1 11734:1 11743:1 11750:1 11760:1 11761:1 11776:1 11790:1  |EV| 
0.01 2387:1 5496:1 8640:1 8865:1 9094:1 9095:1 10776:1 11370:1 11373:1 11378:1 11379:1 11496:1 11612:1 11727:1 11743:1 11751:1 11760:1 11761:1 11773:1 11776:1 11790:1  |EV| 
0.01 1501:1 4333:1 7459:1 8858:1 8892:1 9174:1 10209:1 10776:1 10803:1 11370:1 11373:1 11378:1 11401:1 11496:1 11612:1 11727:1 11743:1 11751:1 11760:1 11761:1 11773:1 11776:1 11790:1  |EV| 
0.01 425:1 3038:1 6183:1 8851:1 8855:1 8858:1 8861:1 8879:1 8931:1 8934:1 9035:1 9278:1 9367:1 9368:1 9370:1 9371:1 9372:1 9373:1 10776:1 11370:1 11373:1 11378:1 11436:1 11496:1 11612:1 11729:1 11743:1 11750:1 11760:1 11761:1 11773:1 11776:1 11790:1  |EV| 
0.01 303:1 2896:1 6041:1 9097:1 9109:1 9249:1 10776:1 10878:1 11370:1 11373:1 11378:1 11379:1 11496:1 11612:1 11727:1 11743:1 11751:1 11760:1 11761:1 11776:1 11790:1  |EV| 
-0.01 1718:1 4620:1 7739:1 8858:1 8892:1 8901:1 8934:1 9201:1 9620:1 10291:1 10776:1 11370:1 11373:1 11378:1 11402:1 11496:1 11612:1 11727:1 11743:1 11753:1 11760:1 11761:1 11764:1 11776:1 11790:1  |EV| 
-0.01 407:1 3641:1 6769:1 8861:1 8986:1 9201:1 9278:1 9498:1 9658:1 9722:1 9844:1 10776:1 11370:1 11373:1 11378:1 11404:1 11496:1 11612:1 11727:1 11743:1 11750:1 11760:1 11761:1 11776:1 11790:1  |EV| 
-0.01 2546:1 5691:1 8825:1 8857:1 8879:1 8928:1 9788:1 10776:1 11370:1 11373:1 11378:1 11401:1 11496:1 11612:1 11727:1 11743:1 11750:1 11760:1 11761:1 11776:1 11790:1  |EV| 
-0.01 1220:1 3966:1 7085:1 8858:1 8901:1 9255:1 9617:1 9986:1 10776:1 11353:1 11356:1 11370:1 11373:1 11378:1 11393:1 11496:1 11612:1 11727:1 11743:1 11750:1 11760:1 11761:1 11776:1 11790:1  |EV| 
-0.01 1927:1 4921:1 8105:1 8851:1 9020:1 10272:1 10406:1 10776:1 11213:1 11370:1 11373:1 11378:1 11401:1 11496:1 11612:1 11727:1 11743:1 11750:1 11760:1 11761:1 11776:1 11790:1  |EV| 
0.01 358:1 3533:1 6669:1 8848:1 8858:1 8974:1 9104:1 9119:1 9768:1 10776:1 11370:1 11374:1 11378:1 11403:1 11496:1 11612:1 11728:1 11743:1 11750:1 11760:1 11761:1 11776:1 11790:1  |EV| 
0.01 423:1 3035:1 6180:1 8848:1 8851:1 8858:1 8936:1 8984:1 9024:1 9119:1 9361:1 9362:1 10776:1 11370:1 11374:1 11378:1 11416:1 11496:1 11612:1 11731:1 11743:1 11750:1 11760:1 11761:1 11776:1 11790:1  |EV| 
0.01 66:1 3001:1 6255:1 8848:1 9469:1 10776:1 11370:1 11374:1 11378:1 11383:1 11496:1 11612:1 11728:1 11743:1 11750:1 11760:1 11761:1 11776:1 11790:1  |EV| 
0.01 930:1 4289:1 7420:1 8848:1 8858:1 8974:1 9009:1 9104:1 9119:1 9879:1 10183:1 10184:1 10776:1 11370:1 11374:1 11378:1 11416:1 11496:1 11612:1 11731:1 11743:1 11750:1 11760:1 11761:1 11776:1 11790:1  |EV| 
0.01 511:1 3528:1 6663:1 8848:1 8855:1 8858:1 8886:1 8941:1 9495:1 9738:1 10776:1 11370:1 11374:1 11378:1 11389:1 11496:1 11612:1 11728:1 11743:1 11750:1 11760:1 11761:1 11776:1 11790:1  |EV| 
-0.01 1630:1 4497:1 7608:1 8848:1 8858:1 8861:1 8984:1 9119:1 9350:1 10164:1 10776:1 11370:1 11374:1 11378:1 11389:1 11496:1 11612:1 11728:1 11743:1 11750:1 11760:1 11761:1 11776:1 11790:1  |EV| 
-0.01 504:1 3123:1 6259:1 8848:1 8858:1 8861:1 8862:1 8863:1 8870:1 8939:1 9116:1 10776:1 10922:1 11370:1 11374:1 11378:1 11411:1 11496:1 11612:1 11728:1 11743:1 11750:1 11760:1 11761:1 11776:1 11790:1  |EV| 
-0.0012969670695953776 1593:1 4523:1 7633:1 8848:1 8858:1 8861:1 8863:1 8975:1 8984:1 9062:1 9119:1 9350:1 9355:1 9357:1 9564:1 9700:1 10164:1 10182:1 10267:1 10268:1 10277:1 10776:1 11370:1 11374:1 11378:1 11405:1 11496:1 11612:1 11732:1 11743:1 11750:1 11760:1 11761:1 11776:1 11790:1  |EV| 
-0.01 243:1 3176:1 6310:1 8848:1 8858:1 8984:1 9512:1 9513:1 10776:1 11370:1 11374:1 11378:1 11396:1 11496:1 11612:1 11728:1 11743:1 11753:1 11760:1 11761:1 11776:1 11790:1  |EV| 
-0.01 423:1 4503:1 7620:1 8848:1 8858:1 8877:1 9039:1 10270:1 10776:1 10831:1 11370:1 11374:1 11378:1 11396:1 11496:1 11612:1 11728:1 11743:1 11750:1 11760:1 11761:1 11776:1 11790:1  |EV| 
0.007442499725419249 104:1 2719:1 8401:1 8879:1 10557:1 10776:1 11370:1 11373:1 11378:1 11392:1 11496:1 11612:1 11727:1 11743:1 11750:1 11760:1 11761:1 11776:1 11790:1  |EV| 
0.0086492101924771567 613:1 3240:1 6375:1 8879:1 8982:1 9217:1 9296:1 9367:1 10776:1 11370:1 11373:1 11378:1 11393:1 11496:1 11612:1 11727:1 11743:1 11750:1 11760:1 11761:1 11776:1 11790:1  |EV| 
0.005946468842917216 944:1 3638:1 6767:1 8879:1 9769:1 10776:1 11370:1 11373:1 11378:1 11392:1 11496:1 11612:1 11727:1 11743:1 11750:1 11760:1 11761:1 11776:1 11790:1  |EV| 
0.01 2027:1 5276:1 8437:1 8861:1 9229:1 10569:1 10776:1 11370:1 11373:1 11378:1 11379:1 11496:1 11612:1 11727:1 11743:1 11750:1 11760:1 11761:1 11776:1 11790:1  |EV| 
0.0050314209537302848 128:1 2720:1 7265:1 8879:1 9769:1 10127:1 10776:1 11370:1 11373:1 11378:1 11379:1 11496:1 11612:1 11727:1 11743:1 11750:1 11760:1 11761:1 11776:1 11790:1  |EV| 
-0.01 1613:1 4475:1 7588:1 8848:1 8879:1 9292:1 9367:1 10035:1 10200:1 10776:1 11370:1 11373:1 11378:1 11431:1 11496:1 11612:1 11727:1 11743:1 11750:1 11760:1 11761:1 11776:1 11790:1  |EV| 
-0.01 1327:1 4096:1 7203:1 8855:1 8866:1 8879:1 8979:1 10046:1 10776:1 11370:1 11373:1 11378:1 11393:1 11496:1 11612:1 11727:1 11743:1 11750:1 11760:1 11761:1 11776:1 11790:1  |EV| 
-0.01 194:1 2798:1 5937:1 8848:1 8855:1 8865:1 8893:1 8928:1 8997:1 9015:1 9094:1 9095:1 9159:1 9182:1 9183:1 9184:1 9185:1 9186:1 9187:1 10776:1 11370:1 11373:1 11378:1 11436:1 11496:1 11612:1 11729:1 11743:1 11750:1 11760:1 11761:1 11776:1 11790:1  |EV| 
-0.01 11:1 2790:1 8514:1 8848:1 8855:1 8866:1 8879:1 8979:1 9179:1 9306:1 9546:1 10776:1 11370:1 11373:1 11378:1 11404:1 11496:1 11612:1 11727:1 11743:1 11750:1 11760:1 11761:1 11776:1 11790:1  |EV| 
-0.01 2384:1 5493:1 8637:1 8855:1 8871:1 8880:1 8979:1 10673:1 10776:1 11370:1 11373:1 11378:1 11393:1 11496:1 11612:1 11727:1 11743:1 11750:1 11760:1 11761:1 11776:1 11790:1  |EV| 
0.01 175:1 3284:1 8328:1 8857:1 8858:1 8901:1 9062:1 10007:1 10776:1 10852:1 11370:1 11374:1 11378:1 11396:1 11496:1 11612:1 11728:1 11743:1 11750:1 11760:1 11761:1 11776:1 11790:1  |EV| 
0.01 259:1 2850:1 8454:1 8848:1 8857:1 8858:1 8861:1 8863:1 8880:1 8899:1 8958:1 9028:1 9112:1 9327:1 9370:1 9617:1 9922:1 10568:1 10572:1 10573:1 10576:1 10776:1 11370:1 11373:1 11378:1 11385:1 11496:1 11612:1 11730:1 11743:1 11750:1 11760:1 11761:1 11776:1 11790:1  |EV| 
0.01 420:1 4280:1 7407:1 8848:1 8861:1 8865:1 8892:1 8897:1 8901:1 8944:1 9027:1 9043:1 9119:1 9123:1 9491:1 9510:1 9580:1 10185:1 10189:1 10190:1 10191:1 10192:1 10776:1 11370:1 11374:1 11378:1 11405:1 11496:1 11612:1 11732:1 11743:1 11750:1 11760:1 11761:1 11776:1 11790:1  |EV| 
0.01 252:1 3174:1 6308:1 8848:1 8858:1 9478:1 10776:1 11370:1 11374:1 11378:1 11386:1 11496:1 11612:1 11728:1 11743:1 11753:1 11760:1 11761:1 11776:1 11790:1  |EV| 
0.01 616:1 3606:1 6743:1 8848:1 8855:1 8858:1 8895:1 8939:1 8979:1 8984:1 9033:1 9112:1 9137:1 9676:1 9828:1 9829:1 9830:1 9831:1 9832:1 9833:1 9838:1 9839:1 9840:1 9841:1 9842:1 10776:1 11370:1 11374:1 11378:1 11426:1 11496:1 11612:1 11732:1 11743:1 11750:1 11760:1 11761:1 11776:1 11790:1  |EV| 
-0.01 869:1 3549:1 5899:1 8855:1 10776:1 11370:1 11373:1 11378:1 11400:1 11496:1 11612:1 11727:1 11743:1 11750:1 11760:1 11761:1 11772:1 11790:1  |EV| 
-0.01 1868:1 4833:1 5749:1 10776:1 10830:1 11370:1 11373:1 11378:1 11407:1 11496:1 11612:1 11727:1 11743:1 11751:1 11760:1 11761:1 11775:1 11790:1  |EV| 
-0.01 139:1 2710:1 5852:1 8855:1 8979:1 9000:1 9073:1 10776:1 11370:1 11373:1 11378:1 11401:1 11496:1 11612:1 11727:1 11743:1 11750:1 11760:1 11761:1 11772:1 11790:1  |EV| 
-0.01 11:1 2568:1 5974:1 8990:1 9075:1 9078:1 9136:1 10776:1 11370:1 11373:1 11378:1 11401:1 11496:1 11612:1 11727:1 11743:1 11750:1 11760:1 11761:1 11790:1  |EV| 
-0.01 700:1 3345:1 7661:1 8848:1 8851:1 8857:1 8858:1 8863:1 8934:1 8936:1 9372:1 9373:1 9700:1 9899:1 10128:1 10300:1 10301:1 10302:1 10303:1 10304:1 10776:1 11370:1 11373:1 11378:1 11440:1 11496:1 11612:1 11729:1 11743:1 11750:1 11760:1 11761:1 11776:1 11790:1  |EV| 
0.01 223:1 2809:1 5948:1 8848:1 8855:1 8861:1 8879:1 9020:1 9094:1 9095:1 9149:1 9156:1 9159:1 9192:1 9193:1 9194:1 9195:1 9196:1 9197:1 9198:1 9199:1 9200:1 9201:1 9202:1 9203:1 10776:1 11370:1 11373:1 11378:1 11449:1 11496:1 11612:1 11730:1 11743:1 11750:1 11760:1 11761:1 11776:1 11790:1  |EV| 
0.01 2235:1 5314:1 8477:1 8853:1 8855:1 10582:1 10583:1 10589:1 10776:1 11353:1 11356:1 11370:1 11373:1 11378:1 11393:1 11496:1 11612:1 11727:1 11743:1 11753:1 11760:1 11761:1 11776:1 11790:1  |EV| 
0.01 59:1 2829:1 5969:1 8848:1 9091:1 9092:1 9191:1 9217:1 10776:1 11370:1 11373:1 11378:1 11393:1 11496:1 11612:1 11727:1 11743:1 11750:1 11760:1 11761:1 11776:1 11790:1  |EV| 
0.01 616:1 4697:1 7821:1 8848:1 8855:1 8861:1 8863:1 8895:1 8941:1 9142:1 9361:1 9620:1 10289:1 10290:1 10292:1 10776:1 11370:1 11373:1 11378:1 11423:1 11496:1 11612:1 11729:1 11743:1 11750:1 11760:1 11761:1 11776:1 11790:1  |EV| 
0.01 2422:1 5533:1 8671:1 8848:1 8851:1 8855:1 8858:1 8871:1 8877:1 8882:1 8958:1 8997:1 9015:1 9059:1 9380:1 9528:1 10651:1 10694:1 10696:1 10697:1 10776:1 11370:1 11373:1 11378:1 11440:1 11496:1 11612:1 11729:1 11743:1 11750:1 11760:1 11761:1 11776:1 11790:1  |EV| 
-0.01 2413:1 5523:1 8663:1 8848:1 8855:1 8871:1 8882:1 9059:1 9380:1 10651:1 10694:1 10697:1 10776:1 11306:1 11370:1 11373:1 11378:1 11402:1 11496:1 11612:1 11727:1 11743:1 11750:1 11760:1 11761:1 11776:1 11790:1  |EV| 
-0.01 1548:1 4927:1 8052:1 8848:1 8855:1 8982:1 9015:1 9620:1 10111:1 10433:1 10434:1 10776:1 11370:1 11373:1 11378:1 11402:1 11496:1 11612:1 11727:1 11743:1 11750:1 11760:1 11761:1 11776:1 11790:1  |EV| 
-0.01 1231:1 3978:1 7096:1 8848:1 8935:1 8944:1 9461:1 9987:1 10776:1 10951:1 11370:1 11373:1 11378:1 11393:1 11496:1 11612:1 11727:1 11743:1 11750:1 11760:1 11761:1 11776:1 11790:1  |EV| 
-0.01 964:1 3667:1 6793:1 8852:1 8855:1 8858:1 8861:1 8863:1 8868:1 8871:1 8879:1 8901:1 8944:1 8961:1 8982:1 8985:1 9043:1 9108:1 9201:1 9343:1 9690:1 9808:1 9820:1 9871:1 9872:1 9873:1 9874:1 9875:1 9876:1 10776:1 11370:1 11373:1 11378:1 11424:1 11496:1 11612:1 11730:1 11743:1 11750:1 11760:1 11761:1 11776:1 11790:1  |EV| 
-0.01 2515:1 5655:1 8785:1 8848:1 8855:1 8865:1 8879:1 8881:1 8997:1 9015:1 9020:1 9181:1 9196:1 9273:1 9447:1 10283:1 10745:1 10776:1 11370:1 11373:1 11378:1 11388:1 11496:1 11612:1 11729:1 11743:1 11750:1 11760:1 11761:1 11776:1 11790:1  |EV| 
0.01 2332:1 5540:1 8675:1 8848:1 8857:1 8858:1 8934:1 8959:1 9063:1 9081:1 9116:1 9123:1 9493:1 9584:1 9612:1 9700:1 9775:1 9809:1 9858:1 10386:1 10699:1 10700:1 10776:1 11370:1 11373:1 11378:1 11418:1 11496:1 11612:1 11730:1 11743:1 11750:1 11760:1 11761:1 11776:1 11790:1  |EV| 
0.01 420:1 4537:1 8177:1 8848:1 8857:1 8858:1 8863:1 8879:1 8902:1 8979:1 8984:1 9035:1 9501:1 9676:1 10461:1 10462:1 10463:1 10776:1 11370:1 11373:1 11378:1 11436:1 11496:1 11612:1 11729:1 11743:1 11750:1 11760:1 11761:1 11773:1 11776:1 11790:1  |EV| 
0.01 1939:1 4939:1 8066:1 8848:1 8858:1 8863:1 8865:1 9100:1 10432:1 10776:1 10794:1 11370:1 11373:1 11378:1 11398:1 11496:1 11612:1 11727:1 11743:1 11753:1 11760:1 11761:1 11773:1 11774:1 11776:1 11790:1  |EV| 
0.01 499:1 5111:1 8259:1 8848:1 8857:1 9249:1 9434:1 10473:1 10474:1 10776:1 11370:1 11374:1 11378:1 11389:1 11496:1 11612:1 11728:1 11743:1 11750:1 11760:1 11761:1 11776:1 11790:1  |EV| 
0.01 11:1 2568:1 7473:1 8848:1 8858:1 8973:1 9528:1 10776:1 11370:1 11374:1 11378:1 11382:1 11496:1 11612:1 11728:1 11743:1 11750:1 11760:1 11761:1 11776:1 11790:1  |EV| 
-0.01 832:1 3509:1 8060:1 8848:1 8895:1 8944:1 9142:1 9510:1 9580:1 10423:1 10776:1 11370:1 11374:1 11378:1 11389:1 11496:1 11612:1 11728:1 11743:1 11750:1 11760:1 11761:1 11776:1 11790:1  |EV| 
-0.01 85:1 2653:1 6840:1 8848:1 8853:1 8858:1 8986:1 9094:1 9095:1 9096:1 9432:1 9487:1 9488:1 9863:1 9864:1 9865:1 9866:1 9867:1 9868:1 10776:1 11370:1 11373:1 11378:1 11384:1 11496:1 11612:1 11729:1 11743:1 11750:1 11760:1 11761:1 11776:1 11790:1  |EV| 
-0.01 415:1 4552:1 7702:1 8858:1 9062:1 9119:1 9203:1 9219:1 9843:1 10776:1 11370:1 11373:1 11378:1 11431:1 11496:1 11612:1 11727:1 11743:1 11750:1 11760:1 11761:1 11776:1 11790:1  |EV| 
-0.01 686:1 3430:1 6555:1 8858:1 9501:1 10776:1 10783:1 11370:1 11374:1 11378:1 11383:1 11496:1 11612:1 11728:1 11743:1 11753:1 11760:1 11761:1 11776:1 11778:1 11790:1  |EV| 
-0.01 425:1 4547:1 7743:1 8851:1 8858:1 8934:1 9035:1 9182:1 9198:1 9217:1 9292:1 9373:1 9397:1 10287:1 10776:1 11370:1 11373:1 11378:1 11391:1 11496:1 11612:1 11729:1 11743:1 11750:1 11760:1 11761:1 11776:1 11790:1  |EV| 
0.01 76:1 2644:1 6915:1 8855:1 8858:1 8861:1 8868:1 8871:1 8879:1 8901:1 8944:1 8961:1 8982:1 8985:1 9043:1 9108:1 9201:1 9343:1 9820:1 9871:1 9872:1 9873:1 9874:1 9875:1 10776:1 11370:1 11373:1 11378:1 11418:1 11496:1 11612:1 11730:1 11743:1 11750:1 11760:1 11761:1 11776:1 11790:1  |EV| 
0.01 1612:1 4474:1 7587:1 8848:1 8855:1 8858:1 8879:1 8936:1 9219:1 9264:1 10276:1 10776:1 11370:1 11373:1 11378:1 11402:1 11496:1 11612:1 11727:1 11743:1 11750:1 11760:1 11761:1 11776:1 11790:1  |EV| 
0.01 196:1 3109:1 6909:1 8848:1 8861:1 8892:1 9116:1 9119:1 9424:1 9425:1 9888:1 9899:1 10776:1 11370:1 11373:1 11378:1 11402:1 11496:1 11612:1 11727:1 11743:1 11750:1 11760:1 11761:1 11776:1 11790:1  |EV| 
0.01 426:1 4836:1 7962:1 8848:1 8858:1 8865:1 8901:1 8944:1 10370:1 10371:1 10372:1 10373:1 10776:1 11370:1 11373:1 11378:1 11402:1 11496:1 11612:1 11727:1 11743:1 11753:1 11760:1 11761:1 11774:1 11776:1 11790:1  |EV| 
0.01 2103:1 5490:1 8634:1 8848:1 8855:1 8879:1 8952:1 8979:1 9367:1 10260:1 10680:1 10681:1 10776:1 11370:1 11373:1 11378:1 11402:1 11496:1 11612:1 11727:1 11743:1 11750:1 11760:1 11761:1 11776:1 11790:1  |EV| 
-0.01 2535:1 5678:1 8827:1 8848:1 8855:1 10386:1 10776:1 11370:1 11373:1 11378:1 11379:1 11496:1 11612:1 11727:1 11743:1 11750:1 11760:1 11761:1 11790:1  |EV| 
-0.01 128:1 2720:1 6804:1 8848:1 8855:1 8858:1 8861:1 8866:1 8880:1 8889:1 9137:1 9143:1 9331:1 9620:1 9650:1 9882:1 9883:1 9884:1 9885:1 9886:1 9887:1 10776:1 11370:1 11373:1 11378:1 11418:1 11496:1 11612:1 11730:1 11743:1 11750:1 11760:1 11761:1 11776:1 11790:1  |EV| 
-0.01 1685:1 4701:1 7825:1 8848:1 8861:1 8879:1 9035:1 9062:1 9163:1 9910:1 10223:1 10776:1 11370:1 11373:1 11378:1 11404:1 11496:1 11612:1 11727:1 11743:1 11750:1 11760:1 11761:1 11776:1 11790:1  |EV| 
-0.01 2520:1 5661:1 8790:1 8855:1 8879:1 9020:1 9196:1 9273:1 10776:1 11370:1 11373:1 11378:1 11393:1 11496:1 11612:1 11727:1 11743:1 11750:1 11760:1 11761:1 11790:1  |EV| 
-0.01 857:1 3537:1 6674:1 8848:1 8855:1 8979:1 8986:1 9094:1 9095:1 9700:1 9764:1 9765:1 10776:1 11370:1 11373:1 11378:1 11402:1 11496:1 11612:1 11727:1 11743:1 11750:1 11760:1 11761:1 11776:1 11790:1  |EV| 
0.01 612:1 3239:1 5791:1 8858:1 10776:1 10783:1 11370:1 11374:1 11378:1 11381:1 11496:1 11612:1 11728:1 11743:1 11750:1 11760:1 11761:1 11763:1 11776:1 11790:1  |EV| 
0.01 1075:1 3809:1 6943:1 8863:1 10776:1 10779:1 11370:1 11374:1 11378:1 11381:1 11496:1 11612:1 11728:1 11743:1 11750:1 11760:1 11761:1 11776:1 11790:1  |EV| 
0.01 1343:1 4116:1 7227:1 9001:1 9015:1 10776:1 10779:1 11370:1 11374:1 11378:1 11383:1 11496:1 11612:1 11728:1 11743:1 11750:1 11760:1 11761:1 11776:1 11790:1  |EV| 
0.01 1873:1 4840:1 8079:1 8858:1 10400:1 10776:1 11370:1 11374:1 11378:1 11383:1 11496:1 11612:1 11728:1 11743:1 11753:1 11760:1 11761:1 11776:1 11790:1  |EV| 
0.01 630:1 4858:1 7985:1 8851:1 8944:1 9119:1 9217:1 10382:1 10776:1 11370:1 11374:1 11378:1 11396:1 11496:1 11612:1 11728:1 11743:1 11750:1 11760:1 11761:1 11764:1 11776:1 11790:1  |EV| 
-0.01 252:1 2842:1 5987:1 8861:1 8892:1 10776:1 10779:1 11370:1 11374:1 11378:1 11383:1 11496:1 11612:1 11728:1 11743:1 11753:1 11760:1 11761:1 11774:1 11776:1 11778:1 11790:1  |EV| 
-0.01 1732:1 4639:1 5896:1 8861:1 10776:1 10783:1 11370:1 11374:1 11378:1 11381:1 11496:1 11612:1 11728:1 11743:1 11750:1 11760:1 11761:1 11776:1 11779:1 11790:1  |EV| 
-0.01 195:1 4320:1 7555:1 8858:1 8956:1 9059:1 10776:1 10834:1 11370:1 11374:1 11378:1 11386:1 11496:1 11612:1 11728:1 11743:1 11753:1 11760:1 11761:1 11776:1 11790:1  |EV| 
-0.01 196:1 4425:1 8233:1 8861:1 8865:1 9008:1 10207:1 10776:1 11232:1 11370:1 11374:1 11378:1 11382:1 11496:1 11612:1 11728:1 11743:1 11750:1 11760:1 11761:1 11776:1 11790:1  |EV| 
-0.01 2529:1 5671:1 8803:1 8861:1 9561:1 10776:1 10831:1 11370:1 11374:1 11378:1 11383:1 11496:1 11612:1 11728:1 11743:1 11750:1 11760:1 11761:1 11776:1 11790:1  |EV| 
0.01 128:1 2720:1 6903:1 8848:1 8855:1 8861:1 8880:1 9143:1 9331:1 9620:1 9884:1 9885:1 9886:1 9887:1 10776:1 11370:1 11373:1 11378:1 11438:1 11496:1 11612:1 11729:1 11743:1 11750:1 11760:1 11761:1 11776:1 11790:1  |EV| 
0.01 76:1 5356:1 8510:1 8848:1 8855:1 8858:1 8861:1 8863:1 8876:1 8879:1 8951:1 8984:1 9397:1 9758:1 9769:1 9809:1 10603:1 10616:1 10617:1 10776:1 11370:1 11373:1 11378:1 11453:1 11496:1 11612:1 11729:1 11743:1 11750:1 11760:1 11761:1 11776:1 11790:1  |EV| 
0.01 128:1 2699:1 5845:1 8855:1 8857:1 8858:1 8879:1 8911:1 8928:1 8936:1 8979:1 8984:1 8992:1 8993:1 8994:1 8995:1 8996:1 8997:1 8998:1 9065:1 10776:1 11370:1 11373:1 11378:1 11385:1 11496:1 11612:1 11730:1 11743:1 11750:1 11760:1 11761:1 11776:1 11790:1  |EV| 
0.01 1094:1 4984:1 8132:1 8848:1 8855:1 8858:1 8982:1 9015:1 9217:1 9357:1 9620:1 10111:1 10433:1 10434:1 10776:1 11370:1 11373:1 11378:1 11423:1 11496:1 11612:1 11729:1 11743:1 11750:1 11760:1 11761:1 11776:1 11790:1  |EV| 
0.01 72:1 2840:1 5985:1 8848:1 8858:1 8866:1 8892:1 8979:1 9119:1 9143:1 9144:1 9145:1 9146:1 10776:1 11370:1 11373:1 11378:1 11391:1 11496:1 11612:1 11729:1 11743:1 11750:1 11760:1 11761:1 11776:1 11790:1  |EV| 
-0.01 2412:1 5522:1 8662:1 8848:1 8851:1 8858:1 8877:1 8958:1 8997:1 9015:1 9528:1 10696:1 10776:1 11370:1 11373:1 11378:1 11445:1 11496:1 11612:1 11729:1 11743:1 11750:1 11760:1 11761:1 11763:1 11776:1 11790:1  |EV| 
-0.01 1304:1 5432:1 8593:1 8848:1 8855:1 8858:1 8865:1 8899:1 8925:1 8934:1 8968:1 9686:1 9868:1 9890:1 9962:1 10635:1 10636:1 10637:1 10638:1 10639:1 10776:1 11370:1 11373:1 11378:1 11440:1 11496:1 11612:1 11729:1 11743:1 11750:1 11760:1 11761:1 11776:1 11790:1  |EV| 
-0.01 165:1 2742:1 6015:1 8848:1 8855:1 8858:1 8863:1 8866:1 9033:1 9111:1 9164:1 9165:1 9166:1 9167:1 9169:1 9170:1 9171:1 10776:1 11370:1 11373:1 11378:1 11453:1 11496:1 11612:1 11729:1 11743:1 11750:1 11760:1 11761:1 11776:1 11790:1  |EV| 
-0.01 415:1 3037:1 7592:1 8848:1 8858:1 8861:1 8879:1 8984:1 9119:1 9350:1 9367:1 9368:1 10164:1 10262:1 10267:1 10776:1 11370:1 11373:1 11378:1 11423:1 11496:1 11612:1 11729:1 11743:1 11750:1 11760:1 11761:1 11776:1 11790:1  |EV| 
-0.01 905:1 3588:1 6729:1 8848:1 8850:1 8855:1 8857:1 8858:1 8863:1 8879:1 8899:1 8998:1 9209:1 9318:1 9611:1 9801:1 9802:1 9803:1 9804:1 9805:1 10776:1 11370:1 11373:1 11378:1 11397:1 11496:1 11612:1 11730:1 11743:1 11750:1 11760:1 11761:1 11776:1 11790:1  |EV| 
0.01 2369:1 5474:1 8622:1 8861:1 8939:1 9102:1 10776:1 10779:1 11370:1 11374:1 11378:1 11386:1 11496:1 11612:1 11728:1 11743:1 11750:1 11760:1 11761:1 11776:1 11790:1  |EV| 
0.01 2378:1 5486:1 6735:1 8861:1 8939:1 10776:1 10779:1 11370:1 11374:1 11378:1 11383:1 11496:1 11612:1 11728:1 11743:1 11750:1 11760:1 11761:1 11776:1 11790:1  |EV| 
0.01 196:1 3738:1 7338:1 8848:1 8861:1 9775:1 10145:1 10776:1 11370:1 11374:1 11378:1 11382:1 11496:1 11612:1 11728:1 11743:1 11750:1 11760:1 11761:1 11776:1 11790:1  |EV| 
0.01 72:1 2851:1 5998:1 8848:1 8861:1 8939:1 9135:1 9172:1 9173:1 9218:1 10776:1 11370:1 11374:1 11378:1 11411:1 11496:1 11612:1 11728:1 11743:1 11750:1 11760:1 11761:1 11776:1 11790:1  |EV| 
0.01 158:1 3899:1 7023:1 8848:1 8861:1 9028:1 9043:1 9102:1 9121:1 9123:1 9124:1 9956:1 10776:1 11370:1 11374:1 11378:1 11425:1 11496:1 11612:1 11731:1 11743:1 11750:1 11760:1 11761:1 11763:1 11776:1 11790:1  |EV| 
-0.01 175:1 3284:1 8501:1 8848:1 8855:1 10776:1 11370:1 11374:1 11378:1 11383:1 11496:1 11612:1 11728:1 11743:1 11750:1 11760:1 11761:1 11776:1 11790:1  |EV| 
-0.01 1014:1 4294:1 6274:1 8848:1 10776:1 11370:1 11374:1 11378:1 11381:1 11496:1 11612:1 11728:1 11743:1 11750:1 11760:1 11761:1 11776:1 11790:1  |EV| 
-0.01 1895:1 4878:1 8004:1 8861:1 8939:1 8957:1 9002:1 9112:1 9650:1 10398:1 10776:1 10816:1 11370:1 11374:1 11378:1 11389:1 11496:1 11612:1 11728:1 11743:1 11750:1 11760:1 11761:1 11776:1 11790:1  |EV| 
-0.01 259:1 4093:1 7201:1 8855:1 9001:1 9015:1 10096:1 10776:1 11370:1 11374:1 11378:1 11382:1 11496:1 11612:1 11728:1 11743:1 11750:1 11760:1 11761:1 11776:1 11790:1  |EV| 
-0.01 1098:1 3832:1 6959:1 8848:1 8855:1 9926:1 10776:1 10855:1 11370:1 11374:1 11378:1 11386:1 11496:1 11612:1 11728:1 11743:1 11750:1 11760:1 11761:1 11776:1 11790:1  |EV| 
0.01 408:1 3020:1 6170:1 8848:1 8858:1 8865:1 8902:1 8984:1 9056:1 9062:1 9137:1 9355:1 10776:1 11370:1 11373:1 11378:1 11402:1 11496:1 11612:1 11727:1 11743:1 11753:1 11760:1 11761:1 11776:1 11790:1  |EV| 
0.01 165:1 2742:1 7369:1 8848:1 8855:1 8858:1 8934:1 9015:1 9176:1 9785:1 10155:1 10156:1 10157:1 10776:1 11370:1 11373:1 11378:1 11391:1 11496:1 11612:1 11729:1 11743:1 11750:1 11760:1 11761:1 11776:1 11790:1  |EV| 
0.01 1234:1 3981:1 7100:1 8848:1 8858:1 8901:1 8935:1 8944:1 9255:1 9461:1 9617:1 9986:1 9987:1 10776:1 11075:1 11076:1 11353:1 11356:1 11370:1 11373:1 11378:1 11445:1 11496:1 11612:1 11729:1 11743:1 11750:1 11760:1 11761:1 11776:1 11790:1  |EV| 
0.01 609:1 4576:1 7694:1 8848:1 8855:1 8858:1 8863:1 9033:1 9079:1 9105:1 9361:1 9611:1 9894:1 10280:1 10297:1 10298:1 10299:1 10776:1 11370:1 11373:1 11378:1 11384:1 11496:1 11612:1 11729:1 11743:1 11750:1 11760:1 11761:1 11776:1 11790:1  |EV| 
0.01 464:1 4032:1 8733:1 8858:1 8861:1 8863:1 8879:1 8938:1 8979:1 9000:1 9147:1 9884:1 9895:1 10723:1 10776:1 11370:1 11373:1 11378:1 11391:1 11496:1 11612:1 11729:1 11743:1 11750:1 11760:1 11761:1 11776:1 11790:1  |EV| 
-0.01 2472:1 5611:1 8756:1 8858:1 8861:1 8863:1 8868:1 8879:1 8892:1 8893:1 8966:1 8992:1 9015:1 9116:1 9199:1 9437:1 10022:1 10733:1 10776:1 11370:1 11373:1 11378:1 11436:1 11496:1 11612:1 11729:1 11743:1 11750:1 11760:1 11761:1 11776:1 11790:1  |EV| 
-0.01 423:1 3597:1 7684:1 8848:1 8855:1 8858:1 8863:1 9033:1 9079:1 9082:1 9105:1 9292:1 9361:1 9372:1 9611:1 9894:1 10175:1 10280:1 10297:1 10298:1 10299:1 10776:1 11370:1 11373:1 11378:1 11397:1 11496:1 11612:1 11730:1 11743:1 11750:1 11760:1 11761:1 11776:1 11790:1  |EV| 
-0.01 1073:1 3802:1 6932:1 8848:1 8857:1 8860:1 8861:1 8865:1 8928:1 9046:1 9297:1 9447:1 9507:1 9905:1 9906:1 10776:1 11370:1 11373:1 11378:1 11423:1 11496:1 11612:1 11729:1 11743:1 11750:1 11760:1 11761:1 11776:1 11790:1  |EV| 
-0.01 2153:1 5214:1 8392:1 8863:1 8879:1 8920:1 8990:1 9063:1 9094:1 9149:1 9370:1 9677:1 9806:1 10539:1 10540:1 10776:1 11370:1 11373:1 11378:1 11423:1 11496:1 11612:1 11729:1 11743:1 11750:1 11760:1 11761:1 11776:1 11790:1  |EV| 
-0.01 902:1 3583:1 6723:1 8858:1 8879:1 8901:1 8990:1 9179:1 9211:1 9522:1 9798:1 9810:1 10776:1 11370:1 11373:1 11378:1 11402:1 11496:1 11612:1 11727:1 11743:1 11750:1 11760:1 11761:1 11763:1 11776:1 11790:1  |EV| 
0.01 914:1 3822:1 6274:1 8848:1 10776:1 11370:1 11374:1 11378:1 11381:1 11496:1 11612:1 11728:1 11743:1 11750:1 11760:1 11761:1 11776:1 11790:1  |EV| 
0.01 1686:1 4573:1 6274:1 8848:1 10776:1 11370:1 11374:1 11378:1 11381:1 11496:1 11612:1 11728:1 11743:1 11750:1 11760:1 11761:1 11776:1 11790:1  |EV| 
0.01 459:1 5370:1 6274:1 8848:1 10776:1 11370:1 11374:1 11378:1 11381:1 11496:1 11612:1 11728:1 11743:1 11750:1 11760:1 11761:1 11776:1 11790:1  |EV| 
0.01 914:1 3621:1 6757:1 9834:1 9835:1 10776:1 10831:1 11370:1 11374:1 11378:1 11383:1 11496:1 11612:1 11728:1 11743:1 11750:1 11760:1 11761:1 11776:1 11790:1  |EV| 
0.01 66:1 3001:1 7214:1 8892:1 8934:1 9761:1 10087:1 10088:1 10089:1 10776:1 11370:1 11374:1 11378:1 11403:1 11496:1 11612:1 11728:1 11743:1 11750:1 11760:1 11761:1 11776:1 11790:1  |EV| 
-0.01 990:1 3695:1 6822:1 8848:1 8853:1 8858:1 9119:1 10776:1 11346:1 11370:1 11374:1 11378:1 11382:1 11496:1 11612:1 11728:1 11743:1 11750:1 11760:1 11761:1 11776:1 11790:1  |EV| 
-0.01 734:1 4661:1 7781:1 8858:1 9062:1 9119:1 9203:1 10776:1 11177:1 11370:1 11374:1 11378:1 11382:1 11496:1 11612:1 11728:1 11743:1 11750:1 11760:1 11761:1 11776:1 11790:1  |EV| 
-0.01 609:1 3615:1 8021:1 8861:1 8865:1 9071:1 9112:1 9219:1 9355:1 10776:1 11038:1 11370:1 11374:1 11378:1 11403:1 11496:1 11612:1 11728:1 11743:1 11750:1 11760:1 11761:1 11776:1 11790:1  |EV| 
-0.01 139:1 2710:1 6571:1 8848:1 8858:1 8892:1 9182:1 9671:1 10776:1 11370:1 11374:1 11378:1 11396:1 11496:1 11612:1 11728:1 11743:1 11753:1 11760:1 11761:1 11776:1 11790:1  |EV| 
-0.01 1333:1 5530:1 8668:1 8848:1 8851:1 8858:1 8877:1 9528:1 10776:1 11308:1 11370:1 11374:1 11378:1 11396:1 11496:1 11612:1 11728:1 11743:1 11750:1 11760:1 11761:1 11776:1 11790:1  |EV| 
0.01 85:1 2653:1 5796:1 8848:1 8852:1 8855:1 8858:1 8861:1 8863:1 8872:1 8879:1 8951:1 8965:1 8966:1 8967:1 8968:1 8969:1 8970:1 8971:1 8972:1 8973:1 8974:1 8975:1 10776:1 11370:1 11373:1 11378:1 11427:1 11496:1 11612:1 11730:1 11743:1 11750:1 11760:1 11761:1 11776:1 11790:1  |EV| 
0.01 415:1 3037:1 6182:1 8848:1 8855:1 8861:1 8863:1 8879:1 9002:1 9107:1 9119:1 9364:1 9365:1 9366:1 9368:1 9369:1 10776:1 11370:1 11373:1 11378:1 11435:1 11496:1 11612:1 11729:1 11743:1 11750:1 11760:1 11761:1 11776:1 11790:1  |EV| 
0.01 2153:1 5214:1 8360:1 8863:1 8879:1 9063:1 9806:1 10539:1 10540:1 10776:1 11370:1 11373:1 11378:1 11431:1 11496:1 11612:1 11727:1 11743:1 11750:1 11760:1 11761:1 11776:1 11790:1  |EV| 
0.01 158:1 3294:1 6423:1 8861:1 8863:1 8879:1 8899:1 8928:1 8930:1 8997:1 9020:1 9522:1 9614:1 9615:1 9616:1 10776:1 11370:1 11373:1 11378:1 11438:1 11496:1 11612:1 11729:1 11743:1 11750:1 11760:1 11761:1 11776:1 11790:1  |EV| 
0.01 1543:1 4388:1 7502:1 8849:1 8851:1 8855:1 8861:1 8879:1 8893:1 9108:1 9367:1 10237:1 10238:1 10776:1 11370:1 11373:1 11378:1 11445:1 11496:1 11612:1 11729:1 11743:1 11750:1 11760:1 11761:1 11776:1 11790:1  |EV| 
-0.01 1248:1 3997:1 7116:1 8848:1 8849:1 8855:1 8857:1 8861:1 8885:1 9073:1 9146:1 9173:1 9225:1 10026:1 10776:1 11370:1 11373:1 11378:1 11435:1 11496:1 11612:1 11729:1 11743:1 11750:1 11760:1 11761:1 11776:1 11790:1  |EV| 
-0.01 814:1 3484:1 8834:1 8849:1 8861:1 8879:1 8928:1 9163:1 9332:1 9561:1 10750:1 10776:1 11370:1 11373:1 11378:1 11402:1 11496:1 11612:1 11727:1 11743:1 11750:1 11760:1 11761:1 11776:1 11790:1  |EV| 
-0.01 1586:1 4439:1 7550:1 8848:1 8849:1 8851:1 8853:1 8855:1 8861:1 8866:1 8872:1 8879:1 8893:1 8956:1 9108:1 9367:1 10200:1 10236:1 10237:1 10238:1 10776:1 11370:1 11373:1 11378:1 11440:1 11496:1 11612:1 11729:1 11743:1 11750:1 11760:1 11761:1 11776:1 11790:1  |EV| 
-0.01 175:1 3284:1 8816:1 8849:1 8857:1 8861:1 8879:1 8928:1 9163:1 9332:1 9561:1 9788:1 10750:1 10776:1 11370:1 11373:1 11378:1 11423:1 11496:1 11612:1 11729:1 11743:1 11750:1 11760:1 11761:1 11776:1 11790:1  |EV| 
-0.01 1534:1 4375:1 7489:1 8848:1 8849:1 8851:1 8853:1 8855:1 8861:1 8866:1 8872:1 8879:1 8956:1 10200:1 10236:1 10237:1 10238:1 10776:1 11370:1 11373:1 11378:1 11438:1 11496:1 11612:1 11729:1 11743:1 11750:1 11760:1 11761:1 11776:1 11790:1  |EV| 
0.01 106:1 3655:1 6781:1 8857:1 8858:1 9528:1 10776:1 11370:1 11374:1 11378:1 11386:1 11496:1 11612:1 11728:1 11743:1 11750:1 11760:1 11761:1 11776:1 11790:1  |EV| 
0.01 2332:1 5584:1 8719:1 8848:1 8858:1 9015:1 9894:1 10702:1 10703:1 10776:1 11370:1 11374:1 11378:1 11403:1 11496:1 11612:1 11728:1 11743:1 11750:1 11760:1 11761:1 11776:1 11790:1  |EV| 
0.01 1239:1 3986:1 7106:1 8848:1 8858:1 8903:1 9998:1 10776:1 11370:1 11374:1 11378:1 11382:1 11496:1 11612:1 11728:1 11743:1 11750:1 11760:1 11761:1 11776:1 11790:1  |EV| 
0.01 2241:1 5319:1 8481:1 8848:1 8858:1 9249:1 9537:1 10586:1 10590:1 10591:1 10776:1 11370:1 11374:1 11378:1 11389:1 11496:1 11612:1 11728:1 11743:1 11750:1 11760:1 11761:1 11776:1 11790:1  |EV| 
0.01 826:1 3500:1 6635:1 8848:1 8858:1 8886:1 8941:1 9495:1 10776:1 11370:1 11374:1 11378:1 11396:1 11496:1 11612:1 11728:1 11743:1 11750:1 11760:1 11761:1 11776:1 11790:1  |EV| 
-0.01 165:1 2742:1 5923:1 8848:1 8858:1 8863:1 9164:1 9165:1 9166:1 9167:1 10776:1 10852:1 11370:1 11374:1 11378:1 11411:1 11496:1 11612:1 11728:1 11743:1 11750:1 11760:1 11761:1 11776:1 11790:1  |EV| 
-0.01 1278:1 4038:1 7149:1 8848:1 8858:1 10776:1 11370:1 11374:1 11378:1 11383:1 11496:1 11612:1 11728:1 11743:1 11751:1 11760:1 11761:1 11764:1 11776:1 11790:1  |EV| 
-0.01 761:1 3420:1 6544:1 8858:1 9074:1 9292:1 10776:1 11370:1 11374:1 11378:1 11386:1 11496:1 11612:1 11728:1 11743:1 11750:1 11760:1 11761:1 11776:1 11790:1  |EV| 
-0.01 499:1 3117:1 6432:1 8848:1 8858:1 8863:1 8925:1 8934:1 9059:1 9119:1 9213:1 9613:1 10776:1 10960:1 11370:1 11374:1 11378:1 11408:1 11496:1 11612:1 11731:1 11743:1 11750:1 11760:1 11761:1 11776:1 11790:1  |EV| 
-0.01 1012:1 3723:1 6852:1 8852:1 8858:1 8863:1 8879:1 9690:1 9808:1 9898:1 10776:1 11044:1 11370:1 11374:1 11378:1 11389:1 11496:1 11612:1 11728:1 11743:1 11753:1 11760:1 11761:1 11776:1 11790:1  |EV| 
0.01 613:1 3250:1 6385:1 8848:1 8855:1 8880:1 8956:1 9015:1 9558:1 9559:1 9560:1 9561:1 9562:1 9563:1 9564:1 9577:1 9578:1 10776:1 11370:1 11373:1 11378:1 11384:1 11496:1 11612:1 11729:1 11743:1 11750:1 11760:1 11761:1 11776:1 11790:1  |EV| 
0.01 1391:1 4177:1 7305:1 8855:1 8857:1 8858:1 8879:1 8892:1 8894:1 8937:1 8995:1 9059:1 9061:1 9223:1 9278:1 9501:1 9879:1 10095:1 10112:1 10776:1 11370:1 11373:1 11378:1 11453:1 11496:1 11612:1 11729:1 11743:1 11750:1 11760:1 11761:1 11776:1 11790:1  |EV| 
0.01 345:1 2941:1 8235:1 8848:1 8855:1 8858:1 8861:1 8952:1 9059:1 9179:1 9309:1 9787:1 10083:1 10487:1 10488:1 10776:1 11370:1 11373:1 11378:1 11435:1 11496:1 11612:1 11729:1 11743:1 11750:1 11760:1 11761:1 11776:1 11790:1  |EV| 
0.01 1589:1 4443:1 7556:1 8849:1 8851:1 8879:1 10237:1 10238:1 10776:1 11370:1 11373:1 11378:1 11393:1 11496:1 11612:1 11727:1 11743:1 11750:1 11760:1 11761:1 11776:1 11790:1  |EV| 
0.01 415:1 3264:1 6397:1 8848:1 8855:1 8880:1 8956:1 9558:1 9559:1 9560:1 9561:1 9562:1 9563:1 9577:1 9578:1 10776:1 10803:1 11370:1 11373:1 11378:1 11388:1 11496:1 11612:1 11729:1 11743:1 11750:1 11760:1 11761:1 11776:1 11790:1  |EV| 
-0.01 410:1 3022:1 5899:1 8855:1 10776:1 10821:1 11370:1 11373:1 11378:1 11400:1 11496:1 11612:1 11727:1 11743:1 11753:1 11760:1 11761:1 11773:1 11790:1  |EV| 
-0.01 175:1 3506:1 7412:1 8866:1 9385:1 9510:1 10776:1 11370:1 11373:1 11378:1 11379:1 11496:1 11612:1 11727:1 11743:1 11750:1 11760:1 11761:1 11790:1  |EV| 
-0.01 529:1 3150:1 6286:1 8848:1 8851:1 8855:1 8880:1 8929:1 8938:1 9179:1 9459:1 9472:1 10776:1 11370:1 11373:1 11378:1 11402:1 11496:1 11612:1 11727:1 11743:1 11750:1 11760:1 11761:1 11776:1 11790:1  |EV| 
0.01 725:1 3371:1 5856:1 8868:1 10776:1 11370:1 11373:1 11378:1 11400:1 11496:1 11612:1 11727:1 11743:1 11750:1 11760:1 11761:1 11776:1 11790:1  |EV| 
-0.01 11:1 2606:1 7357:1 8885:1 9105:1 9117:1 9229:1 10776:1 11370:1 11373:1 11378:1 11401:1 11496:1 11612:1 11727:1 11743:1 11750:1 11760:1 11761:1 11776:1 11790:1  |EV| 
0.01 297:1 2890:1 6037:1 8861:1 8863:1 8865:1 8917:1 8928:1 9256:1 9257:1 9258:1 10776:1 11370:1 11373:1 11378:1 11404:1 11496:1 11612:1 11727:1 11743:1 11753:1 11760:1 11761:1 11776:1 11790:1  |EV| 
0.01 379:1 3496:1 8305:1 8848:1 8858:1 8882:1 9033:1 9528:1 10510:1 10511:1 10512:1 10776:1 11370:1 11374:1 11378:1 11416:1 11496:1 11612:1 11731:1 11743:1 11753:1 11760:1 11761:1 11776:1 11790:1  |EV| 
0.01 420:1 4447:1 7559:1 8858:1 8879:1 9012:1 9683:1 10776:1 11370:1 11374:1 11378:1 11382:1 11496:1 11612:1 11728:1 11743:1 11750:1 11760:1 11761:1 11776:1 11790:1  |EV| 
0.01 425:1 4925:1 8050:1 8858:1 8879:1 8886:1 9119:1 10405:1 10776:1 11370:1 11374:1 11378:1 11396:1 11496:1 11612:1 11728:1 11743:1 11750:1 11760:1 11761:1 11776:1 11790:1  |EV| 
0.01 978:1 5593:1 8729:1 8858:1 8879:1 8892:1 9201:1 9798:1 10561:1 10776:1 11370:1 11373:1 11378:1 11431:1 11496:1 11612:1 11727:1 11743:1 11753:1 11760:1 11761:1 11776:1 11790:1  |EV| 
-0.01 1140:1 3876:1 7002:1 8858:1 8879:1 9020:1 9059:1 9217:1 10776:1 11061:1 11370:1 11373:1 11378:1 11393:1 11496:1 11612:1 11727:1 11743:1 11753:1 11760:1 11764:1 11773:1 11776:1 11790:1  |EV| 
-0.01 300:1 4122:1 7255:1 8858:1 8892:1 8937:1 8974:1 9181:1 9278:1 9396:1 10113:1 10776:1 11370:1 11374:1 11378:1 11411:1 11496:1 11612:1 11728:1 11743:1 11750:1 11760:1 11761:1 11763:1 11776:1 11790:1  |EV| 
-0.01 415:1 4941:1 8088:1 8848:1 8877:1 8879:1 8886:1 8892:1 8984:1 10106:1 10406:1 10407:1 10776:1 11370:1 11374:1 11378:1 11408:1 11496:1 11612:1 11731:1 11743:1 11750:1 11760:1 11761:1 11776:1 11790:1  |EV| 
-0.01 2507:1 5647:1 8778:1 8858:1 8861:1 8863:1 8892:1 8893:1 9116:1 10776:1 11370:1 11374:1 11378:1 11403:1 11496:1 11612:1 11728:1 11743:1 11750:1 11760:1 11761:1 11776:1 11790:1  |EV| 
-0.01 137:1 2708:1 5850:1 8858:1 8860:1 9033:1 9034:1 9035:1 9036:1 10776:1 11370:1 11374:1 11378:1 11403:1 11496:1 11612:1 11728:1 11743:1 11750:1 11760:1 11761:1 11776:1 11790:1  |EV| 
0.01 165:1 2742:1 8423:1 8848:1 8851:1 8855:1 8858:1 8861:1 8863:1 8870:1 8876:1 8904:1 9105:1 9229:1 9473:1 10569:1 10570:1 10776:1 11370:1 11373:1 11378:1 11388:1 11496:1 11612:1 11729:1 11743:1 11750:1 11760:1 11761:1 11776:1 11790:1  |EV| 
0.01 382:1 2985:1 6128:1 8848:1 8851:1 8855:1 8861:1 8880:1 9165:1 9323:1 9324:1 9325:1 9326:1 10776:1 10790:1 11370:1 11373:1 11378:1 11391:1 11496:1 11612:1 11729:1 11743:1 11750:1 11760:1 11761:1 11776:1 11790:1  |EV| 
0.01 807:1 3476:1 8818:1 8848:1 8853:1 8855:1 8863:1 8903:1 9075:1 9091:1 9175:1 10386:1 10771:1 10776:1 11370:1 11373:1 11378:1 11445:1 11496:1 11612:1 11729:1 11743:1 11750:1 11760:1 11761:1 11776:1 11790:1  |EV| 
0.01 175:1 2753:1 8838:1 8848:1 8855:1 8858:1 8981:1 9056:1 9093:1 9094:1 9095:1 9096:1 9098:1 9812:1 10776:1 11370:1 11373:1 11378:1 11391:1 11496:1 11612:1 11729:1 11743:1 11750:1 11760:1 11761:1 11776:1 11790:1  |EV| 
0.01 809:1 3479:1 6606:1 8855:1 8866:1 10776:1 10790:1 11370:1 11373:1 11378:1 11392:1 11496:1 11612:1 11727:1 11743:1 11750:1 11760:1 11761:1 11776:1 11790:1  |EV| 
-0.01 337:1 3390:1 6518:1 8855:1 8857:1 8982:1 9292:1 9347:1 9681:1 9682:1 9683:1 9684:1 9691:1 10776:1 11370:1 11373:1 11378:1 11445:1 11496:1 11612:1 11729:1 11743:1 11750:1 11760:1 11761:1 11776:1 11790:1  |EV| 
-0.01 930:1 3647:1 6775:1 8855:1 8858:1 8861:1 8877:1 8879:1 9039:1 9079:1 9644:1 9769:1 9824:1 9825:1 9826:1 9827:1 9836:1 10776:1 11370:1 11373:1 11378:1 11388:1 11496:1 11612:1 11729:1 11743:1 11750:1 11760:1 11761:1 11776:1 11790:1  |EV| 
-0.01 423:1 4842:1 7970:1 8848:1 8851:1 8855:1 8858:1 8863:1 8966:1 9028:1 9039:1 9201:1 9292:1 9361:1 9362:1 9613:1 9848:1 9926:1 10386:1 10389:1 10390:1 10776:1 11200:1 11370:1 11373:1 11378:1 11427:1 11496:1 11612:1 11730:1 11743:1 11750:1 11760:1 11761:1 11776:1 11790:1  |EV| 
-0.01 423:1 3597:1 7657:1 8848:1 8851:1 8855:1 8858:1 8861:1 8863:1 8895:1 8941:1 9037:1 9142:1 9292:1 9361:1 9563:1 9620:1 10289:1 10290:1 10291:1 10292:1 10776:1 11370:1 11373:1 11378:1 11440:1 11496:1 11612:1 11729:1 11743:1 11750:1 11760:1 11761:1 11776:1 11790:1  |EV| 
-0.01 549:1 3170:1 6304:1 8848:1 8858:1 8879:1 8984:1 9119:1 9481:1 9492:1 9509:1 9510:1 9511:1 9512:1 9513:1 10776:1 11370:1 11373:1 11378:1 11435:1 11496:1 11612:1 11729:1 11743:1 11751:1 11760:1 11761:1 11776:1 11790:1  |EV| 
0.01 962:1 3665:1 6817:1 8848:1 8892:1 9116:1 9180:1 9424:1 9425:1 10776:1 11370:1 11374:1 11378:1 11403:1 11496:1 11612:1 11728:1 11743:1 11750:1 11760:1 11761:1 11776:1 11790:1  |EV| 
0.01 700:1 5026:1 8169:1 8879:1 9105:1 10445:1 10446:1 10776:1 11370:1 11374:1 11378:1 11382:1 11496:1 11612:1 11728:1 11743:1 11750:1 11760:1 11761:1 11776:1 11790:1  |EV| 
0.01 464:1 3733:1 6892:1 8848:1 8855:1 8892:1 9116:1 9180:1 9424:1 9425:1 9877:1 10776:1 11370:1 11374:1 11378:1 11411:1 11496:1 11612:1 11728:1 11743:1 11750:1 11760:1 11761:1 11776:1 11790:1  |EV| 
0.01 499:1 4339:1 7464:1 8848:1 8857:1 9300:1 9301:1 10776:1 11370:1 11374:1 11378:1 11382:1 11496:1 11612:1 11728:1 11743:1 11750:1 11760:1 11761:1 11776:1 11790:1  |EV| 
0.01 2093:1 5134:1 8274:1 9033:1 10495:1 10776:1 11370:1 11374:1 11378:1 11383:1 11496:1 11612:1 11728:1 11743:1 11750:1 11760:1 11761:1 11776:1 11790:1  |EV| 
-0.01 609:1 3399:1 7712:1 8848:1 8855:1 9372:1 10175:1 10776:1 11370:1 11374:1 11378:1 11382:1 11496:1 11612:1 11728:1 11743:1 11750:1 11760:1 11761:1 11776:1 11790:1  |EV| 
-0.01 851:1 3530:1 6664:1 8848:1 8866:1 8891:1 9734:1 10776:1 11370:1 11374:1 11378:1 11382:1 11496:1 11612:1 11728:1 11743:1 11750:1 11760:1 11761:1 11776:1 11790:1  |EV| 
-0.01 807:1 3476:1 6602:1 8848:1 8861:1 8870:1 8904:1 8944:1 8986:1 9561:1 10776:1 11370:1 11374:1 11378:1 11389:1 11496:1 11612:1 11728:1 11743:1 11750:1 11760:1 11761:1 11763:1 11776:1 11790:1  |EV| 
-0.01 2396:1 5505:1 8647:1 8855:1 8965:1 9048:1 9071:1 10684:1 10776:1 11302:1 11370:1 11374:1 11378:1 11396:1 11496:1 11612:1 11728:1 11743:1 11752:1 11760:1 11761:1 11776:1 11790:1  |EV| 
-0.01 10:1 2567:1 5713:1 8848:1 8853:1 8854:1 8855:1 8856:1 8883:1 8884:1 10776:1 10784:1 11370:1 11374:1 11378:1 11389:1 11496:1 11612:1 11728:1 11743:1 11750:1 11760:1 11761:1 11776:1 11790:1  |EV| 
0.01 423:1 4503:1 7625:1 8855:1 8858:1 8879:1 9119:1 9219:1 9825:1 10776:1 11370:1 11373:1 11378:1 11431:1 11496:1 11612:1 11727:1 11743:1 11750:1 11760:1 11761:1 11776:1 11790:1  |EV| 
0.01 630:1 3270:1 7973:1 8848:1 8855:1 8858:1 8863:1 8879:1 9039:1 9056:1 9119:1 9219:1 10382:1 10383:1 10384:1 10776:1 11370:1 11373:1 11378:1 11423:1 11496:1 11612:1 11729:1 11743:1 11750:1 11760:1 11761:1 11776:1 11790:1  |EV| 
0.01 486:1 4133:1 7307:1 8855:1 8858:1 8861:1 8973:1 8995:1 9042:1 9137:1 9644:1 10106:1 10776:1 11370:1 11373:1 11378:1 11402:1 11496:1 11612:1 11727:1 11743:1 11750:1 11760:1 11761:1 11776:1 11790:1  |EV| 
0.01 630:1 3270:1 6401:1 8855:1 8858:1 8879:1 8892:1 9079:1 9119:1 9570:1 9571:1 9572:1 10776:1 11370:1 11373:1 11378:1 11445:1 11496:1 11612:1 11729:1 11743:1 11750:1 11760:1 11761:1 11763:1 11776:1 11790:1  |EV| 
0.01 1895:1 4890:1 8015:1 8848:1 8858:1 8984:1 9034:1 9036:1 9056:1 9373:1 10776:1 11370:1 11373:1 11378:1 11398:1 11496:1 11612:1 11727:1 11743:1 11750:1 11760:1 11761:1 11776:1 11790:1  |EV| 
-0.01 1548:1 4393:1 7507:1 8858:1 8956:1 9059:1 9119:1 10200:1 10776:1 11370:1 11373:1 11378:1 11393:1 11496:1 11612:1 11727:1 11743:1 11750:1 11760:1 11761:1 11776:1 11790:1  |EV| 
-0.01 407:1 3413:1 6565:1 8848:1 8858:1 9062:1 9119:1 9501:1 9690:1 10776:1 11370:1 11373:1 11378:1 11431:1 11496:1 11612:1 11727:1 11743:1 11750:1 11760:1 11761:1 11776:1 11790:1  |EV| 
-0.01 415:1 3374:1 6505:1 8848:1 8850:1 8858:1 8892:1 8997:1 9082:1 9182:1 9671:1 10776:1 11370:1 11373:1 11378:1 11404:1 11496:1 11612:1 11727:1 11743:1 11750:1 11760:1 11761:1 11776:1 11790:1  |EV| 
-0.01 128:1 2720:1 5860:1 8858:1 8860:1 8864:1 9033:1 9034:1 9035:1 9036:1 9079:1 10776:1 11370:1 11373:1 11378:1 11404:1 11496:1 11612:1 11727:1 11743:1 11750:1 11760:1 11761:1 11776:1 11790:1  |EV| 
-0.01 474:1 3088:1 6228:1 8848:1 8857:1 8858:1 8877:1 9327:1 9439:1 9448:1 10776:1 11370:1 11373:1 11378:1 11398:1 11496:1 11612:1 11727:1 11743:1 11750:1 11760:1 11761:1 11763:1 11776:1 11790:1  |EV| 
0.01 80:1 2648:1 5789:1 8848:1 8901:1 8940:1 8941:1 8942:1 8943:1 8944:1 10776:1 11370:1 11374:1 11378:1 11389:1 11496:1 11612:1 11728:1 11743:1 11750:1 11760:1 11761:1 11776:1 11790:1  |EV| 
0.01 80:1 2648:1 7051:1 8848:1 8925:1 10776:1 11370:1 11374:1 11378:1 11383:1 11496:1 11612:1 11728:1 11743:1 11750:1 11760:1 11761:1 11776:1 11790:1  |EV| 
0.01 700:1 3345:1 7674:1 8848:1 8979:1 8998:1 9182:1 10776:1 11370:1 11374:1 11378:1 11382:1 11496:1 11612:1 11728:1 11743:1 11750:1 11760:1 11761:1 11776:1 11790:1  |EV| 
0.01 66:1 3001:1 7525:1 8848:1 9329:1 9437:1 10255:1 10256:1 10776:1 11370:1 11374:1 11378:1 11396:1 11496:1 11612:1 11728:1 11743:1 11750:1 11760:1 11761:1 11776:1 11790:1  |EV| 
0.01 227:1 3130:1 7430:1 8848:1 8851:1 8855:1 8879:1 8925:1 9048:1 9189:1 9470:1 9501:1 9715:1 9863:1 9961:1 10199:1 10776:1 11370:1 11374:1 11378:1 11412:1 11496:1 11612:1 11731:1 11743:1 11750:1 11760:1 11761:1 11776:1 11790:1  |EV| 
-0.01 1463:1 4319:1 7446:1 8848:1 8851:1 8855:1 8866:1 8879:1 8925:1 9048:1 9143:1 9189:1 9470:1 9501:1 9707:1 9715:1 9863:1 9961:1 10199:1 10776:1 11370:1 11374:1 11378:1 11390:1 11496:1 11612:1 11731:1 11743:1 11750:1 11760:1 11761:1 11776:1 11790:1  |EV| 
-0.01 365:1 2964:1 6115:1 8848:1 8853:1 8855:1 8871:1 8879:1 8908:1 8982:1 9080:1 9117:1 9225:1 9303:1 9304:1 9343:1 10776:1 11370:1 11374:1 11378:1 11412:1 11496:1 11612:1 11731:1 11743:1 11750:1 11760:1 11761:1 11776:1 11790:1  |EV| 
-0.01 1373:1 4153:1 7277:1 8855:1 8858:1 8881:1 10109:1 10130:1 10776:1 11370:1 11374:1 11378:1 11396:1 11496:1 11612:1 11728:1 11743:1 11750:1 11760:1 11761:1 11776:1 11790:1  |EV| 
-0.01 85:1 2653:1 6917:1 8848:1 8861:1 8934:1 9028:1 9102:1 9231:1 9442:1 9500:1 9854:1 9855:1 9856:1 9857:1 9858:1 9859:1 9860:1 10776:1 10784:1 11370:1 11374:1 11378:1 11394:1 11496:1 11612:1 11731:1 11743:1 11750:1 11760:1 11761:1 11776:1 11790:1  |EV| 
-0.01 66:1 2634:1 5798:1 8848:1 8855:1 8861:1 8863:1 8865:1 8929:1 8930:1 8931:1 8932:1 8933:1 8934:1 8935:1 8936:1 8937:1 8958:1 8960:1 8961:1 8962:1 8963:1 8964:1 10776:1 10816:1 11370:1 11374:1 11378:1 11428:1 11496:1 11612:1 11732:1 11743:1 11750:1 11760:1 11761:1 11776:1 11790:1  |EV| 
0.01 38:1 2603:1 5748:1 8853:1 8857:1 8858:1 8863:1 8876:1 8894:1 8900:1 8901:1 10776:1 11370:1 11373:1 11378:1 11404:1 11496:1 11612:1 11727:1 11743:1 11750:1 11760:1 11761:1 11763:1 11776:1 11790:1  |EV| 
0.01 565:1 3190:1 6322:1 8848:1 9481:1 9509:1 9510:1 10776:1 11370:1 11373:1 11378:1 11401:1 11496:1 11612:1 11727:1 11743:1 11751:1 11760:1 11761:1 11776:1 11790:1  |EV| 
0.01 1295:1 4057:1 7167:1 8928:1 10776:1 10812:1 11370:1 11373:1 11378:1 11400:1 11496:1 11612:1 11727:1 11743:1 11751:1 11760:1 11761:1 11763:1 11776:1 11790:1  |EV| 
0.01 1512:1 4346:1 7465:1 8848:1 10212:1 10213:1 10776:1 10951:1 11370:1 11373:1 11378:1 11401:1 11496:1 11612:1 11727:1 11743:1 11752:1 11760:1 11761:1 11776:1 11790:1  |EV| 
0.01 1895:1 4878:1 8135:1 8858:1 9035:1 9082:1 9116:1 9373:1 10415:1 10776:1 11370:1 11373:1 11378:1 11431:1 11496:1 11612:1 11727:1 11743:1 11750:1 11760:1 11761:1 11776:1 11790:1  |EV| 
-0.01 220:1 4056:1 7166:1 8848:1 8850:1 8858:1 8928:1 9501:1 10065:1 10776:1 11091:1 11370:1 11373:1 11378:1 11431:1 11496:1 11612:1 11727:1 11743:1 11753:1 11760:1 11761:1 11763:1 11776:1 11790:1  |EV| 
-0.01 11:1 2596:1 5728:1 8899:1 10776:1 10790:1 11370:1 11373:1 11378:1 11400:1 11496:1 11612:1 11727:1 11743:1 11750:1 11760:1 11761:1 11790:1  |EV| 
-0.01 950:1 3649:1 5749:1 10776:1 10790:1 11370:1 11373:1 11378:1 11407:1 11496:1 11612:1 11727:1 11743:1 11750:1 11760:1 11761:1 11790:1  |EV| 
-0.01 1264:1 4020:1 5749:1 10776:1 10790:1 11370:1 11373:1 11378:1 11407:1 11496:1 11612:1 11727:1 11743:1 11750:1 11760:1 11761:1 11790:1  |EV| 
-0.01 1506:1 4345:1 5749:1 10776:1 10790:1 11370:1 11373:1 11378:1 11407:1 11496:1 11612:1 11727:1 11743:1 11750:1 11760:1 11761:1 11790:1  |EV| 
0.01 386:1 2993:1 7040:1 8848:1 8851:1 8855:1 8861:1 9028:1 9043:1 9091:1 9092:1 9102:1 9121:1 9123:1 9124:1 9956:1 9962:1 10776:1 11370:1 11374:1 11378:1 11394:1 11496:1 11612:1 11731:1 11743:1 11750:1 11760:1 11761:1 11776:1 11790:1  |EV| 
0.01 185:1 2763:1 5902:1 8848:1 8858:1 8958:1 9140:1 9141:1 9142:1 10776:1 11370:1 11374:1 11378:1 11403:1 11496:1 11612:1 11728:1 11743:1 11750:1 11760:1 11761:1 11776:1 11790:1  |EV| 
0.01 1045:1 4769:1 7898:1 8848:1 8852:1 8855:1 8857:1 8858:1 8861:1 8871:1 8872:1 8897:1 9041:1 9043:1 9116:1 9123:1 9528:1 9864:1 10349:1 10776:1 11370:1 11373:1 11378:1 11418:1 11496:1 11612:1 11730:1 11743:1 11750:1 11760:1 11761:1 11776:1 11790:1  |EV| 
0.01 66:1 3001:1 6368:1 8848:1 8858:1 8892:1 9031:1 9550:1 9551:1 9552:1 10776:1 10852:1 11370:1 11374:1 11378:1 11389:1 11496:1 11612:1 11728:1 11743:1 11750:1 11760:1 11761:1 11776:1 11790:1  |EV| 
0.01 511:1 4206:1 7337:1 8848:1 8855:1 8858:1 8968:1 9033:1 9071:1 9343:1 9428:1 9519:1 9528:1 10146:1 10147:1 10148:1 10149:1 10150:1 10151:1 10776:1 11370:1 11373:1 11378:1 11384:1 11496:1 11612:1 11729:1 11743:1 11750:1 11760:1 11761:1 11776:1 11790:1  |EV| 
-0.01 128:1 2773:1 5980:1 8848:1 8855:1 8858:1 9033:1 9170:1 9171:1 10776:1 11370:1 11374:1 11378:1 11403:1 11496:1 11612:1 11728:1 11743:1 11750:1 11760:1 11761:1 11776:1 11790:1  |EV| 
-0.01 914:1 4517:1 7938:1 8855:1 8858:1 8892:1 9015:1 9278:1 10308:1 10776:1 10855:1 11370:1 11374:1 11378:1 11403:1 11496:1 11612:1 11728:1 11743:1 11750:1 11760:1 11761:1 11776:1 11790:1  |EV| 
-0.01 38:1 2795:1 8466:1 8848:1 8855:1 8857:1 8858:1 8861:1 8863:1 8897:1 9804:1 10776:1 11370:1 11374:1 11378:1 11425:1 11496:1 11612:1 11731:1 11743:1 11750:1 11760:1 11761:1 11776:1 11790:1  |EV| 
-0.01 72:1 2640:1 7377:1 8848:1 8855:1 8858:1 8877:1 8941:1 9033:1 9071:1 9343:1 9428:1 9519:1 9528:1 9533:1 10146:1 10147:1 10148:1 10149:1 10150:1 10151:1 10152:1 10153:1 10154:1 10776:1 11129:1 11370:1 11374:1 11378:1 11446:1 11496:1 11612:1 11732:1 11743:1 11750:1 11760:1 11761:1 11776:1 11790:1  |EV| 
-0.01 263:1 2855:1 6002:1 8848:1 8861:1 8892:1 9091:1 9092:1 9118:1 10776:1 10873:1 11370:1 11374:1 11378:1 11403:1 11496:1 11612:1 11728:1 11743:1 11753:1 11760:1 11761:1 11774:1 11776:1 11778:1 11790:1  |EV| 
0.01 2330:1 5425:1 8588:1 8850:1 8857:1 8865:1 9020:1 9196:1 9209:1 9264:1 10776:1 10790:1 11370:1 11373:1 11378:1 11398:1 11496:1 11612:1 11727:1 11743:1 11753:1 11760:1 11761:1 11776:1 11790:1  |EV| 
0.01 1511:1 4344:1 5749:1 10776:1 10790:1 11370:1 11373:1 11378:1 11407:1 11496:1 11612:1 11727:1 11743:1 11752:1 11760:1 11761:1 11773:1 11776:1 11790:1  |EV| 
0.01 1143:1 3879:1 7005:1 8858:1 8879:1 9020:1 9059:1 9217:1 9935:1 10776:1 10790:1 11370:1 11373:1 11378:1 11431:1 11496:1 11612:1 11727:1 11743:1 11753:1 11760:1 11761:1 11773:1 11776:1 11790:1  |EV| 
0.01 283:1 2875:1 8624:1 8850:1 8879:1 8895:1 9278:1 10675:1 10776:1 11370:1 11373:1 11378:1 11393:1 11496:1 11612:1 11727:1 11743:1 11750:1 11760:1 11761:1 11776:1 11790:1  |EV| 
0.01 2402:1 5511:1 5749:1 10776:1 11303:1 11370:1 11373:1 11378:1 11407:1 11496:1 11612:1 11727:1 11743:1 11752:1 11760:1 11761:1 11776:1 11790:1  |EV| 
-0.01 1147:1 3883:1 7008:1 8848:1 8858:1 8877:1 8879:1 8920:1 8923:1 9020:1 9059:1 9190:1 9217:1 9355:1 9668:1 9935:1 9936:1 9937:1 10776:1 11370:1 11373:1 11378:1 11453:1 11496:1 11612:1 11729:1 11743:1 11753:1 11760:1 11761:1 11773:1 11776:1 11790:1  |EV| 
-0.01 734:1 4520:1 8010:1 8861:1 8865:1 9071:1 9079:1 9112:1 9355:1 10776:1 11370:1 11373:1 11378:1 11431:1 11496:1 11612:1 11727:1 11743:1 11750:1 11760:1 11761:1 11776:1 11790:1  |EV| 
-0.01 11:1 2568:1 5950:1 8848:1 8861:1 8866:1 8990:1 9043:1 9075:1 9078:1 9135:1 9136:1 10776:1 11370:1 11373:1 11378:1 11402:1 11496:1 11612:1 11727:1 11743:1 11750:1 11760:1 11761:1 11776:1 11790:1  |EV| 
-0.01 773:1 4920:1 8045:1 8879:1 8886:1 8944:1 10308:1 10776:1 11370:1 11373:1 11378:1 11401:1 11496:1 11612:1 11727:1 11743:1 11753:1 11760:1 11761:1 11790:1  |EV| 
-0.01 1114:1 3849:1 6975:1 8848:1 8855:1 8866:1 9926:1 9930:1 10776:1 11370:1 11373:1 11378:1 11393:1 11496:1 11612:1 11727:1 11743:1 11750:1 11760:1 11761:1 11773:1 11776:1 11790:1  |EV| 
0.01 1536:1 4378:1 7494:1 8848:1 8858:1 9572:1 10240:1 10776:1 11370:1 11374:1 11378:1 11382:1 11496:1 11612:1 11728:1 11743:1 11750:1 11760:1 11761:1 11776:1 11790:1  |EV| 
0.01 562:1 3187:1 5791:1 8858:1 10776:1 10783:1 11370:1 11374:1 11378:1 11381:1 11496:1 11612:1 11728:1 11743:1 11750:1 11760:1 11761:1 11776:1 11790:1  |EV| 
0.01 785:1 3451:1 5791:1 8858:1 10776:1 10783:1 11370:1 11374:1 11378:1 11381:1 11496:1 11612:1 11728:1 11743:1 11750:1 11760:1 11761:1 11776:1 11790:1  |EV| 
0.01 1323:1 4590:1 5791:1 8858:1 10776:1 10783:1 11370:1 11374:1 11378:1 11381:1 11496:1 11612:1 11728:1 11743:1 11750:1 11760:1 11761:1 11776:1 11790:1  |EV| 
0.01 664:1 5386:1 5791:1 8858:1 10776:1 10783:1 11370:1 11374:1 11378:1 11381:1 11496:1 11612:1 11728:1 11743:1 11750:1 11760:1 11761:1 11776:1 11790:1  |EV| 
-0.008350282765198511 2106:1 5150:1 8293:1 9020:1 9228:1 10776:1 11370:1 11373:1 11378:1 11392:1 11496:1 11612:1 11727:1 11743:1 11751:1 11760:1 11761:1 11772:1 11790:1  |EV| 
-0.0074794659759381725 994:1 3701:1 6829:1 8849:1 8858:1 9015:1 9367:1 9889:1 10776:1 11370:1 11373:1 11378:1 11393:1 11496:1 11612:1 11727:1 11743:1 11750:1 11760:1 11761:1 11790:1  |EV| 
-0.0037323728802255859 97:1 2666:1 5814:1 8855:1 8972:1 8973:1 8974:1 8975:1 10776:1 11370:1 11373:1 11378:1 11431:1 11496:1 11612:1 11727:1 11743:1 11753:1 11760:1 11761:1 11778:1 11790:1  |EV| 
-0.01 914:1 4517:1 7662:1 8851:1 8858:1 8934:1 9182:1 9198:1 9373:1 9397:1 10287:1 10776:1 10834:1 11370:1 11374:1 11378:1 11411:1 11496:1 11612:1 11728:1 11743:1 11750:1 11760:1 11761:1 11763:1 11776:1 11790:1  |EV| 
-0.0046184569369488657 1304:1 4072:1 7180:1 8848:1 8858:1 8861:1 8863:1 8865:1 8866:1 8877:1 8879:1 8903:1 8979:1 9493:1 9501:1 9574:1 10040:1 10041:1 10046:1 10056:1 10776:1 11370:1 11373:1 11378:1 11418:1 11496:1 11612:1 11730:1 11743:1 11750:1 11760:1 11761:1 11776:1 11790:1  |EV| 
0.01 227:1 2814:1 8326:1 8848:1 8861:1 8925:1 9804:1 10257:1 10776:1 11370:1 11373:1 11378:1 11393:1 11496:1 11612:1 11727:1 11743:1 11750:1 11760:1 11761:1 11776:1 11790:1  |EV| 
0.01 38:1 2795:1 8794:1 8861:1 8879:1 9332:1 10750:1 10776:1 11370:1 11373:1 11378:1 11401:1 11496:1 11612:1 11727:1 11743:1 11750:1 11760:1 11761:1 11776:1 11790:1  |EV| 
0.01 548:1 3169:1 6323:1 8848:1 8855:1 8857:1 8871:1 8879:1 9102:1 9104:1 9442:1 9489:1 9490:1 9491:1 9492:1 10776:1 11370:1 11373:1 11378:1 11435:1 11496:1 11612:1 11729:1 11743:1 11753:1 11760:1 11761:1 11776:1 11790:1  |EV| 
0.01 464:1 3078:1 8297:1 8848:1 8861:1 8925:1 8966:1 9015:1 9033:1 9156:1 9343:1 9437:1 9804:1 10257:1 10464:1 10506:1 10776:1 11370:1 11373:1 11378:1 11438:1 11496:1 11612:1 11729:1 11743:1 11750:1 11760:1 11761:1 11776:1 11790:1  |EV| 
0.01 1392:1 4178:1 7306:1 8855:1 8911:1 8934:1 9066:1 9442:1 10121:1 10122:1 10776:1 11370:1 11373:1 11378:1 11398:1 11496:1 11612:1 11727:1 11743:1 11750:1 11760:1 11761:1 11763:1 11773:1 11776:1 11790:1  |EV| 
-0.01 227:1 2814:1 8226:1 8848:1 8849:1 8858:1 8868:1 8879:1 8880:1 8934:1 8945:1 8973:1 8992:1 9559:1 9763:1 10482:1 10776:1 11370:1 11373:1 11378:1 11435:1 11496:1 11612:1 11729:1 11743:1 11750:1 11760:1 11761:1 11776:1 11790:1  |EV| 
-0.01 340:1 2958:1 6098:1 8848:1 8857:1 8861:1 8879:1 8891:1 8893:1 8901:1 8928:1 8930:1 9020:1 9059:1 9062:1 9196:1 9229:1 9304:1 9305:1 9306:1 9307:1 9308:1 9309:1 9321:1 10776:1 11370:1 11373:1 11378:1 11418:1 11496:1 11612:1 11730:1 11743:1 11750:1 11760:1 11761:1 11776:1 11790:1  |EV| 
-0.01 2315:1 5407:1 8568:1 8848:1 8855:1 8857:1 8879:1 8907:1 8956:1 9028:1 9292:1 9437:1 10633:1 10634:1 10776:1 11370:1 11373:1 11378:1 11423:1 11496:1 11612:1 11729:1 11743:1 11750:1 11760:1 11761:1 11776:1 11790:1  |EV| 
-0.01 339:1 2932:1 6677:1 8848:1 8866:1 8879:1 8907:1 8956:1 8979:1 9063:1 9292:1 9755:1 9756:1 10776:1 11370:1 11373:1 11378:1 11445:1 11496:1 11612:1 11729:1 11743:1 11750:1 11760:1 11761:1 11776:1 11790:1  |EV| 
-0.01 420:1 3032:1 6859:1 8848:1 8853:1 8858:1 8866:1 8885:1 8973:1 9119:1 9179:1 9861:1 10776:1 11370:1 11373:1 11378:1 11391:1 11496:1 11612:1 11729:1 11743:1 11750:1 11760:1 11761:1 11776:1 11790:1  |EV| 
0.01 612:1 5004:1 5791:1 8858:1 10776:1 10783:1 11370:1 11374:1 11378:1 11381:1 11496:1 11612:1 11728:1 11743:1 11750:1 11760:1 11761:1 11776:1 11790:1  |EV| 
0.01 1305:1 4070:1 7178:1 8863:1 10066:1 10067:1 10776:1 10820:1 10950:1 11353:1 11370:1 11374:1 11378:1 11386:1 11496:1 11612:1 11728:1 11743:1 11750:1 11760:1 11761:1 11776:1 11790:1  |EV| 
0.01 1514:1 4348:1 7467:1 8863:1 10067:1 10214:1 10776:1 10820:1 11370:1 11374:1 11378:1 11386:1 11496:1 11612:1 11728:1 11743:1 11750:1 11760:1 11761:1 11776:1 11790:1  |EV| 
0.01 165:1 4065:1 8570:1 8848:1 8858:1 9173:1 10631:1 10632:1 10776:1 11370:1 11374:1 11378:1 11396:1 11496:1 11612:1 11728:1 11743:1 11750:1 11760:1 11761:1 11776:1 11790:1  |EV| 
0.01 196:1 3109:1 6247:1 8848:1 8895:1 9351:1 9429:1 9430:1 10776:1 11370:1 11374:1 11378:1 11396:1 11496:1 11612:1 11728:1 11743:1 11750:1 11760:1 11761:1 11776:1 11790:1  |EV| 
-0.01 371:1 3376:1 6507:1 8855:1 8857:1 8982:1 9347:1 9681:1 9682:1 9683:1 9684:1 10776:1 10855:1 11370:1 11374:1 11378:1 11411:1 11496:1 11612:1 11728:1 11743:1 11750:1 11760:1 11761:1 11776:1 11790:1  |EV| 
-0.01 925:1 3614:1 6751:1 8861:1 8986:1 9201:1 9658:1 9722:1 9844:1 10776:1 10779:1 11370:1 11374:1 11378:1 11403:1 11496:1 11612:1 11728:1 11743:1 11753:1 11760:1 11761:1 11763:1 11764:1 11775:1 11776:1 11790:1  |EV| 
-0.01 415:1 4941:1 8111:1 8848:1 8877:1 8879:1 8892:1 10407:1 10776:1 10834:1 11370:1 11374:1 11378:1 11396:1 11496:1 11612:1 11728:1 11743:1 11750:1 11760:1 11761:1 11776:1 11790:1  |EV| 
-0.01 734:1 4520:1 8165:1 8855:1 8858:1 8879:1 8968:1 9191:1 9848:1 10453:1 10776:1 11370:1 11374:1 11378:1 11389:1 11496:1 11612:1 11728:1 11743:1 11750:1 11760:1 11761:1 11763:1 11776:1 11790:1  |EV| 
-0.01 1069:1 3796:1 8713:1 8858:1 8863:1 8865:1 8920:1 8982:1 9094:1 9102:1 9149:1 10387:1 10724:1 10725:1 10726:1 10727:1 10776:1 11315:1 11370:1 11374:1 11378:1 11395:1 11496:1 11612:1 11731:1 11743:1 11753:1 11760:1 11761:1 11776:1 11790:1  |EV| 
0.01 425:1 4904:1 8029:1 8848:1 8852:1 8858:1 8879:1 8886:1 8889:1 8892:1 8901:1 8935:1 8944:1 8951:1 8957:1 8958:1 9181:1 9278:1 9367:1 9372:1 9700:1 10308:1 10425:1 10426:1 10427:1 10428:1 10776:1 11370:1 11373:1 11378:1 11406:1 11496:1 11612:1 11730:1 11743:1 11750:1 11760:1 11761:1 11776:1 11790:1  |EV| 
0.01 779:1 3444:1 6568:1 8848:1 8858:1 8861:1 8886:1 9002:1 9033:1 9278:1 9568:1 9690:1 9714:1 9715:1 9716:1 9717:1 10776:1 11370:1 11373:1 11378:1 11438:1 11496:1 11612:1 11729:1 11743:1 11750:1 11760:1 11761:1 11776:1 11790:1  |EV| 
0.01 575:1 3202:1 6332:1 8848:1 8851:1 8855:1 8858:1 9091:1 9451:1 9524:1 9525:1 9526:1 10776:1 11370:1 11373:1 11378:1 11391:1 11496:1 11612:1 11729:1 11743:1 11750:1 11760:1 11761:1 11776:1 11790:1  |EV| 
0.01 1045:1 3766:1 6891:1 8848:1 8855:1 8858:1 8861:1 9043:1 9056:1 9123:1 9179:1 9861:1 9869:1 10776:1 11370:1 11373:1 11378:1 11391:1 11496:1 11612:1 11729:1 11743:1 11750:1 11760:1 11761:1 11776:1 11790:1  |EV| 
0.01 158:1 2735:1 6497:1 8848:1 8858:1 8861:1 8899:1 8973:1 9617:1 9618:1 9635:1 10776:1 11370:1 11373:1 11378:1 11404:1 11496:1 11612:1 11727:1 11743:1 11750:1 11760:1 11761:1 11776:1 11790:1  |EV| 
-0.0069006620904515526 439:1 3053:1 6195:1 8979:1 9379:1 10776:1 10906:1 11370:1 11373:1 11378:1 11392:1 11496:1 11612:1 11727:1 11743:1 11751:1 11760:1 11761:1 11772:1 11774:1 11790:1  |EV| 
-0.01 158:1 2735:1 6621:1 8848:1 8861:1 8866:1 8870:1 8904:1 8944:1 8986:1 9561:1 9760:1 10776:1 11370:1 11373:1 11378:1 11402:1 11496:1 11612:1 11727:1 11743:1 11750:1 11760:1 11761:1 11776:1 11790:1  |EV| 
-0.01 165:1 2742:1 5989:1 8848:1 8855:1 8858:1 8866:1 9033:1 9169:1 9170:1 9171:1 10776:1 11370:1 11373:1 11378:1 11404:1 11496:1 11612:1 11727:1 11743:1 11750:1 11760:1 11761:1 11776:1 11790:1  |EV| 
-0.01 1048:1 3770:1 6896:1 8848:1 8853:1 8858:1 8866:1 8885:1 8973:1 9119:1 10776:1 10908:1 11370:1 11373:1 11378:1 11398:1 11496:1 11612:1 11727:1 11743:1 11750:1 11760:1 11761:1 11776:1 11790:1  |EV| 
-0.01 2404:1 5513:1 5749:1 10776:1 10790:1 11370:1 11373:1 11378:1 11407:1 11496:1 11612:1 11727:1 11743:1 11750:1 11760:1 11761:1 11790:1  |EV| 
0.01 1728:1 4634:1 8178:1 8879:1 8974:1 9282:1 10454:1 10455:1 10776:1 11370:1 11374:1 11378:1 11396:1 11496:1 11612:1 11728:1 11743:1 11750:1 11760:1 11761:1 11776:1 11790:1  |EV| 
0.01 1069:1 3796:1 5711:1 10776:1 10830:1 11370:1 11374:1 11378:1 11387:1 11496:1 11612:1 11728:1 11743:1 11753:1 11760:1 11761:1 11776:1 11790:1  |EV| 
0.01 683:1 3326:1 6455:1 9630:1 10776:1 10783:1 11370:1 11374:1 11378:1 11381:1 11496:1 11612:1 11728:1 11743:1 11753:1 11760:1 11761:1 11776:1 11790:1  |EV| 
0.01 76:1 5081:1 8223:1 8848:1 8879:1 10470:1 10776:1 11370:1 11374:1 11378:1 11386:1 11496:1 11612:1 11728:1 11743:1 11750:1 11760:1 11761:1 11776:1 11790:1  |EV| 
0.01 734:1 4661:1 5711:1 10776:1 10783:1 11370:1 11374:1 11378:1 11387:1 11496:1 11612:1 11728:1 11743:1 11750:1 11760:1 11761:1 11776:1 11790:1  |EV| 
-0.01 559:1 3183:1 5711:1 10776:1 10783:1 11370:1 11374:1 11378:1 11387:1 11496:1 11612:1 11728:1 11743:1 11750:1 11760:1 11761:1 11790:1  |EV| 
-0.01 930:1 3622:1 5711:1 10776:1 10783:1 11370:1 11374:1 11378:1 11387:1 11496:1 11612:1 11728:1 11743:1 11750:1 11760:1 11761:1 11790:1  |EV| 
-0.01 1248:1 4005:1 5711:1 10776:1 10783:1 11370:1 11374:1 11378:1 11387:1 11496:1 11612:1 11728:1 11743:1 11750:1 11760:1 11761:1 11790:1  |EV| 
-0.01 196:1 4369:1 5711:1 10776:1 10783:1 11370:1 11374:1 11378:1 11387:1 11496:1 11612:1 11728:1 11743:1 11750:1 11760:1 11761:1 11779:1 11790:1  |EV| 
-0.01 196:1 4382:1 5711:1 10776:1 10783:1 11370:1 11374:1 11378:1 11387:1 11496:1 11612:1 11728:1 11743:1 11750:1 11760:1 11761:1 11779:1 11790:1  |EV| 
0.01 420:1 3426:1 6593:1 8855:1 8858:1 8986:1 9501:1 9707:1 9708:1 9736:1 10776:1 11370:1 11373:1 11378:1 11398:1 11496:1 11612:1 11727:1 11743:1 11750:1 11760:1 11761:1 11776:1 11790:1  |EV| 
0.01 809:1 3479:1 6606:1 8855:1 8866:1 10776:1 10790:1 11370:1 11373:1 11378:1 11392:1 11496:1 11612:1 11727:1 11743:1 11750:1 11760:1 11761:1 11776:1 11790:1  |EV| 
0.01 420:1 4318:1 7445:1 8848:1 8858:1 8973:1 8986:1 9156:1 9890:1 10194:1 10195:1 10776:1 11370:1 11373:1 11378:1 11404:1 11496:1 11612:1 11727:1 11743:1 11750:1 11760:1 11761:1 11776:1 11790:1  |EV| 
0.01 1728:1 4634:1 7756:1 8855:1 8858:1 9217:1 9357:1 9700:1 9899:1 10776:1 11370:1 11373:1 11378:1 11431:1 11496:1 11612:1 11727:1 11743:1 11750:1 11760:1 11761:1 11776:1 11790:1  |EV| 
0.01 227:1 2814:1 6458:1 8855:1 8857:1 8880:1 8938:1 9175:1 9344:1 9604:1 9605:1 9620:1 10776:1 11370:1 11373:1 11378:1 11402:1 11496:1 11612:1 11727:1 11743:1 11750:1 11760:1 11761:1 11776:1 11790:1  |EV| 
-0.01 832:1 4671:1 7961:1 8855:1 8858:1 8892:1 9015:1 9217:1 9278:1 9292:1 10308:1 10776:1 11370:1 11373:1 11378:1 11404:1 11496:1 11612:1 11727:1 11743:1 11750:1 11760:1 11761:1 11763:1 11776:1 11790:1  |EV| 
0.01 407:1 3640:1 5711:1 10776:1 10783:1 11370:1 11374:1 11378:1 11387:1 11496:1 11612:1 11728:1 11743:1 11750:1 11760:1 11761:1 11776:1 11790:1  |EV| 
-0.01 1612:1 4564:1 7683:1 8848:1 8851:1 8857:1 8858:1 8863:1 8934:1 8936:1 9372:1 9373:1 9606:1 9700:1 9899:1 10128:1 10300:1 10301:1 10302:1 10303:1 10304:1 10776:1 11370:1 11373:1 11378:1 11418:1 11496:1 11612:1 11730:1 11743:1 11750:1 11760:1 11761:1 11776:1 11790:1  |EV| 
-0.01 609:1 3273:1 6577:1 8848:1 8850:1 8851:1 8855:1 8858:1 8879:1 8892:1 8928:1 8995:1 8997:1 9082:1 9182:1 9671:1 9672:1 9673:1 9674:1 9675:1 9676:1 10776:1 11370:1 11373:1 11378:1 11385:1 11496:1 11612:1 11730:1 11743:1 11750:1 11760:1 11761:1 11776:1 11790:1  |EV| 
-0.01 930:1 4464:1 8166:1 8855:1 8858:1 8879:1 8968:1 9191:1 9219:1 9292:1 9848:1 10453:1 10776:1 10852:1 11370:1 11373:1 11378:1 11402:1 11496:1 11612:1 11727:1 11743:1 11750:1 11760:1 11761:1 11776:1 11790:1  |EV| 
-0.01 1561:1 5187:1 8335:1 8848:1 8855:1 8861:1 8892:1 8899:1 8930:1 8934:1 8935:1 8937:1 9075:1 9111:1 9312:1 9380:1 9630:1 9631:1 9690:1 9768:1 9982:1 10056:1 10305:1 10517:1 10518:1 10776:1 11370:1 11373:1 11378:1 11399:1 11496:1 11612:1 11730:1 11743:1 11750:1 11760:1 11761:1 11776:1 11790:1  |EV| 
0.01 165:1 2742:1 7869:1 8848:1 8861:1 8870:1 8892:1 9028:1 9803:1 9961:1 10005:1 10338:1 10339:1 10340:1 10776:1 11370:1 11373:1 11378:1 11423:1 11496:1 11612:1 11729:1 11743:1 11750:1 11760:1 11761:1 11763:1 11776:1 11790:1  |EV| 
0.01 407:1 3640:1 5711:1 10776:1 10783:1 11370:1 11374:1 11378:1 11387:1 11496:1 11612:1 11728:1 11743:1 11750:1 11760:1 11761:1 11776:1 11790:1  |EV| 
0.01 371:1 3457:1 5711:1 10776:1 11370:1 11374:1 11378:1 11387:1 11496:1 11612:1 11728:1 11743:1 11750:1 11760:1 11761:1 11776:1 11790:1  |EV| 
0.01 365:1 2964:1 6142:1 8848:1 9343:1 10776:1 11370:1 11374:1 11378:1 11383:1 11496:1 11612:1 11728:1 11743:1 11750:1 11760:1 11761:1 11776:1 11790:1  |EV| 
0.01 464:1 3122:1 6282:1 8848:1 9440:1 9441:1 9442:1 10776:1 11370:1 11374:1 11378:1 11382:1 11496:1 11612:1 11728:1 11743:1 11750:1 11760:1 11761:1 11763:1 11776:1 11790:1  |EV| 
-0.01 662:1 3301:1 6431:1 8848:1 8853:1 8861:1 8899:1 8957:1 8966:1 9071:1 9393:1 9621:1 9622:1 9623:1 9624:1 9625:1 9626:1 10776:1 11370:1 11374:1 11378:1 11433:1 11496:1 11612:1 11731:1 11743:1 11750:1 11760:1 11761:1 11776:1 11790:1  |EV| 
-0.01 765:1 3424:1 6550:1 8848:1 8857:1 8858:1 8861:1 9033:1 9501:1 9693:1 10776:1 10992:1 11370:1 11374:1 11378:1 11411:1 11496:1 11612:1 11728:1 11743:1 11750:1 11760:1 11761:1 11773:1 11776:1 11790:1  |EV| 
-0.01 2252:1 5657:1 8792:1 8848:1 8865:1 8881:1 8997:1 9015:1 9181:1 9447:1 10745:1 10776:1 11370:1 11374:1 11378:1 11425:1 11496:1 11612:1 11731:1 11743:1 11750:1 11760:1 11761:1 11776:1 11790:1  |EV| 
-0.01 533:1 3154:1 6290:1 8848:1 8857:1 8858:1 8877:1 9439:1 10776:1 10834:1 11370:1 11374:1 11378:1 11396:1 11496:1 11612:1 11728:1 11743:1 11750:1 11760:1 11761:1 11776:1 11790:1  |EV| 
-0.01 388:1 2995:1 6139:1 8848:1 8866:1 8885:1 9294:1 9342:1 10776:1 11370:1 11374:1 11378:1 11396:1 11496:1 11612:1 11728:1 11743:1 11750:1 11760:1 11761:1 11776:1 11790:1  |EV| 
0.01 433:1 3046:1 6188:1 8848:1 8855:1 8863:1 8899:1 8901:1 8923:1 8944:1 8979:1 9196:1 9304:1 9320:1 9384:1 9385:1 9386:1 9387:1 9388:1 9389:1 9390:1 9391:1 9392:1 9393:1 10776:1 10905:1 11353:1 11370:1 11373:1 11378:1 11418:1 11496:1 11612:1 11730:1 11743:1 11750:1 11760:1 11761:1 11776:1 11790:1  |EV| 
0.01 444:1 3058:1 6200:1 8848:1 8851:1 8858:1 8863:1 8871:1 8935:1 8952:1 9408:1 9409:1 9410:1 9411:1 9412:1 10776:1 10908:1 11370:1 11373:1 11378:1 11435:1 11496:1 11612:1 11729:1 11743:1 11750:1 11760:1 11761:1 11776:1 11790:1  |EV| 
0.01 662:1 3301:1 8427:1 8848:1 8861:1 8879:1 8897:1 8901:1 8904:1 8911:1 8935:1 8944:1 9105:1 9111:1 9116:1 9217:1 9296:1 9342:1 9343:1 9502:1 9617:1 9690:1 10558:1 10559:1 10560:1 10561:1 10776:1 11370:1 11373:1 11378:1 11454:1 11496:1 11612:1 11730:1 11743:1 11750:1 11760:1 11761:1 11776:1 11790:1  |EV| 
0.01 877:1 3556:1 6695:1 8858:1 8879:1 9179:1 9211:1 9798:1 10776:1 11370:1 11373:1 11378:1 11393:1 11496:1 11612:1 11727:1 11743:1 11750:1 11760:1 11761:1 11776:1 11790:1  |EV| 
0.01 1014:1 4645:1 7766:1 8848:1 8858:1 8892:1 9072:1 9201:1 10776:1 11370:1 11373:1 11378:1 11393:1 11496:1 11612:1 11727:1 11743:1 11750:1 11760:1 11761:1 11776:1 11790:1  |EV| 
-0.00048451105621437573 175:1 3284:1 8635:1 8853:1 8879:1 8990:1 9107:1 9117:1 9196:1 9316:1 9805:1 10682:1 10776:1 11370:1 11373:1 11378:1 11391:1 11496:1 11612:1 11729:1 11743:1 11750:1 11760:1 11761:1 11790:1  |EV| 
-0.01 2207:1 5282:1 8444:1 8848:1 8855:1 8857:1 8858:1 8861:1 8863:1 8866:1 8879:1 8897:1 8901:1 8904:1 8911:1 8935:1 8944:1 9105:1 9111:1 9116:1 9163:1 9217:1 9296:1 9342:1 9343:1 9502:1 9617:1 9690:1 9804:1 10558:1 10559:1 10560:1 10561:1 10776:1 11370:1 11373:1 11378:1 11455:1 11496:1 11612:1 11734:1 11743:1 11753:1 11760:1 11761:1 11776:1 11790:1  |EV| 
-0.01 71:1 2639:1 5780:1 8979:1 10776:1 10812:1 11370:1 11373:1 11378:1 11400:1 11496:1 11612:1 11727:1 11743:1 11750:1 11760:1 11761:1 11790:1  |EV| 
-0.01 2346:1 5444:1 8143:1 8944:1 10776:1 11296:1 11370:1 11373:1 11378:1 11400:1 11496:1 11612:1 11727:1 11743:1 11750:1 11760:1 11761:1 11790:1  |EV| 
-0.0026191752845799031 2471:1 5610:1 8744:1 8848:1 8925:1 9072:1 9343:1 10776:1 11370:1 11373:1 11378:1 11401:1 11496:1 11612:1 11727:1 11743:1 11751:1 11760:1 11761:1 11790:1  |EV| 
0.01 196:1 3738:1 6864:1 8848:1 8852:1 8855:1 8892:1 9033:1 9116:1 9180:1 9424:1 9425:1 9489:1 9877:1 9900:1 10776:1 11370:1 11374:1 11378:1 11412:1 11496:1 11612:1 11731:1 11743:1 11750:1 11760:1 11761:1 11776:1 11790:1  |EV| 
0.01 227:1 3130:1 6730:1 8848:1 8858:1 8863:1 8903:1 9301:1 9611:1 9800:1 10776:1 11370:1 11374:1 11378:1 11389:1 11496:1 11612:1 11728:1 11743:1 11750:1 11760:1 11761:1 11776:1 11790:1  |EV| 
0.01 1094:1 5541:1 8676:1 8848:1 9042:1 10776:1 11370:1 11374:1 11378:1 11383:1 11496:1 11612:1 11728:1 11743:1 11750:1 11760:1 11761:1 11776:1 11790:1  |EV| 
0.01 70:1 2665:1 5813:1 8982:1 10776:1 10783:1 11370:1 11374:1 11378:1 11381:1 11496:1 11612:1 11728:1 11743:1 11750:1 11760:1 11761:1 11776:1 11790:1  |EV| 
0.01 165:1 4065:1 7347:1 8848:1 9317:1 10776:1 11370:1 11374:1 11378:1 11383:1 11496:1 11612:1 11728:1 11743:1 11750:1 11760:1 11761:1 11763:1 11776:1 11790:1  |EV| 
-0.01 486:1 3100:1 6237:1 8848:1 8851:1 8855:1 8880:1 8929:1 8938:1 9179:1 9459:1 9460:1 10776:1 10917:1 11370:1 11374:1 11378:1 11425:1 11496:1 11612:1 11731:1 11743:1 11750:1 11760:1 11761:1 11763:1 11776:1 11790:1  |EV| 
-0.01 173:1 2811:1 5951:1 8848:1 8861:1 8866:1 9075:1 9078:1 9135:1 9136:1 10776:1 11370:1 11374:1 11378:1 11389:1 11496:1 11612:1 11728:1 11743:1 11750:1 11760:1 11761:1 11776:1 11790:1  |EV| 
-0.01 1742:1 4894:1 8043:1 8848:1 8877:1 8879:1 8886:1 8892:1 8902:1 8984:1 9080:1 9292:1 10106:1 10406:1 10407:1 10776:1 11370:1 11373:1 11378:1 11436:1 11496:1 11612:1 11729:1 11743:1 11750:1 11760:1 11761:1 11763:1 11776:1 11790:1  |EV| 
0.0041231034979440908 2170:1 5238:1 6619:1 9063:1 10776:1 11075:1 11370:1 11373:1 11378:1 11400:1 11496:1 11612:1 11727:1 11743:1 11750:1 11760:1 11761:1 11776:1 11790:1  |EV| 
-0.01 399:1 3010:1 6157:1 8851:1 8858:1 8861:1 8879:1 9071:1 9293:1 9294:1 9295:1 10776:1 10779:1 11370:1 11374:1 11378:1 11411:1 11496:1 11612:1 11728:1 11743:1 11753:1 11760:1 11761:1 11776:1 11778:1 11790:1  |EV| 
0.01 220:1 2804:1 5943:1 8865:1 10776:1 11370:1 11373:1 11378:1 11400:1 11496:1 11612:1 11727:1 11743:1 11753:1 11760:1 11761:1 11774:1 11776:1 11778:1 11790:1  |EV| 
0.01 1281:1 4041:1 5943:1 8865:1 10776:1 10789:1 11370:1 11373:1 11378:1 11400:1 11496:1 11612:1 11727:1 11743:1 11751:1 11760:1 11761:1 11774:1 11776:1 11790:1  |EV| 
0.01 109:1 2715:1 5854:1 8851:1 8855:1 8979:1 8997:1 9000:1 9048:1 9073:1 9074:1 10776:1 11370:1 11373:1 11378:1 11404:1 11496:1 11612:1 11727:1 11743:1 11750:1 11760:1 11761:1 11776:1 11790:1  |EV| 
0.01 416:1 4901:1 8027:1 8858:1 8879:1 9373:1 10776:1 10790:1 11370:1 11373:1 11378:1 11379:1 11496:1 11612:1 11727:1 11743:1 11753:1 11760:1 11761:1 11763:1 11776:1 11790:1  |EV| 
0.01 2112:1 5158:1 8303:1 8853:1 8857:1 10507:1 10508:1 10509:1 10776:1 11250:1 11370:1 11373:1 11378:1 11393:1 11496:1 11612:1 11727:1 11743:1 11750:1 11760:1 11761:1 11776:1 11790:1  |EV| 
-0.01 16:1 2579:1 8219:1 8861:1 8865:1 8866:1 9008:1 10200:1 10207:1 10776:1 11370:1 11373:1 11378:1 11431:1 11496:1 11612:1 11727:1 11743:1 11750:1 11760:1 11761:1 11763:1 11776:1 11790:1  |EV| 
-0.01 21:1 2582:1 5804:1 8955:1 10776:1 11370:1 11373:1 11378:1 11400:1 11496:1 11612:1 11727:1 11743:1 11750:1 11760:1 11761:1 11790:1  |EV| 
-0.01 358:1 2955:1 6095:1 8863:1 9298:1 9299:1 10776:1 11370:1 11373:1 11378:1 11379:1 11496:1 11612:1 11727:1 11743:1 11750:1 11760:1 11761:1 11790:1  |EV| 
-0.01 16:1 2579:1 5733:1 8867:1 8868:1 10776:1 11370:1 11373:1 11378:1 11392:1 11496:1 11612:1 11727:1 11743:1 11750:1 11760:1 11761:1 11790:1  |EV| 
-0.01 109:1 2696:1 5749:1 10776:1 10822:1 11370:1 11373:1 11378:1 11407:1 11496:1 11612:1 11727:1 11743:1 11750:1 11760:1 11761:1 11790:1  |EV| 
0.01 1527:1 4363:1 7483:1 8848:1 8861:1 8879:1 8928:1 9066:1 9209:1 9297:1 9343:1 9383:1 9750:1 9814:1 10228:1 10229:1 10776:1 11370:1 11373:1 11378:1 11435:1 11496:1 11612:1 11729:1 11743:1 11750:1 11760:1 11761:1 11776:1 11790:1  |EV| 
0.01 616:1 5038:1 8182:1 8848:1 8879:1 8992:1 8997:1 9082:1 9182:1 9222:1 9589:1 9899:1 10464:1 10776:1 11370:1 11373:1 11378:1 11391:1 11496:1 11612:1 11729:1 11743:1 11750:1 11760:1 11761:1 11776:1 11790:1  |EV| 
0.01 1325:1 4092:1 7200:1 8857:1 8858:1 8879:1 8892:1 8894:1 8937:1 8995:1 9059:1 9061:1 9223:1 9278:1 9501:1 9879:1 10095:1 10776:1 11370:1 11373:1 11378:1 11436:1 11496:1 11612:1 11729:1 11743:1 11750:1 11760:1 11761:1 11776:1 11790:1  |EV| 
0.01 196:1 3109:1 7336:1 8848:1 8858:1 8968:1 9071:1 9528:1 10146:1 10147:1 10148:1 10149:1 10776:1 11370:1 11373:1 11378:1 11445:1 11496:1 11612:1 11729:1 11743:1 11750:1 11760:1 11761:1 11776:1 11790:1  |EV| 
0.01 415:1 4941:1 8097:1 8879:1 8886:1 8902:1 8984:1 9080:1 10106:1 10406:1 10776:1 11370:1 11373:1 11378:1 11402:1 11496:1 11612:1 11727:1 11743:1 11750:1 11760:1 11761:1 11776:1 11790:1  |EV| 
-0.01 1644:1 4513:1 7624:1 8848:1 8858:1 8863:1 8879:1 8975:1 9062:1 9292:1 9355:1 9357:1 9367:1 9564:1 9700:1 10182:1 10268:1 10277:1 10776:1 11370:1 11373:1 11378:1 11436:1 11496:1 11612:1 11729:1 11743:1 11750:1 11760:1 11761:1 11776:1 11790:1  |EV| 
-0.01 129:1 3416:1 6540:1 8848:1 8850:1 8858:1 8936:1 9062:1 9292:1 9373:1 9668:1 9669:1 9670:1 10776:1 10989:1 11370:1 11373:1 11378:1 11391:1 11496:1 11612:1 11729:1 11743:1 11753:1 11760:1 11761:1 11776:1 11778:1 11790:1  |EV| 
-0.01 340:1 2934:1 6114:1 8848:1 8853:1 8855:1 8871:1 8879:1 8908:1 8982:1 9059:1 9080:1 9117:1 9225:1 9229:1 9303:1 9304:1 9305:1 9306:1 10776:1 11370:1 11373:1 11378:1 11436:1 11496:1 11612:1 11729:1 11743:1 11750:1 11760:1 11761:1 11776:1 11790:1  |EV| 
-0.01 2141:1 5199:1 8344:1 8848:1 8855:1 8858:1 8879:1 8899:1 8902:1 8920:1 8923:1 9030:1 9071:1 9094:1 9111:1 9149:1 9223:1 9229:1 9998:1 10039:1 10532:1 10533:1 10534:1 10535:1 10776:1 11370:1 11373:1 11378:1 11427:1 11496:1 11612:1 11730:1 11743:1 11750:1 11760:1 11761:1 11776:1 11790:1  |EV| 
-0.01 128:1 2773:1 5913:1 8848:1 8858:1 8863:1 8866:1 9111:1 9164:1 9165:1 9166:1 9167:1 10776:1 11370:1 11373:1 11378:1 11445:1 11496:1 11612:1 11729:1 11743:1 11750:1 11760:1 11761:1 11776:1 11790:1  |EV| 
0.0069664592704720618 734:1 4520:1 5749:1 10776:1 10790:1 11370:1 11373:1 11378:1 11407:1 11496:1 11612:1 11727:1 11743:1 11750:1 11760:1 11761:1 11763:1 11776:1 11790:1  |EV| 
0.01 630:1 3589:1 8122:1 8855:1 10408:1 10424:1 10776:1 11370:1 11373:1 11378:1 11379:1 11496:1 11612:1 11727:1 11743:1 11750:1 11760:1 11761:1 11763:1 11776:1 11790:1  |EV| 
0.01 423:1 5442:1 8600:1 10657:1 10776:1 11370:1 11374:1 11378:1 11381:1 11496:1 11612:1 11728:1 11743:1 11750:1 11760:1 11761:1 11776:1 11790:1  |EV| 
0.01 2252:1 5657:1 8786:1 8855:1 8879:1 9196:1 9273:1 10776:1 11370:1 11373:1 11378:1 11401:1 11496:1 11612:1 11727:1 11743:1 11750:1 11760:1 11761:1 11776:1 11790:1  |EV| 
-0.01 634:1 3267:1 6398:1 8857:1 8861:1 8877:1 8991:1 9112:1 9292:1 9583:1 10776:1 11370:1 11373:1 11378:1 11398:1 11496:1 11612:1 11727:1 11743:1 11750:1 11760:1 11761:1 11763:1 11776:1 11790:1  |EV| 
-0.01 845:1 3523:1 6658:1 8848:1 8866:1 8891:1 9035:1 9292:1 9327:1 9734:1 10776:1 11370:1 11373:1 11378:1 11398:1 11496:1 11612:1 11727:1 11743:1 11750:1 11760:1 11761:1 11776:1 11790:1  |EV| 
-0.01 251:1 2841:1 5986:1 8848:1 8855:1 8865:1 8928:1 8997:1 9015:1 9182:1 9183:1 9184:1 9185:1 10776:1 10840:1 11370:1 11374:1 11378:1 11416:1 11496:1 11612:1 11731:1 11743:1 11750:1 11760:1 11761:1 11776:1 11790:1  |EV| 
-0.01 2497:1 5637:1 6851:1 9343:1 10776:1 11370:1 11373:1 11378:1 11400:1 11496:1 11612:1 11727:1 11743:1 11751:1 11760:1 11761:1 11790:1  |EV| 
-0.01 1127:1 3862:1 6987:1 9935:1 10776:1 11060:1 11370:1 11373:1 11378:1 11400:1 11496:1 11612:1 11727:1 11743:1 11750:1 11760:1 11761:1 11790:1  |EV| 
0.01 1747:1 4660:1 6517:1 8848:1 9062:1 10776:1 10789:1 11370:1 11373:1 11378:1 11392:1 11496:1 11612:1 11727:1 11743:1 11750:1 11760:1 11761:1 11776:1 11779:1 11790:1  |EV| 
0.01 408:1 3389:1 6517:1 8848:1 9062:1 10776:1 10789:1 11370:1 11373:1 11378:1 11392:1 11496:1 11612:1 11727:1 11743:1 11753:1 11760:1 11761:1 11776:1 11778:1 11790:1  |EV| 
0.01 227:1 2814:1 6121:1 8855:1 8861:1 8863:1 8899:1 8966:1 9104:1 9217:1 9297:1 9346:1 9347:1 10776:1 11370:1 11373:1 11378:1 11445:1 11496:1 11612:1 11729:1 11743:1 11750:1 11760:1 11761:1 11776:1 11790:1  |EV| 
0.01 340:1 2934:1 6132:1 9059:1 9229:1 9305:1 9306:1 10776:1 10790:1 11370:1 11373:1 11378:1 11401:1 11496:1 11612:1 11727:1 11743:1 11750:1 11760:1 11761:1 11776:1 11790:1  |EV| 
0.01 1238:1 3985:1 7105:1 8848:1 8849:1 8858:1 10023:1 10024:1 10776:1 10790:1 10847:1 11356:1 11370:1 11373:1 11378:1 11431:1 11496:1 11612:1 11727:1 11743:1 11750:1 11760:1 11761:1 11776:1 11790:1  |EV| 
-0.01 190:1 2768:1 5907:1 8848:1 8858:1 9132:1 9133:1 10776:1 10790:1 10847:1 11356:1 11370:1 11373:1 11378:1 11393:1 11496:1 11612:1 11727:1 11743:1 11750:1 11760:1 11761:1 11790:1  |EV| 
-0.01 259:1 3385:1 5749:1 10776:1 10790:1 11370:1 11373:1 11378:1 11407:1 11496:1 11612:1 11727:1 11743:1 11750:1 11760:1 11761:1 11790:1  |EV| 
-0.01 1368:1 4146:1 7263:1 8879:1 9199:1 10776:1 11106:1 11370:1 11373:1 11378:1 11392:1 11496:1 11612:1 11727:1 11743:1 11750:1 11760:1 11761:1 11790:1  |EV| 
-0.01 609:1 3601:1 7791:1 8848:1 8855:1 8858:1 8863:1 9033:1 9082:1 9105:1 9361:1 9372:1 9611:1 9894:1 10175:1 10280:1 10297:1 10298:1 10299:1 10776:1 10855:1 11370:1 11374:1 11378:1 11405:1 11496:1 11612:1 11732:1 11743:1 11750:1 11760:1 11761:1 11776:1 11790:1  |EV| 
0.01 734:1 5136:1 8277:1 8848:1 8857:1 8997:1 9312:1 9620:1 9700:1 10497:1 10776:1 10908:1 11370:1 11373:1 11378:1 11398:1 11496:1 11612:1 11727:1 11743:1 11750:1 11760:1 11761:1 11776:1 11790:1  |EV| 
0.01 459:1 4719:1 7051:1 8848:1 8925:1 10776:1 11370:1 11374:1 11378:1 11383:1 11496:1 11612:1 11728:1 11743:1 11750:1 11760:1 11761:1 11776:1 11790:1  |EV| 
0.01 631:1 3262:1 5711:1 10776:1 11370:1 11374:1 11378:1 11387:1 11496:1 11612:1 11728:1 11743:1 11750:1 11760:1 11761:1 11776:1 11790:1  |EV| 
0.01 499:1 4339:1 8762:1 8848:1 8876:1 8879:1 10776:1 11370:1 11374:1 11378:1 11386:1 11496:1 11612:1 11728:1 11743:1 11750:1 11760:1 11761:1 11776:1 11790:1  |EV| 
-0.01 616:1 3243:1 7789:1 8848:1 8858:1 8861:1 8986:1 9047:1 9062:1 9119:1 9557:1 9829:1 10286:1 10776:1 11370:1 11374:1 11378:1 11448:1 11496:1 11612:1 11731:1 11743:1 11750:1 11760:1 11761:1 11776:1 11790:1  |EV| 
-0.0056046880975728951 35:1 2599:1 5744:1 8901:1 10776:1 11370:1 11373:1 11378:1 11400:1 11496:1 11612:1 11727:1 11743:1 11751:1 11760:1 11761:1 11763:1 11774:1 11790:1  |EV| 
-0.01 287:1 2880:1 6028:1 8848:1 8850:1 8857:1 8858:1 9027:1 9059:1 9091:1 9092:1 9157:1 10776:1 11370:1 11374:1 11378:1 11425:1 11496:1 11612:1 11731:1 11743:1 11750:1 11760:1 11761:1 11763:1 11776:1 11790:1  |EV| 
-0.01 106:1 3655:1 6811:1 8857:1 8858:1 8866:1 8889:1 9137:1 9528:1 9650:1 9882:1 9883:1 10776:1 11370:1 11374:1 11378:1 11416:1 11496:1 11612:1 11731:1 11743:1 11750:1 11760:1 11761:1 11776:1 11790:1  |EV| 
-0.01 2328:1 5422:1 8586:1 8848:1 8850:1 8855:1 8858:1 8865:1 8911:1 9015:1 10640:1 10641:1 10776:1 10895:1 11370:1 11374:1 11378:1 11425:1 11496:1 11612:1 11731:1 11743:1 11750:1 11760:1 11761:1 11776:1 11790:1  |EV| 
0.01 1422:1 4215:1 7546:1 8858:1 8861:1 8879:1 8903:1 9804:1 9888:1 10235:1 10257:1 10776:1 11370:1 11373:1 11378:1 11404:1 11496:1 11612:1 11727:1 11743:1 11750:1 11760:1 11761:1 11776:1 11790:1  |EV| 
0.01 851:1 5453:1 8609:1 8855:1 9033:1 9282:1 10200:1 10656:1 10664:1 10665:1 10776:1 11370:1 11373:1 11378:1 11398:1 11496:1 11612:1 11727:1 11743:1 11750:1 11760:1 11761:1 11776:1 11790:1  |EV| 
0.01 1270:1 4029:1 5751:1 8850:1 10776:1 10812:1 11370:1 11373:1 11378:1 11400:1 11496:1 11612:1 11727:1 11743:1 11753:1 11760:1 11761:1 11764:1 11776:1 11790:1  |EV| 
0.01 679:1 3322:1 6451:1 8858:1 9015:1 9054:1 9641:1 10776:1 11345:1 11350:1 11370:1 11373:1 11378:1 11401:1 11496:1 11612:1 11727:1 11743:1 11750:1 11760:1 11761:1 11776:1 11790:1  |EV| 
0.01 807:1 3476:1 8439:1 8855:1 8897:1 8934:1 8973:1 9549:1 10574:1 10575:1 10776:1 11370:1 11373:1 11378:1 11398:1 11496:1 11612:1 11727:1 11743:1 11750:1 11760:1 11761:1 11776:1 11790:1  |EV| 
-0.01 713:1 4945:1 8073:1 8879:1 8886:1 8892:1 8944:1 9278:1 9700:1 10308:1 10776:1 11370:1 11373:1 11378:1 11398:1 11496:1 11612:1 11727:1 11743:1 11751:1 11760:1 11761:1 11790:1  |EV| 
-0.01 1577:1 4429:1 5942:1 8879:1 10776:1 10827:1 11370:1 11373:1 11378:1 11400:1 11496:1 11612:1 11727:1 11743:1 11753:1 11760:1 11761:1 11777:1 11790:1  |EV| 
-0.0053367481250115069 1890:1 4869:1 7996:1 8848:1 8865:1 8944:1 10776:1 11353:1 11360:1 11370:1 11373:1 11378:1 11379:1 11496:1 11612:1 11727:1 11743:1 11753:1 11760:1 11761:1 11790:1  |EV| 
-0.01 2477:1 5616:1 8749:1 8939:1 10776:1 10787:1 11370:1 11373:1 11378:1 11400:1 11496:1 11612:1 11727:1 11743:1 11752:1 11760:1 11761:1 11773:1 11790:1  |EV| 
-0.01 196:1 4415:1 7528:1 8865:1 9357:1 9549:1 10258:1 10776:1 11370:1 11373:1 11378:1 11401:1 11496:1 11612:1 11727:1 11743:1 11750:1 11760:1 11761:1 11790:1  |EV| 
0.01 2166:1 5231:1 8384:1 8848:1 8850:1 8855:1 8857:1 8911:1 8939:1 9025:1 9102:1 9109:1 9180:1 9226:1 9491:1 10550:1 10551:1 10552:1 10776:1 11370:1 11373:1 11378:1 11388:1 11496:1 11612:1 11729:1 11743:1 11750:1 11760:1 11761:1 11776:1 11790:1  |EV| 
0.01 66:1 3001:1 6148:1 8848:1 9294:1 10776:1 11370:1 11374:1 11378:1 11383:1 11496:1 11612:1 11728:1 11743:1 11750:1 11760:1 11761:1 11776:1 11790:1  |EV| 
0.01 1200:1 3944:1 7084:1 8908:1 8939:1 9927:1 9988:1 10776:1 10779:1 11370:1 11374:1 11378:1 11382:1 11496:1 11612:1 11728:1 11743:1 11750:1 11760:1 11761:1 11776:1 11790:1  |EV| 
0.01 80:1 2648:1 5803:1 8848:1 8976:1 10776:1 11370:1 11374:1 11378:1 11383:1 11496:1 11612:1 11728:1 11743:1 11750:1 11760:1 11761:1 11776:1 11790:1  |EV| 
-0.01 1017:1 3728:1 6856:1 8848:1 8853:1 8855:1 8858:1 8861:1 8866:1 8885:1 8973:1 9043:1 9056:1 9119:1 9123:1 9179:1 9861:1 9869:1 10776:1 11370:1 11373:1 11378:1 11453:1 11496:1 11612:1 11729:1 11743:1 11750:1 11760:1 11761:1 11776:1 11790:1  |EV| 
-0.01 961:1 3664:1 6789:1 8848:1 8861:1 8866:1 8934:1 8978:1 9028:1 9102:1 9231:1 9442:1 9500:1 9854:1 9855:1 9856:1 9857:1 9858:1 9859:1 9860:1 10776:1 11030:1 11370:1 11373:1 11378:1 11384:1 11496:1 11612:1 11729:1 11743:1 11751:1 11760:1 11761:1 11773:1 11776:1 11790:1  |EV| 
-0.01 80:1 3943:1 8403:1 8848:1 8858:1 8861:1 8866:1 8877:1 8879:1 9143:1 9175:1 9355:1 9617:1 10562:1 10776:1 11370:1 11373:1 11378:1 11391:1 11496:1 11612:1 11729:1 11743:1 11750:1 11760:1 11761:1 11776:1 11790:1  |EV| 
-0.01 499:1 5111:1 8433:1 8848:1 8855:1 8857:1 8858:1 8861:1 8863:1 8897:1 8911:1 9094:1 9095:1 9096:1 9163:1 9291:1 9302:1 9804:1 10563:1 10564:1 10565:1 10776:1 11370:1 11374:1 11378:1 11428:1 11496:1 11612:1 11732:1 11743:1 11750:1 11760:1 11761:1 11776:1 11790:1  |EV| 
0.01 1063:1 3789:1 5749:1 10776:1 10827:1 11370:1 11373:1 11378:1 11407:1 11496:1 11612:1 11727:1 11743:1 11751:1 11760:1 11761:1 11773:1 11776:1 11790:1  |EV| 
0.01 924:1 3644:1 5749:1 10776:1 10827:1 11370:1 11373:1 11378:1 11407:1 11496:1 11612:1 11727:1 11743:1 11753:1 11760:1 11761:1 11775:1 11776:1 11790:1  |EV| 
0.01 291:1 2884:1 5749:1 10776:1 10822:1 11370:1 11373:1 11378:1 11407:1 11496:1 11612:1 11727:1 11743:1 11751:1 11760:1 11761:1 11776:1 11790:1  |EV| 
0.01 2316:1 5408:1 5943:1 8865:1 10776:1 10789:1 11370:1 11373:1 11378:1 11400:1 11496:1 11612:1 11727:1 11743:1 11751:1 11760:1 11761:1 11776:1 11790:1  |EV| 
0.01 341:1 2935:1 5943:1 8865:1 10776:1 10789:1 11370:1 11373:1 11378:1 11400:1 11496:1 11612:1 11727:1 11743:1 11753:1 11760:1 11761:1 11776:1 11778:1 11790:1  |EV| 
-0.01 1354:1 4258:1 5749:1 10776:1 10803:1 11370:1 11373:1 11378:1 11407:1 11496:1 11612:1 11727:1 11743:1 11753:1 11760:1 11761:1 11774:1 11790:1  |EV| 
-0.01 302:1 2895:1 5943:1 8865:1 10776:1 10789:1 11370:1 11373:1 11378:1 11400:1 11496:1 11612:1 11727:1 11743:1 11753:1 11760:1 11761:1 11790:1  |EV| 
-0.01 1145:1 3881:1 5749:1 10776:1 10790:1 11370:1 11373:1 11378:1 11407:1 11496:1 11612:1 11727:1 11743:1 11750:1 11760:1 11764:1 11790:1  |EV| 
-0.01 11:1 2790:1 5749:1 10776:1 10790:1 11370:1 11373:1 11378:1 11407:1 11496:1 11612:1 11727:1 11743:1 11750:1 11760:1 11761:1 11790:1  |EV| 
