SVM-light Version V5.01-TK-1.2
0 # kernel type
3 # kernel parameter -d 
1 # kernel parameter -g 
1 # kernel parameter -s 
1 # kernel parameter -r 
empty# kernel parameter -u 
0.4 # kernel parameter -L 
1 # kernel parameter -T 
T # kernel parameter -C 
1 # kernel parameter -F 
0 # kernel parameter -S 
1.000000 # kernel parameter -D 
3 # kernel parameter -N 
S # kernel parameter -V 
S # kernel parameter -W 
145610 # highest feature index 
58555 # number of training documents 
2408 # number of support vectors plus 1 
4.8862298 # threshold b, each following line is a SV (starting with alpha*y)
-0.10000000000000001 1:1 40044:1 84507:1 137394:1 137395:1 137396:1 139534:1 139635:1 144676:1 144678:1 144696:1 144708:1 144722:1 144723:1 144872:1 145019:1 145167:1 145557:1 145570:1 145572:1 145578:1 145579:1 145599:1 145602:1  |EV| 
-0.03322254180904749 18244:1 59716:1 107389:1 137394:1 137396:1 137410:1 137411:1 137413:1 137447:1 137457:1 137558:1 137623:1 137926:1 137952:1 137956:1 138010:1 138149:1 138484:1 138671:1 138672:1 138673:1 138675:1 139602:1 139634:1 141017:1 143693:1 144402:1 144715:1 144722:1 144788:1 144889:1 145021:1 145233:1 145557:1 145564:1 145572:1 145579:1 145589:1 145602:1  |EV| 
-0.044002647357972789 4213:1 44433:1 90155:1 137394:1 137396:1 137398:1 137403:1 137411:1 137413:1 137439:1 137440:1 137753:1 137767:1 137768:1 137769:1 137770:1 137771:1 137772:1 137779:1 139534:1 139634:1 144715:1 144722:1 144783:1 144889:1 145050:1 145184:1 145562:1 145564:1 145572:1 145579:1 145589:1 145593:1 145602:1  |EV| 
-0.10000000000000001 16567:1 57920:1 105476:1 137976:1 138556:1 139634:1 144705:1 144713:1 144722:1 144742:1 144871:1 145019:1 145198:1 145557:1 145569:1 145577:1 145579:1 145589:1 145590:1 145610:1  |EV| 
-0.032179152876052858 19717:1 61349:1 109840:1 137413:1 137586:1 137934:1 139634:1 142147:1 144705:1 144712:1 144722:1 144724:1 144871:1 145019:1 145173:1 145562:1 145564:1 145577:1 145578:1 145579:1 145589:1 145610:1  |EV| 
0.021002372135868481 204:1 40247:1 84778:1 137404:1 137405:1 137406:1 139535:1 139634:1 139650:1 142138:1 143671:1 144020:1 144711:1 144722:1 144765:1 144872:1 145048:1 145185:1 145559:1 145564:1 145572:1 145579:1 145589:1 145602:1  |EV| 
0.060824680835976468 33660:1 77389:1 128627:1 137411:1 137926:1 139538:1 139634:1 139650:1 142138:1 143671:1 144022:1 144711:1 144722:1 144724:1 144902:1 145038:1 145185:1 145557:1 145569:1 145572:1 145578:1 145579:1 145589:1 145602:1  |EV| 
0.10647084078643251 11829:1 52631:1 99079:1 138061:1 138062:1 139538:1 139634:1 139650:1 142138:1 143671:1 144022:1 144711:1 144722:1 144724:1 144902:1 145038:1 145185:1 145557:1 145564:1 145572:1 145578:1 145579:1 145589:1 145602:1  |EV| 
0.21023903943755551 284:1 40327:1 84875:1 137396:1 137411:1 137413:1 137420:1 137421:1 137422:1 137423:1 137424:1 137425:1 137426:1 139536:1 139634:1 139666:1 142154:1 143685:1 144041:1 144715:1 144722:1 144771:1 144890:1 145032:1 145178:1 145557:1 145564:1 145572:1 145579:1 145589:1 145602:1  |EV| 
-0.047445054672846557 32437:1 76046:1 127174:1 137411:1 139199:1 139539:1 139634:1 139650:1 142138:1 143671:1 144032:1 144711:1 144722:1 144724:1 144877:1 145022:1 145185:1 145560:1 145564:1 145572:1 145581:1 145589:1 145602:1  |EV| 
-0.10000000000000001 37086:1 81215:1 133552:1 137532:1 137558:1 139535:1 139634:1 139650:1 142138:1 143671:1 144020:1 144711:1 144722:1 144724:1 144882:1 145048:1 145185:1 145560:1 145564:1 145572:1 145579:1 145581:1 145589:1 145602:1  |EV| 
-0.025730949487788941 28303:1 71245:1 121306:1 137926:1 138320:1 139535:1 139634:1 139650:1 142138:1 142253:1 143671:1 144020:1 144688:1 144691:1 144711:1 144722:1 144724:1 144882:1 145048:1 145185:1 145560:1 145564:1 145572:1 145581:1 145589:1 145602:1  |EV| 
-0.10000000000000001 23686:1 65909:1 90460:1 137532:1 139535:1 139634:1 139650:1 142138:1 142253:1 143671:1 144020:1 144692:1 144711:1 144722:1 144734:1 144877:1 145048:1 145185:1 145559:1 145564:1 145572:1 145579:1 145589:1 145602:1  |EV| 
-0.10000000000000001 34907:1 78843:1 90460:1 137532:1 139535:1 139634:1 139650:1 142138:1 143671:1 144020:1 144711:1 144722:1 144734:1 144877:1 145048:1 145185:1 145559:1 145564:1 145572:1 145579:1 145589:1 145602:1  |EV| 
0.60000000000000009 17082:1 58514:1 84509:1 137403:1 139534:1 139635:1 144676:1 144678:1 144696:1 144709:1 144722:1 144723:1 144874:1 145019:1 145169:1 145559:1 145570:1 145572:1 145579:1 145599:1 145602:1  |EV| 
0.60000000000000009 29780:1 72988:1 123367:1 137403:1 137407:1 139609:1 139635:1 139739:1 144676:1 144678:1 144696:1 144709:1 144722:1 144723:1 144890:1 145019:1 145169:1 145562:1 145570:1 145572:1 145578:1 145579:1 145599:1 145602:1  |EV| 
0.44801997783789083 37153:1 81288:1 133637:1 137396:1 137411:1 137590:1 137941:1 138577:1 139595:1 139635:1 144676:1 144678:1 144696:1 144709:1 144722:1 144723:1 144885:1 145019:1 145169:1 145557:1 145570:1 145572:1 145578:1 145579:1 145599:1 145602:1  |EV| 
0.3609649204767596 36797:1 80897:1 133205:1 137396:1 137410:1 137411:1 137590:1 137941:1 138577:1 138915:1 139595:1 139635:1 144676:1 144678:1 144696:1 144709:1 144722:1 144723:1 144920:1 145019:1 145169:1 145562:1 145570:1 145572:1 145579:1 145599:1 145602:1  |EV| 
0.34339417367982494 17575:1 59013:1 85467:1 137396:1 139534:1 139635:1 140463:1 144676:1 144678:1 144696:1 144708:1 144722:1 144723:1 144877:1 145019:1 145167:1 145557:1 145570:1 145572:1 145579:1 145582:1 145599:1 145602:1  |EV| 
-0.078151200050074157 198:1 40241:1 84764:1 137411:1 137426:1 139536:1 139635:1 139657:1 144676:1 144678:1 144696:1 144709:1 144722:1 144723:1 144890:1 145019:1 145169:1 145557:1 145570:1 145572:1 145579:1 145599:1 145602:1  |EV| 
-0.015201275309363318 33050:1 76727:1 127861:1 137447:1 137975:1 138328:1 138335:1 139534:1 139635:1 144676:1 144678:1 144696:1 144709:1 144722:1 144723:1 144886:1 145019:1 145169:1 145557:1 145570:1 145572:1 145579:1 145582:1 145599:1 145602:1  |EV| 
-0.058999148205233241 1828:1 41875:1 87244:1 137403:1 137407:1 137475:1 137556:1 139634:1 144705:1 144712:1 144722:1 144765:1 144871:1 145019:1 145173:1 145559:1 145564:1 145577:1 145579:1 145589:1 145610:1  |EV| 
-0.044847435477185671 1398:1 41443:1 86408:1 137394:1 137396:1 137403:1 137436:1 137456:1 137457:1 137458:1 137459:1 137460:1 137461:1 137462:1 137463:1 137464:1 137484:1 137485:1 137486:1 139539:1 139634:1 143671:1 144032:1 144711:1 144722:1 144732:1 144896:1 145022:1 145174:1 145562:1 145569:1 145572:1 145579:1 145589:1 145590:1 145602:1  |EV| 
-0.067488601285775288 27472:1 70295:1 120184:1 137403:1 137436:1 137440:1 138523:1 139634:1 144705:1 144712:1 144722:1 144765:1 144871:1 145019:1 145173:1 145557:1 145567:1 145577:1 145579:1 145585:1 145589:1 145592:1 145610:1  |EV| 
0.10492194420289354 29183:1 72304:1 122597:1 137410:1 137523:1 139535:1 139634:1 139650:1 142138:1 142253:1 143671:1 144020:1 144692:1 144711:1 144722:1 144724:1 144882:1 145048:1 145185:1 145559:1 145564:1 145572:1 145579:1 145589:1 145602:1  |EV| 
0.024953309261496675 9972:1 50634:1 96864:1 137678:1 139535:1 139634:1 139650:1 142138:1 142253:1 143671:1 144020:1 144692:1 144711:1 144722:1 144734:1 144877:1 145048:1 145185:1 145559:1 145564:1 145572:1 145579:1 145589:1 145602:1  |EV| 
-0.065890728703082393 13913:1 54839:1 118515:1 137394:1 137396:1 139020:1 139021:1 139534:1 139634:1 144675:1 144677:1 144687:1 144719:1 144722:1 144723:1 144871:1 145061:1 145201:1 145563:1 145564:1 145572:1 145588:1 145589:1 145593:1 145602:1  |EV| 
0.012064680686205342 11917:1 52723:1 85669:1 137403:1 137410:1 139535:1 139634:1 139650:1 142138:1 143671:1 144020:1 144711:1 144722:1 144724:1 144877:1 145022:1 145185:1 145559:1 145564:1 145572:1 145579:1 145589:1 145602:1  |EV| 
0.059342667171509288 10599:1 51329:1 97560:1 137403:1 137411:1 137717:1 137973:1 139535:1 139634:1 139650:1 142138:1 143671:1 144020:1 144711:1 144722:1 144757:1 144882:1 145038:1 145185:1 145560:1 145564:1 145572:1 145579:1 145581:1 145589:1 145602:1  |EV| 
-0.10000000000000001 10805:1 51542:1 97771:1 137403:1 137421:1 137492:1 137950:1 138242:1 138258:1 138269:1 139535:1 139634:1 139650:1 142138:1 142253:1 143671:1 144020:1 144689:1 144711:1 144722:1 144762:1 144879:1 145048:1 145185:1 145559:1 145564:1 145572:1 145579:1 145589:1 145602:1  |EV| 
-0.10000000000000001 17889:1 59330:1 106934:1 137403:1 137717:1 139535:1 139634:1 139650:1 142138:1 143671:1 144020:1 144711:1 144722:1 144724:1 144902:1 145038:1 145185:1 145559:1 145564:1 145572:1 145579:1 145602:1  |EV| 
-0.10000000000000001 2640:1 42706:1 88023:1 137403:1 137602:1 139535:1 139634:1 139650:1 142138:1 143671:1 144020:1 144711:1 144722:1 144724:1 144902:1 145038:1 145185:1 145559:1 145564:1 145572:1 145579:1 145602:1  |EV| 
-0.10000000000000001 34212:1 78091:1 129624:1 137403:1 137411:1 137684:1 138684:1 139551:1 139634:1 139650:1 142138:1 143671:1 144101:1 144711:1 144722:1 144757:1 144882:1 145038:1 145185:1 145559:1 145564:1 145572:1 145579:1 145589:1 145602:1  |EV| 
0.55752687971554038 214:1 70790:1 120769:1 137398:1 137695:1 139534:1 139635:1 139643:1 144676:1 144678:1 144696:1 144709:1 144722:1 144723:1 144890:1 145019:1 145169:1 145559:1 145570:1 145572:1 145579:1 145599:1 145602:1  |EV| 
0.60000000000000009 4273:1 82724:1 100094:1 137398:1 137550:1 139534:1 139635:1 139643:1 144676:1 144678:1 144696:1 144709:1 144722:1 144723:1 144890:1 145019:1 145169:1 145559:1 145570:1 145572:1 145579:1 145599:1 145602:1  |EV| 
0.43188573178048789 17855:1 59296:1 106898:1 137403:1 137475:1 139582:1 139635:1 139643:1 144676:1 144678:1 144696:1 144709:1 144722:1 144723:1 144890:1 145019:1 145169:1 145557:1 145570:1 145572:1 145579:1 145599:1 145602:1  |EV| 
0.43070631059715564 24463:1 81735:1 134221:1 137446:1 137964:1 137975:1 139419:1 139551:1 139635:1 139642:1 144676:1 144678:1 144696:1 144709:1 144722:1 144723:1 144886:1 145019:1 145169:1 145559:1 145570:1 145572:1 145579:1 145599:1 145602:1  |EV| 
0.37847818032654917 7254:1 47746:1 93615:1 137403:1 137475:1 138066:1 138067:1 139553:1 139574:1 139635:1 144676:1 144678:1 144696:1 144709:1 144722:1 144723:1 144885:1 145019:1 145169:1 145557:1 145570:1 145572:1 145579:1 145599:1 145602:1  |EV| 
-0.10000000000000001 12381:1 53205:1 100094:1 137398:1 137550:1 139534:1 139635:1 139643:1 144676:1 144678:1 144696:1 144709:1 144722:1 144723:1 144890:1 145019:1 145169:1 145559:1 145570:1 145572:1 145579:1 145599:1 145602:1  |EV| 
-0.047450071204381716 15415:1 56504:1 103799:1 137398:1 137627:1 139534:1 139635:1 139643:1 144676:1 144678:1 144696:1 144709:1 144722:1 144723:1 144890:1 145019:1 145169:1 145559:1 145570:1 145572:1 145579:1 145599:1 145602:1  |EV| 
-0.10000000000000001 14680:1 55658:1 105976:1 137398:1 137441:1 139534:1 139635:1 139643:1 144676:1 144678:1 144696:1 144709:1 144722:1 144723:1 144890:1 145019:1 145169:1 145559:1 145570:1 145572:1 145579:1 145599:1 145602:1  |EV| 
-0.053939422363308072 23903:1 66165:1 124249:1 137584:1 137976:1 139634:1 144705:1 144713:1 144722:1 144742:1 144871:1 145019:1 145198:1 145561:1 145564:1 145577:1 145579:1 145589:1 145610:1  |EV| 
-0.079818359179110968 8934:1 49505:1 95582:1 137398:1 138168:1 139565:1 139635:1 139642:1 144676:1 144678:1 144696:1 144709:1 144722:1 144723:1 144890:1 145019:1 145169:1 145559:1 145570:1 145572:1 145579:1 145599:1 145602:1  |EV| 
0.058262175964610287 24643:1 66977:1 116397:1 137403:1 137529:1 139539:1 139634:1 143671:1 144032:1 144711:1 144722:1 144724:1 144902:1 145038:1 145185:1 145559:1 145569:1 145572:1 145579:1 145587:1 145589:1 145597:1 145602:1  |EV| 
-0.062655106589177459 27971:1 70871:1 120858:1 137396:1 137413:1 137459:1 137607:1 138116:1 138290:1 139095:1 139634:1 144705:1 144713:1 144722:1 144772:1 144871:1 145019:1 145198:1 145561:1 145564:1 145577:1 145579:1 145589:1 145610:1  |EV| 
0.05750618216537063 871:1 40916:1 85735:1 137403:1 137450:1 139539:1 139634:1 143671:1 144032:1 144711:1 144722:1 144724:1 144877:1 145022:1 145185:1 145559:1 145569:1 145572:1 145579:1 145589:1 145602:1  |EV| 
-0.02064963301318332 21396:1 63230:1 111953:1 137403:1 137407:1 137447:1 137482:1 137558:1 137713:1 137966:1 138829:1 138830:1 138831:1 138832:1 138833:1 138834:1 139634:1 144705:1 144712:1 144722:1 144748:1 144871:1 145019:1 145187:1 145557:1 145564:1 145577:1 145579:1 145582:1 145589:1 145610:1  |EV| 
0.024355861441407511 31737:1 75247:1 126205:1 137403:1 137871:1 139535:1 139634:1 139650:1 142138:1 143671:1 144020:1 144711:1 144722:1 144724:1 144902:1 145038:1 145185:1 145559:1 145564:1 145572:1 145579:1 145589:1 145590:1 145602:1  |EV| 
-0.10000000000000001 8113:1 48635:1 109978:1 137394:1 137411:1 137660:1 139534:1 139635:1 144676:1 144678:1 144696:1 144709:1 144722:1 144723:1 144881:1 145019:1 145169:1 145562:1 145570:1 145572:1 145579:1 145599:1 145602:1  |EV| 
-0.049064205158444868 33213:1 76903:1 84903:1 137403:1 139535:1 139634:1 139650:1 142138:1 143671:1 144020:1 144681:1 144711:1 144722:1 144734:1 144902:1 145022:1 145185:1 145557:1 145564:1 145572:1 145589:1 145590:1 145602:1  |EV| 
-0.10000000000000001 36819:1 80922:1 84903:1 137403:1 139535:1 139634:1 139650:1 142138:1 142321:1 143671:1 144020:1 144691:1 144692:1 144711:1 144722:1 144734:1 144902:1 145022:1 145185:1 145559:1 145564:1 145572:1 145589:1 145602:1  |EV| 
-0.0080785242144415185 13921:1 54848:1 85740:1 137407:1 139634:1 142138:1 142253:1 144691:1 144705:1 144712:1 144722:1 144729:1 144871:1 145019:1 145173:1 145561:1 145564:1 145577:1 145579:1 145589:1 145610:1  |EV| 
-0.010318811161742408 33754:1 77489:1 92858:1 137403:1 137475:1 137981:1 139535:1 139634:1 139771:1 142212:1 142215:1 143671:1 144020:1 144679:1 144692:1 144711:1 144722:1 144765:1 144882:1 145022:1 145185:1 145557:1 145569:1 145572:1 145589:1 145602:1  |EV| 
0.37688319257495068 2928:1 43019:1 88391:1 137441:1 137447:1 137623:1 137704:1 139552:1 139635:1 144676:1 144678:1 144696:1 144708:1 144722:1 144723:1 144913:1 145019:1 145167:1 145561:1 145570:1 145572:1 145579:1 145599:1 145602:1  |EV| 
0.28916820997286813 30563:1 73889:1 124522:1 139058:1 139534:1 139635:1 139689:1 144676:1 144678:1 144696:1 144708:1 144722:1 144723:1 144877:1 145019:1 145167:1 145559:1 145570:1 145572:1 145579:1 145599:1 145602:1  |EV| 
-0.10000000000000001 25266:1 67686:1 85467:1 137396:1 139582:1 139635:1 139643:1 144676:1 144678:1 144696:1 144708:1 144722:1 144723:1 144877:1 145019:1 145167:1 145559:1 145570:1 145572:1 145579:1 145599:1 145602:1  |EV| 
-0.0026802242559004446 24207:1 66503:1 115798:1 137396:1 137398:1 137411:1 138746:1 139634:1 144705:1 144713:1 144722:1 144738:1 144871:1 145019:1 145198:1 145561:1 145568:1 145577:1 145579:1 145589:1 145610:1  |EV| 
-0.084251605308828734 1746:1 41792:1 86840:1 137394:1 137396:1 137403:1 137413:1 137420:1 137457:1 137465:1 137467:1 137468:1 137469:1 137470:1 137475:1 137501:1 137502:1 137504:1 137512:1 137513:1 137514:1 139538:1 139545:1 139634:1 144715:1 144722:1 144775:1 144893:1 145055:1 145194:1 145557:1 145564:1 145572:1 145579:1 145589:1 145602:1  |EV| 
0.038077092844294051 5316:1 45615:1 91434:1 137403:1 137475:1 139538:1 139567:1 139634:1 139765:1 140104:1 142210:1 142211:1 143671:1 143678:1 144022:1 144159:1 144714:1 144721:1 144742:1 144885:1 145022:1 145177:1 145557:1 145564:1 145572:1 145579:1 145589:1 145602:1  |EV| 
-0.10000000000000001 12047:1 52860:1 99453:1 137590:1 139553:1 139635:1 139642:1 144676:1 144678:1 144696:1 144708:1 144722:1 144723:1 144877:1 145019:1 145167:1 145559:1 145570:1 145572:1 145579:1 145599:1 145602:1  |EV| 
-0.040199736763444315 19617:1 61239:1 109287:1 137457:1 138713:1 138714:1 139534:1 139635:1 139643:1 144676:1 144678:1 144696:1 144709:1 144722:1 144723:1 144881:1 145019:1 145169:1 145559:1 145570:1 145572:1 145579:1 145599:1 145602:1  |EV| 
-0.094146431632113892 12247:1 53065:1 99801:1 137398:1 137407:1 137415:1 137829:1 139540:1 139542:1 139633:1 142383:1 144697:1 144701:1 144717:1 144722:1 144726:1 144872:1 145053:1 145218:1 145559:1 145564:1 145572:1 145579:1 145589:1 145602:1  |EV| 
-0.018112505690613252 998:1 41043:1 84589:1 139538:1 139546:1 139634:1 139636:1 139738:1 139739:1 143671:1 143692:1 143693:1 144022:1 144050:1 144051:1 144675:1 144677:1 144687:1 144718:1 144722:1 144723:1 144871:1 145048:1 145200:1 145563:1 145564:1 145572:1 145588:1 145589:1 145602:1  |EV| 
-0.047358899335640192 22713:1 64733:1 113828:1 137396:1 137403:1 137822:1 138165:1 138167:1 138876:1 139555:1 139634:1 144679:1 144711:1 144722:1 144731:1 144902:1 145051:1 145185:1 145562:1 145564:1 145572:1 145579:1 145585:1 145586:1 145589:1 145595:1 145602:1  |EV| 
0.011783015034353885 25138:1 67536:1 117469:1 137394:1 137396:1 139582:1 139634:1 139904:1 141402:1 142160:1 142161:1 143692:1 143693:1 144371:1 144478:1 144711:1 144722:1 144724:1 144877:1 145022:1 145185:1 145559:1 145564:1 145572:1 145579:1 145589:1 145602:1  |EV| 
-0.10000000000000001 9156:1 49737:1 84903:1 137403:1 139535:1 139634:1 139650:1 142138:1 143671:1 144020:1 144711:1 144722:1 144734:1 144902:1 145022:1 145185:1 145557:1 145564:1 145572:1 145578:1 145579:1 145602:1  |EV| 
-0.10000000000000001 8817:1 49378:1 84903:1 137403:1 139535:1 139634:1 139650:1 142138:1 143671:1 144020:1 144711:1 144722:1 144734:1 144902:1 145022:1 145185:1 145559:1 145564:1 145572:1 145579:1 145602:1  |EV| 
-0.068231123156783313 29013:1 72103:1 122358:1 139081:1 139538:1 139633:1 139650:1 142138:1 143671:1 144022:1 144711:1 144722:1 144734:1 144902:1 145022:1 145185:1 145557:1 145564:1 145572:1 145578:1 145579:1 145590:1 145598:1 145602:1  |EV| 
0.54235793402094834 26605:1 69248:1 85467:1 137396:1 139551:1 139635:1 139642:1 144676:1 144678:1 144696:1 144708:1 144722:1 144723:1 144877:1 145019:1 145167:1 145557:1 145570:1 145572:1 145579:1 145582:1 145599:1 145602:1  |EV| 
0.41041704928412664 16444:1 57764:1 105290:1 137746:1 138544:1 139551:1 139635:1 140013:1 144676:1 144678:1 144696:1 144708:1 144722:1 144723:1 144882:1 145019:1 145167:1 145559:1 145570:1 145572:1 145579:1 145599:1 145602:1  |EV| 
0.4509546229887243 3559:1 43718:1 89376:1 137403:1 137558:1 137788:1 139539:1 139557:1 139635:1 139642:1 139739:1 144676:1 144678:1 144696:1 144701:1 144708:1 144722:1 144723:1 144872:1 145019:1 145167:1 145559:1 145570:1 145572:1 145579:1 145599:1 145602:1  |EV| 
0.60000000000000009 6482:1 54046:1 100295:1 137976:1 139551:1 139635:1 144676:1 144678:1 144696:1 144708:1 144722:1 144723:1 144877:1 145019:1 145167:1 145561:1 145570:1 145572:1 145579:1 145599:1 145602:1  |EV| 
-0.10000000000000001 9368:1 49982:1 100295:1 137976:1 139551:1 139635:1 144676:1 144678:1 144696:1 144708:1 144722:1 144723:1 144877:1 145019:1 145167:1 145561:1 145570:1 145572:1 145579:1 145599:1 145602:1  |EV| 
-0.10000000000000001 16905:1 58327:1 105929:1 137475:1 137658:1 139551:1 139635:1 144676:1 144678:1 144696:1 144708:1 144722:1 144723:1 144882:1 145019:1 145167:1 145561:1 145570:1 145572:1 145579:1 145599:1 145602:1  |EV| 
-0.10000000000000001 20249:1 61968:1 84551:1 139551:1 139635:1 139642:1 144676:1 144678:1 144696:1 144708:1 144722:1 144723:1 144902:1 145019:1 145167:1 145561:1 145570:1 145572:1 145579:1 145599:1 145602:1  |EV| 
-0.10000000000000001 23860:1 66111:1 84551:1 139551:1 139635:1 139642:1 144676:1 144678:1 144696:1 144708:1 144722:1 144723:1 144902:1 145019:1 145167:1 145561:1 145570:1 145572:1 145579:1 145599:1 145602:1  |EV| 
-0.097633366926140344 9054:1 49629:1 112081:1 137429:1 138303:1 139535:1 139634:1 143671:1 144020:1 144711:1 144722:1 144724:1 144877:1 145022:1 145185:1 145561:1 145564:1 145572:1 145583:1 145589:1 145602:1  |EV| 
0.17490847792611647 33133:1 76819:1 127949:1 137394:1 137400:1 137401:1 137403:1 137411:1 137415:1 137492:1 137621:1 137703:1 138107:1 138864:1 139535:1 139634:1 140728:1 142821:1 143671:1 144020:1 144711:1 144722:1 144744:1 144884:1 145022:1 145174:1 145559:1 145564:1 145572:1 145579:1 145589:1 145602:1  |EV| 
0.010083245425189001 1789:1 41835:1 86701:1 137403:1 137487:1 139539:1 139634:1 139650:1 142138:1 143671:1 144032:1 144711:1 144722:1 144724:1 144902:1 145038:1 145185:1 145562:1 145564:1 145572:1 145578:1 145579:1 145589:1 145590:1 145602:1  |EV| 
0.05691708592070753 23968:1 66242:1 84805:1 139535:1 139634:1 143671:1 144020:1 144692:1 144711:1 144722:1 144729:1 144902:1 145048:1 145185:1 145557:1 145564:1 145572:1 145578:1 145579:1 145589:1 145602:1  |EV| 
-0.10000000000000001 38684:1 83056:1 84805:1 139551:1 139634:1 143671:1 144101:1 144711:1 144722:1 144729:1 144902:1 145048:1 145185:1 145561:1 145564:1 145572:1 145582:1 145589:1 145602:1  |EV| 
0.058353898614662003 2607:1 42672:1 87965:1 137523:1 137557:1 137562:1 139535:1 139634:1 139650:1 142138:1 143671:1 144020:1 144711:1 144722:1 144765:1 144872:1 145048:1 145185:1 145559:1 145564:1 145572:1 145579:1 145589:1 145602:1  |EV| 
-0.10000000000000001 5455:1 45765:1 91594:1 137407:1 137411:1 137868:1 137870:1 137871:1 139535:1 139634:1 139650:1 142138:1 143671:1 144020:1 144711:1 144722:1 144731:1 144905:1 145022:1 145185:1 145559:1 145564:1 145572:1 145579:1 145589:1 145602:1  |EV| 
-0.0022534361451704344 6177:1 46569:1 85405:1 137394:1 137403:1 139535:1 139634:1 142138:1 144716:1 144722:1 144729:1 144874:1 145029:1 145179:1 145557:1 145564:1 145572:1 145578:1 145579:1 145589:1 145602:1  |EV| 
-0.10000000000000001 20820:1 62582:1 111180:1 137403:1 137411:1 137430:1 138776:1 139538:1 139634:1 139640:1 142140:1 143671:1 144022:1 144711:1 144722:1 144757:1 144872:1 145022:1 145185:1 145559:1 145564:1 145572:1 145579:1 145589:1 145594:1 145602:1  |EV| 
-0.10000000000000001 238:1 40281:1 84813:1 137403:1 137411:1 137416:1 137417:1 139535:1 139634:1 139640:1 142140:1 143671:1 144020:1 144711:1 144722:1 144757:1 144872:1 145022:1 145185:1 145559:1 145564:1 145572:1 145579:1 145589:1 145590:1 145602:1  |EV| 
-0.10000000000000001 7364:1 47856:1 93709:1 137394:1 137403:1 137407:1 137916:1 138092:1 138093:1 139535:1 139634:1 139650:1 142138:1 142253:1 143671:1 144020:1 144692:1 144711:1 144722:1 144731:1 144904:1 145048:1 145185:1 145559:1 145564:1 145572:1 145579:1 145589:1 145602:1  |EV| 
0.60000000000000009 19485:1 61100:1 84551:1 139551:1 139635:1 139642:1 144676:1 144678:1 144696:1 144708:1 144722:1 144723:1 144902:1 145019:1 145167:1 145560:1 145570:1 145572:1 145579:1 145581:1 145599:1 145602:1  |EV| 
0.39562851460751236 6482:1 46943:1 92910:1 137956:1 137976:1 139551:1 139635:1 144676:1 144678:1 144696:1 144708:1 144722:1 144723:1 144882:1 145019:1 145167:1 145561:1 145570:1 145572:1 145579:1 145583:1 145599:1 145602:1  |EV| 
0.56357645472939533 13276:1 54150:1 84551:1 139569:1 139635:1 139752:1 144676:1 144678:1 144696:1 144708:1 144722:1 144723:1 144902:1 145019:1 145167:1 145561:1 145570:1 145572:1 145579:1 145599:1 145602:1  |EV| 
0.60000000000000009 8446:1 48988:1 84551:1 139578:1 139635:1 139642:1 144676:1 144678:1 144696:1 144708:1 144722:1 144723:1 144902:1 145019:1 145167:1 145560:1 145570:1 145572:1 145579:1 145581:1 145599:1 145602:1  |EV| 
-0.10000000000000001 17901:1 59342:1 84551:1 139539:1 139557:1 139635:1 139642:1 139739:1 144676:1 144678:1 144696:1 144700:1 144708:1 144722:1 144723:1 144902:1 145019:1 145167:1 145557:1 145570:1 145572:1 145579:1 145599:1 145602:1  |EV| 
-0.10000000000000001 24561:1 66883:1 84551:1 139595:1 139635:1 144676:1 144678:1 144696:1 144708:1 144722:1 144723:1 144902:1 145019:1 145167:1 145561:1 145570:1 145572:1 145579:1 145599:1 145602:1  |EV| 
-0.040263614647831542 4191:1 60942:1 84551:1 139556:1 139635:1 139642:1 144676:1 144678:1 144696:1 144708:1 144722:1 144723:1 144902:1 145019:1 145167:1 145562:1 145570:1 145572:1 145578:1 145579:1 145599:1 145602:1  |EV| 
0.029737683668080633 26761:1 69426:1 119189:1 137540:1 139047:1 139565:1 139634:1 143671:1 144226:1 144714:1 144721:1 144726:1 144881:1 145022:1 145177:1 145559:1 145564:1 145572:1 145579:1 145589:1 145602:1  |EV| 
-0.10000000000000001 11385:1 52160:1 84551:1 139574:1 139635:1 139642:1 144676:1 144678:1 144696:1 144708:1 144722:1 144723:1 144902:1 145019:1 145167:1 145561:1 145570:1 145572:1 145579:1 145599:1 145602:1  |EV| 
0.20934656575569721 24492:1 66811:1 116199:1 137403:1 137407:1 138975:1 139535:1 139634:1 139640:1 142140:1 143671:1 144020:1 144711:1 144722:1 144765:1 144872:1 145048:1 145185:1 145559:1 145564:1 145572:1 145579:1 145589:1 145602:1  |EV| 
0.1828695592551268 17964:1 59408:1 107017:1 137403:1 137410:1 137411:1 137746:1 137786:1 138695:1 139551:1 139634:1 139640:1 142140:1 143671:1 144101:1 144711:1 144722:1 144731:1 144905:1 145022:1 145185:1 145559:1 145564:1 145572:1 145579:1 145589:1 145602:1  |EV| 
0.18347622270749323 19066:1 60658:1 108594:1 137394:1 137411:1 137567:1 138283:1 138630:1 138690:1 139603:1 139634:1 139640:1 142140:1 143671:1 144392:1 144711:1 144722:1 144762:1 144904:1 145022:1 145185:1 145557:1 145564:1 145572:1 145579:1 145589:1 145602:1  |EV| 
0.099509722131653253 8431:1 48973:1 94916:1 137394:1 137403:1 137411:1 137563:1 137566:1 137786:1 139535:1 139634:1 142140:1 144711:1 144722:1 144731:1 144872:1 145029:1 145185:1 145559:1 145564:1 145572:1 145579:1 145589:1 145596:1 145602:1  |EV| 
0.23038563349390609 19545:1 61162:1 94916:1 137394:1 137403:1 137411:1 137563:1 137566:1 137786:1 139535:1 139634:1 142140:1 144711:1 144722:1 144731:1 144872:1 145029:1 145185:1 145559:1 145564:1 145572:1 145579:1 145589:1 145602:1  |EV| 
-0.10000000000000001 13529:1 54415:1 101459:1 137411:1 137440:1 138430:1 139535:1 139634:1 139640:1 142140:1 142862:1 143671:1 144020:1 144692:1 144711:1 144722:1 144765:1 144872:1 145048:1 145185:1 145559:1 145564:1 145572:1 145579:1 145589:1 145602:1  |EV| 
-0.10000000000000001 24468:1 66786:1 116158:1 137394:1 137403:1 138165:1 139535:1 139634:1 139640:1 142140:1 143671:1 144020:1 144711:1 144722:1 144765:1 144882:1 145022:1 145185:1 145557:1 145564:1 145572:1 145578:1 145579:1 145589:1 145590:1 145602:1  |EV| 
-0.10000000000000001 5765:1 46094:1 91946:1 137407:1 137411:1 137870:1 139535:1 139634:1 139640:1 142140:1 143671:1 144020:1 144711:1 144722:1 144765:1 144872:1 145048:1 145185:1 145559:1 145564:1 145572:1 145579:1 145589:1 145590:1 145602:1  |EV| 
-0.10000000000000001 24267:1 66567:1 115873:1 137394:1 137403:1 137407:1 138966:1 138968:1 139551:1 139634:1 142140:1 144711:1 144722:1 144731:1 144872:1 145029:1 145185:1 145559:1 145564:1 145572:1 145579:1 145589:1 145590:1 145602:1  |EV| 
-0.10000000000000001 101:1 40144:1 84643:1 137400:1 137401:1 137402:1 139535:1 139634:1 139650:1 142138:1 143671:1 144020:1 144711:1 144722:1 144765:1 144872:1 145048:1 145185:1 145560:1 145564:1 145572:1 145579:1 145581:1 145589:1 145602:1  |EV| 
0.60000000000000009 13734:1 54639:1 84551:1 139569:1 139635:1 144676:1 144678:1 144696:1 144708:1 144722:1 144723:1 144902:1 145019:1 145167:1 145561:1 145570:1 145572:1 145579:1 145599:1 145602:1  |EV| 
0.60000000000000009 8700:1 49257:1 84551:1 139551:1 139635:1 139642:1 144676:1 144678:1 144696:1 144708:1 144722:1 144723:1 144902:1 145019:1 145167:1 145559:1 145570:1 145572:1 145579:1 145599:1 145602:1  |EV| 
0.60000000000000009 24326:1 66627:1 84551:1 139551:1 139635:1 139642:1 144676:1 144678:1 144696:1 144708:1 144722:1 144723:1 144902:1 145019:1 145167:1 145559:1 145570:1 145572:1 145579:1 145599:1 145602:1  |EV| 
-0.10000000000000001 8700:1 64461:1 84551:1 139551:1 139635:1 139642:1 144676:1 144678:1 144696:1 144708:1 144722:1 144723:1 144902:1 145019:1 145167:1 145559:1 145570:1 145572:1 145579:1 145599:1 145602:1  |EV| 
-0.10000000000000001 24395:1 66702:1 84551:1 139569:1 139635:1 139642:1 144676:1 144678:1 144696:1 144708:1 144722:1 144723:1 144902:1 145019:1 145167:1 145559:1 145570:1 145572:1 145579:1 145599:1 145602:1  |EV| 
-0.10000000000000001 2701:1 43805:1 84551:1 139551:1 139635:1 139642:1 144676:1 144678:1 144696:1 144708:1 144722:1 144723:1 144902:1 145019:1 145167:1 145559:1 145570:1 145572:1 145579:1 145599:1 145602:1  |EV| 
-0.10000000000000001 14780:1 55774:1 84551:1 139551:1 139635:1 139642:1 144676:1 144678:1 144696:1 144708:1 144722:1 144723:1 144902:1 145019:1 145167:1 145559:1 145570:1 145572:1 145579:1 145599:1 145602:1  |EV| 
-0.10000000000000001 19618:1 61240:1 84551:1 139551:1 139635:1 139642:1 144676:1 144678:1 144696:1 144708:1 144722:1 144723:1 144902:1 145019:1 145167:1 145559:1 145570:1 145572:1 145579:1 145599:1 145602:1  |EV| 
0.070154981135685579 28650:1 71645:1 121771:1 137396:1 137403:1 139103:1 139104:1 139535:1 139634:1 143671:1 144020:1 144711:1 144722:1 144757:1 144872:1 145022:1 145185:1 145562:1 145564:1 145572:1 145578:1 145579:1 145589:1 145602:1  |EV| 
0.12269704654131477 15016:1 57782:1 105308:1 137396:1 137403:1 138539:1 139535:1 139634:1 140723:1 142595:1 143671:1 144020:1 144711:1 144722:1 144765:1 144872:1 145048:1 145185:1 145562:1 145564:1 145572:1 145579:1 145586:1 145589:1 145602:1  |EV| 
0.21678913591592991 10361:1 51075:1 97317:1 137436:1 137511:1 138305:1 139535:1 139634:1 143671:1 144020:1 144689:1 144711:1 144722:1 144765:1 144872:1 145048:1 145185:1 145557:1 145564:1 145572:1 145578:1 145579:1 145589:1 145602:1  |EV| 
0.092463061803588001 23242:1 65373:1 114523:1 137394:1 137400:1 138597:1 138907:1 138908:1 138909:1 139535:1 139634:1 139650:1 142138:1 143671:1 144020:1 144711:1 144722:1 144731:1 144904:1 145048:1 145185:1 145559:1 145564:1 145572:1 145579:1 145589:1 145602:1  |EV| 
0.027435618157243002 39008:1 83425:1 136028:1 137403:1 137410:1 139490:1 139535:1 139634:1 139650:1 142138:1 142253:1 142321:1 143671:1 144020:1 144692:1 144711:1 144722:1 144765:1 144872:1 145048:1 145185:1 145559:1 145564:1 145572:1 145579:1 145589:1 145602:1  |EV| 
-0.10000000000000001 10747:1 51484:1 97713:1 137403:1 137436:1 137447:1 137459:1 137511:1 137623:1 137719:1 137816:1 137966:1 138136:1 138280:1 138291:1 138305:1 139535:1 139634:1 143671:1 144020:1 144689:1 144711:1 144722:1 144759:1 144915:1 145048:1 145174:1 145557:1 145564:1 145572:1 145579:1 145589:1 145602:1  |EV| 
-0.10000000000000001 23377:1 65545:1 114706:1 137394:1 137398:1 137400:1 137436:1 137447:1 137745:1 137848:1 138279:1 138597:1 138907:1 138908:1 138909:1 138917:1 139535:1 139634:1 141307:1 143210:1 143671:1 144020:1 144711:1 144722:1 144748:1 144907:1 145048:1 145174:1 145561:1 145564:1 145572:1 145579:1 145589:1 145602:1  |EV| 
-0.10000000000000001 39361:1 83799:1 136442:1 137396:1 137403:1 137563:1 137735:1 139535:1 139634:1 140723:1 142595:1 142596:1 143671:1 144020:1 144679:1 144688:1 144711:1 144722:1 144757:1 144913:1 145048:1 145185:1 145557:1 145564:1 145572:1 145579:1 145582:1 145589:1 145602:1  |EV| 
-0.10000000000000001 17328:1 58766:1 106350:1 137403:1 137482:1 137735:1 138654:1 138664:1 139535:1 139634:1 139650:1 142138:1 143671:1 144020:1 144711:1 144722:1 144756:1 144905:1 145048:1 145185:1 145557:1 145564:1 145572:1 145579:1 145589:1 145602:1  |EV| 
-0.040162062388528069 17072:1 58502:1 106096:1 137394:1 137396:1 138616:1 138618:1 139535:1 139634:1 144717:1 144722:1 144742:1 144882:1 145053:1 145218:1 145557:1 145564:1 145572:1 145579:1 145589:1 145602:1  |EV| 
0.521364605223263 7171:1 47663:1 84551:1 139577:1 139635:1 140212:1 144676:1 144678:1 144696:1 144708:1 144722:1 144723:1 144902:1 145019:1 145167:1 145559:1 145570:1 145572:1 145579:1 145599:1 145602:1  |EV| 
-0.072190372017955404 13911:1 54837:1 84551:1 139551:1 139635:1 144676:1 144678:1 144696:1 144708:1 144722:1 144723:1 144902:1 145019:1 145167:1 145559:1 145570:1 145572:1 145579:1 145599:1 145602:1  |EV| 
-0.072184642809060104 13911:1 61448:1 84551:1 139551:1 139635:1 144676:1 144678:1 144696:1 144708:1 144722:1 144723:1 144902:1 145019:1 145167:1 145559:1 145570:1 145572:1 145579:1 145599:1 145602:1  |EV| 
-0.094491019289362807 9022:1 63416:1 84551:1 139551:1 139635:1 139642:1 144676:1 144678:1 144696:1 144708:1 144722:1 144723:1 144902:1 145019:1 145167:1 145559:1 145570:1 145572:1 145579:1 145599:1 145602:1  |EV| 
-0.10000000000000001 22068:1 63992:1 84551:1 139551:1 139635:1 139642:1 144676:1 144678:1 144696:1 144708:1 144722:1 144723:1 144902:1 145019:1 145167:1 145559:1 145570:1 145572:1 145579:1 145599:1 145602:1  |EV| 
0.12590323760066535 21475:1 63324:1 112070:1 137403:1 137447:1 137482:1 137558:1 137713:1 137966:1 138829:1 138830:1 138831:1 138832:1 138833:1 138834:1 139535:1 139634:1 143671:1 144020:1 144711:1 144722:1 144748:1 144907:1 145048:1 145174:1 145557:1 145564:1 145572:1 145579:1 145582:1 145589:1 145602:1  |EV| 
0.32593590960659563 10863:1 51601:1 97827:1 137394:1 137396:1 137403:1 137440:1 137447:1 137475:1 137488:1 137664:1 137672:1 137966:1 138295:1 138296:1 139539:1 139634:1 143671:1 144032:1 144711:1 144722:1 144748:1 144915:1 145022:1 145174:1 145557:1 145564:1 145572:1 145579:1 145589:1 145590:1 145602:1  |EV| 
0.22335157161408681 9123:1 49700:1 95811:1 137394:1 137403:1 137425:1 137553:1 138175:1 138176:1 139535:1 139634:1 139918:1 142276:1 143671:1 144020:1 144711:1 144722:1 144731:1 144913:1 145038:1 145185:1 145557:1 145564:1 145572:1 145579:1 145589:1 145590:1 145602:1  |EV| 
0.12473458624639386 30264:1 73520:1 124010:1 137396:1 137403:1 137436:1 137459:1 137475:1 137511:1 137553:1 137741:1 137966:1 139130:1 139141:1 139142:1 139143:1 139535:1 139634:1 143671:1 144020:1 144711:1 144722:1 144759:1 144906:1 145038:1 145174:1 145557:1 145564:1 145572:1 145579:1 145589:1 145590:1 145602:1  |EV| 
0.19304717952522504 10879:1 51618:1 97842:1 137396:1 137403:1 137459:1 137475:1 137662:1 137716:1 137925:1 137966:1 138276:1 138292:1 138293:1 139535:1 139634:1 143671:1 144020:1 144711:1 144722:1 144767:1 144906:1 145022:1 145174:1 145557:1 145564:1 145572:1 145579:1 145589:1 145590:1 145602:1  |EV| 
-0.03615764310860789 29502:1 72674:1 123028:1 137394:1 137396:1 137403:1 137410:1 137436:1 137446:1 137459:1 137475:1 137511:1 137533:1 137553:1 137662:1 137741:1 137966:1 138456:1 138873:1 139130:1 139141:1 139142:1 139143:1 139535:1 139634:1 144711:1 144722:1 144773:1 144906:1 145067:1 145248:1 145557:1 145564:1 145572:1 145579:1 145589:1 145602:1  |EV| 
-0.094160625005004647 6517:1 46980:1 92945:1 137403:1 137413:1 137459:1 137558:1 137972:1 137973:1 137974:1 137975:1 137976:1 137977:1 137978:1 137979:1 139552:1 139634:1 140198:1 142149:1 143671:1 144173:1 144711:1 144722:1 144767:1 144884:1 145038:1 145174:1 145562:1 145564:1 145572:1 145579:1 145589:1 145602:1  |EV| 
-0.10000000000000001 16832:1 58248:1 105851:1 137394:1 137396:1 137403:1 137447:1 137475:1 137699:1 138616:1 138617:1 138618:1 138619:1 139535:1 139634:1 143671:1 144020:1 144711:1 144722:1 144744:1 144884:1 145022:1 145174:1 145557:1 145569:1 145572:1 145579:1 145589:1 145602:1  |EV| 
-0.10000000000000001 26880:1 69576:1 119352:1 137403:1 137436:1 137447:1 137475:1 137511:1 137966:1 137967:1 139065:1 139535:1 139634:1 142265:1 143671:1 144020:1 144711:1 144722:1 144736:1 144910:1 145022:1 145208:1 145562:1 145564:1 145572:1 145578:1 145579:1 145589:1 145602:1  |EV| 
-0.10000000000000001 30517:1 73828:1 124429:1 137394:1 137396:1 137403:1 137436:1 137459:1 137475:1 137511:1 137533:1 137553:1 137741:1 137966:1 139130:1 139141:1 139142:1 139143:1 139535:1 139634:1 144711:1 144722:1 144735:1 144906:1 145034:1 145174:1 145557:1 145564:1 145572:1 145579:1 145589:1 145602:1  |EV| 
-0.10000000000000001 7623:1 48117:1 84551:1 139569:1 139635:1 140212:1 144676:1 144678:1 144696:1 144708:1 144722:1 144723:1 144902:1 145019:1 145167:1 145557:1 145570:1 145572:1 145579:1 145599:1 145602:1  |EV| 
-0.01396761874423237 18163:1 59627:1 84551:1 139601:1 139635:1 139642:1 144676:1 144678:1 144696:1 144708:1 144722:1 144723:1 144902:1 145019:1 145167:1 145560:1 145570:1 145572:1 145579:1 145581:1 145599:1 145602:1  |EV| 
-0.013983350993168728 19105:1 60699:1 84551:1 139601:1 139635:1 139642:1 144676:1 144678:1 144696:1 144708:1 144722:1 144723:1 144902:1 145019:1 145167:1 145560:1 145570:1 145572:1 145579:1 145581:1 145599:1 145602:1  |EV| 
-0.013409863724944921 8141:1 80216:1 85766:1 137398:1 139534:1 139635:1 139643:1 144676:1 144678:1 144696:1 144709:1 144722:1 144723:1 144874:1 145019:1 145169:1 145559:1 145570:1 145572:1 145579:1 145599:1 145602:1  |EV| 
-0.013553409583549491 19014:1 60597:1 85766:1 137398:1 139534:1 139635:1 139643:1 144676:1 144678:1 144696:1 144709:1 144722:1 144723:1 144874:1 145019:1 145169:1 145559:1 145570:1 145572:1 145579:1 145599:1 145602:1  |EV| 
0.17529469029694628 26673:1 69321:1 119074:1 137394:1 137403:1 137436:1 137447:1 137475:1 137511:1 137580:1 137966:1 137967:1 139065:1 139535:1 139634:1 142143:1 143671:1 144020:1 144711:1 144722:1 144767:1 144906:1 145022:1 145174:1 145562:1 145564:1 145572:1 145579:1 145589:1 145602:1  |EV| 
0.4093626124250781 18017:1 59472:1 107090:1 137394:1 137395:1 137396:1 137403:1 137407:1 137413:1 137436:1 137440:1 137511:1 137513:1 137607:1 137703:1 137717:1 137767:1 138523:1 138668:1 138669:1 138670:1 139535:1 139634:1 143011:1 143012:1 144692:1 144711:1 144722:1 144730:1 144897:1 145034:1 145191:1 145559:1 145564:1 145572:1 145579:1 145589:1 145602:1  |EV| 
0.16819191351373453 31781:1 75357:1 126349:1 137394:1 137396:1 137403:1 137404:1 137411:1 137413:1 137436:1 137459:1 137482:1 137511:1 137760:1 137943:1 137975:1 138020:1 138022:1 138107:1 138630:1 138722:1 138762:1 138811:1 138814:1 139149:1 139150:1 139151:1 139152:1 139153:1 139154:1 139155:1 139157:1 139172:1 139565:1 139634:1 143671:1 144226:1 144714:1 144721:1 144797:1 144935:1 145048:1 145280:1 145560:1 145564:1 145572:1 145579:1 145581:1 145589:1 145602:1  |EV| 
0.096786496479216513 7095:1 47585:1 93480:1 137394:1 137403:1 137436:1 137482:1 137511:1 137558:1 137839:1 138036:1 138037:1 138038:1 139535:1 139634:1 139703:1 142173:1 143671:1 144020:1 144711:1 144722:1 144758:1 144873:1 145022:1 145174:1 145561:1 145564:1 145572:1 145579:1 145583:1 145589:1 145596:1 145602:1  |EV| 
-0.10000000000000001 18017:1 59472:1 107089:1 137394:1 137395:1 137396:1 137403:1 137407:1 137413:1 137436:1 137440:1 137511:1 137513:1 137607:1 137703:1 137717:1 137767:1 138523:1 138668:1 138669:1 138670:1 139535:1 139634:1 143011:1 143012:1 144692:1 144711:1 144722:1 144730:1 144910:1 145057:1 145256:1 145559:1 145564:1 145572:1 145579:1 145589:1 145602:1  |EV| 
-0.014700577919076632 9079:1 49655:1 95753:1 137394:1 137395:1 137396:1 137403:1 137407:1 137411:1 137425:1 137553:1 137746:1 137786:1 138168:1 138175:1 138176:1 138189:1 139535:1 139634:1 140436:1 142706:1 143671:1 144020:1 144711:1 144722:1 144748:1 144892:1 145038:1 145174:1 145559:1 145564:1 145572:1 145579:1 145589:1 145590:1 145602:1  |EV| 
-0.017485695732634969 28077:1 70984:1 120995:1 137394:1 137396:1 137425:1 137726:1 137729:1 137733:1 137734:1 137767:1 137829:1 138110:1 138214:1 138948:1 139107:1 139534:1 139635:1 144676:1 144678:1 144696:1 144709:1 144722:1 144723:1 144887:1 145019:1 145176:1 145559:1 145570:1 145572:1 145579:1 145599:1 145602:1  |EV| 
-0.051810273485137948 27992:1 70894:1 120887:1 137396:1 137403:1 137407:1 137411:1 137413:1 137441:1 138490:1 138674:1 139070:1 139092:1 139093:1 139102:1 139103:1 139104:1 139535:1 139634:1 144715:1 144722:1 144743:1 144914:1 145020:1 145184:1 145561:1 145569:1 145572:1 145579:1 145589:1 145590:1 145602:1  |EV| 
-0.10000000000000001 30938:1 74320:1 125385:1 137394:1 137396:1 137403:1 137404:1 137411:1 137413:1 137436:1 137459:1 137482:1 137511:1 137760:1 137943:1 137975:1 138020:1 138022:1 138107:1 138630:1 138722:1 138762:1 138811:1 138814:1 139149:1 139150:1 139151:1 139152:1 139153:1 139154:1 139155:1 139157:1 139172:1 139634:1 144705:1 144713:1 144722:1 144797:1 144871:1 145019:1 145236:1 145560:1 145564:1 145577:1 145579:1 145581:1 145589:1 145610:1  |EV| 
0.31838556754529646 2833:1 42913:1 88266:1 137475:1 137692:1 139548:1 139635:1 139781:1 144676:1 144678:1 144696:1 144708:1 144722:1 144723:1 144882:1 145019:1 145167:1 145557:1 145570:1 145572:1 145579:1 145599:1 145602:1  |EV| 
-0.10000000000000001 10776:1 51513:1 97741:1 137475:1 137925:1 137966:1 139553:1 139589:1 139635:1 144676:1 144678:1 144696:1 144708:1 144722:1 144723:1 144872:1 145019:1 145167:1 145557:1 145570:1 145572:1 145579:1 145599:1 145602:1  |EV| 
-0.10000000000000001 33993:1 77790:1 84551:1 139551:1 139635:1 144676:1 144678:1 144696:1 144708:1 144722:1 144723:1 144902:1 145019:1 145167:1 145561:1 145570:1 145572:1 145579:1 145599:1 145602:1  |EV| 
-0.10000000000000001 26384:1 69021:1 84551:1 139551:1 139635:1 144676:1 144678:1 144696:1 144708:1 144722:1 144723:1 144902:1 145019:1 145167:1 145557:1 145570:1 145572:1 145579:1 145582:1 145599:1 145602:1  |EV| 
-0.10000000000000001 36095:1 80095:1 84551:1 139551:1 139635:1 144676:1 144678:1 144696:1 144708:1 144722:1 144723:1 144902:1 145019:1 145167:1 145557:1 145570:1 145572:1 145579:1 145582:1 145599:1 145602:1  |EV| 
-0.018161618532848409 4981:1 45258:1 91052:1 137893:1 139559:1 139634:1 143671:1 144160:1 144711:1 144722:1 144734:1 144877:1 145048:1 145185:1 145557:1 145569:1 145572:1 145589:1 145602:1  |EV| 
0.24647802416622611 3807:1 43986:1 89656:1 137396:1 137398:1 137407:1 137410:1 137411:1 137412:1 137413:1 137429:1 137436:1 137441:1 137447:1 137448:1 137511:1 137631:1 137738:1 137739:1 137740:1 137741:1 137742:1 137743:1 137744:1 137745:1 137746:1 137747:1 137748:1 137761:1 137762:1 139634:1 144705:1 144713:1 144722:1 144786:1 144871:1 145019:1 145236:1 145559:1 145564:1 145577:1 145579:1 145589:1 145610:1  |EV| 
0.42891659006495719 21018:1 62804:1 111451:1 137396:1 137398:1 137407:1 137411:1 137413:1 137421:1 137447:1 137594:1 137643:1 137769:1 137947:1 138227:1 138365:1 138761:1 138767:1 138795:1 139634:1 142349:1 144705:1 144713:1 144722:1 144778:1 144871:1 145019:1 145175:1 145559:1 145564:1 145577:1 145579:1 145589:1 145610:1  |EV| 
0.36408553715986913 18547:1 60046:1 107798:1 137394:1 137395:1 137396:1 137403:1 137440:1 137607:1 137703:1 137717:1 137767:1 139535:1 139634:1 143011:1 143012:1 144692:1 144711:1 144722:1 144767:1 144910:1 145034:1 145208:1 145559:1 145564:1 145572:1 145579:1 145589:1 145602:1  |EV| 
0.1192358652664578 31920:1 75472:1 126535:1 137394:1 137396:1 137403:1 137404:1 137411:1 137413:1 137436:1 137459:1 137482:1 137511:1 137760:1 137943:1 137975:1 138020:1 138022:1 138107:1 138630:1 138722:1 138762:1 138811:1 138814:1 139149:1 139150:1 139151:1 139152:1 139153:1 139154:1 139155:1 139565:1 139634:1 139650:1 142138:1 143671:1 144226:1 144714:1 144721:1 144791:1 144942:1 145048:1 145280:1 145560:1 145564:1 145572:1 145579:1 145581:1 145589:1 145602:1  |EV| 
-0.10000000000000001 4087:1 44296:1 90000:1 137396:1 137398:1 137403:1 137407:1 137410:1 137411:1 137412:1 137413:1 137429:1 137436:1 137441:1 137447:1 137448:1 137511:1 137631:1 137738:1 137739:1 137740:1 137741:1 137742:1 137743:1 137744:1 137745:1 137746:1 137747:1 137748:1 137761:1 137762:1 139535:1 139634:1 143671:1 144020:1 144714:1 144721:1 144786:1 144942:1 145022:1 145280:1 145559:1 145564:1 145572:1 145579:1 145589:1 145602:1  |EV| 
-0.10000000000000001 18547:1 60046:1 107799:1 137394:1 137395:1 137396:1 137403:1 137407:1 137413:1 137436:1 137440:1 137511:1 137607:1 137703:1 137717:1 137767:1 138523:1 138670:1 139535:1 139634:1 143011:1 143012:1 144692:1 144710:1 144722:1 144767:1 144897:1 145058:1 145217:1 145559:1 145564:1 145572:1 145579:1 145589:1 145602:1  |EV| 
-0.01249095065803139 18530:1 60025:1 107771:1 137394:1 137395:1 137396:1 137403:1 137407:1 137440:1 137607:1 137703:1 137717:1 137767:1 139634:1 143011:1 143012:1 144692:1 144705:1 144712:1 144722:1 144767:1 144871:1 145019:1 145187:1 145559:1 145564:1 145577:1 145579:1 145589:1 145610:1  |EV| 
-0.0067020097919201042 29827:1 73037:1 123418:1 137396:1 137403:1 137529:1 137584:1 137701:1 137975:1 138494:1 139634:1 142215:1 144705:1 144712:1 144722:1 144731:1 144871:1 145019:1 145173:1 145562:1 145569:1 145577:1 145579:1 145589:1 145597:1 145610:1  |EV| 
0.47386421861805406 12824:1 61312:1 109461:1 137441:1 139551:1 139635:1 144676:1 144678:1 144696:1 144708:1 144722:1 144723:1 144877:1 145019:1 145167:1 145557:1 145570:1 145572:1 145579:1 145582:1 145599:1 145602:1  |EV| 
0.40643126145201025 10460:1 51180:1 97416:1 137475:1 137966:1 138295:1 139542:1 139587:1 139635:1 144676:1 144678:1 144696:1 144708:1 144722:1 144723:1 144872:1 145019:1 145167:1 145557:1 145570:1 145572:1 145579:1 145599:1 145602:1  |EV| 
0.60000000000000009 26600:1 69243:1 85467:1 137396:1 139551:1 139635:1 144676:1 144678:1 144696:1 144708:1 144722:1 144723:1 144877:1 145019:1 145167:1 145557:1 145570:1 145572:1 145578:1 145579:1 145599:1 145602:1  |EV| 
-0.10000000000000001 16858:1 58275:1 87858:1 137475:1 139598:1 139635:1 139752:1 144676:1 144678:1 144696:1 144708:1 144722:1 144723:1 144877:1 145019:1 145167:1 145557:1 145570:1 145572:1 145579:1 145599:1 145602:1  |EV| 
-0.086329095098111555 10652:1 51382:1 97613:1 138288:1 139551:1 139635:1 139642:1 144676:1 144678:1 144696:1 144708:1 144722:1 144723:1 144877:1 145019:1 145167:1 145560:1 145570:1 145572:1 145579:1 145581:1 145599:1 145602:1  |EV| 
-0.083654515595135995 33439:1 77153:1 128333:1 137657:1 139551:1 139635:1 139642:1 144676:1 144678:1 144696:1 144708:1 144722:1 144723:1 144877:1 145019:1 145167:1 145560:1 145570:1 145572:1 145579:1 145581:1 145599:1 145602:1  |EV| 
-0.066385358243394518 3909:1 54113:1 135424:1 139455:1 139551:1 139635:1 139642:1 144676:1 144678:1 144696:1 144708:1 144722:1 144723:1 144877:1 145019:1 145167:1 145560:1 145570:1 145572:1 145579:1 145581:1 145599:1 145602:1  |EV| 
-0.073063735492118004 37689:1 81908:1 100295:1 137976:1 139568:1 139635:1 140634:1 144676:1 144678:1 144696:1 144708:1 144722:1 144723:1 144877:1 145019:1 145167:1 145562:1 145570:1 145572:1 145578:1 145579:1 145599:1 145602:1  |EV| 
0.34104827736592247 8321:1 48857:1 94769:1 137394:1 137403:1 137407:1 137475:1 137525:1 137623:1 138116:1 138136:1 138137:1 138165:1 139634:1 142291:1 144705:1 144713:1 144722:1 144753:1 144871:1 145019:1 145175:1 145559:1 145564:1 145577:1 145579:1 145589:1 145610:1  |EV| 
0.33100689022500018 7904:1 48401:1 94219:1 137394:1 137403:1 137407:1 137475:1 137525:1 137623:1 137829:1 138116:1 138136:1 138137:1 138165:1 139634:1 144705:1 144713:1 144722:1 144766:1 144871:1 145019:1 145175:1 145559:1 145564:1 145577:1 145579:1 145589:1 145610:1  |EV| 
0.27799200716095701 20291:1 62011:1 110500:1 137396:1 137403:1 137407:1 137436:1 137447:1 137475:1 137511:1 137582:1 138798:1 138799:1 138800:1 138801:1 139634:1 144705:1 144713:1 144722:1 144766:1 144871:1 145019:1 145175:1 145559:1 145564:1 145577:1 145579:1 145589:1 145610:1  |EV| 
-0.084470710914591893 7109:1 47599:1 93491:1 137396:1 137403:1 137410:1 137413:1 137436:1 137441:1 137447:1 137475:1 137476:1 137511:1 137746:1 137983:1 137987:1 137988:1 137989:1 137990:1 137991:1 137992:1 138004:1 138064:1 138065:1 138074:1 138091:1 139634:1 144705:1 144713:1 144722:1 144770:1 144871:1 145019:1 145225:1 145561:1 145564:1 145577:1 145579:1 145589:1 145590:1 145610:1  |EV| 
-0.10000000000000001 8321:1 48857:1 94910:1 137394:1 137525:1 137623:1 138116:1 138136:1 139634:1 142203:1 144705:1 144713:1 144722:1 144737:1 144871:1 145019:1 145198:1 145559:1 145564:1 145577:1 145579:1 145589:1 145610:1  |EV| 
0.14031141552248957 34318:1 78207:1 84903:1 137403:1 139538:1 139634:1 139650:1 142138:1 142140:1 142576:1 143671:1 144022:1 144690:1 144711:1 144722:1 144734:1 144902:1 145022:1 145185:1 145562:1 145569:1 145572:1 145578:1 145579:1 145589:1 145602:1  |EV| 
-0.0491730181740321 8658:1 49212:1 95231:1 137394:1 137403:1 137407:1 137464:1 137475:1 137525:1 137623:1 137725:1 137726:1 137829:1 138062:1 138116:1 138136:1 138137:1 138165:1 138166:1 139634:1 142662:1 144705:1 144713:1 144722:1 144741:1 144871:1 145019:1 145175:1 145559:1 145569:1 145577:1 145579:1 145589:1 145610:1  |EV| 
-0.10000000000000001 4693:1 44950:1 90738:1 137396:1 137403:1 137411:1 137475:1 137482:1 137567:1 137808:1 137825:1 137829:1 137830:1 137831:1 139634:1 142143:1 144705:1 144713:1 144722:1 144771:1 144871:1 145019:1 145175:1 145561:1 145564:1 145577:1 145579:1 145589:1 145610:1  |EV| 
-0.10000000000000001 20209:1 77541:1 84551:1 139551:1 139635:1 139642:1 144676:1 144678:1 144696:1 144708:1 144722:1 144723:1 144902:1 145019:1 145167:1 145559:1 145570:1 145572:1 145579:1 145599:1 145602:1  |EV| 
-0.10000000000000001 36512:1 80570:1 84551:1 139551:1 139635:1 139642:1 144676:1 144678:1 144696:1 144708:1 144722:1 144723:1 144902:1 145019:1 145167:1 145559:1 145570:1 145572:1 145579:1 145599:1 145602:1  |EV| 
0.19617985155454237 14393:1 55343:1 102662:1 137396:1 137403:1 137411:1 137413:1 137464:1 137475:1 137503:1 137643:1 137706:1 137725:1 137726:1 137792:1 137924:1 138487:1 138488:1 138489:1 138490:1 138491:1 138492:1 138493:1 138496:1 138497:1 139634:1 144705:1 144713:1 144722:1 144770:1 144871:1 145019:1 145225:1 145559:1 145564:1 145577:1 145579:1 145589:1 145610:1  |EV| 
0.44049398186364036 9625:1 50250:1 97066:1 137396:1 137398:1 137403:1 137430:1 137440:1 137738:1 137746:1 137786:1 138218:1 138219:1 139634:1 144679:1 144705:1 144712:1 144722:1 144736:1 144871:1 145019:1 145187:1 145557:1 145564:1 145577:1 145579:1 145585:1 145589:1 145595:1 145610:1  |EV| 
0.40432315991801787 7272:1 47764:1 93630:1 137396:1 137403:1 137407:1 137411:1 137420:1 137475:1 138027:1 138028:1 139634:1 142143:1 142326:1 144705:1 144713:1 144722:1 144746:1 144871:1 145019:1 145198:1 145559:1 145564:1 145577:1 145579:1 145589:1 145610:1  |EV| 
0.13383231545998428 35024:1 78968:1 131153:1 137396:1 137403:1 137410:1 137411:1 137475:1 137726:1 137729:1 137732:1 137733:1 137735:1 137913:1 138213:1 138214:1 139311:1 139634:1 144705:1 144713:1 144722:1 144740:1 144871:1 145019:1 145175:1 145557:1 145564:1 145577:1 145579:1 145589:1 145610:1  |EV| 
0.53403432140898099 2510:1 42572:1 87822:1 137396:1 137397:1 137403:1 137411:1 137442:1 137604:1 137605:1 137606:1 139634:1 144705:1 144713:1 144722:1 144772:1 144871:1 145019:1 145198:1 145557:1 145564:1 145577:1 145579:1 145589:1 145610:1  |EV| 
-0.035001670423831018 20992:1 62768:1 111408:1 137396:1 137407:1 137411:1 137413:1 137447:1 137594:1 137643:1 137769:1 137947:1 138365:1 138767:1 139634:1 144705:1 144713:1 144722:1 144766:1 144871:1 145019:1 145175:1 145561:1 145564:1 145577:1 145579:1 145589:1 145610:1  |EV| 
-0.016414007096259776 34630:1 78543:1 130487:1 137394:1 137396:1 137403:1 137413:1 137475:1 137596:1 137767:1 138101:1 139539:1 139634:1 144688:1 144717:1 144722:1 144772:1 144902:1 145021:1 145210:1 145557:1 145564:1 145572:1 145579:1 145582:1 145589:1 145602:1  |EV| 
0.12137219261244343 23675:1 65897:1 115112:1 137396:1 137398:1 137403:1 137410:1 137440:1 137525:1 137621:1 138858:1 138951:1 138952:1 139565:1 139634:1 139650:1 142138:1 143671:1 144226:1 144714:1 144721:1 144753:1 144895:1 145048:1 145183:1 145559:1 145564:1 145572:1 145579:1 145589:1 145602:1  |EV| 
-0.024860260425580247 7006:1 47496:1 93403:1 137396:1 137403:1 137411:1 137475:1 138027:1 138028:1 139634:1 142335:1 144705:1 144713:1 144722:1 144755:1 144871:1 145019:1 145198:1 145559:1 145564:1 145577:1 145579:1 145589:1 145610:1  |EV| 
-0.069998961472159962 29136:1 72249:1 122527:1 137396:1 137398:1 137441:1 138486:1 139565:1 139635:1 139642:1 144676:1 144678:1 144696:1 144709:1 144722:1 144723:1 144886:1 145019:1 145169:1 145559:1 145570:1 145572:1 145579:1 145599:1 145602:1  |EV| 
-0.097721419974177298 19648:1 78845:1 130959:1 138946:1 139578:1 139635:1 139642:1 144676:1 144678:1 144696:1 144708:1 144722:1 144723:1 144877:1 145019:1 145167:1 145559:1 145570:1 145572:1 145579:1 145599:1 145602:1  |EV| 
-0.07995658336600156 29754:1 72961:1 84551:1 139538:1 139569:1 139635:1 140730:1 141584:1 144676:1 144678:1 144696:1 144699:1 144701:1 144708:1 144722:1 144723:1 144902:1 145019:1 145167:1 145559:1 145570:1 145572:1 145579:1 145599:1 145602:1  |EV| 
-0.094491000415133392 9022:1 49594:1 84551:1 139551:1 139635:1 139642:1 144676:1 144678:1 144696:1 144708:1 144722:1 144723:1 144902:1 145019:1 145167:1 145559:1 145570:1 145572:1 145579:1 145599:1 145602:1  |EV| 
0.071190723958531502 29709:1 72909:1 123280:1 137394:1 137396:1 137410:1 137411:1 137413:1 137475:1 137563:1 137594:1 137640:1 138450:1 138841:1 139139:1 139140:1 139145:1 139634:1 144705:1 144713:1 144722:1 144783:1 144871:1 145019:1 145175:1 145561:1 145564:1 145577:1 145579:1 145589:1 145610:1  |EV| 
0.13595379585731507 29452:1 72621:1 122976:1 137394:1 137396:1 137410:1 137411:1 137413:1 137475:1 137563:1 137594:1 137640:1 138450:1 138841:1 139139:1 139140:1 139634:1 144705:1 144713:1 144722:1 144743:1 144871:1 145019:1 145175:1 145561:1 145564:1 145577:1 145579:1 145589:1 145610:1  |EV| 
0.010450606936997217 5458:1 45768:1 91597:1 137394:1 137396:1 137413:1 137467:1 137714:1 137906:1 137907:1 137908:1 137918:1 137923:1 139634:1 142182:1 144705:1 144713:1 144722:1 144771:1 144871:1 145019:1 145175:1 145557:1 145564:1 145577:1 145579:1 145589:1 145610:1  |EV| 
0.044765772195131011 30374:1 73649:1 124189:1 137394:1 137396:1 137410:1 137411:1 137413:1 137475:1 137563:1 137594:1 137630:1 137640:1 138450:1 138823:1 138841:1 139139:1 139140:1 139145:1 139147:1 139634:1 144705:1 144713:1 144722:1 144777:1 144871:1 145019:1 145225:1 145561:1 145564:1 145577:1 145579:1 145589:1 145610:1  |EV| 
0.14345957471595006 16971:1 58394:1 105997:1 137396:1 137407:1 137411:1 137413:1 137475:1 137713:1 138547:1 138622:1 138623:1 138625:1 138626:1 138627:1 139634:1 144705:1 144713:1 144722:1 144766:1 144871:1 145019:1 145175:1 145561:1 145568:1 145577:1 145578:1 145579:1 145585:1 145589:1 145610:1  |EV| 
-0.064068264672307251 196:1 40239:1 84761:1 137396:1 137411:1 137413:1 137420:1 137421:1 137422:1 137423:1 137424:1 137425:1 137426:1 137451:1 139634:1 142154:1 144705:1 144713:1 144722:1 144771:1 144871:1 145019:1 145175:1 145557:1 145564:1 145577:1 145579:1 145589:1 145610:1  |EV| 
-0.0049996053975867455 7356:1 47848:1 93699:1 137396:1 137410:1 137413:1 137441:1 137475:1 137746:1 137990:1 137991:1 137992:1 138074:1 138091:1 139634:1 144705:1 144713:1 144722:1 144747:1 144871:1 145019:1 145175:1 145561:1 145564:1 145577:1 145579:1 145589:1 145610:1  |EV| 
-0.070635382138609745 21180:1 62981:1 112339:1 137398:1 137403:1 137413:1 137421:1 137423:1 137453:1 138577:1 138865:1 138866:1 139551:1 139634:1 143671:1 144101:1 144714:1 144721:1 144772:1 144901:1 145022:1 145209:1 145560:1 145569:1 145572:1 145579:1 145581:1 145589:1 145602:1  |EV| 
-0.085564619303786518 9230:1 49826:1 95960:1 137396:1 137410:1 137411:1 137413:1 137421:1 137475:1 137553:1 137570:1 137602:1 137775:1 137805:1 138190:1 138210:1 138212:1 138213:1 138214:1 139634:1 144705:1 144713:1 144722:1 144761:1 144871:1 145019:1 145225:1 145561:1 145564:1 145577:1 145579:1 145589:1 145610:1  |EV| 
-0.10000000000000001 4872:1 45140:1 90927:1 137394:1 137396:1 137403:1 137410:1 137456:1 137492:1 137530:1 137909:1 137910:1 137911:1 137912:1 137913:1 139634:1 144705:1 144713:1 144722:1 144771:1 144871:1 145019:1 145175:1 145561:1 145564:1 145577:1 145579:1 145589:1 145610:1  |EV| 
-0.047959231493284828 2157:1 42246:1 84551:1 139540:1 139542:1 139635:1 139781:1 144676:1 144678:1 144696:1 144697:1 144701:1 144708:1 144722:1 144723:1 144902:1 145019:1 145167:1 145559:1 145570:1 145572:1 145579:1 145599:1 145602:1  |EV| 
-0.017294414770131532 13030:1 53879:1 84551:1 139539:1 139635:1 139642:1 144676:1 144678:1 144696:1 144708:1 144722:1 144723:1 144902:1 145019:1 145167:1 145561:1 145570:1 145572:1 145579:1 145583:1 145599:1 145602:1  |EV| 
-0.06110229527464623 38515:1 82860:1 84551:1 139564:1 139631:1 139635:1 139642:1 139643:1 144676:1 144678:1 144696:1 144701:1 144708:1 144722:1 144723:1 144902:1 145019:1 145167:1 145559:1 145570:1 145572:1 145579:1 145599:1 145602:1  |EV| 
-0.031179128248434478 28528:1 71507:1 84551:1 139551:1 139635:1 139642:1 144676:1 144678:1 144681:1 144685:1 144696:1 144708:1 144722:1 144723:1 144902:1 145019:1 145167:1 145559:1 145570:1 145572:1 145579:1 145599:1 145602:1  |EV| 
0.4548034891046665 9247:1 49847:1 95981:1 137396:1 137410:1 137411:1 137570:1 137602:1 139634:1 142138:1 144705:1 144713:1 144722:1 144737:1 144871:1 145019:1 145198:1 145557:1 145564:1 145577:1 145579:1 145589:1 145610:1  |EV| 
0.29515624389879541 7240:1 47732:1 93601:1 137394:1 137396:1 137403:1 137410:1 137413:1 137431:1 137457:1 137492:1 137701:1 138104:1 138108:1 138109:1 139634:1 144705:1 144713:1 144722:1 144771:1 144871:1 145019:1 145175:1 145561:1 145564:1 145577:1 145579:1 145589:1 145610:1  |EV| 
0.32964462824274993 1419:1 46327:1 92191:1 137396:1 137407:1 137421:1 137447:1 137835:1 137947:1 137948:1 137949:1 139634:1 144705:1 144713:1 144722:1 144772:1 144871:1 145019:1 145198:1 145562:1 145564:1 145577:1 145579:1 145589:1 145610:1  |EV| 
0.49700106765927382 10514:1 51236:1 123451:1 137396:1 137403:1 137446:1 137459:1 137966:1 138456:1 139634:1 144705:1 144713:1 144722:1 144755:1 144871:1 145019:1 145198:1 145562:1 145564:1 145577:1 145579:1 145589:1 145610:1  |EV| 
0.10249905970348089 35670:1 79662:1 131964:1 137396:1 137492:1 139358:1 139359:1 139360:1 139634:1 144705:1 144713:1 144722:1 144737:1 144871:1 145019:1 145198:1 145557:1 145564:1 145577:1 145579:1 145589:1 145610:1  |EV| 
-0.10000000000000001 29613:1 72801:1 123162:1 137394:1 137396:1 137403:1 137446:1 137459:1 137966:1 138456:1 138873:1 139634:1 144705:1 144713:1 144722:1 144772:1 144871:1 145019:1 145198:1 145562:1 145564:1 145577:1 145579:1 145589:1 145590:1 145610:1  |EV| 
-0.044918996436775362 38001:1 82248:1 134845:1 137394:1 137396:1 137398:1 137403:1 137815:1 138537:1 138538:1 139634:1 142138:1 144705:1 144713:1 144722:1 144745:1 144871:1 145019:1 145198:1 145560:1 145564:1 145577:1 145579:1 145581:1 145589:1 145590:1 145610:1  |EV| 
-0.10000000000000001 35500:1 79488:1 131800:1 137396:1 137410:1 137431:1 139634:1 142138:1 144705:1 144713:1 144722:1 144733:1 144871:1 145019:1 145198:1 145562:1 145564:1 145577:1 145579:1 145589:1 145590:1 145610:1  |EV| 
-0.10000000000000001 7438:1 47930:1 93777:1 137396:1 137403:1 137461:1 137573:1 138047:1 138086:1 138087:1 139634:1 142349:1 144705:1 144713:1 144722:1 144746:1 144871:1 145019:1 145198:1 145557:1 145564:1 145577:1 145578:1 145579:1 145589:1 145590:1 145610:1  |EV| 
-0.082196987123716911 3684:1 43856:1 86967:1 137396:1 137398:1 139634:1 142138:1 144705:1 144713:1 144722:1 144742:1 144871:1 145019:1 145198:1 145560:1 145564:1 145577:1 145579:1 145581:1 145589:1 145610:1  |EV| 
-0.075188128837674631 30060:1 73285:1 123701:1 137403:1 139058:1 139534:1 139634:1 142360:1 144711:1 144722:1 144724:1 144877:1 145022:1 145185:1 145559:1 145569:1 145572:1 145579:1 145602:1  |EV| 
0.22053362437925436 5177:1 45465:1 91277:1 137394:1 137920:1 137921:1 139634:1 142138:1 144705:1 144713:1 144722:1 144733:1 144871:1 145019:1 145198:1 145559:1 145564:1 145577:1 145579:1 145589:1 145590:1 145610:1  |EV| 
0.30875641635737888 34340:1 78229:1 129876:1 137396:1 137407:1 137956:1 138523:1 138918:1 139267:1 139268:1 139634:1 144705:1 144713:1 144722:1 144746:1 144871:1 145019:1 145198:1 145559:1 145564:1 145577:1 145579:1 145589:1 145590:1 145610:1  |EV| 
0.43587605476638214 26582:1 69224:1 85999:1 137394:1 137403:1 139634:1 142138:1 142219:1 144705:1 144713:1 144722:1 144742:1 144871:1 145019:1 145198:1 145557:1 145564:1 145577:1 145579:1 145589:1 145610:1  |EV| 
0.60000000000000009 3864:1 44052:1 86967:1 137396:1 137398:1 139634:1 142140:1 144705:1 144713:1 144722:1 144742:1 144871:1 145019:1 145198:1 145560:1 145564:1 145577:1 145579:1 145581:1 145589:1 145610:1  |EV| 
0.3461075292078859 34658:1 78573:1 130546:1 137396:1 137407:1 137956:1 138374:1 138523:1 138918:1 139262:1 139267:1 139268:1 139634:1 144705:1 144713:1 144722:1 144747:1 144871:1 145019:1 145175:1 145559:1 145564:1 145577:1 145579:1 145589:1 145590:1 145610:1  |EV| 
-0.10000000000000001 1438:1 41483:1 86460:1 137394:1 137396:1 137420:1 137457:1 137465:1 137466:1 137467:1 139634:1 144705:1 144713:1 144722:1 144772:1 144871:1 145019:1 145198:1 145557:1 145564:1 145577:1 145579:1 145589:1 145610:1  |EV| 
-0.095675035636510988 22343:1 64543:1 113614:1 137396:1 137407:1 137447:1 137947:1 138893:1 139634:1 144705:1 144713:1 144722:1 144755:1 144871:1 145019:1 145198:1 145560:1 145566:1 145577:1 145579:1 145581:1 145589:1 145590:1 145610:1  |EV| 
-0.0060913029653428203 12125:1 52938:1 99572:1 137430:1 137782:1 139634:1 142138:1 144705:1 144712:1 144722:1 144734:1 144871:1 145019:1 145173:1 145559:1 145564:1 145577:1 145579:1 145589:1 145610:1  |EV| 
-0.10000000000000001 4960:1 49079:1 95040:1 137396:1 137935:1 138130:1 139634:1 142138:1 144705:1 144713:1 144722:1 144733:1 144871:1 145019:1 145198:1 145560:1 145564:1 145577:1 145579:1 145581:1 145589:1 145610:1  |EV| 
-0.082196987123715121 16331:1 57608:1 86967:1 137396:1 137398:1 139634:1 142138:1 144705:1 144713:1 144722:1 144742:1 144871:1 145019:1 145198:1 145560:1 145564:1 145577:1 145579:1 145581:1 145589:1 145610:1  |EV| 
-0.036867419865894389 10943:1 51684:1 108017:1 137703:1 137767:1 139551:1 139635:1 139642:1 144676:1 144678:1 144696:1 144708:1 144722:1 144723:1 144882:1 145019:1 145167:1 145559:1 145570:1 145572:1 145579:1 145599:1 145602:1  |EV| 
-0.057795790451438039 10943:1 51684:1 101529:1 137403:1 137703:1 139551:1 139635:1 139642:1 144676:1 144678:1 144696:1 144708:1 144722:1 144723:1 144882:1 145019:1 145167:1 145559:1 145570:1 145572:1 145579:1 145599:1 145602:1  |EV| 
-0.012367028229602541 20209:1 61922:1 110398:1 137410:1 137746:1 138492:1 138759:1 139551:1 139635:1 139642:1 144676:1 144678:1 144696:1 144708:1 144722:1 144723:1 144913:1 145019:1 145167:1 145559:1 145570:1 145572:1 145579:1 145599:1 145602:1  |EV| 
-0.041808067275571861 2663:1 42730:1 88060:1 137459:1 137562:1 137637:1 137638:1 139551:1 139635:1 139642:1 144676:1 144678:1 144696:1 144708:1 144722:1 144723:1 144913:1 145019:1 145167:1 145559:1 145570:1 145572:1 145579:1 145599:1 145602:1  |EV| 
-0.019544713160907102 1513:1 41559:1 84551:1 139537:1 139635:1 139642:1 144676:1 144678:1 144696:1 144708:1 144722:1 144723:1 144902:1 145019:1 145167:1 145561:1 145570:1 145572:1 145579:1 145599:1 145602:1  |EV| 
0.31359519199307767 1263:1 41308:1 86235:1 137396:1 137463:1 137464:1 139634:1 142236:1 142237:1 144679:1 144680:1 144689:1 144705:1 144713:1 144722:1 144733:1 144871:1 145019:1 145198:1 145557:1 145564:1 145577:1 145579:1 145589:1 145610:1  |EV| 
0.60000000000000009 27481:1 70311:1 97664:1 137396:1 137403:1 137440:1 139634:1 142138:1 144705:1 144713:1 144722:1 144733:1 144871:1 145019:1 145198:1 145562:1 145569:1 145577:1 145578:1 145579:1 145589:1 145610:1  |EV| 
0.60000000000000009 28026:1 70930:1 92711:1 137396:1 137403:1 139634:1 144705:1 144713:1 144722:1 144742:1 144871:1 145019:1 145198:1 145557:1 145564:1 145577:1 145578:1 145579:1 145589:1 145610:1  |EV| 
0.30147505387044632 6954:1 47444:1 93361:1 137396:1 137413:1 137668:1 138099:1 139634:1 144705:1 144713:1 144722:1 144738:1 144871:1 145019:1 145198:1 145562:1 145564:1 145577:1 145579:1 145589:1 145610:1  |EV| 
0.35657374067539782 19781:1 61420:1 109509:1 137396:1 137407:1 137975:1 138113:1 139634:1 144684:1 144705:1 144713:1 144722:1 144738:1 144871:1 145019:1 145198:1 145557:1 145564:1 145577:1 145579:1 145582:1 145589:1 145595:1 145610:1  |EV| 
-0.049037666927774913 17345:1 58783:1 106367:1 137396:1 137403:1 137440:1 137590:1 137685:1 137713:1 137784:1 137941:1 138369:1 138398:1 138632:1 139634:1 144705:1 144713:1 144722:1 144771:1 144871:1 145019:1 145175:1 145557:1 145564:1 145577:1 145578:1 145579:1 145589:1 145610:1  |EV| 
-0.016174744998560871 10792:1 51529:1 97757:1 137394:1 137396:1 137403:1 137411:1 137431:1 137440:1 137447:1 137475:1 137488:1 137664:1 137672:1 137798:1 137966:1 138281:1 138295:1 138296:1 139539:1 139634:1 144711:1 144722:1 144764:1 144915:1 145051:1 145172:1 145557:1 145564:1 145572:1 145579:1 145589:1 145602:1  |EV| 
-0.10000000000000001 10700:1 51434:1 97664:1 137396:1 137403:1 137440:1 139634:1 144705:1 144713:1 144722:1 144733:1 144871:1 145019:1 145198:1 145557:1 145564:1 145577:1 145578:1 145579:1 145589:1 145610:1  |EV| 
-0.06002546917388895 40023:1 84486:1 137359:1 137396:1 137403:1 137413:1 137430:1 137738:1 138693:1 139528:1 139529:1 139634:1 144705:1 144713:1 144722:1 144746:1 144871:1 145019:1 145198:1 145557:1 145564:1 145577:1 145578:1 145579:1 145584:1 145589:1 145595:1 145610:1  |EV| 
-0.10000000000000001 6630:1 47111:1 93069:1 137411:1 137717:1 139539:1 139634:1 139650:1 142138:1 143671:1 144032:1 144711:1 144722:1 144724:1 144902:1 145038:1 145185:1 145562:1 145564:1 145572:1 145589:1 145602:1  |EV| 
-0.0091808658211900967 39568:1 84012:1 136667:1 137394:1 137396:1 137403:1 137410:1 137436:1 137511:1 137606:1 137703:1 137726:1 137729:1 137732:1 137733:1 137735:1 137738:1 137790:1 137935:1 138002:1 138487:1 138918:1 139512:1 139526:1 139527:1 139528:1 139529:1 139530:1 139627:1 139634:1 139971:1 142318:1 143725:1 144666:1 144690:1 144715:1 144722:1 144788:1 144881:1 145024:1 145193:1 145559:1 145564:1 145572:1 145579:1 145589:1 145602:1  |EV| 
-0.024570230330256956 6482:1 54046:1 134305:1 137446:1 137964:1 139419:1 139551:1 139635:1 144676:1 144678:1 144696:1 144709:1 144722:1 144723:1 144881:1 145019:1 145169:1 145561:1 145570:1 145572:1 145599:1 145602:1  |EV| 
-0.077341196141441332 34834:1 78763:1 130839:1 137558:1 137563:1 139604:1 139635:1 139739:1 144676:1 144678:1 144696:1 144709:1 144722:1 144723:1 144890:1 145019:1 145169:1 145562:1 145570:1 145572:1 145579:1 145599:1 145602:1  |EV| 
0.16926212646692873 6880:1 47370:1 93295:1 137396:1 137403:1 137413:1 137436:1 137441:1 137447:1 137475:1 137476:1 137511:1 137746:1 137983:1 137987:1 137988:1 137989:1 137990:1 137991:1 137992:1 138004:1 138064:1 138065:1 138074:1 139562:1 139568:1 139634:1 144699:1 144715:1 144722:1 144770:1 144874:1 145024:1 145193:1 145561:1 145564:1 145572:1 145579:1 145589:1 145590:1 145602:1  |EV| 
0.14636283676087325 5785:1 46115:1 91969:1 137403:1 137411:1 137475:1 137525:1 137924:1 137926:1 137927:1 137928:1 137929:1 137930:1 139634:1 144705:1 144713:1 144722:1 144753:1 144871:1 145019:1 145175:1 145557:1 145564:1 145577:1 145578:1 145579:1 145589:1 145610:1  |EV| 
0.38270697635870726 31671:1 75165:1 126101:1 137396:1 137403:1 137573:1 137641:1 137643:1 137829:1 137963:1 137966:1 137979:1 138010:1 138052:1 138298:1 138391:1 138756:1 138976:1 139177:1 139178:1 139618:1 139634:1 144710:1 144722:1 144744:1 144912:1 145027:1 145217:1 145561:1 145564:1 145572:1 145578:1 145579:1 145583:1 145589:1 145590:1 145602:1  |EV| 
0.16733302024552599 12972:1 53815:1 100825:1 137394:1 137396:1 137403:1 137447:1 137630:1 137924:1 138090:1 138422:1 138423:1 138424:1 139634:1 144705:1 144713:1 144722:1 144747:1 144871:1 145019:1 145175:1 145561:1 145564:1 145577:1 145579:1 145589:1 145610:1  |EV| 
-0.068476888217956472 6624:1 47105:1 126705:1 137403:1 137641:1 137643:1 137829:1 137966:1 138052:1 138298:1 138391:1 138756:1 138976:1 139177:1 139634:1 144705:1 144712:1 144722:1 144744:1 144871:1 145019:1 145187:1 145561:1 145564:1 145577:1 145578:1 145579:1 145583:1 145589:1 145590:1 145610:1  |EV| 
-0.10000000000000001 6568:1 47035:1 125144:1 137403:1 137641:1 137643:1 137829:1 137966:1 138052:1 138298:1 138391:1 138756:1 138976:1 139177:1 139634:1 144705:1 144713:1 144722:1 144766:1 144871:1 145019:1 145175:1 145557:1 145568:1 145577:1 145578:1 145579:1 145589:1 145590:1 145594:1 145610:1  |EV| 
-0.042775389673087985 10612:1 65245:1 125459:1 137403:1 137641:1 137643:1 137829:1 137966:1 137967:1 138052:1 138298:1 138391:1 138756:1 138976:1 139177:1 139178:1 139576:1 139634:1 144675:1 144677:1 144687:1 144719:1 144722:1 144723:1 144871:1 145055:1 145203:1 145563:1 145568:1 145572:1 145588:1 145589:1 145590:1 145594:1 145602:1  |EV| 
-0.095909459043028319 29191:1 72315:1 122612:1 137396:1 137403:1 137407:1 137411:1 137413:1 137441:1 138490:1 138674:1 139070:1 139092:1 139093:1 139102:1 139103:1 139104:1 139634:1 144705:1 144713:1 144722:1 144743:1 144871:1 145019:1 145175:1 145561:1 145569:1 145577:1 145579:1 145589:1 145590:1 145610:1  |EV| 
0.28770966575698753 36823:1 80926:1 133240:1 137396:1 137590:1 137941:1 139417:1 139418:1 139595:1 139635:1 144676:1 144678:1 144696:1 144709:1 144722:1 144723:1 144885:1 145019:1 145169:1 145559:1 145570:1 145572:1 145579:1 145599:1 145602:1  |EV| 
-0.02601319486276513 22289:1 64231:1 84551:1 139555:1 139635:1 139642:1 144676:1 144678:1 144679:1 144696:1 144708:1 144722:1 144723:1 144902:1 145019:1 145167:1 145562:1 145570:1 145572:1 145579:1 145585:1 145586:1 145599:1 145602:1  |EV| 
-0.092364302770029272 23760:1 65992:1 115219:1 137403:1 137459:1 137475:1 137580:1 138957:1 139609:1 139635:1 144676:1 144678:1 144696:1 144709:1 144722:1 144723:1 144885:1 145019:1 145169:1 145557:1 145570:1 145572:1 145579:1 145599:1 145602:1  |EV| 
-0.055420125333030229 9582:1 50206:1 96665:1 137975:1 139534:1 139635:1 139643:1 144676:1 144678:1 144696:1 144709:1 144722:1 144723:1 144874:1 145019:1 145169:1 145560:1 145570:1 145572:1 145579:1 145581:1 145599:1 145602:1  |EV| 
-0.03040674658259649 25637:1 68135:1 96665:1 137975:1 139534:1 139635:1 139643:1 144676:1 144678:1 144696:1 144709:1 144722:1 144723:1 144874:1 145019:1 145169:1 145560:1 145570:1 145572:1 145579:1 145581:1 145599:1 145602:1  |EV| 
-0.055420125333029036 32553:1 76166:1 96665:1 137975:1 139534:1 139635:1 139643:1 144676:1 144678:1 144696:1 144709:1 144722:1 144723:1 144874:1 145019:1 145169:1 145560:1 145570:1 145572:1 145579:1 145581:1 145599:1 145602:1  |EV| 
0.24396315802956081 17019:1 58447:1 106042:1 137396:1 137420:1 138628:1 139634:1 144705:1 144713:1 144722:1 144733:1 144871:1 145019:1 145198:1 145561:1 145568:1 145577:1 145579:1 145589:1 145590:1 145596:1 145610:1  |EV| 
0.028012062920875144 14241:1 55183:1 102412:1 137396:1 137411:1 137413:1 137442:1 137482:1 137556:1 137791:1 137829:1 137973:1 138486:1 138496:1 138502:1 138503:1 138508:1 138509:1 138510:1 139634:1 144705:1 144713:1 144722:1 144741:1 144871:1 145019:1 145175:1 145560:1 145564:1 145577:1 145579:1 145581:1 145589:1 145610:1  |EV| 
0.37685747373471135 23418:1 65592:1 114759:1 137403:1 137574:1 137637:1 137741:1 138303:1 139634:1 144690:1 144692:1 144705:1 144712:1 144722:1 144757:1 144871:1 145019:1 145173:1 145562:1 145569:1 145577:1 145579:1 145586:1 145589:1 145610:1  |EV| 
0.16051557349141712 3088:1 43194:1 88639:1 137404:1 137413:1 137475:1 137482:1 137644:1 137705:1 137706:1 137707:1 137708:1 137709:1 137710:1 139634:1 144705:1 144713:1 144722:1 144747:1 144871:1 145019:1 145175:1 145561:1 145564:1 145577:1 145579:1 145589:1 145610:1  |EV| 
0.097793972103772386 3957:1 44154:1 85956:1 137394:1 137403:1 139634:1 142138:1 144705:1 144712:1 144722:1 144734:1 144871:1 145019:1 145173:1 145557:1 145569:1 145577:1 145578:1 145579:1 145589:1 145590:1 145610:1  |EV| 
-0.10000000000000001 34597:1 78507:1 85956:1 137394:1 137403:1 139634:1 142138:1 142140:1 142576:1 144690:1 144705:1 144712:1 144722:1 144734:1 144871:1 145019:1 145173:1 145562:1 145569:1 145577:1 145578:1 145579:1 145589:1 145610:1  |EV| 
-0.00041399473440500263 33808:1 77546:1 128806:1 137403:1 137414:1 137417:1 137421:1 137447:1 137560:1 137562:1 137777:1 138119:1 138251:1 138684:1 139551:1 139634:1 143671:1 144101:1 144711:1 144722:1 144767:1 144884:1 145038:1 145174:1 145561:1 145564:1 145572:1 145579:1 145589:1 145602:1  |EV| 
-0.10000000000000001 32577:1 76192:1 85956:1 137394:1 137403:1 139634:1 142138:1 142253:1 144705:1 144712:1 144722:1 144734:1 144871:1 145019:1 145173:1 145562:1 145569:1 145577:1 145578:1 145579:1 145589:1 145610:1  |EV| 
-0.10000000000000001 14134:1 55071:1 102251:1 137396:1 137411:1 137413:1 137475:1 137924:1 138487:1 138488:1 138489:1 138490:1 138491:1 139634:1 144705:1 144713:1 144722:1 144747:1 144871:1 145019:1 145175:1 145559:1 145564:1 145577:1 145579:1 145589:1 145610:1  |EV| 
-0.062643326922036849 32357:1 75956:1 110551:1 137394:1 137411:1 139634:1 142138:1 144705:1 144712:1 144722:1 144734:1 144871:1 145019:1 145173:1 145562:1 145564:1 145577:1 145578:1 145579:1 145589:1 145610:1  |EV| 
-0.06365424017138506 10216:1 50927:1 97504:1 137558:1 138275:1 139585:1 139635:1 139739:1 144676:1 144678:1 144696:1 144709:1 144722:1 144723:1 144890:1 145019:1 145169:1 145561:1 145570:1 145572:1 145579:1 145599:1 145602:1  |EV| 
-0.074294022944135743 2727:1 43708:1 112330:1 137403:1 138869:1 139551:1 139635:1 144676:1 144678:1 144696:1 144709:1 144722:1 144723:1 144890:1 145019:1 145169:1 145561:1 145570:1 145572:1 145579:1 145583:1 145599:1 145602:1  |EV| 
-0.05780119284550278 12127:1 52940:1 84551:1 139539:1 139635:1 139642:1 144676:1 144678:1 144696:1 144708:1 144722:1 144723:1 144902:1 145019:1 145167:1 145557:1 145570:1 145572:1 145579:1 145583:1 145599:1 145602:1  |EV| 
-0.0036793612531826852 7258:1 47750:1 93618:1 137394:1 137396:1 137403:1 137436:1 137444:1 137475:1 137478:1 137511:1 137513:1 137518:1 137835:1 137956:1 137993:1 137994:1 137995:1 137996:1 138014:1 138015:1 139547:1 139634:1 143689:1 144064:1 144710:1 144722:1 144750:1 144912:1 145025:1 145217:1 145557:1 145564:1 145572:1 145579:1 145589:1 145602:1  |EV| 
-0.0079066366248683306 36205:1 80220:1 93667:1 137394:1 137403:1 139551:1 139634:1 142138:1 144716:1 144722:1 144734:1 144874:1 145034:1 145179:1 145557:1 145564:1 145572:1 145578:1 145579:1 145589:1 145602:1  |EV| 
0.11745496244041834 30918:1 74297:1 85956:1 137394:1 137403:1 139634:1 142138:1 144705:1 144712:1 144722:1 144734:1 144871:1 145019:1 145173:1 145562:1 145564:1 145577:1 145578:1 145579:1 145583:1 145589:1 145610:1  |EV| 
0.076198652189148883 13991:1 54923:1 85956:1 137394:1 137403:1 139634:1 142138:1 142321:1 144688:1 144705:1 144712:1 144722:1 144734:1 144871:1 145019:1 145173:1 145562:1 145569:1 145577:1 145579:1 145586:1 145589:1 145610:1  |EV| 
0.45710527883562813 11098:1 51848:1 98076:1 137394:1 137411:1 137431:1 138281:1 139634:1 142138:1 144705:1 144712:1 144722:1 144765:1 144871:1 145019:1 145173:1 145557:1 145564:1 145577:1 145578:1 145579:1 145589:1 145610:1  |EV| 
0.46504483214718539 26664:1 69311:1 119065:1 137394:1 137411:1 137979:1 138303:1 139041:1 139634:1 142138:1 144705:1 144712:1 144722:1 144757:1 144871:1 145019:1 145173:1 145562:1 145569:1 145577:1 145579:1 145589:1 145610:1  |EV| 
0.20572426297947385 5256:1 45551:1 85956:1 137394:1 137403:1 139634:1 142138:1 144705:1 144712:1 144722:1 144734:1 144871:1 145019:1 145173:1 145557:1 145564:1 145577:1 145578:1 145579:1 145584:1 145589:1 145610:1  |EV| 
-0.10000000000000001 4690:1 44947:1 85956:1 137394:1 137403:1 139634:1 142138:1 144705:1 144712:1 144722:1 144734:1 144871:1 145019:1 145173:1 145557:1 145564:1 145577:1 145578:1 145579:1 145582:1 145589:1 145610:1  |EV| 
-0.10000000000000001 16202:1 57432:1 85956:1 137394:1 137403:1 139634:1 142138:1 144705:1 144712:1 144722:1 144734:1 144871:1 145019:1 145173:1 145557:1 145569:1 145577:1 145578:1 145579:1 145589:1 145610:1  |EV| 
-0.10000000000000001 37309:1 81467:1 85956:1 137394:1 137403:1 139634:1 142138:1 144705:1 144712:1 144722:1 144734:1 144871:1 145019:1 145173:1 145557:1 145569:1 145577:1 145578:1 145579:1 145589:1 145610:1  |EV| 
-0.10000000000000001 20629:1 62374:1 85956:1 137394:1 137403:1 139634:1 142138:1 144705:1 144712:1 144722:1 144734:1 144871:1 145019:1 145173:1 145557:1 145568:1 145577:1 145578:1 145579:1 145582:1 145589:1 145610:1  |EV| 
-0.10000000000000001 38710:1 83084:1 85956:1 137394:1 137403:1 139634:1 142138:1 144705:1 144712:1 144722:1 144734:1 144871:1 145019:1 145173:1 145557:1 145569:1 145577:1 145579:1 145582:1 145589:1 145610:1  |EV| 
-0.10000000000000001 12938:1 53776:1 100786:1 137475:1 137630:1 138394:1 139542:1 139635:1 144676:1 144678:1 144696:1 144708:1 144722:1 144723:1 144872:1 145019:1 145167:1 145562:1 145570:1 145572:1 145579:1 145599:1 145602:1  |EV| 
-0.10000000000000001 31437:1 74893:1 85467:1 137396:1 139601:1 139635:1 139642:1 144676:1 144678:1 144696:1 144708:1 144722:1 144723:1 144877:1 145019:1 145167:1 145562:1 145570:1 145572:1 145579:1 145599:1 145602:1  |EV| 
0.064590460660600174 19822:1 61465:1 109562:1 137413:1 137934:1 139556:1 139634:1 142147:1 144711:1 144722:1 144724:1 144902:1 145038:1 145185:1 145562:1 145564:1 145572:1 145578:1 145579:1 145589:1 145602:1  |EV| 
-0.082924783329345608 5694:1 46016:1 91863:1 137525:1 139560:1 139635:1 139682:1 144676:1 144678:1 144696:1 144708:1 144722:1 144723:1 144877:1 145019:1 145167:1 145562:1 145570:1 145572:1 145579:1 145599:1 145602:1  |EV| 
-0.10000000000000001 23237:1 65366:1 114515:1 137637:1 137741:1 139595:1 139635:1 144676:1 144678:1 144696:1 144708:1 144722:1 144723:1 144882:1 145019:1 145167:1 145562:1 145570:1 145572:1 145579:1 145586:1 145599:1  |EV| 
0.11891945630558524 36333:1 80364:1 85956:1 137394:1 137403:1 139634:1 142138:1 144705:1 144712:1 144722:1 144734:1 144871:1 145019:1 145173:1 145557:1 145569:1 145577:1 145579:1 145582:1 145589:1 145610:1  |EV| 
0.22280098588605032 31646:1 75133:1 85956:1 137394:1 137403:1 139634:1 142138:1 144705:1 144712:1 144722:1 144734:1 144871:1 145019:1 145173:1 145557:1 145569:1 145577:1 145578:1 145579:1 145589:1 145610:1  |EV| 
0.2747783688065587 31270:1 74693:1 85956:1 137394:1 137403:1 139634:1 142138:1 142321:1 144692:1 144705:1 144712:1 144722:1 144734:1 144871:1 145019:1 145173:1 145557:1 145569:1 145577:1 145578:1 145579:1 145589:1 145610:1  |EV| 
0.082937320110084908 10508:1 51230:1 85956:1 137394:1 137403:1 139634:1 142138:1 144705:1 144712:1 144722:1 144734:1 144871:1 145019:1 145173:1 145557:1 145564:1 145577:1 145579:1 145582:1 145589:1 145610:1  |EV| 
0.20573376317195635 29708:1 72908:1 85956:1 137394:1 137403:1 139634:1 142138:1 144705:1 144712:1 144722:1 144734:1 144871:1 145019:1 145173:1 145557:1 145564:1 145577:1 145578:1 145579:1 145584:1 145589:1 145610:1  |EV| 
-0.10000000000000001 39588:1 84032:1 85956:1 137394:1 137403:1 139634:1 142138:1 144705:1 144712:1 144722:1 144734:1 144871:1 145019:1 145173:1 145557:1 145564:1 145577:1 145578:1 145579:1 145584:1 145589:1 145610:1  |EV| 
-0.10000000000000001 36128:1 80130:1 85956:1 137394:1 137403:1 139634:1 142138:1 144705:1 144712:1 144722:1 144734:1 144871:1 145019:1 145173:1 145557:1 145564:1 145577:1 145578:1 145579:1 145589:1 145610:1  |EV| 
-0.10000000000000001 35171:1 79132:1 85956:1 137394:1 137403:1 139634:1 142138:1 144705:1 144712:1 144722:1 144734:1 144871:1 145019:1 145173:1 145557:1 145569:1 145577:1 145579:1 145589:1 145610:1  |EV| 
-0.10000000000000001 8453:1 48995:1 85956:1 137394:1 137403:1 139634:1 142138:1 142253:1 144692:1 144705:1 144712:1 144722:1 144734:1 144871:1 145019:1 145173:1 145557:1 145564:1 145577:1 145579:1 145589:1 145610:1  |EV| 
-0.10000000000000001 36052:1 80051:1 85467:1 137396:1 139562:1 139635:1 139642:1 144676:1 144678:1 144696:1 144708:1 144722:1 144723:1 144877:1 145019:1 145167:1 145557:1 145570:1 145572:1 145578:1 145579:1 145599:1 145602:1  |EV| 
-0.10000000000000001 16180:1 57408:1 85467:1 137396:1 139539:1 139635:1 144676:1 144678:1 144696:1 144708:1 144722:1 144723:1 144877:1 145019:1 145167:1 145557:1 145570:1 145572:1 145579:1 145599:1 145602:1  |EV| 
-0.10000000000000001 19466:1 61079:1 100295:1 137976:1 139563:1 139635:1 144676:1 144678:1 144696:1 144708:1 144722:1 144723:1 144877:1 145019:1 145167:1 145561:1 145570:1 145572:1 145579:1 145599:1 145602:1  |EV| 
0.070513962737754496 22927:1 65015:1 85956:1 137394:1 137403:1 139634:1 142138:1 144705:1 144712:1 144722:1 144734:1 144871:1 145019:1 145173:1 145562:1 145564:1 145577:1 145579:1 145582:1 145589:1 145610:1  |EV| 
0.18634372079212486 1294:1 41339:1 85956:1 137394:1 137403:1 139634:1 142138:1 144705:1 144712:1 144722:1 144734:1 144871:1 145019:1 145173:1 145557:1 145564:1 145577:1 145578:1 145579:1 145589:1 145610:1  |EV| 
0.1867816531095349 7569:1 48061:1 85956:1 137394:1 137403:1 139634:1 142138:1 144705:1 144712:1 144722:1 144734:1 144871:1 145019:1 145173:1 145557:1 145564:1 145577:1 145578:1 145579:1 145589:1 145610:1  |EV| 
0.18679911588459475 10596:1 51326:1 85956:1 137394:1 137403:1 139634:1 142138:1 144705:1 144712:1 144722:1 144734:1 144871:1 145019:1 145173:1 145557:1 145564:1 145577:1 145578:1 145579:1 145589:1 145610:1  |EV| 
-0.072968506757822404 1475:1 41521:1 86507:1 137394:1 137403:1 137436:1 137478:1 137500:1 137509:1 137510:1 137511:1 137529:1 139547:1 139634:1 139839:1 143690:1 144046:1 144715:1 144722:1 144747:1 144890:1 145058:1 145188:1 145557:1 145564:1 145572:1 145579:1 145589:1 145590:1 145602:1  |EV| 
-0.060152083443885347 13475:1 54359:1 101396:1 137403:1 137421:1 137703:1 139634:1 142138:1 142253:1 144688:1 144705:1 144712:1 144722:1 144724:1 144871:1 145019:1 145173:1 145559:1 145564:1 145577:1 145579:1 145589:1 145610:1  |EV| 
-0.10000000000000001 39345:1 83781:1 84551:1 139551:1 139635:1 144676:1 144678:1 144696:1 144708:1 144722:1 144723:1 144902:1 145019:1 145167:1 145557:1 145570:1 145572:1 145579:1 145599:1 145602:1  |EV| 
-0.0017322386441982348 18514:1 60009:1 107748:1 137394:1 137395:1 137396:1 137403:1 137440:1 137607:1 137703:1 137717:1 137767:1 139535:1 139634:1 142155:1 142464:1 144692:1 144711:1 144722:1 144758:1 144904:1 145034:1 145208:1 145559:1 145564:1 145572:1 145579:1 145589:1 145602:1  |EV| 
-0.099373532661144848 2834:1 42914:1 88267:1 137475:1 137482:1 137548:1 137692:1 139552:1 139553:1 139635:1 139779:1 139960:1 144676:1 144678:1 144696:1 144708:1 144722:1 144723:1 144913:1 145019:1 145167:1 145557:1 145570:1 145572:1 145579:1 145599:1 145602:1  |EV| 
-0.081043497968769071 23707:1 65933:1 115153:1 137425:1 137482:1 137560:1 139535:1 139634:1 143671:1 144020:1 144692:1 144714:1 144721:1 144733:1 144885:1 145048:1 145177:1 145559:1 145564:1 145572:1 145579:1 145589:1 145602:1  |EV| 
0.18679911588459164 31539:1 75005:1 85956:1 137394:1 137403:1 139634:1 142138:1 144705:1 144712:1 144722:1 144734:1 144871:1 145019:1 145173:1 145557:1 145564:1 145577:1 145578:1 145579:1 145589:1 145610:1  |EV| 
0.18678165310953726 36575:1 80647:1 85956:1 137394:1 137403:1 139634:1 142138:1 144705:1 144712:1 144722:1 144734:1 144871:1 145019:1 145173:1 145557:1 145564:1 145577:1 145578:1 145579:1 145589:1 145610:1  |EV| 
0.36328870942036001 31617:1 75095:1 92777:1 137396:1 137403:1 139634:1 144705:1 144712:1 144722:1 144734:1 144871:1 145019:1 145173:1 145561:1 145564:1 145577:1 145579:1 145589:1 145598:1 145610:1  |EV| 
-0.10000000000000001 15483:1 56579:1 85956:1 137394:1 137403:1 139634:1 142138:1 144705:1 144712:1 144722:1 144734:1 144871:1 145019:1 145173:1 145562:1 145569:1 145577:1 145579:1 145582:1 145589:1 145610:1  |EV| 
-0.093999523929369541 6590:1 47062:1 88110:1 137403:1 137447:1 139634:1 142138:1 144705:1 144712:1 144722:1 144734:1 144871:1 145019:1 145173:1 145562:1 145564:1 145577:1 145578:1 145579:1 145589:1 145610:1  |EV| 
-0.063450197064846295 26457:1 69095:1 118839:1 137396:1 137403:1 137613:1 138303:1 139634:1 144705:1 144712:1 144722:1 144765:1 144871:1 145019:1 145173:1 145557:1 145564:1 145577:1 145579:1 145582:1 145589:1 145610:1  |EV| 
-0.10000000000000001 24484:1 66803:1 116289:1 137403:1 138472:1 139634:1 142138:1 144705:1 144712:1 144722:1 144734:1 144871:1 145019:1 145173:1 145559:1 145564:1 145577:1 145579:1 145589:1 145610:1  |EV| 
-0.033185103522489226 27596:1 70457:1 120385:1 137394:1 137403:1 137407:1 137436:1 137475:1 137511:1 137966:1 139065:1 139068:1 139542:1 139634:1 143671:1 144072:1 144714:1 144721:1 144753:1 144914:1 145022:1 145183:1 145557:1 145564:1 145572:1 145579:1 145589:1 145602:1  |EV| 
-0.10000000000000001 26600:1 69243:1 84653:1 139551:1 139635:1 139636:1 144676:1 144678:1 144696:1 144709:1 144722:1 144723:1 144900:1 145019:1 145169:1 145557:1 145570:1 145572:1 145578:1 145579:1 145599:1 145602:1  |EV| 
-0.10000000000000001 30399:1 73676:1 85467:1 137396:1 139615:1 139635:1 144676:1 144678:1 144696:1 144708:1 144722:1 144723:1 144877:1 145019:1 145167:1 145561:1 145570:1 145572:1 145579:1 145599:1 145602:1  |EV| 
0.28946749971118441 6066:1 46424:1 88110:1 137403:1 137447:1 139634:1 142138:1 142209:1 142253:1 142494:1 142495:1 142496:1 144688:1 144705:1 144712:1 144722:1 144734:1 144871:1 145019:1 145173:1 145559:1 145564:1 145577:1 145579:1 145589:1 145610:1  |EV| 
0.10600253196743439 27369:1 70166:1 85956:1 137394:1 137403:1 139634:1 142138:1 144705:1 144712:1 144722:1 144734:1 144871:1 145019:1 145173:1 145562:1 145569:1 145577:1 145579:1 145589:1 145590:1 145610:1  |EV| 
0.31813895122563346 6602:1 56312:1 103605:1 137411:1 137420:1 137446:1 137447:1 137557:1 137623:1 138208:1 138562:1 139634:1 142469:1 144705:1 144712:1 144722:1 144762:1 144871:1 145019:1 145173:1 145562:1 145569:1 145577:1 145579:1 145586:1 145589:1 145610:1  |EV| 
0.42989767618826735 31059:1 74450:1 92231:1 137459:1 139634:1 142138:1 144705:1 144712:1 144722:1 144729:1 144871:1 145019:1 145173:1 145561:1 145564:1 145577:1 145579:1 145589:1 145610:1  |EV| 
-0.10000000000000001 23068:1 65175:1 85179:1 137394:1 139634:1 142138:1 144705:1 144712:1 144722:1 144729:1 144871:1 145019:1 145173:1 145562:1 145564:1 145577:1 145579:1 145586:1 145589:1 145598:1 145610:1  |EV| 
-0.10000000000000001 11584:1 52371:1 85179:1 137394:1 139634:1 142138:1 144705:1 144712:1 144722:1 144729:1 144871:1 145019:1 145173:1 145562:1 145564:1 145577:1 145579:1 145589:1 145610:1  |EV| 
-0.10000000000000001 31059:1 74450:1 85740:1 137407:1 139634:1 142138:1 144705:1 144712:1 144722:1 144729:1 144871:1 145019:1 145173:1 145561:1 145564:1 145577:1 145579:1 145589:1 145610:1  |EV| 
-0.10000000000000001 35089:1 79039:1 85179:1 137394:1 139634:1 142138:1 144705:1 144712:1 144722:1 144729:1 144871:1 145019:1 145173:1 145557:1 145564:1 145577:1 145579:1 145589:1 145596:1 145610:1  |EV| 
-0.10000000000000001 25846:1 68371:1 87189:1 137447:1 139634:1 142138:1 144705:1 144712:1 144722:1 144729:1 144871:1 145019:1 145173:1 145562:1 145564:1 145577:1 145579:1 145586:1 145589:1 145610:1  |EV| 
-0.083065677131333338 21662:1 63542:1 112340:1 137442:1 138870:1 139535:1 139634:1 144717:1 144722:1 144742:1 144902:1 145020:1 145218:1 145559:1 145564:1 145572:1 145579:1 145589:1 145602:1  |EV| 
-0.082102802311357956 34349:1 78238:1 129890:1 137394:1 137396:1 137403:1 137413:1 137475:1 137596:1 137767:1 138101:1 138320:1 138480:1 138729:1 139539:1 139634:1 143671:1 144032:1 144711:1 144722:1 144759:1 144892:1 145022:1 145174:1 145557:1 145569:1 145572:1 145578:1 145579:1 145589:1 145602:1  |EV| 
-0.10000000000000001 2315:1 42373:1 87548:1 137403:1 137411:1 137442:1 137604:1 137605:1 137606:1 139534:1 139635:1 144676:1 144678:1 144696:1 144709:1 144722:1 144723:1 144903:1 145019:1 145169:1 145557:1 145570:1 145572:1 145579:1 145599:1 145602:1  |EV| 
-0.029722032317692021 3048:1 43147:1 84551:1 139555:1 139635:1 139642:1 144676:1 144678:1 144696:1 144708:1 144722:1 144723:1 144902:1 145019:1 145167:1 145562:1 145570:1 145572:1 145579:1 145599:1 145602:1  |EV| 
0.1082736176043072 6497:1 46960:1 92925:1 137396:1 137970:1 139538:1 139545:1 139634:1 142526:1 144697:1 144715:1 144722:1 144738:1 144874:1 145025:1 145207:1 145562:1 145569:1 145572:1 145579:1 145589:1 145597:1 145602:1  |EV| 
0.12439496492309171 8925:1 49495:1 85179:1 137394:1 139634:1 142138:1 144705:1 144712:1 144722:1 144729:1 144871:1 145019:1 145173:1 145562:1 145564:1 145577:1 145579:1 145586:1 145589:1 145610:1  |EV| 
0.23660055609881953 22926:1 65014:1 85179:1 137394:1 139634:1 142138:1 142253:1 144692:1 144705:1 144712:1 144722:1 144729:1 144871:1 145019:1 145173:1 145559:1 145564:1 145577:1 145579:1 145589:1 145610:1  |EV| 
0.099122181801648696 1556:1 41602:1 85179:1 137394:1 139634:1 142138:1 144705:1 144712:1 144722:1 144729:1 144871:1 145019:1 145173:1 145562:1 145564:1 145577:1 145579:1 145589:1 145610:1  |EV| 
0.099122181801649833 7155:1 47647:1 85179:1 137394:1 139634:1 142138:1 144705:1 144712:1 144722:1 144729:1 144871:1 145019:1 145173:1 145562:1 145564:1 145577:1 145579:1 145589:1 145610:1  |EV| 
0.19827201880323364 29426:1 72594:1 85179:1 137394:1 139634:1 142138:1 144705:1 144712:1 144722:1 144729:1 144871:1 145019:1 145173:1 145562:1 145564:1 145577:1 145578:1 145579:1 145589:1 145610:1  |EV| 
-0.10000000000000001 36641:1 80721:1 85179:1 137394:1 139634:1 142138:1 142253:1 144690:1 144692:1 144705:1 144712:1 144722:1 144729:1 144871:1 145019:1 145173:1 145557:1 145564:1 145577:1 145579:1 145582:1 145589:1 145610:1  |EV| 
-0.10000000000000001 23609:1 65824:1 85179:1 137394:1 139634:1 142138:1 142253:1 144692:1 144705:1 144712:1 144722:1 144729:1 144871:1 145019:1 145173:1 145557:1 145564:1 145577:1 145578:1 145579:1 145589:1 145610:1  |EV| 
-0.10000000000000001 22981:1 65073:1 85179:1 137394:1 139634:1 142138:1 142253:1 144688:1 144692:1 144705:1 144712:1 144722:1 144729:1 144871:1 145019:1 145173:1 145557:1 145564:1 145577:1 145579:1 145587:1 145589:1 145610:1  |EV| 
-0.0027046112569901102 39041:1 83460:1 136064:1 139494:1 139540:1 139542:1 139635:1 140030:1 141184:1 144676:1 144678:1 144696:1 144699:1 144708:1 144722:1 144723:1 144877:1 145019:1 145167:1 145560:1 145570:1 145572:1 145579:1 145581:1 145599:1 145602:1  |EV| 
-0.10000000000000001 32916:1 76580:1 127706:1 137975:1 137976:1 139534:1 139635:1 139643:1 144676:1 144678:1 144696:1 144709:1 144722:1 144723:1 144890:1 145019:1 145169:1 145559:1 145570:1 145572:1 145579:1 145599:1 145602:1  |EV| 
-0.10000000000000001 13716:1 54618:1 101695:1 137403:1 137604:1 139534:1 139635:1 139643:1 144676:1 144678:1 144696:1 144709:1 144722:1 144723:1 144890:1 145019:1 145169:1 145559:1 145570:1 145572:1 145579:1 145599:1 145602:1  |EV| 
-0.00554764005554635 29757:1 72964:1 124023:1 137394:1 137396:1 137403:1 137407:1 137436:1 137596:1 138334:1 138707:1 139108:1 139109:1 139128:1 139538:1 139569:1 139634:1 141614:1 141615:1 142234:1 143954:1 143955:1 144527:1 144528:1 144699:1 144701:1 144717:1 144722:1 144743:1 144902:1 145028:1 145180:1 145559:1 145569:1 145572:1 145579:1 145589:1 145590:1 145602:1  |EV| 
0.29992196600447163 31152:1 74553:1 85179:1 137394:1 139634:1 142138:1 142253:1 144688:1 144705:1 144712:1 144722:1 144729:1 144871:1 145019:1 145173:1 145557:1 145564:1 145577:1 145578:1 145579:1 145584:1 145589:1 145610:1  |EV| 
0.14992981781272782 7136:1 47628:1 85179:1 137394:1 139634:1 142138:1 142253:1 144705:1 144712:1 144722:1 144729:1 144871:1 145019:1 145173:1 145557:1 145564:1 145577:1 145578:1 145579:1 145589:1 145610:1  |EV| 
0.11790482538374773 17795:1 59236:1 85179:1 137394:1 139634:1 142138:1 142253:1 144692:1 144705:1 144712:1 144722:1 144729:1 144871:1 145019:1 145173:1 145557:1 145564:1 145577:1 145579:1 145585:1 145589:1 145610:1  |EV| 
0.21074578098125166 10653:1 51383:1 85179:1 137394:1 139634:1 142138:1 144705:1 144712:1 144722:1 144729:1 144871:1 145019:1 145173:1 145557:1 145564:1 145577:1 145578:1 145579:1 145589:1 145610:1  |EV| 
0.21072974569737596 29371:1 72536:1 85179:1 137394:1 139634:1 142138:1 144705:1 144712:1 144722:1 144729:1 144871:1 145019:1 145173:1 145557:1 145564:1 145577:1 145578:1 145579:1 145589:1 145610:1  |EV| 
-0.10000000000000001 14290:1 55233:1 85179:1 137394:1 139634:1 142138:1 142253:1 144705:1 144712:1 144722:1 144729:1 144871:1 145019:1 145173:1 145557:1 145564:1 145577:1 145578:1 145579:1 145584:1 145589:1 145610:1  |EV| 
-0.10000000000000001 34575:1 78482:1 85179:1 137394:1 139634:1 142138:1 142253:1 144688:1 144705:1 144712:1 144722:1 144729:1 144871:1 145019:1 145173:1 145557:1 145564:1 145577:1 145578:1 145579:1 145589:1 145610:1  |EV| 
-0.10000000000000001 874:1 40919:1 85179:1 137394:1 139634:1 142138:1 144705:1 144712:1 144722:1 144729:1 144871:1 145019:1 145173:1 145557:1 145564:1 145577:1 145578:1 145579:1 145584:1 145589:1 145610:1  |EV| 
-0.10000000000000001 39923:1 84380:1 85179:1 137394:1 139634:1 142138:1 144705:1 144712:1 144722:1 144729:1 144871:1 145019:1 145173:1 145557:1 145564:1 145577:1 145578:1 145579:1 145584:1 145589:1 145610:1  |EV| 
-0.10000000000000001 24511:1 66830:1 85179:1 137394:1 139634:1 142138:1 144705:1 144712:1 144722:1 144729:1 144871:1 145019:1 145173:1 145557:1 145564:1 145577:1 145578:1 145579:1 145589:1 145590:1 145610:1  |EV| 
-0.013891374737562837 18064:1 59523:1 85856:1 137411:1 139603:1 139634:1 139636:1 143671:1 144392:1 144675:1 144677:1 144687:1 144718:1 144722:1 144723:1 144871:1 145022:1 145200:1 145563:1 145564:1 145572:1 145588:1 145589:1 145602:1  |EV| 
-0.02973706620055911 39040:1 83459:1 136063:1 137394:1 137411:1 137457:1 137660:1 137680:1 139534:1 139635:1 139643:1 144676:1 144678:1 144696:1 144709:1 144722:1 144723:1 144885:1 145019:1 145169:1 145559:1 145570:1 145572:1 145579:1 145599:1 145602:1  |EV| 
-0.0086366099557797418 25180:1 75122:1 126046:1 137403:1 138165:1 139534:1 139635:1 139643:1 144676:1 144678:1 144696:1 144709:1 144722:1 144723:1 144890:1 145019:1 145169:1 145559:1 145570:1 145572:1 145579:1 145599:1 145602:1  |EV| 
-0.10000000000000001 28171:1 71095:1 121129:1 137396:1 137801:1 137935:1 137950:1 139535:1 139634:1 143671:1 144020:1 144681:1 144685:1 144714:1 144721:1 144738:1 144885:1 145048:1 145177:1 145559:1 145564:1 145572:1 145579:1 145589:1 145602:1  |EV| 
0.37363552151682455 36883:1 80994:1 87297:1 137558:1 139634:1 142138:1 144705:1 144712:1 144722:1 144729:1 144871:1 145019:1 145173:1 145560:1 145564:1 145577:1 145579:1 145581:1 145589:1 145590:1 145598:1 145610:1  |EV| 
0.11114597102016174 10287:1 51000:1 85179:1 137394:1 139634:1 142138:1 144705:1 144712:1 144722:1 144729:1 144871:1 145019:1 145173:1 145557:1 145564:1 145577:1 145579:1 145589:1 145610:1  |EV| 
0.11114597102016226 10320:1 51034:1 85179:1 137394:1 139634:1 142138:1 144705:1 144712:1 144722:1 144729:1 144871:1 145019:1 145173:1 145557:1 145564:1 145577:1 145579:1 145589:1 145610:1  |EV| 
-0.10000000000000001 33697:1 77429:1 85179:1 137394:1 139634:1 142138:1 144705:1 144712:1 144722:1 144729:1 144871:1 145019:1 145173:1 145557:1 145564:1 145577:1 145579:1 145582:1 145589:1 145610:1  |EV| 
-0.10000000000000001 6181:1 46574:1 85179:1 137394:1 139634:1 142138:1 144705:1 144712:1 144722:1 144729:1 144871:1 145019:1 145173:1 145557:1 145564:1 145577:1 145579:1 145589:1 145610:1  |EV| 
-0.10000000000000001 507:1 40550:1 85179:1 137394:1 139634:1 142138:1 144705:1 144712:1 144722:1 144729:1 144871:1 145019:1 145173:1 145557:1 145564:1 145577:1 145578:1 145579:1 145589:1 145610:1  |EV| 
-0.10000000000000001 6277:1 46699:1 85179:1 137394:1 139634:1 142138:1 144705:1 144712:1 144722:1 144729:1 144871:1 145019:1 145173:1 145557:1 145564:1 145577:1 145578:1 145579:1 145589:1 145610:1  |EV| 
-0.10000000000000001 24205:1 66501:1 85179:1 137394:1 139634:1 142138:1 144705:1 144712:1 144722:1 144729:1 144871:1 145019:1 145173:1 145557:1 145564:1 145577:1 145578:1 145579:1 145589:1 145610:1  |EV| 
-0.049438774393437329 8662:1 49217:1 95235:1 137403:1 138134:1 139534:1 139635:1 139643:1 144676:1 144678:1 144696:1 144709:1 144722:1 144723:1 144890:1 145019:1 145169:1 145560:1 145570:1 145572:1 145579:1 145581:1 145599:1 145602:1  |EV| 
-0.10000000000000001 9709:1 50335:1 96545:1 137792:1 138246:1 139534:1 139635:1 139643:1 144676:1 144678:1 144696:1 144709:1 144722:1 144723:1 144890:1 145019:1 145169:1 145560:1 145570:1 145572:1 145579:1 145581:1 145599:1 145602:1  |EV| 
-0.10000000000000001 37294:1 81449:1 133834:1 137396:1 137410:1 137411:1 137590:1 137941:1 138577:1 139595:1 139634:1 144714:1 144721:1 144742:1 144920:1 145033:1 145177:1 145562:1 145564:1 145572:1 145579:1 145589:1 145590:1 145602:1  |EV| 
-0.023667512119970011 32430:1 76039:1 84509:1 137403:1 139551:1 139635:1 139636:1 144676:1 144678:1 144696:1 144709:1 144722:1 144723:1 144874:1 145019:1 145169:1 145562:1 145570:1 145572:1 145578:1 145579:1 145599:1 145602:1  |EV| 
-0.0093448601682383798 22123:1 64051:1 113075:1 138861:1 139539:1 139635:1 144676:1 144678:1 144696:1 144708:1 144722:1 144723:1 144877:1 145019:1 145167:1 145557:1 145570:1 145572:1 145579:1 145599:1 145602:1  |EV| 
0.10687425082766563 3667:1 43836:1 85179:1 137394:1 139634:1 142138:1 144705:1 144712:1 144722:1 144729:1 144871:1 145019:1 145173:1 145557:1 145564:1 145577:1 145579:1 145582:1 145589:1 145610:1  |EV| 
0.10687425082766668 13909:1 54835:1 85179:1 137394:1 139634:1 142138:1 144705:1 144712:1 144722:1 144729:1 144871:1 145019:1 145173:1 145557:1 145564:1 145577:1 145579:1 145582:1 145589:1 145610:1  |EV| 
0.10687425082766783 21121:1 62916:1 85179:1 137394:1 139634:1 142138:1 144705:1 144712:1 144722:1 144729:1 144871:1 145019:1 145173:1 145557:1 145564:1 145577:1 145579:1 145582:1 145589:1 145610:1  |EV| 
0.11114597102016063 12476:1 53304:1 85179:1 137394:1 139634:1 142138:1 144705:1 144712:1 144722:1 144729:1 144871:1 145019:1 145173:1 145557:1 145564:1 145577:1 145579:1 145589:1 145610:1  |EV| 
0.11114211086569213 12663:1 53493:1 85179:1 137394:1 139634:1 142138:1 144705:1 144712:1 144722:1 144729:1 144871:1 145019:1 145173:1 145557:1 145564:1 145577:1 145579:1 145589:1 145610:1  |EV| 
-0.10000000000000001 410:1 40453:1 85179:1 137394:1 139634:1 142138:1 144705:1 144712:1 144722:1 144729:1 144871:1 145019:1 145173:1 145557:1 145564:1 145577:1 145578:1 145579:1 145589:1 145610:1  |EV| 
-0.10000000000000001 38045:1 82305:1 85179:1 137394:1 139634:1 142138:1 144705:1 144712:1 144722:1 144729:1 144871:1 145019:1 145173:1 145557:1 145564:1 145577:1 145578:1 145579:1 145589:1 145610:1  |EV| 
0.26757542484606706 27764:1 70650:1 120607:1 137396:1 137403:1 137407:1 137411:1 137413:1 137441:1 138490:1 139070:1 139092:1 139093:1 139102:1 139103:1 139104:1 139602:1 139634:1 144715:1 144722:1 144743:1 144881:1 145040:1 145178:1 145561:1 145569:1 145572:1 145579:1 145589:1 145590:1 145602:1  |EV| 
0.36727167302717223 17085:1 58517:1 87661:1 137396:1 137403:1 139535:1 139634:1 143671:1 144020:1 144714:1 144721:1 144726:1 144881:1 145022:1 145177:1 145561:1 145568:1 145572:1 145579:1 145583:1 145589:1 145602:1  |EV| 
0.60000000000000009 36772:1 80865:1 84563:1 137403:1 139535:1 139634:1 139636:1 143671:1 144020:1 144675:1 144677:1 144687:1 144691:1 144692:1 144718:1 144722:1 144723:1 144871:1 145022:1 145200:1 145563:1 145564:1 145572:1 145588:1 145589:1 145602:1  |EV| 
0.30853239639672275 35105:1 79059:1 131292:1 137396:1 137403:1 137459:1 137726:1 137729:1 137733:1 137741:1 139288:1 139289:1 139291:1 139306:1 139535:1 139634:1 143671:1 144020:1 144714:1 144721:1 144771:1 144887:1 145048:1 145183:1 145562:1 145564:1 145572:1 145579:1 145589:1 145590:1 145602:1  |EV| 
-0.02309896536461456 19307:1 60906:1 108889:1 137396:1 137413:1 137503:1 137623:1 137695:1 137953:1 137975:1 138101:1 138162:1 138353:1 138485:1 138724:1 139578:1 139634:1 143671:1 144420:1 144714:1 144721:1 144747:1 144919:1 145022:1 145183:1 145561:1 145569:1 145572:1 145579:1 145589:1 145602:1  |EV| 
-0.10000000000000001 7346:1 47838:1 93689:1 137396:1 137403:1 137411:1 137447:1 137475:1 137492:1 137518:1 137658:1 137898:1 137912:1 137930:1 137947:1 138031:1 138032:1 138033:1 139571:1 139634:1 143671:1 144178:1 144714:1 144721:1 144740:1 144926:1 145022:1 145183:1 145559:1 145569:1 145572:1 145579:1 145589:1 145602:1  |EV| 
-0.10000000000000001 35104:1 79058:1 131633:1 137396:1 137403:1 137407:1 137464:1 137475:1 137725:1 137726:1 137729:1 137733:1 137741:1 138779:1 138798:1 139288:1 139289:1 139306:1 139553:1 139621:1 139634:1 144715:1 144722:1 144761:1 144920:1 145032:1 145194:1 145562:1 145564:1 145572:1 145579:1 145589:1 145602:1  |EV| 
-0.066757514199116991 25272:1 67694:1 117497:1 137396:1 137403:1 137407:1 137550:1 137956:1 138216:1 138217:1 139535:1 139634:1 143671:1 144020:1 144711:1 144722:1 144762:1 144904:1 145022:1 145185:1 145561:1 145564:1 145572:1 145579:1 145589:1 145602:1  |EV| 
-0.10000000000000001 35109:1 79063:1 131635:1 137396:1 137403:1 137459:1 137464:1 137475:1 137725:1 137726:1 137729:1 137733:1 137741:1 138779:1 138798:1 139288:1 139289:1 139291:1 139306:1 139535:1 139634:1 144715:1 144722:1 144761:1 144887:1 145053:1 145215:1 145562:1 145564:1 145572:1 145579:1 145589:1 145602:1  |EV| 
0.10539799314801807 13494:1 54378:1 85179:1 137394:1 139634:1 142253:1 144705:1 144712:1 144722:1 144729:1 144871:1 145019:1 145173:1 145557:1 145564:1 145577:1 145578:1 145579:1 145582:1 145589:1 145610:1  |EV| 
0.25825417746683971 4997:1 45276:1 91072:1 137396:1 137403:1 137411:1 137475:1 137482:1 137567:1 137808:1 137825:1 137829:1 137830:1 137831:1 137865:1 139554:1 139634:1 142143:1 144714:1 144721:1 144771:1 144891:1 145038:1 145183:1 145561:1 145564:1 145572:1 145579:1 145589:1 145602:1  |EV| 
